#edges = (np.linspace(1, 41, 41), np.linspace(-1, 1, 21))
#s_low s_high mu_low mu_high s mu corr
1 2 -1 -0.9 1.545499 -0.95 -1.26086956522
1 2 -0.9 -0.8 1.500072 -0.85 0.166666666667
1 2 -0.8 -0.7 1.59512 -0.75 3.08
1 2 -0.7 -0.6 1.618489 -0.65 0.354838709677
1 2 -0.6 -0.5 1.579359 -0.55 -2.04761904762
1 2 -0.5 -0.4 1.713047 -0.45 1.30769230769
1 2 -0.4 -0.3 1.558954 -0.35 -1
1 2 -0.3 -0.2 1.504002 -0.25 0.764705882353
1 2 -0.2 -0.1 1.666947 -0.15 -0.565217391304
1 2 -0.1 0 1.617117 -0.05 0.151515151515
1 2 0 0.1 1.567906 0.05 0.851851851852
1 2 0.1 0.2 1.579759 0.15 1.8
1 2 0.2 0.3 1.698229 0.25 2.14285714286
1 2 0.3 0.4 1.637245 0.35 0.448275862069
1 2 0.4 0.5 1.650581 0.45 -0.6
1 2 0.5 0.6 1.729759 0.55 1
1 2 0.6 0.7 1.648054 0.65 0.304347826087
1 2 0.7 0.8 1.541892 0.75 -1.31578947368
1 2 0.8 0.9 1.524472 0.85 0.285714285714
1 2 0.9 1 1.504395 0.95 0.454545454545
2 3 -1 -0.9 2.568742 -0.95 -0.132075471698
2 3 -0.9 -0.8 2.506227 -0.85 0.2
2 3 -0.8 -0.7 2.587558 -0.75 -0.122807017544
2 3 -0.7 -0.6 2.569556 -0.65 0.0322580645161
2 3 -0.6 -0.5 2.589818 -0.55 0.913043478261
2 3 -0.5 -0.4 2.619776 -0.45 -1.11320754717
2 3 -0.4 -0.3 2.546416 -0.35 -0.0909090909091
2 3 -0.3 -0.2 2.524453 -0.25 -0.6
2 3 -0.2 -0.1 2.583144 -0.15 -0.0344827586207
2 3 -0.1 0 2.600021 -0.05 0.701492537313
2 3 0 0.1 2.588549 0.05 -1.21428571429
2 3 0.1 0.2 2.601163 0.15 -0.381818181818
2 3 0.2 0.3 2.617299 0.25 0.261538461538
2 3 0.3 0.4 2.584201 0.35 -0.387755102041
2 3 0.4 0.5 2.629678 0.45 0.245283018868
2 3 0.5 0.6 2.534176 0.55 0.6
2 3 0.6 0.7 2.52918 0.65 0.0967741935484
2 3 0.7 0.8 2.606603 0.75 0.176470588235
2 3 0.8 0.9 2.550228 0.85 0.705882352941
2 3 0.9 1 2.618075 0.95 -0.393939393939
3 4 -1 -0.9 3.538378 -0.95 0.149606299213
3 4 -0.9 -0.8 3.560544 -0.85 0.46218487395
3 4 -0.8 -0.7 3.531207 -0.75 0.0654205607477
3 4 -0.7 -0.6 3.535423 -0.65 -0.148148148148
3 4 -0.6 -0.5 3.569604 -0.55 -0.130434782609
3 4 -0.5 -0.4 3.5904 -0.45 -0.709401709402
3 4 -0.4 -0.3 3.552129 -0.35 0.0461538461538
3 4 -0.3 -0.2 3.546499 -0.25 0.258064516129
3 4 -0.2 -0.1 3.587426 -0.15 -0.220338983051
3 4 -0.1 0 3.54816 -0.05 0.223880597015
3 4 0 0.1 3.506948 0.05 0.586206896552
3 4 0.1 0.2 3.570956 0.15 -0.123966942149
3 4 0.2 0.3 3.563771 0.25 -0.882352941176
3 4 0.3 0.4 3.513106 0.35 -0.40206185567
3 4 0.4 0.5 3.525216 0.45 0.0909090909091
3 4 0.5 0.6 3.536137 0.55 0.56
3 4 0.6 0.7 3.576436 0.65 -0.03125
3 4 0.7 0.8 3.567353 0.75 -0.408
3 4 0.8 0.9 3.607363 0.85 0.724137931034
3 4 0.9 1 3.554599 0.95 -0.90099009901
4 5 -1 -0.9 4.542768 -0.95 -0.145631067961
4 5 -0.9 -0.8 4.490776 -0.85 -0.276995305164
4 5 -0.8 -0.7 4.524931 -0.75 -0.224043715847
4 5 -0.7 -0.6 4.512595 -0.65 0.0899470899471
4 5 -0.6 -0.5 4.500031 -0.55 -0.36
4 5 -0.5 -0.4 4.52871 -0.45 -0.8
4 5 -0.4 -0.3 4.520527 -0.35 -0.046511627907
4 5 -0.3 -0.2 4.517646 -0.25 0.196172248804
4 5 -0.2 -0.1 4.552175 -0.15 0.0819672131148
4 5 -0.1 0 4.565231 -0.05 -0.204081632653
4 5 0 0.1 4.533477 0.05 -0.181347150259
4 5 0.1 0.2 4.519523 0.15 -0.265306122449
4 5 0.2 0.3 4.533816 0.25 0.0485436893204
4 5 0.3 0.4 4.555225 0.35 0.326530612245
4 5 0.4 0.5 4.532294 0.45 0.0990990990991
4 5 0.5 0.6 4.552272 0.55 0.416216216216
4 5 0.6 0.7 4.522195 0.65 -0.0292397660819
4 5 0.7 0.8 4.508653 0.75 -0.587301587302
4 5 0.8 0.9 4.564408 0.85 -0.238578680203
4 5 0.9 1 4.534121 0.95 -0.52380952381
5 6 -1 -0.9 5.535903 -0.95 -0.462686567164
5 6 -0.9 -0.8 5.530986 -0.85 0.0662020905923
5 6 -0.8 -0.7 5.533877 -0.75 -0.0174216027875
5 6 -0.7 -0.6 5.534279 -0.65 0.034965034965
5 6 -0.6 -0.5 5.530011 -0.55 0.194539249147
5 6 -0.5 -0.4 5.532588 -0.45 -0.239057239057
5 6 -0.4 -0.3 5.533514 -0.35 -0.219330855019
5 6 -0.3 -0.2 5.52123 -0.25 -0.063829787234
5 6 -0.2 -0.1 5.537646 -0.15 -0.20701754386
5 6 -0.1 0 5.525861 -0.05 0.246575342466
5 6 0 0.1 5.503885 0.05 -0.365853658537
5 6 0.1 0.2 5.543266 0.15 -0.0694444444444
5 6 0.2 0.3 5.517208 0.25 -0.449275362319
5 6 0.3 0.4 5.540263 0.35 -0.262458471761
5 6 0.4 0.5 5.510768 0.45 0.101123595506
5 6 0.5 0.6 5.503884 0.55 0.157142857143
5 6 0.6 0.7 5.514113 0.65 -0.105454545455
5 6 0.7 0.8 5.536142 0.75 0.177700348432
5 6 0.8 0.9 5.508085 0.85 0.136212624585
5 6 0.9 1 5.511061 0.95 -0.701492537313
6 7 -1 -0.9 6.524059 -0.95 0.0220048899756
6 7 -0.9 -0.8 6.537908 -0.85 -0.183561643836
6 7 -0.8 -0.7 6.529891 -0.75 -0.0871794871795
6 7 -0.7 -0.6 6.535069 -0.65 -0.0181818181818
6 7 -0.6 -0.5 6.52911 -0.55 -0.326145552561
6 7 -0.5 -0.4 6.494911 -0.45 0.0947368421053
6 7 -0.4 -0.3 6.50428 -0.35 0.189873417722
6 7 -0.3 -0.2 6.539171 -0.25 -0.0694087403599
6 7 -0.2 -0.1 6.53087 -0.15 0.255813953488
6 7 -0.1 0 6.500437 -0.05 0.0863509749304
6 7 0 0.1 6.546641 0.05 -0.287234042553
6 7 0.1 0.2 6.539109 0.15 0.514824797844
6 7 0.2 0.3 6.54753 0.25 0.0501319261214
6 7 0.3 0.4 6.497619 0.35 -0.0557184750733
6 7 0.4 0.5 6.527657 0.45 -0.0366492146597
6 7 0.5 0.6 6.503009 0.55 0.194103194103
6 7 0.6 0.7 6.517259 0.65 -0.040404040404
6 7 0.7 0.8 6.536469 0.75 -0.20618556701
6 7 0.8 0.9 6.529008 0.85 0.041782729805
6 7 0.9 1 6.545959 0.95 0.0571428571429
7 8 -1 -0.9 7.511549 -0.95 -0.00181488203267
7 8 -0.9 -0.8 7.527409 -0.85 -0.0505836575875
7 8 -0.8 -0.7 7.483316 -0.75 0.104838709677
7 8 -0.7 -0.6 7.539161 -0.65 0.0769230769231
7 8 -0.6 -0.5 7.519411 -0.55 -0.251028806584
7 8 -0.5 -0.4 7.529819 -0.45 -0.178423236515
7 8 -0.4 -0.3 7.532588 -0.35 0.0298507462687
7 8 -0.3 -0.2 7.520439 -0.25 0.27626459144
7 8 -0.2 -0.1 7.492052 -0.15 0.0916334661355
7 8 -0.1 0 7.516165 -0.05 -0.132075471698
7 8 0 0.1 7.540933 0.05 0.0661157024793
7 8 0.1 0.2 7.517705 0.15 0.375
7 8 0.2 0.3 7.5081 0.25 -0.15953307393
7 8 0.3 0.4 7.513948 0.35 -0.446280991736
7 8 0.4 0.5 7.517859 0.45 0.098696461825
7 8 0.5 0.6 7.507468 0.55 -0.10843373494
7 8 0.6 0.7 7.523958 0.65 0.301455301455
7 8 0.7 0.8 7.505442 0.75 0.105788423154
7 8 0.8 0.9 7.514052 0.85 0.151750972763
7 8 0.9 1 7.517613 0.95 0.261410788382
8 9 -1 -0.9 8.512075 -0.95 -0.162861491629
8 9 -0.9 -0.8 8.52264 -0.85 -0.170579029734
8 9 -0.8 -0.7 8.509478 -0.75 -0.248142644874
8 9 -0.7 -0.6 8.523692 -0.65 0.0614886731392
8 9 -0.6 -0.5 8.533957 -0.55 0.260804769001
8 9 -0.5 -0.4 8.506563 -0.45 0.253588516746
8 9 -0.4 -0.3 8.525825 -0.35 0.0592459605027
8 9 -0.3 -0.2 8.524725 -0.25 -0.279251170047
8 9 -0.2 -0.1 8.518998 -0.15 0.00311526479751
8 9 -0.1 0 8.504684 -0.05 -0.206060606061
8 9 0 0.1 8.521456 0.05 0.151315789474
8 9 0.1 0.2 8.512389 0.15 0.155749636099
8 9 0.2 0.3 8.535857 0.25 0.160883280757
8 9 0.3 0.4 8.518989 0.35 0.0509461426492
8 9 0.4 0.5 8.524774 0.45 0.122699386503
8 9 0.5 0.6 8.507666 0.55 -0.198697068404
8 9 0.6 0.7 8.500596 0.65 0.0139534883721
8 9 0.7 0.8 8.524402 0.75 0.210792580101
8 9 0.8 0.9 8.529813 0.85 -0.293051359517
8 9 0.9 1 8.512391 0.95 0.0945736434109
9 10 -1 -0.9 9.518403 -0.95 0.0151691948658
9 10 -0.9 -0.8 9.513291 -0.85 0.0777202072539
9 10 -0.8 -0.7 9.535556 -0.75 0.202007528231
9 10 -0.7 -0.6 9.517553 -0.65 0.418899858956
9 10 -0.6 -0.5 9.519807 -0.55 -0.075
9 10 -0.5 -0.4 9.510119 -0.45 0.121212121212
9 10 -0.4 -0.3 9.52117 -0.35 0.126436781609
9 10 -0.3 -0.2 9.509516 -0.25 0.0385604113111
9 10 -0.2 -0.1 9.523165 -0.15 -0.0510204081633
9 10 -0.1 0 9.538891 -0.05 0.0413625304136
9 10 0 0.1 9.510345 0.05 0.252110977081
9 10 0.1 0.2 9.498948 0.15 0.494897959184
9 10 0.2 0.3 9.513386 0.25 -0.0421052631579
9 10 0.3 0.4 9.533616 0.35 -0.0616352201258
9 10 0.4 0.5 9.49143 0.45 0.0529100529101
9 10 0.5 0.6 9.497403 0.55 0.0406091370558
9 10 0.6 0.7 9.522308 0.65 -0.237449118046
9 10 0.7 0.8 9.520359 0.75 0.0729833546735
9 10 0.8 0.9 9.515205 0.85 -0.159851301115
9 10 0.9 1 9.509719 0.95 0.16934487021
10 11 -1 -0.9 10.5262 -0.95 0.0631016042781
10 11 -0.9 -0.8 10.52962 -0.85 0.0323253388947
10 11 -0.8 -0.7 10.51671 -0.75 0.232067510549
10 11 -0.7 -0.6 10.51125 -0.65 0.289640591966
10 11 -0.6 -0.5 10.51552 -0.55 -0.106010928962
10 11 -0.5 -0.4 10.51628 -0.45 -0.0993657505285
10 11 -0.4 -0.3 10.5133 -0.35 0.0979978925184
10 11 -0.3 -0.2 10.50883 -0.25 0.00109529025192
10 11 -0.2 -0.1 10.52174 -0.15 0.0176165803109
10 11 -0.1 0 10.52606 -0.05 0.0425963488844
10 11 0 0.1 10.49945 0.05 0.02679528403
10 11 0.1 0.2 10.50905 0.15 -0.0874200426439
10 11 0.2 0.3 10.51854 0.25 0.0356052899288
10 11 0.3 0.4 10.50615 0.35 0.200850159405
10 11 0.4 0.5 10.49954 0.45 0.0971786833856
10 11 0.5 0.6 10.51416 0.55 0.0672268907563
10 11 0.6 0.7 10.52364 0.65 0.144086021505
10 11 0.7 0.8 10.51199 0.75 -0.211498973306
10 11 0.8 0.9 10.52487 0.85 0.0418604651163
10 11 0.9 1 10.50977 0.95 0.192878338279
11 12 -1 -0.9 11.51509 -0.95 0.0942028985507
11 12 -0.9 -0.8 11.51526 -0.85 0.0914027149321
11 12 -0.8 -0.7 11.51056 -0.75 0.0413859480269
11 12 -0.7 -0.6 11.50314 -0.65 -0.0269299820467
11 12 -0.6 -0.5 11.51255 -0.55 0.167286245353
11 12 -0.5 -0.4 11.50356 -0.45 0.166666666667
11 12 -0.4 -0.3 11.51666 -0.35 0.0917186108638
11 12 -0.3 -0.2 11.50806 -0.25 0.159345391904
11 12 -0.2 -0.1 11.51296 -0.15 0.150537634409
11 12 -0.1 0 11.5113 -0.05 -0.201843317972
11 12 0 0.1 11.51477 0.05 -0.0421052631579
11 12 0.1 0.2 11.50367 0.15 0.199288256228
11 12 0.2 0.3 11.5249 0.25 0.017608897127
11 12 0.3 0.4 11.52197 0.35 -0.132575757576
11 12 0.4 0.5 11.52389 0.45 -0.00377358490566
11 12 0.5 0.6 11.50709 0.55 0.125581395349
11 12 0.6 0.7 11.51485 0.65 0.193887297039
11 12 0.7 0.8 11.51008 0.75 0.0147058823529
11 12 0.8 0.9 11.51839 0.85 0.000876424189308
11 12 0.9 1 11.51493 0.95 0.0533562822719
12 13 -1 -0.9 12.52584 -0.95 -0.124797406807
12 13 -0.9 -0.8 12.51639 -0.85 -0.107438016529
12 13 -0.8 -0.7 12.51639 -0.75 0.0846681922197
12 13 -0.7 -0.6 12.51626 -0.65 -0.0798122065728
12 13 -0.6 -0.5 12.51548 -0.55 -0.0144462279294
12 13 -0.5 -0.4 12.5147 -0.45 -0.0477707006369
12 13 -0.4 -0.3 12.50109 -0.35 0.180609851446
12 13 -0.3 -0.2 12.51182 -0.25 -0.120599250936
12 13 -0.2 -0.1 12.50537 -0.15 0.062787136294
12 13 -0.1 0 12.53418 -0.05 0.218356772761
12 13 0 0.1 12.50993 0.05 -0.042042042042
12 13 0.1 0.2 12.51286 0.15 0.228426395939
12 13 0.2 0.3 12.5173 0.25 0.0757097791798
12 13 0.3 0.4 12.51659 0.35 -0.138867339022
12 13 0.4 0.5 12.52687 0.45 -0.0811662726556
12 13 0.5 0.6 12.52439 0.55 0.172955974843
12 13 0.6 0.7 12.51013 0.65 0.133989401968
12 13 0.7 0.8 12.51108 0.75 0.0438729198185
12 13 0.8 0.9 12.5106 0.85 0.30625
12 13 0.9 1 12.514 0.95 -0.0124359912217
13 14 -1 -0.9 13.51085 -0.95 0.117525773196
13 14 -0.9 -0.8 13.49867 -0.85 0.118779031188
13 14 -0.8 -0.7 13.51357 -0.75 0.0420979986197
13 14 -0.7 -0.6 13.51121 -0.65 -0.0130047912389
13 14 -0.6 -0.5 13.5132 -0.55 0.0414617006325
13 14 -0.5 -0.4 13.5074 -0.45 0.125253893026
13 14 -0.4 -0.3 13.50874 -0.35 0.109897610922
13 14 -0.3 -0.2 13.51454 -0.25 0.0342972427707
13 14 -0.2 -0.1 13.50674 -0.15 0.0407481629927
13 14 -0.1 0 13.51522 -0.05 -0.233502538071
13 14 0 0.1 13.50696 0.05 -0.0142372881356
13 14 0.1 0.2 13.50641 0.15 -0.121468926554
13 14 0.2 0.3 13.50813 0.25 -0.112457912458
13 14 0.3 0.4 13.53216 0.35 -0.173370319001
13 14 0.4 0.5 13.50342 0.45 0.119723183391
13 14 0.5 0.6 13.50105 0.55 -0.0630372492837
13 14 0.6 0.7 13.50623 0.65 0.0792767732962
13 14 0.7 0.8 13.50755 0.75 -0.187279151943
13 14 0.8 0.9 13.52026 0.85 0.112959112959
13 14 0.9 1 13.50484 0.95 -0.0461538461538
14 15 -1 -0.9 14.51264 -0.95 0.22602739726
14 15 -0.9 -0.8 14.51979 -0.85 0.138461538462
14 15 -0.8 -0.7 14.50793 -0.75 0.154699357852
14 15 -0.7 -0.6 14.50043 -0.65 0.0253090052972
14 15 -0.6 -0.5 14.5084 -0.55 -0.0950661853189
14 15 -0.5 -0.4 14.4999 -0.45 -0.0684931506849
14 15 -0.4 -0.3 14.50087 -0.35 -0.107546048723
14 15 -0.3 -0.2 14.5012 -0.25 0.156363636364
14 15 -0.2 -0.1 14.5195 -0.15 -0.0525114155251
14 15 -0.1 0 14.51059 -0.05 -0.0654095462581
14 15 0 0.1 14.52243 0.05 0.142857142857
14 15 0.1 0.2 14.51356 0.15 0.0683962264151
14 15 0.2 0.3 14.51439 0.25 0.018315018315
14 15 0.3 0.4 14.50179 0.35 0.0339366515837
14 15 0.4 0.5 14.49821 0.45 -0.0108827085852
14 15 0.5 0.6 14.50017 0.55 0.199020208206
14 15 0.6 0.7 14.51519 0.65 0.0866910866911
14 15 0.7 0.8 14.51623 0.75 -0.0528817587641
14 15 0.8 0.9 14.51633 0.85 0.127572016461
14 15 0.9 1 14.50569 0.95 -0.0240751614797
15 16 -1 -0.9 15.5183 -0.95 -0.065565307176
15 16 -0.9 -0.8 15.50463 -0.85 -0.0916890080429
15 16 -0.8 -0.7 15.50046 -0.75 -0.182665935272
15 16 -0.7 -0.6 15.50362 -0.65 -0.00792393026941
15 16 -0.6 -0.5 15.51473 -0.55 0.241775456919
15 16 -0.5 -0.4 15.50687 -0.45 0.0603310197544
15 16 -0.4 -0.3 15.51258 -0.35 0.026455026455
15 16 -0.3 -0.2 15.51406 -0.25 0.166666666667
15 16 -0.2 -0.1 15.51188 -0.15 -0.0536378120021
15 16 -0.1 0 15.49542 -0.05 0.033105622701
15 16 0 0.1 15.50904 0.05 -0.0434782608696
15 16 0.1 0.2 15.5013 0.15 -0.11834625323
15 16 0.2 0.3 15.50732 0.25 -0.0804475226425
15 16 0.3 0.4 15.50857 0.35 0.0325288562434
15 16 0.4 0.5 15.49998 0.45 0.182343667893
15 16 0.5 0.6 15.50909 0.55 0.160883280757
15 16 0.6 0.7 15.49554 0.65 0.0204081632653
15 16 0.7 0.8 15.50722 0.75 -0.120976692564
15 16 0.8 0.9 15.50222 0.85 0.0135557872784
15 16 0.9 1 15.51178 0.95 -0.0541082164329
16 17 -1 -0.9 16.49946 -0.95 -0.0443529949703
16 17 -0.9 -0.8 16.50688 -0.85 -0.0851674641148
16 17 -0.8 -0.7 16.52131 -0.75 0.260827718961
16 17 -0.7 -0.6 16.51042 -0.65 -0.160913952358
16 17 -0.6 -0.5 16.50927 -0.55 0.240776699029
16 17 -0.5 -0.4 16.49782 -0.45 -0.243083003953
16 17 -0.4 -0.3 16.50763 -0.35 0.121387283237
16 17 -0.3 -0.2 16.50109 -0.25 0.13123844732
16 17 -0.2 -0.1 16.49893 -0.15 0.0334288443171
16 17 -0.1 0 16.50629 -0.05 -0.170915958451
16 17 0 0.1 16.49792 0.05 -0.0781818181818
16 17 0.1 0.2 16.49984 0.15 -0.0142923005994
16 17 0.2 0.3 16.51732 0.25 -0.0354945575012
16 17 0.3 0.4 16.50904 0.35 0.111322549952
16 17 0.4 0.5 16.51034 0.45 -0.235379410343
16 17 0.5 0.6 16.50162 0.55 -0.0107317073171
16 17 0.6 0.7 16.50832 0.65 0.0872745002438
16 17 0.7 0.8 16.49916 0.75 0.0997150997151
16 17 0.8 0.9 16.50521 0.85 0.0131332082552
16 17 0.9 1 16.5168 0.95 -0.152194211018
17 18 -1 -0.9 17.50587 -0.95 0.119175257732
17 18 -0.9 -0.8 17.51396 -0.85 0.173799126638
17 18 -0.8 -0.7 17.51339 -0.75 -0.038961038961
17 18 -0.7 -0.6 17.5059 -0.65 0.0395778364116
17 18 -0.6 -0.5 17.50563 -0.55 0.107555555556
17 18 -0.5 -0.4 17.50531 -0.45 0.0338164251208
17 18 -0.4 -0.3 17.50168 -0.35 -0.00783289817232
17 18 -0.3 -0.2 17.52442 -0.25 0.012323943662
17 18 -0.2 -0.1 17.50848 -0.15 0.026464208243
17 18 -0.1 0 17.5084 -0.05 -0.0380165289256
17 18 0 0.1 17.5018 0.05 -0.056255247691
17 18 0.1 0.2 17.51368 0.15 0.0426340227944
17 18 0.2 0.3 17.51821 0.25 -0.00874125874126
17 18 0.3 0.4 17.49686 0.35 -0.021241149521
17 18 0.4 0.5 17.50598 0.45 -0.027216856892
17 18 0.5 0.6 17.50417 0.55 -0.0899786780384
17 18 0.6 0.7 17.51475 0.65 -0.0303289192653
17 18 0.7 0.8 17.5091 0.75 -0.164335664336
17 18 0.8 0.9 17.51004 0.85 -0.0304054054054
17 18 0.9 1 17.50971 0.95 -0.142857142857
18 19 -1 -0.9 18.51225 -0.95 -0.0808738980452
18 19 -0.9 -0.8 18.4984 -0.85 0.110386965377
18 19 -0.8 -0.7 18.51151 -0.75 -0.0495626822157
18 19 -0.7 -0.6 18.50637 -0.65 -0.0421267893661
18 19 -0.6 -0.5 18.50893 -0.55 -0.0415825595478
18 19 -0.5 -0.4 18.50925 -0.45 -0.149643705463
18 19 -0.4 -0.3 18.51273 -0.35 -0.0476571886264
18 19 -0.3 -0.2 18.4943 -0.25 0.0555774536855
18 19 -0.2 -0.1 18.49428 -0.15 -0.0589613432253
18 19 -0.1 0 18.50942 -0.05 -0.2359375
18 19 0 0.1 18.50424 0.05 -0.148685759121
18 19 0.1 0.2 18.51444 0.15 0.0840046029919
18 19 0.2 0.3 18.51327 0.25 0.00585251658213
18 19 0.3 0.4 18.48955 0.35 0.141818181818
18 19 0.4 0.5 18.50164 0.45 0.18220834959
18 19 0.5 0.6 18.51295 0.55 -0.0794178794179
18 19 0.6 0.7 18.51347 0.65 0.019425019425
18 19 0.7 0.8 18.51101 0.75 -0.102186878728
18 19 0.8 0.9 18.51178 0.85 -0.00237154150198
18 19 0.9 1 18.50541 0.95 -0.00836501901141
19 20 -1 -0.9 19.50479 -0.95 0.0119465917077
19 20 -0.9 -0.8 19.5111 -0.85 0.0930402930403
19 20 -0.8 -0.7 19.50758 -0.75 0.0115606936416
19 20 -0.7 -0.6 19.49967 -0.65 -0.030303030303
19 20 -0.6 -0.5 19.50638 -0.55 -0.012513407222
19 20 -0.5 -0.4 19.50988 -0.45 -0.0502549162418
19 20 -0.4 -0.3 19.50725 -0.35 0.11617961511
19 20 -0.3 -0.2 19.51462 -0.25 0.0682386566631
19 20 -0.2 -0.1 19.51681 -0.15 0.0055330136481
19 20 -0.1 0 19.50745 -0.05 0.167013167013
19 20 0 0.1 19.50953 0.05 0.0313468825353
19 20 0.1 0.2 19.51268 0.15 -0.0095710740872
19 20 0.2 0.3 19.50229 0.25 0.189944134078
19 20 0.3 0.4 19.50069 0.35 -0.0650109569028
19 20 0.4 0.5 19.50982 0.45 0.0776906628653
19 20 0.5 0.6 19.50066 0.55 -0.0612540775643
19 20 0.6 0.7 19.50566 0.65 0.11396011396
19 20 0.7 0.8 19.50452 0.75 -0.197765363128
19 20 0.8 0.9 19.50167 0.85 0.056163384391
19 20 0.9 1 19.51516 0.95 -0.0832483860007
20 21 -1 -0.9 20.50333 -0.95 -0.0996068152031
20 21 -0.9 -0.8 20.50355 -0.85 -0.00569132909274
20 21 -0.8 -0.7 20.49596 -0.75 0.048131942107
20 21 -0.7 -0.6 20.5037 -0.65 -0.147010241163
20 21 -0.6 -0.5 20.50962 -0.55 0.0493868080875
20 21 -0.5 -0.4 20.50583 -0.45 0.133198106829
20 21 -0.4 -0.3 20.5087 -0.35 -0.0575663564288
20 21 -0.3 -0.2 20.50022 -0.25 -0.0642321486795
20 21 -0.2 -0.1 20.51076 -0.15 -0.0619821014253
20 21 -0.1 0 20.508 -0.05 0.0177439797212
20 21 0 0.1 20.51333 0.05 0.125353440151
20 21 0.1 0.2 20.50884 0.15 -0.160256410256
20 21 0.2 0.3 20.51139 0.25 -0.00555737169009
20 21 0.3 0.4 20.50768 0.35 -0.0216162287995
20 21 0.4 0.5 20.51489 0.45 0.14504834945
20 21 0.5 0.6 20.50871 0.55 -0.0587009378256
20 21 0.6 0.7 20.514 0.65 -0.158244680851
20 21 0.7 0.8 20.50316 0.75 -0.00805369127517
20 21 0.8 0.9 20.50167 0.85 0.128384835935
20 21 0.9 1 20.50058 0.95 -0.0376035691523
21 22 -1 -0.9 21.51134 -0.95 0.0421207658321
21 22 -0.9 -0.8 21.50058 -0.85 -0.0759219088937
21 22 -0.8 -0.7 21.50814 -0.75 -0.0142090306284
21 22 -0.7 -0.6 21.51034 -0.65 -0.115121344119
21 22 -0.6 -0.5 21.51687 -0.55 0.101715686275
21 22 -0.5 -0.4 21.51003 -0.45 -0.0118433039781
21 22 -0.4 -0.3 21.50737 -0.35 -0.101449275362
21 22 -0.3 -0.2 21.50488 -0.25 0.1071863581
21 22 -0.2 -0.1 21.50799 -0.15 -0.0298822819197
21 22 -0.1 0 21.50057 -0.05 0.107195301028
21 22 0 0.1 21.49531 0.05 -0.0757396449704
21 22 0.1 0.2 21.51248 0.15 -0.0616996507567
21 22 0.2 0.3 21.50876 0.25 0.0361445783133
21 22 0.3 0.4 21.50538 0.35 0.0430141287284
21 22 0.4 0.5 21.51376 0.45 -0.0281472316734
21 22 0.5 0.6 21.50676 0.55 -0.127214170692
21 22 0.6 0.7 21.5054 0.65 -0.0309278350515
21 22 0.7 0.8 21.50323 0.75 0.0343137254902
21 22 0.8 0.9 21.51004 0.85 0.073556231003
21 22 0.9 1 21.50965 0.95 0.0770128354726
22 23 -1 -0.9 22.50534 -0.95 -0.0177975528365
22 23 -0.9 -0.8 22.50654 -0.85 0.0174835196331
22 23 -0.8 -0.7 22.50798 -0.75 0.0654420206659
22 23 -0.7 -0.6 22.5006 -0.65 0.0539515893847
22 23 -0.6 -0.5 22.50286 -0.55 0.027496382055
22 23 -0.5 -0.4 22.50731 -0.45 0.0533614712089
22 23 -0.4 -0.3 22.50245 -0.35 -0.0219383504582
22 23 -0.3 -0.2 22.50468 -0.25 -0.0793828892006
22 23 -0.2 -0.1 22.50452 -0.15 0.131877246337
22 23 -0.1 0 22.50557 -0.05 -0.0745939994495
22 23 0 0.1 22.503 0.05 -0.0369118061426
22 23 0.1 0.2 22.50456 0.15 -0.0680157391793
22 23 0.2 0.3 22.51259 0.25 0.06570155902
22 23 0.3 0.4 22.51083 0.35 0.0235327473774
22 23 0.4 0.5 22.50385 0.45 -0.0427398811209
22 23 0.5 0.6 22.49857 0.55 0.0335036910846
22 23 0.6 0.7 22.51144 0.65 0.120753639737
22 23 0.7 0.8 22.50868 0.75 -0.00934579439252
22 23 0.8 0.9 22.51371 0.85 0.0017094017094
22 23 0.9 1 22.50439 0.95 0.0645333333333
23 24 -1 -0.9 23.50549 -0.95 -0.00548628428928
23 24 -0.9 -0.8 23.50335 -0.85 -0.03012529992
23 24 -0.8 -0.7 23.50597 -0.75 0.0704904851246
23 24 -0.7 -0.6 23.50006 -0.65 -0.136338341681
23 24 -0.6 -0.5 23.50259 -0.55 -0.0150699677072
23 24 -0.5 -0.4 23.50925 -0.45 0.0822138635142
23 24 -0.4 -0.3 23.50244 -0.35 -0.0243771765336
23 24 -0.3 -0.2 23.51306 -0.25 0.119483870968
23 24 -0.2 -0.1 23.50639 -0.15 0.0139390810532
23 24 -0.1 0 23.5138 -0.05 -0.0210148641722
23 24 0 0.1 23.50563 0.05 -0.0853752901728
23 24 0.1 0.2 23.50517 0.15 -0.0349013657056
23 24 0.2 0.3 23.50634 0.25 -0.114719190844
23 24 0.3 0.4 23.50005 0.35 0.0164642375169
23 24 0.4 0.5 23.50809 0.45 0.0475675675676
23 24 0.5 0.6 23.50804 0.55 0.0625512155149
23 24 0.6 0.7 23.51077 0.65 0.00720576461169
23 24 0.7 0.8 23.50284 0.75 -0.0890392422192
23 24 0.8 0.9 23.51083 0.85 -0.0459770114943
23 24 0.9 1 23.50747 0.95 0.10546875
24 25 -1 -0.9 24.50731 -0.95 0.0535671390824
24 25 -0.9 -0.8 24.49302 -0.85 0.0305741983594
24 25 -0.8 -0.7 24.5108 -0.75 -0.0279272354599
24 25 -0.7 -0.6 24.50691 -0.65 -0.0464091262639
24 25 -0.6 -0.5 24.51001 -0.55 -0.0412963930998
24 25 -0.5 -0.4 24.49444 -0.45 0.0291262135922
24 25 -0.4 -0.3 24.50322 -0.35 0.0150704910063
24 25 -0.3 -0.2 24.50742 -0.25 0.126628964839
24 25 -0.2 -0.1 24.51144 -0.15 0.125933300149
24 25 -0.1 0 24.51158 -0.05 0.0140435835351
24 25 0 0.1 24.5039 0.05 0.0316409124356
24 25 0.1 0.2 24.49631 0.15 -0.117762512267
24 25 0.2 0.3 24.507 0.25 -0.126016260163
24 25 0.3 0.4 24.50157 0.35 -0.000251067034898
24 25 0.4 0.5 24.50599 0.45 -0.122331072595
24 25 0.5 0.6 24.50227 0.55 0.0492292391845
24 25 0.6 0.7 24.49964 0.65 0.0709743067922
24 25 0.7 0.8 24.49775 0.75 -0.0934959349593
24 25 0.8 0.9 24.49723 0.85 -0.0186774356386
24 25 0.9 1 24.5065 0.95 0.0880110880111
25 26 -1 -0.9 25.50517 -0.95 -0.0129637907912
25 26 -0.9 -0.8 25.50147 -0.85 -0.0585501858736
25 26 -0.8 -0.7 25.50169 -0.75 -0.0543221539915
25 26 -0.7 -0.6 25.50002 -0.65 0.15449505905
25 26 -0.6 -0.5 25.51385 -0.55 0.089042730962
25 26 -0.5 -0.4 25.5039 -0.45 0.0266891079586
25 26 -0.4 -0.3 25.50191 -0.35 0.040887040887
25 26 -0.3 -0.2 25.51109 -0.25 -0.0455927051672
25 26 -0.2 -0.1 25.50016 -0.15 -0.141118652001
25 26 -0.1 0 25.49616 -0.05 -0.0854316546763
25 26 0 0.1 25.51689 0.05 -0.00454959053685
25 26 0.1 0.2 25.51025 0.15 -0.182982616651
25 26 0.2 0.3 25.51189 0.25 -0.0192536249109
25 26 0.3 0.4 25.50392 0.35 -0.00540286586798
25 26 0.4 0.5 25.50069 0.45 0.000480538202787
25 26 0.5 0.6 25.50377 0.55 0.00645469758547
25 26 0.6 0.7 25.4986 0.65 -0.00530631934395
25 26 0.7 0.8 25.50512 0.75 0.149694978883
25 26 0.8 0.9 25.50246 0.85 0.0463761360988
25 26 0.9 1 25.51137 0.95 -0.025706940874
26 27 -1 -0.9 26.5058 -0.95 -0.0187234042553
26 27 -0.9 -0.8 26.50732 -0.85 0.0739690159284
26 27 -0.8 -0.7 26.51225 -0.75 -0.0133683979838
26 27 -0.7 -0.6 26.5017 -0.65 0.00298370438375
26 27 -0.6 -0.5 26.50715 -0.55 -0.0271132376396
26 27 -0.5 -0.4 26.50547 -0.45 -0.0102777170348
26 27 -0.4 -0.3 26.50704 -0.35 -0.103292737934
26 27 -0.3 -0.2 26.50832 -0.25 -0.00897744690169
26 27 -0.2 -0.1 26.50163 -0.15 -0.0527670527671
26 27 -0.1 0 26.50283 -0.05 0.0497000856898
26 27 0 0.1 26.50185 0.05 0.0729431721798
26 27 0.1 0.2 26.51381 0.15 -0.0542233743789
26 27 0.2 0.3 26.50923 0.25 -0.0632133450395
26 27 0.3 0.4 26.50829 0.35 0.0614421516346
26 27 0.4 0.5 26.5111 0.45 -0.0527740189445
26 27 0.5 0.6 26.50551 0.55 -0.0833708877873
26 27 0.6 0.7 26.50665 0.65 -0.0159022816317
26 27 0.7 0.8 26.50602 0.75 0.00319488817891
26 27 0.8 0.9 26.50451 0.85 0.173292334724
26 27 0.9 1 26.50179 0.95 -0.0728956906967
27 28 -1 -0.9 27.51301 -0.95 0.198580161704
27 28 -0.9 -0.8 27.50615 -0.85 -0.111668757842
27 28 -0.8 -0.7 27.50544 -0.75 0.0402449693788
27 28 -0.7 -0.6 27.49943 -0.65 -0.0224177666038
27 28 -0.6 -0.5 27.50193 -0.55 -0.0793650793651
27 28 -0.5 -0.4 27.50604 -0.45 0.119896862914
27 28 -0.4 -0.3 27.5013 -0.35 0.00425170068027
27 28 -0.3 -0.2 27.4967 -0.25 0.110654896325
27 28 -0.2 -0.1 27.5002 -0.15 0.100979804039
27 28 -0.1 0 27.50213 -0.05 -0.0937007874016
27 28 0 0.1 27.50357 0.05 0.033551717292
27 28 0.1 0.2 27.50489 0.15 -0.0431228285306
27 28 0.2 0.3 27.49706 0.25 0.018835978836
27 28 0.3 0.4 27.49892 0.35 0.0076241500103
27 28 0.4 0.5 27.4973 0.45 -0.0464278142887
27 28 0.5 0.6 27.49589 0.55 0.0762450418687
27 28 0.6 0.7 27.50115 0.65 -0.0235858902108
27 28 0.7 0.8 27.50214 0.75 0.0556138509969
27 28 0.8 0.9 27.50076 0.85 -0.00585740254494
27 28 0.9 1 27.50931 0.95 -0.0706376479572
28 29 -1 -0.9 28.50205 -0.95 -0.0175307721
28 29 -0.9 -0.8 28.50488 -0.85 0.111552203255
28 29 -0.8 -0.7 28.50912 -0.75 -0.0181674565561
28 29 -0.7 -0.6 28.50706 -0.65 -0.00617030028795
28 29 -0.6 -0.5 28.5045 -0.55 -0.0836092715232
28 29 -0.5 -0.4 28.50394 -0.45 -0.0269607843137
28 29 -0.4 -0.3 28.50728 -0.35 -0.0810595498905
28 29 -0.3 -0.2 28.50366 -0.25 0.0269838097142
28 29 -0.2 -0.1 28.50899 -0.15 -0.0722702278083
28 29 -0.1 0 28.50525 -0.05 -0.157329240215
28 29 0 0.1 28.50554 0.05 -0.053343350864
28 29 0.1 0.2 28.50061 0.15 0.0169091624066
28 29 0.2 0.3 28.50211 0.25 -0.00963997639189
28 29 0.3 0.4 28.51166 0.35 0.0871632329635
28 29 0.4 0.5 28.50635 0.45 -0.0517896420716
28 29 0.5 0.6 28.50518 0.55 -0.0111403686449
28 29 0.6 0.7 28.50635 0.65 0.0632809351068
28 29 0.7 0.8 28.5043 0.75 -0.0219912035186
28 29 0.8 0.9 28.50234 0.85 0.0642829973374
28 29 0.9 1 28.50907 0.95 0.0911722141823
29 30 -1 -0.9 29.50812 -0.95 -0.136826783115
29 30 -0.9 -0.8 29.50345 -0.85 -0.118762088975
29 30 -0.8 -0.7 29.50898 -0.75 -0.0613690007868
29 30 -0.7 -0.6 29.50442 -0.65 0.0962504831852
29 30 -0.6 -0.5 29.50902 -0.55 0.0233463035019
29 30 -0.5 -0.4 29.50321 -0.45 0.0670180722892
29 30 -0.4 -0.3 29.50752 -0.35 -0.0076735916152
29 30 -0.3 -0.2 29.50112 -0.25 0.026158445441
29 30 -0.2 -0.1 29.5082 -0.15 -0.0684112149533
29 30 -0.1 0 29.51098 -0.05 0.0246340592645
29 30 0 0.1 29.50505 0.05 -0.0707624794295
29 30 0.1 0.2 29.51303 0.15 0.0256222547584
29 30 0.2 0.3 29.50086 0.25 -0.0279372368925
29 30 0.3 0.4 29.50354 0.35 0.0118176702307
29 30 0.4 0.5 29.50043 0.45 -0.0920682542659
29 30 0.5 0.6 29.50496 0.55 -0.0473012757605
29 30 0.6 0.7 29.50901 0.65 0.0304422745549
29 30 0.7 0.8 29.49703 0.75 -0.0362138340678
29 30 0.8 0.9 29.50052 0.85 -0.0565487048522
29 30 0.9 1 29.50637 0.95 -0.138318079779
30 31 -1 -0.9 30.50471 -0.95 0.0846543001686
30 31 -0.9 -0.8 30.5055 -0.85 0.041120488418
30 31 -0.8 -0.7 30.50505 -0.75 -0.0135184508586
30 31 -0.7 -0.6 30.50034 -0.65 0.0533910533911
30 31 -0.6 -0.5 30.50376 -0.55 0.111111111111
30 31 -0.5 -0.4 30.50509 -0.45 -0.0775123107788
30 31 -0.4 -0.3 30.51074 -0.35 0.0739735937783
30 31 -0.3 -0.2 30.49878 -0.25 -0.0787746170678
30 31 -0.2 -0.1 30.50122 -0.15 0.0528862772209
30 31 -0.1 0 30.50776 -0.05 0.085059794509
30 31 0 0.1 30.50364 0.05 0.0295126973233
30 31 0.1 0.2 30.51014 0.15 0.154850088183
30 31 0.2 0.3 30.50116 0.25 0.0812444444444
30 31 0.3 0.4 30.50474 0.35 -0.0408679927667
30 31 0.4 0.5 30.49905 0.45 -0.0480029314767
30 31 0.5 0.6 30.50606 0.55 -0.075636498792
30 31 0.6 0.7 30.50881 0.65 -0.0378298579074
30 31 0.7 0.8 30.50361 0.75 0.0381210478771
30 31 0.8 0.9 30.50618 0.85 -0.00137268359643
30 31 0.9 1 30.50119 0.95 -0.0150537634409
31 32 -1 -0.9 31.51295 -0.95 -0.0229445506692
31 32 -0.9 -0.8 31.50827 -0.85 -0.0088587806149
31 32 -0.8 -0.7 31.50211 -0.75 -0.107224871931
31 32 -0.7 -0.6 31.50488 -0.65 -0.0379923318229
31 32 -0.6 -0.5 31.50062 -0.55 0.0503800601025
31 32 -0.5 -0.4 31.50589 -0.45 -0.126970072605
31 32 -0.4 -0.3 31.51015 -0.35 -0.0569161779924
31 32 -0.3 -0.2 31.50101 -0.25 -0.0187777398429
31 32 -0.2 -0.1 31.50629 -0.15 0.0142809697775
31 32 -0.1 0 31.49849 -0.05 0.0299817790293
31 32 0 0.1 31.50085 0.05 0.0214537303874
31 32 0.1 0.2 31.50377 0.15 -0.0324503311258
31 32 0.2 0.3 31.50705 0.25 0.0226997054237
31 32 0.3 0.4 31.49453 0.35 -0.0349794238683
31 32 0.4 0.5 31.50602 0.45 -0.00222336240807
31 32 0.5 0.6 31.4973 0.55 -0.0710498409332
31 32 0.6 0.7 31.50263 0.65 -0.00191871620443
31 32 0.7 0.8 31.49501 0.75 0.0679881759694
31 32 0.8 0.9 31.49982 0.85 -0.0327706057597
31 32 0.9 1 31.50176 0.95 -0.017271430835
32 33 -1 -0.9 32.50517 -0.95 -0.0221732976883
32 33 -0.9 -0.8 32.50933 -0.85 0.0949335956714
32 33 -0.8 -0.7 32.50772 -0.75 -0.0971734403746
32 33 -0.7 -0.6 32.50722 -0.65 -0.0340831629175
32 33 -0.6 -0.5 32.50201 -0.55 0.00204778156997
32 33 -0.5 -0.4 32.49881 -0.45 0.00876601483479
32 33 -0.4 -0.3 32.50082 -0.35 -0.0403557898205
32 33 -0.3 -0.2 32.50661 -0.25 0.0817790530846
32 33 -0.2 -0.1 32.50396 -0.15 0.0763418857233
32 33 -0.1 0 32.49855 -0.05 -0.0582494663007
32 33 0 0.1 32.49642 0.05 -0.0297155569681
32 33 0.1 0.2 32.50301 0.15 -0.00861497680583
32 33 0.2 0.3 32.49944 0.25 0.0522243713733
32 33 0.3 0.4 32.5049 0.35 -0.0736389210657
32 33 0.4 0.5 32.50138 0.45 0.0870071535518
32 33 0.5 0.6 32.50476 0.55 0.108887777222
32 33 0.6 0.7 32.50721 0.65 -0.0106995884774
32 33 0.7 0.8 32.51127 0.75 0.0104918032787
32 33 0.8 0.9 32.50641 0.85 0.0368858891854
32 33 0.9 1 32.50776 0.95 -0.0622775800712
33 34 -1 -0.9 33.49861 -0.95 -0.020166793025
33 34 -0.9 -0.8 33.50772 -0.85 0.0310361292376
33 34 -0.8 -0.7 33.49952 -0.75 -0.028665028665
33 34 -0.7 -0.6 33.49694 -0.65 -0.00481168076987
33 34 -0.6 -0.5 33.4982 -0.55 0.0483923351738
33 34 -0.5 -0.4 33.50103 -0.45 -0.151367977983
33 34 -0.4 -0.3 33.50554 -0.35 0.0582230020737
33 34 -0.3 -0.2 33.50548 -0.25 -0.0325339850313
33 34 -0.2 -0.1 33.50149 -0.15 0.0298186289579
33 34 -0.1 0 33.50169 -0.05 0.0716583796432
33 34 0 0.1 33.50646 0.05 0.023262794537
33 34 0.1 0.2 33.50166 0.15 0.000912131346914
33 34 0.2 0.3 33.50261 0.25 -0.0864353312303
33 34 0.3 0.4 33.50357 0.35 0.00442757748261
33 34 0.4 0.5 33.50197 0.45 0.0510204081633
33 34 0.5 0.6 33.50239 0.55 0.104797979798
33 34 0.6 0.7 33.5025 0.65 0.0487142628973
33 34 0.7 0.8 33.50744 0.75 -0.0991554582421
33 34 0.8 0.9 33.50313 0.85 0.0169799878714
33 34 0.9 1 33.50376 0.95 0.0361514375178
34 35 -1 -0.9 34.50934 -0.95 0.0735632183908
34 35 -0.9 -0.8 34.50885 -0.85 -0.0143034825871
34 35 -0.8 -0.7 34.49968 -0.75 0.0570202329859
34 35 -0.7 -0.6 34.50313 -0.65 0.0952304992822
34 35 -0.6 -0.5 34.50411 -0.55 -0.127413127413
34 35 -0.5 -0.4 34.50415 -0.45 0.0136901057872
34 35 -0.4 -0.3 34.50847 -0.35 0.0540748729009
34 35 -0.3 -0.2 34.50299 -0.25 -0.0543933054393
34 35 -0.2 -0.1 34.50642 -0.15 -0.160101085179
34 35 -0.1 0 34.50155 -0.05 0.0435157259802
34 35 0 0.1 34.50719 0.05 0.073611708997
34 35 0.1 0.2 34.49852 0.15 -0.0483610171983
34 35 0.2 0.3 34.50034 0.25 0.00317940953823
34 35 0.3 0.4 34.50222 0.35 0.0698383653553
34 35 0.4 0.5 34.50531 0.45 0.0431275209432
34 35 0.5 0.6 34.50381 0.55 0.0801584882658
34 35 0.6 0.7 34.50152 0.65 -0.0768993681615
34 35 0.7 0.8 34.50464 0.75 -0.00342823073483
34 35 0.8 0.9 34.50727 0.85 0.0179425837321
34 35 0.9 1 34.4966 0.95 -0.0594170403587
35 36 -1 -0.9 35.50686 -0.95 0.126601460256
35 36 -0.9 -0.8 35.5026 -0.85 -0.00267459138187
35 36 -0.8 -0.7 35.5005 -0.75 0.0317225022235
35 36 -0.7 -0.6 35.50591 -0.65 0.097353073127
35 36 -0.6 -0.5 35.50331 -0.55 0.0405611466911
35 36 -0.5 -0.4 35.50829 -0.45 -0.00673194614443
35 36 -0.4 -0.3 35.50293 -0.35 0.0120877480973
35 36 -0.3 -0.2 35.50799 -0.25 0.0337272989334
35 36 -0.2 -0.1 35.50536 -0.15 0.0303702676467
35 36 -0.1 0 35.50489 -0.05 0.00746167412834
35 36 0 0.1 35.5021 0.05 0.0498021558193
35 36 0.1 0.2 35.50036 0.15 0.143984220907
35 36 0.2 0.3 35.50971 0.25 -0.042605078181
35 36 0.3 0.4 35.50411 0.35 0.0283948800942
35 36 0.4 0.5 35.50212 0.45 0.00295333727112
35 36 0.5 0.6 35.5017 0.55 0.0643827525103
35 36 0.6 0.7 35.50277 0.65 -0.125037125037
35 36 0.7 0.8 35.49884 0.75 -0.0450716713462
35 36 0.8 0.9 35.50718 0.85 0.147234042553
35 36 0.9 1 35.49865 0.95 0.0530655672297
36 37 -1 -0.9 36.50211 -0.95 -0.0279994589477
36 37 -0.9 -0.8 36.50409 -0.85 0.00894505182451
36 37 -0.8 -0.7 36.50647 -0.75 0.0311190903651
36 37 -0.7 -0.6 36.50367 -0.65 -0.0509431159958
36 37 -0.6 -0.5 36.50052 -0.55 -0.127019416037
36 37 -0.5 -0.4 36.49906 -0.45 0.0331239291833
36 37 -0.4 -0.3 36.50898 -0.35 -0.124691537233
36 37 -0.3 -0.2 36.50502 -0.25 0.0289205702648
36 37 -0.2 -0.1 36.50436 -0.15 0.122358325481
36 37 -0.1 0 36.5039 -0.05 -0.0472103004292
36 37 0 0.1 36.49616 0.05 -0.033615742006
36 37 0.1 0.2 36.50164 0.15 -0.0724241596064
36 37 0.2 0.3 36.5017 0.25 0.155170039928
36 37 0.3 0.4 36.50399 0.35 0.0544100801833
36 37 0.4 0.5 36.50432 0.45 -0.0233638078653
36 37 0.5 0.6 36.50484 0.55 -0.00174013921114
36 37 0.6 0.7 36.50132 0.65 0.0317185697809
36 37 0.7 0.8 36.50547 0.75 -0.0593501805054
36 37 0.8 0.9 36.50394 0.85 0.146503884573
36 37 0.9 1 36.5021 0.95 0.129802699896
37 38 -1 -0.9 37.50082 -0.95 -0.110570147341
37 38 -0.9 -0.8 37.50437 -0.85 -0.0498599439776
37 38 -0.8 -0.7 37.50729 -0.75 0.0496748304967
37 38 -0.7 -0.6 37.50482 -0.65 -0.109871723369
37 38 -0.6 -0.5 37.50198 -0.55 0.0622116594436
37 38 -0.5 -0.4 37.50061 -0.45 0.0458505927725
37 38 -0.4 -0.3 37.50099 -0.35 -0.0863924924096
37 38 -0.3 -0.2 37.50452 -0.25 -0.0128323852361
37 38 -0.2 -0.1 37.50126 -0.15 0.0228728270814
37 38 -0.1 0 37.50336 -0.05 -0.0474121405751
37 38 0 0.1 37.50129 0.05 0.0686249683464
37 38 0.1 0.2 37.49993 0.15 -0.0881369533235
37 38 0.2 0.3 37.50611 0.25 -0.0536398467433
37 38 0.3 0.4 37.49796 0.35 0.0498293515358
37 38 0.4 0.5 37.4968 0.45 0.0421594545708
37 38 0.5 0.6 37.50119 0.55 0.0571388459919
37 38 0.6 0.7 37.50076 0.65 -0.0636578910712
37 38 0.7 0.8 37.49643 0.75 0.113055365687
37 38 0.8 0.9 37.49717 0.85 0.137822198843
37 38 0.9 1 37.49705 0.95 -0.0680576254347
38 39 -1 -0.9 38.50911 -0.95 -0.0414289258249
38 39 -0.9 -0.8 38.4995 -0.85 -0.0146033416656
38 39 -0.8 -0.7 38.50338 -0.75 0.0740534521158
38 39 -0.7 -0.6 38.503 -0.65 -0.000135961930659
38 39 -0.6 -0.5 38.50328 -0.55 0.0366204910163
38 39 -0.5 -0.4 38.49928 -0.45 -0.0459304760575
38 39 -0.4 -0.3 38.50715 -0.35 -0.11084109626
38 39 -0.3 -0.2 38.50152 -0.25 -0.0831922926702
38 39 -0.2 -0.1 38.49689 -0.15 -0.0357233341779
38 39 -0.1 0 38.50943 -0.05 -0.0393968871595
38 39 0 0.1 38.50473 0.05 0.0129417620707
38 39 0.1 0.2 38.49994 0.15 -0.00177349885989
38 39 0.2 0.3 38.49881 0.25 -0.0759894459103
38 39 0.3 0.4 38.5074 0.35 -0.0600300834131
38 39 0.4 0.5 38.50701 0.45 -0.0691857370942
38 39 0.5 0.6 38.5077 0.55 -0.00828916972415
38 39 0.6 0.7 38.49807 0.65 0.0774517578641
38 39 0.7 0.8 38.50035 0.75 0.00522193211488
38 39 0.8 0.9 38.50101 0.85 0.0811154972622
38 39 0.9 1 38.50152 0.95 -0.0452261306533
39 40 -1 -0.9 39.50354 -0.95 0.053010314224
39 40 -0.9 -0.8 39.50349 -0.85 -0.0176425466633
39 40 -0.8 -0.7 39.50647 -0.75 -0.0768815753979
39 40 -0.7 -0.6 39.50238 -0.65 0.0272873194222
39 40 -0.6 -0.5 39.50119 -0.55 0.0752379710523
39 40 -0.5 -0.4 39.50124 -0.45 0.0220920947565
39 40 -0.4 -0.3 39.50053 -0.35 0.00363447559709
39 40 -0.3 -0.2 39.50131 -0.25 -0.0743320248196
39 40 -0.2 -0.1 39.49756 -0.15 0.0384289004728
39 40 -0.1 0 39.50156 -0.05 -0.00522542228703
39 40 0 0.1 39.5046 0.05 0.0215827338129
39 40 0.1 0.2 39.50142 0.15 0.0535473593922
39 40 0.2 0.3 39.51058 0.25 0.0300985988583
39 40 0.3 0.4 39.50599 0.35 0.0152749490835
39 40 0.4 0.5 39.50658 0.45 -0.115419648666
39 40 0.5 0.6 39.5008 0.55 0.00891920251836
39 40 0.6 0.7 39.50557 0.65 0.0519964051868
39 40 0.7 0.8 39.49943 0.75 0.0509335704306
39 40 0.8 0.9 39.51075 0.85 0.0219890054973
39 40 0.9 1 39.50012 0.95 0.00971555659604
40 41 -1 -0.9 40.50039 -0.95 -0.0424214093724
40 41 -0.9 -0.8 40.50065 -0.85 0.0824898785425
40 41 -0.8 -0.7 40.50099 -0.75 0.00235540434441
40 41 -0.7 -0.6 40.5056 -0.65 -0.0548194336191
40 41 -0.6 -0.5 40.49939 -0.55 0.0597980843904
40 41 -0.5 -0.4 40.50455 -0.45 0.0105611400942
40 41 -0.4 -0.3 40.50445 -0.35 0
40 41 -0.3 -0.2 40.50642 -0.25 -0.062392108508
40 41 -0.2 -0.1 40.50602 -0.15 -0.0465366670654
40 41 -0.1 0 40.50384 -0.05 -0.00235515779557
40 41 0 0.1 40.50006 0.05 0.0316700843017
40 41 0.1 0.2 40.50007 0.15 0.0459933617828
40 41 0.2 0.3 40.50022 0.25 0.0573988859288
40 41 0.3 0.4 40.50092 0.35 0.00240050536955
40 41 0.4 0.5 40.50252 0.45 0.0255324448873
40 41 0.5 0.6 40.50048 0.55 0.0283174603175
40 41 0.6 0.7 40.49454 0.65 -0.105089896176
40 41 0.7 0.8 40.50689 0.75 -0.0158251695554
40 41 0.8 0.9 40.49963 0.85 0.011787580508
40 41 0.9 1 40.50444 0.95 -0.0705977196821
