#edges = (np.linspace(1, 41, 41), np.linspace(-1, 1, 21))
#s_low s_high mu_low mu_high s mu corr
1 2 -1 -0.9 1.668852 -0.95 -1.16385811818
1 2 -0.9 -0.8 1.63796 -0.85 1.25104359881
1 2 -0.8 -0.7 1.554362 -0.75 2.74584880339
1 2 -0.7 -0.6 1.608116 -0.65 -0.612766058845
1 2 -0.6 -0.5 1.544348 -0.55 -1.28791975945
1 2 -0.5 -0.4 1.589923 -0.45 -0.588521354553
1 2 -0.4 -0.3 1.690885 -0.35 -0.38285161633
1 2 -0.3 -0.2 1.64606 -0.25 -0.494734163176
1 2 -0.2 -0.1 1.598055 -0.15 -0.204455139511
1 2 -0.1 0 1.677236 -0.05 -0.365466848838
1 2 0 0.1 1.634348 0.05 0.133816462134
1 2 0.1 0.2 1.562693 0.15 2.13664615237
1 2 0.2 0.3 1.640592 0.25 1.29538956637
1 2 0.3 0.4 1.647918 0.35 1.16958707099
1 2 0.4 0.5 1.665558 0.45 0.35095194478
1 2 0.5 0.6 1.498719 0.55 0.906185791035
1 2 0.6 0.7 1.501416 0.65 0.215900637035
1 2 0.7 0.8 1.667628 0.75 -0.73530603954
1 2 0.8 0.9 1.621533 0.85 -0.242396141989
1 2 0.9 1 1.637755 0.95 -0.531210677458
2 3 -1 -0.9 2.561903 -0.95 -0.000287617830608
2 3 -0.9 -0.8 2.563209 -0.85 -0.129825513035
2 3 -0.8 -0.7 2.550973 -0.75 0.127964985831
2 3 -0.7 -0.6 2.577409 -0.65 0.395268398864
2 3 -0.6 -0.5 2.562623 -0.55 0.773450237552
2 3 -0.5 -0.4 2.513501 -0.45 -1.04173587296
2 3 -0.4 -0.3 2.603842 -0.35 -0.0424369588574
2 3 -0.3 -0.2 2.637669 -0.25 -1.29990312528
2 3 -0.2 -0.1 2.602095 -0.15 -0.317262340836
2 3 -0.1 0 2.566364 -0.05 0.738068974121
2 3 0 0.1 2.589401 0.05 -0.450258618884
2 3 0.1 0.2 2.587786 0.15 0.366607167926
2 3 0.2 0.3 2.528467 0.25 -0.173176930284
2 3 0.3 0.4 2.587604 0.35 0.184620935094
2 3 0.4 0.5 2.574363 0.45 -0.0089949838888
2 3 0.5 0.6 2.544686 0.55 0.255213640663
2 3 0.6 0.7 2.565657 0.65 0.350626296794
2 3 0.7 0.8 2.614307 0.75 0.417142258089
2 3 0.8 0.9 2.598838 0.85 0.545077719047
2 3 0.9 1 2.547829 0.95 -0.291670085613
3 4 -1 -0.9 3.574656 -0.95 0.481401010541
3 4 -0.9 -0.8 3.581895 -0.85 -0.376526917298
3 4 -0.8 -0.7 3.555789 -0.75 0.450061517198
3 4 -0.7 -0.6 3.535452 -0.65 -0.217340470085
3 4 -0.6 -0.5 3.531751 -0.55 -0.5132255674
3 4 -0.5 -0.4 3.56309 -0.45 -0.571263808061
3 4 -0.4 -0.3 3.516192 -0.35 0.194500115721
3 4 -0.3 -0.2 3.576855 -0.25 0.315635433868
3 4 -0.2 -0.1 3.568059 -0.15 -0.661297626061
3 4 -0.1 0 3.539787 -0.05 0.455643475976
3 4 0 0.1 3.535038 0.05 0.418623961889
3 4 0.1 0.2 3.513825 0.15 -0.537180234283
3 4 0.2 0.3 3.572842 0.25 -1.34900248827
3 4 0.3 0.4 3.500628 0.35 0.00720717613077
3 4 0.4 0.5 3.570678 0.45 -0.223647954135
3 4 0.5 0.6 3.527767 0.55 0.448057001382
3 4 0.6 0.7 3.577174 0.65 -0.112910961263
3 4 0.7 0.8 3.485817 0.75 -0.361440190327
3 4 0.8 0.9 3.547394 0.85 -0.139108794423
3 4 0.9 1 3.495876 0.95 -0.591628468819
4 5 -1 -0.9 4.566511 -0.95 -0.461681296365
4 5 -0.9 -0.8 4.535137 -0.85 -0.580485135672
4 5 -0.8 -0.7 4.531685 -0.75 -0.148354059857
4 5 -0.7 -0.6 4.547493 -0.65 0.491236152379
4 5 -0.6 -0.5 4.519383 -0.55 -0.468363671822
4 5 -0.5 -0.4 4.566894 -0.45 -0.799228116487
4 5 -0.4 -0.3 4.543995 -0.35 0.0127970477982
4 5 -0.3 -0.2 4.516089 -0.25 0.0537335038692
4 5 -0.2 -0.1 4.531764 -0.15 -0.059016901264
4 5 -0.1 0 4.564437 -0.05 0.0292410379331
4 5 0 0.1 4.563322 0.05 -0.253549435241
4 5 0.1 0.2 4.509075 0.15 -0.66754889372
4 5 0.2 0.3 4.543263 0.25 -0.111855120278
4 5 0.3 0.4 4.560334 0.35 -0.255605000398
4 5 0.4 0.5 4.528214 0.45 -0.116721941042
4 5 0.5 0.6 4.539349 0.55 0.561931090469
4 5 0.6 0.7 4.462136 0.65 0.229904168878
4 5 0.7 0.8 4.545769 0.75 -0.435272271613
4 5 0.8 0.9 4.50054 0.85 -0.611173648177
4 5 0.9 1 4.536904 0.95 -0.24069705778
5 6 -1 -0.9 5.534302 -0.95 -0.563646923125
5 6 -0.9 -0.8 5.517756 -0.85 -0.211096659294
5 6 -0.8 -0.7 5.530121 -0.75 0.126459839634
5 6 -0.7 -0.6 5.557085 -0.65 -0.171552571217
5 6 -0.6 -0.5 5.51787 -0.55 0.431061369138
5 6 -0.5 -0.4 5.550759 -0.45 0.040424859984
5 6 -0.4 -0.3 5.538889 -0.35 -0.217812558961
5 6 -0.3 -0.2 5.522861 -0.25 0.328163911023
5 6 -0.2 -0.1 5.520832 -0.15 -0.0725534283152
5 6 -0.1 0 5.533466 -0.05 0.103441796109
5 6 0 0.1 5.540918 0.05 -0.371032675348
5 6 0.1 0.2 5.547286 0.15 -0.131749913737
5 6 0.2 0.3 5.518495 0.25 -0.208573554649
5 6 0.3 0.4 5.519425 0.35 -0.305026943897
5 6 0.4 0.5 5.531293 0.45 0.00298991609027
5 6 0.5 0.6 5.550643 0.55 0.252808724647
5 6 0.6 0.7 5.517003 0.65 -0.201917101027
5 6 0.7 0.8 5.522058 0.75 0.376037254978
5 6 0.8 0.9 5.516248 0.85 0.0365605136258
5 6 0.9 1 5.540766 0.95 -0.401240490163
6 7 -1 -0.9 6.523653 -0.95 -0.111530741692
6 7 -0.9 -0.8 6.521681 -0.85 -0.0295866056149
6 7 -0.8 -0.7 6.507394 -0.75 -0.182366502649
6 7 -0.7 -0.6 6.496659 -0.65 0.170124580404
6 7 -0.6 -0.5 6.520988 -0.55 -0.135910576025
6 7 -0.5 -0.4 6.519935 -0.45 0.310065725002
6 7 -0.4 -0.3 6.487918 -0.35 0.0529382603502
6 7 -0.3 -0.2 6.526598 -0.25 0.123536941016
6 7 -0.2 -0.1 6.510782 -0.15 0.284186392065
6 7 -0.1 0 6.520784 -0.05 0.0367942766085
6 7 0 0.1 6.47952 0.05 -0.0765106947056
6 7 0.1 0.2 6.51929 0.15 0.6768499736
6 7 0.2 0.3 6.527034 0.25 0.0822610576024
6 7 0.3 0.4 6.510141 0.35 -0.0990317093977
6 7 0.4 0.5 6.508429 0.45 0.0163605885248
6 7 0.5 0.6 6.544206 0.55 0.206497828787
6 7 0.6 0.7 6.517898 0.65 0.0482422813716
6 7 0.7 0.8 6.507181 0.75 -0.26689948783
6 7 0.8 0.9 6.506758 0.85 -0.0212326671133
6 7 0.9 1 6.500029 0.95 0.139982855583
7 8 -1 -0.9 7.527928 -0.95 -0.21571729833
7 8 -0.9 -0.8 7.518581 -0.85 -0.201801442125
7 8 -0.8 -0.7 7.538254 -0.75 0.0391342076024
7 8 -0.7 -0.6 7.522149 -0.65 0.0691466239805
7 8 -0.6 -0.5 7.512763 -0.55 -0.175257091517
7 8 -0.5 -0.4 7.520843 -0.45 -0.228613552499
7 8 -0.4 -0.3 7.510426 -0.35 -0.258457866347
7 8 -0.3 -0.2 7.493291 -0.25 0.156851552697
7 8 -0.2 -0.1 7.50864 -0.15 0.127552988545
7 8 -0.1 0 7.547824 -0.05 0.00353850890748
7 8 0 0.1 7.516183 0.05 0.0695076114526
7 8 0.1 0.2 7.527419 0.15 0.396636859306
7 8 0.2 0.3 7.531027 0.25 -0.044127045005
7 8 0.3 0.4 7.523164 0.35 -0.0913469006953
7 8 0.4 0.5 7.52523 0.45 -0.080220431247
7 8 0.5 0.6 7.51366 0.55 0.106112522144
7 8 0.6 0.7 7.519969 0.65 0.306001672961
7 8 0.7 0.8 7.529456 0.75 0.0425109959385
7 8 0.8 0.9 7.531129 0.85 0.047600092925
7 8 0.9 1 7.539505 0.95 0.3925489128
8 9 -1 -0.9 8.516236 -0.95 0.198844084335
8 9 -0.9 -0.8 8.514831 -0.85 0.00229097986159
8 9 -0.8 -0.7 8.511968 -0.75 -0.0194850035048
8 9 -0.7 -0.6 8.517982 -0.65 0.211303675815
8 9 -0.6 -0.5 8.499465 -0.55 0.579062361689
8 9 -0.5 -0.4 8.519628 -0.45 0.145456496508
8 9 -0.4 -0.3 8.504922 -0.35 0.168182030253
8 9 -0.3 -0.2 8.515915 -0.25 -0.422271963444
8 9 -0.2 -0.1 8.53071 -0.15 -0.0964379269968
8 9 -0.1 0 8.511838 -0.05 -0.244390263933
8 9 0 0.1 8.513002 0.05 0.283271010914
8 9 0.1 0.2 8.525329 0.15 0.0760280627146
8 9 0.2 0.3 8.515905 0.25 0.0791584016554
8 9 0.3 0.4 8.515727 0.35 0.242522347633
8 9 0.4 0.5 8.52758 0.45 0.0255166323817
8 9 0.5 0.6 8.507427 0.55 -0.148082637859
8 9 0.6 0.7 8.505661 0.65 -0.274338938614
8 9 0.7 0.8 8.531393 0.75 -0.0590306521033
8 9 0.8 0.9 8.497694 0.85 -0.516665880145
8 9 0.9 1 8.521339 0.95 0.09700799637
9 10 -1 -0.9 9.519446 -0.95 -0.113985632883
9 10 -0.9 -0.8 9.526192 -0.85 0.0895647825906
9 10 -0.8 -0.7 9.500014 -0.75 -0.000192222814363
9 10 -0.7 -0.6 9.50963 -0.65 0.46197665147
9 10 -0.6 -0.5 9.531699 -0.55 -0.0366498727486
9 10 -0.5 -0.4 9.506039 -0.45 -0.0453695373674
9 10 -0.4 -0.3 9.520508 -0.35 0.0773884032299
9 10 -0.3 -0.2 9.509323 -0.25 0.169834169447
9 10 -0.2 -0.1 9.524564 -0.15 0.0537014837497
9 10 -0.1 0 9.505898 -0.05 0.0507040020063
9 10 0 0.1 9.542536 0.05 -0.0379407633969
9 10 0.1 0.2 9.524189 0.15 0.30299723078
9 10 0.2 0.3 9.5081 0.25 0.0799543966151
9 10 0.3 0.4 9.520845 0.35 -0.209898431575
9 10 0.4 0.5 9.514199 0.45 0.1534487503
9 10 0.5 0.6 9.51412 0.55 -0.0645437350011
9 10 0.6 0.7 9.515851 0.65 -0.235170703531
9 10 0.7 0.8 9.499765 0.75 0.134483249442
9 10 0.8 0.9 9.514866 0.85 -0.191258126926
9 10 0.9 1 9.523292 0.95 -0.00433248845891
10 11 -1 -0.9 10.51151 -0.95 0.0627898551499
10 11 -0.9 -0.8 10.50939 -0.85 -0.0731368964487
10 11 -0.8 -0.7 10.51488 -0.75 0.0991539746038
10 11 -0.7 -0.6 10.52167 -0.65 0.297557804555
10 11 -0.6 -0.5 10.51533 -0.55 -0.158158383533
10 11 -0.5 -0.4 10.52281 -0.45 -0.00831456875487
10 11 -0.4 -0.3 10.5294 -0.35 -0.0333579191037
10 11 -0.3 -0.2 10.51477 -0.25 0.16512307192
10 11 -0.2 -0.1 10.51841 -0.15 -0.0580336625847
10 11 -0.1 0 10.5157 -0.05 0.116562264726
10 11 0 0.1 10.51269 0.05 -0.0246583550992
10 11 0.1 0.2 10.50622 0.15 -0.106868407482
10 11 0.2 0.3 10.5217 0.25 -0.0519965006368
10 11 0.3 0.4 10.51339 0.35 0.145648944512
10 11 0.4 0.5 10.53249 0.45 -0.0285540645154
10 11 0.5 0.6 10.51397 0.55 -0.00630723193174
10 11 0.6 0.7 10.52989 0.65 0.0780447171486
10 11 0.7 0.8 10.5205 0.75 -0.267697691239
10 11 0.8 0.9 10.51429 0.85 -0.0239639353626
10 11 0.9 1 10.52242 0.95 0.247684433493
11 12 -1 -0.9 11.50409 -0.95 -0.0849565109732
11 12 -0.9 -0.8 11.50662 -0.85 -0.0825158282729
11 12 -0.8 -0.7 11.49785 -0.75 0.024971411393
11 12 -0.7 -0.6 11.51748 -0.65 -0.0211964413596
11 12 -0.6 -0.5 11.52012 -0.55 0.211628576945
11 12 -0.5 -0.4 11.51638 -0.45 0.258010063924
11 12 -0.4 -0.3 11.51327 -0.35 0.126218510038
11 12 -0.3 -0.2 11.52176 -0.25 0.101309064966
11 12 -0.2 -0.1 11.51253 -0.15 0.240902240387
11 12 -0.1 0 11.50657 -0.05 -0.0341468552492
11 12 0 0.1 11.50771 0.05 0.140720608762
11 12 0.1 0.2 11.4919 0.15 0.126008520909
11 12 0.2 0.3 11.504 0.25 0.0297666880841
11 12 0.3 0.4 11.51956 0.35 -0.045807582131
11 12 0.4 0.5 11.51307 0.45 0.0289035331277
11 12 0.5 0.6 11.51817 0.55 0.0934076225908
11 12 0.6 0.7 11.51835 0.65 0.300533307618
11 12 0.7 0.8 11.5104 0.75 -0.116389795989
11 12 0.8 0.9 11.49082 0.85 -0.0698454981156
11 12 0.9 1 11.51253 0.95 0.027044619412
12 13 -1 -0.9 12.50858 -0.95 -0.00435956945456
12 13 -0.9 -0.8 12.51477 -0.85 -0.0404053445856
12 13 -0.8 -0.7 12.52031 -0.75 0.00152669301764
12 13 -0.7 -0.6 12.51367 -0.65 0.0888814288569
12 13 -0.6 -0.5 12.53048 -0.55 -0.0453568892854
12 13 -0.5 -0.4 12.50451 -0.45 -4.14438660457e-05
12 13 -0.4 -0.3 12.50432 -0.35 0.32118148991
12 13 -0.3 -0.2 12.50215 -0.25 -0.0302661159406
12 13 -0.2 -0.1 12.506 -0.15 0.0891119614308
12 13 -0.1 0 12.5181 -0.05 0.173549005002
12 13 0 0.1 12.50202 0.05 -0.0523198425652
12 13 0.1 0.2 12.50587 0.15 0.156410406286
12 13 0.2 0.3 12.51224 0.25 0.0893388082303
12 13 0.3 0.4 12.53051 0.35 -0.0186176099922
12 13 0.4 0.5 12.51376 0.45 0.0148937632535
12 13 0.5 0.6 12.51484 0.55 0.0935167153549
12 13 0.6 0.7 12.51387 0.65 0.0166641731317
12 13 0.7 0.8 12.50809 0.75 -0.0927379605222
12 13 0.8 0.9 12.51289 0.85 0.434891093147
12 13 0.9 1 12.52663 0.95 0.0651737442873
13 14 -1 -0.9 13.50081 -0.95 0.089534994288
13 14 -0.9 -0.8 13.49712 -0.85 0.116982806269
13 14 -0.8 -0.7 13.50779 -0.75 0.115761130207
13 14 -0.7 -0.6 13.51929 -0.65 -0.012693625242
13 14 -0.6 -0.5 13.51357 -0.55 0.0567632974418
13 14 -0.5 -0.4 13.51706 -0.45 0.179614649722
13 14 -0.4 -0.3 13.50175 -0.35 0.115359369953
13 14 -0.3 -0.2 13.50284 -0.25 0.0522418959631
13 14 -0.2 -0.1 13.51161 -0.15 -0.178439432683
13 14 -0.1 0 13.51209 -0.05 -0.228709522059
13 14 0 0.1 13.52982 0.05 0.062388858384
13 14 0.1 0.2 13.49827 0.15 -0.0127094903946
13 14 0.2 0.3 13.50568 0.25 -0.0365463212488
13 14 0.3 0.4 13.50592 0.35 -0.061701781467
13 14 0.4 0.5 13.50865 0.45 0.116007330246
13 14 0.5 0.6 13.50974 0.55 0.109659833124
13 14 0.6 0.7 13.49871 0.65 0.273602746882
13 14 0.7 0.8 13.514 0.75 -0.112311494293
13 14 0.8 0.9 13.50381 0.85 0.181775456793
13 14 0.9 1 13.52388 0.95 0.0602480008398
14 15 -1 -0.9 14.50132 -0.95 0.101191777383
14 15 -0.9 -0.8 14.49852 -0.85 0.165632133972
14 15 -0.8 -0.7 14.51353 -0.75 0.146672359456
14 15 -0.7 -0.6 14.49425 -0.65 0.147751674854
14 15 -0.6 -0.5 14.52114 -0.55 -0.0181333870503
14 15 -0.5 -0.4 14.51557 -0.45 0.128759805395
14 15 -0.4 -0.3 14.50532 -0.35 -0.0212744816645
14 15 -0.3 -0.2 14.50537 -0.25 0.16664946869
14 15 -0.2 -0.1 14.5178 -0.15 -0.117423659464
14 15 -0.1 0 14.51251 -0.05 -0.0900372223948
14 15 0 0.1 14.51849 0.05 0.0312025562459
14 15 0.1 0.2 14.52533 0.15 0.0498331285377
14 15 0.2 0.3 14.51934 0.25 0.0368279724244
14 15 0.3 0.4 14.51 0.35 0.0395359064727
14 15 0.4 0.5 14.51111 0.45 -0.102917468622
14 15 0.5 0.6 14.50915 0.55 0.250271635043
14 15 0.6 0.7 14.50897 0.65 0.109961419476
14 15 0.7 0.8 14.50547 0.75 -0.0117708910903
14 15 0.8 0.9 14.51693 0.85 0.13951852801
14 15 0.9 1 14.51519 0.95 0.0897808944752
15 16 -1 -0.9 15.51131 -0.95 0.0290920716491
15 16 -0.9 -0.8 15.51815 -0.85 -0.121659789109
15 16 -0.8 -0.7 15.5095 -0.75 -0.261654309897
15 16 -0.7 -0.6 15.50873 -0.65 0.0160469314244
15 16 -0.6 -0.5 15.4984 -0.55 0.173294556281
15 16 -0.5 -0.4 15.5028 -0.45 0.0760195105117
15 16 -0.4 -0.3 15.51958 -0.35 -0.0166692316157
15 16 -0.3 -0.2 15.51184 -0.25 0.175295711261
15 16 -0.2 -0.1 15.50602 -0.15 -0.0579942089016
15 16 -0.1 0 15.5199 -0.05 0.183804750878
15 16 0 0.1 15.52222 0.05 -0.11781781093
15 16 0.1 0.2 15.50066 0.15 -0.107401809356
15 16 0.2 0.3 15.50776 0.25 -0.185047906228
15 16 0.3 0.4 15.51065 0.35 -0.00191765125613
15 16 0.4 0.5 15.52196 0.45 0.0733875926841
15 16 0.5 0.6 15.51795 0.55 0.0309921919223
15 16 0.6 0.7 15.51424 0.65 0.0587136360374
15 16 0.7 0.8 15.51096 0.75 -0.0518812173238
15 16 0.8 0.9 15.50875 0.85 0.00198522815655
15 16 0.9 1 15.51862 0.95 -0.0187266294921
16 17 -1 -0.9 16.5213 -0.95 -0.0998783403266
16 17 -0.9 -0.8 16.51285 -0.85 -0.078838540415
16 17 -0.8 -0.7 16.51344 -0.75 0.182240575204
16 17 -0.7 -0.6 16.5005 -0.65 -0.0339828396327
16 17 -0.6 -0.5 16.50661 -0.55 0.214976116444
16 17 -0.5 -0.4 16.51704 -0.45 -0.126425537722
16 17 -0.4 -0.3 16.49756 -0.35 0.0565238230679
16 17 -0.3 -0.2 16.50055 -0.25 -0.0143544756362
16 17 -0.2 -0.1 16.49664 -0.15 0.180172895693
16 17 -0.1 0 16.51411 -0.05 -0.0582727394949
16 17 0 0.1 16.51664 0.05 -0.181233980842
16 17 0.1 0.2 16.5148 0.15 -0.0597267198286
16 17 0.2 0.3 16.50157 0.25 -0.0728841609151
16 17 0.3 0.4 16.50484 0.35 0.0592430187218
16 17 0.4 0.5 16.50619 0.45 -0.111888300027
16 17 0.5 0.6 16.51344 0.55 0.0363600700286
16 17 0.6 0.7 16.5044 0.65 0.0205615705502
16 17 0.7 0.8 16.50402 0.75 0.0379564602205
16 17 0.8 0.9 16.50909 0.85 -0.0286806271835
16 17 0.9 1 16.5072 0.95 -0.050893269741
17 18 -1 -0.9 17.51096 -0.95 -0.0132884659395
17 18 -0.9 -0.8 17.50757 -0.85 0.224809279946
17 18 -0.8 -0.7 17.50953 -0.75 -0.215377593818
17 18 -0.7 -0.6 17.50902 -0.65 0.000478620320191
17 18 -0.6 -0.5 17.50523 -0.55 0.178970494295
17 18 -0.5 -0.4 17.5055 -0.45 -0.0883439401905
17 18 -0.4 -0.3 17.52038 -0.35 -0.113671240173
17 18 -0.3 -0.2 17.5214 -0.25 0.0549156083825
17 18 -0.2 -0.1 17.5105 -0.15 0.0683860622984
17 18 -0.1 0 17.49858 -0.05 0.0631897697526
17 18 0 0.1 17.50285 0.05 0.0590974916327
17 18 0.1 0.2 17.50438 0.15 0.0507296677937
17 18 0.2 0.3 17.515 0.25 0.181239341314
17 18 0.3 0.4 17.50832 0.35 -0.120770047549
17 18 0.4 0.5 17.5085 0.45 -0.0306659490942
17 18 0.5 0.6 17.51238 0.55 -0.187344138473
17 18 0.6 0.7 17.50147 0.65 -0.175485512326
17 18 0.7 0.8 17.50602 0.75 -0.183894533333
17 18 0.8 0.9 17.5004 0.85 -0.20122720193
17 18 0.9 1 17.50834 0.95 -0.00348932934124
18 19 -1 -0.9 18.50426 -0.95 0.0322718972787
18 19 -0.9 -0.8 18.49817 -0.85 0.0920064439999
18 19 -0.8 -0.7 18.52094 -0.75 0.0133633787512
18 19 -0.7 -0.6 18.50436 -0.65 0.00654838759847
18 19 -0.6 -0.5 18.51237 -0.55 -0.0610890308295
18 19 -0.5 -0.4 18.51828 -0.45 -0.0713001874265
18 19 -0.4 -0.3 18.50336 -0.35 -0.0442398262828
18 19 -0.3 -0.2 18.5064 -0.25 -0.0214869033646
18 19 -0.2 -0.1 18.51561 -0.15 -0.0511039369893
18 19 -0.1 0 18.50492 -0.05 -0.240846714141
18 19 0 0.1 18.50846 0.05 -0.123816990979
18 19 0.1 0.2 18.50134 0.15 0.0769020876167
18 19 0.2 0.3 18.49796 0.25 -0.0890965029266
18 19 0.3 0.4 18.50282 0.35 0.0504891739181
18 19 0.4 0.5 18.505 0.45 0.121933222475
18 19 0.5 0.6 18.50953 0.55 -0.192816577609
18 19 0.6 0.7 18.51148 0.65 0.0270558965184
18 19 0.7 0.8 18.50602 0.75 -0.219226789794
18 19 0.8 0.9 18.50323 0.85 -0.0468925879054
18 19 0.9 1 18.50677 0.95 0.0727783344073
19 20 -1 -0.9 19.50809 -0.95 -0.0391393648514
19 20 -0.9 -0.8 19.50607 -0.85 0.0932317898505
19 20 -0.8 -0.7 19.5129 -0.75 0.00588068424319
19 20 -0.7 -0.6 19.50573 -0.65 0.0252418913048
19 20 -0.6 -0.5 19.51448 -0.55 -0.0221116366018
19 20 -0.5 -0.4 19.51689 -0.45 -0.0830905843656
19 20 -0.4 -0.3 19.50589 -0.35 0.218054713047
19 20 -0.3 -0.2 19.50721 -0.25 0.0659260013328
19 20 -0.2 -0.1 19.5181 -0.15 0.133022457678
19 20 -0.1 0 19.50689 -0.05 0.202710846839
19 20 0 0.1 19.50062 0.05 0.113955185315
19 20 0.1 0.2 19.51499 0.15 0.0982473889554
19 20 0.2 0.3 19.50843 0.25 0.108660754195
19 20 0.3 0.4 19.49487 0.35 -0.071541187068
19 20 0.4 0.5 19.50331 0.45 0.007363507883
19 20 0.5 0.6 19.49933 0.55 -0.063153874187
19 20 0.6 0.7 19.50906 0.65 0.0492598501839
19 20 0.7 0.8 19.51381 0.75 -0.230636199377
19 20 0.8 0.9 19.51185 0.85 0.094316586568
19 20 0.9 1 19.49625 0.95 -0.125092981443
20 21 -1 -0.9 20.49657 -0.95 -0.127603150731
20 21 -0.9 -0.8 20.50593 -0.85 0.0217537138712
20 21 -0.8 -0.7 20.50084 -0.75 0.0197947527635
20 21 -0.7 -0.6 20.51036 -0.65 -0.129440202915
20 21 -0.6 -0.5 20.51712 -0.55 -0.0300911469025
20 21 -0.5 -0.4 20.50887 -0.45 0.0458547352565
20 21 -0.4 -0.3 20.50939 -0.35 -0.0786850425667
20 21 -0.3 -0.2 20.51653 -0.25 -0.0767796890235
20 21 -0.2 -0.1 20.51046 -0.15 0.101474099842
20 21 -0.1 0 20.50883 -0.05 -0.00266713801799
20 21 0 0.1 20.51015 0.05 0.118605784107
20 21 0.1 0.2 20.50563 0.15 -0.125626894901
20 21 0.2 0.3 20.50706 0.25 0.0714677857508
20 21 0.3 0.4 20.5042 0.35 -0.0779269138404
20 21 0.4 0.5 20.49265 0.45 0.0844500648705
20 21 0.5 0.6 20.49508 0.55 -0.0632373102443
20 21 0.6 0.7 20.51228 0.65 -0.169210690945
20 21 0.7 0.8 20.51059 0.75 0.0606818336637
20 21 0.8 0.9 20.51571 0.85 0.0424652183663
20 21 0.9 1 20.4975 0.95 0.042638465652
21 22 -1 -0.9 21.5054 -0.95 0.0619535602163
21 22 -0.9 -0.8 21.50276 -0.85 -0.0223346803977
21 22 -0.8 -0.7 21.50833 -0.75 0.0302461419347
21 22 -0.7 -0.6 21.51059 -0.65 -0.102739588884
21 22 -0.6 -0.5 21.50177 -0.55 0.100821837198
21 22 -0.5 -0.4 21.50782 -0.45 0.0657789721142
21 22 -0.4 -0.3 21.49437 -0.35 -0.155737591527
21 22 -0.3 -0.2 21.50262 -0.25 0.123284921854
21 22 -0.2 -0.1 21.50318 -0.15 0.0530287569937
21 22 -0.1 0 21.51127 -0.05 0.145897936059
21 22 0 0.1 21.51044 0.05 -0.00995542775978
21 22 0.1 0.2 21.50118 0.15 -0.0265347612606
21 22 0.2 0.3 21.50415 0.25 -0.0542701111278
21 22 0.3 0.4 21.50303 0.35 -0.014206546569
21 22 0.4 0.5 21.5113 0.45 -0.143643841139
21 22 0.5 0.6 21.50708 0.55 0.0332292661388
21 22 0.6 0.7 21.49697 0.65 -0.0646548655623
21 22 0.7 0.8 21.50106 0.75 0.165813693637
21 22 0.8 0.9 21.50808 0.85 0.0697009670696
21 22 0.9 1 21.5065 0.95 0.0646916421553
22 23 -1 -0.9 22.49484 -0.95 -0.03600088967
22 23 -0.9 -0.8 22.49982 -0.85 -0.0231697487189
22 23 -0.8 -0.7 22.50616 -0.75 0.0761581692947
22 23 -0.7 -0.6 22.4972 -0.65 0.0758492680484
22 23 -0.6 -0.5 22.50737 -0.55 0.157333961167
22 23 -0.5 -0.4 22.49776 -0.45 0.0130387536594
22 23 -0.4 -0.3 22.50353 -0.35 -0.0958865820159
22 23 -0.3 -0.2 22.50443 -0.25 -0.0721572386078
22 23 -0.2 -0.1 22.50652 -0.15 0.0595363769211
22 23 -0.1 0 22.50244 -0.05 -0.0691197839207
22 23 0 0.1 22.50151 0.05 -0.0363083470831
22 23 0.1 0.2 22.51931 0.15 -0.0816735372542
22 23 0.2 0.3 22.50659 0.25 -0.0456338822309
22 23 0.3 0.4 22.50833 0.35 -0.0399550333323
22 23 0.4 0.5 22.50614 0.45 -0.0446275030181
22 23 0.5 0.6 22.5033 0.55 -0.000340418122234
22 23 0.6 0.7 22.49828 0.65 0.0206198474508
22 23 0.7 0.8 22.51173 0.75 0.0258966247812
22 23 0.8 0.9 22.4961 0.85 -0.020628837165
22 23 0.9 1 22.50188 0.95 0.111375973073
23 24 -1 -0.9 23.50838 -0.95 -0.159496014664
23 24 -0.9 -0.8 23.50175 -0.85 -0.0319977258501
23 24 -0.8 -0.7 23.50548 -0.75 0.111207990165
23 24 -0.7 -0.6 23.5064 -0.65 -0.0628791201277
23 24 -0.6 -0.5 23.51022 -0.55 0.0263442818152
23 24 -0.5 -0.4 23.49566 -0.45 0.151755163022
23 24 -0.4 -0.3 23.5029 -0.35 -0.0152360741323
23 24 -0.3 -0.2 23.49879 -0.25 0.141173117341
23 24 -0.2 -0.1 23.50699 -0.15 0.015066429815
23 24 -0.1 0 23.50725 -0.05 -0.0928043031575
23 24 0 0.1 23.5149 0.05 -0.139488489491
23 24 0.1 0.2 23.50063 0.15 -0.00424026175661
23 24 0.2 0.3 23.51276 0.25 -0.0692683675384
23 24 0.3 0.4 23.50842 0.35 -0.0419642030166
23 24 0.4 0.5 23.50761 0.45 0.089973929816
23 24 0.5 0.6 23.50701 0.55 0.0481362245199
23 24 0.6 0.7 23.50634 0.65 -0.00613634164559
23 24 0.7 0.8 23.5128 0.75 0.0176772312403
23 24 0.8 0.9 23.5044 0.85 -0.0729960890339
23 24 0.9 1 23.51025 0.95 0.0488813530237
24 25 -1 -0.9 24.50483 -0.95 0.11747939345
24 25 -0.9 -0.8 24.51028 -0.85 -0.0198479916847
24 25 -0.8 -0.7 24.50696 -0.75 -0.111028352788
24 25 -0.7 -0.6 24.5091 -0.65 -0.0713579084068
24 25 -0.6 -0.5 24.50396 -0.55 0.0122675386096
24 25 -0.5 -0.4 24.51061 -0.45 -0.0574584586069
24 25 -0.4 -0.3 24.50489 -0.35 -0.0230042585555
24 25 -0.3 -0.2 24.50457 -0.25 0.0966538070608
24 25 -0.2 -0.1 24.50687 -0.15 0.149866081696
24 25 -0.1 0 24.50565 -0.05 0.0455408596932
24 25 0 0.1 24.51029 0.05 -0.0799729132434
24 25 0.1 0.2 24.50989 0.15 -0.112817940689
24 25 0.2 0.3 24.5 0.25 -0.167642223903
24 25 0.3 0.4 24.50737 0.35 0.0739827312559
24 25 0.4 0.5 24.50897 0.45 -0.159032683646
24 25 0.5 0.6 24.50378 0.55 0.0523988592092
24 25 0.6 0.7 24.49637 0.65 0.119923960262
24 25 0.7 0.8 24.50834 0.75 -0.108331007755
24 25 0.8 0.9 24.49838 0.85 -0.0175010747247
24 25 0.9 1 24.50301 0.95 0.112628792418
25 26 -1 -0.9 25.50752 -0.95 0.0451700184657
25 26 -0.9 -0.8 25.50446 -0.85 -0.0204788917319
25 26 -0.8 -0.7 25.51334 -0.75 -0.0115510054772
25 26 -0.7 -0.6 25.50323 -0.65 0.201118940886
25 26 -0.6 -0.5 25.50255 -0.55 0.0546092755924
25 26 -0.5 -0.4 25.50542 -0.45 0.073347445829
25 26 -0.4 -0.3 25.49227 -0.35 -0.068788929796
25 26 -0.3 -0.2 25.51148 -0.25 -0.00341222547806
25 26 -0.2 -0.1 25.50376 -0.15 -0.0975756066131
25 26 -0.1 0 25.50424 -0.05 0.010024481171
25 26 0 0.1 25.50769 0.05 0.0587738097343
25 26 0.1 0.2 25.50737 0.15 -0.178358058361
25 26 0.2 0.3 25.50304 0.25 0.0741570792353
25 26 0.3 0.4 25.50552 0.35 -0.0452518020796
25 26 0.4 0.5 25.50022 0.45 0.0804987041584
25 26 0.5 0.6 25.51005 0.55 0.00659690325197
25 26 0.6 0.7 25.50157 0.65 0.014669097813
25 26 0.7 0.8 25.49821 0.75 0.193197759358
25 26 0.8 0.9 25.50066 0.85 0.00548019644347
25 26 0.9 1 25.51741 0.95 -0.0781771933391
26 27 -1 -0.9 26.50454 -0.95 0.0265584532945
26 27 -0.9 -0.8 26.50615 -0.85 -0.00486490571786
26 27 -0.8 -0.7 26.50175 -0.75 -0.0153790932566
26 27 -0.7 -0.6 26.50227 -0.65 0.0855314157286
26 27 -0.6 -0.5 26.50311 -0.55 -0.0682072673064
26 27 -0.5 -0.4 26.5085 -0.45 0.00737320716078
26 27 -0.4 -0.3 26.50403 -0.35 -0.114123138183
26 27 -0.3 -0.2 26.50773 -0.25 -0.0267412073246
26 27 -0.2 -0.1 26.51152 -0.15 -0.0482412605787
26 27 -0.1 0 26.49987 -0.05 0.0780035882449
26 27 0 0.1 26.51127 0.05 0.043201049855
26 27 0.1 0.2 26.51012 0.15 -0.0179480136303
26 27 0.2 0.3 26.51078 0.25 -0.137250506462
26 27 0.3 0.4 26.50159 0.35 0.088344442751
26 27 0.4 0.5 26.50374 0.45 -0.0527977913304
26 27 0.5 0.6 26.50423 0.55 0.0103301487201
26 27 0.6 0.7 26.50173 0.65 0.00907274642387
26 27 0.7 0.8 26.50145 0.75 -0.0155224126182
26 27 0.8 0.9 26.5001 0.85 0.18938025293
26 27 0.9 1 26.50532 0.95 -0.0988011995507
27 28 -1 -0.9 27.50177 -0.95 0.0991735326752
27 28 -0.9 -0.8 27.50187 -0.85 -0.217303771973
27 28 -0.8 -0.7 27.50791 -0.75 0.0716479588888
27 28 -0.7 -0.6 27.50254 -0.65 0.0104720186786
27 28 -0.6 -0.5 27.50742 -0.55 -0.0935649632769
27 28 -0.5 -0.4 27.50388 -0.45 0.116134690933
27 28 -0.4 -0.3 27.50019 -0.35 -0.0361921573439
27 28 -0.3 -0.2 27.50522 -0.25 0.130650671051
27 28 -0.2 -0.1 27.50555 -0.15 0.0578771173619
27 28 -0.1 0 27.50822 -0.05 -0.105768168514
27 28 0 0.1 27.50266 0.05 0.128846412688
27 28 0.1 0.2 27.5004 0.15 -0.019409162946
27 28 0.2 0.3 27.49733 0.25 0.023192860592
27 28 0.3 0.4 27.50306 0.35 -0.0446401270935
27 28 0.4 0.5 27.50404 0.45 -0.0188980820029
27 28 0.5 0.6 27.49575 0.55 0.0212620058606
27 28 0.6 0.7 27.49978 0.65 -0.0280154893786
27 28 0.7 0.8 27.50542 0.75 0.122388906828
27 28 0.8 0.9 27.5043 0.85 -0.0305948055508
27 28 0.9 1 27.50993 0.95 -0.0368179889277
28 29 -1 -0.9 28.5029 -0.95 0.0258135568269
28 29 -0.9 -0.8 28.50899 -0.85 0.0743211567253
28 29 -0.8 -0.7 28.50227 -0.75 0.0372197936332
28 29 -0.7 -0.6 28.50763 -0.65 -0.0192875136443
28 29 -0.6 -0.5 28.4915 -0.55 0.0840914195783
28 29 -0.5 -0.4 28.49826 -0.45 0.0756756737742
28 29 -0.4 -0.3 28.50746 -0.35 -0.132382291794
28 29 -0.3 -0.2 28.49977 -0.25 -0.0234216025121
28 29 -0.2 -0.1 28.50779 -0.15 -0.115194280608
28 29 -0.1 0 28.50077 -0.05 -0.0559182340072
28 29 0 0.1 28.51041 0.05 -0.0400107337905
28 29 0.1 0.2 28.50737 0.15 0.00449152401861
28 29 0.2 0.3 28.50456 0.25 -7.32748968949e-05
28 29 0.3 0.4 28.51303 0.35 0.0216716030202
28 29 0.4 0.5 28.50142 0.45 0.0460031094032
28 29 0.5 0.6 28.51188 0.55 -0.0338092002392
28 29 0.6 0.7 28.51213 0.65 0.00081621796138
28 29 0.7 0.8 28.50648 0.75 -0.0340587751892
28 29 0.8 0.9 28.50776 0.85 0.0718298820688
28 29 0.9 1 28.50333 0.95 0.0833276697165
29 30 -1 -0.9 29.5091 -0.95 -0.173824055891
29 30 -0.9 -0.8 29.5053 -0.85 -0.0780075517113
29 30 -0.8 -0.7 29.50332 -0.75 -0.0439704807298
29 30 -0.7 -0.6 29.50307 -0.65 0.0484848590175
29 30 -0.6 -0.5 29.50127 -0.55 -0.00944098835164
29 30 -0.5 -0.4 29.50203 -0.45 0.0361868193758
29 30 -0.4 -0.3 29.50396 -0.35 -0.0328225270543
29 30 -0.3 -0.2 29.50428 -0.25 0.0215118126959
29 30 -0.2 -0.1 29.50401 -0.15 0.000382318477525
29 30 -0.1 0 29.50793 -0.05 0.0647482236409
29 30 0 0.1 29.50691 0.05 -0.0506559312843
29 30 0.1 0.2 29.50765 0.15 0.00399409100049
29 30 0.2 0.3 29.49689 0.25 0.00220904408588
29 30 0.3 0.4 29.50524 0.35 -0.0185525135746
29 30 0.4 0.5 29.50603 0.45 -0.240564737031
29 30 0.5 0.6 29.5076 0.55 0.0104066337393
29 30 0.6 0.7 29.50396 0.65 -0.0255417683029
29 30 0.7 0.8 29.50478 0.75 -0.0334023627532
29 30 0.8 0.9 29.50754 0.85 0.055748045877
29 30 0.9 1 29.51129 0.95 -0.166982582338
30 31 -1 -0.9 30.50306 -0.95 0.0515165365792
30 31 -0.9 -0.8 30.51231 -0.85 -0.0487233880547
30 31 -0.8 -0.7 30.50472 -0.75 -0.0695442140819
30 31 -0.7 -0.6 30.50504 -0.65 0.0918356893922
30 31 -0.6 -0.5 30.50607 -0.55 0.109985756184
30 31 -0.5 -0.4 30.50806 -0.45 -0.0945014642957
30 31 -0.4 -0.3 30.50421 -0.35 0.140623602231
30 31 -0.3 -0.2 30.51167 -0.25 -0.0666283960243
30 31 -0.2 -0.1 30.50317 -0.15 0.060939836955
30 31 -0.1 0 30.50688 -0.05 0.0788759461068
30 31 0 0.1 30.50368 0.05 0.0386614729387
30 31 0.1 0.2 30.50506 0.15 0.184981347763
30 31 0.2 0.3 30.51157 0.25 0.0234489344831
30 31 0.3 0.4 30.50294 0.35 -0.0305331926477
30 31 0.4 0.5 30.50021 0.45 0.00283713229515
30 31 0.5 0.6 30.50719 0.55 -0.0747908762278
30 31 0.6 0.7 30.50443 0.65 -0.083212471126
30 31 0.7 0.8 30.50416 0.75 0.00146075736286
30 31 0.8 0.9 30.50475 0.85 -0.0350896727476
30 31 0.9 1 30.50633 0.95 -0.00098516644064
31 32 -1 -0.9 31.5053 -0.95 -0.0667429636432
31 32 -0.9 -0.8 31.50693 -0.85 0.0118055226759
31 32 -0.8 -0.7 31.50672 -0.75 -0.0329687317215
31 32 -0.7 -0.6 31.50168 -0.65 0.0662601201533
31 32 -0.6 -0.5 31.49757 -0.55 0.11395525545
31 32 -0.5 -0.4 31.50597 -0.45 -0.101897712082
31 32 -0.4 -0.3 31.50295 -0.35 -0.0406056627621
31 32 -0.3 -0.2 31.49886 -0.25 -0.0031751218
31 32 -0.2 -0.1 31.4948 -0.15 0.00632873880136
31 32 -0.1 0 31.50006 -0.05 0.0471505408504
31 32 0 0.1 31.50116 0.05 -0.0576055966853
31 32 0.1 0.2 31.50076 0.15 0.00947516874705
31 32 0.2 0.3 31.50048 0.25 0.0787742374797
31 32 0.3 0.4 31.50108 0.35 0.00813433892297
31 32 0.4 0.5 31.503 0.45 -0.0882644372325
31 32 0.5 0.6 31.50033 0.55 -0.0545343009526
31 32 0.6 0.7 31.50719 0.65 -0.0230999995199
31 32 0.7 0.8 31.5011 0.75 0.08344903678
31 32 0.8 0.9 31.50347 0.85 -0.107555825431
31 32 0.9 1 31.49447 0.95 -0.0291054469634
32 33 -1 -0.9 32.50282 -0.95 -0.0912478068038
32 33 -0.9 -0.8 32.4961 -0.85 0.0784048489277
32 33 -0.8 -0.7 32.5073 -0.75 -0.0906393070524
32 33 -0.7 -0.6 32.50979 -0.65 0.0609627801476
32 33 -0.6 -0.5 32.50543 -0.55 -0.0956377407209
32 33 -0.5 -0.4 32.50918 -0.45 0.021162616415
32 33 -0.4 -0.3 32.50126 -0.35 -0.00276437883051
32 33 -0.3 -0.2 32.49879 -0.25 0.0548006411683
32 33 -0.2 -0.1 32.50269 -0.15 0.01985231548
32 33 -0.1 0 32.49559 -0.05 -0.103170083209
32 33 0 0.1 32.50109 0.05 0.0579823667372
32 33 0.1 0.2 32.50735 0.15 0.00179702102072
32 33 0.2 0.3 32.50207 0.25 0.0415300783128
32 33 0.3 0.4 32.50754 0.35 -0.0314051116237
32 33 0.4 0.5 32.50305 0.45 0.0904262773096
32 33 0.5 0.6 32.50305 0.55 0.0320506726956
32 33 0.6 0.7 32.50704 0.65 -0.0627515821741
32 33 0.7 0.8 32.5109 0.75 0.00221197519098
32 33 0.8 0.9 32.50752 0.85 0.0330639741543
32 33 0.9 1 32.504 0.95 -0.00668104065808
33 34 -1 -0.9 33.50175 -0.95 0.0104256297148
33 34 -0.9 -0.8 33.50115 -0.85 0.0347552903169
33 34 -0.8 -0.7 33.50632 -0.75 0.00795489577222
33 34 -0.7 -0.6 33.50287 -0.65 -0.0385277296338
33 34 -0.6 -0.5 33.50519 -0.55 0.0226080426289
33 34 -0.5 -0.4 33.50941 -0.45 -0.0823370563936
33 34 -0.4 -0.3 33.50118 -0.35 0.0183433157124
33 34 -0.3 -0.2 33.50051 -0.25 -0.0683197189218
33 34 -0.2 -0.1 33.50546 -0.15 -0.0429723603394
33 34 -0.1 0 33.49859 -0.05 0.0581334922563
33 34 0 0.1 33.49966 0.05 0.018834117671
33 34 0.1 0.2 33.4958 0.15 0.0494568080706
33 34 0.2 0.3 33.49703 0.25 -0.0613952503057
33 34 0.3 0.4 33.49535 0.35 0.00587875840116
33 34 0.4 0.5 33.50002 0.45 -0.0178912069006
33 34 0.5 0.6 33.50569 0.55 0.0303891562967
33 34 0.6 0.7 33.50509 0.65 0.062032561005
33 34 0.7 0.8 33.50484 0.75 -0.0642224656562
33 34 0.8 0.9 33.4998 0.85 0.000399317895333
33 34 0.9 1 33.50178 0.95 0.0365341012488
34 35 -1 -0.9 34.50243 -0.95 0.0822811990172
34 35 -0.9 -0.8 34.51453 -0.85 -0.0262315248648
34 35 -0.8 -0.7 34.49984 -0.75 -0.00553217982049
34 35 -0.7 -0.6 34.5067 -0.65 0.0909637624331
34 35 -0.6 -0.5 34.50302 -0.55 -0.0531223900809
34 35 -0.5 -0.4 34.50017 -0.45 0.00869036450473
34 35 -0.4 -0.3 34.50139 -0.35 0.0447676899287
34 35 -0.3 -0.2 34.50383 -0.25 -0.0637859904547
34 35 -0.2 -0.1 34.50266 -0.15 -0.110860541056
34 35 -0.1 0 34.50286 -0.05 0.0260742650885
34 35 0 0.1 34.50081 0.05 0.0638122332773
34 35 0.1 0.2 34.49921 0.15 -0.0964124139368
34 35 0.2 0.3 34.50079 0.25 0.0380953361687
34 35 0.3 0.4 34.50493 0.35 0.0945260846198
34 35 0.4 0.5 34.50039 0.45 0.0718984573069
34 35 0.5 0.6 34.49775 0.55 0.0601131109303
34 35 0.6 0.7 34.50119 0.65 0.00268911858007
34 35 0.7 0.8 34.49664 0.75 -0.00326225456673
34 35 0.8 0.9 34.50446 0.85 0.0304251175251
34 35 0.9 1 34.50123 0.95 -0.0704644480616
35 36 -1 -0.9 35.49964 -0.95 0.0854494875904
35 36 -0.9 -0.8 35.50247 -0.85 0.0264490070957
35 36 -0.8 -0.7 35.50055 -0.75 0.0417210407905
35 36 -0.7 -0.6 35.50409 -0.65 0.121222094676
35 36 -0.6 -0.5 35.49852 -0.55 -0.112387018549
35 36 -0.5 -0.4 35.50825 -0.45 -0.0129598142734
35 36 -0.4 -0.3 35.50336 -0.35 -0.0280520170687
35 36 -0.3 -0.2 35.50076 -0.25 -0.00712293464848
35 36 -0.2 -0.1 35.50164 -0.15 -0.0452599977819
35 36 -0.1 0 35.50145 -0.05 -0.0128955496146
35 36 0 0.1 35.50352 0.05 -0.0566186319695
35 36 0.1 0.2 35.50652 0.15 0.0998353491369
35 36 0.2 0.3 35.50253 0.25 -0.0603457059962
35 36 0.3 0.4 35.49848 0.35 -0.0658609149806
35 36 0.4 0.5 35.50893 0.45 0.00477273914889
35 36 0.5 0.6 35.50245 0.55 0.0098920141748
35 36 0.6 0.7 35.50475 0.65 -0.0672134384866
35 36 0.7 0.8 35.50049 0.75 0.00139023079525
35 36 0.8 0.9 35.51296 0.85 0.131448773971
35 36 0.9 1 35.50358 0.95 0.0586887185318
36 37 -1 -0.9 36.50463 -0.95 -0.036216395235
36 37 -0.9 -0.8 36.51132 -0.85 -0.0709847366222
36 37 -0.8 -0.7 36.50627 -0.75 0.0774839330987
36 37 -0.7 -0.6 36.49883 -0.65 -0.0302650928316
36 37 -0.6 -0.5 36.49944 -0.55 -0.107180875405
36 37 -0.5 -0.4 36.49933 -0.45 0.0624150364172
36 37 -0.4 -0.3 36.49862 -0.35 -0.0837983968058
36 37 -0.3 -0.2 36.50573 -0.25 -0.032434045642
36 37 -0.2 -0.1 36.49698 -0.15 0.0814253837045
36 37 -0.1 0 36.5029 -0.05 0.0758006419032
36 37 0 0.1 36.50365 0.05 0.0398442489576
36 37 0.1 0.2 36.50546 0.15 -0.0419002782451
36 37 0.2 0.3 36.50013 0.25 0.0827900539479
36 37 0.3 0.4 36.50034 0.35 -0.0392515830639
36 37 0.4 0.5 36.50094 0.45 0.0357167545121
36 37 0.5 0.6 36.50077 0.55 0.0484378002937
36 37 0.6 0.7 36.50387 0.65 0.04867067217
36 37 0.7 0.8 36.50394 0.75 -0.0194769665395
36 37 0.8 0.9 36.5033 0.85 0.10033483328
36 37 0.9 1 36.50596 0.95 0.110610879235
37 38 -1 -0.9 37.50069 -0.95 -0.093222717507
37 38 -0.9 -0.8 37.50447 -0.85 -0.0169712460086
37 38 -0.8 -0.7 37.50363 -0.75 0.032654912623
37 38 -0.7 -0.6 37.50282 -0.65 -0.0713740582059
37 38 -0.6 -0.5 37.49731 -0.55 0.0699841681819
37 38 -0.5 -0.4 37.50287 -0.45 0.107050075899
37 38 -0.4 -0.3 37.50016 -0.35 -0.128927732888
37 38 -0.3 -0.2 37.49376 -0.25 0.00159281069781
37 38 -0.2 -0.1 37.49598 -0.15 -0.00313953648799
37 38 -0.1 0 37.50706 -0.05 -0.0544085057428
37 38 0 0.1 37.49888 0.05 -5.69417713658e-05
37 38 0.1 0.2 37.4998 0.15 -0.0279666840141
37 38 0.2 0.3 37.50105 0.25 -0.0555553523673
37 38 0.3 0.4 37.50283 0.35 0.0913133374655
37 38 0.4 0.5 37.50661 0.45 0.0272027868814
37 38 0.5 0.6 37.50898 0.55 -0.058531041209
37 38 0.6 0.7 37.50209 0.65 -0.0670999255133
37 38 0.7 0.8 37.50143 0.75 0.0848254556076
37 38 0.8 0.9 37.5007 0.85 0.114604729613
37 38 0.9 1 37.49864 0.95 -0.00697317358792
38 39 -1 -0.9 38.5013 -0.95 -0.0481841167314
38 39 -0.9 -0.8 38.50531 -0.85 -0.0351390562923
38 39 -0.8 -0.7 38.5006 -0.75 0.0664752429954
38 39 -0.7 -0.6 38.50574 -0.65 0.0443745197135
38 39 -0.6 -0.5 38.49888 -0.55 0.0832406314143
38 39 -0.5 -0.4 38.50576 -0.45 -0.0488370494267
38 39 -0.4 -0.3 38.50212 -0.35 -0.0653874343456
38 39 -0.3 -0.2 38.49956 -0.25 -0.0717065493384
38 39 -0.2 -0.1 38.49872 -0.15 -0.0111124879913
38 39 -0.1 0 38.50901 -0.05 -0.0930327778421
38 39 0 0.1 38.51322 0.05 0.0166493647168
38 39 0.1 0.2 38.50425 0.15 -0.0372626380461
38 39 0.2 0.3 38.50503 0.25 -0.0805313477436
38 39 0.3 0.4 38.50007 0.35 -0.0396048411186
38 39 0.4 0.5 38.49631 0.45 -0.131362746179
38 39 0.5 0.6 38.49924 0.55 0.0239316914556
38 39 0.6 0.7 38.50045 0.65 0.0157413481086
38 39 0.7 0.8 38.50051 0.75 -0.00482622531679
38 39 0.8 0.9 38.50598 0.85 -0.00975670171404
38 39 0.9 1 38.5003 0.95 0.00396670080534
39 40 -1 -0.9 39.50328 -0.95 0.0876978836927
39 40 -0.9 -0.8 39.50212 -0.85 -0.0212431356469
39 40 -0.8 -0.7 39.49658 -0.75 0.0013359428899
39 40 -0.7 -0.6 39.50598 -0.65 0.0466298209702
39 40 -0.6 -0.5 39.5054 -0.55 0.0185770188809
39 40 -0.5 -0.4 39.49849 -0.45 -0.0335234122047
39 40 -0.4 -0.3 39.49839 -0.35 0.0353286272394
39 40 -0.3 -0.2 39.50044 -0.25 -0.0940801804683
39 40 -0.2 -0.1 39.5032 -0.15 0.0248360395848
39 40 -0.1 0 39.50033 -0.05 0.0144616131359
39 40 0 0.1 39.50165 0.05 0.0132808406083
39 40 0.1 0.2 39.50062 0.15 0.0659959420521
39 40 0.2 0.3 39.50183 0.25 0.0294710688126
39 40 0.3 0.4 39.50064 0.35 0.027991896359
39 40 0.4 0.5 39.50543 0.45 -0.0237560742637
39 40 0.5 0.6 39.50297 0.55 0.0359698672992
39 40 0.6 0.7 39.50084 0.65 0.0219392706112
39 40 0.7 0.8 39.49469 0.75 0.0917438502139
39 40 0.8 0.9 39.49783 0.85 0.0103170517306
39 40 0.9 1 39.50103 0.95 -0.0337181980342
40 41 -1 -0.9 40.50074 -0.95 -0.0247082370402
40 41 -0.9 -0.8 40.50619 -0.85 0.0385027339106
40 41 -0.8 -0.7 40.49894 -0.75 0.0195979364926
40 41 -0.7 -0.6 40.50613 -0.65 -0.0891410379319
40 41 -0.6 -0.5 40.50264 -0.55 0.080375545765
40 41 -0.5 -0.4 40.49961 -0.45 -0.053197982002
40 41 -0.4 -0.3 40.50015 -0.35 -0.0109363622863
40 41 -0.3 -0.2 40.50386 -0.25 -0.0685556002193
40 41 -0.2 -0.1 40.5044 -0.15 -0.010496321356
40 41 -0.1 0 40.49694 -0.05 0.0305451904169
40 41 0 0.1 40.5051 0.05 0.0185234434545
40 41 0.1 0.2 40.50296 0.15 -0.0266444793253
40 41 0.2 0.3 40.50429 0.25 0.0659443964152
40 41 0.3 0.4 40.50098 0.35 0.061927168147
40 41 0.4 0.5 40.50033 0.45 0.0347902514288
40 41 0.5 0.6 40.5025 0.55 0.0759037909435
40 41 0.6 0.7 40.50357 0.65 0.00346024337555
40 41 0.7 0.8 40.5057 0.75 0.0446496968736
40 41 0.8 0.9 40.50101 0.85 0.0461831129302
40 41 0.9 1 40.49548 0.95 -0.0128797719133
