#edges = (np.linspace(1, 41, 41), np.linspace(-1, 1, 21))
#s_low s_high mu_low mu_high s mu corr
1 2 -1 -0.9 1.528356 -0.95 0.967087233928
1 2 -0.9 -0.8 1.532185 -0.85 -0.116634322885
1 2 -0.8 -0.7 1.661404 -0.75 -0.294577928652
1 2 -0.7 -0.6 1.613428 -0.65 -1.57155798483
1 2 -0.6 -0.5 1.615649 -0.55 -1.28344269656
1 2 -0.5 -0.4 1.627819 -0.45 -1.12690503404
1 2 -0.4 -0.3 1.599296 -0.35 -0.882652588564
1 2 -0.3 -0.2 1.548818 -0.25 -1.01210351374
1 2 -0.2 -0.1 1.599862 -0.15 -2.04038916982
1 2 -0.1 0 1.643269 -0.05 0.937961365619
1 2 0 0.1 1.643269 0.05 0.937961365619
1 2 0.1 0.2 1.599862 0.15 -2.04038916982
1 2 0.2 0.3 1.548818 0.25 -1.01210351374
1 2 0.3 0.4 1.599296 0.35 -0.882652588564
1 2 0.4 0.5 1.627819 0.45 -1.12690503404
1 2 0.5 0.6 1.615649 0.55 -1.28344269656
1 2 0.6 0.7 1.613428 0.65 -1.57155798483
1 2 0.7 0.8 1.661404 0.75 -0.294577928652
1 2 0.8 0.9 1.532185 0.85 -0.116634322885
1 2 0.9 1 1.528356 0.95 0.967087233928
2 3 -1 -0.9 2.513961 -0.95 -0.161057001958
2 3 -0.9 -0.8 2.519211 -0.85 0.265228658053
2 3 -0.8 -0.7 2.56408 -0.75 -0.393991376653
2 3 -0.7 -0.6 2.596928 -0.65 0.548178370421
2 3 -0.6 -0.5 2.558018 -0.55 1.23576975422
2 3 -0.5 -0.4 2.552597 -0.45 -0.124361935193
2 3 -0.4 -0.3 2.590241 -0.35 0.654089045185
2 3 -0.3 -0.2 2.556696 -0.25 0.0955594138243
2 3 -0.2 -0.1 2.547618 -0.15 0.377401493929
2 3 -0.1 0 2.572787 -0.05 -0.0121231095746
2 3 0 0.1 2.572787 0.05 -0.0121231095746
2 3 0.1 0.2 2.547618 0.15 0.377401493929
2 3 0.2 0.3 2.556696 0.25 0.0955594138243
2 3 0.3 0.4 2.590241 0.35 0.654089045185
2 3 0.4 0.5 2.552597 0.45 -0.124361935193
2 3 0.5 0.6 2.558018 0.55 1.23576975422
2 3 0.6 0.7 2.596928 0.65 0.548178370421
2 3 0.7 0.8 2.56408 0.75 -0.393991376653
2 3 0.8 0.9 2.519211 0.85 0.265228658053
2 3 0.9 1 2.513961 0.95 -0.161057001958
3 4 -1 -0.9 3.557166 -0.95 -0.215795840338
3 4 -0.9 -0.8 3.528159 -0.85 0.127950607552
3 4 -0.8 -0.7 3.549919 -0.75 -9.45977588995e-05
3 4 -0.7 -0.6 3.557703 -0.65 0.792106050885
3 4 -0.6 -0.5 3.531288 -0.55 -0.302577960932
3 4 -0.5 -0.4 3.573748 -0.45 0.195867535689
3 4 -0.4 -0.3 3.534077 -0.35 0.13326284713
3 4 -0.3 -0.2 3.550506 -0.25 -0.0918118978647
3 4 -0.2 -0.1 3.598121 -0.15 -0.363687252383
3 4 -0.1 0 3.567951 -0.05 0.439943036751
3 4 0 0.1 3.567951 0.05 0.439943036751
3 4 0.1 0.2 3.598121 0.15 -0.363687252383
3 4 0.2 0.3 3.550506 0.25 -0.0918118978647
3 4 0.3 0.4 3.534077 0.35 0.13326284713
3 4 0.4 0.5 3.573748 0.45 0.195867535689
3 4 0.5 0.6 3.531288 0.55 -0.302577960932
3 4 0.6 0.7 3.557703 0.65 0.792106050885
3 4 0.7 0.8 3.549919 0.75 -9.45977588995e-05
3 4 0.8 0.9 3.528159 0.85 0.127950607552
3 4 0.9 1 3.557166 0.95 -0.215795840338
4 5 -1 -0.9 4.518441 -0.95 -0.297236850374
4 5 -0.9 -0.8 4.537832 -0.85 -0.539038894873
4 5 -0.8 -0.7 4.517889 -0.75 -0.523310455444
4 5 -0.7 -0.6 4.529441 -0.65 0.0366215902588
4 5 -0.6 -0.5 4.563392 -0.55 0.101563558628
4 5 -0.5 -0.4 4.529112 -0.45 -0.244823840712
4 5 -0.4 -0.3 4.543401 -0.35 0.261225615676
4 5 -0.3 -0.2 4.538046 -0.25 0.322470412828
4 5 -0.2 -0.1 4.564528 -0.15 -0.343909430999
4 5 -0.1 0 4.545058 -0.05 0.413441524539
4 5 0 0.1 4.545058 0.05 0.413441524539
4 5 0.1 0.2 4.564528 0.15 -0.343909430999
4 5 0.2 0.3 4.538046 0.25 0.322470412828
4 5 0.3 0.4 4.543401 0.35 0.261225615676
4 5 0.4 0.5 4.529112 0.45 -0.244823840712
4 5 0.5 0.6 4.563392 0.55 0.101563558628
4 5 0.6 0.7 4.529441 0.65 0.0366215902588
4 5 0.7 0.8 4.517889 0.75 -0.523310455444
4 5 0.8 0.9 4.537832 0.85 -0.539038894873
4 5 0.9 1 4.518441 0.95 -0.297236850374
5 6 -1 -0.9 5.536249 -0.95 -0.0265968805308
5 6 -0.9 -0.8 5.494755 -0.85 0.020528030758
5 6 -0.8 -0.7 5.506027 -0.75 -0.0823357129535
5 6 -0.7 -0.6 5.540897 -0.65 -0.487081590441
5 6 -0.6 -0.5 5.537132 -0.55 -0.0346315714993
5 6 -0.5 -0.4 5.539368 -0.45 -0.357056076346
5 6 -0.4 -0.3 5.528726 -0.35 0.00515530297165
5 6 -0.3 -0.2 5.529926 -0.25 -0.159940935793
5 6 -0.2 -0.1 5.530237 -0.15 -0.659004630295
5 6 -0.1 0 5.540997 -0.05 -0.362425596041
5 6 0 0.1 5.540997 0.05 -0.362425596041
5 6 0.1 0.2 5.530237 0.15 -0.659004630295
5 6 0.2 0.3 5.529926 0.25 -0.159940935793
5 6 0.3 0.4 5.528726 0.35 0.00515530297165
5 6 0.4 0.5 5.539368 0.45 -0.357056076346
5 6 0.5 0.6 5.537132 0.55 -0.0346315714993
5 6 0.6 0.7 5.540897 0.65 -0.487081590441
5 6 0.7 0.8 5.506027 0.75 -0.0823357129535
5 6 0.8 0.9 5.494755 0.85 0.020528030758
5 6 0.9 1 5.536249 0.95 -0.0265968805308
6 7 -1 -0.9 6.500796 -0.95 0.484596764178
6 7 -0.9 -0.8 6.537699 -0.85 -0.063818876518
6 7 -0.8 -0.7 6.517242 -0.75 -0.268613202461
6 7 -0.7 -0.6 6.530199 -0.65 -0.162596935093
6 7 -0.6 -0.5 6.496706 -0.55 -0.0563995429251
6 7 -0.5 -0.4 6.514101 -0.45 0.245586672137
6 7 -0.4 -0.3 6.541142 -0.35 -0.0565811716425
6 7 -0.3 -0.2 6.542188 -0.25 -0.0513506150406
6 7 -0.2 -0.1 6.528845 -0.15 -0.0171216221533
6 7 -0.1 0 6.511929 -0.05 0.484393380136
6 7 0 0.1 6.511929 0.05 0.484393380136
6 7 0.1 0.2 6.528845 0.15 -0.0171216221533
6 7 0.2 0.3 6.542188 0.25 -0.0513506150406
6 7 0.3 0.4 6.541142 0.35 -0.0565811716425
6 7 0.4 0.5 6.514101 0.45 0.245586672137
6 7 0.5 0.6 6.496706 0.55 -0.0563995429251
6 7 0.6 0.7 6.530199 0.65 -0.162596935093
6 7 0.7 0.8 6.517242 0.75 -0.268613202461
6 7 0.8 0.9 6.537699 0.85 -0.063818876518
6 7 0.9 1 6.500796 0.95 0.484596764178
7 8 -1 -0.9 7.528653 -0.95 -0.194998893873
7 8 -0.9 -0.8 7.513518 -0.85 0.115494881068
7 8 -0.8 -0.7 7.518453 -0.75 -0.0564696376055
7 8 -0.7 -0.6 7.512779 -0.65 0.103521679452
7 8 -0.6 -0.5 7.536179 -0.55 0.196626455714
7 8 -0.5 -0.4 7.515241 -0.45 0.0875785831547
7 8 -0.4 -0.3 7.531007 -0.35 0.269368291149
7 8 -0.3 -0.2 7.52051 -0.25 -0.203234322533
7 8 -0.2 -0.1 7.514321 -0.15 0.241175964118
7 8 -0.1 0 7.496626 -0.05 -0.503274121637
7 8 0 0.1 7.496626 0.05 -0.503274121637
7 8 0.1 0.2 7.514321 0.15 0.241175964118
7 8 0.2 0.3 7.52051 0.25 -0.203234322533
7 8 0.3 0.4 7.531007 0.35 0.269368291149
7 8 0.4 0.5 7.515241 0.45 0.0875785831547
7 8 0.5 0.6 7.536179 0.55 0.196626455714
7 8 0.6 0.7 7.512779 0.65 0.103521679452
7 8 0.7 0.8 7.518453 0.75 -0.0564696376055
7 8 0.8 0.9 7.513518 0.85 0.115494881068
7 8 0.9 1 7.528653 0.95 -0.194998893873
8 9 -1 -0.9 8.5 -0.95 -0.26356694633
8 9 -0.9 -0.8 8.534818 -0.85 0.0738141520787
8 9 -0.8 -0.7 8.517133 -0.75 -0.0230903454499
8 9 -0.7 -0.6 8.506196 -0.65 -0.382879497091
8 9 -0.6 -0.5 8.525593 -0.55 -0.0886841296259
8 9 -0.5 -0.4 8.504206 -0.45 -0.0632285473374
8 9 -0.4 -0.3 8.516852 -0.35 -0.169003573381
8 9 -0.3 -0.2 8.526299 -0.25 -0.236394164193
8 9 -0.2 -0.1 8.529549 -0.15 0.0734522533349
8 9 -0.1 0 8.481461 -0.05 0.209042984046
8 9 0 0.1 8.481461 0.05 0.209042984046
8 9 0.1 0.2 8.529549 0.15 0.0734522533349
8 9 0.2 0.3 8.526299 0.25 -0.236394164193
8 9 0.3 0.4 8.516852 0.35 -0.169003573381
8 9 0.4 0.5 8.504206 0.45 -0.0632285473374
8 9 0.5 0.6 8.525593 0.55 -0.0886841296259
8 9 0.6 0.7 8.506196 0.65 -0.382879497091
8 9 0.7 0.8 8.517133 0.75 -0.0230903454499
8 9 0.8 0.9 8.534818 0.85 0.0738141520787
8 9 0.9 1 8.5 0.95 -0.26356694633
9 10 -1 -0.9 9.510393 -0.95 0.256673235375
9 10 -0.9 -0.8 9.511253 -0.85 0.210150536985
9 10 -0.8 -0.7 9.517172 -0.75 0.139604676111
9 10 -0.7 -0.6 9.552611 -0.65 0.258005482218
9 10 -0.6 -0.5 9.526678 -0.55 0.226109515397
9 10 -0.5 -0.4 9.51643 -0.45 -0.145110336639
9 10 -0.4 -0.3 9.509767 -0.35 0.312183397991
9 10 -0.3 -0.2 9.518623 -0.25 0.178084929901
9 10 -0.2 -0.1 9.511162 -0.15 -0.242331621901
9 10 -0.1 0 9.519333 -0.05 -0.0926244839494
9 10 0 0.1 9.519333 0.05 -0.0926244839494
9 10 0.1 0.2 9.511162 0.15 -0.242331621901
9 10 0.2 0.3 9.518623 0.25 0.178084929901
9 10 0.3 0.4 9.509767 0.35 0.312183397991
9 10 0.4 0.5 9.51643 0.45 -0.145110336639
9 10 0.5 0.6 9.526678 0.55 0.226109515397
9 10 0.6 0.7 9.552611 0.65 0.258005482218
9 10 0.7 0.8 9.517172 0.75 0.139604676111
9 10 0.8 0.9 9.511253 0.85 0.210150536985
9 10 0.9 1 9.510393 0.95 0.256673235375
10 11 -1 -0.9 10.51024 -0.95 0.137455025108
10 11 -0.9 -0.8 10.50947 -0.85 -0.0720297555107
10 11 -0.8 -0.7 10.50427 -0.75 -0.0496254848927
10 11 -0.7 -0.6 10.5095 -0.65 -0.0152858556126
10 11 -0.6 -0.5 10.52111 -0.55 -0.131968061222
10 11 -0.5 -0.4 10.51937 -0.45 0.399965746274
10 11 -0.4 -0.3 10.50432 -0.35 0.254601510677
10 11 -0.3 -0.2 10.51263 -0.25 -0.0591487998969
10 11 -0.2 -0.1 10.50916 -0.15 -0.253723261067
10 11 -0.1 0 10.52126 -0.05 -0.070438526581
10 11 0 0.1 10.52126 0.05 -0.070438526581
10 11 0.1 0.2 10.50916 0.15 -0.253723261067
10 11 0.2 0.3 10.51263 0.25 -0.0591487998969
10 11 0.3 0.4 10.50432 0.35 0.254601510677
10 11 0.4 0.5 10.51937 0.45 0.399965746274
10 11 0.5 0.6 10.52111 0.55 -0.131968061222
10 11 0.6 0.7 10.5095 0.65 -0.0152858556126
10 11 0.7 0.8 10.50427 0.75 -0.0496254848927
10 11 0.8 0.9 10.50947 0.85 -0.0720297555107
10 11 0.9 1 10.51024 0.95 0.137455025108
11 12 -1 -0.9 11.51572 -0.95 0.107545887607
11 12 -0.9 -0.8 11.50169 -0.85 -0.136280366162
11 12 -0.8 -0.7 11.51391 -0.75 0.0363263287901
11 12 -0.7 -0.6 11.52217 -0.65 0.0114777112661
11 12 -0.6 -0.5 11.51615 -0.55 0.0174839253254
11 12 -0.5 -0.4 11.49412 -0.45 0.149161599742
11 12 -0.4 -0.3 11.51347 -0.35 -0.200206835544
11 12 -0.3 -0.2 11.51512 -0.25 0.111882570539
11 12 -0.2 -0.1 11.51399 -0.15 0.0708044550721
11 12 -0.1 0 11.49574 -0.05 -0.238195819653
11 12 0 0.1 11.49574 0.05 -0.238195819653
11 12 0.1 0.2 11.51399 0.15 0.0708044550721
11 12 0.2 0.3 11.51512 0.25 0.111882570539
11 12 0.3 0.4 11.51347 0.35 -0.200206835544
11 12 0.4 0.5 11.49412 0.45 0.149161599742
11 12 0.5 0.6 11.51615 0.55 0.0174839253254
11 12 0.6 0.7 11.52217 0.65 0.0114777112661
11 12 0.7 0.8 11.51391 0.75 0.0363263287901
11 12 0.8 0.9 11.50169 0.85 -0.136280366162
11 12 0.9 1 11.51572 0.95 0.107545887607
12 13 -1 -0.9 12.51154 -0.95 0.0193065987422
12 13 -0.9 -0.8 12.5071 -0.85 0.0281289164751
12 13 -0.8 -0.7 12.51868 -0.75 0.0280640869159
12 13 -0.7 -0.6 12.50272 -0.65 0.116072483958
12 13 -0.6 -0.5 12.50673 -0.55 0.0253277396633
12 13 -0.5 -0.4 12.5061 -0.45 0.0787076181558
12 13 -0.4 -0.3 12.51753 -0.35 0.129940004496
12 13 -0.3 -0.2 12.53085 -0.25 -0.0830470842386
12 13 -0.2 -0.1 12.52009 -0.15 -0.127365030355
12 13 -0.1 0 12.51457 -0.05 -0.131275327038
12 13 0 0.1 12.51457 0.05 -0.131275327038
12 13 0.1 0.2 12.52009 0.15 -0.127365030355
12 13 0.2 0.3 12.53085 0.25 -0.0830470842386
12 13 0.3 0.4 12.51753 0.35 0.129940004496
12 13 0.4 0.5 12.5061 0.45 0.0787076181558
12 13 0.5 0.6 12.50673 0.55 0.0253277396633
12 13 0.6 0.7 12.50272 0.65 0.116072483958
12 13 0.7 0.8 12.51868 0.75 0.0280640869159
12 13 0.8 0.9 12.5071 0.85 0.0281289164751
12 13 0.9 1 12.51154 0.95 0.0193065987422
13 14 -1 -0.9 13.51429 -0.95 -0.126976067738
13 14 -0.9 -0.8 13.49984 -0.85 -0.264031345689
13 14 -0.8 -0.7 13.51483 -0.75 0.175847754582
13 14 -0.7 -0.6 13.50914 -0.65 -0.0452669976892
13 14 -0.6 -0.5 13.50163 -0.55 -0.141107451064
13 14 -0.5 -0.4 13.51647 -0.45 -0.10429462632
13 14 -0.4 -0.3 13.5108 -0.35 0.127079767599
13 14 -0.3 -0.2 13.51343 -0.25 0.311141171625
13 14 -0.2 -0.1 13.51468 -0.15 0.0758800814268
13 14 -0.1 0 13.51078 -0.05 -0.0142958810035
13 14 0 0.1 13.51078 0.05 -0.0142958810035
13 14 0.1 0.2 13.51468 0.15 0.0758800814268
13 14 0.2 0.3 13.51343 0.25 0.311141171625
13 14 0.3 0.4 13.5108 0.35 0.127079767599
13 14 0.4 0.5 13.51647 0.45 -0.10429462632
13 14 0.5 0.6 13.50163 0.55 -0.141107451064
13 14 0.6 0.7 13.50914 0.65 -0.0452669976892
13 14 0.7 0.8 13.51483 0.75 0.175847754582
13 14 0.8 0.9 13.49984 0.85 -0.264031345689
13 14 0.9 1 13.51429 0.95 -0.126976067738
14 15 -1 -0.9 14.51034 -0.95 -0.05602569929
14 15 -0.9 -0.8 14.51352 -0.85 -0.00522881111042
14 15 -0.8 -0.7 14.51063 -0.75 0.223463007489
14 15 -0.7 -0.6 14.51596 -0.65 -0.116347066107
14 15 -0.6 -0.5 14.5177 -0.55 -0.111371491188
14 15 -0.5 -0.4 14.50852 -0.45 -0.00923189304914
14 15 -0.4 -0.3 14.52014 -0.35 0.0103523138685
14 15 -0.3 -0.2 14.50621 -0.25 0.031998280998
14 15 -0.2 -0.1 14.51315 -0.15 0.156205754441
14 15 -0.1 0 14.50557 -0.05 -0.0333645783325
14 15 0 0.1 14.50557 0.05 -0.0333645783325
14 15 0.1 0.2 14.51315 0.15 0.156205754441
14 15 0.2 0.3 14.50621 0.25 0.031998280998
14 15 0.3 0.4 14.52014 0.35 0.0103523138685
14 15 0.4 0.5 14.50852 0.45 -0.00923189304914
14 15 0.5 0.6 14.5177 0.55 -0.111371491188
14 15 0.6 0.7 14.51596 0.65 -0.116347066107
14 15 0.7 0.8 14.51063 0.75 0.223463007489
14 15 0.8 0.9 14.51352 0.85 -0.00522881111042
14 15 0.9 1 14.51034 0.95 -0.05602569929
15 16 -1 -0.9 15.50968 -0.95 -0.142299892012
15 16 -0.9 -0.8 15.51619 -0.85 0.0743944329513
15 16 -0.8 -0.7 15.50787 -0.75 -0.0457223132271
15 16 -0.7 -0.6 15.50183 -0.65 -0.0588097981215
15 16 -0.6 -0.5 15.50441 -0.55 0.0828529241039
15 16 -0.5 -0.4 15.50873 -0.45 0.108010126392
15 16 -0.4 -0.3 15.51137 -0.35 -0.0073560820989
15 16 -0.3 -0.2 15.49875 -0.25 -0.183932811883
15 16 -0.2 -0.1 15.51342 -0.15 0.0552157303689
15 16 -0.1 0 15.50979 -0.05 -0.0883420278281
15 16 0 0.1 15.50979 0.05 -0.0883420278281
15 16 0.1 0.2 15.51342 0.15 0.0552157303689
15 16 0.2 0.3 15.49875 0.25 -0.183932811883
15 16 0.3 0.4 15.51137 0.35 -0.0073560820989
15 16 0.4 0.5 15.50873 0.45 0.108010126392
15 16 0.5 0.6 15.50441 0.55 0.0828529241039
15 16 0.6 0.7 15.50183 0.65 -0.0588097981215
15 16 0.7 0.8 15.50787 0.75 -0.0457223132271
15 16 0.8 0.9 15.51619 0.85 0.0743944329513
15 16 0.9 1 15.50968 0.95 -0.142299892012
16 17 -1 -0.9 16.50694 -0.95 0.113911638783
16 17 -0.9 -0.8 16.50118 -0.85 -0.037551614755
16 17 -0.8 -0.7 16.50717 -0.75 0.1800180421
16 17 -0.7 -0.6 16.51551 -0.65 0.025201291935
16 17 -0.6 -0.5 16.50543 -0.55 0.142970696132
16 17 -0.5 -0.4 16.50904 -0.45 -0.0277846824977
16 17 -0.4 -0.3 16.50504 -0.35 0.0460777942952
16 17 -0.3 -0.2 16.51773 -0.25 -0.0187535647953
16 17 -0.2 -0.1 16.50338 -0.15 -0.0787458656975
16 17 -0.1 0 16.50528 -0.05 -0.0940744912493
16 17 0 0.1 16.50528 0.05 -0.0940744912493
16 17 0.1 0.2 16.50338 0.15 -0.0787458656975
16 17 0.2 0.3 16.51773 0.25 -0.0187535647953
16 17 0.3 0.4 16.50504 0.35 0.0460777942952
16 17 0.4 0.5 16.50904 0.45 -0.0277846824977
16 17 0.5 0.6 16.50543 0.55 0.142970696132
16 17 0.6 0.7 16.51551 0.65 0.025201291935
16 17 0.7 0.8 16.50717 0.75 0.1800180421
16 17 0.8 0.9 16.50118 0.85 -0.037551614755
16 17 0.9 1 16.50694 0.95 0.113911638783
17 18 -1 -0.9 17.51383 -0.95 0.10032217699
17 18 -0.9 -0.8 17.50778 -0.85 0.0864533322677
17 18 -0.8 -0.7 17.50448 -0.75 0.0610594109006
17 18 -0.7 -0.6 17.50546 -0.65 0.252085268992
17 18 -0.6 -0.5 17.49777 -0.55 -0.0281373177583
17 18 -0.5 -0.4 17.50077 -0.45 0.0493025661931
17 18 -0.4 -0.3 17.50741 -0.35 -0.0330931066169
17 18 -0.3 -0.2 17.50506 -0.25 0.0871232405449
17 18 -0.2 -0.1 17.51445 -0.15 -0.0121697767544
17 18 -0.1 0 17.51234 -0.05 0.0601517892107
17 18 0 0.1 17.51234 0.05 0.0601517892107
17 18 0.1 0.2 17.51445 0.15 -0.0121697767544
17 18 0.2 0.3 17.50506 0.25 0.0871232405449
17 18 0.3 0.4 17.50741 0.35 -0.0330931066169
17 18 0.4 0.5 17.50077 0.45 0.0493025661931
17 18 0.5 0.6 17.49777 0.55 -0.0281373177583
17 18 0.6 0.7 17.50546 0.65 0.252085268992
17 18 0.7 0.8 17.50448 0.75 0.0610594109006
17 18 0.8 0.9 17.50778 0.85 0.0864533322677
17 18 0.9 1 17.51383 0.95 0.10032217699
18 19 -1 -0.9 18.50775 -0.95 -0.051041428692
18 19 -0.9 -0.8 18.51228 -0.85 -0.0924295755068
18 19 -0.8 -0.7 18.51111 -0.75 -0.0304364039909
18 19 -0.7 -0.6 18.51364 -0.65 0.0767173714663
18 19 -0.6 -0.5 18.50754 -0.55 -0.014823213357
18 19 -0.5 -0.4 18.50007 -0.45 0.0399272456045
18 19 -0.4 -0.3 18.50378 -0.35 -0.081862554953
18 19 -0.3 -0.2 18.5011 -0.25 -0.119989530264
18 19 -0.2 -0.1 18.50195 -0.15 -0.00238376449359
18 19 -0.1 0 18.5048 -0.05 -0.0269591832242
18 19 0 0.1 18.5048 0.05 -0.0269591832242
18 19 0.1 0.2 18.50195 0.15 -0.00238376449359
18 19 0.2 0.3 18.5011 0.25 -0.119989530264
18 19 0.3 0.4 18.50378 0.35 -0.081862554953
18 19 0.4 0.5 18.50007 0.45 0.0399272456045
18 19 0.5 0.6 18.50754 0.55 -0.014823213357
18 19 0.6 0.7 18.51364 0.65 0.0767173714663
18 19 0.7 0.8 18.51111 0.75 -0.0304364039909
18 19 0.8 0.9 18.51228 0.85 -0.0924295755068
18 19 0.9 1 18.50775 0.95 -0.051041428692
19 20 -1 -0.9 19.50888 -0.95 -0.0117175330416
19 20 -0.9 -0.8 19.5038 -0.85 0.0244429221625
19 20 -0.8 -0.7 19.505 -0.75 -0.00481368521368
19 20 -0.7 -0.6 19.50367 -0.65 0.0946238801907
19 20 -0.6 -0.5 19.50609 -0.55 -0.0657016342601
19 20 -0.5 -0.4 19.51112 -0.45 -0.0212737254983
19 20 -0.4 -0.3 19.50906 -0.35 0.0921917394757
19 20 -0.3 -0.2 19.51061 -0.25 0.00669568776155
19 20 -0.2 -0.1 19.50978 -0.15 -0.0164112644685
19 20 -0.1 0 19.50096 -0.05 0.0845659579518
19 20 0 0.1 19.50096 0.05 0.0845659579518
19 20 0.1 0.2 19.50978 0.15 -0.0164112644685
19 20 0.2 0.3 19.51061 0.25 0.00669568776155
19 20 0.3 0.4 19.50906 0.35 0.0921917394757
19 20 0.4 0.5 19.51112 0.45 -0.0212737254983
19 20 0.5 0.6 19.50609 0.55 -0.0657016342601
19 20 0.6 0.7 19.50367 0.65 0.0946238801907
19 20 0.7 0.8 19.505 0.75 -0.00481368521368
19 20 0.8 0.9 19.5038 0.85 0.0244429221625
19 20 0.9 1 19.50888 0.95 -0.0117175330416
20 21 -1 -0.9 20.50413 -0.95 -0.124915055599
20 21 -0.9 -0.8 20.5019 -0.85 0.0092054152879
20 21 -0.8 -0.7 20.51025 -0.75 -0.0317227435311
20 21 -0.7 -0.6 20.4985 -0.65 -0.0305932592558
20 21 -0.6 -0.5 20.50269 -0.55 0.0396690776026
20 21 -0.5 -0.4 20.50193 -0.45 -0.132228864866
20 21 -0.4 -0.3 20.4982 -0.35 -0.146570436748
20 21 -0.3 -0.2 20.49588 -0.25 0.0783268768155
20 21 -0.2 -0.1 20.51769 -0.15 0.10807985162
20 21 -0.1 0 20.50767 -0.05 0.125276482702
20 21 0 0.1 20.50767 0.05 0.125276482702
20 21 0.1 0.2 20.51769 0.15 0.10807985162
20 21 0.2 0.3 20.49588 0.25 0.0783268768155
20 21 0.3 0.4 20.4982 0.35 -0.146570436748
20 21 0.4 0.5 20.50193 0.45 -0.132228864866
20 21 0.5 0.6 20.50269 0.55 0.0396690776026
20 21 0.6 0.7 20.4985 0.65 -0.0305932592558
20 21 0.7 0.8 20.51025 0.75 -0.0317227435311
20 21 0.8 0.9 20.5019 0.85 0.0092054152879
20 21 0.9 1 20.50413 0.95 -0.124915055599
21 22 -1 -0.9 21.50177 -0.95 -0.0579302744868
21 22 -0.9 -0.8 21.51788 -0.85 0.0556185755239
21 22 -0.8 -0.7 21.51136 -0.75 0.0859461176406
21 22 -0.7 -0.6 21.50039 -0.65 -0.0321648964483
21 22 -0.6 -0.5 21.51455 -0.55 0.00887173493708
21 22 -0.5 -0.4 21.50706 -0.45 0.0140619320575
21 22 -0.4 -0.3 21.50562 -0.35 -0.140682742035
21 22 -0.3 -0.2 21.50876 -0.25 -0.113078005612
21 22 -0.2 -0.1 21.50298 -0.15 0.0210381217103
21 22 -0.1 0 21.50236 -0.05 -0.0297492627736
21 22 0 0.1 21.50236 0.05 -0.0297492627736
21 22 0.1 0.2 21.50298 0.15 0.0210381217103
21 22 0.2 0.3 21.50876 0.25 -0.113078005612
21 22 0.3 0.4 21.50562 0.35 -0.140682742035
21 22 0.4 0.5 21.50706 0.45 0.0140619320575
21 22 0.5 0.6 21.51455 0.55 0.00887173493708
21 22 0.6 0.7 21.50039 0.65 -0.0321648964483
21 22 0.7 0.8 21.51136 0.75 0.0859461176406
21 22 0.8 0.9 21.51788 0.85 0.0556185755239
21 22 0.9 1 21.50177 0.95 -0.0579302744868
22 23 -1 -0.9 22.504 -0.95 0.0252754285937
22 23 -0.9 -0.8 22.50817 -0.85 -0.0901273167799
22 23 -0.8 -0.7 22.50517 -0.75 0.136856494092
22 23 -0.7 -0.6 22.51006 -0.65 0.00892245687021
22 23 -0.6 -0.5 22.49868 -0.55 0.210292609058
22 23 -0.5 -0.4 22.50543 -0.45 0.0932739015303
22 23 -0.4 -0.3 22.51327 -0.35 -0.0285311270764
22 23 -0.3 -0.2 22.50687 -0.25 0.0528855698178
22 23 -0.2 -0.1 22.49541 -0.15 -0.0219993001667
22 23 -0.1 0 22.50596 -0.05 -0.15760085793
22 23 0 0.1 22.50596 0.05 -0.15760085793
22 23 0.1 0.2 22.49541 0.15 -0.0219993001667
22 23 0.2 0.3 22.50687 0.25 0.0528855698178
22 23 0.3 0.4 22.51327 0.35 -0.0285311270764
22 23 0.4 0.5 22.50543 0.45 0.0932739015303
22 23 0.5 0.6 22.49868 0.55 0.210292609058
22 23 0.6 0.7 22.51006 0.65 0.00892245687021
22 23 0.7 0.8 22.50517 0.75 0.136856494092
22 23 0.8 0.9 22.50817 0.85 -0.0901273167799
22 23 0.9 1 22.504 0.95 0.0252754285937
23 24 -1 -0.9 23.50945 -0.95 -0.119436279801
23 24 -0.9 -0.8 23.50364 -0.85 0.111600484971
23 24 -0.8 -0.7 23.50165 -0.75 -0.0729910426898
23 24 -0.7 -0.6 23.4999 -0.65 -0.0122952467911
23 24 -0.6 -0.5 23.50418 -0.55 0.00523667459085
23 24 -0.5 -0.4 23.5107 -0.45 -0.108211739727
23 24 -0.4 -0.3 23.51682 -0.35 -0.0194707990274
23 24 -0.3 -0.2 23.50444 -0.25 0.0718379311986
23 24 -0.2 -0.1 23.50878 -0.15 0.141958632549
23 24 -0.1 0 23.50793 -0.05 -0.0407871831128
23 24 0 0.1 23.50793 0.05 -0.0407871831128
23 24 0.1 0.2 23.50878 0.15 0.141958632549
23 24 0.2 0.3 23.50444 0.25 0.0718379311986
23 24 0.3 0.4 23.51682 0.35 -0.0194707990274
23 24 0.4 0.5 23.5107 0.45 -0.108211739727
23 24 0.5 0.6 23.50418 0.55 0.00523667459085
23 24 0.6 0.7 23.4999 0.65 -0.0122952467911
23 24 0.7 0.8 23.50165 0.75 -0.0729910426898
23 24 0.8 0.9 23.50364 0.85 0.111600484971
23 24 0.9 1 23.50945 0.95 -0.119436279801
24 25 -1 -0.9 24.50641 -0.95 0.0502337849723
24 25 -0.9 -0.8 24.50599 -0.85 0.050182011617
24 25 -0.8 -0.7 24.50099 -0.75 0.181479157563
24 25 -0.7 -0.6 24.51191 -0.65 -0.132827196079
24 25 -0.6 -0.5 24.51433 -0.55 -0.116387404517
24 25 -0.5 -0.4 24.50758 -0.45 -0.0763678833657
24 25 -0.4 -0.3 24.5026 -0.35 -0.131239895629
24 25 -0.3 -0.2 24.49968 -0.25 0.0392783869186
24 25 -0.2 -0.1 24.49425 -0.15 -0.019280290729
24 25 -0.1 0 24.50402 -0.05 -0.166978158182
24 25 0 0.1 24.50402 0.05 -0.166978158182
24 25 0.1 0.2 24.49425 0.15 -0.019280290729
24 25 0.2 0.3 24.49968 0.25 0.0392783869186
24 25 0.3 0.4 24.5026 0.35 -0.131239895629
24 25 0.4 0.5 24.50758 0.45 -0.0763678833657
24 25 0.5 0.6 24.51433 0.55 -0.116387404517
24 25 0.6 0.7 24.51191 0.65 -0.132827196079
24 25 0.7 0.8 24.50099 0.75 0.181479157563
24 25 0.8 0.9 24.50599 0.85 0.050182011617
24 25 0.9 1 24.50641 0.95 0.0502337849723
25 26 -1 -0.9 25.51346 -0.95 -0.168770629312
25 26 -0.9 -0.8 25.5072 -0.85 -0.091280716537
25 26 -0.8 -0.7 25.50567 -0.75 0.0667102217915
25 26 -0.7 -0.6 25.50319 -0.65 -0.0379405098571
25 26 -0.6 -0.5 25.4991 -0.55 -0.0885018889241
25 26 -0.5 -0.4 25.50689 -0.45 -0.0503791053186
25 26 -0.4 -0.3 25.50279 -0.35 0.0216498107421
25 26 -0.3 -0.2 25.50674 -0.25 -0.0285021963429
25 26 -0.2 -0.1 25.50858 -0.15 -0.0539059819773
25 26 -0.1 0 25.5032 -0.05 -0.0870769078169
25 26 0 0.1 25.5032 0.05 -0.0870769078169
25 26 0.1 0.2 25.50858 0.15 -0.0539059819773
25 26 0.2 0.3 25.50674 0.25 -0.0285021963429
25 26 0.3 0.4 25.50279 0.35 0.0216498107421
25 26 0.4 0.5 25.50689 0.45 -0.0503791053186
25 26 0.5 0.6 25.4991 0.55 -0.0885018889241
25 26 0.6 0.7 25.50319 0.65 -0.0379405098571
25 26 0.7 0.8 25.50567 0.75 0.0667102217915
25 26 0.8 0.9 25.5072 0.85 -0.091280716537
25 26 0.9 1 25.51346 0.95 -0.168770629312
26 27 -1 -0.9 26.50389 -0.95 0.113566069739
26 27 -0.9 -0.8 26.51299 -0.85 -0.0762686314134
26 27 -0.8 -0.7 26.50725 -0.75 0.014512522402
26 27 -0.7 -0.6 26.49972 -0.65 0.0435308630037
26 27 -0.6 -0.5 26.51335 -0.55 -0.00864169626553
26 27 -0.5 -0.4 26.51465 -0.45 -0.0367892440948
26 27 -0.4 -0.3 26.50592 -0.35 -0.106829691375
26 27 -0.3 -0.2 26.50578 -0.25 0.0680775325133
26 27 -0.2 -0.1 26.49843 -0.15 -0.147242185886
26 27 -0.1 0 26.50079 -0.05 0.0417225793797
26 27 0 0.1 26.50079 0.05 0.0417225793797
26 27 0.1 0.2 26.49843 0.15 -0.147242185886
26 27 0.2 0.3 26.50578 0.25 0.0680775325133
26 27 0.3 0.4 26.50592 0.35 -0.106829691375
26 27 0.4 0.5 26.51465 0.45 -0.0367892440948
26 27 0.5 0.6 26.51335 0.55 -0.00864169626553
26 27 0.6 0.7 26.49972 0.65 0.0435308630037
26 27 0.7 0.8 26.50725 0.75 0.014512522402
26 27 0.8 0.9 26.51299 0.85 -0.0762686314134
26 27 0.9 1 26.50389 0.95 0.113566069739
27 28 -1 -0.9 27.50828 -0.95 -0.0137998468594
27 28 -0.9 -0.8 27.5059 -0.85 0.0134265627096
27 28 -0.8 -0.7 27.50863 -0.75 0.0312332624926
27 28 -0.7 -0.6 27.50094 -0.65 0.104362107265
27 28 -0.6 -0.5 27.50107 -0.55 0.0389276885734
27 28 -0.5 -0.4 27.5096 -0.45 0.076744938277
27 28 -0.4 -0.3 27.50819 -0.35 0.0796662165442
27 28 -0.3 -0.2 27.50394 -0.25 -0.091635954975
27 28 -0.2 -0.1 27.49736 -0.15 0.0483405379481
27 28 -0.1 0 27.50532 -0.05 -0.0445157139
27 28 0 0.1 27.50532 0.05 -0.0445157139
27 28 0.1 0.2 27.49736 0.15 0.0483405379481
27 28 0.2 0.3 27.50394 0.25 -0.091635954975
27 28 0.3 0.4 27.50819 0.35 0.0796662165442
27 28 0.4 0.5 27.5096 0.45 0.076744938277
27 28 0.5 0.6 27.50107 0.55 0.0389276885734
27 28 0.6 0.7 27.50094 0.65 0.104362107265
27 28 0.7 0.8 27.50863 0.75 0.0312332624926
27 28 0.8 0.9 27.5059 0.85 0.0134265627096
27 28 0.9 1 27.50828 0.95 -0.0137998468594
28 29 -1 -0.9 28.50587 -0.95 -0.00515378944891
28 29 -0.9 -0.8 28.50639 -0.85 0.102774497572
28 29 -0.8 -0.7 28.50661 -0.75 -0.0140117051435
28 29 -0.7 -0.6 28.50871 -0.65 -0.0504908684887
28 29 -0.6 -0.5 28.50477 -0.55 0.140388533886
28 29 -0.5 -0.4 28.49871 -0.45 -0.0846049213773
28 29 -0.4 -0.3 28.50456 -0.35 -0.0733064108479
28 29 -0.3 -0.2 28.50495 -0.25 0.037890480183
28 29 -0.2 -0.1 28.50122 -0.15 0.00425169808346
28 29 -0.1 0 28.50147 -0.05 -0.0211109556039
28 29 0 0.1 28.50147 0.05 -0.0211109556039
28 29 0.1 0.2 28.50122 0.15 0.00425169808346
28 29 0.2 0.3 28.50495 0.25 0.037890480183
28 29 0.3 0.4 28.50456 0.35 -0.0733064108479
28 29 0.4 0.5 28.49871 0.45 -0.0846049213773
28 29 0.5 0.6 28.50477 0.55 0.140388533886
28 29 0.6 0.7 28.50871 0.65 -0.0504908684887
28 29 0.7 0.8 28.50661 0.75 -0.0140117051435
28 29 0.8 0.9 28.50639 0.85 0.102774497572
28 29 0.9 1 28.50587 0.95 -0.00515378944891
29 30 -1 -0.9 29.50269 -0.95 -0.106465297598
29 30 -0.9 -0.8 29.5039 -0.85 -0.0377214834144
29 30 -0.8 -0.7 29.50412 -0.75 0.0479127459006
29 30 -0.7 -0.6 29.49821 -0.65 -0.120553760973
29 30 -0.6 -0.5 29.50972 -0.55 -0.0736950407251
29 30 -0.5 -0.4 29.51253 -0.45 -0.0939505302203
29 30 -0.4 -0.3 29.50531 -0.35 0.103123772885
29 30 -0.3 -0.2 29.50264 -0.25 0.0226854032024
29 30 -0.2 -0.1 29.50705 -0.15 0.00824946162636
29 30 -0.1 0 29.50871 -0.05 0.0110456247102
29 30 0 0.1 29.50871 0.05 0.0110456247102
29 30 0.1 0.2 29.50705 0.15 0.00824946162636
29 30 0.2 0.3 29.50264 0.25 0.0226854032024
29 30 0.3 0.4 29.50531 0.35 0.103123772885
29 30 0.4 0.5 29.51253 0.45 -0.0939505302203
29 30 0.5 0.6 29.50972 0.55 -0.0736950407251
29 30 0.6 0.7 29.49821 0.65 -0.120553760973
29 30 0.7 0.8 29.50412 0.75 0.0479127459006
29 30 0.8 0.9 29.5039 0.85 -0.0377214834144
29 30 0.9 1 29.50269 0.95 -0.106465297598
30 31 -1 -0.9 30.50676 -0.95 0.105900937616
30 31 -0.9 -0.8 30.50614 -0.85 0.0718024514998
30 31 -0.8 -0.7 30.5102 -0.75 -0.0484090579472
30 31 -0.7 -0.6 30.50265 -0.65 -0.0114747769217
30 31 -0.6 -0.5 30.5019 -0.55 -0.100685779133
30 31 -0.5 -0.4 30.50443 -0.45 -0.0503078123454
30 31 -0.4 -0.3 30.50494 -0.35 -0.0365707016289
30 31 -0.3 -0.2 30.5073 -0.25 -0.0178572603981
30 31 -0.2 -0.1 30.50049 -0.15 -0.0887445805538
30 31 -0.1 0 30.50243 -0.05 0.0533844344374
30 31 0 0.1 30.50243 0.05 0.0533844344374
30 31 0.1 0.2 30.50049 0.15 -0.0887445805538
30 31 0.2 0.3 30.5073 0.25 -0.0178572603981
30 31 0.3 0.4 30.50494 0.35 -0.0365707016289
30 31 0.4 0.5 30.50443 0.45 -0.0503078123454
30 31 0.5 0.6 30.5019 0.55 -0.100685779133
30 31 0.6 0.7 30.50265 0.65 -0.0114747769217
30 31 0.7 0.8 30.5102 0.75 -0.0484090579472
30 31 0.8 0.9 30.50614 0.85 0.0718024514998
30 31 0.9 1 30.50676 0.95 0.105900937616
31 32 -1 -0.9 31.50304 -0.95 0.107386989026
31 32 -0.9 -0.8 31.50926 -0.85 -0.00407767051302
31 32 -0.8 -0.7 31.50144 -0.75 -0.058078368086
31 32 -0.7 -0.6 31.50385 -0.65 0.0229355619993
31 32 -0.6 -0.5 31.5039 -0.55 -0.0321449974438
31 32 -0.5 -0.4 31.51077 -0.45 -0.0429598738103
31 32 -0.4 -0.3 31.5092 -0.35 -0.0671813861276
31 32 -0.3 -0.2 31.49945 -0.25 0.0641786910239
31 32 -0.2 -0.1 31.49717 -0.15 -0.0633289072037
31 32 -0.1 0 31.50728 -0.05 0.000644877956288
31 32 0 0.1 31.50728 0.05 0.000644877956288
31 32 0.1 0.2 31.49717 0.15 -0.0633289072037
31 32 0.2 0.3 31.49945 0.25 0.0641786910239
31 32 0.3 0.4 31.5092 0.35 -0.0671813861276
31 32 0.4 0.5 31.51077 0.45 -0.0429598738103
31 32 0.5 0.6 31.5039 0.55 -0.0321449974438
31 32 0.6 0.7 31.50385 0.65 0.0229355619993
31 32 0.7 0.8 31.50144 0.75 -0.058078368086
31 32 0.8 0.9 31.50926 0.85 -0.00407767051302
31 32 0.9 1 31.50304 0.95 0.107386989026
32 33 -1 -0.9 32.50285 -0.95 -0.04009001726
32 33 -0.9 -0.8 32.50951 -0.85 -0.0364505933922
32 33 -0.8 -0.7 32.50316 -0.75 -0.0437527027027
32 33 -0.7 -0.6 32.50172 -0.65 -0.00869965753703
32 33 -0.6 -0.5 32.49686 -0.55 -0.135218252326
32 33 -0.5 -0.4 32.50478 -0.45 -0.00229211800933
32 33 -0.4 -0.3 32.4964 -0.35 -0.0415665890362
32 33 -0.3 -0.2 32.50229 -0.25 0.00643736304922
32 33 -0.2 -0.1 32.50662 -0.15 -0.00614659027037
32 33 -0.1 0 32.50218 -0.05 0.122797946491
32 33 0 0.1 32.50218 0.05 0.122797946491
32 33 0.1 0.2 32.50662 0.15 -0.00614659027037
32 33 0.2 0.3 32.50229 0.25 0.00643736304922
32 33 0.3 0.4 32.4964 0.35 -0.0415665890362
32 33 0.4 0.5 32.50478 0.45 -0.00229211800933
32 33 0.5 0.6 32.49686 0.55 -0.135218252326
32 33 0.6 0.7 32.50172 0.65 -0.00869965753703
32 33 0.7 0.8 32.50316 0.75 -0.0437527027027
32 33 0.8 0.9 32.50951 0.85 -0.0364505933922
32 33 0.9 1 32.50285 0.95 -0.04009001726
33 34 -1 -0.9 33.50197 -0.95 -0.0249962626762
33 34 -0.9 -0.8 33.49977 -0.85 0.00356208249326
33 34 -0.8 -0.7 33.50231 -0.75 -0.101195435589
33 34 -0.7 -0.6 33.49567 -0.65 0.0247290460854
33 34 -0.6 -0.5 33.50069 -0.55 0.0805381473729
33 34 -0.5 -0.4 33.50295 -0.45 0.0299835754613
33 34 -0.4 -0.3 33.49943 -0.35 0.0280016858383
33 34 -0.3 -0.2 33.50037 -0.25 0.0209610893875
33 34 -0.2 -0.1 33.50699 -0.15 -0.0197002483755
33 34 -0.1 0 33.50863 -0.05 -0.0505026987425
33 34 0 0.1 33.50863 0.05 -0.0505026987425
33 34 0.1 0.2 33.50699 0.15 -0.0197002483755
33 34 0.2 0.3 33.50037 0.25 0.0209610893875
33 34 0.3 0.4 33.49943 0.35 0.0280016858383
33 34 0.4 0.5 33.50295 0.45 0.0299835754613
33 34 0.5 0.6 33.50069 0.55 0.0805381473729
33 34 0.6 0.7 33.49567 0.65 0.0247290460854
33 34 0.7 0.8 33.50231 0.75 -0.101195435589
33 34 0.8 0.9 33.49977 0.85 0.00356208249326
33 34 0.9 1 33.50197 0.95 -0.0249962626762
34 35 -1 -0.9 34.5001 -0.95 -0.0236383369228
34 35 -0.9 -0.8 34.50171 -0.85 0.00360690638983
34 35 -0.8 -0.7 34.49858 -0.75 -0.0167135204117
34 35 -0.7 -0.6 34.49755 -0.65 0.0362140389064
34 35 -0.6 -0.5 34.50913 -0.55 -0.0190680970695
34 35 -0.5 -0.4 34.50259 -0.45 0.0595050387573
34 35 -0.4 -0.3 34.50733 -0.35 0.00648801923607
34 35 -0.3 -0.2 34.49829 -0.25 0.0479712762751
34 35 -0.2 -0.1 34.50575 -0.15 -0.135264852193
34 35 -0.1 0 34.49829 -0.05 -0.0363606783927
34 35 0 0.1 34.49829 0.05 -0.0363606783927
34 35 0.1 0.2 34.50575 0.15 -0.135264852193
34 35 0.2 0.3 34.49829 0.25 0.0479712762751
34 35 0.3 0.4 34.50733 0.35 0.00648801923607
34 35 0.4 0.5 34.50259 0.45 0.0595050387573
34 35 0.5 0.6 34.50913 0.55 -0.0190680970695
34 35 0.6 0.7 34.49755 0.65 0.0362140389064
34 35 0.7 0.8 34.49858 0.75 -0.0167135204117
34 35 0.8 0.9 34.50171 0.85 0.00360690638983
34 35 0.9 1 34.5001 0.95 -0.0236383369228
35 36 -1 -0.9 35.50316 -0.95 0.0626924715661
35 36 -0.9 -0.8 35.5092 -0.85 -0.0942140570568
35 36 -0.8 -0.7 35.5068 -0.75 -0.0204517421931
35 36 -0.7 -0.6 35.49504 -0.65 -0.0680777246978
35 36 -0.6 -0.5 35.50248 -0.55 -0.114920598614
35 36 -0.5 -0.4 35.49722 -0.45 -0.0395001544363
35 36 -0.4 -0.3 35.50131 -0.35 -0.0264306547991
35 36 -0.3 -0.2 35.50036 -0.25 -0.0861486334734
35 36 -0.2 -0.1 35.50375 -0.15 -0.0673552981321
35 36 -0.1 0 35.49764 -0.05 -0.101243038852
35 36 0 0.1 35.49764 0.05 -0.101243038852
35 36 0.1 0.2 35.50375 0.15 -0.0673552981321
35 36 0.2 0.3 35.50036 0.25 -0.0861486334734
35 36 0.3 0.4 35.50131 0.35 -0.0264306547991
35 36 0.4 0.5 35.49722 0.45 -0.0395001544363
35 36 0.5 0.6 35.50248 0.55 -0.114920598614
35 36 0.6 0.7 35.49504 0.65 -0.0680777246978
35 36 0.7 0.8 35.5068 0.75 -0.0204517421931
35 36 0.8 0.9 35.5092 0.85 -0.0942140570568
35 36 0.9 1 35.50316 0.95 0.0626924715661
36 37 -1 -0.9 36.5006 -0.95 0.14214788448
36 37 -0.9 -0.8 36.5049 -0.85 -0.0694957212099
36 37 -0.8 -0.7 36.50929 -0.75 -0.160690161301
36 37 -0.7 -0.6 36.49959 -0.65 0.186320588419
36 37 -0.6 -0.5 36.50506 -0.55 0.103706746481
36 37 -0.5 -0.4 36.50372 -0.45 -0.0606046185101
36 37 -0.4 -0.3 36.50143 -0.35 -0.0698316508147
36 37 -0.3 -0.2 36.50354 -0.25 -0.00204800498342
36 37 -0.2 -0.1 36.49957 -0.15 0.0483364114296
36 37 -0.1 0 36.49736 -0.05 -0.046090432442
36 37 0 0.1 36.49736 0.05 -0.046090432442
36 37 0.1 0.2 36.49957 0.15 0.0483364114296
36 37 0.2 0.3 36.50354 0.25 -0.00204800498342
36 37 0.3 0.4 36.50143 0.35 -0.0698316508147
36 37 0.4 0.5 36.50372 0.45 -0.0606046185101
36 37 0.5 0.6 36.50506 0.55 0.103706746481
36 37 0.6 0.7 36.49959 0.65 0.186320588419
36 37 0.7 0.8 36.50929 0.75 -0.160690161301
36 37 0.8 0.9 36.5049 0.85 -0.0694957212099
36 37 0.9 1 36.5006 0.95 0.14214788448
37 38 -1 -0.9 37.50221 -0.95 -0.0131073999532
37 38 -0.9 -0.8 37.50116 -0.85 0.0330451874993
37 38 -0.8 -0.7 37.5127 -0.75 -0.0542994345402
37 38 -0.7 -0.6 37.50632 -0.65 0.124187741724
37 38 -0.6 -0.5 37.50411 -0.55 -0.0524460706657
37 38 -0.5 -0.4 37.50185 -0.45 -0.0673250898429
37 38 -0.4 -0.3 37.50043 -0.35 -0.0444308524132
37 38 -0.3 -0.2 37.50803 -0.25 0.0477214059893
37 38 -0.2 -0.1 37.5048 -0.15 0.0766491741006
37 38 -0.1 0 37.50138 -0.05 0.0309481641003
37 38 0 0.1 37.50138 0.05 0.0309481641003
37 38 0.1 0.2 37.5048 0.15 0.0766491741006
37 38 0.2 0.3 37.50803 0.25 0.0477214059893
37 38 0.3 0.4 37.50043 0.35 -0.0444308524132
37 38 0.4 0.5 37.50185 0.45 -0.0673250898429
37 38 0.5 0.6 37.50411 0.55 -0.0524460706657
37 38 0.6 0.7 37.50632 0.65 0.124187741724
37 38 0.7 0.8 37.5127 0.75 -0.0542994345402
37 38 0.8 0.9 37.50116 0.85 0.0330451874993
37 38 0.9 1 37.50221 0.95 -0.0131073999532
38 39 -1 -0.9 38.49901 -0.95 0.0334752041965
38 39 -0.9 -0.8 38.49996 -0.85 0.0118812167418
38 39 -0.8 -0.7 38.50254 -0.75 0.01512877974
38 39 -0.7 -0.6 38.50115 -0.65 0.0178482998283
38 39 -0.6 -0.5 38.50275 -0.55 -0.128628611604
38 39 -0.5 -0.4 38.5031 -0.45 0.0753597695529
38 39 -0.4 -0.3 38.50303 -0.35 0.010433431486
38 39 -0.3 -0.2 38.50698 -0.25 -0.0589611363438
38 39 -0.2 -0.1 38.50445 -0.15 -0.0999532613686
38 39 -0.1 0 38.50018 -0.05 -0.00318165468733
38 39 0 0.1 38.50018 0.05 -0.00318165468733
38 39 0.1 0.2 38.50445 0.15 -0.0999532613686
38 39 0.2 0.3 38.50698 0.25 -0.0589611363438
38 39 0.3 0.4 38.50303 0.35 0.010433431486
38 39 0.4 0.5 38.5031 0.45 0.0753597695529
38 39 0.5 0.6 38.50275 0.55 -0.128628611604
38 39 0.6 0.7 38.50115 0.65 0.0178482998283
38 39 0.7 0.8 38.50254 0.75 0.01512877974
38 39 0.8 0.9 38.49996 0.85 0.0118812167418
38 39 0.9 1 38.49901 0.95 0.0334752041965
39 40 -1 -0.9 39.50493 -0.95 -0.0219183740777
39 40 -0.9 -0.8 39.49982 -0.85 -0.013102786899
39 40 -0.8 -0.7 39.49893 -0.75 -0.000182490008258
39 40 -0.7 -0.6 39.50546 -0.65 0.107361437157
39 40 -0.6 -0.5 39.50581 -0.55 0.0522092591542
39 40 -0.5 -0.4 39.50596 -0.45 -0.0638736860788
39 40 -0.4 -0.3 39.50355 -0.35 0.0142877315006
39 40 -0.3 -0.2 39.50211 -0.25 -0.0594837586825
39 40 -0.2 -0.1 39.5043 -0.15 0.0518720310111
39 40 -0.1 0 39.50355 -0.05 -0.0413565383543
39 40 0 0.1 39.50355 0.05 -0.0413565383543
39 40 0.1 0.2 39.5043 0.15 0.0518720310111
39 40 0.2 0.3 39.50211 0.25 -0.0594837586825
39 40 0.3 0.4 39.50355 0.35 0.0142877315006
39 40 0.4 0.5 39.50596 0.45 -0.0638736860788
39 40 0.5 0.6 39.50581 0.55 0.0522092591542
39 40 0.6 0.7 39.50546 0.65 0.107361437157
39 40 0.7 0.8 39.49893 0.75 -0.000182490008258
39 40 0.8 0.9 39.49982 0.85 -0.013102786899
39 40 0.9 1 39.50493 0.95 -0.0219183740777
40 41 -1 -0.9 40.49746 -0.95 0.017726920622
40 41 -0.9 -0.8 40.50302 -0.85 0.110920510623
40 41 -0.8 -0.7 40.50814 -0.75 -0.0156321525284
40 41 -0.7 -0.6 40.49966 -0.65 0.0489020189009
40 41 -0.6 -0.5 40.49863 -0.55 -0.00581905889363
40 41 -0.5 -0.4 40.50103 -0.45 -0.126634457088
40 41 -0.4 -0.3 40.50031 -0.35 0.0168749426378
40 41 -0.3 -0.2 40.50421 -0.25 -0.0998865794509
40 41 -0.2 -0.1 40.50346 -0.15 0.0153517145224
40 41 -0.1 0 40.5068 -0.05 0.0999235884013
40 41 0 0.1 40.5068 0.05 0.0999235884013
40 41 0.1 0.2 40.50346 0.15 0.0153517145224
40 41 0.2 0.3 40.50421 0.25 -0.0998865794509
40 41 0.3 0.4 40.50031 0.35 0.0168749426378
40 41 0.4 0.5 40.50103 0.45 -0.126634457088
40 41 0.5 0.6 40.49863 0.55 -0.00581905889363
40 41 0.6 0.7 40.49966 0.65 0.0489020189009
40 41 0.7 0.8 40.50814 0.75 -0.0156321525284
40 41 0.8 0.9 40.50302 0.85 0.110920510623
40 41 0.9 1 40.49746 0.95 0.017726920622
