#norm = 4000000
#edges = (np.linspace(1, 41, 41), np.linspace(-1, 1, 21))
#s_low s_high mu_low mu_high s mu wcounts
1 2 -1 -0.9 1.453427 -0.95 8
1 2 -0.9 -0.8 1.643975 -0.85 7
1 2 -0.8 -0.7 1.474512 -0.75 9
1 2 -0.7 -0.6 1.822177 -0.65 6
1 2 -0.6 -0.5 1.692664 -0.55 11
1 2 -0.5 -0.4 1.68885 -0.45 7
1 2 -0.4 -0.3 1.695778 -0.35 8
1 2 -0.3 -0.2 1.493846 -0.25 4
1 2 -0.2 -0.1 1.504002 -0.15 9
1 2 -0.1 0 1.590505 -0.05 4
1 2 0 0.1 1.711984 0.05 4
1 2 0.1 0.2 1.564897 0.15 8
1 2 0.2 0.3 1.524223 0.25 9
1 2 0.3 0.4 1.764412 0.35 6
1 2 0.4 0.5 1.625721 0.45 6
1 2 0.5 0.6 1.537821 0.55 7
1 2 0.6 0.7 1.672125 0.65 7
1 2 0.7 0.8 1.546122 0.75 6
1 2 0.8 0.9 1.323744 0.85 4
1 2 0.9 1 1.740267 0.95 6
2 3 -1 -0.9 2.566081 -0.95 18
2 3 -0.9 -0.8 2.614127 -0.85 12
2 3 -0.8 -0.7 2.644988 -0.75 14
2 3 -0.7 -0.6 2.442774 -0.65 12
2 3 -0.6 -0.5 2.609318 -0.55 20
2 3 -0.5 -0.4 2.579707 -0.45 14
2 3 -0.4 -0.3 2.511707 -0.35 19
2 3 -0.3 -0.2 2.470822 -0.25 15
2 3 -0.2 -0.1 2.526482 -0.15 21
2 3 -0.1 0 2.626007 -0.05 19
2 3 0 0.1 2.433948 0.05 9
2 3 0.1 0.2 2.616604 0.15 18
2 3 0.2 0.3 2.448778 0.25 16
2 3 0.3 0.4 2.517181 0.35 14
2 3 0.4 0.5 2.49238 0.45 17
2 3 0.5 0.6 2.462286 0.55 14
2 3 0.6 0.7 2.671305 0.65 17
2 3 0.7 0.8 2.69471 0.75 20
2 3 0.8 0.9 2.488968 0.85 12
2 3 0.9 1 2.63708 0.95 15
3 4 -1 -0.9 3.445975 -0.95 24
3 4 -0.9 -0.8 3.497764 -0.85 28
3 4 -0.8 -0.7 3.620641 -0.75 24
3 4 -0.7 -0.6 3.465902 -0.65 25
3 4 -0.6 -0.5 3.561454 -0.55 40
3 4 -0.5 -0.4 3.575662 -0.45 32
3 4 -0.4 -0.3 3.498802 -0.35 32
3 4 -0.3 -0.2 3.565051 -0.25 29
3 4 -0.2 -0.1 3.528296 -0.15 28
3 4 -0.1 0 3.581882 -0.05 32
3 4 0 0.1 3.528914 0.05 30
3 4 0.1 0.2 3.541101 0.15 44
3 4 0.2 0.3 3.564465 0.25 22
3 4 0.3 0.4 3.514096 0.35 33
3 4 0.4 0.5 3.687788 0.45 27
3 4 0.5 0.6 3.540303 0.55 23
3 4 0.6 0.7 3.549048 0.65 20
3 4 0.7 0.8 3.603601 0.75 28
3 4 0.8 0.9 3.688729 0.85 24
3 4 0.9 1 3.551241 0.95 43
4 5 -1 -0.9 4.450263 -0.95 50
4 5 -0.9 -0.8 4.593971 -0.85 55
4 5 -0.8 -0.7 4.642434 -0.75 37
4 5 -0.7 -0.6 4.578978 -0.65 49
4 5 -0.6 -0.5 4.506577 -0.55 51
4 5 -0.5 -0.4 4.524962 -0.45 55
4 5 -0.4 -0.3 4.540435 -0.35 36
4 5 -0.3 -0.2 4.435153 -0.25 37
4 5 -0.2 -0.1 4.547713 -0.15 40
4 5 -0.1 0 4.553996 -0.05 40
4 5 0 0.1 4.549625 0.05 45
4 5 0.1 0.2 4.520837 0.15 53
4 5 0.2 0.3 4.655829 0.25 38
4 5 0.3 0.4 4.648414 0.35 43
4 5 0.4 0.5 4.517702 0.45 41
4 5 0.5 0.6 4.575929 0.55 47
4 5 0.6 0.7 4.520522 0.65 40
4 5 0.7 0.8 4.541611 0.75 68
4 5 0.8 0.9 4.61603 0.85 53
4 5 0.9 1 4.513487 0.95 52
5 6 -1 -0.9 5.541312 -0.95 64
5 6 -0.9 -0.8 5.485075 -0.85 60
5 6 -0.8 -0.7 5.534234 -0.75 63
5 6 -0.7 -0.6 5.543941 -0.65 77
5 6 -0.6 -0.5 5.511683 -0.55 83
5 6 -0.5 -0.4 5.52465 -0.45 81
5 6 -0.4 -0.3 5.54996 -0.35 81
5 6 -0.3 -0.2 5.527355 -0.25 76
5 6 -0.2 -0.1 5.560761 -0.15 86
5 6 -0.1 0 5.471215 -0.05 65
5 6 0 0.1 5.517531 0.05 78
5 6 0.1 0.2 5.561187 0.15 66
5 6 0.2 0.3 5.557363 0.25 68
5 6 0.3 0.4 5.550369 0.35 73
5 6 0.4 0.5 5.571758 0.45 75
5 6 0.5 0.6 5.514766 0.55 67
5 6 0.6 0.7 5.464159 0.65 70
5 6 0.7 0.8 5.530772 0.75 70
5 6 0.8 0.9 5.594992 0.85 58
5 6 0.9 1 5.527675 0.95 67
6 7 -1 -0.9 6.498209 -0.95 99
6 7 -0.9 -0.8 6.565139 -0.85 93
6 7 -0.8 -0.7 6.486485 -0.75 102
6 7 -0.7 -0.6 6.545886 -0.65 95
6 7 -0.6 -0.5 6.522693 -0.55 94
6 7 -0.5 -0.4 6.523114 -0.45 101
6 7 -0.4 -0.3 6.518559 -0.35 98
6 7 -0.3 -0.2 6.541565 -0.25 87
6 7 -0.2 -0.1 6.504161 -0.15 104
6 7 -0.1 0 6.514054 -0.05 91
6 7 0 0.1 6.476172 0.05 93
6 7 0.1 0.2 6.54421 0.15 103
6 7 0.2 0.3 6.560806 0.25 87
6 7 0.3 0.4 6.567524 0.35 93
6 7 0.4 0.5 6.514888 0.45 87
6 7 0.5 0.6 6.519625 0.55 104
6 7 0.6 0.7 6.547341 0.65 93
6 7 0.7 0.8 6.551771 0.75 99
6 7 0.8 0.9 6.555721 0.85 91
6 7 0.9 1 6.467713 0.95 95
7 8 -1 -0.9 7.536519 -0.95 127
7 8 -0.9 -0.8 7.454004 -0.85 114
7 8 -0.8 -0.7 7.553833 -0.75 115
7 8 -0.7 -0.6 7.482758 -0.65 124
7 8 -0.6 -0.5 7.507932 -0.55 125
7 8 -0.5 -0.4 7.499875 -0.45 132
7 8 -0.4 -0.3 7.538789 -0.35 116
7 8 -0.3 -0.2 7.519968 -0.25 109
7 8 -0.2 -0.1 7.483562 -0.15 117
7 8 -0.1 0 7.512992 -0.05 144
7 8 0 0.1 7.562082 0.05 153
7 8 0.1 0.2 7.548962 0.15 122
7 8 0.2 0.3 7.560809 0.25 150
7 8 0.3 0.4 7.542064 0.35 120
7 8 0.4 0.5 7.492398 0.45 126
7 8 0.5 0.6 7.565981 0.55 116
7 8 0.6 0.7 7.534616 0.65 125
7 8 0.7 0.8 7.475273 0.75 150
7 8 0.8 0.9 7.549283 0.85 129
7 8 0.9 1 7.516676 0.95 156
8 9 -1 -0.9 8.493702 -0.95 157
8 9 -0.9 -0.8 8.533886 -0.85 166
8 9 -0.8 -0.7 8.556623 -0.75 150
8 9 -0.7 -0.6 8.512997 -0.65 165
8 9 -0.6 -0.5 8.541297 -0.55 173
8 9 -0.5 -0.4 8.482509 -0.45 165
8 9 -0.4 -0.3 8.51683 -0.35 160
8 9 -0.3 -0.2 8.510346 -0.25 187
8 9 -0.2 -0.1 8.531549 -0.15 148
8 9 -0.1 0 8.562544 -0.05 147
8 9 0 0.1 8.523591 0.05 166
8 9 0.1 0.2 8.497727 0.15 170
8 9 0.2 0.3 8.539063 0.25 163
8 9 0.3 0.4 8.515237 0.35 150
8 9 0.4 0.5 8.484196 0.45 168
8 9 0.5 0.6 8.511459 0.55 147
8 9 0.6 0.7 8.522247 0.65 198
8 9 0.7 0.8 8.494119 0.75 161
8 9 0.8 0.9 8.47555 0.85 140
8 9 0.9 1 8.520218 0.95 175
9 10 -1 -0.9 9.505747 -0.95 192
9 10 -0.9 -0.8 9.480577 -0.85 166
9 10 -0.8 -0.7 9.491831 -0.75 182
9 10 -0.7 -0.6 9.502769 -0.65 173
9 10 -0.6 -0.5 9.495675 -0.55 183
9 10 -0.5 -0.4 9.505664 -0.45 203
9 10 -0.4 -0.3 9.536857 -0.35 203
9 10 -0.3 -0.2 9.516764 -0.25 180
9 10 -0.2 -0.1 9.540767 -0.15 194
9 10 -0.1 0 9.539381 -0.05 204
9 10 0 0.1 9.48631 0.05 210
9 10 0.1 0.2 9.51107 0.15 196
9 10 0.2 0.3 9.533941 0.25 208
9 10 0.3 0.4 9.511523 0.35 194
9 10 0.4 0.5 9.494788 0.45 189
9 10 0.5 0.6 9.513528 0.55 197
9 10 0.6 0.7 9.493287 0.65 191
9 10 0.7 0.8 9.504934 0.75 170
9 10 0.8 0.9 9.518505 0.85 190
9 10 0.9 1 9.522676 0.95 215
10 11 -1 -0.9 10.52915 -0.95 216
10 11 -0.9 -0.8 10.52202 -0.85 265
10 11 -0.8 -0.7 10.52974 -0.75 236
10 11 -0.7 -0.6 10.52557 -0.65 253
10 11 -0.6 -0.5 10.52901 -0.55 236
10 11 -0.5 -0.4 10.48592 -0.45 238
10 11 -0.4 -0.3 10.50187 -0.35 229
10 11 -0.3 -0.2 10.55681 -0.25 232
10 11 -0.2 -0.1 10.50563 -0.15 242
10 11 -0.1 0 10.5077 -0.05 242
10 11 0 0.1 10.51687 0.05 214
10 11 0.1 0.2 10.51785 0.15 238
10 11 0.2 0.3 10.53798 0.25 247
10 11 0.3 0.4 10.50626 0.35 225
10 11 0.4 0.5 10.49924 0.45 211
10 11 0.5 0.6 10.50501 0.55 246
10 11 0.6 0.7 10.53163 0.65 231
10 11 0.7 0.8 10.51327 0.75 239
10 11 0.8 0.9 10.53493 0.85 204
10 11 0.9 1 10.50169 0.95 209
11 12 -1 -0.9 11.47775 -0.95 268
11 12 -0.9 -0.8 11.54039 -0.85 282
11 12 -0.8 -0.7 11.49811 -0.75 306
11 12 -0.7 -0.6 11.52714 -0.65 267
11 12 -0.6 -0.5 11.50682 -0.55 270
11 12 -0.5 -0.4 11.51043 -0.45 260
11 12 -0.4 -0.3 11.51766 -0.35 288
11 12 -0.3 -0.2 11.50486 -0.25 278
11 12 -0.2 -0.1 11.50681 -0.15 272
11 12 -0.1 0 11.5034 -0.05 286
11 12 0 0.1 11.49628 0.05 310
11 12 0.1 0.2 11.51554 0.15 290
11 12 0.2 0.3 11.47296 0.25 268
11 12 0.3 0.4 11.50485 0.35 302
11 12 0.4 0.5 11.53511 0.45 251
11 12 0.5 0.6 11.54027 0.55 287
11 12 0.6 0.7 11.52363 0.65 273
11 12 0.7 0.8 11.501 0.75 269
11 12 0.8 0.9 11.47428 0.85 249
11 12 0.9 1 11.52228 0.95 317
12 13 -1 -0.9 12.536 -0.95 328
12 13 -0.9 -0.8 12.53989 -0.85 342
12 13 -0.8 -0.7 12.5134 -0.75 322
12 13 -0.7 -0.6 12.52759 -0.65 317
12 13 -0.6 -0.5 12.5014 -0.55 333
12 13 -0.5 -0.4 12.53623 -0.45 328
12 13 -0.4 -0.3 12.49849 -0.35 314
12 13 -0.3 -0.2 12.54235 -0.25 298
12 13 -0.2 -0.1 12.50678 -0.15 317
12 13 -0.1 0 12.49871 -0.05 330
12 13 0 0.1 12.53687 0.05 329
12 13 0.1 0.2 12.49815 0.15 360
12 13 0.2 0.3 12.49848 0.25 341
12 13 0.3 0.4 12.50218 0.35 339
12 13 0.4 0.5 12.49857 0.45 332
12 13 0.5 0.6 12.50396 0.55 312
12 13 0.6 0.7 12.52106 0.65 318
12 13 0.7 0.8 12.53273 0.75 308
12 13 0.8 0.9 12.53468 0.85 319
12 13 0.9 1 12.52675 0.95 333
13 14 -1 -0.9 13.51914 -0.95 402
13 14 -0.9 -0.8 13.52295 -0.85 398
13 14 -0.8 -0.7 13.51369 -0.75 359
13 14 -0.7 -0.6 13.52292 -0.65 384
13 14 -0.6 -0.5 13.48307 -0.55 364
13 14 -0.5 -0.4 13.51205 -0.45 360
13 14 -0.4 -0.3 13.5162 -0.35 353
13 14 -0.3 -0.2 13.49478 -0.25 350
13 14 -0.2 -0.1 13.53375 -0.15 396
13 14 -0.1 0 13.52846 -0.05 365
13 14 0 0.1 13.51122 0.05 365
13 14 0.1 0.2 13.50352 0.15 399
13 14 0.2 0.3 13.50755 0.25 362
13 14 0.3 0.4 13.49976 0.35 366
13 14 0.4 0.5 13.51374 0.45 383
13 14 0.5 0.6 13.52695 0.55 361
13 14 0.6 0.7 13.53696 0.65 384
13 14 0.7 0.8 13.49991 0.75 376
13 14 0.8 0.9 13.50369 0.85 360
13 14 0.9 1 13.51226 0.95 383
14 15 -1 -0.9 14.48987 -0.95 432
14 15 -0.9 -0.8 14.51393 -0.85 421
14 15 -0.8 -0.7 14.50755 -0.75 387
14 15 -0.7 -0.6 14.50984 -0.65 401
14 15 -0.6 -0.5 14.5001 -0.55 436
14 15 -0.5 -0.4 14.50686 -0.45 439
14 15 -0.4 -0.3 14.50616 -0.35 404
14 15 -0.3 -0.2 14.54634 -0.25 394
14 15 -0.2 -0.1 14.51008 -0.15 427
14 15 -0.1 0 14.50761 -0.05 446
14 15 0 0.1 14.50075 0.05 435
14 15 0.1 0.2 14.51777 0.15 417
14 15 0.2 0.3 14.50342 0.25 433
14 15 0.3 0.4 14.5088 0.35 411
14 15 0.4 0.5 14.47365 0.45 425
14 15 0.5 0.6 14.509 0.55 433
14 15 0.6 0.7 14.52947 0.65 445
14 15 0.7 0.8 14.49626 0.75 391
14 15 0.8 0.9 14.51157 0.85 422
14 15 0.9 1 14.50016 0.95 436
15 16 -1 -0.9 15.53761 -0.95 506
15 16 -0.9 -0.8 15.52094 -0.85 431
15 16 -0.8 -0.7 15.50244 -0.75 468
15 16 -0.7 -0.6 15.5128 -0.65 506
15 16 -0.6 -0.5 15.49644 -0.55 453
15 16 -0.5 -0.4 15.51337 -0.45 452
15 16 -0.4 -0.3 15.5074 -0.35 500
15 16 -0.3 -0.2 15.51972 -0.25 513
15 16 -0.2 -0.1 15.52012 -0.15 504
15 16 -0.1 0 15.51524 -0.05 477
15 16 0 0.1 15.51619 0.05 497
15 16 0.1 0.2 15.50561 0.15 467
15 16 0.2 0.3 15.53095 0.25 496
15 16 0.3 0.4 15.48102 0.35 467
15 16 0.4 0.5 15.50278 0.45 448
15 16 0.5 0.6 15.50304 0.55 449
15 16 0.6 0.7 15.49101 0.65 453
15 16 0.7 0.8 15.49368 0.75 477
15 16 0.8 0.9 15.52388 0.85 473
15 16 0.9 1 15.50469 0.95 476
16 17 -1 -0.9 16.51315 -0.95 525
16 17 -0.9 -0.8 16.51233 -0.85 497
16 17 -0.8 -0.7 16.48918 -0.75 501
16 17 -0.7 -0.6 16.49564 -0.65 495
16 17 -0.6 -0.5 16.50739 -0.55 506
16 17 -0.5 -0.4 16.49075 -0.45 520
16 17 -0.4 -0.3 16.50453 -0.35 495
16 17 -0.3 -0.2 16.50102 -0.25 550
16 17 -0.2 -0.1 16.53554 -0.15 591
16 17 -0.1 0 16.53761 -0.05 573
16 17 0 0.1 16.5054 0.05 516
16 17 0.1 0.2 16.49812 0.15 553
16 17 0.2 0.3 16.51198 0.25 524
16 17 0.3 0.4 16.51048 0.35 525
16 17 0.4 0.5 16.51762 0.45 532
16 17 0.5 0.6 16.51723 0.55 488
16 17 0.6 0.7 16.50623 0.65 521
16 17 0.7 0.8 16.48823 0.75 519
16 17 0.8 0.9 16.48929 0.85 493
16 17 0.9 1 16.50703 0.95 511
17 18 -1 -0.9 17.50284 -0.95 629
17 18 -0.9 -0.8 17.50925 -0.85 577
17 18 -0.8 -0.7 17.51707 -0.75 552
17 18 -0.7 -0.6 17.51393 -0.65 534
17 18 -0.6 -0.5 17.49729 -0.55 579
17 18 -0.5 -0.4 17.51494 -0.45 589
17 18 -0.4 -0.3 17.50277 -0.35 614
17 18 -0.3 -0.2 17.48749 -0.25 619
17 18 -0.2 -0.1 17.51356 -0.15 563
17 18 -0.1 0 17.49578 -0.05 588
17 18 0 0.1 17.50887 0.05 581
17 18 0.1 0.2 17.51828 0.15 586
17 18 0.2 0.3 17.50595 0.25 530
17 18 0.3 0.4 17.50173 0.35 552
17 18 0.4 0.5 17.51204 0.45 591
17 18 0.5 0.6 17.50103 0.55 540
17 18 0.6 0.7 17.50705 0.65 549
17 18 0.7 0.8 17.51543 0.75 600
17 18 0.8 0.9 17.51383 0.85 571
17 18 0.9 1 17.48726 0.95 574
18 19 -1 -0.9 18.51521 -0.95 678
18 19 -0.9 -0.8 18.486 -0.85 619
18 19 -0.8 -0.7 18.5379 -0.75 603
18 19 -0.7 -0.6 18.49772 -0.65 576
18 19 -0.6 -0.5 18.49722 -0.55 613
18 19 -0.5 -0.4 18.49836 -0.45 601
18 19 -0.4 -0.3 18.52337 -0.35 611
18 19 -0.3 -0.2 18.49762 -0.25 653
18 19 -0.2 -0.1 18.50633 -0.15 678
18 19 -0.1 0 18.51455 -0.05 641
18 19 0 0.1 18.49511 0.05 660
18 19 0.1 0.2 18.54867 0.15 624
18 19 0.2 0.3 18.51036 0.25 643
18 19 0.3 0.4 18.48059 0.35 638
18 19 0.4 0.5 18.52296 0.45 620
18 19 0.5 0.6 18.5129 0.55 631
18 19 0.6 0.7 18.50663 0.65 634
18 19 0.7 0.8 18.50889 0.75 603
18 19 0.8 0.9 18.48696 0.85 675
18 19 0.9 1 18.52134 0.95 683
19 20 -1 -0.9 19.51553 -0.95 722
19 20 -0.9 -0.8 19.51039 -0.85 703
19 20 -0.8 -0.7 19.51113 -0.75 680
19 20 -0.7 -0.6 19.52999 -0.65 682
19 20 -0.6 -0.5 19.50073 -0.55 706
19 20 -0.5 -0.4 19.51302 -0.45 676
19 20 -0.4 -0.3 19.52941 -0.35 726
19 20 -0.3 -0.2 19.51005 -0.25 728
19 20 -0.2 -0.1 19.49948 -0.15 680
19 20 -0.1 0 19.5063 -0.05 710
19 20 0 0.1 19.50549 0.05 687
19 20 0.1 0.2 19.49305 0.15 711
19 20 0.2 0.3 19.49672 0.25 701
19 20 0.3 0.4 19.52223 0.35 688
19 20 0.4 0.5 19.51278 0.45 690
19 20 0.5 0.6 19.5084 0.55 675
19 20 0.6 0.7 19.51994 0.65 632
19 20 0.7 0.8 19.51665 0.75 679
19 20 0.8 0.9 19.51872 0.85 654
19 20 0.9 1 19.5121 0.95 736
20 21 -1 -0.9 20.51803 -0.95 785
20 21 -0.9 -0.8 20.51557 -0.85 695
20 21 -0.8 -0.7 20.49519 -0.75 731
20 21 -0.7 -0.6 20.51098 -0.65 758
20 21 -0.6 -0.5 20.50772 -0.55 712
20 21 -0.5 -0.4 20.48823 -0.45 731
20 21 -0.4 -0.3 20.51599 -0.35 776
20 21 -0.3 -0.2 20.50561 -0.25 747
20 21 -0.2 -0.1 20.5176 -0.15 781
20 21 -0.1 0 20.49834 -0.05 786
20 21 0 0.1 20.51438 0.05 763
20 21 0.1 0.2 20.5096 0.15 790
20 21 0.2 0.3 20.50306 0.25 753
20 21 0.3 0.4 20.48527 0.35 772
20 21 0.4 0.5 20.51211 0.45 764
20 21 0.5 0.6 20.49906 0.55 755
20 21 0.6 0.7 20.50488 0.65 733
20 21 0.7 0.8 20.50947 0.75 782
20 21 0.8 0.9 20.50325 0.85 770
20 21 0.9 1 20.50883 0.95 809
21 22 -1 -0.9 21.51474 -0.95 910
21 22 -0.9 -0.8 21.5203 -0.85 799
21 22 -0.8 -0.7 21.51601 -0.75 795
21 22 -0.7 -0.6 21.49289 -0.65 790
21 22 -0.6 -0.5 21.48911 -0.55 804
21 22 -0.5 -0.4 21.50872 -0.45 835
21 22 -0.4 -0.3 21.49869 -0.35 855
21 22 -0.3 -0.2 21.487 -0.25 821
21 22 -0.2 -0.1 21.50944 -0.15 819
21 22 -0.1 0 21.51206 -0.05 850
21 22 0 0.1 21.49887 0.05 860
21 22 0.1 0.2 21.50714 0.15 827
21 22 0.2 0.3 21.5245 0.25 888
21 22 0.3 0.4 21.48427 0.35 807
21 22 0.4 0.5 21.52453 0.45 789
21 22 0.5 0.6 21.50592 0.55 808
21 22 0.6 0.7 21.52625 0.65 774
21 22 0.7 0.8 21.5031 0.75 774
21 22 0.8 0.9 21.52332 0.85 792
21 22 0.9 1 21.49613 0.95 852
22 23 -1 -0.9 22.52711 -0.95 853
22 23 -0.9 -0.8 22.50364 -0.85 842
22 23 -0.8 -0.7 22.49194 -0.75 877
22 23 -0.7 -0.6 22.52812 -0.65 905
22 23 -0.6 -0.5 22.49968 -0.55 828
22 23 -0.5 -0.4 22.51159 -0.45 842
22 23 -0.4 -0.3 22.50434 -0.35 913
22 23 -0.3 -0.2 22.51097 -0.25 863
22 23 -0.2 -0.1 22.52732 -0.15 918
22 23 -0.1 0 22.49922 -0.05 932
22 23 0 0.1 22.50669 0.05 956
22 23 0.1 0.2 22.48087 0.15 930
22 23 0.2 0.3 22.5068 0.25 868
22 23 0.3 0.4 22.51435 0.35 874
22 23 0.4 0.5 22.50871 0.45 852
22 23 0.5 0.6 22.5135 0.55 859
22 23 0.6 0.7 22.49844 0.65 835
22 23 0.7 0.8 22.50522 0.75 798
22 23 0.8 0.9 22.53045 0.85 901
22 23 0.9 1 22.51855 0.95 888
23 24 -1 -0.9 23.50318 -0.95 1018
23 24 -0.9 -0.8 23.48395 -0.85 885
23 24 -0.8 -0.7 23.51452 -0.75 958
23 24 -0.7 -0.6 23.51475 -0.65 862
23 24 -0.6 -0.5 23.48727 -0.55 914
23 24 -0.5 -0.4 23.51375 -0.45 920
23 24 -0.4 -0.3 23.50699 -0.35 907
23 24 -0.3 -0.2 23.50386 -0.25 947
23 24 -0.2 -0.1 23.50047 -0.15 932
23 24 -0.1 0 23.51032 -0.05 930
23 24 0 0.1 23.49506 0.05 925
23 24 0.1 0.2 23.52542 0.15 933
23 24 0.2 0.3 23.51707 0.25 958
23 24 0.3 0.4 23.49507 0.35 971
23 24 0.4 0.5 23.49792 0.45 982
23 24 0.5 0.6 23.50368 0.55 936
23 24 0.6 0.7 23.51736 0.65 943
23 24 0.7 0.8 23.49353 0.75 920
23 24 0.8 0.9 23.50802 0.85 952
23 24 0.9 1 23.50723 0.95 1040
24 25 -1 -0.9 24.51418 -0.95 1014
24 25 -0.9 -0.8 24.50842 -0.85 958
24 25 -0.8 -0.7 24.51735 -0.75 937
24 25 -0.7 -0.6 24.51801 -0.65 989
24 25 -0.6 -0.5 24.52281 -0.55 1035
24 25 -0.5 -0.4 24.50198 -0.45 991
24 25 -0.4 -0.3 24.50579 -0.35 1009
24 25 -0.3 -0.2 24.51273 -0.25 1031
24 25 -0.2 -0.1 24.52412 -0.15 1062
24 25 -0.1 0 24.52848 -0.05 1067
24 25 0 0.1 24.51094 0.05 1078
24 25 0.1 0.2 24.50391 0.15 1097
24 25 0.2 0.3 24.50611 0.25 1075
24 25 0.3 0.4 24.51928 0.35 1048
24 25 0.4 0.5 24.50171 0.45 1018
24 25 0.5 0.6 24.50093 0.55 1026
24 25 0.6 0.7 24.50237 0.65 973
24 25 0.7 0.8 24.48945 0.75 990
24 25 0.8 0.9 24.52342 0.85 973
24 25 0.9 1 24.52221 0.95 1048
25 26 -1 -0.9 25.50042 -0.95 1084
25 26 -0.9 -0.8 25.50131 -0.85 1023
25 26 -0.8 -0.7 25.50171 -0.75 1059
25 26 -0.7 -0.6 25.50593 -0.65 1006
25 26 -0.6 -0.5 25.50869 -0.55 1015
25 26 -0.5 -0.4 25.50082 -0.45 1025
25 26 -0.4 -0.3 25.49867 -0.35 1046
25 26 -0.3 -0.2 25.52883 -0.25 1082
25 26 -0.2 -0.1 25.49655 -0.15 1138
25 26 -0.1 0 25.49895 -0.05 1121
25 26 0 0.1 25.48951 0.05 1143
25 26 0.1 0.2 25.5001 0.15 1091
25 26 0.2 0.3 25.50443 0.25 1047
25 26 0.3 0.4 25.50207 0.35 1072
25 26 0.4 0.5 25.50037 0.45 1102
25 26 0.5 0.6 25.49073 0.55 1020
25 26 0.6 0.7 25.52562 0.65 1070
25 26 0.7 0.8 25.49991 0.75 1071
25 26 0.8 0.9 25.49781 0.85 1062
25 26 0.9 1 25.51292 0.95 1169
26 27 -1 -0.9 26.50828 -0.95 1132
26 27 -0.9 -0.8 26.48805 -0.85 1170
26 27 -0.8 -0.7 26.49058 -0.75 1041
26 27 -0.7 -0.6 26.49192 -0.65 1100
26 27 -0.6 -0.5 26.50999 -0.55 1084
26 27 -0.5 -0.4 26.50388 -0.45 1114
26 27 -0.4 -0.3 26.52054 -0.35 1111
26 27 -0.3 -0.2 26.5112 -0.25 1152
26 27 -0.2 -0.1 26.51442 -0.15 1251
26 27 -0.1 0 26.49921 -0.05 1119
26 27 0 0.1 26.49982 0.05 1206
26 27 0.1 0.2 26.5134 0.15 1165
26 27 0.2 0.3 26.49578 0.25 1131
26 27 0.3 0.4 26.50408 0.35 1184
26 27 0.4 0.5 26.50535 0.45 1127
26 27 0.5 0.6 26.51415 0.55 1139
26 27 0.6 0.7 26.49266 0.65 1100
26 27 0.7 0.8 26.49774 0.75 1127
26 27 0.8 0.9 26.50917 0.85 1165
26 27 0.9 1 26.50864 0.95 1175
27 28 -1 -0.9 27.50519 -0.95 1285
27 28 -0.9 -0.8 27.50302 -0.85 1162
27 28 -0.8 -0.7 27.51968 -0.75 1202
27 28 -0.7 -0.6 27.49906 -0.65 1082
27 28 -0.6 -0.5 27.50963 -0.55 1110
27 28 -0.5 -0.4 27.50014 -0.45 1115
27 28 -0.4 -0.3 27.49497 -0.35 1181
27 28 -0.3 -0.2 27.4956 -0.25 1218
27 28 -0.2 -0.1 27.50536 -0.15 1246
27 28 -0.1 0 27.51247 -0.05 1220
27 28 0 0.1 27.49553 0.05 1258
27 28 0.1 0.2 27.52086 0.15 1215
27 28 0.2 0.3 27.50187 0.25 1210
27 28 0.3 0.4 27.50456 0.35 1159
27 28 0.4 0.5 27.49015 0.45 1195
27 28 0.5 0.6 27.49506 0.55 1171
27 28 0.6 0.7 27.49955 0.65 1229
27 28 0.7 0.8 27.51138 0.75 1205
27 28 0.8 0.9 27.51025 0.85 1222
27 28 0.9 1 27.50621 0.95 1203
28 29 -1 -0.9 28.51184 -0.95 1348
28 29 -0.9 -0.8 28.5057 -0.85 1276
28 29 -0.8 -0.7 28.49382 -0.75 1293
28 29 -0.7 -0.6 28.49672 -0.65 1213
28 29 -0.6 -0.5 28.50046 -0.55 1228
28 29 -0.5 -0.4 28.509 -0.45 1269
28 29 -0.4 -0.3 28.51631 -0.35 1245
28 29 -0.3 -0.2 28.51688 -0.25 1215
28 29 -0.2 -0.1 28.49468 -0.15 1261
28 29 -0.1 0 28.50871 -0.05 1376
28 29 0 0.1 28.50924 0.05 1404
28 29 0.1 0.2 28.5078 0.15 1287
28 29 0.2 0.3 28.51146 0.25 1276
28 29 0.3 0.4 28.51808 0.35 1252
28 29 0.4 0.5 28.49776 0.45 1237
28 29 0.5 0.6 28.49308 0.55 1174
28 29 0.6 0.7 28.49891 0.65 1281
28 29 0.7 0.8 28.49761 0.75 1227
28 29 0.8 0.9 28.50811 0.85 1257
28 29 0.9 1 28.51133 0.95 1342
29 30 -1 -0.9 29.51327 -0.95 1400
29 30 -0.9 -0.8 29.50664 -0.85 1345
29 30 -0.8 -0.7 29.50579 -0.75 1277
29 30 -0.7 -0.6 29.50242 -0.65 1262
29 30 -0.6 -0.5 29.4987 -0.55 1285
29 30 -0.5 -0.4 29.50236 -0.45 1340
29 30 -0.4 -0.3 29.51143 -0.35 1293
29 30 -0.3 -0.2 29.52587 -0.25 1362
29 30 -0.2 -0.1 29.49056 -0.15 1376
29 30 -0.1 0 29.51505 -0.05 1411
29 30 0 0.1 29.51171 0.05 1411
29 30 0.1 0.2 29.49144 0.15 1359
29 30 0.2 0.3 29.50789 0.25 1346
29 30 0.3 0.4 29.51254 0.35 1314
29 30 0.4 0.5 29.50155 0.45 1347
29 30 0.5 0.6 29.51116 0.55 1257
29 30 0.6 0.7 29.49974 0.65 1311
29 30 0.7 0.8 29.51606 0.75 1280
29 30 0.8 0.9 29.48956 0.85 1351
29 30 0.9 1 29.51012 0.95 1419
30 31 -1 -0.9 30.50834 -0.95 1401
30 31 -0.9 -0.8 30.51133 -0.85 1319
30 31 -0.8 -0.7 30.50973 -0.75 1441
30 31 -0.7 -0.6 30.50361 -0.65 1375
30 31 -0.6 -0.5 30.50239 -0.55 1372
30 31 -0.5 -0.4 30.4956 -0.45 1410
30 31 -0.4 -0.3 30.50296 -0.35 1417
30 31 -0.3 -0.2 30.48963 -0.25 1425
30 31 -0.2 -0.1 30.50302 -0.15 1461
30 31 -0.1 0 30.50614 -0.05 1508
30 31 0 0.1 30.50308 0.05 1551
30 31 0.1 0.2 30.50206 0.15 1510
30 31 0.2 0.3 30.50069 0.25 1405
30 31 0.3 0.4 30.49715 0.35 1418
30 31 0.4 0.5 30.50445 0.45 1369
30 31 0.5 0.6 30.49954 0.55 1408
30 31 0.6 0.7 30.49452 0.65 1399
30 31 0.7 0.8 30.51447 0.75 1377
30 31 0.8 0.9 30.50285 0.85 1407
30 31 0.9 1 30.49863 0.95 1483
31 32 -1 -0.9 31.50308 -0.95 1461
31 32 -0.9 -0.8 31.49432 -0.85 1459
31 32 -0.8 -0.7 31.50515 -0.75 1455
31 32 -0.7 -0.6 31.49397 -0.65 1441
31 32 -0.6 -0.5 31.50405 -0.55 1439
31 32 -0.5 -0.4 31.51295 -0.45 1465
31 32 -0.4 -0.3 31.49474 -0.35 1375
31 32 -0.3 -0.2 31.50201 -0.25 1500
31 32 -0.2 -0.1 31.50854 -0.15 1484
31 32 -0.1 0 31.50526 -0.05 1609
31 32 0 0.1 31.50793 0.05 1513
31 32 0.1 0.2 31.49862 0.15 1524
31 32 0.2 0.3 31.49466 0.25 1471
31 32 0.3 0.4 31.51015 0.35 1483
31 32 0.4 0.5 31.49824 0.45 1422
31 32 0.5 0.6 31.50741 0.55 1440
31 32 0.6 0.7 31.51466 0.65 1420
31 32 0.7 0.8 31.49705 0.75 1429
31 32 0.8 0.9 31.52157 0.85 1502
31 32 0.9 1 31.50461 0.95 1573
32 33 -1 -0.9 32.50772 -0.95 1613
32 33 -0.9 -0.8 32.50006 -0.85 1518
32 33 -0.8 -0.7 32.50187 -0.75 1453
32 33 -0.7 -0.6 32.51094 -0.65 1433
32 33 -0.6 -0.5 32.51361 -0.55 1522
32 33 -0.5 -0.4 32.50974 -0.45 1470
32 33 -0.4 -0.3 32.51719 -0.35 1490
32 33 -0.3 -0.2 32.50135 -0.25 1538
32 33 -0.2 -0.1 32.52055 -0.15 1585
32 33 -0.1 0 32.50387 -0.05 1591
32 33 0 0.1 32.49036 0.05 1666
32 33 0.1 0.2 32.50321 0.15 1595
32 33 0.2 0.3 32.51223 0.25 1553
32 33 0.3 0.4 32.50896 0.35 1548
32 33 0.4 0.5 32.49371 0.45 1501
32 33 0.5 0.6 32.5035 0.55 1562
32 33 0.6 0.7 32.49342 0.65 1452
32 33 0.7 0.8 32.5016 0.75 1516
32 33 0.8 0.9 32.5078 0.85 1545
32 33 0.9 1 32.4963 0.95 1666
33 34 -1 -0.9 33.4997 -0.95 1630
33 34 -0.9 -0.8 33.49637 -0.85 1577
33 34 -0.8 -0.7 33.50305 -0.75 1592
33 34 -0.7 -0.6 33.50618 -0.65 1499
33 34 -0.6 -0.5 33.49346 -0.55 1477
33 34 -0.5 -0.4 33.5006 -0.45 1520
33 34 -0.4 -0.3 33.49744 -0.35 1531
33 34 -0.3 -0.2 33.51239 -0.25 1595
33 34 -0.2 -0.1 33.50944 -0.15 1611
33 34 -0.1 0 33.5058 -0.05 1739
33 34 0 0.1 33.50317 0.05 1663
33 34 0.1 0.2 33.49836 0.15 1705
33 34 0.2 0.3 33.49295 0.25 1570
33 34 0.3 0.4 33.50184 0.35 1589
33 34 0.4 0.5 33.51227 0.45 1506
33 34 0.5 0.6 33.51622 0.55 1491
33 34 0.6 0.7 33.49427 0.65 1470
33 34 0.7 0.8 33.50665 0.75 1558
33 34 0.8 0.9 33.50695 0.85 1622
33 34 0.9 1 33.50651 0.95 1673
34 35 -1 -0.9 34.51452 -0.95 1797
34 35 -0.9 -0.8 34.50822 -0.85 1659
34 35 -0.8 -0.7 34.49362 -0.75 1669
34 35 -0.7 -0.6 34.50964 -0.65 1592
34 35 -0.6 -0.5 34.50541 -0.55 1627
34 35 -0.5 -0.4 34.49146 -0.45 1600
34 35 -0.4 -0.3 34.49192 -0.35 1612
34 35 -0.3 -0.2 34.51451 -0.25 1627
34 35 -0.2 -0.1 34.50016 -0.15 1746
34 35 -0.1 0 34.50156 -0.05 1743
34 35 0 0.1 34.51225 0.05 1759
34 35 0.1 0.2 34.49797 0.15 1702
34 35 0.2 0.3 34.4969 0.25 1628
34 35 0.3 0.4 34.49673 0.35 1596
34 35 0.4 0.5 34.51041 0.45 1611
34 35 0.5 0.6 34.51144 0.55 1688
34 35 0.6 0.7 34.50108 0.65 1648
34 35 0.7 0.8 34.50884 0.75 1665
34 35 0.8 0.9 34.50256 0.85 1669
34 35 0.9 1 34.51821 0.95 1745
35 36 -1 -0.9 35.51708 -0.95 1805
35 36 -0.9 -0.8 35.49631 -0.85 1762
35 36 -0.8 -0.7 35.50793 -0.75 1626
35 36 -0.7 -0.6 35.50249 -0.65 1633
35 36 -0.6 -0.5 35.50582 -0.55 1662
35 36 -0.5 -0.4 35.50517 -0.45 1666
35 36 -0.4 -0.3 35.49305 -0.35 1677
35 36 -0.3 -0.2 35.50136 -0.25 1774
35 36 -0.2 -0.1 35.49539 -0.15 1794
35 36 -0.1 0 35.50347 -0.05 1879
35 36 0 0.1 35.49883 0.05 1852
35 36 0.1 0.2 35.50385 0.15 1817
35 36 0.2 0.3 35.49607 0.25 1721
35 36 0.3 0.4 35.50122 0.35 1735
35 36 0.4 0.5 35.50345 0.45 1643
35 36 0.5 0.6 35.49066 0.55 1727
35 36 0.6 0.7 35.50008 0.65 1697
35 36 0.7 0.8 35.50907 0.75 1694
35 36 0.8 0.9 35.50305 0.85 1770
35 36 0.9 1 35.49614 0.95 1788
36 37 -1 -0.9 36.50896 -0.95 1810
36 37 -0.9 -0.8 36.50607 -0.85 1839
36 37 -0.8 -0.7 36.50409 -0.75 1839
36 37 -0.7 -0.6 36.49953 -0.65 1692
36 37 -0.6 -0.5 36.49897 -0.55 1681
36 37 -0.5 -0.4 36.49915 -0.45 1757
36 37 -0.4 -0.3 36.5083 -0.35 1785
36 37 -0.3 -0.2 36.50248 -0.25 1771
36 37 -0.2 -0.1 36.50573 -0.15 1798
36 37 -0.1 0 36.50538 -0.05 1885
36 37 0 0.1 36.50442 0.05 1956
36 37 0.1 0.2 36.50919 0.15 1879
36 37 0.2 0.3 36.50346 0.25 1730
36 37 0.3 0.4 36.50574 0.35 1783
36 37 0.4 0.5 36.49994 0.45 1743
36 37 0.5 0.6 36.50415 0.55 1666
36 37 0.6 0.7 36.50091 0.65 1616
36 37 0.7 0.8 36.50931 0.75 1720
36 37 0.8 0.9 36.51579 0.85 1765
36 37 0.9 1 36.4994 0.95 1926
37 38 -1 -0.9 37.50462 -0.95 1998
37 38 -0.9 -0.8 37.50943 -0.85 1792
37 38 -0.8 -0.7 37.49892 -0.75 1761
37 38 -0.7 -0.6 37.49105 -0.65 1779
37 38 -0.6 -0.5 37.50867 -0.55 1824
37 38 -0.5 -0.4 37.51063 -0.45 1699
37 38 -0.4 -0.3 37.50714 -0.35 1827
37 38 -0.3 -0.2 37.49943 -0.25 1827
37 38 -0.2 -0.1 37.49637 -0.15 1895
37 38 -0.1 0 37.5054 -0.05 2028
37 38 0 0.1 37.50633 0.05 1976
37 38 0.1 0.2 37.50439 0.15 1830
37 38 0.2 0.3 37.5076 0.25 1875
37 38 0.3 0.4 37.50962 0.35 1851
37 38 0.4 0.5 37.49578 0.45 1781
37 38 0.5 0.6 37.50133 0.55 1763
37 38 0.6 0.7 37.51522 0.65 1777
37 38 0.7 0.8 37.50195 0.75 1833
37 38 0.8 0.9 37.48793 0.85 1851
37 38 0.9 1 37.51067 0.95 1986
38 39 -1 -0.9 38.49826 -0.95 2037
38 39 -0.9 -0.8 38.50417 -0.85 1873
38 39 -0.8 -0.7 38.50035 -0.75 1871
38 39 -0.7 -0.6 38.49396 -0.65 1880
38 39 -0.6 -0.5 38.50192 -0.55 1814
38 39 -0.5 -0.4 38.50843 -0.45 1816
38 39 -0.4 -0.3 38.50397 -0.35 1857
38 39 -0.3 -0.2 38.5057 -0.25 1885
38 39 -0.2 -0.1 38.50442 -0.15 2004
38 39 -0.1 0 38.50634 -0.05 2096
38 39 0 0.1 38.5079 0.05 2015
38 39 0.1 0.2 38.50156 0.15 2010
38 39 0.2 0.3 38.50184 0.25 1920
38 39 0.3 0.4 38.51012 0.35 1878
38 39 0.4 0.5 38.51362 0.45 1785
38 39 0.5 0.6 38.50188 0.55 1844
38 39 0.6 0.7 38.51298 0.65 1834
38 39 0.7 0.8 38.50738 0.75 1829
38 39 0.8 0.9 38.49421 0.85 1851
38 39 0.9 1 38.49637 0.95 1998
39 40 -1 -0.9 39.50199 -0.95 2056
39 40 -0.9 -0.8 39.49593 -0.85 1945
39 40 -0.8 -0.7 39.49249 -0.75 1882
39 40 -0.7 -0.6 39.50299 -0.65 1859
39 40 -0.6 -0.5 39.49983 -0.55 1873
39 40 -0.5 -0.4 39.51422 -0.45 1864
39 40 -0.4 -0.3 39.49614 -0.35 1857
39 40 -0.3 -0.2 39.51436 -0.25 2004
39 40 -0.2 -0.1 39.50915 -0.15 1979
39 40 -0.1 0 39.50412 -0.05 2089
39 40 0 0.1 39.50941 0.05 2188
39 40 0.1 0.2 39.50488 0.15 2044
39 40 0.2 0.3 39.50128 0.25 1987
39 40 0.3 0.4 39.49443 0.35 1907
39 40 0.4 0.5 39.49481 0.45 1946
39 40 0.5 0.6 39.49487 0.55 1858
39 40 0.6 0.7 39.50598 0.65 1888
39 40 0.7 0.8 39.50457 0.75 1966
39 40 0.8 0.9 39.50882 0.85 1958
39 40 0.9 1 39.49771 0.95 2072
40 41 -1 -0.9 40.50247 -0.95 2174
40 41 -0.9 -0.8 40.50752 -0.85 1941
40 41 -0.8 -0.7 40.50976 -0.75 1953
40 41 -0.7 -0.6 40.50224 -0.65 1997
40 41 -0.6 -0.5 40.50903 -0.55 1860
40 41 -0.5 -0.4 40.5015 -0.45 1950
40 41 -0.4 -0.3 40.50819 -0.35 1995
40 41 -0.3 -0.2 40.50058 -0.25 2075
40 41 -0.2 -0.1 40.51651 -0.15 2061
40 41 -0.1 0 40.50996 -0.05 2147
40 41 0 0.1 40.49922 0.05 2207
40 41 0.1 0.2 40.49865 0.15 2123
40 41 0.2 0.3 40.499 0.25 2084
40 41 0.3 0.4 40.51298 0.35 1954
40 41 0.4 0.5 40.49851 0.45 1963
40 41 0.5 0.6 40.49419 0.55 1970
40 41 0.6 0.7 40.51108 0.65 1910
40 41 0.7 0.8 40.50489 0.75 1905
40 41 0.8 0.9 40.50671 0.85 1969
40 41 0.9 1 40.50455 0.95 2125
