#norm = 4000000
#edges = (np.linspace(1, 41, 41), np.linspace(-1, 1, 21))
#s_low s_high mu_low mu_high s mu wcounts
1 2 -1 -0.9 1.511583 -0.95 12.8247843563
1 2 -0.9 -0.8 1.781725 -0.85 1.96634654609
1 2 -0.8 -0.7 1.511894 -0.75 11.5715469546
1 2 -0.7 -0.6 1.542272 -0.65 16.9661711733
1 2 -0.6 -0.5 1.670002 -0.55 14.5940136949
1 2 -0.5 -0.4 1.445715 -0.45 16.726332413
1 2 -0.4 -0.3 1.551425 -0.35 12.7543532162
1 2 -0.3 -0.2 1.704456 -0.25 21.3169004945
1 2 -0.2 -0.1 1.787226 -0.15 6.98299957789
1 2 -0.1 0 1.663964 -0.05 10.6755927868
1 2 0 0.1 1.557787 0.05 10.7761037035
1 2 0.1 0.2 1.545864 0.15 7.20536050071
1 2 0.2 0.3 1.470804 0.25 12.7787258695
1 2 0.3 0.4 1.660211 0.35 10.8336147221
1 2 0.4 0.5 1.756749 0.45 3.550474915
1 2 0.5 0.6 1.515477 0.55 9.29455742055
1 2 0.6 0.7 1.3848 0.65 3.84157832988
1 2 0.7 0.8 1.598533 0.75 19.1653660814
1 2 0.8 0.9 1.456627 0.85 8.19890835297
1 2 0.9 1 1.551889 0.95 21.9225177841
2 3 -1 -0.9 2.629643 -0.95 26.3131784092
2 3 -0.9 -0.8 2.536882 -0.85 31.3665441993
2 3 -0.8 -0.7 2.635905 -0.75 29.8980973716
2 3 -0.7 -0.6 2.605349 -0.65 23.9862105482
2 3 -0.6 -0.5 2.479538 -0.55 25.4553820673
2 3 -0.5 -0.4 2.646269 -0.45 28.1524092995
2 3 -0.4 -0.3 2.440241 -0.35 18.3626883705
2 3 -0.3 -0.2 2.566057 -0.25 31.1660861767
2 3 -0.2 -0.1 2.601541 -0.15 21.1850224875
2 3 -0.1 0 2.531658 -0.05 17.9569701914
2 3 0 0.1 2.655088 0.05 16.1597182605
2 3 0.1 0.2 2.570495 0.15 21.1486807722
2 3 0.2 0.3 2.407015 0.25 24.9116362139
2 3 0.3 0.4 2.652577 0.35 19.6356462243
2 3 0.4 0.5 2.496555 0.45 20.0681038029
2 3 0.5 0.6 2.518173 0.55 37.2722106381
2 3 0.6 0.7 2.544858 0.65 17.1699561605
2 3 0.7 0.8 2.605715 0.75 29.9500455096
2 3 0.8 0.9 2.512708 0.85 27.7633959762
2 3 0.9 1 2.539806 0.95 19.2734795928
3 4 -1 -0.9 3.522537 -0.95 49.425743555
3 4 -0.9 -0.8 3.504246 -0.85 62.6013881238
3 4 -0.8 -0.7 3.519646 -0.75 36.5696569591
3 4 -0.7 -0.6 3.603853 -0.65 51.4860923593
3 4 -0.6 -0.5 3.583245 -0.55 42.6341957982
3 4 -0.5 -0.4 3.514857 -0.45 50.0075406523
3 4 -0.4 -0.3 3.545219 -0.35 49.4541361888
3 4 -0.3 -0.2 3.50242 -0.25 41.5271315406
3 4 -0.2 -0.1 3.552029 -0.15 47.2801328914
3 4 -0.1 0 3.567491 -0.05 33.4690405106
3 4 0 0.1 3.569052 0.05 53.3990452991
3 4 0.1 0.2 3.520761 0.15 41.2587984567
3 4 0.2 0.3 3.517651 0.25 46.0360853124
3 4 0.3 0.4 3.596713 0.35 44.7397183373
3 4 0.4 0.5 3.629896 0.45 60.4360414253
3 4 0.5 0.6 3.495262 0.55 38.0747262199
3 4 0.6 0.7 3.563486 0.65 51.6849643812
3 4 0.7 0.8 3.564129 0.75 53.1408852017
3 4 0.8 0.9 3.471838 0.85 71.2653544805
3 4 0.9 1 3.564844 0.95 55.1999212644
4 5 -1 -0.9 4.520567 -0.95 121.163720887
4 5 -0.9 -0.8 4.502662 -0.85 81.3766782888
4 5 -0.8 -0.7 4.57367 -0.75 64.6359614123
4 5 -0.7 -0.6 4.477853 -0.65 66.1246945224
4 5 -0.6 -0.5 4.552991 -0.55 81.0759950442
4 5 -0.5 -0.4 4.495042 -0.45 74.1449445233
4 5 -0.4 -0.3 4.553612 -0.35 86.1878239314
4 5 -0.3 -0.2 4.516994 -0.25 74.0985392719
4 5 -0.2 -0.1 4.507781 -0.15 72.2975624444
4 5 -0.1 0 4.574141 -0.05 51.8617524978
4 5 0 0.1 4.53291 0.05 66.5678809442
4 5 0.1 0.2 4.494697 0.15 91.3357533077
4 5 0.2 0.3 4.529429 0.25 78.4762996411
4 5 0.3 0.4 4.499294 0.35 73.3600277929
4 5 0.4 0.5 4.518141 0.45 60.8116533941
4 5 0.5 0.6 4.597433 0.55 68.9320612581
4 5 0.6 0.7 4.512888 0.65 64.5091976903
4 5 0.7 0.8 4.561686 0.75 67.7691619241
4 5 0.8 0.9 4.555749 0.85 94.510866204
4 5 0.9 1 4.596891 0.95 72.751085542
5 6 -1 -0.9 5.507985 -0.95 144.74994586
5 6 -0.9 -0.8 5.529003 -0.85 114.311359155
5 6 -0.8 -0.7 5.483956 -0.75 95.3746274504
5 6 -0.7 -0.6 5.52176 -0.65 108.629434531
5 6 -0.6 -0.5 5.55675 -0.55 104.858696554
5 6 -0.5 -0.4 5.532869 -0.45 74.9524469222
5 6 -0.4 -0.3 5.583699 -0.35 107.328345306
5 6 -0.3 -0.2 5.518284 -0.25 73.5651431585
5 6 -0.2 -0.1 5.500797 -0.15 96.9979896236
5 6 -0.1 0 5.475564 -0.05 96.6912488532
5 6 0 0.1 5.531485 0.05 93.7267619627
5 6 0.1 0.2 5.478529 0.15 106.524857649
5 6 0.2 0.3 5.512796 0.25 81.7502918026
5 6 0.3 0.4 5.485505 0.35 113.736450491
5 6 0.4 0.5 5.549739 0.45 83.3988027032
5 6 0.5 0.6 5.527293 0.55 89.1159650092
5 6 0.6 0.7 5.541077 0.65 90.8479185315
5 6 0.7 0.8 5.52664 0.75 117.974042578
5 6 0.8 0.9 5.533235 0.85 116.353212954
5 6 0.9 1 5.572774 0.95 130.740382094
6 7 -1 -0.9 6.561063 -0.95 166.563971519
6 7 -0.9 -0.8 6.513555 -0.85 138.039856788
6 7 -0.8 -0.7 6.425808 -0.75 142.133705502
6 7 -0.7 -0.6 6.564081 -0.65 137.18860346
6 7 -0.6 -0.5 6.551895 -0.55 125.774255514
6 7 -0.5 -0.4 6.47438 -0.45 105.01650681
6 7 -0.4 -0.3 6.511252 -0.35 141.570907461
6 7 -0.3 -0.2 6.524903 -0.25 102.693430494
6 7 -0.2 -0.1 6.481218 -0.15 115.639176027
6 7 -0.1 0 6.513857 -0.05 129.721326471
6 7 0 0.1 6.538667 0.05 133.777020148
6 7 0.1 0.2 6.496003 0.15 120.899779078
6 7 0.2 0.3 6.475587 0.25 126.997415454
6 7 0.3 0.4 6.511558 0.35 131.970813809
6 7 0.4 0.5 6.55179 0.45 137.48189547
6 7 0.5 0.6 6.515596 0.55 135.448329407
6 7 0.6 0.7 6.508277 0.65 114.591286993
6 7 0.7 0.8 6.524808 0.75 142.879537025
6 7 0.8 0.9 6.499357 0.85 150.501441728
6 7 0.9 1 6.432351 0.95 163.974669151
7 8 -1 -0.9 7.516701 -0.95 263.391413896
7 8 -0.9 -0.8 7.507127 -0.85 199.310143603
7 8 -0.8 -0.7 7.522655 -0.75 181.178317614
7 8 -0.7 -0.6 7.510341 -0.65 161.379502866
7 8 -0.6 -0.5 7.495995 -0.55 156.478901207
7 8 -0.5 -0.4 7.517557 -0.45 158.933398407
7 8 -0.4 -0.3 7.540684 -0.35 189.478175382
7 8 -0.3 -0.2 7.550256 -0.25 155.766265957
7 8 -0.2 -0.1 7.494541 -0.15 137.336253075
7 8 -0.1 0 7.510257 -0.05 153.479816907
7 8 0 0.1 7.54136 0.05 148.24994416
7 8 0.1 0.2 7.511852 0.15 160.495373094
7 8 0.2 0.3 7.530339 0.25 151.964230896
7 8 0.3 0.4 7.468553 0.35 160.053592061
7 8 0.4 0.5 7.498446 0.45 177.78510188
7 8 0.5 0.6 7.502548 0.55 160.54347748
7 8 0.6 0.7 7.505403 0.65 190.035209341
7 8 0.7 0.8 7.485061 0.75 192.328746886
7 8 0.8 0.9 7.479064 0.85 176.181666919
7 8 0.9 1 7.572233 0.95 185.7902747
8 9 -1 -0.9 8.502256 -0.95 234.793510193
8 9 -0.9 -0.8 8.53592 -0.85 214.257846394
8 9 -0.8 -0.7 8.52411 -0.75 179.777731108
8 9 -0.7 -0.6 8.569465 -0.65 197.447479203
8 9 -0.6 -0.5 8.502578 -0.55 177.506314788
8 9 -0.5 -0.4 8.531002 -0.45 180.876397126
8 9 -0.4 -0.3 8.521421 -0.35 190.195638353
8 9 -0.3 -0.2 8.48424 -0.25 199.932838368
8 9 -0.2 -0.1 8.509847 -0.15 230.80937878
8 9 -0.1 0 8.475182 -0.05 220.362961622
8 9 0 0.1 8.480786 0.05 192.205258523
8 9 0.1 0.2 8.541544 0.15 207.961509681
8 9 0.2 0.3 8.509231 0.25 207.130738948
8 9 0.3 0.4 8.552867 0.35 167.27696725
8 9 0.4 0.5 8.509793 0.45 229.578468311
8 9 0.5 0.6 8.503271 0.55 185.337490568
8 9 0.6 0.7 8.480877 0.65 256.305108186
8 9 0.7 0.8 8.525714 0.75 243.184307665
8 9 0.8 0.9 8.537726 0.85 258.921623281
8 9 0.9 1 8.558945 0.95 278.554997173
9 10 -1 -0.9 9.496472 -0.95 321.417746601
9 10 -0.9 -0.8 9.504693 -0.85 288.769584403
9 10 -0.8 -0.7 9.490008 -0.75 291.995815008
9 10 -0.7 -0.6 9.493246 -0.65 232.265816533
9 10 -0.6 -0.5 9.499743 -0.55 251.005765245
9 10 -0.5 -0.4 9.51286 -0.45 251.170609579
9 10 -0.4 -0.3 9.49813 -0.35 234.559750903
9 10 -0.3 -0.2 9.516176 -0.25 238.718597616
9 10 -0.2 -0.1 9.502614 -0.15 238.595752687
9 10 -0.1 0 9.537996 -0.05 225.68359747
9 10 0 0.1 9.522378 0.05 237.979241815
9 10 0.1 0.2 9.483304 0.15 233.989682968
9 10 0.2 0.3 9.5116 0.25 230.298292526
9 10 0.3 0.4 9.497381 0.35 215.228369345
9 10 0.4 0.5 9.526826 0.45 230.201829761
9 10 0.5 0.6 9.511266 0.55 258.465207725
9 10 0.6 0.7 9.511039 0.65 228.360862314
9 10 0.7 0.8 9.529151 0.75 245.935841032
9 10 0.8 0.9 9.508135 0.85 314.491123423
9 10 0.9 1 9.513492 0.95 316.156061296
10 11 -1 -0.9 10.48172 -0.95 373.891410909
10 11 -0.9 -0.8 10.50739 -0.85 340.855058869
10 11 -0.8 -0.7 10.50831 -0.75 340.738268735
10 11 -0.7 -0.6 10.49993 -0.65 256.645643435
10 11 -0.6 -0.5 10.52664 -0.55 293.142313812
10 11 -0.5 -0.4 10.47381 -0.45 285.829745014
10 11 -0.4 -0.3 10.53152 -0.35 298.924288174
10 11 -0.3 -0.2 10.53545 -0.25 258.282417823
10 11 -0.2 -0.1 10.50186 -0.15 258.090355601
10 11 -0.1 0 10.4965 -0.05 280.792900688
10 11 0 0.1 10.52207 0.05 300.093384335
10 11 0.1 0.2 10.51628 0.15 303.770127095
10 11 0.2 0.3 10.53701 0.25 293.57759759
10 11 0.3 0.4 10.53103 0.35 285.781292788
10 11 0.4 0.5 10.48335 0.45 304.145914078
10 11 0.5 0.6 10.48036 0.55 285.961145737
10 11 0.6 0.7 10.5168 0.65 288.476194209
10 11 0.7 0.8 10.52402 0.75 310.062434116
10 11 0.8 0.9 10.51981 0.85 352.453756397
10 11 0.9 1 10.53883 0.95 388.188273645
11 12 -1 -0.9 11.48377 -0.95 465.900652346
11 12 -0.9 -0.8 11.49395 -0.85 413.988010004
11 12 -0.8 -0.7 11.52582 -0.75 359.404720321
11 12 -0.7 -0.6 11.51239 -0.65 326.75476635
11 12 -0.6 -0.5 11.48874 -0.55 299.556083532
11 12 -0.5 -0.4 11.50742 -0.45 285.869523874
11 12 -0.4 -0.3 11.48469 -0.35 341.236487507
11 12 -0.3 -0.2 11.50237 -0.25 326.285800184
11 12 -0.2 -0.1 11.51565 -0.15 296.564304693
11 12 -0.1 0 11.52003 -0.05 300.753568538
11 12 0 0.1 11.4725 0.05 301.014907646
11 12 0.1 0.2 11.47254 0.15 338.206130354
11 12 0.2 0.3 11.50669 0.25 334.193827685
11 12 0.3 0.4 11.52031 0.35 333.674159874
11 12 0.4 0.5 11.5214 0.45 308.250905742
11 12 0.5 0.6 11.49235 0.55 340.815685333
11 12 0.6 0.7 11.49043 0.65 299.789747829
11 12 0.7 0.8 11.49735 0.75 365.92789963
11 12 0.8 0.9 11.52022 0.85 395.446232939
11 12 0.9 1 11.53429 0.95 481.049075262
12 13 -1 -0.9 12.52555 -0.95 507.055404146
12 13 -0.9 -0.8 12.4975 -0.85 418.587608927
12 13 -0.8 -0.7 12.49905 -0.75 406.939476395
12 13 -0.7 -0.6 12.48655 -0.65 354.030342795
12 13 -0.6 -0.5 12.52007 -0.55 363.054740431
12 13 -0.5 -0.4 12.5161 -0.45 376.364172634
12 13 -0.4 -0.3 12.52 -0.35 349.032814113
12 13 -0.3 -0.2 12.50949 -0.25 388.665921417
12 13 -0.2 -0.1 12.51033 -0.15 374.134812306
12 13 -0.1 0 12.51524 -0.05 333.967240401
12 13 0 0.1 12.52517 0.05 393.829112227
12 13 0.1 0.2 12.51787 0.15 371.379467122
12 13 0.2 0.3 12.53404 0.25 383.857835979
12 13 0.3 0.4 12.5062 0.35 370.318214411
12 13 0.4 0.5 12.55063 0.45 380.75290544
12 13 0.5 0.6 12.53747 0.55 372.196854211
12 13 0.6 0.7 12.52304 0.65 395.403491896
12 13 0.7 0.8 12.51213 0.75 405.165878896
12 13 0.8 0.9 12.49248 0.85 404.884396627
12 13 0.9 1 12.52608 0.95 506.37591406
13 14 -1 -0.9 13.50331 -0.95 624.504729678
13 14 -0.9 -0.8 13.48623 -0.85 478.399353089
13 14 -0.8 -0.7 13.50872 -0.75 442.374036107
13 14 -0.7 -0.6 13.50011 -0.65 406.862394222
13 14 -0.6 -0.5 13.49708 -0.55 411.100399764
13 14 -0.5 -0.4 13.50482 -0.45 383.325655062
13 14 -0.4 -0.3 13.51997 -0.35 397.036386139
13 14 -0.3 -0.2 13.52427 -0.25 427.905856656
13 14 -0.2 -0.1 13.53668 -0.15 429.324107604
13 14 -0.1 0 13.49778 -0.05 383.670434469
13 14 0 0.1 13.501 0.05 448.127118201
13 14 0.1 0.2 13.53718 0.15 383.221829241
13 14 0.2 0.3 13.49651 0.25 416.278128306
13 14 0.3 0.4 13.52088 0.35 419.141871936
13 14 0.4 0.5 13.51592 0.45 408.126324415
13 14 0.5 0.6 13.51108 0.55 378.726459229
13 14 0.6 0.7 13.50149 0.65 373.156796469
13 14 0.7 0.8 13.47576 0.75 413.231843383
13 14 0.8 0.9 13.50866 0.85 441.020996911
13 14 0.9 1 13.51354 0.95 554.455028372
14 15 -1 -0.9 14.50907 -0.95 662.406919544
14 15 -0.9 -0.8 14.4876 -0.85 502.550420133
14 15 -0.8 -0.7 14.50297 -0.75 450.341706344
14 15 -0.7 -0.6 14.51136 -0.65 447.178864951
14 15 -0.6 -0.5 14.50103 -0.55 458.407981953
14 15 -0.5 -0.4 14.50232 -0.45 459.507783917
14 15 -0.4 -0.3 14.51132 -0.35 461.026328246
14 15 -0.3 -0.2 14.50165 -0.25 454.871886341
14 15 -0.2 -0.1 14.49692 -0.15 473.57125946
14 15 -0.1 0 14.49758 -0.05 489.546096258
14 15 0 0.1 14.50741 0.05 503.874253167
14 15 0.1 0.2 14.50026 0.15 430.963395483
14 15 0.2 0.3 14.51764 0.25 469.812950137
14 15 0.3 0.4 14.52973 0.35 423.368766487
14 15 0.4 0.5 14.47634 0.45 483.825698547
14 15 0.5 0.6 14.50528 0.55 457.862566354
14 15 0.6 0.7 14.49342 0.65 485.388846566
14 15 0.7 0.8 14.48165 0.75 500.017646214
14 15 0.8 0.9 14.52119 0.85 522.060626078
14 15 0.9 1 14.49934 0.95 635.199929543
15 16 -1 -0.9 15.51861 -0.95 666.520240972
15 16 -0.9 -0.8 15.50871 -0.85 606.825146636
15 16 -0.8 -0.7 15.49702 -0.75 580.836533145
15 16 -0.7 -0.6 15.50505 -0.65 492.532638237
15 16 -0.6 -0.5 15.48821 -0.55 521.238179535
15 16 -0.5 -0.4 15.48895 -0.45 525.110974641
15 16 -0.4 -0.3 15.5366 -0.35 481.271567031
15 16 -0.3 -0.2 15.50944 -0.25 502.136271232
15 16 -0.2 -0.1 15.50115 -0.15 514.749016843
15 16 -0.1 0 15.51548 -0.05 484.704299455
15 16 0 0.1 15.49989 0.05 508.09124286
15 16 0.1 0.2 15.52404 0.15 483.700608783
15 16 0.2 0.3 15.48406 0.25 458.210595816
15 16 0.3 0.4 15.51651 0.35 497.678444
15 16 0.4 0.5 15.51195 0.45 513.984113535
15 16 0.5 0.6 15.532 0.55 559.780547953
15 16 0.6 0.7 15.4906 0.65 525.161857245
15 16 0.7 0.8 15.52373 0.75 558.636792891
15 16 0.8 0.9 15.5107 0.85 559.769941193
15 16 0.9 1 15.47647 0.95 711.006748406
16 17 -1 -0.9 16.52162 -0.95 782.703261831
16 17 -0.9 -0.8 16.50558 -0.85 665.537854233
16 17 -0.8 -0.7 16.53151 -0.75 615.24937794
16 17 -0.7 -0.6 16.53275 -0.65 541.381500761
16 17 -0.6 -0.5 16.50251 -0.55 585.143267446
16 17 -0.5 -0.4 16.49983 -0.45 529.292152211
16 17 -0.4 -0.3 16.50282 -0.35 564.748931121
16 17 -0.3 -0.2 16.50068 -0.25 572.046484449
16 17 -0.2 -0.1 16.48128 -0.15 540.903133312
16 17 -0.1 0 16.5058 -0.05 535.545946663
16 17 0 0.1 16.51551 0.05 592.890905803
16 17 0.1 0.2 16.50929 0.15 542.685162662
16 17 0.2 0.3 16.50647 0.25 512.287077037
16 17 0.3 0.4 16.51522 0.35 523.125969463
16 17 0.4 0.5 16.51209 0.45 535.412884858
16 17 0.5 0.6 16.5134 0.55 551.804571918
16 17 0.6 0.7 16.4945 0.65 577.994125932
16 17 0.7 0.8 16.5071 0.75 608.661252295
16 17 0.8 0.9 16.49205 0.85 654.578536459
16 17 0.9 1 16.50548 0.95 858.641425286
17 18 -1 -0.9 17.50492 -0.95 868.579237743
17 18 -0.9 -0.8 17.51073 -0.85 648.414853322
17 18 -0.8 -0.7 17.51108 -0.75 664.57642904
17 18 -0.7 -0.6 17.50711 -0.65 636.330283126
17 18 -0.6 -0.5 17.50051 -0.55 599.294160493
17 18 -0.5 -0.4 17.51241 -0.45 628.39960275
17 18 -0.4 -0.3 17.46727 -0.35 629.765682254
17 18 -0.3 -0.2 17.50918 -0.25 592.898370414
17 18 -0.2 -0.1 17.50147 -0.15 596.693702864
17 18 -0.1 0 17.487 -0.05 576.350715606
17 18 0 0.1 17.49936 0.05 578.123086836
17 18 0.1 0.2 17.49575 0.15 578.537965134
17 18 0.2 0.3 17.51063 0.25 566.851891078
17 18 0.3 0.4 17.51482 0.35 608.920525299
17 18 0.4 0.5 17.51676 0.45 603.269940161
17 18 0.5 0.6 17.51246 0.55 637.659338631
17 18 0.6 0.7 17.50194 0.65 635.529741837
17 18 0.7 0.8 17.50511 0.75 671.46104706
17 18 0.8 0.9 17.52337 0.85 737.06840991
17 18 0.9 1 17.48966 0.95 841.839144465
18 19 -1 -0.9 18.51379 -0.95 864.385118366
18 19 -0.9 -0.8 18.52636 -0.85 764.718158352
18 19 -0.8 -0.7 18.51873 -0.75 681.744800716
18 19 -0.7 -0.6 18.5133 -0.65 623.505771441
18 19 -0.6 -0.5 18.52273 -0.55 655.6805156
18 19 -0.5 -0.4 18.52901 -0.45 679.893749648
18 19 -0.4 -0.3 18.52851 -0.35 627.365996793
18 19 -0.3 -0.2 18.51846 -0.25 641.861859874
18 19 -0.2 -0.1 18.52609 -0.15 671.20785511
18 19 -0.1 0 18.48691 -0.05 687.092456616
18 19 0 0.1 18.52894 0.05 687.056917631
18 19 0.1 0.2 18.52853 0.15 612.195433327
18 19 0.2 0.3 18.48732 0.25 682.224893225
18 19 0.3 0.4 18.50992 0.35 628.457874541
18 19 0.4 0.5 18.48217 0.45 667.382142776
18 19 0.5 0.6 18.50946 0.55 644.415619234
18 19 0.6 0.7 18.49357 0.65 668.970010725
18 19 0.7 0.8 18.51631 0.75 725.766859507
18 19 0.8 0.9 18.50873 0.85 829.483960964
18 19 0.9 1 18.50094 0.95 869.030965045
19 20 -1 -0.9 19.4892 -0.95 1003.03916382
19 20 -0.9 -0.8 19.5027 -0.85 733.182919397
19 20 -0.8 -0.7 19.50219 -0.75 730.564640072
19 20 -0.7 -0.6 19.48317 -0.65 710.746405718
19 20 -0.6 -0.5 19.50535 -0.55 680.912747216
19 20 -0.5 -0.4 19.49392 -0.45 710.538411472
19 20 -0.4 -0.3 19.50676 -0.35 673.18450347
19 20 -0.3 -0.2 19.51944 -0.25 677.000272963
19 20 -0.2 -0.1 19.50076 -0.15 702
19 20 -0.1 0 19.49066 -0.05 719
19 20 0 0.1 19.48601 0.05 721
19 20 0.1 0.2 19.51097 0.15 672
19 20 0.2 0.3 19.4968 0.25 732
19 20 0.3 0.4 19.50963 0.35 714.24821242
19 20 0.4 0.5 19.49906 0.45 728.578625358
19 20 0.5 0.6 19.50932 0.55 687.994866133
19 20 0.6 0.7 19.50571 0.65 729.229546503
19 20 0.7 0.8 19.50919 0.75 805.946093967
19 20 0.8 0.9 19.49863 0.85 810.974929767
19 20 0.9 1 19.49747 0.95 1002.8723627
20 21 -1 -0.9 20.5251 -0.95 1118.93064566
20 21 -0.9 -0.8 20.49512 -0.85 861.184970216
20 21 -0.8 -0.7 20.50535 -0.75 794.201937987
20 21 -0.7 -0.6 20.51913 -0.65 763.03459629
20 21 -0.6 -0.5 20.50077 -0.55 799.175970579
20 21 -0.5 -0.4 20.50634 -0.45 775.302310224
20 21 -0.4 -0.3 20.49547 -0.35 746
20 21 -0.3 -0.2 20.50607 -0.25 757
20 21 -0.2 -0.1 20.52133 -0.15 734
20 21 -0.1 0 20.50813 -0.05 824
20 21 0 0.1 20.52124 0.05 759
20 21 0.1 0.2 20.50726 0.15 765
20 21 0.2 0.3 20.5089 0.25 723
20 21 0.3 0.4 20.51552 0.35 788
20 21 0.4 0.5 20.51671 0.45 740.301070665
20 21 0.5 0.6 20.51839 0.55 741.457354993
20 21 0.6 0.7 20.48578 0.65 748.917739677
20 21 0.7 0.8 20.51634 0.75 812.176086652
20 21 0.8 0.9 20.51301 0.85 928.962397826
20 21 0.9 1 20.50386 0.95 1047.11558125
21 22 -1 -0.9 21.50334 -0.95 1170.32901576
21 22 -0.9 -0.8 21.50286 -0.85 884.053532963
21 22 -0.8 -0.7 21.507 -0.75 868.240513806
21 22 -0.7 -0.6 21.50068 -0.65 804.036417716
21 22 -0.6 -0.5 21.50455 -0.55 760.634325494
21 22 -0.5 -0.4 21.49769 -0.45 782
21 22 -0.4 -0.3 21.50672 -0.35 821
21 22 -0.3 -0.2 21.49881 -0.25 834
21 22 -0.2 -0.1 21.50642 -0.15 827
21 22 -0.1 0 21.51556 -0.05 845
21 22 0 0.1 21.48283 0.05 818
21 22 0.1 0.2 21.50226 0.15 826
21 22 0.2 0.3 21.52252 0.25 871
21 22 0.3 0.4 21.49477 0.35 882
21 22 0.4 0.5 21.4844 0.45 874
21 22 0.5 0.6 21.5071 0.55 794.633517306
21 22 0.6 0.7 21.50562 0.65 811.851324943
21 22 0.7 0.8 21.52056 0.75 785.285173635
21 22 0.8 0.9 21.50397 0.85 966.419254691
21 22 0.9 1 21.49661 0.95 1136.78692051
22 23 -1 -0.9 22.50031 -0.95 1211.61710912
22 23 -0.9 -0.8 22.5211 -0.85 978.616456056
22 23 -0.8 -0.7 22.49794 -0.75 869.250900234
22 23 -0.7 -0.6 22.50315 -0.65 867.982242935
22 23 -0.6 -0.5 22.50148 -0.55 817.057063381
22 23 -0.5 -0.4 22.51651 -0.45 869
22 23 -0.4 -0.3 22.50461 -0.35 867
22 23 -0.3 -0.2 22.52685 -0.25 856
22 23 -0.2 -0.1 22.50288 -0.15 907
22 23 -0.1 0 22.49841 -0.05 877
22 23 0 0.1 22.50267 0.05 951
22 23 0.1 0.2 22.51147 0.15 952
22 23 0.2 0.3 22.49862 0.25 899
22 23 0.3 0.4 22.51414 0.35 901
22 23 0.4 0.5 22.48928 0.45 832
22 23 0.5 0.6 22.50918 0.55 873.052573859
22 23 0.6 0.7 22.49409 0.65 927.102927565
22 23 0.7 0.8 22.4865 0.75 897.042334276
22 23 0.8 0.9 22.50697 0.85 1000.70586935
22 23 0.9 1 22.49048 0.95 1174.57523427
23 24 -1 -0.9 23.51405 -0.95 1339.44884217
23 24 -0.9 -0.8 23.50428 -0.85 1008.92809877
23 24 -0.8 -0.7 23.51096 -0.75 958.040702949
23 24 -0.7 -0.6 23.51476 -0.65 884.292471671
23 24 -0.6 -0.5 23.52535 -0.55 919
23 24 -0.5 -0.4 23.49959 -0.45 867
23 24 -0.4 -0.3 23.51644 -0.35 985
23 24 -0.3 -0.2 23.50549 -0.25 942
23 24 -0.2 -0.1 23.49977 -0.15 940
23 24 -0.1 0 23.50149 -0.05 990
23 24 0 0.1 23.50786 0.05 983
23 24 0.1 0.2 23.51017 0.15 979
23 24 0.2 0.3 23.49345 0.25 978
23 24 0.3 0.4 23.51679 0.35 906
23 24 0.4 0.5 23.49863 0.45 887
23 24 0.5 0.6 23.5122 0.55 914
23 24 0.6 0.7 23.50116 0.65 905.111489926
23 24 0.7 0.8 23.50867 0.75 934.613094932
23 24 0.8 0.9 23.50187 0.85 1030.35096175
23 24 0.9 1 23.51911 0.95 1332.08701374
24 25 -1 -0.9 24.50711 -0.95 1333.86949311
24 25 -0.9 -0.8 24.50446 -0.85 1128.09118893
24 25 -0.8 -0.7 24.50554 -0.75 1026.21452293
24 25 -0.7 -0.6 24.49856 -0.65 948.482416183
24 25 -0.6 -0.5 24.50283 -0.55 951
24 25 -0.5 -0.4 24.51389 -0.45 970
24 25 -0.4 -0.3 24.5056 -0.35 976
24 25 -0.3 -0.2 24.49342 -0.25 1001
24 25 -0.2 -0.1 24.48839 -0.15 1026
24 25 -0.1 0 24.50192 -0.05 1025
24 25 0 0.1 24.51028 0.05 1134
24 25 0.1 0.2 24.50543 0.15 1050
24 25 0.2 0.3 24.49989 0.25 1000
24 25 0.3 0.4 24.51102 0.35 936
24 25 0.4 0.5 24.51599 0.45 1010
24 25 0.5 0.6 24.51743 0.55 976
24 25 0.6 0.7 24.51789 0.65 936.492492062
24 25 0.7 0.8 24.50172 0.75 1021.03574777
24 25 0.8 0.9 24.5004 0.85 1183.58548239
24 25 0.9 1 24.51074 0.95 1343.84977716
25 26 -1 -0.9 25.50266 -0.95 1406.42491175
25 26 -0.9 -0.8 25.51975 -0.85 1138.93357998
25 26 -0.8 -0.7 25.50653 -0.75 999.433645929
25 26 -0.7 -0.6 25.51983 -0.65 973.005487201
25 26 -0.6 -0.5 25.47976 -0.55 1042
25 26 -0.5 -0.4 25.51302 -0.45 1081
25 26 -0.4 -0.3 25.49118 -0.35 1065
25 26 -0.3 -0.2 25.50524 -0.25 1051
25 26 -0.2 -0.1 25.50256 -0.15 1096
25 26 -0.1 0 25.50595 -0.05 1132
25 26 0 0.1 25.49825 0.05 1091
25 26 0.1 0.2 25.5141 0.15 1105
25 26 0.2 0.3 25.51532 0.25 1011
25 26 0.3 0.4 25.50369 0.35 1095
25 26 0.4 0.5 25.50881 0.45 1036
25 26 0.5 0.6 25.49803 0.55 1049
25 26 0.6 0.7 25.49703 0.65 1058.00527381
25 26 0.7 0.8 25.49476 0.75 1051.61913418
25 26 0.8 0.9 25.50367 0.85 1229.92288256
25 26 0.9 1 25.50057 0.95 1441.75595431
26 27 -1 -0.9 26.50073 -0.95 1557.87710932
26 27 -0.9 -0.8 26.51072 -0.85 1231.07871988
26 27 -0.8 -0.7 26.5139 -0.75 1048.34858705
26 27 -0.7 -0.6 26.51135 -0.65 1047
26 27 -0.6 -0.5 26.52 -0.55 1143
26 27 -0.5 -0.4 26.49474 -0.45 1069
26 27 -0.4 -0.3 26.49623 -0.35 1113
26 27 -0.3 -0.2 26.50763 -0.25 1198
26 27 -0.2 -0.1 26.49913 -0.15 1185
26 27 -0.1 0 26.51528 -0.05 1148
26 27 0 0.1 26.48524 0.05 1249
26 27 0.1 0.2 26.49087 0.15 1192
26 27 0.2 0.3 26.51197 0.25 1153
26 27 0.3 0.4 26.51007 0.35 1128
26 27 0.4 0.5 26.5091 0.45 1139
26 27 0.5 0.6 26.5057 0.55 1070
26 27 0.6 0.7 26.4989 0.65 1049
26 27 0.7 0.8 26.50075 0.75 1148.26909573
26 27 0.8 0.9 26.48958 0.85 1233.94663701
26 27 0.9 1 26.50126 0.95 1634.030032
27 28 -1 -0.9 27.51002 -0.95 1646.2739758
27 28 -0.9 -0.8 27.5076 -0.85 1296.75213431
27 28 -0.8 -0.7 27.49772 -0.75 1138.31198892
27 28 -0.7 -0.6 27.49954 -0.65 1120
27 28 -0.6 -0.5 27.50688 -0.55 1125
27 28 -0.5 -0.4 27.50511 -0.45 1173
27 28 -0.4 -0.3 27.49388 -0.35 1197
27 28 -0.3 -0.2 27.50389 -0.25 1157
27 28 -0.2 -0.1 27.50806 -0.15 1228
27 28 -0.1 0 27.51598 -0.05 1212
27 28 0 0.1 27.51643 0.05 1169
27 28 0.1 0.2 27.50595 0.15 1255
27 28 0.2 0.3 27.50801 0.25 1219
27 28 0.3 0.4 27.50714 0.35 1160
27 28 0.4 0.5 27.49719 0.45 1133
27 28 0.5 0.6 27.50745 0.55 1213
27 28 0.6 0.7 27.51208 0.65 1207
27 28 0.7 0.8 27.50477 0.75 1120.27477845
27 28 0.8 0.9 27.51409 0.85 1255.07832398
27 28 0.9 1 27.51372 0.95 1621.15642022
28 29 -1 -0.9 28.48775 -0.95 1645.38731686
28 29 -0.9 -0.8 28.48854 -0.85 1348.22234594
28 29 -0.8 -0.7 28.49645 -0.75 1244.32825002
28 29 -0.7 -0.6 28.50357 -0.65 1185
28 29 -0.6 -0.5 28.50135 -0.55 1144
28 29 -0.5 -0.4 28.5002 -0.45 1134
28 29 -0.4 -0.3 28.49984 -0.35 1237
28 29 -0.3 -0.2 28.49452 -0.25 1329
28 29 -0.2 -0.1 28.49682 -0.15 1357
28 29 -0.1 0 28.52341 -0.05 1332
28 29 0 0.1 28.52228 0.05 1303
28 29 0.1 0.2 28.50194 0.15 1291
28 29 0.2 0.3 28.48741 0.25 1318
28 29 0.3 0.4 28.5049 0.35 1222
28 29 0.4 0.5 28.50478 0.45 1183
28 29 0.5 0.6 28.5115 0.55 1223
28 29 0.6 0.7 28.50965 0.65 1222
28 29 0.7 0.8 28.52012 0.75 1273.06335675
28 29 0.8 0.9 28.50766 0.85 1326.19207005
28 29 0.9 1 28.52016 0.95 1694.13624212
29 30 -1 -0.9 29.50573 -0.95 1822.43869315
29 30 -0.9 -0.8 29.49799 -0.85 1321.41287582
29 30 -0.8 -0.7 29.50246 -0.75 1311.08906337
29 30 -0.7 -0.6 29.50564 -0.65 1253
29 30 -0.6 -0.5 29.50499 -0.55 1292
29 30 -0.5 -0.4 29.50268 -0.45 1216
29 30 -0.4 -0.3 29.51204 -0.35 1320
29 30 -0.3 -0.2 29.49733 -0.25 1291
29 30 -0.2 -0.1 29.49342 -0.15 1377
29 30 -0.1 0 29.51956 -0.05 1417
29 30 0 0.1 29.50922 0.05 1427
29 30 0.1 0.2 29.48851 0.15 1410
29 30 0.2 0.3 29.50299 0.25 1348
29 30 0.3 0.4 29.50245 0.35 1413
29 30 0.4 0.5 29.51779 0.45 1362
29 30 0.5 0.6 29.51237 0.55 1304
29 30 0.6 0.7 29.49401 0.65 1293
29 30 0.7 0.8 29.50385 0.75 1321.17554843
29 30 0.8 0.9 29.50571 0.85 1337.2421983
29 30 0.9 1 29.49788 0.95 1823.40642145
30 31 -1 -0.9 30.51151 -0.95 1762.55534845
30 31 -0.9 -0.8 30.50274 -0.85 1446.36808848
30 31 -0.8 -0.7 30.51141 -0.75 1332.00098816
30 31 -0.7 -0.6 30.49584 -0.65 1294
30 31 -0.6 -0.5 30.502 -0.55 1350
30 31 -0.5 -0.4 30.49753 -0.45 1344
30 31 -0.4 -0.3 30.50956 -0.35 1310
30 31 -0.3 -0.2 30.50335 -0.25 1408
30 31 -0.2 -0.1 30.51382 -0.15 1418
30 31 -0.1 0 30.49617 -0.05 1490
30 31 0 0.1 30.50322 0.05 1478
30 31 0.1 0.2 30.50234 0.15 1384
30 31 0.2 0.3 30.4966 0.25 1469
30 31 0.3 0.4 30.49021 0.35 1370
30 31 0.4 0.5 30.5108 0.45 1281
30 31 0.5 0.6 30.51168 0.55 1304
30 31 0.6 0.7 30.50654 0.65 1368
30 31 0.7 0.8 30.51376 0.75 1391
30 31 0.8 0.9 30.51195 0.85 1456.23794239
30 31 0.9 1 30.50463 0.95 1836.50577321
31 32 -1 -0.9 31.51761 -0.95 1838.85657909
31 32 -0.9 -0.8 31.51831 -0.85 1468.94224561
31 32 -0.8 -0.7 31.49691 -0.75 1358
31 32 -0.7 -0.6 31.5097 -0.65 1307
31 32 -0.6 -0.5 31.5085 -0.55 1370
31 32 -0.5 -0.4 31.49305 -0.45 1395
31 32 -0.4 -0.3 31.48899 -0.35 1390
31 32 -0.3 -0.2 31.51011 -0.25 1480
31 32 -0.2 -0.1 31.49722 -0.15 1509
31 32 -0.1 0 31.501 -0.05 1562
31 32 0 0.1 31.50416 0.05 1564
31 32 0.1 0.2 31.50017 0.15 1458
31 32 0.2 0.3 31.52374 0.25 1410
31 32 0.3 0.4 31.50523 0.35 1395
31 32 0.4 0.5 31.50215 0.45 1454
31 32 0.5 0.6 31.51017 0.55 1389
31 32 0.6 0.7 31.50656 0.65 1404
31 32 0.7 0.8 31.51322 0.75 1404
31 32 0.8 0.9 31.51016 0.85 1575.62736006
31 32 0.9 1 31.48218 0.95 1945.24613814
32 33 -1 -0.9 32.49893 -0.95 1981.75476624
32 33 -0.9 -0.8 32.48378 -0.85 1545.08526971
32 33 -0.8 -0.7 32.50036 -0.75 1496
32 33 -0.7 -0.6 32.50859 -0.65 1402
32 33 -0.6 -0.5 32.51094 -0.55 1460
32 33 -0.5 -0.4 32.50291 -0.45 1499
32 33 -0.4 -0.3 32.51008 -0.35 1540
32 33 -0.3 -0.2 32.50562 -0.25 1552
32 33 -0.2 -0.1 32.50286 -0.15 1570
32 33 -0.1 0 32.50831 -0.05 1636
32 33 0 0.1 32.51193 0.05 1583
32 33 0.1 0.2 32.51068 0.15 1655
32 33 0.2 0.3 32.49912 0.25 1544
32 33 0.3 0.4 32.49245 0.35 1447
32 33 0.4 0.5 32.50327 0.45 1453
32 33 0.5 0.6 32.50735 0.55 1515
32 33 0.6 0.7 32.50173 0.65 1548
32 33 0.7 0.8 32.49797 0.75 1541
32 33 0.8 0.9 32.50246 0.85 1580.09504834
32 33 0.9 1 32.49854 0.95 1903.90986569
33 34 -1 -0.9 33.51252 -0.95 1986.8523226
33 34 -0.9 -0.8 33.4962 -0.85 1529.75911214
33 34 -0.8 -0.7 33.50767 -0.75 1476
33 34 -0.7 -0.6 33.51072 -0.65 1507
33 34 -0.6 -0.5 33.5164 -0.55 1454
33 34 -0.5 -0.4 33.51156 -0.45 1582
33 34 -0.4 -0.3 33.50602 -0.35 1554
33 34 -0.3 -0.2 33.49947 -0.25 1603
33 34 -0.2 -0.1 33.50355 -0.15 1612
33 34 -0.1 0 33.49192 -0.05 1670
33 34 0 0.1 33.49638 0.05 1593
33 34 0.1 0.2 33.50705 0.15 1571
33 34 0.2 0.3 33.49165 0.25 1618
33 34 0.3 0.4 33.50019 0.35 1550
33 34 0.4 0.5 33.50734 0.45 1531
33 34 0.5 0.6 33.49737 0.55 1548
33 34 0.6 0.7 33.50327 0.65 1582
33 34 0.7 0.8 33.50929 0.75 1528
33 34 0.8 0.9 33.51099 0.85 1648.3877702
33 34 0.9 1 33.5121 0.95 2069.69619281
34 35 -1 -0.9 34.50675 -0.95 1979.94195423
34 35 -0.9 -0.8 34.48789 -0.85 1675.4129961
34 35 -0.8 -0.7 34.50379 -0.75 1570
34 35 -0.7 -0.6 34.50233 -0.65 1530
34 35 -0.6 -0.5 34.50944 -0.55 1534
34 35 -0.5 -0.4 34.491 -0.45 1592
34 35 -0.4 -0.3 34.50926 -0.35 1602
34 35 -0.3 -0.2 34.49595 -0.25 1701
34 35 -0.2 -0.1 34.49917 -0.15 1679
34 35 -0.1 0 34.4999 -0.05 1746
34 35 0 0.1 34.50432 0.05 1685
34 35 0.1 0.2 34.51276 0.15 1695
34 35 0.2 0.3 34.49534 0.25 1607
34 35 0.3 0.4 34.51225 0.35 1548
34 35 0.4 0.5 34.51344 0.45 1600
34 35 0.5 0.6 34.50137 0.55 1595
34 35 0.6 0.7 34.51848 0.65 1595
34 35 0.7 0.8 34.50625 0.75 1586
34 35 0.8 0.9 34.50396 0.85 1669.34059925
34 35 0.9 1 34.4934 0.95 2235.95048627
35 36 -1 -0.9 35.49993 -0.95 2118.96219399
35 36 -0.9 -0.8 35.50671 -0.85 1736.11322414
35 36 -0.8 -0.7 35.50568 -0.75 1674
35 36 -0.7 -0.6 35.52433 -0.65 1633
35 36 -0.6 -0.5 35.49766 -0.55 1735
35 36 -0.5 -0.4 35.50429 -0.45 1611
35 36 -0.4 -0.3 35.49726 -0.35 1700
35 36 -0.3 -0.2 35.49657 -0.25 1690
35 36 -0.2 -0.1 35.49947 -0.15 1724
35 36 -0.1 0 35.49836 -0.05 1857
35 36 0 0.1 35.50307 0.05 1883
35 36 0.1 0.2 35.50275 0.15 1782
35 36 0.2 0.3 35.50464 0.25 1656
35 36 0.3 0.4 35.49984 0.35 1713
35 36 0.4 0.5 35.49998 0.45 1653
35 36 0.5 0.6 35.51355 0.55 1708
35 36 0.6 0.7 35.50727 0.65 1632
35 36 0.7 0.8 35.50152 0.75 1722
35 36 0.8 0.9 35.50824 0.85 1746.86148574
35 36 0.9 1 35.49609 0.95 2189.76061298
36 37 -1 -0.9 36.49936 -0.95 2283.92388879
36 37 -0.9 -0.8 36.50604 -0.85 1849.47494615
36 37 -0.8 -0.7 36.50275 -0.75 1712
36 37 -0.7 -0.6 36.5099 -0.65 1745
36 37 -0.6 -0.5 36.4921 -0.55 1698
36 37 -0.5 -0.4 36.50119 -0.45 1645
36 37 -0.4 -0.3 36.49037 -0.35 1702
36 37 -0.3 -0.2 36.50677 -0.25 1807
36 37 -0.2 -0.1 36.50616 -0.15 1884
36 37 -0.1 0 36.49938 -0.05 1876
36 37 0 0.1 36.50247 0.05 1847
36 37 0.1 0.2 36.49007 0.15 1817
36 37 0.2 0.3 36.48294 0.25 1744
36 37 0.3 0.4 36.50997 0.35 1812
36 37 0.4 0.5 36.50048 0.45 1628
36 37 0.5 0.6 36.50416 0.55 1629
36 37 0.6 0.7 36.49573 0.65 1616
36 37 0.7 0.8 36.50429 0.75 1774
36 37 0.8 0.9 36.50172 0.85 1768.6629287
36 37 0.9 1 36.50626 0.95 2248.62869068
37 38 -1 -0.9 37.50807 -0.95 2316.4579951
37 38 -0.9 -0.8 37.50587 -0.85 1776.68988152
37 38 -0.8 -0.7 37.49318 -0.75 1698
37 38 -0.7 -0.6 37.50228 -0.65 1741
37 38 -0.6 -0.5 37.50917 -0.55 1706
37 38 -0.5 -0.4 37.49651 -0.45 1724
37 38 -0.4 -0.3 37.50518 -0.35 1731
37 38 -0.3 -0.2 37.50581 -0.25 1802
37 38 -0.2 -0.1 37.52015 -0.15 1908
37 38 -0.1 0 37.51127 -0.05 1957
37 38 0 0.1 37.51012 0.05 1971
37 38 0.1 0.2 37.49815 0.15 1840
37 38 0.2 0.3 37.51191 0.25 1886
37 38 0.3 0.4 37.49204 0.35 1799
37 38 0.4 0.5 37.51029 0.45 1761
37 38 0.5 0.6 37.48909 0.55 1828
37 38 0.6 0.7 37.50862 0.65 1848
37 38 0.7 0.8 37.50525 0.75 1775
37 38 0.8 0.9 37.49154 0.85 1826.2187718
37 38 0.9 1 37.49873 0.95 2282.75464649
38 39 -1 -0.9 38.49797 -0.95 2317.42903904
38 39 -0.9 -0.8 38.50648 -0.85 1891.43504869
38 39 -0.8 -0.7 38.50813 -0.75 1785
38 39 -0.7 -0.6 38.52214 -0.65 1780
38 39 -0.6 -0.5 38.5082 -0.55 1684
38 39 -0.5 -0.4 38.50441 -0.45 1841
38 39 -0.4 -0.3 38.50846 -0.35 1825
38 39 -0.3 -0.2 38.50858 -0.25 1857
38 39 -0.2 -0.1 38.5015 -0.15 1976
38 39 -0.1 0 38.50474 -0.05 2004
38 39 0 0.1 38.49989 0.05 2033
38 39 0.1 0.2 38.50332 0.15 1938
38 39 0.2 0.3 38.50377 0.25 1871
38 39 0.3 0.4 38.50442 0.35 1841
38 39 0.4 0.5 38.50776 0.45 1861
38 39 0.5 0.6 38.5038 0.55 1838
38 39 0.6 0.7 38.50228 0.65 1848
38 39 0.7 0.8 38.49964 0.75 1919
38 39 0.8 0.9 38.49534 0.85 1986.57518831
38 39 0.9 1 38.50274 0.95 2313.51800278
39 40 -1 -0.9 39.50127 -0.95 2366.65667894
39 40 -0.9 -0.8 39.50792 -0.85 1903.42585885
39 40 -0.8 -0.7 39.50141 -0.75 1804
39 40 -0.7 -0.6 39.50361 -0.65 1826
39 40 -0.6 -0.5 39.50799 -0.55 1881
39 40 -0.5 -0.4 39.50476 -0.45 1950
39 40 -0.4 -0.3 39.49908 -0.35 1838
39 40 -0.3 -0.2 39.49537 -0.25 1955
39 40 -0.2 -0.1 39.50074 -0.15 1978
39 40 -0.1 0 39.50625 -0.05 2135
39 40 0 0.1 39.50434 0.05 2108
39 40 0.1 0.2 39.49606 0.15 2013
39 40 0.2 0.3 39.5085 0.25 1935
39 40 0.3 0.4 39.50665 0.35 1872
39 40 0.4 0.5 39.5034 0.45 1861
39 40 0.5 0.6 39.50672 0.55 1871
39 40 0.6 0.7 39.49572 0.65 1857
39 40 0.7 0.8 39.49509 0.75 1854
39 40 0.8 0.9 39.50037 0.85 2048.54762757
39 40 0.9 1 39.50272 0.95 2416.19930974
40 41 -1 -0.9 40.50049 -0.95 2491.26027355
40 41 -0.9 -0.8 40.50291 -0.85 1961.03446259
40 41 -0.8 -0.7 40.50491 -0.75 1875
40 41 -0.7 -0.6 40.5039 -0.65 1970
40 41 -0.6 -0.5 40.49644 -0.55 1877
40 41 -0.5 -0.4 40.50314 -0.45 1956
40 41 -0.4 -0.3 40.491 -0.35 1940
40 41 -0.3 -0.2 40.48655 -0.25 1980
40 41 -0.2 -0.1 40.49803 -0.15 2034
40 41 -0.1 0 40.51174 -0.05 2114
40 41 0 0.1 40.49429 0.05 2154
40 41 0.1 0.2 40.50032 0.15 2114
40 41 0.2 0.3 40.48744 0.25 1945
40 41 0.3 0.4 40.49495 0.35 1944
40 41 0.4 0.5 40.51728 0.45 1919
40 41 0.5 0.6 40.4894 0.55 1852
40 41 0.6 0.7 40.50025 0.65 1892
40 41 0.7 0.8 40.49977 0.75 1916
40 41 0.8 0.9 40.51066 0.85 1958.07325468
40 41 0.9 1 40.48977 0.95 2486.08323254
