#norm = 8986241.9889238
#edges = (np.linspace(1, 41, 41), np.linspace(-1, 1, 21))
#s_low s_high mu_low mu_high s mu wcounts
1 2 -1 -0.9 1.620496 -0.95 9.91449136725
1 2 -0.9 -0.8 1.513205 -0.85 13.0431004325
1 2 -0.8 -0.7 1.615218 -0.75 17.4997599297
1 2 -0.7 -0.6 1.569824 -0.65 12.4840305094
1 2 -0.6 -0.5 1.55663 -0.55 13.571724587
1 2 -0.5 -0.4 1.607068 -0.45 12.7954266062
1 2 -0.4 -0.3 1.5685 -0.35 15.0435236848
1 2 -0.3 -0.2 1.645268 -0.25 12.0844552253
1 2 -0.2 -0.1 1.59031 -0.15 10.457022772
1 2 -0.1 0 1.677808 -0.05 14.4624214878
1 2 0 0.1 1.677808 0.05 14.4624214878
1 2 0.1 0.2 1.59031 0.15 10.457022772
1 2 0.2 0.3 1.645268 0.25 12.0844552253
1 2 0.3 0.4 1.5685 0.35 15.0435236848
1 2 0.4 0.5 1.607068 0.45 12.7954266062
1 2 0.5 0.6 1.55663 0.55 13.571724587
1 2 0.6 0.7 1.569824 0.65 12.4840305094
1 2 0.7 0.8 1.615218 0.75 17.4997599297
1 2 0.8 0.9 1.513205 0.85 13.0431004325
1 2 0.9 1 1.620496 0.95 9.91449136725
2 3 -1 -0.9 2.555908 -0.95 37.0422704328
2 3 -0.9 -0.8 2.532879 -0.85 37.6736374273
2 3 -0.8 -0.7 2.554226 -0.75 34.9461507971
2 3 -0.7 -0.6 2.542894 -0.65 36.1514357988
2 3 -0.6 -0.5 2.564702 -0.55 37.9128212224
2 3 -0.5 -0.4 2.567771 -0.45 30.5626886775
2 3 -0.4 -0.3 2.518237 -0.35 31.9024101863
2 3 -0.3 -0.2 2.604989 -0.25 30.4287761641
2 3 -0.2 -0.1 2.581926 -0.15 37.0947569813
2 3 -0.1 0 2.533761 -0.05 40.881731721
2 3 0 0.1 2.533761 0.05 40.881731721
2 3 0.1 0.2 2.581926 0.15 37.0947569813
2 3 0.2 0.3 2.604989 0.25 30.4287761641
2 3 0.3 0.4 2.518237 0.35 31.9024101863
2 3 0.4 0.5 2.567771 0.45 30.5626886775
2 3 0.5 0.6 2.564702 0.55 37.9128212224
2 3 0.6 0.7 2.542894 0.65 36.1514357988
2 3 0.7 0.8 2.554226 0.75 34.9461507971
2 3 0.8 0.9 2.532879 0.85 37.6736374273
2 3 0.9 1 2.555908 0.95 37.0422704328
3 4 -1 -0.9 3.554112 -0.95 72.297220457
3 4 -0.9 -0.8 3.559052 -0.85 62.7971083702
3 4 -0.8 -0.7 3.54621 -0.75 70.0005728996
3 4 -0.7 -0.6 3.56028 -0.65 61.2737634464
3 4 -0.6 -0.5 3.544684 -0.55 61.5998040609
3 4 -0.5 -0.4 3.587456 -0.45 71.722173793
3 4 -0.4 -0.3 3.513007 -0.35 71.0278000946
3 4 -0.3 -0.2 3.564378 -0.25 65.0434623194
3 4 -0.2 -0.1 3.598907 -0.15 67.977919536
3 4 -0.1 0 3.581201 -0.05 51.0954280433
3 4 0 0.1 3.581201 0.05 51.0954280433
3 4 0.1 0.2 3.598907 0.15 67.977919536
3 4 0.2 0.3 3.564378 0.25 65.0434623194
3 4 0.3 0.4 3.513007 0.35 71.0278000946
3 4 0.4 0.5 3.587456 0.45 71.722173793
3 4 0.5 0.6 3.544684 0.55 61.5998040609
3 4 0.6 0.7 3.56028 0.65 61.2737634464
3 4 0.7 0.8 3.54621 0.75 70.0005728996
3 4 0.8 0.9 3.559052 0.85 62.7971083702
3 4 0.9 1 3.554112 0.95 72.297220457
4 5 -1 -0.9 4.532149 -0.95 117.769183956
4 5 -0.9 -0.8 4.549347 -0.85 102.808454422
4 5 -0.8 -0.7 4.53384 -0.75 108.961739307
4 5 -0.7 -0.6 4.539453 -0.65 109.584250457
4 5 -0.6 -0.5 4.579953 -0.55 109.544888659
4 5 -0.5 -0.4 4.505721 -0.45 106.433623466
4 5 -0.4 -0.3 4.535741 -0.35 109.128081198
4 5 -0.3 -0.2 4.539725 -0.25 98.9253303672
4 5 -0.2 -0.1 4.534181 -0.15 96.8792471663
4 5 -0.1 0 4.546955 -0.05 117.011766725
4 5 0 0.1 4.546955 0.05 117.011766725
4 5 0.1 0.2 4.534181 0.15 96.8792471663
4 5 0.2 0.3 4.539725 0.25 98.9253303672
4 5 0.3 0.4 4.535741 0.35 109.128081198
4 5 0.4 0.5 4.505721 0.45 106.433623466
4 5 0.5 0.6 4.579953 0.55 109.544888659
4 5 0.6 0.7 4.539453 0.65 109.584250457
4 5 0.7 0.8 4.53384 0.75 108.961739307
4 5 0.8 0.9 4.549347 0.85 102.808454422
4 5 0.9 1 4.532149 0.95 117.769183956
5 6 -1 -0.9 5.539785 -0.95 149.62427235
5 6 -0.9 -0.8 5.503719 -0.85 146.718005667
5 6 -0.8 -0.7 5.52569 -0.75 152.217113341
5 6 -0.7 -0.6 5.523967 -0.65 165.852474484
5 6 -0.6 -0.5 5.546283 -0.55 156.225251652
5 6 -0.5 -0.4 5.532534 -0.45 154.97638877
5 6 -0.4 -0.3 5.545882 -0.35 154.656307994
5 6 -0.3 -0.2 5.53284 -0.25 169.062324474
5 6 -0.2 -0.1 5.547946 -0.15 136.789479639
5 6 -0.1 0 5.536933 -0.05 146.327827153
5 6 0 0.1 5.536933 0.05 146.327827153
5 6 0.1 0.2 5.547946 0.15 136.789479639
5 6 0.2 0.3 5.53284 0.25 169.062324474
5 6 0.3 0.4 5.545882 0.35 154.656307994
5 6 0.4 0.5 5.532534 0.45 154.97638877
5 6 0.5 0.6 5.546283 0.55 156.225251652
5 6 0.6 0.7 5.523967 0.65 165.852474484
5 6 0.7 0.8 5.52569 0.75 152.217113341
5 6 0.8 0.9 5.503719 0.85 146.718005667
5 6 0.9 1 5.539785 0.95 149.62427235
6 7 -1 -0.9 6.493917 -0.95 219.92215403
6 7 -0.9 -0.8 6.5247 -0.85 216.591640299
6 7 -0.8 -0.7 6.511463 -0.75 229.573273118
6 7 -0.7 -0.6 6.520929 -0.65 222.27017907
6 7 -0.6 -0.5 6.503452 -0.55 215.174493602
6 7 -0.5 -0.4 6.517073 -0.45 208.6693276
6 7 -0.4 -0.3 6.527608 -0.35 215.261624284
6 7 -0.3 -0.2 6.53341 -0.25 227.006298564
6 7 -0.2 -0.1 6.538756 -0.15 223.476951837
6 7 -0.1 0 6.511584 -0.05 222.286306988
6 7 0 0.1 6.511584 0.05 222.286306988
6 7 0.1 0.2 6.538756 0.15 223.476951837
6 7 0.2 0.3 6.53341 0.25 227.006298564
6 7 0.3 0.4 6.527608 0.35 215.261624284
6 7 0.4 0.5 6.517073 0.45 208.6693276
6 7 0.5 0.6 6.503452 0.55 215.174493602
6 7 0.6 0.7 6.520929 0.65 222.27017907
6 7 0.7 0.8 6.511463 0.75 229.573273118
6 7 0.8 0.9 6.5247 0.85 216.591640299
6 7 0.9 1 6.493917 0.95 219.92215403
7 8 -1 -0.9 7.53062 -0.95 282.82407224
7 8 -0.9 -0.8 7.517021 -0.85 284.606183382
7 8 -0.8 -0.7 7.513629 -0.75 283.93402323
7 8 -0.7 -0.6 7.514741 -0.65 270.06090506
7 8 -0.6 -0.5 7.526091 -0.55 263.918550961
7 8 -0.5 -0.4 7.527155 -0.45 260.92753666
7 8 -0.4 -0.3 7.523531 -0.35 256.998045605
7 8 -0.3 -0.2 7.528302 -0.25 295.922169813
7 8 -0.2 -0.1 7.490007 -0.15 314.40974532
7 8 -0.1 0 7.500426 -0.05 280.665588405
7 8 0 0.1 7.500426 0.05 280.665588405
7 8 0.1 0.2 7.490007 0.15 314.40974532
7 8 0.2 0.3 7.528302 0.25 295.922169813
7 8 0.3 0.4 7.523531 0.35 256.998045605
7 8 0.4 0.5 7.527155 0.45 260.92753666
7 8 0.5 0.6 7.526091 0.55 263.918550961
7 8 0.6 0.7 7.514741 0.65 270.06090506
7 8 0.7 0.8 7.513629 0.75 283.93402323
7 8 0.8 0.9 7.517021 0.85 284.606183382
7 8 0.9 1 7.53062 0.95 282.82407224
8 9 -1 -0.9 8.5005 -0.95 354.116194531
8 9 -0.9 -0.8 8.514416 -0.85 388.357462443
8 9 -0.8 -0.7 8.51502 -0.75 346.25659989
8 9 -0.7 -0.6 8.51833 -0.65 336.617893504
8 9 -0.6 -0.5 8.521871 -0.55 350.011319952
8 9 -0.5 -0.4 8.511295 -0.45 372.698166198
8 9 -0.4 -0.3 8.513436 -0.35 358.82186948
8 9 -0.3 -0.2 8.540798 -0.25 366.388468042
8 9 -0.2 -0.1 8.54377 -0.15 393.226098453
8 9 -0.1 0 8.486581 -0.05 328.619459976
8 9 0 0.1 8.486581 0.05 328.619459976
8 9 0.1 0.2 8.54377 0.15 393.226098453
8 9 0.2 0.3 8.540798 0.25 366.388468042
8 9 0.3 0.4 8.513436 0.35 358.82186948
8 9 0.4 0.5 8.511295 0.45 372.698166198
8 9 0.5 0.6 8.521871 0.55 350.011319952
8 9 0.6 0.7 8.51833 0.65 336.617893504
8 9 0.7 0.8 8.51502 0.75 346.25659989
8 9 0.8 0.9 8.514416 0.85 388.357462443
8 9 0.9 1 8.5005 0.95 354.116194531
9 10 -1 -0.9 9.528872 -0.95 448.119706292
9 10 -0.9 -0.8 9.502114 -0.85 420.515397604
9 10 -0.8 -0.7 9.507398 -0.75 448.803275759
9 10 -0.7 -0.6 9.537077 -0.65 456.903274028
9 10 -0.6 -0.5 9.532049 -0.55 445.361649498
9 10 -0.5 -0.4 9.509341 -0.45 427.882104491
9 10 -0.4 -0.3 9.509235 -0.35 447.128022368
9 10 -0.3 -0.2 9.532628 -0.25 431.361024537
9 10 -0.2 -0.1 9.504879 -0.15 456.41699941
9 10 -0.1 0 9.522825 -0.05 438.448445634
9 10 0 0.1 9.522825 0.05 438.448445634
9 10 0.1 0.2 9.504879 0.15 456.41699941
9 10 0.2 0.3 9.532628 0.25 431.361024537
9 10 0.3 0.4 9.509235 0.35 447.128022368
9 10 0.4 0.5 9.509341 0.45 427.882104491
9 10 0.5 0.6 9.532049 0.55 445.361649498
9 10 0.6 0.7 9.537077 0.65 456.903274028
9 10 0.7 0.8 9.507398 0.75 448.803275759
9 10 0.8 0.9 9.502114 0.85 420.515397604
9 10 0.9 1 9.528872 0.95 448.119706292
10 11 -1 -0.9 10.51903 -0.95 535.232006873
10 11 -0.9 -0.8 10.5207 -0.85 504.487408511
10 11 -0.8 -0.7 10.50465 -0.75 512.238359062
10 11 -0.7 -0.6 10.50857 -0.65 510.634564652
10 11 -0.6 -0.5 10.5302 -0.55 544.608985744
10 11 -0.5 -0.4 10.51145 -0.45 545.511997864
10 11 -0.4 -0.3 10.51307 -0.35 553.28670263
10 11 -0.3 -0.2 10.52104 -0.25 560.342679531
10 11 -0.2 -0.1 10.50883 -0.15 510.443473641
10 11 -0.1 0 10.52157 -0.05 528.778985874
10 11 0 0.1 10.52157 0.05 528.778985874
10 11 0.1 0.2 10.50883 0.15 510.443473641
10 11 0.2 0.3 10.52104 0.25 560.342679531
10 11 0.3 0.4 10.51307 0.35 553.28670263
10 11 0.4 0.5 10.51145 0.45 545.511997864
10 11 0.5 0.6 10.5302 0.55 544.608985744
10 11 0.6 0.7 10.50857 0.65 510.634564652
10 11 0.7 0.8 10.50465 0.75 512.238359062
10 11 0.8 0.9 10.5207 0.85 504.487408511
10 11 0.9 1 10.51903 0.95 535.232006873
11 12 -1 -0.9 11.5126 -0.95 646.666410584
11 12 -0.9 -0.8 11.50214 -0.85 599.683445719
11 12 -0.8 -0.7 11.5233 -0.75 635.701200393
11 12 -0.7 -0.6 11.52684 -0.65 606.789143969
11 12 -0.6 -0.5 11.49697 -0.55 623.888938167
11 12 -0.5 -0.4 11.49319 -0.45 613.111104469
11 12 -0.4 -0.3 11.51843 -0.35 609.714537571
11 12 -0.3 -0.2 11.5102 -0.25 645.264586744
11 12 -0.2 -0.1 11.50843 -0.15 654.295818142
11 12 -0.1 0 11.51141 -0.05 654.240232181
11 12 0 0.1 11.51141 0.05 654.240232181
11 12 0.1 0.2 11.50843 0.15 654.295818142
11 12 0.2 0.3 11.5102 0.25 645.264586744
11 12 0.3 0.4 11.51843 0.35 609.714537571
11 12 0.4 0.5 11.49319 0.45 613.111104469
11 12 0.5 0.6 11.49697 0.55 623.888938167
11 12 0.6 0.7 11.52684 0.65 606.789143969
11 12 0.7 0.8 11.5233 0.75 635.701200393
11 12 0.8 0.9 11.50214 0.85 599.683445719
11 12 0.9 1 11.5126 0.95 646.666410584
12 13 -1 -0.9 12.5007 -0.95 709.895942548
12 13 -0.9 -0.8 12.51469 -0.85 725.353561714
12 13 -0.8 -0.7 12.50978 -0.75 752.532121097
12 13 -0.7 -0.6 12.50628 -0.65 736.96712697
12 13 -0.6 -0.5 12.51733 -0.55 701.335400992
12 13 -0.5 -0.4 12.50695 -0.45 764.312958542
12 13 -0.4 -0.3 12.51104 -0.35 775.286940945
12 13 -0.3 -0.2 12.52598 -0.25 716.508841688
12 13 -0.2 -0.1 12.51433 -0.15 750.071782859
12 13 -0.1 0 12.50147 -0.05 736.911697721
12 13 0 0.1 12.50147 0.05 736.911697721
12 13 0.1 0.2 12.51433 0.15 750.071782859
12 13 0.2 0.3 12.52598 0.25 716.508841688
12 13 0.3 0.4 12.51104 0.35 775.286940945
12 13 0.4 0.5 12.50695 0.45 764.312958542
12 13 0.5 0.6 12.51733 0.55 701.335400992
12 13 0.6 0.7 12.50628 0.65 736.96712697
12 13 0.7 0.8 12.50978 0.75 752.532121097
12 13 0.8 0.9 12.51469 0.85 725.353561714
12 13 0.9 1 12.5007 0.95 709.895942548
13 14 -1 -0.9 13.51206 -0.95 831.800082802
13 14 -0.9 -0.8 13.50159 -0.85 804.786695748
13 14 -0.8 -0.7 13.50584 -0.75 805.511034825
13 14 -0.7 -0.6 13.51756 -0.65 814.447346512
13 14 -0.6 -0.5 13.50434 -0.55 786.230888516
13 14 -0.5 -0.4 13.51291 -0.45 866.582699573
13 14 -0.4 -0.3 13.50835 -0.35 832.720896757
13 14 -0.3 -0.2 13.52407 -0.25 812.494210282
13 14 -0.2 -0.1 13.51748 -0.15 869.54128661
13 14 -0.1 0 13.51908 -0.05 881.72364745
13 14 0 0.1 13.51908 0.05 881.72364745
13 14 0.1 0.2 13.51748 0.15 869.54128661
13 14 0.2 0.3 13.52407 0.25 812.494210282
13 14 0.3 0.4 13.50835 0.35 832.720896757
13 14 0.4 0.5 13.51291 0.45 866.582699573
13 14 0.5 0.6 13.50434 0.55 786.230888516
13 14 0.6 0.7 13.51756 0.65 814.447346512
13 14 0.7 0.8 13.50584 0.75 805.511034825
13 14 0.8 0.9 13.50159 0.85 804.786695748
13 14 0.9 1 13.51206 0.95 831.800082802
14 15 -1 -0.9 14.51791 -0.95 944.527144251
14 15 -0.9 -0.8 14.50631 -0.85 937.547370023
14 15 -0.8 -0.7 14.50374 -0.75 934.516703111
14 15 -0.7 -0.6 14.51939 -0.65 955.701186277
14 15 -0.6 -0.5 14.51847 -0.55 932.859188028
14 15 -0.5 -0.4 14.51013 -0.45 952.540468411
14 15 -0.4 -0.3 14.52021 -0.35 911.710787185
14 15 -0.3 -0.2 14.50258 -0.25 951.445071997
14 15 -0.2 -0.1 14.50387 -0.15 934.995931896
14 15 -0.1 0 14.51189 -0.05 937.509048178
14 15 0 0.1 14.51189 0.05 937.509048178
14 15 0.1 0.2 14.50387 0.15 934.995931896
14 15 0.2 0.3 14.50258 0.25 951.445071997
14 15 0.3 0.4 14.52021 0.35 911.710787185
14 15 0.4 0.5 14.51013 0.45 952.540468411
14 15 0.5 0.6 14.51847 0.55 932.859188028
14 15 0.6 0.7 14.51939 0.65 955.701186277
14 15 0.7 0.8 14.50374 0.75 934.516703111
14 15 0.8 0.9 14.50631 0.85 937.547370023
14 15 0.9 1 14.51791 0.95 944.527144251
15 16 -1 -0.9 15.5087 -0.95 1077.87048674
15 16 -0.9 -0.8 15.51154 -0.85 1041.002678
15 16 -0.8 -0.7 15.50625 -0.75 1072.34954707
15 16 -0.7 -0.6 15.50752 -0.65 1060.18178162
15 16 -0.6 -0.5 15.50365 -0.55 1099.26355327
15 16 -0.5 -0.4 15.51505 -0.45 1044.53509503
15 16 -0.4 -0.3 15.51059 -0.35 1052.20860825
15 16 -0.3 -0.2 15.50227 -0.25 1051.33241864
15 16 -0.2 -0.1 15.50534 -0.15 1074.24397066
15 16 -0.1 0 15.51219 -0.05 1067.23114011
15 16 0 0.1 15.51219 0.05 1067.23114011
15 16 0.1 0.2 15.50534 0.15 1074.24397066
15 16 0.2 0.3 15.50227 0.25 1051.33241864
15 16 0.3 0.4 15.51059 0.35 1052.20860825
15 16 0.4 0.5 15.51505 0.45 1044.53509503
15 16 0.5 0.6 15.50365 0.55 1099.26355327
15 16 0.6 0.7 15.50752 0.65 1060.18178162
15 16 0.7 0.8 15.50625 0.75 1072.34954707
15 16 0.8 0.9 15.51154 0.85 1041.002678
15 16 0.9 1 15.5087 0.95 1077.87048674
16 17 -1 -0.9 16.50715 -0.95 1215.6759432
16 17 -0.9 -0.8 16.50836 -0.85 1202.5696614
16 17 -0.8 -0.7 16.51058 -0.75 1146.54185829
16 17 -0.7 -0.6 16.51074 -0.65 1172.79775168
16 17 -0.6 -0.5 16.51184 -0.55 1174.16676109
16 17 -0.5 -0.4 16.51702 -0.45 1103.46370981
16 17 -0.4 -0.3 16.50169 -0.35 1168.05717492
16 17 -0.3 -0.2 16.5205 -0.25 1192.76859295
16 17 -0.2 -0.1 16.50172 -0.15 1226.83627901
16 17 -0.1 0 16.50872 -0.05 1201.00084392
16 17 0 0.1 16.50872 0.05 1201.00084392
16 17 0.1 0.2 16.50172 0.15 1226.83627901
16 17 0.2 0.3 16.5205 0.25 1192.76859295
16 17 0.3 0.4 16.50169 0.35 1168.05717492
16 17 0.4 0.5 16.51702 0.45 1103.46370981
16 17 0.5 0.6 16.51184 0.55 1174.16676109
16 17 0.6 0.7 16.51074 0.65 1172.79775168
16 17 0.7 0.8 16.51058 0.75 1146.54185829
16 17 0.8 0.9 16.50836 0.85 1202.5696614
16 17 0.9 1 16.50715 0.95 1215.6759432
17 18 -1 -0.9 17.5081 -0.95 1364.09259867
17 18 -0.9 -0.8 17.50775 -0.85 1303.22107271
17 18 -0.8 -0.7 17.50341 -0.75 1235.40913236
17 18 -0.7 -0.6 17.51344 -0.65 1316.16224734
17 18 -0.6 -0.5 17.50666 -0.55 1323.86078094
17 18 -0.5 -0.4 17.51102 -0.45 1289.61555132
17 18 -0.4 -0.3 17.50374 -0.35 1268.69577588
17 18 -0.3 -0.2 17.50726 -0.25 1283.96337746
17 18 -0.2 -0.1 17.51148 -0.15 1324.41731865
17 18 -0.1 0 17.50143 -0.05 1326.10424351
17 18 0 0.1 17.50143 0.05 1326.10424351
17 18 0.1 0.2 17.51148 0.15 1324.41731865
17 18 0.2 0.3 17.50726 0.25 1283.96337746
17 18 0.3 0.4 17.50374 0.35 1268.69577588
17 18 0.4 0.5 17.51102 0.45 1289.61555132
17 18 0.5 0.6 17.50666 0.55 1323.86078094
17 18 0.6 0.7 17.51344 0.65 1316.16224734
17 18 0.7 0.8 17.50341 0.75 1235.40913236
17 18 0.8 0.9 17.50775 0.85 1303.22107271
17 18 0.9 1 17.5081 0.95 1364.09259867
18 19 -1 -0.9 18.50786 -0.95 1485.84571817
18 19 -0.9 -0.8 18.5057 -0.85 1409.64691364
18 19 -0.8 -0.7 18.51444 -0.75 1386.4040397
18 19 -0.7 -0.6 18.51321 -0.65 1356.01712547
18 19 -0.6 -0.5 18.51116 -0.55 1414.12918493
18 19 -0.5 -0.4 18.50502 -0.45 1403.90343045
18 19 -0.4 -0.3 18.50438 -0.35 1388.98928287
18 19 -0.3 -0.2 18.49684 -0.25 1432.56820942
18 19 -0.2 -0.1 18.50678 -0.15 1413.99243032
18 19 -0.1 0 18.50268 -0.05 1451.35407561
18 19 0 0.1 18.50268 0.05 1451.35407561
18 19 0.1 0.2 18.50678 0.15 1413.99243032
18 19 0.2 0.3 18.49684 0.25 1432.56820942
18 19 0.3 0.4 18.50438 0.35 1388.98928287
18 19 0.4 0.5 18.50502 0.45 1403.90343045
18 19 0.5 0.6 18.51116 0.55 1414.12918493
18 19 0.6 0.7 18.51321 0.65 1356.01712547
18 19 0.7 0.8 18.51444 0.75 1386.4040397
18 19 0.8 0.9 18.5057 0.85 1409.64691364
18 19 0.9 1 18.50786 0.95 1485.84571817
19 20 -1 -0.9 19.50088 -0.95 1626.71375696
19 20 -0.9 -0.8 19.50331 -0.85 1588.03944678
19 20 -0.8 -0.7 19.50411 -0.75 1537.85745641
19 20 -0.7 -0.6 19.50297 -0.65 1580.50477024
19 20 -0.6 -0.5 19.50924 -0.55 1511.05372345
19 20 -0.5 -0.4 19.50695 -0.45 1518.76408096
19 20 -0.4 -0.3 19.50789 -0.35 1547.69265454
19 20 -0.3 -0.2 19.51285 -0.25 1612.29158436
19 20 -0.2 -0.1 19.50596 -0.15 1611.16051557
19 20 -0.1 0 19.5074 -0.05 1634.26389187
19 20 0 0.1 19.5074 0.05 1634.26389187
19 20 0.1 0.2 19.50596 0.15 1611.16051557
19 20 0.2 0.3 19.51285 0.25 1612.29158436
19 20 0.3 0.4 19.50789 0.35 1547.69265454
19 20 0.4 0.5 19.50695 0.45 1518.76408096
19 20 0.5 0.6 19.50924 0.55 1511.05372345
19 20 0.6 0.7 19.50297 0.65 1580.50477024
19 20 0.7 0.8 19.50411 0.75 1537.85745641
19 20 0.8 0.9 19.50331 0.85 1588.03944678
19 20 0.9 1 19.50088 0.95 1626.71375696
20 21 -1 -0.9 20.51237 -0.95 1786.85982214
20 21 -0.9 -0.8 20.4994 -0.85 1718.70285179
20 21 -0.8 -0.7 20.51351 -0.75 1640.11406541
20 21 -0.7 -0.6 20.50316 -0.65 1608.18509932
20 21 -0.6 -0.5 20.49668 -0.55 1646.71678714
20 21 -0.5 -0.4 20.50284 -0.45 1666.21273918
20 21 -0.4 -0.3 20.49944 -0.35 1697.46663706
20 21 -0.3 -0.2 20.49785 -0.25 1790.01397539
20 21 -0.2 -0.1 20.51141 -0.15 1780.9280915
20 21 -0.1 0 20.50571 -0.05 1743.70734371
20 21 0 0.1 20.50571 0.05 1743.70734371
20 21 0.1 0.2 20.51141 0.15 1780.9280915
20 21 0.2 0.3 20.49785 0.25 1790.01397539
20 21 0.3 0.4 20.49944 0.35 1697.46663706
20 21 0.4 0.5 20.50284 0.45 1666.21273918
20 21 0.5 0.6 20.49668 0.55 1646.71678714
20 21 0.6 0.7 20.50316 0.65 1608.18509932
20 21 0.7 0.8 20.51351 0.75 1640.11406541
20 21 0.8 0.9 20.4994 0.85 1718.70285179
20 21 0.9 1 20.51237 0.95 1786.85982214
21 22 -1 -0.9 21.50284 -0.95 1955.97875744
21 22 -0.9 -0.8 21.50963 -0.85 1818.94157579
21 22 -0.8 -0.7 21.50637 -0.75 1793.91818566
21 22 -0.7 -0.6 21.50472 -0.65 1800.35459507
21 22 -0.6 -0.5 21.51757 -0.55 1828.78649819
21 22 -0.5 -0.4 21.50916 -0.45 1819.24621168
21 22 -0.4 -0.3 21.5079 -0.35 1793.42876166
21 22 -0.3 -0.2 21.50631 -0.25 1804.97884025
21 22 -0.2 -0.1 21.50948 -0.15 1829.7618621
21 22 -0.1 0 21.50565 -0.05 1879.7581663
21 22 0 0.1 21.50565 0.05 1879.7581663
21 22 0.1 0.2 21.50948 0.15 1829.7618621
21 22 0.2 0.3 21.50631 0.25 1804.97884025
21 22 0.3 0.4 21.5079 0.35 1793.42876166
21 22 0.4 0.5 21.50916 0.45 1819.24621168
21 22 0.5 0.6 21.51757 0.55 1828.78649819
21 22 0.6 0.7 21.50472 0.65 1800.35459507
21 22 0.7 0.8 21.50637 0.75 1793.91818566
21 22 0.8 0.9 21.50963 0.85 1818.94157579
21 22 0.9 1 21.50284 0.95 1955.97875744
22 23 -1 -0.9 22.5054 -0.95 2075.23027899
22 23 -0.9 -0.8 22.5037 -0.85 1990.90785914
22 23 -0.8 -0.7 22.50094 -0.75 1914.93977382
22 23 -0.7 -0.6 22.51231 -0.65 1892.37027784
22 23 -0.6 -0.5 22.49799 -0.55 1918.25402631
22 23 -0.5 -0.4 22.50135 -0.45 1937.61225605
22 23 -0.4 -0.3 22.50671 -0.35 1965.86860094
22 23 -0.3 -0.2 22.50656 -0.25 1982.77258281
22 23 -0.2 -0.1 22.49824 -0.15 2032.5760347
22 23 -0.1 0 22.50277 -0.05 2060.40553414
22 23 0 0.1 22.50277 0.05 2060.40553414
22 23 0.1 0.2 22.49824 0.15 2032.5760347
22 23 0.2 0.3 22.50656 0.25 1982.77258281
22 23 0.3 0.4 22.50671 0.35 1965.86860094
22 23 0.4 0.5 22.50135 0.45 1937.61225605
22 23 0.5 0.6 22.49799 0.55 1918.25402631
22 23 0.6 0.7 22.51231 0.65 1892.37027784
22 23 0.7 0.8 22.50094 0.75 1914.93977382
22 23 0.8 0.9 22.5037 0.85 1990.90785914
22 23 0.9 1 22.5054 0.95 2075.23027899
23 24 -1 -0.9 23.50843 -0.95 2192.67788681
23 24 -0.9 -0.8 23.50286 -0.85 2084.87749246
23 24 -0.8 -0.7 23.50219 -0.75 2063.44959826
23 24 -0.7 -0.6 23.50023 -0.65 2118.57506454
23 24 -0.6 -0.5 23.50482 -0.55 2086.62672029
23 24 -0.5 -0.4 23.50904 -0.45 2076.69848178
23 24 -0.4 -0.3 23.51394 -0.35 2134.46300336
23 24 -0.3 -0.2 23.50449 -0.25 2183.84623335
23 24 -0.2 -0.1 23.50436 -0.15 2199.1964515
23 24 -0.1 0 23.50453 -0.05 2206.83857522
23 24 0 0.1 23.50453 0.05 2206.83857522
23 24 0.1 0.2 23.50436 0.15 2199.1964515
23 24 0.2 0.3 23.50449 0.25 2183.84623335
23 24 0.3 0.4 23.51394 0.35 2134.46300336
23 24 0.4 0.5 23.50904 0.45 2076.69848178
23 24 0.5 0.6 23.50482 0.55 2086.62672029
23 24 0.6 0.7 23.50023 0.65 2118.57506454
23 24 0.7 0.8 23.50219 0.75 2063.44959826
23 24 0.8 0.9 23.50286 0.85 2084.87749246
23 24 0.9 1 23.50843 0.95 2192.67788681
24 25 -1 -0.9 24.50734 -0.95 2396.29331444
24 25 -0.9 -0.8 24.50826 -0.85 2246.63922226
24 25 -0.8 -0.7 24.50195 -0.75 2211.03677967
24 25 -0.7 -0.6 24.5148 -0.65 2111.79289458
24 25 -0.6 -0.5 24.51341 -0.55 2166.05875632
24 25 -0.5 -0.4 24.50622 -0.45 2206.39119801
24 25 -0.4 -0.3 24.50459 -0.35 2269.97510058
24 25 -0.3 -0.2 24.50308 -0.25 2305.18598505
24 25 -0.2 -0.1 24.4934 -0.15 2318.56991533
24 25 -0.1 0 24.50448 -0.05 2419.06728913
24 25 0 0.1 24.50448 0.05 2419.06728913
24 25 0.1 0.2 24.4934 0.15 2318.56991533
24 25 0.2 0.3 24.50308 0.25 2305.18598505
24 25 0.3 0.4 24.50459 0.35 2269.97510058
24 25 0.4 0.5 24.50622 0.45 2206.39119801
24 25 0.5 0.6 24.51341 0.55 2166.05875632
24 25 0.6 0.7 24.5148 0.65 2111.79289458
24 25 0.7 0.8 24.50195 0.75 2211.03677967
24 25 0.8 0.9 24.50826 0.85 2246.63922226
24 25 0.9 1 24.50734 0.95 2396.29331444
25 26 -1 -0.9 25.50942 -0.95 2616.03469637
25 26 -0.9 -0.8 25.50929 -0.85 2427.29243654
25 26 -0.8 -0.7 25.50293 -0.75 2316.60688444
25 26 -0.7 -0.6 25.49406 -0.65 2354.23099116
25 26 -0.6 -0.5 25.4999 -0.55 2305.86465662
25 26 -0.5 -0.4 25.50809 -0.45 2270.77668495
25 26 -0.4 -0.3 25.50449 -0.35 2372.69969417
25 26 -0.3 -0.2 25.50257 -0.25 2376.88670868
25 26 -0.2 -0.1 25.51325 -0.15 2484.12488521
25 26 -0.1 0 25.50336 -0.05 2475.849362
25 26 0 0.1 25.50336 0.05 2475.849362
25 26 0.1 0.2 25.51325 0.15 2484.12488521
25 26 0.2 0.3 25.50257 0.25 2376.88670868
25 26 0.3 0.4 25.50449 0.35 2372.69969417
25 26 0.4 0.5 25.50809 0.45 2270.77668495
25 26 0.5 0.6 25.4999 0.55 2305.86465662
25 26 0.6 0.7 25.49406 0.65 2354.23099116
25 26 0.7 0.8 25.50293 0.75 2316.60688444
25 26 0.8 0.9 25.50929 0.85 2427.29243654
25 26 0.9 1 25.50942 0.95 2616.03469637
26 27 -1 -0.9 26.50655 -0.95 2698.96020833
26 27 -0.9 -0.8 26.5115 -0.85 2620.08847473
26 27 -0.8 -0.7 26.50745 -0.75 2533.27796097
26 27 -0.7 -0.6 26.49573 -0.65 2514.24925559
26 27 -0.6 -0.5 26.51469 -0.55 2460.07586116
26 27 -0.5 -0.4 26.51277 -0.45 2469.73455769
26 27 -0.4 -0.3 26.50396 -0.35 2495.14312713
26 27 -0.3 -0.2 26.50408 -0.25 2551.21266581
26 27 -0.2 -0.1 26.4969 -0.15 2620.96044097
26 27 -0.1 0 26.50419 -0.05 2665.33120885
26 27 0 0.1 26.50419 0.05 2665.33120885
26 27 0.1 0.2 26.4969 0.15 2620.96044097
26 27 0.2 0.3 26.50408 0.25 2551.21266581
26 27 0.3 0.4 26.50396 0.35 2495.14312713
26 27 0.4 0.5 26.51277 0.45 2469.73455769
26 27 0.5 0.6 26.51469 0.55 2460.07586116
26 27 0.6 0.7 26.49573 0.65 2514.24925559
26 27 0.7 0.8 26.50745 0.75 2533.27796097
26 27 0.8 0.9 26.5115 0.85 2620.08847473
26 27 0.9 1 26.50655 0.95 2698.96020833
27 28 -1 -0.9 27.50726 -0.95 2937.67461165
27 28 -0.9 -0.8 27.50451 -0.85 2722.86320914
27 28 -0.8 -0.7 27.51122 -0.75 2676.22897751
27 28 -0.7 -0.6 27.50668 -0.65 2669.33451517
27 28 -0.6 -0.5 27.50452 -0.55 2692.96167861
27 28 -0.5 -0.4 27.50438 -0.45 2631.69685716
27 28 -0.4 -0.3 27.5096 -0.35 2648.7891506
27 28 -0.3 -0.2 27.5001 -0.25 2752.74993912
27 28 -0.2 -0.1 27.49797 -0.15 2784.18843605
27 28 -0.1 0 27.50564 -0.05 2824.02890589
27 28 0 0.1 27.50564 0.05 2824.02890589
27 28 0.1 0.2 27.49797 0.15 2784.18843605
27 28 0.2 0.3 27.5001 0.25 2752.74993912
27 28 0.3 0.4 27.5096 0.35 2648.7891506
27 28 0.4 0.5 27.50438 0.45 2631.69685716
27 28 0.5 0.6 27.50452 0.55 2692.96167861
27 28 0.6 0.7 27.50668 0.65 2669.33451517
27 28 0.7 0.8 27.51122 0.75 2676.22897751
27 28 0.8 0.9 27.50451 0.85 2722.86320914
27 28 0.9 1 27.50726 0.95 2937.67461165
28 29 -1 -0.9 28.50798 -0.95 2974.89494251
28 29 -0.9 -0.8 28.50555 -0.85 2865.65903977
28 29 -0.8 -0.7 28.50456 -0.75 2767.62961868
28 29 -0.7 -0.6 28.50784 -0.65 2761.06027462
28 29 -0.6 -0.5 28.50378 -0.55 2709.22139689
28 29 -0.5 -0.4 28.50649 -0.45 2709.26542353
28 29 -0.4 -0.3 28.50682 -0.35 2815.45891876
28 29 -0.3 -0.2 28.50063 -0.25 2869.08978175
28 29 -0.2 -0.1 28.50244 -0.15 2949.93287457
28 29 -0.1 0 28.50406 -0.05 3038.07600294
28 29 0 0.1 28.50406 0.05 3038.07600294
28 29 0.1 0.2 28.50244 0.15 2949.93287457
28 29 0.2 0.3 28.50063 0.25 2869.08978175
28 29 0.3 0.4 28.50682 0.35 2815.45891876
28 29 0.4 0.5 28.50649 0.45 2709.26542353
28 29 0.5 0.6 28.50378 0.55 2709.22139689
28 29 0.6 0.7 28.50784 0.65 2761.06027462
28 29 0.7 0.8 28.50456 0.75 2767.62961868
28 29 0.8 0.9 28.50555 0.85 2865.65903977
28 29 0.9 1 28.50798 0.95 2974.89494251
29 30 -1 -0.9 29.50404 -0.95 3184.29891603
29 30 -0.9 -0.8 29.50752 -0.85 3016.79084482
29 30 -0.8 -0.7 29.50345 -0.75 2946.77518102
29 30 -0.7 -0.6 29.50181 -0.65 2877.69832621
29 30 -0.6 -0.5 29.51143 -0.55 2895.05458756
29 30 -0.5 -0.4 29.50848 -0.45 2876.48435485
29 30 -0.4 -0.3 29.503 -0.35 2876.76095684
29 30 -0.3 -0.2 29.50528 -0.25 3034.57730398
29 30 -0.2 -0.1 29.50786 -0.15 3151.93538061
29 30 -0.1 0 29.50746 -0.05 3182.81592377
29 30 0 0.1 29.50746 0.05 3182.81592377
29 30 0.1 0.2 29.50786 0.15 3151.93538061
29 30 0.2 0.3 29.50528 0.25 3034.57730398
29 30 0.3 0.4 29.503 0.35 2876.76095684
29 30 0.4 0.5 29.50848 0.45 2876.48435485
29 30 0.5 0.6 29.51143 0.55 2895.05458756
29 30 0.6 0.7 29.50181 0.65 2877.69832621
29 30 0.7 0.8 29.50345 0.75 2946.77518102
29 30 0.8 0.9 29.50752 0.85 3016.79084482
29 30 0.9 1 29.50404 0.95 3184.29891603
30 31 -1 -0.9 30.50934 -0.95 3432.20832488
30 31 -0.9 -0.8 30.50494 -0.85 3149.7943738
30 31 -0.8 -0.7 30.50471 -0.75 3089.20808659
30 31 -0.7 -0.6 30.51065 -0.65 3089.53637851
30 31 -0.6 -0.5 30.50174 -0.55 2978.28874683
30 31 -0.5 -0.4 30.50593 -0.45 3067.13103185
30 31 -0.4 -0.3 30.5093 -0.35 3132.69580969
30 31 -0.3 -0.2 30.50272 -0.25 3137.27202196
30 31 -0.2 -0.1 30.5066 -0.15 3143.57746022
30 31 -0.1 0 30.50175 -0.05 3343.07306653
30 31 0 0.1 30.50175 0.05 3343.07306653
30 31 0.1 0.2 30.5066 0.15 3143.57746022
30 31 0.2 0.3 30.50272 0.25 3137.27202196
30 31 0.3 0.4 30.5093 0.35 3132.69580969
30 31 0.4 0.5 30.50593 0.45 3067.13103185
30 31 0.5 0.6 30.50174 0.55 2978.28874683
30 31 0.6 0.7 30.51065 0.65 3089.53637851
30 31 0.7 0.8 30.50471 0.75 3089.20808659
30 31 0.8 0.9 30.50494 0.85 3149.7943738
30 31 0.9 1 30.50934 0.95 3432.20832488
31 32 -1 -0.9 31.49935 -0.95 3478.0553881
31 32 -0.9 -0.8 31.50251 -0.85 3313.18352117
31 32 -0.8 -0.7 31.49826 -0.75 3204.04284369
31 32 -0.7 -0.6 31.50577 -0.65 3184.26626037
31 32 -0.6 -0.5 31.50597 -0.55 3153.6267023
31 32 -0.5 -0.4 31.51344 -0.45 3096.9338679
31 32 -0.4 -0.3 31.50524 -0.35 3210.95438111
31 32 -0.3 -0.2 31.50109 -0.25 3303.52020629
31 32 -0.2 -0.1 31.49765 -0.15 3319.29059631
31 32 -0.1 0 31.50814 -0.05 3508.18793516
31 32 0 0.1 31.50814 0.05 3508.18793516
31 32 0.1 0.2 31.49765 0.15 3319.29059631
31 32 0.2 0.3 31.50109 0.25 3303.52020629
31 32 0.3 0.4 31.50524 0.35 3210.95438111
31 32 0.4 0.5 31.51344 0.45 3096.9338679
31 32 0.5 0.6 31.50597 0.55 3153.6267023
31 32 0.6 0.7 31.50577 0.65 3184.26626037
31 32 0.7 0.8 31.49826 0.75 3204.04284369
31 32 0.8 0.9 31.50251 0.85 3313.18352117
31 32 0.9 1 31.49935 0.95 3478.0553881
32 33 -1 -0.9 32.50746 -0.95 3698.67836365
32 33 -0.9 -0.8 32.50881 -0.85 3403.33614128
32 33 -0.8 -0.7 32.50237 -0.75 3321.5044263
32 33 -0.7 -0.6 32.5032 -0.65 3342.2037281
32 33 -0.6 -0.5 32.49686 -0.55 3326.07728388
32 33 -0.5 -0.4 32.49978 -0.45 3324.90894357
32 33 -0.4 -0.3 32.49824 -0.35 3296.0031367
32 33 -0.3 -0.2 32.50085 -0.25 3467.14109268
32 33 -0.2 -0.1 32.50345 -0.15 3511.89069882
32 33 -0.1 0 32.50033 -0.05 3612.99252645
32 33 0 0.1 32.50033 0.05 3612.99252645
32 33 0.1 0.2 32.50345 0.15 3511.89069882
32 33 0.2 0.3 32.50085 0.25 3467.14109268
32 33 0.3 0.4 32.49824 0.35 3296.0031367
32 33 0.4 0.5 32.49978 0.45 3324.90894357
32 33 0.5 0.6 32.49686 0.55 3326.07728388
32 33 0.6 0.7 32.5032 0.65 3342.2037281
32 33 0.7 0.8 32.50237 0.75 3321.5044263
32 33 0.8 0.9 32.50881 0.85 3403.33614128
32 33 0.9 1 32.50746 0.95 3698.67836365
33 34 -1 -0.9 33.50115 -0.95 3865.76542355
33 34 -0.9 -0.8 33.50256 -0.85 3625.08738562
33 34 -0.8 -0.7 33.50744 -0.75 3546.6396014
33 34 -0.7 -0.6 33.49904 -0.65 3505.18071416
33 34 -0.6 -0.5 33.49591 -0.55 3434.32050732
33 34 -0.5 -0.4 33.49974 -0.45 3410.60403754
33 34 -0.4 -0.3 33.50701 -0.35 3552.82944125
33 34 -0.3 -0.2 33.50233 -0.25 3615.20641979
33 34 -0.2 -0.1 33.51007 -0.15 3642.54931443
33 34 -0.1 0 33.50726 -0.05 3802.47756019
33 34 0 0.1 33.50726 0.05 3802.47756019
33 34 0.1 0.2 33.51007 0.15 3642.54931443
33 34 0.2 0.3 33.50233 0.25 3615.20641979
33 34 0.3 0.4 33.50701 0.35 3552.82944125
33 34 0.4 0.5 33.49974 0.45 3410.60403754
33 34 0.5 0.6 33.49591 0.55 3434.32050732
33 34 0.6 0.7 33.49904 0.65 3505.18071416
33 34 0.7 0.8 33.50744 0.75 3546.6396014
33 34 0.8 0.9 33.50256 0.85 3625.08738562
33 34 0.9 1 33.50115 0.95 3865.76542355
34 35 -1 -0.9 34.50733 -0.95 4108.41293988
34 35 -0.9 -0.8 34.50639 -0.85 3754.25133305
34 35 -0.8 -0.7 34.4998 -0.75 3722.59929155
34 35 -0.7 -0.6 34.50074 -0.65 3503.21566744
34 35 -0.6 -0.5 34.50535 -0.55 3586.90657384
34 35 -0.5 -0.4 34.50092 -0.45 3573.75568172
34 35 -0.4 -0.3 34.50278 -0.35 3696.87399997
34 35 -0.3 -0.2 34.49682 -0.25 3715.45113571
34 35 -0.2 -0.1 34.50374 -0.15 3856.74317572
34 35 -0.1 0 34.50023 -0.05 3963.79413498
34 35 0 0.1 34.50023 0.05 3963.79413498
34 35 0.1 0.2 34.50374 0.15 3856.74317572
34 35 0.2 0.3 34.49682 0.25 3715.45113571
34 35 0.3 0.4 34.50278 0.35 3696.87399997
34 35 0.4 0.5 34.50092 0.45 3573.75568172
34 35 0.5 0.6 34.50535 0.55 3586.90657384
34 35 0.6 0.7 34.50074 0.65 3503.21566744
34 35 0.7 0.8 34.4998 0.75 3722.59929155
34 35 0.8 0.9 34.50639 0.85 3754.25133305
34 35 0.9 1 34.50733 0.95 4108.41293988
35 36 -1 -0.9 35.50374 -0.95 4171.56790493
35 36 -0.9 -0.8 35.51112 -0.85 3919.2766479
35 36 -0.8 -0.7 35.51222 -0.75 3797.52307353
35 36 -0.7 -0.6 35.49807 -0.65 3725.77275754
35 36 -0.6 -0.5 35.50013 -0.55 3631.07206624
35 36 -0.5 -0.4 35.50034 -0.45 3736.90628877
35 36 -0.4 -0.3 35.49792 -0.35 3765.88684271
35 36 -0.3 -0.2 35.50453 -0.25 3868.37156677
35 36 -0.2 -0.1 35.51007 -0.15 4001.23940262
35 36 -0.1 0 35.50101 -0.05 4198.78721805
35 36 0 0.1 35.50101 0.05 4198.78721805
35 36 0.1 0.2 35.51007 0.15 4001.23940262
35 36 0.2 0.3 35.50453 0.25 3868.37156677
35 36 0.3 0.4 35.49792 0.35 3765.88684271
35 36 0.4 0.5 35.50034 0.45 3736.90628877
35 36 0.5 0.6 35.50013 0.55 3631.07206624
35 36 0.6 0.7 35.49807 0.65 3725.77275754
35 36 0.7 0.8 35.51222 0.75 3797.52307353
35 36 0.8 0.9 35.51112 0.85 3919.2766479
35 36 0.9 1 35.50374 0.95 4171.56790493
36 37 -1 -0.9 36.50154 -0.95 4266.07441048
36 37 -0.9 -0.8 36.50778 -0.85 4114.3620944
36 37 -0.8 -0.7 36.50638 -0.75 3820.38178123
36 37 -0.7 -0.6 36.49394 -0.65 3924.47984976
36 37 -0.6 -0.5 36.50429 -0.55 3837.92784611
36 37 -0.5 -0.4 36.49792 -0.45 3871.02193512
36 37 -0.4 -0.3 36.50015 -0.35 3887.01801389
36 37 -0.3 -0.2 36.50528 -0.25 3971.17287211
36 37 -0.2 -0.1 36.49828 -0.15 4183.15371592
36 37 -0.1 0 36.49826 -0.05 4203.10809369
36 37 0 0.1 36.49826 0.05 4203.10809369
36 37 0.1 0.2 36.49828 0.15 4183.15371592
36 37 0.2 0.3 36.50528 0.25 3971.17287211
36 37 0.3 0.4 36.50015 0.35 3887.01801389
36 37 0.4 0.5 36.49792 0.45 3871.02193512
36 37 0.5 0.6 36.50429 0.55 3837.92784611
36 37 0.6 0.7 36.49394 0.65 3924.47984976
36 37 0.7 0.8 36.50638 0.75 3820.38178123
36 37 0.8 0.9 36.50778 0.85 4114.3620944
36 37 0.9 1 36.50154 0.95 4266.07441048
37 38 -1 -0.9 37.50447 -0.95 4490.26104233
37 38 -0.9 -0.8 37.50302 -0.85 4059.84893654
37 38 -0.8 -0.7 37.50895 -0.75 4039.03681833
37 38 -0.7 -0.6 37.50873 -0.65 3972.96751261
37 38 -0.6 -0.5 37.50347 -0.55 4038.03378636
37 38 -0.5 -0.4 37.50499 -0.45 3975.28033757
37 38 -0.4 -0.3 37.49917 -0.35 4077.22173686
37 38 -0.3 -0.2 37.50511 -0.25 4240.15094852
37 38 -0.2 -0.1 37.50739 -0.15 4283.88771924
37 38 -0.1 0 37.50297 -0.05 4448.84279269
37 38 0 0.1 37.50297 0.05 4448.84279269
37 38 0.1 0.2 37.50739 0.15 4283.88771924
37 38 0.2 0.3 37.50511 0.25 4240.15094852
37 38 0.3 0.4 37.49917 0.35 4077.22173686
37 38 0.4 0.5 37.50499 0.45 3975.28033757
37 38 0.5 0.6 37.50347 0.55 4038.03378636
37 38 0.6 0.7 37.50873 0.65 3972.96751261
37 38 0.7 0.8 37.50895 0.75 4039.03681833
37 38 0.8 0.9 37.50302 0.85 4059.84893654
37 38 0.9 1 37.50447 0.95 4490.26104233
38 39 -1 -0.9 38.49947 -0.95 4574.12487596
38 39 -0.9 -0.8 38.50092 -0.85 4288.98295962
38 39 -0.8 -0.7 38.50472 -0.75 4181.99529758
38 39 -0.7 -0.6 38.50208 -0.65 4146.62167119
38 39 -0.6 -0.5 38.49874 -0.55 4059.18327888
38 39 -0.5 -0.4 38.50194 -0.45 4206.00871951
38 39 -0.4 -0.3 38.50124 -0.35 4206.0940668
38 39 -0.3 -0.2 38.49743 -0.25 4281.11529775
38 39 -0.2 -0.1 38.50293 -0.15 4410.31266877
38 39 -0.1 0 38.50094 -0.05 4595.99502968
38 39 0 0.1 38.50094 0.05 4595.99502968
38 39 0.1 0.2 38.50293 0.15 4410.31266877
38 39 0.2 0.3 38.49743 0.25 4281.11529775
38 39 0.3 0.4 38.50124 0.35 4206.0940668
38 39 0.4 0.5 38.50194 0.45 4206.00871951
38 39 0.5 0.6 38.49874 0.55 4059.18327888
38 39 0.6 0.7 38.50208 0.65 4146.62167119
38 39 0.7 0.8 38.50472 0.75 4181.99529758
38 39 0.8 0.9 38.50092 0.85 4288.98295962
38 39 0.9 1 38.49947 0.95 4574.12487596
39 40 -1 -0.9 39.50177 -0.95 4703.26433526
39 40 -0.9 -0.8 39.4988 -0.85 4344.60421075
39 40 -0.8 -0.7 39.50064 -0.75 4267.96565555
39 40 -0.7 -0.6 39.50296 -0.65 4299.88443524
39 40 -0.6 -0.5 39.50809 -0.55 4186.91530843
39 40 -0.5 -0.4 39.50355 -0.45 4248.3585658
39 40 -0.4 -0.3 39.50496 -0.35 4280.16198204
39 40 -0.3 -0.2 39.49937 -0.25 4482.33382317
39 40 -0.2 -0.1 39.50581 -0.15 4555.59320327
39 40 -0.1 0 39.50231 -0.05 4765.14997044
39 40 0 0.1 39.50231 0.05 4765.14997044
39 40 0.1 0.2 39.50581 0.15 4555.59320327
39 40 0.2 0.3 39.49937 0.25 4482.33382317
39 40 0.3 0.4 39.50496 0.35 4280.16198204
39 40 0.4 0.5 39.50355 0.45 4248.3585658
39 40 0.5 0.6 39.50809 0.55 4186.91530843
39 40 0.6 0.7 39.50296 0.65 4299.88443524
39 40 0.7 0.8 39.50064 0.75 4267.96565555
39 40 0.8 0.9 39.4988 0.85 4344.60421075
39 40 0.9 1 39.50177 0.95 4703.26433526
40 41 -1 -0.9 40.49775 -0.95 4756.12728979
40 41 -0.9 -0.8 40.5023 -0.85 4563.58232048
40 41 -0.8 -0.7 40.50409 -0.75 4431.99122088
40 41 -0.7 -0.6 40.50018 -0.65 4404.49907017
40 41 -0.6 -0.5 40.50231 -0.55 4363.02103288
40 41 -0.5 -0.4 40.50257 -0.45 4363.12288255
40 41 -0.4 -0.3 40.50374 -0.35 4555.28445413
40 41 -0.3 -0.2 40.50274 -0.25 4588.33384325
40 41 -0.2 -0.1 40.49804 -0.15 4809.01301164
40 41 -0.1 0 40.50401 -0.05 4946.10125295
40 41 0 0.1 40.50401 0.05 4946.10125295
40 41 0.1 0.2 40.49804 0.15 4809.01301164
40 41 0.2 0.3 40.50274 0.25 4588.33384325
40 41 0.3 0.4 40.50374 0.35 4555.28445413
40 41 0.4 0.5 40.50257 0.45 4363.12288255
40 41 0.5 0.6 40.50231 0.55 4363.02103288
40 41 0.6 0.7 40.50018 0.65 4404.49907017
40 41 0.7 0.8 40.50409 0.75 4431.99122088
40 41 0.8 0.9 40.5023 0.85 4563.58232048
40 41 0.9 1 40.49775 0.95 4756.12728979
