#norm = 2283668.2799985385
#edges = (np.linspace(1, 41, 41), np.linspace(-1, 1, 21))
#s_low s_high mu_low mu_high s mu wcounts
1 2 -1 -0.9 1.803652 -0.95 6.51129166834
1 2 -0.9 -0.8 1.661858 -0.85 1.56671128925
1 2 -0.8 -0.7 1.522511 -0.75 4.68538091592
1 2 -0.7 -0.6 1.379077 -0.65 1.76773827237
1 2 -0.6 -0.5 1.260813 -0.55 2.46914809423
1 2 -0.5 -0.4 nan -0.45 0
1 2 -0.4 -0.3 nan -0.35 0
1 2 -0.3 -0.2 1.926838 -0.25 1.76563225944
1 2 -0.2 -0.1 nan -0.15 0
1 2 -0.1 0 1.303101 -0.05 3.6741648954
1 2 0 0.1 1.303101 0.05 3.6741648954
1 2 0.1 0.2 nan 0.15 0
1 2 0.2 0.3 1.926838 0.25 1.76563225944
1 2 0.3 0.4 nan 0.35 0
1 2 0.4 0.5 nan 0.45 0
1 2 0.5 0.6 1.260813 0.55 2.46914809423
1 2 0.6 0.7 1.379077 0.65 1.76773827237
1 2 0.7 0.8 1.522511 0.75 4.68538091592
1 2 0.8 0.9 1.661858 0.85 1.56671128925
1 2 0.9 1 1.803652 0.95 6.51129166834
2 3 -1 -0.9 2.690293 -0.95 8.08135262156
2 3 -0.9 -0.8 2.769861 -0.85 6.41639867761
2 3 -0.8 -0.7 2.279199 -0.75 6.47107628122
2 3 -0.7 -0.6 2.68716 -0.65 13.2678444749
2 3 -0.6 -0.5 2.359803 -0.55 20.8135798984
2 3 -0.5 -0.4 2.682929 -0.45 8.83695588274
2 3 -0.4 -0.3 2.433293 -0.35 14.7606107704
2 3 -0.3 -0.2 2.794676 -0.25 8.84329441551
2 3 -0.2 -0.1 2.26058 -0.15 15.0252181442
2 3 -0.1 0 2.518526 -0.05 6.06208453194
2 3 0 0.1 2.518526 0.05 6.06208453194
2 3 0.1 0.2 2.26058 0.15 15.0252181442
2 3 0.2 0.3 2.794676 0.25 8.84329441551
2 3 0.3 0.4 2.433293 0.35 14.7606107704
2 3 0.4 0.5 2.682929 0.45 8.83695588274
2 3 0.5 0.6 2.359803 0.55 20.8135798984
2 3 0.6 0.7 2.68716 0.65 13.2678444749
2 3 0.7 0.8 2.279199 0.75 6.47107628122
2 3 0.8 0.9 2.769861 0.85 6.41639867761
2 3 0.9 1 2.690293 0.95 8.08135262156
3 4 -1 -0.9 3.468864 -0.95 16.1641879216
3 4 -0.9 -0.8 3.594022 -0.85 17.3816375917
3 4 -0.8 -0.7 3.37716 -0.75 12.3354194346
3 4 -0.7 -0.6 3.4609 -0.65 22.2486247785
3 4 -0.6 -0.5 3.489152 -0.55 12.8729269043
3 4 -0.5 -0.4 3.596819 -0.45 18.3386839863
3 4 -0.4 -0.3 3.478125 -0.35 22.5872600831
3 4 -0.3 -0.2 3.582403 -0.25 12.3914960384
3 4 -0.2 -0.1 3.681279 -0.15 20.57091429
3 4 -0.1 0 3.632051 -0.05 28.8775383424
3 4 0 0.1 3.632051 0.05 28.8775383424
3 4 0.1 0.2 3.681279 0.15 20.57091429
3 4 0.2 0.3 3.582403 0.25 12.3914960384
3 4 0.3 0.4 3.478125 0.35 22.5872600831
3 4 0.4 0.5 3.596819 0.45 18.3386839863
3 4 0.5 0.6 3.489152 0.55 12.8729269043
3 4 0.6 0.7 3.4609 0.65 22.2486247785
3 4 0.7 0.8 3.37716 0.75 12.3354194346
3 4 0.8 0.9 3.594022 0.85 17.3816375917
3 4 0.9 1 3.468864 0.95 16.1641879216
4 5 -1 -0.9 4.447899 -0.95 23.4295256426
4 5 -0.9 -0.8 4.597623 -0.85 27.0520482597
4 5 -0.8 -0.7 4.612603 -0.75 19.1791393318
4 5 -0.7 -0.6 4.431056 -0.65 23.5270782507
4 5 -0.6 -0.5 4.564213 -0.55 26.9669018153
4 5 -0.5 -0.4 4.586425 -0.45 23.8707246908
4 5 -0.4 -0.3 4.457826 -0.35 23.6940697942
4 5 -0.3 -0.2 4.567401 -0.25 25.9707352202
4 5 -0.2 -0.1 4.623836 -0.15 18.8540913379
4 5 -0.1 0 4.6813 -0.05 32.9359519529
4 5 0 0.1 4.6813 0.05 32.9359519529
4 5 0.1 0.2 4.623836 0.15 18.8540913379
4 5 0.2 0.3 4.567401 0.25 25.9707352202
4 5 0.3 0.4 4.457826 0.35 23.6940697942
4 5 0.4 0.5 4.586425 0.45 23.8707246908
4 5 0.5 0.6 4.564213 0.55 26.9669018153
4 5 0.6 0.7 4.431056 0.65 23.5270782507
4 5 0.7 0.8 4.612603 0.75 19.1791393318
4 5 0.8 0.9 4.597623 0.85 27.0520482597
4 5 0.9 1 4.447899 0.95 23.4295256426
5 6 -1 -0.9 5.372997 -0.95 37.1758188964
5 6 -0.9 -0.8 5.43708 -0.85 24.1854491249
5 6 -0.8 -0.7 5.519712 -0.75 30.7158579897
5 6 -0.7 -0.6 5.499967 -0.65 27.9576600167
5 6 -0.6 -0.5 5.592415 -0.55 44.3134528057
5 6 -0.5 -0.4 5.62219 -0.45 35.3281930627
5 6 -0.4 -0.3 5.531324 -0.35 48.6445457888
5 6 -0.3 -0.2 5.478747 -0.25 40.4989368809
5 6 -0.2 -0.1 5.465799 -0.15 27.4491527003
5 6 -0.1 0 5.351709 -0.05 33.2937003748
5 6 0 0.1 5.351709 0.05 33.2937003748
5 6 0.1 0.2 5.465799 0.15 27.4491527003
5 6 0.2 0.3 5.478747 0.25 40.4989368809
5 6 0.3 0.4 5.531324 0.35 48.6445457888
5 6 0.4 0.5 5.62219 0.45 35.3281930627
5 6 0.5 0.6 5.592415 0.55 44.3134528057
5 6 0.6 0.7 5.499967 0.65 27.9576600167
5 6 0.7 0.8 5.519712 0.75 30.7158579897
5 6 0.8 0.9 5.43708 0.85 24.1854491249
5 6 0.9 1 5.372997 0.95 37.1758188964
6 7 -1 -0.9 6.508535 -0.95 82.0685659459
6 7 -0.9 -0.8 6.562334 -0.85 46.9974895145
6 7 -0.8 -0.7 6.593816 -0.75 44.2545576572
6 7 -0.7 -0.6 6.504462 -0.65 45.2679520842
6 7 -0.6 -0.5 6.549913 -0.55 46.8087055123
6 7 -0.5 -0.4 6.66637 -0.45 66.8029558603
6 7 -0.4 -0.3 6.499296 -0.35 49.2348894554
6 7 -0.3 -0.2 6.532433 -0.25 40.6803565654
6 7 -0.2 -0.1 6.532396 -0.15 59.9178892112
6 7 -0.1 0 6.602238 -0.05 79.2628958038
6 7 0 0.1 6.602238 0.05 79.2628958038
6 7 0.1 0.2 6.532396 0.15 59.9178892112
6 7 0.2 0.3 6.532433 0.25 40.6803565654
6 7 0.3 0.4 6.499296 0.35 49.2348894554
6 7 0.4 0.5 6.66637 0.45 66.8029558603
6 7 0.5 0.6 6.549913 0.55 46.8087055123
6 7 0.6 0.7 6.504462 0.65 45.2679520842
6 7 0.7 0.8 6.593816 0.75 44.2545576572
6 7 0.8 0.9 6.562334 0.85 46.9974895145
6 7 0.9 1 6.508535 0.95 82.0685659459
7 8 -1 -0.9 7.458382 -0.95 73.3876274193
7 8 -0.9 -0.8 7.526392 -0.85 73.0470826062
7 8 -0.8 -0.7 7.536515 -0.75 71.8531434099
7 8 -0.7 -0.6 7.55211 -0.65 80.4371030156
7 8 -0.6 -0.5 7.61545 -0.55 84.9683776182
7 8 -0.5 -0.4 7.526601 -0.45 84.2000045232
7 8 -0.4 -0.3 7.57849 -0.35 81.0349169265
7 8 -0.3 -0.2 7.604321 -0.25 62.991664776
7 8 -0.2 -0.1 7.514491 -0.15 75.1829828167
7 8 -0.1 0 7.469025 -0.05 61.7439120322
7 8 0 0.1 7.469025 0.05 61.7439120322
7 8 0.1 0.2 7.514491 0.15 75.1829828167
7 8 0.2 0.3 7.604321 0.25 62.991664776
7 8 0.3 0.4 7.57849 0.35 81.0349169265
7 8 0.4 0.5 7.526601 0.45 84.2000045232
7 8 0.5 0.6 7.61545 0.55 84.9683776182
7 8 0.6 0.7 7.55211 0.65 80.4371030156
7 8 0.7 0.8 7.536515 0.75 71.8531434099
7 8 0.8 0.9 7.526392 0.85 73.0470826062
7 8 0.9 1 7.458382 0.95 73.3876274193
8 9 -1 -0.9 8.484883 -0.95 69.1453048957
8 9 -0.9 -0.8 8.580181 -0.85 86.1009070214
8 9 -0.8 -0.7 8.562735 -0.75 83.2979620209
8 9 -0.7 -0.6 8.412294 -0.65 92.0036281313
8 9 -0.6 -0.5 8.370924 -0.55 85.1471428887
8 9 -0.5 -0.4 8.474513 -0.45 84.3785296395
8 9 -0.4 -0.3 8.502807 -0.35 74.0645844954
8 9 -0.3 -0.2 8.611028 -0.25 78.9583975817
8 9 -0.2 -0.1 8.509939 -0.15 90.7695928561
8 9 -0.1 0 8.504222 -0.05 105.891833166
8 9 0 0.1 8.504222 0.05 105.891833166
8 9 0.1 0.2 8.509939 0.15 90.7695928561
8 9 0.2 0.3 8.611028 0.25 78.9583975817
8 9 0.3 0.4 8.502807 0.35 74.0645844954
8 9 0.4 0.5 8.474513 0.45 84.3785296395
8 9 0.5 0.6 8.370924 0.55 85.1471428887
8 9 0.6 0.7 8.412294 0.65 92.0036281313
8 9 0.7 0.8 8.562735 0.75 83.2979620209
8 9 0.8 0.9 8.580181 0.85 86.1009070214
8 9 0.9 1 8.484883 0.95 69.1453048957
9 10 -1 -0.9 9.474568 -0.95 148.684427293
9 10 -0.9 -0.8 9.588856 -0.85 114.388315798
9 10 -0.8 -0.7 9.575614 -0.75 107.421000132
9 10 -0.7 -0.6 9.564612 -0.65 118.860597939
9 10 -0.6 -0.5 9.558556 -0.55 129.300150101
9 10 -0.5 -0.4 9.609899 -0.45 95.5784340046
9 10 -0.4 -0.3 9.522341 -0.35 143.509702757
9 10 -0.3 -0.2 9.564216 -0.25 127.65963756
9 10 -0.2 -0.1 9.556716 -0.15 80.4736296048
9 10 -0.1 0 9.458781 -0.05 118.825285899
9 10 0 0.1 9.458781 0.05 118.825285899
9 10 0.1 0.2 9.556716 0.15 80.4736296048
9 10 0.2 0.3 9.564216 0.25 127.65963756
9 10 0.3 0.4 9.522341 0.35 143.509702757
9 10 0.4 0.5 9.609899 0.45 95.5784340046
9 10 0.5 0.6 9.558556 0.55 129.300150101
9 10 0.6 0.7 9.564612 0.65 118.860597939
9 10 0.7 0.8 9.575614 0.75 107.421000132
9 10 0.8 0.9 9.588856 0.85 114.388315798
9 10 0.9 1 9.474568 0.95 148.684427293
10 11 -1 -0.9 10.59041 -0.95 115.327427182
10 11 -0.9 -0.8 10.50544 -0.85 133.560442249
10 11 -0.8 -0.7 10.52522 -0.75 132.611045028
10 11 -0.7 -0.6 10.48844 -0.65 144.010798725
10 11 -0.6 -0.5 10.55384 -0.55 135.610039967
10 11 -0.5 -0.4 10.44983 -0.45 169.177074731
10 11 -0.4 -0.3 10.52545 -0.35 152.940648407
10 11 -0.3 -0.2 10.55217 -0.25 131.510267536
10 11 -0.2 -0.1 10.48129 -0.15 117.019498203
10 11 -0.1 0 10.49735 -0.05 121.051925873
10 11 0 0.1 10.49735 0.05 121.051925873
10 11 0.1 0.2 10.48129 0.15 117.019498203
10 11 0.2 0.3 10.55217 0.25 131.510267536
10 11 0.3 0.4 10.52545 0.35 152.940648407
10 11 0.4 0.5 10.44983 0.45 169.177074731
10 11 0.5 0.6 10.55384 0.55 135.610039967
10 11 0.6 0.7 10.48844 0.65 144.010798725
10 11 0.7 0.8 10.52522 0.75 132.611045028
10 11 0.8 0.9 10.50544 0.85 133.560442249
10 11 0.9 1 10.59041 0.95 115.327427182
11 12 -1 -0.9 11.5319 -0.95 182.918963439
11 12 -0.9 -0.8 11.52316 -0.85 136.479719337
11 12 -0.8 -0.7 11.49687 -0.75 176.359736625
11 12 -0.7 -0.6 11.46986 -0.65 164.469622808
11 12 -0.6 -0.5 11.5013 -0.55 154.948709635
11 12 -0.5 -0.4 11.5049 -0.45 147.908512787
11 12 -0.4 -0.3 11.52813 -0.35 145.902041467
11 12 -0.3 -0.2 11.47173 -0.25 160.691154834
11 12 -0.2 -0.1 11.42234 -0.15 166.229582218
11 12 -0.1 0 11.58129 -0.05 138.054786894
11 12 0 0.1 11.58129 0.05 138.054786894
11 12 0.1 0.2 11.42234 0.15 166.229582218
11 12 0.2 0.3 11.47173 0.25 160.691154834
11 12 0.3 0.4 11.52813 0.35 145.902041467
11 12 0.4 0.5 11.5049 0.45 147.908512787
11 12 0.5 0.6 11.5013 0.55 154.948709635
11 12 0.6 0.7 11.46986 0.65 164.469622808
11 12 0.7 0.8 11.49687 0.75 176.359736625
11 12 0.8 0.9 11.52316 0.85 136.479719337
11 12 0.9 1 11.5319 0.95 182.918963439
12 13 -1 -0.9 12.53726 -0.95 198.627748337
12 13 -0.9 -0.8 12.51932 -0.85 202.3279115
12 13 -0.8 -0.7 12.48644 -0.75 188.285451468
12 13 -0.7 -0.6 12.46246 -0.65 203.698965794
12 13 -0.6 -0.5 12.51655 -0.55 193.444417343
12 13 -0.5 -0.4 12.4803 -0.45 188.092961442
12 13 -0.4 -0.3 12.49137 -0.35 199.639846152
12 13 -0.3 -0.2 12.49823 -0.25 172.77050299
12 13 -0.2 -0.1 12.47496 -0.15 172.833893627
12 13 -0.1 0 12.49964 -0.05 176.441492659
12 13 0 0.1 12.49964 0.05 176.441492659
12 13 0.1 0.2 12.47496 0.15 172.833893627
12 13 0.2 0.3 12.49823 0.25 172.77050299
12 13 0.3 0.4 12.49137 0.35 199.639846152
12 13 0.4 0.5 12.4803 0.45 188.092961442
12 13 0.5 0.6 12.51655 0.55 193.444417343
12 13 0.6 0.7 12.46246 0.65 203.698965794
12 13 0.7 0.8 12.48644 0.75 188.285451468
12 13 0.8 0.9 12.51932 0.85 202.3279115
12 13 0.9 1 12.53726 0.95 198.627748337
13 14 -1 -0.9 13.51618 -0.95 213.201378044
13 14 -0.9 -0.8 13.51868 -0.85 185.936605694
13 14 -0.8 -0.7 13.50669 -0.75 246.869211462
13 14 -0.7 -0.6 13.51074 -0.65 218.046702783
13 14 -0.6 -0.5 13.53719 -0.55 170.893483878
13 14 -0.5 -0.4 13.44548 -0.45 185.819199014
13 14 -0.4 -0.3 13.50282 -0.35 229.997541455
13 14 -0.3 -0.2 13.51762 -0.25 257.479834143
13 14 -0.2 -0.1 13.50749 -0.15 250.674602103
13 14 -0.1 0 13.51147 -0.05 185.067294017
13 14 0 0.1 13.51147 0.05 185.067294017
13 14 0.1 0.2 13.50749 0.15 250.674602103
13 14 0.2 0.3 13.51762 0.25 257.479834143
13 14 0.3 0.4 13.50282 0.35 229.997541455
13 14 0.4 0.5 13.44548 0.45 185.819199014
13 14 0.5 0.6 13.53719 0.55 170.893483878
13 14 0.6 0.7 13.51074 0.65 218.046702783
13 14 0.7 0.8 13.50669 0.75 246.869211462
13 14 0.8 0.9 13.51868 0.85 185.936605694
13 14 0.9 1 13.51618 0.95 213.201378044
14 15 -1 -0.9 14.51707 -0.95 246.631096497
14 15 -0.9 -0.8 14.53278 -0.85 252.144047385
14 15 -0.8 -0.7 14.53237 -0.75 267.161934156
14 15 -0.7 -0.6 14.51499 -0.65 217.699270535
14 15 -0.6 -0.5 14.53877 -0.55 235.372633129
14 15 -0.5 -0.4 14.49763 -0.45 248.29730183
14 15 -0.4 -0.3 14.48045 -0.35 230.745113114
14 15 -0.3 -0.2 14.51226 -0.25 244.727671286
14 15 -0.2 -0.1 14.52444 -0.15 277.203428351
14 15 -0.1 0 14.49135 -0.05 257.914807238
14 15 0 0.1 14.49135 0.05 257.914807238
14 15 0.1 0.2 14.52444 0.15 277.203428351
14 15 0.2 0.3 14.51226 0.25 244.727671286
14 15 0.3 0.4 14.48045 0.35 230.745113114
14 15 0.4 0.5 14.49763 0.45 248.29730183
14 15 0.5 0.6 14.53877 0.55 235.372633129
14 15 0.6 0.7 14.51499 0.65 217.699270535
14 15 0.7 0.8 14.53237 0.75 267.161934156
14 15 0.8 0.9 14.53278 0.85 252.144047385
14 15 0.9 1 14.51707 0.95 246.631096497
15 16 -1 -0.9 15.5517 -0.95 247.919487985
15 16 -0.9 -0.8 15.50548 -0.85 272.544071496
15 16 -0.8 -0.7 15.50557 -0.75 256.14352759
15 16 -0.7 -0.6 15.52192 -0.65 261.1608775
15 16 -0.6 -0.5 15.49415 -0.55 257.041162978
15 16 -0.5 -0.4 15.52731 -0.45 281.402201204
15 16 -0.4 -0.3 15.48656 -0.35 273.157275419
15 16 -0.3 -0.2 15.49562 -0.25 264.138888363
15 16 -0.2 -0.1 15.50632 -0.15 299.178172326
15 16 -0.1 0 15.50453 -0.05 265.186862469
15 16 0 0.1 15.50453 0.05 265.186862469
15 16 0.1 0.2 15.50632 0.15 299.178172326
15 16 0.2 0.3 15.49562 0.25 264.138888363
15 16 0.3 0.4 15.48656 0.35 273.157275419
15 16 0.4 0.5 15.52731 0.45 281.402201204
15 16 0.5 0.6 15.49415 0.55 257.041162978
15 16 0.6 0.7 15.52192 0.65 261.1608775
15 16 0.7 0.8 15.50557 0.75 256.14352759
15 16 0.8 0.9 15.50548 0.85 272.544071496
15 16 0.9 1 15.5517 0.95 247.919487985
16 17 -1 -0.9 16.5012 -0.95 325.519903464
16 17 -0.9 -0.8 16.49977 -0.85 256.766019757
16 17 -0.8 -0.7 16.52685 -0.75 343.082909157
16 17 -0.7 -0.6 16.51131 -0.65 295.2148291
16 17 -0.6 -0.5 16.5345 -0.55 312.843067521
16 17 -0.5 -0.4 16.50761 -0.45 308.705554687
16 17 -0.4 -0.3 16.46225 -0.35 297.064731821
16 17 -0.3 -0.2 16.46932 -0.25 306.05168474
16 17 -0.2 -0.1 16.53133 -0.15 312.5184352
16 17 -0.1 0 16.54822 -0.05 285.131269163
16 17 0 0.1 16.54822 0.05 285.131269163
16 17 0.1 0.2 16.53133 0.15 312.5184352
16 17 0.2 0.3 16.46932 0.25 306.05168474
16 17 0.3 0.4 16.46225 0.35 297.064731821
16 17 0.4 0.5 16.50761 0.45 308.705554687
16 17 0.5 0.6 16.5345 0.55 312.843067521
16 17 0.6 0.7 16.51131 0.65 295.2148291
16 17 0.7 0.8 16.52685 0.75 343.082909157
16 17 0.8 0.9 16.49977 0.85 256.766019757
16 17 0.9 1 16.5012 0.95 325.519903464
17 18 -1 -0.9 17.51005 -0.95 364.060184189
17 18 -0.9 -0.8 17.49919 -0.85 360.215032313
17 18 -0.8 -0.7 17.52698 -0.75 361.464737955
17 18 -0.7 -0.6 17.53221 -0.65 375.895031987
17 18 -0.6 -0.5 17.53146 -0.55 294.872965012
17 18 -0.5 -0.4 17.51117 -0.45 354.361920892
17 18 -0.4 -0.3 17.54916 -0.35 331.793775677
17 18 -0.3 -0.2 17.48591 -0.25 354.341792151
17 18 -0.2 -0.1 17.56205 -0.15 307.48684762
17 18 -0.1 0 17.48526 -0.05 341.128638285
17 18 0 0.1 17.48526 0.05 341.128638285
17 18 0.1 0.2 17.56205 0.15 307.48684762
17 18 0.2 0.3 17.48591 0.25 354.341792151
17 18 0.3 0.4 17.54916 0.35 331.793775677
17 18 0.4 0.5 17.51117 0.45 354.361920892
17 18 0.5 0.6 17.53146 0.55 294.872965012
17 18 0.6 0.7 17.53221 0.65 375.895031987
17 18 0.7 0.8 17.52698 0.75 361.464737955
17 18 0.8 0.9 17.49919 0.85 360.215032313
17 18 0.9 1 17.51005 0.95 364.060184189
18 19 -1 -0.9 18.50577 -0.95 381.582290044
18 19 -0.9 -0.8 18.50518 -0.85 345.288816362
18 19 -0.8 -0.7 18.46329 -0.75 308.188870272
18 19 -0.7 -0.6 18.54031 -0.65 360.939590534
18 19 -0.6 -0.5 18.48088 -0.55 348.347625201
18 19 -0.5 -0.4 18.48064 -0.45 347.750432127
18 19 -0.4 -0.3 18.5263 -0.35 330.830406096
18 19 -0.3 -0.2 18.51099 -0.25 322.767021843
18 19 -0.2 -0.1 18.52865 -0.15 368.402921969
18 19 -0.1 0 18.46768 -0.05 361.824330794
18 19 0 0.1 18.46768 0.05 361.824330794
18 19 0.1 0.2 18.52865 0.15 368.402921969
18 19 0.2 0.3 18.51099 0.25 322.767021843
18 19 0.3 0.4 18.5263 0.35 330.830406096
18 19 0.4 0.5 18.48064 0.45 347.750432127
18 19 0.5 0.6 18.48088 0.55 348.347625201
18 19 0.6 0.7 18.54031 0.65 360.939590534
18 19 0.7 0.8 18.46329 0.75 308.188870272
18 19 0.8 0.9 18.50518 0.85 345.288816362
18 19 0.9 1 18.50577 0.95 381.582290044
19 20 -1 -0.9 19.50833 -0.95 427.391975081
19 20 -0.9 -0.8 19.5189 -0.85 383.473785201
19 20 -0.8 -0.7 19.48137 -0.75 390.100241278
19 20 -0.7 -0.6 19.51364 -0.65 398.756968326
19 20 -0.6 -0.5 19.50087 -0.55 364.630690807
19 20 -0.5 -0.4 19.49096 -0.45 383.497459778
19 20 -0.4 -0.3 19.52283 -0.35 441.34340413
19 20 -0.3 -0.2 19.50219 -0.25 402.36859515
19 20 -0.2 -0.1 19.52579 -0.15 378.101993352
19 20 -0.1 0 19.49538 -0.05 405.116938081
19 20 0 0.1 19.49538 0.05 405.116938081
19 20 0.1 0.2 19.52579 0.15 378.101993352
19 20 0.2 0.3 19.50219 0.25 402.36859515
19 20 0.3 0.4 19.52283 0.35 441.34340413
19 20 0.4 0.5 19.49096 0.45 383.497459778
19 20 0.5 0.6 19.50087 0.55 364.630690807
19 20 0.6 0.7 19.51364 0.65 398.756968326
19 20 0.7 0.8 19.48137 0.75 390.100241278
19 20 0.8 0.9 19.5189 0.85 383.473785201
19 20 0.9 1 19.50833 0.95 427.391975081
20 21 -1 -0.9 20.50585 -0.95 399.125078148
20 21 -0.9 -0.8 20.51612 -0.85 397.797837467
20 21 -0.8 -0.7 20.53097 -0.75 434.032694895
20 21 -0.7 -0.6 20.51558 -0.65 414.244021097
20 21 -0.6 -0.5 20.4569 -0.55 425.74094128
20 21 -0.5 -0.4 20.51386 -0.45 366.028229813
20 21 -0.4 -0.3 20.49569 -0.35 393.976382651
20 21 -0.3 -0.2 20.51701 -0.25 445.283380125
20 21 -0.2 -0.1 20.522 -0.15 473.849555184
20 21 -0.1 0 20.52687 -0.05 488.290824733
20 21 0 0.1 20.52687 0.05 488.290824733
20 21 0.1 0.2 20.522 0.15 473.849555184
20 21 0.2 0.3 20.51701 0.25 445.283380125
20 21 0.3 0.4 20.49569 0.35 393.976382651
20 21 0.4 0.5 20.51386 0.45 366.028229813
20 21 0.5 0.6 20.4569 0.55 425.74094128
20 21 0.6 0.7 20.51558 0.65 414.244021097
20 21 0.7 0.8 20.53097 0.75 434.032694895
20 21 0.8 0.9 20.51612 0.85 397.797837467
20 21 0.9 1 20.50585 0.95 399.125078148
21 22 -1 -0.9 21.49825 -0.95 488.581653614
21 22 -0.9 -0.8 21.52129 -0.85 471.294614003
21 22 -0.8 -0.7 21.51994 -0.75 482.325352919
21 22 -0.7 -0.6 21.51331 -0.65 417.474720528
21 22 -0.6 -0.5 21.49657 -0.55 463.460017159
21 22 -0.5 -0.4 21.52634 -0.45 469.533839801
21 22 -0.4 -0.3 21.55981 -0.35 424.382127257
21 22 -0.3 -0.2 21.50514 -0.25 463.814528152
21 22 -0.2 -0.1 21.53762 -0.15 485.435535116
21 22 -0.1 0 21.56003 -0.05 466.339652986
21 22 0 0.1 21.56003 0.05 466.339652986
21 22 0.1 0.2 21.53762 0.15 485.435535116
21 22 0.2 0.3 21.50514 0.25 463.814528152
21 22 0.3 0.4 21.55981 0.35 424.382127257
21 22 0.4 0.5 21.52634 0.45 469.533839801
21 22 0.5 0.6 21.49657 0.55 463.460017159
21 22 0.6 0.7 21.51331 0.65 417.474720528
21 22 0.7 0.8 21.51994 0.75 482.325352919
21 22 0.8 0.9 21.52129 0.85 471.294614003
21 22 0.9 1 21.49825 0.95 488.581653614
22 23 -1 -0.9 22.52991 -0.95 489.785656089
22 23 -0.9 -0.8 22.52734 -0.85 441.222595892
22 23 -0.8 -0.7 22.51977 -0.75 536.726758007
22 23 -0.7 -0.6 22.4842 -0.65 509.177795443
22 23 -0.6 -0.5 22.48637 -0.55 568.143427081
22 23 -0.5 -0.4 22.51068 -0.45 515.408526153
22 23 -0.4 -0.3 22.51796 -0.35 509.910180889
22 23 -0.3 -0.2 22.515 -0.25 494.877214219
22 23 -0.2 -0.1 22.48283 -0.15 524.092581999
22 23 -0.1 0 22.50769 -0.05 460.613983324
22 23 0 0.1 22.50769 0.05 460.613983324
22 23 0.1 0.2 22.48283 0.15 524.092581999
22 23 0.2 0.3 22.515 0.25 494.877214219
22 23 0.3 0.4 22.51796 0.35 509.910180889
22 23 0.4 0.5 22.51068 0.45 515.408526153
22 23 0.5 0.6 22.48637 0.55 568.143427081
22 23 0.6 0.7 22.4842 0.65 509.177795443
22 23 0.7 0.8 22.51977 0.75 536.726758007
22 23 0.8 0.9 22.52734 0.85 441.222595892
22 23 0.9 1 22.52991 0.95 489.785656089
23 24 -1 -0.9 23.50441 -0.95 532.903166793
23 24 -0.9 -0.8 23.51626 -0.85 570.088584316
23 24 -0.8 -0.7 23.51799 -0.75 518.148650358
23 24 -0.7 -0.6 23.51526 -0.65 503.274570929
23 24 -0.6 -0.5 23.52439 -0.55 527.502821689
23 24 -0.5 -0.4 23.52507 -0.45 507.133123441
23 24 -0.4 -0.3 23.54672 -0.35 523.672965962
23 24 -0.3 -0.2 23.48871 -0.25 586.019475538
23 24 -0.2 -0.1 23.4991 -0.15 584.475956318
23 24 -0.1 0 23.46551 -0.05 479.116849072
23 24 0 0.1 23.46551 0.05 479.116849072
23 24 0.1 0.2 23.4991 0.15 584.475956318
23 24 0.2 0.3 23.48871 0.25 586.019475538
23 24 0.3 0.4 23.54672 0.35 523.672965962
23 24 0.4 0.5 23.52507 0.45 507.133123441
23 24 0.5 0.6 23.52439 0.55 527.502821689
23 24 0.6 0.7 23.51526 0.65 503.274570929
23 24 0.7 0.8 23.51799 0.75 518.148650358
23 24 0.8 0.9 23.51626 0.85 570.088584316
23 24 0.9 1 23.50441 0.95 532.903166793
24 25 -1 -0.9 24.51433 -0.95 587.731635699
24 25 -0.9 -0.8 24.50828 -0.85 541.218432173
24 25 -0.8 -0.7 24.49929 -0.75 636.798329035
24 25 -0.7 -0.6 24.52424 -0.65 501.34673057
24 25 -0.6 -0.5 24.50451 -0.55 548.521863402
24 25 -0.5 -0.4 24.50601 -0.45 543.817223398
24 25 -0.4 -0.3 24.47517 -0.35 532.368388493
24 25 -0.3 -0.2 24.50898 -0.25 637.902812355
24 25 -0.2 -0.1 24.53716 -0.15 609.011115394
24 25 -0.1 0 24.50223 -0.05 503.969117011
24 25 0 0.1 24.50223 0.05 503.969117011
24 25 0.1 0.2 24.53716 0.15 609.011115394
24 25 0.2 0.3 24.50898 0.25 637.902812355
24 25 0.3 0.4 24.47517 0.35 532.368388493
24 25 0.4 0.5 24.50601 0.45 543.817223398
24 25 0.5 0.6 24.50451 0.55 548.521863402
24 25 0.6 0.7 24.52424 0.65 501.34673057
24 25 0.7 0.8 24.49929 0.75 636.798329035
24 25 0.8 0.9 24.50828 0.85 541.218432173
24 25 0.9 1 24.51433 0.95 587.731635699
25 26 -1 -0.9 25.505 -0.95 507.825720337
25 26 -0.9 -0.8 25.50636 -0.85 508.657199123
25 26 -0.8 -0.7 25.49202 -0.75 658.065497627
25 26 -0.7 -0.6 25.50618 -0.65 571.765323745
25 26 -0.6 -0.5 25.50145 -0.55 522.181822088
25 26 -0.5 -0.4 25.50489 -0.45 601.871586235
25 26 -0.4 -0.3 25.50455 -0.35 603.925528529
25 26 -0.3 -0.2 25.51116 -0.25 590.355531622
25 26 -0.2 -0.1 25.50617 -0.15 603.735466459
25 26 -0.1 0 25.49236 -0.05 612.99132084
25 26 0 0.1 25.49236 0.05 612.99132084
25 26 0.1 0.2 25.50617 0.15 603.735466459
25 26 0.2 0.3 25.51116 0.25 590.355531622
25 26 0.3 0.4 25.50455 0.35 603.925528529
25 26 0.4 0.5 25.50489 0.45 601.871586235
25 26 0.5 0.6 25.50145 0.55 522.181822088
25 26 0.6 0.7 25.50618 0.65 571.765323745
25 26 0.7 0.8 25.49202 0.75 658.065497627
25 26 0.8 0.9 25.50636 0.85 508.657199123
25 26 0.9 1 25.505 0.95 507.825720337
26 27 -1 -0.9 26.48869 -0.95 701.710391698
26 27 -0.9 -0.8 26.50299 -0.85 620.027997363
26 27 -0.8 -0.7 26.5132 -0.75 595.134248047
26 27 -0.7 -0.6 26.47499 -0.65 621.809222065
26 27 -0.6 -0.5 26.47152 -0.55 620.557441973
26 27 -0.5 -0.4 26.50881 -0.45 620.726982019
26 27 -0.4 -0.3 26.4917 -0.35 611.659812341
26 27 -0.3 -0.2 26.49832 -0.25 707.03106884
26 27 -0.2 -0.1 26.52678 -0.15 601.831263429
26 27 -0.1 0 26.4985 -0.05 686.410922184
26 27 0 0.1 26.4985 0.05 686.410922184
26 27 0.1 0.2 26.52678 0.15 601.831263429
26 27 0.2 0.3 26.49832 0.25 707.03106884
26 27 0.3 0.4 26.4917 0.35 611.659812341
26 27 0.4 0.5 26.50881 0.45 620.726982019
26 27 0.5 0.6 26.47152 0.55 620.557441973
26 27 0.6 0.7 26.47499 0.65 621.809222065
26 27 0.7 0.8 26.5132 0.75 595.134248047
26 27 0.8 0.9 26.50299 0.85 620.027997363
26 27 0.9 1 26.48869 0.95 701.710391698
27 28 -1 -0.9 27.51595 -0.95 669.752885162
27 28 -0.9 -0.8 27.49528 -0.85 688.356919212
27 28 -0.8 -0.7 27.5346 -0.75 704.023626769
27 28 -0.7 -0.6 27.48939 -0.65 707.711910429
27 28 -0.6 -0.5 27.50602 -0.55 649.151726583
27 28 -0.5 -0.4 27.50944 -0.45 710.528005452
27 28 -0.4 -0.3 27.51142 -0.35 714.123915309
27 28 -0.3 -0.2 27.50833 -0.25 625.856497768
27 28 -0.2 -0.1 27.52509 -0.15 734.598470288
27 28 -0.1 0 27.50452 -0.05 636.344676472
27 28 0 0.1 27.50452 0.05 636.344676472
27 28 0.1 0.2 27.52509 0.15 734.598470288
27 28 0.2 0.3 27.50833 0.25 625.856497768
27 28 0.3 0.4 27.51142 0.35 714.123915309
27 28 0.4 0.5 27.50944 0.45 710.528005452
27 28 0.5 0.6 27.50602 0.55 649.151726583
27 28 0.6 0.7 27.48939 0.65 707.711910429
27 28 0.7 0.8 27.5346 0.75 704.023626769
27 28 0.8 0.9 27.49528 0.85 688.356919212
27 28 0.9 1 27.51595 0.95 669.752885162
28 29 -1 -0.9 28.50992 -0.95 771.413509971
28 29 -0.9 -0.8 28.48973 -0.85 777.434864243
28 29 -0.8 -0.7 28.51086 -0.75 695.156900231
28 29 -0.7 -0.6 28.51203 -0.65 690.466896512
28 29 -0.6 -0.5 28.49793 -0.55 775.227960802
28 29 -0.5 -0.4 28.50092 -0.45 664.482527788
28 29 -0.4 -0.3 28.48895 -0.35 671.526038754
28 29 -0.3 -0.2 28.49868 -0.25 720.348513437
28 29 -0.2 -0.1 28.49654 -0.15 681.960443212
28 29 -0.1 0 28.52768 -0.05 778.593387527
28 29 0 0.1 28.52768 0.05 778.593387527
28 29 0.1 0.2 28.49654 0.15 681.960443212
28 29 0.2 0.3 28.49868 0.25 720.348513437
28 29 0.3 0.4 28.48895 0.35 671.526038754
28 29 0.4 0.5 28.50092 0.45 664.482527788
28 29 0.5 0.6 28.49793 0.55 775.227960802
28 29 0.6 0.7 28.51203 0.65 690.466896512
28 29 0.7 0.8 28.51086 0.75 695.156900231
28 29 0.8 0.9 28.48973 0.85 777.434864243
28 29 0.9 1 28.50992 0.95 771.413509971
29 30 -1 -0.9 29.52139 -0.95 731.466245712
29 30 -0.9 -0.8 29.50572 -0.85 721.617342549
29 30 -0.8 -0.7 29.50738 -0.75 739.354738607
29 30 -0.7 -0.6 29.48981 -0.65 644.452695151
29 30 -0.6 -0.5 29.51795 -0.55 664.006947094
29 30 -0.5 -0.4 29.49825 -0.45 722.077754006
29 30 -0.4 -0.3 29.50728 -0.35 820.14346436
29 30 -0.3 -0.2 29.50843 -0.25 799.301514771
29 30 -0.2 -0.1 29.49585 -0.15 761.5676799
29 30 -0.1 0 29.51924 -0.05 803.473560549
29 30 0 0.1 29.51924 0.05 803.473560549
29 30 0.1 0.2 29.49585 0.15 761.5676799
29 30 0.2 0.3 29.50843 0.25 799.301514771
29 30 0.3 0.4 29.50728 0.35 820.14346436
29 30 0.4 0.5 29.49825 0.45 722.077754006
29 30 0.5 0.6 29.51795 0.55 664.006947094
29 30 0.6 0.7 29.48981 0.65 644.452695151
29 30 0.7 0.8 29.50738 0.75 739.354738607
29 30 0.8 0.9 29.50572 0.85 721.617342549
29 30 0.9 1 29.52139 0.95 731.466245712
30 31 -1 -0.9 30.50028 -0.95 867.790271985
30 31 -0.9 -0.8 30.54055 -0.85 811.192556895
30 31 -0.8 -0.7 30.49982 -0.75 776.138408613
30 31 -0.7 -0.6 30.49005 -0.65 809.009413591
30 31 -0.6 -0.5 30.4883 -0.55 727.293984843
30 31 -0.5 -0.4 30.50199 -0.45 762.226586728
30 31 -0.4 -0.3 30.48924 -0.35 794.670096977
30 31 -0.3 -0.2 30.49884 -0.25 789.287247859
30 31 -0.2 -0.1 30.5121 -0.15 827.372818692
30 31 -0.1 0 30.5007 -0.05 928.475346496
30 31 0 0.1 30.5007 0.05 928.475346496
30 31 0.1 0.2 30.5121 0.15 827.372818692
30 31 0.2 0.3 30.49884 0.25 789.287247859
30 31 0.3 0.4 30.48924 0.35 794.670096977
30 31 0.4 0.5 30.50199 0.45 762.226586728
30 31 0.5 0.6 30.4883 0.55 727.293984843
30 31 0.6 0.7 30.49005 0.65 809.009413591
30 31 0.7 0.8 30.49982 0.75 776.138408613
30 31 0.8 0.9 30.54055 0.85 811.192556895
30 31 0.9 1 30.50028 0.95 867.790271985
31 32 -1 -0.9 31.5056 -0.95 940.867192706
31 32 -0.9 -0.8 31.49655 -0.85 864.902105482
31 32 -0.8 -0.7 31.4749 -0.75 785.37030605
31 32 -0.7 -0.6 31.52705 -0.65 834.212300156
31 32 -0.6 -0.5 31.50883 -0.55 830.815692675
31 32 -0.5 -0.4 31.47209 -0.45 821.829277024
31 32 -0.4 -0.3 31.51527 -0.35 763.118442152
31 32 -0.3 -0.2 31.51466 -0.25 895.457083286
31 32 -0.2 -0.1 31.51497 -0.15 805.523351112
31 32 -0.1 0 31.4912 -0.05 886.000164376
31 32 0 0.1 31.4912 0.05 886.000164376
31 32 0.1 0.2 31.51497 0.15 805.523351112
31 32 0.2 0.3 31.51466 0.25 895.457083286
31 32 0.3 0.4 31.51527 0.35 763.118442152
31 32 0.4 0.5 31.47209 0.45 821.829277024
31 32 0.5 0.6 31.50883 0.55 830.815692675
31 32 0.6 0.7 31.52705 0.65 834.212300156
31 32 0.7 0.8 31.4749 0.75 785.37030605
31 32 0.8 0.9 31.49655 0.85 864.902105482
31 32 0.9 1 31.5056 0.95 940.867192706
32 33 -1 -0.9 32.48442 -0.95 901.801762915
32 33 -0.9 -0.8 32.50011 -0.85 853.0993293
32 33 -0.8 -0.7 32.51501 -0.75 789.859449826
32 33 -0.7 -0.6 32.51763 -0.65 787.994602077
32 33 -0.6 -0.5 32.50039 -0.55 781.702338641
32 33 -0.5 -0.4 32.51481 -0.45 849.728574533
32 33 -0.4 -0.3 32.47771 -0.35 858.720852819
32 33 -0.3 -0.2 32.4853 -0.25 884.419971625
32 33 -0.2 -0.1 32.48715 -0.15 877.652006432
32 33 -0.1 0 32.4884 -0.05 1039.11397735
32 33 0 0.1 32.4884 0.05 1039.11397735
32 33 0.1 0.2 32.48715 0.15 877.652006432
32 33 0.2 0.3 32.4853 0.25 884.419971625
32 33 0.3 0.4 32.47771 0.35 858.720852819
32 33 0.4 0.5 32.51481 0.45 849.728574533
32 33 0.5 0.6 32.50039 0.55 781.702338641
32 33 0.6 0.7 32.51763 0.65 787.994602077
32 33 0.7 0.8 32.51501 0.75 789.859449826
32 33 0.8 0.9 32.50011 0.85 853.0993293
32 33 0.9 1 32.48442 0.95 901.801762915
33 34 -1 -0.9 33.50467 -0.95 916.093572329
33 34 -0.9 -0.8 33.48796 -0.85 927.335931821
33 34 -0.8 -0.7 33.53829 -0.75 801.954928752
33 34 -0.7 -0.6 33.52884 -0.65 798.87148718
33 34 -0.6 -0.5 33.50111 -0.55 884.657614537
33 34 -0.5 -0.4 33.4901 -0.45 859.695772198
33 34 -0.4 -0.3 33.49368 -0.35 884.693819615
33 34 -0.3 -0.2 33.49493 -0.25 908.492582256
33 34 -0.2 -0.1 33.49361 -0.15 926.723262994
33 34 -0.1 0 33.52837 -0.05 913.462308655
33 34 0 0.1 33.52837 0.05 913.462308655
33 34 0.1 0.2 33.49361 0.15 926.723262994
33 34 0.2 0.3 33.49493 0.25 908.492582256
33 34 0.3 0.4 33.49368 0.35 884.693819615
33 34 0.4 0.5 33.4901 0.45 859.695772198
33 34 0.5 0.6 33.50111 0.55 884.657614537
33 34 0.6 0.7 33.52884 0.65 798.87148718
33 34 0.7 0.8 33.53829 0.75 801.954928752
33 34 0.8 0.9 33.48796 0.85 927.335931821
33 34 0.9 1 33.50467 0.95 916.093572329
34 35 -1 -0.9 34.50244 -0.95 989.820879457
34 35 -0.9 -0.8 34.52611 -0.85 965.636809217
34 35 -0.8 -0.7 34.51395 -0.75 959.165476308
34 35 -0.7 -0.6 34.47589 -0.65 961.632403013
34 35 -0.6 -0.5 34.4758 -0.55 959.018084393
34 35 -0.5 -0.4 34.4919 -0.45 949.226503245
34 35 -0.4 -0.3 34.49963 -0.35 907.797117375
34 35 -0.3 -0.2 34.50495 -0.25 935.90877374
34 35 -0.2 -0.1 34.4959 -0.15 834.363002736
34 35 -0.1 0 34.49578 -0.05 937.956773352
34 35 0 0.1 34.49578 0.05 937.956773352
34 35 0.1 0.2 34.4959 0.15 834.363002736
34 35 0.2 0.3 34.50495 0.25 935.90877374
34 35 0.3 0.4 34.49963 0.35 907.797117375
34 35 0.4 0.5 34.4919 0.45 949.226503245
34 35 0.5 0.6 34.4758 0.55 959.018084393
34 35 0.6 0.7 34.47589 0.65 961.632403013
34 35 0.7 0.8 34.51395 0.75 959.165476308
34 35 0.8 0.9 34.52611 0.85 965.636809217
34 35 0.9 1 34.50244 0.95 989.820879457
35 36 -1 -0.9 35.50083 -0.95 1070.09168657
35 36 -0.9 -0.8 35.47901 -0.85 931.794654336
35 36 -0.8 -0.7 35.507 -0.75 907.99395357
35 36 -0.7 -0.6 35.49913 -0.65 891.416123096
35 36 -0.6 -0.5 35.49689 -0.55 880.174701245
35 36 -0.5 -0.4 35.49873 -0.45 905.213750079
35 36 -0.4 -0.3 35.52171 -0.35 916.21109451
35 36 -0.3 -0.2 35.51273 -0.25 910.514017274
35 36 -0.2 -0.1 35.51366 -0.15 969.654948703
35 36 -0.1 0 35.50354 -0.05 969.062604408
35 36 0 0.1 35.50354 0.05 969.062604408
35 36 0.1 0.2 35.51366 0.15 969.654948703
35 36 0.2 0.3 35.51273 0.25 910.514017274
35 36 0.3 0.4 35.52171 0.35 916.21109451
35 36 0.4 0.5 35.49873 0.45 905.213750079
35 36 0.5 0.6 35.49689 0.55 880.174701245
35 36 0.6 0.7 35.49913 0.65 891.416123096
35 36 0.7 0.8 35.507 0.75 907.99395357
35 36 0.8 0.9 35.47901 0.85 931.794654336
35 36 0.9 1 35.50083 0.95 1070.09168657
36 37 -1 -0.9 36.50957 -0.95 1201.51378863
36 37 -0.9 -0.8 36.4931 -0.85 972.625569051
36 37 -0.8 -0.7 36.50169 -0.75 885.587648747
36 37 -0.7 -0.6 36.50852 -0.65 1073.45444656
36 37 -0.6 -0.5 36.49653 -0.55 1007.44671609
36 37 -0.5 -0.4 36.50128 -0.45 945.298658644
36 37 -0.4 -0.3 36.49457 -0.35 962.892178015
36 37 -0.3 -0.2 36.48661 -0.25 952.247003359
36 37 -0.2 -0.1 36.50243 -0.15 1087.56135895
36 37 -0.1 0 36.49902 -0.05 1051.09119113
36 37 0 0.1 36.49902 0.05 1051.09119113
36 37 0.1 0.2 36.50243 0.15 1087.56135895
36 37 0.2 0.3 36.48661 0.25 952.247003359
36 37 0.3 0.4 36.49457 0.35 962.892178015
36 37 0.4 0.5 36.50128 0.45 945.298658644
36 37 0.5 0.6 36.49653 0.55 1007.44671609
36 37 0.6 0.7 36.50852 0.65 1073.45444656
36 37 0.7 0.8 36.50169 0.75 885.587648747
36 37 0.8 0.9 36.4931 0.85 972.625569051
36 37 0.9 1 36.50957 0.95 1201.51378863
37 38 -1 -0.9 37.50691 -0.95 1116.57730661
37 38 -0.9 -0.8 37.519 -0.85 1069.90583099
37 38 -0.8 -0.7 37.49631 -0.75 968.914926886
37 38 -0.7 -0.6 37.49802 -0.65 1145.47407158
37 38 -0.6 -0.5 37.51286 -0.55 967.035630521
37 38 -0.5 -0.4 37.51825 -0.45 903.967054793
37 38 -0.4 -0.3 37.50616 -0.35 1012.86340411
37 38 -0.3 -0.2 37.48966 -0.25 1079.53925433
37 38 -0.2 -0.1 37.5049 -0.15 1137.6258484
37 38 -0.1 0 37.51434 -0.05 1165.99288324
37 38 0 0.1 37.51434 0.05 1165.99288324
37 38 0.1 0.2 37.5049 0.15 1137.6258484
37 38 0.2 0.3 37.48966 0.25 1079.53925433
37 38 0.3 0.4 37.50616 0.35 1012.86340411
37 38 0.4 0.5 37.51825 0.45 903.967054793
37 38 0.5 0.6 37.51286 0.55 967.035630521
37 38 0.6 0.7 37.49802 0.65 1145.47407158
37 38 0.7 0.8 37.49631 0.75 968.914926886
37 38 0.8 0.9 37.519 0.85 1069.90583099
37 38 0.9 1 37.50691 0.95 1116.57730661
38 39 -1 -0.9 38.50395 -0.95 1158.36996214
38 39 -0.9 -0.8 38.49399 -0.85 1059.37460662
38 39 -0.8 -0.7 38.49043 -0.75 1054.02941621
38 39 -0.7 -0.6 38.4765 -0.65 1078.29946689
38 39 -0.6 -0.5 38.48967 -0.55 915.902575766
38 39 -0.5 -0.4 38.48177 -0.45 1064.7322552
38 39 -0.4 -0.3 38.48008 -0.35 1066.2865501
38 39 -0.3 -0.2 38.49039 -0.25 1019.04659764
38 39 -0.2 -0.1 38.51089 -0.15 1044.91346148
38 39 -0.1 0 38.49913 -0.05 1184.63666154
38 39 0 0.1 38.49913 0.05 1184.63666154
38 39 0.1 0.2 38.51089 0.15 1044.91346148
38 39 0.2 0.3 38.49039 0.25 1019.04659764
38 39 0.3 0.4 38.48008 0.35 1066.2865501
38 39 0.4 0.5 38.48177 0.45 1064.7322552
38 39 0.5 0.6 38.48967 0.55 915.902575766
38 39 0.6 0.7 38.4765 0.65 1078.29946689
38 39 0.7 0.8 38.49043 0.75 1054.02941621
38 39 0.8 0.9 38.49399 0.85 1059.37460662
38 39 0.9 1 38.50395 0.95 1158.36996214
39 40 -1 -0.9 39.52152 -0.95 1144.89198791
39 40 -0.9 -0.8 39.50561 -0.85 1107.64268137
39 40 -0.8 -0.7 39.49992 -0.75 1097.51702838
39 40 -0.7 -0.6 39.50509 -0.65 1159.75393172
39 40 -0.6 -0.5 39.48003 -0.55 1091.19451308
39 40 -0.5 -0.4 39.52062 -0.45 1020.02499029
39 40 -0.4 -0.3 39.50534 -0.35 1058.40449859
39 40 -0.3 -0.2 39.49013 -0.25 1072.63371521
39 40 -0.2 -0.1 39.49256 -0.15 1176.85967707
39 40 -0.1 0 39.48666 -0.05 1170.94138088
39 40 0 0.1 39.48666 0.05 1170.94138088
39 40 0.1 0.2 39.49256 0.15 1176.85967707
39 40 0.2 0.3 39.49013 0.25 1072.63371521
39 40 0.3 0.4 39.50534 0.35 1058.40449859
39 40 0.4 0.5 39.52062 0.45 1020.02499029
39 40 0.5 0.6 39.48003 0.55 1091.19451308
39 40 0.6 0.7 39.50509 0.65 1159.75393172
39 40 0.7 0.8 39.49992 0.75 1097.51702838
39 40 0.8 0.9 39.50561 0.85 1107.64268137
39 40 0.9 1 39.52152 0.95 1144.89198791
40 41 -1 -0.9 40.51037 -0.95 1303.74598606
40 41 -0.9 -0.8 40.49569 -0.85 1192.01451348
40 41 -0.8 -0.7 40.50099 -0.75 1057.17912313
40 41 -0.7 -0.6 40.50016 -0.65 1184.50098166
40 41 -0.6 -0.5 40.50285 -0.55 1044.6356617
40 41 -0.5 -0.4 40.53327 -0.45 990.873001889
40 41 -0.4 -0.3 40.5068 -0.35 1133.54662899
40 41 -0.3 -0.2 40.49753 -0.25 1114.16713231
40 41 -0.2 -0.1 40.50268 -0.15 1174.19994702
40 41 -0.1 0 40.51277 -0.05 1352.86051332
40 41 0 0.1 40.51277 0.05 1352.86051332
40 41 0.1 0.2 40.50268 0.15 1174.19994702
40 41 0.2 0.3 40.49753 0.25 1114.16713231
40 41 0.3 0.4 40.5068 0.35 1133.54662899
40 41 0.4 0.5 40.53327 0.45 990.873001889
40 41 0.5 0.6 40.50285 0.55 1044.6356617
40 41 0.6 0.7 40.50016 0.65 1184.50098166
40 41 0.7 0.8 40.50099 0.75 1057.17912313
40 41 0.8 0.9 40.49569 0.85 1192.01451348
40 41 0.9 1 40.51037 0.95 1303.74598606
