#norm = 3982800.3341146586
#edges = (np.linspace(1, 41, 41), np.linspace(-1, 1, 21))
#s_low s_high mu_low mu_high s mu wcounts
1 2 -1 -0.9 1.656031 -0.95 3.2
1 2 -0.9 -0.8 1.096229 -0.85 4.26666666667
1 2 -0.8 -0.7 1.595318 -0.75 31.5977878331
1 2 -0.7 -0.6 1.889683 -0.65 9.49450549451
1 2 -0.6 -0.5 nan -0.55 0
1 2 -0.5 -0.4 1.574352 -0.45 10.1647058824
1 2 -0.4 -0.3 nan -0.35 0
1 2 -0.3 -0.2 1.827217 -0.25 7.55555555556
1 2 -0.2 -0.1 1.870258 -0.15 2.66666666667
1 2 -0.1 0 nan -0.05 0
1 2 0 0.1 1.708918 0.05 3.04761904762
1 2 0.1 0.2 1.597928 0.15 15.2270531401
1 2 0.2 0.3 1.682591 0.25 15.580952381
1 2 0.3 0.4 1.455056 0.35 10.8350877193
1 2 0.4 0.5 1.022542 0.45 4.57142857143
1 2 0.5 0.6 1.875329 0.55 11.2941176471
1 2 0.6 0.7 1.314303 0.65 4
1 2 0.7 0.8 1.172619 0.75 4
1 2 0.8 0.9 1.56894 0.85 4
1 2 0.9 1 1.393311 0.95 8.38095238095
2 3 -1 -0.9 2.869135 -0.95 12.0562038581
2 3 -0.9 -0.8 2.615018 -0.85 14.9714285714
2 3 -0.8 -0.7 2.520188 -0.75 14.6666666667
2 3 -0.7 -0.6 2.761126 -0.65 14.0659340659
2 3 -0.6 -0.5 2.732476 -0.55 20.049068964
2 3 -0.5 -0.4 2.666244 -0.45 7.04761904762
2 3 -0.4 -0.3 2.696593 -0.35 7.58974358974
2 3 -0.3 -0.2 2.394996 -0.25 10.9874686717
2 3 -0.2 -0.1 2.556679 -0.15 9.09803921569
2 3 -0.1 0 2.707829 -0.05 17.6005888848
2 3 0 0.1 2.568731 0.05 7.32026143791
2 3 0.1 0.2 2.523837 0.15 14.1333333333
2 3 0.2 0.3 2.898967 0.25 16.2091503268
2 3 0.3 0.4 2.438601 0.35 22.0103143234
2 3 0.4 0.5 2.454002 0.45 14.8139812447
2 3 0.5 0.6 2.731128 0.55 14.4965079365
2 3 0.6 0.7 2.632069 0.65 18.2741066714
2 3 0.7 0.8 2.461196 0.75 19.9492063492
2 3 0.8 0.9 2.619133 0.85 34.5103785104
2 3 0.9 1 2.972091 0.95 4.57142857143
3 4 -1 -0.9 3.533207 -0.95 27.3577733996
3 4 -0.9 -0.8 3.591357 -0.85 30.5646353646
3 4 -0.8 -0.7 3.662278 -0.75 27.358356676
3 4 -0.7 -0.6 3.514619 -0.65 22.2118326118
3 4 -0.6 -0.5 3.476144 -0.55 17.5271512114
3 4 -0.5 -0.4 3.536544 -0.45 5.12820512821
3 4 -0.4 -0.3 3.485253 -0.35 34.8179754198
3 4 -0.3 -0.2 3.603884 -0.25 33.0065162907
3 4 -0.2 -0.1 3.721373 -0.15 22.4160401003
3 4 -0.1 0 3.508844 -0.05 25.8913165266
3 4 0 0.1 3.545071 0.05 48.2005591662
3 4 0.1 0.2 3.549302 0.15 19.6877162054
3 4 0.2 0.3 3.409272 0.25 17.0980392157
3 4 0.3 0.4 3.427916 0.35 18.139309057
3 4 0.4 0.5 3.497028 0.45 37.6253575114
3 4 0.5 0.6 3.486199 0.55 34.6065162907
3 4 0.6 0.7 3.48754 0.65 25.754119469
3 4 0.7 0.8 3.548927 0.75 21.3874686717
3 4 0.8 0.9 3.442723 0.85 45.8089874768
3 4 0.9 1 3.498525 0.95 20.1611721612
4 5 -1 -0.9 4.548585 -0.95 26.2524805232
4 5 -0.9 -0.8 4.400456 -0.85 23.6246981089
4 5 -0.8 -0.7 4.559731 -0.75 29.9128061481
4 5 -0.7 -0.6 4.64887 -0.65 50.5642930857
4 5 -0.6 -0.5 4.693764 -0.55 30.3785682916
4 5 -0.5 -0.4 4.32551 -0.45 25.4051099228
4 5 -0.4 -0.3 4.58747 -0.35 62.331002331
4 5 -0.3 -0.2 4.53183 -0.25 58.0267666286
4 5 -0.2 -0.1 4.5293 -0.15 51.1097986293
4 5 -0.1 0 4.582075 -0.05 46.5259119278
4 5 0 0.1 4.434863 0.05 45.7307089614
4 5 0.1 0.2 4.551904 0.15 37.7710550887
4 5 0.2 0.3 4.458977 0.25 44.0325503186
4 5 0.3 0.4 4.643381 0.35 53.9770637762
4 5 0.4 0.5 4.805173 0.45 40.5464391817
4 5 0.5 0.6 4.362803 0.55 68.257661293
4 5 0.6 0.7 4.564975 0.65 50.8410634429
4 5 0.7 0.8 4.521807 0.75 22.472690708
4 5 0.8 0.9 4.519554 0.85 23.2138528139
4 5 0.9 1 4.462635 0.95 33.5404385089
5 6 -1 -0.9 5.513263 -0.95 42.1635916343
5 6 -0.9 -0.8 5.413121 -0.85 64.7223155929
5 6 -0.8 -0.7 5.619653 -0.75 69.6392439495
5 6 -0.7 -0.6 5.548181 -0.65 71.834921474
5 6 -0.6 -0.5 5.545118 -0.55 90.4612956098
5 6 -0.5 -0.4 5.515134 -0.45 56.6661734969
5 6 -0.4 -0.3 5.431625 -0.35 71.2140826494
5 6 -0.3 -0.2 5.377205 -0.25 73.5599079971
5 6 -0.2 -0.1 5.517498 -0.15 58.7111057501
5 6 -0.1 0 5.663226 -0.05 67.4498114201
5 6 0 0.1 5.488016 0.05 45.275070028
5 6 0.1 0.2 5.55102 0.15 63.0734233087
5 6 0.2 0.3 5.547859 0.25 54.2695113355
5 6 0.3 0.4 5.51004 0.35 68.7789411827
5 6 0.4 0.5 5.587568 0.45 72.0625616328
5 6 0.5 0.6 5.627115 0.55 70.4551943413
5 6 0.6 0.7 5.597019 0.65 49.8270635866
5 6 0.7 0.8 5.576594 0.75 96.4231444241
5 6 0.8 0.9 5.483762 0.85 85.5457299494
5 6 0.9 1 5.509378 0.95 43.2247919951
6 7 -1 -0.9 6.536074 -0.95 97.1365604886
6 7 -0.9 -0.8 6.443452 -0.85 88.8961966138
6 7 -0.8 -0.7 6.523069 -0.75 95.0579950951
6 7 -0.7 -0.6 6.491686 -0.65 96.0642537792
6 7 -0.6 -0.5 6.641266 -0.55 86.2193113388
6 7 -0.5 -0.4 6.420605 -0.45 106.238963321
6 7 -0.4 -0.3 6.540083 -0.35 119.020831127
6 7 -0.3 -0.2 6.500758 -0.25 80.3364110262
6 7 -0.2 -0.1 6.410413 -0.15 109.530700205
6 7 -0.1 0 6.513061 -0.05 108.635045725
6 7 0 0.1 6.74098 0.05 100.903542663
6 7 0.1 0.2 6.471448 0.15 148.471323558
6 7 0.2 0.3 6.509313 0.25 113.558617887
6 7 0.3 0.4 6.541926 0.35 89.7271071968
6 7 0.4 0.5 6.561533 0.45 86.3261612141
6 7 0.5 0.6 6.55094 0.55 102.780664166
6 7 0.6 0.7 6.479946 0.65 94.9571718959
6 7 0.7 0.8 6.446993 0.75 77.2113826043
6 7 0.8 0.9 6.555064 0.85 93.3596871653
6 7 0.9 1 6.367514 0.95 97.1130257159
7 8 -1 -0.9 7.454635 -0.95 131.247986318
7 8 -0.9 -0.8 7.42032 -0.85 114.500533702
7 8 -0.8 -0.7 7.519283 -0.75 141.336179239
7 8 -0.7 -0.6 7.567337 -0.65 139.755281152
7 8 -0.6 -0.5 7.576785 -0.55 93.2486824905
7 8 -0.5 -0.4 7.609623 -0.45 99.0655891065
7 8 -0.4 -0.3 7.447864 -0.35 119.991192846
7 8 -0.3 -0.2 7.466536 -0.25 161.66273751
7 8 -0.2 -0.1 7.483699 -0.15 148.2020574
7 8 -0.1 0 7.507137 -0.05 98.7587625309
7 8 0 0.1 7.61764 0.05 138.397333702
7 8 0.1 0.2 7.547755 0.15 172.120373332
7 8 0.2 0.3 7.560731 0.25 121.787133513
7 8 0.3 0.4 7.518748 0.35 115.515372003
7 8 0.4 0.5 7.563387 0.45 145.266117069
7 8 0.5 0.6 7.513264 0.55 136.095050365
7 8 0.6 0.7 7.556462 0.65 148.437131606
7 8 0.7 0.8 7.536057 0.75 127.017146431
7 8 0.8 0.9 7.494248 0.85 130.263834659
7 8 0.9 1 7.521716 0.95 172.541256694
8 9 -1 -0.9 8.361849 -0.95 146.404505161
8 9 -0.9 -0.8 8.532032 -0.85 138.973946128
8 9 -0.8 -0.7 8.573248 -0.75 124.518430314
8 9 -0.7 -0.6 8.497955 -0.65 192.757839202
8 9 -0.6 -0.5 8.532587 -0.55 206.319016698
8 9 -0.5 -0.4 8.423383 -0.45 168.082636222
8 9 -0.4 -0.3 8.534807 -0.35 169.330544599
8 9 -0.3 -0.2 8.508562 -0.25 137.232603791
8 9 -0.2 -0.1 8.530056 -0.15 198.539958192
8 9 -0.1 0 8.539313 -0.05 134.420579806
8 9 0 0.1 8.508538 0.05 169.130073946
8 9 0.1 0.2 8.537728 0.15 199.112075349
8 9 0.2 0.3 8.514801 0.25 174.45550253
8 9 0.3 0.4 8.439648 0.35 148.857396378
8 9 0.4 0.5 8.596037 0.45 165.509537632
8 9 0.5 0.6 8.485404 0.55 141.219919593
8 9 0.6 0.7 8.510533 0.65 139.041503842
8 9 0.7 0.8 8.562683 0.75 201.698430171
8 9 0.8 0.9 8.468226 0.85 109.981383185
8 9 0.9 1 8.514596 0.95 183.125463735
9 10 -1 -0.9 9.542701 -0.95 194.724982772
9 10 -0.9 -0.8 9.496005 -0.85 229.000315035
9 10 -0.8 -0.7 9.508289 -0.75 197.555808156
9 10 -0.7 -0.6 9.535629 -0.65 252.137798948
9 10 -0.6 -0.5 9.527387 -0.55 188.910378044
9 10 -0.5 -0.4 9.525933 -0.45 217.799414677
9 10 -0.4 -0.3 9.578075 -0.35 195.492557803
9 10 -0.3 -0.2 9.520416 -0.25 204.246643388
9 10 -0.2 -0.1 9.523118 -0.15 210.26391594
9 10 -0.1 0 9.517771 -0.05 204.820403486
9 10 0 0.1 9.496185 0.05 188.644736775
9 10 0.1 0.2 9.481584 0.15 245.562038004
9 10 0.2 0.3 9.550225 0.25 195.166821196
9 10 0.3 0.4 9.502528 0.35 182.168132425
9 10 0.4 0.5 9.519252 0.45 198.415066818
9 10 0.5 0.6 9.604284 0.55 196.196753493
9 10 0.6 0.7 9.53426 0.65 120.761166869
9 10 0.7 0.8 9.591696 0.75 196.751562343
9 10 0.8 0.9 9.420632 0.85 174.857735316
9 10 0.9 1 9.491235 0.95 203.211517344
10 11 -1 -0.9 10.47467 -0.95 273.696482259
10 11 -0.9 -0.8 10.49099 -0.85 228.012585874
10 11 -0.8 -0.7 10.48514 -0.75 293.983117321
10 11 -0.7 -0.6 10.54664 -0.65 275.517219803
10 11 -0.6 -0.5 10.47774 -0.55 195.197830968
10 11 -0.5 -0.4 10.54405 -0.45 215.250275326
10 11 -0.4 -0.3 10.4962 -0.35 240.400956334
10 11 -0.3 -0.2 10.5581 -0.25 245.996102831
10 11 -0.2 -0.1 10.53537 -0.15 232.534653692
10 11 -0.1 0 10.47791 -0.05 223.133651572
10 11 0 0.1 10.47868 0.05 231.711745758
10 11 0.1 0.2 10.48688 0.15 219.848111339
10 11 0.2 0.3 10.55018 0.25 251.933292893
10 11 0.3 0.4 10.54546 0.35 292.235671945
10 11 0.4 0.5 10.57179 0.45 227.577174204
10 11 0.5 0.6 10.50254 0.55 238.832532112
10 11 0.6 0.7 10.50434 0.65 278.275583942
10 11 0.7 0.8 10.44601 0.75 188.978719307
10 11 0.8 0.9 10.50932 0.85 271.682267248
10 11 0.9 1 10.52591 0.95 288.493102303
11 12 -1 -0.9 11.54423 -0.95 301.655794692
11 12 -0.9 -0.8 11.50563 -0.85 324.136035317
11 12 -0.8 -0.7 11.51875 -0.75 304.91411958
11 12 -0.7 -0.6 11.50807 -0.65 253.631207583
11 12 -0.6 -0.5 11.45749 -0.55 318.605017912
11 12 -0.5 -0.4 11.49391 -0.45 308.75087806
11 12 -0.4 -0.3 11.54447 -0.35 288.829527831
11 12 -0.3 -0.2 11.51027 -0.25 283.703713776
11 12 -0.2 -0.1 11.49318 -0.15 359.141415668
11 12 -0.1 0 11.50507 -0.05 244.619169947
11 12 0 0.1 11.58424 0.05 260.622687227
11 12 0.1 0.2 11.42109 0.15 291.374739235
11 12 0.2 0.3 11.53913 0.25 285.921406192
11 12 0.3 0.4 11.46533 0.35 264.299096657
11 12 0.4 0.5 11.53177 0.45 270.994673219
11 12 0.5 0.6 11.5259 0.55 312.011693584
11 12 0.6 0.7 11.49572 0.65 311.334031624
11 12 0.7 0.8 11.46364 0.75 282.291974555
11 12 0.8 0.9 11.50519 0.85 286.569652722
11 12 0.9 1 11.52845 0.95 309.133880265
12 13 -1 -0.9 12.47784 -0.95 340.267612031
12 13 -0.9 -0.8 12.52943 -0.85 349.302581575
12 13 -0.8 -0.7 12.51969 -0.75 348.273527542
12 13 -0.7 -0.6 12.52002 -0.65 347.476602339
12 13 -0.6 -0.5 12.55593 -0.55 315.870522502
12 13 -0.5 -0.4 12.49524 -0.45 302.125616263
12 13 -0.4 -0.3 12.51198 -0.35 383.348484118
12 13 -0.3 -0.2 12.49568 -0.25 334.257377889
12 13 -0.2 -0.1 12.55364 -0.15 371.824890066
12 13 -0.1 0 12.49727 -0.05 349.461713423
12 13 0 0.1 12.55317 0.05 340.502148007
12 13 0.1 0.2 12.47933 0.15 357.186977758
12 13 0.2 0.3 12.45962 0.25 353.255245716
12 13 0.3 0.4 12.54228 0.35 293.536676493
12 13 0.4 0.5 12.51892 0.45 325.897521076
12 13 0.5 0.6 12.55207 0.55 329.903669624
12 13 0.6 0.7 12.4775 0.65 326.624727738
12 13 0.7 0.8 12.49812 0.75 290.945695518
12 13 0.8 0.9 12.53823 0.85 459.657100426
12 13 0.9 1 12.52327 0.95 293.571754412
13 14 -1 -0.9 13.53256 -0.95 427.605654373
13 14 -0.9 -0.8 13.48409 -0.85 424.73415699
13 14 -0.8 -0.7 13.49427 -0.75 422.761325725
13 14 -0.7 -0.6 13.52846 -0.65 369.229164781
13 14 -0.6 -0.5 13.56954 -0.55 373.483760576
13 14 -0.5 -0.4 13.51323 -0.45 388.037572528
13 14 -0.4 -0.3 13.50876 -0.35 395.738030104
13 14 -0.3 -0.2 13.52736 -0.25 395.312995145
13 14 -0.2 -0.1 13.44745 -0.15 343.648024765
13 14 -0.1 0 13.49917 -0.05 281.203949997
13 14 0 0.1 13.46794 0.05 395.526703335
13 14 0.1 0.2 13.59159 0.15 341.709196155
13 14 0.2 0.3 13.48624 0.25 367.86372548
13 14 0.3 0.4 13.53971 0.35 353.767141645
13 14 0.4 0.5 13.54467 0.45 421.42889177
13 14 0.5 0.6 13.49863 0.55 370.554639462
13 14 0.6 0.7 13.55206 0.65 367.642779141
13 14 0.7 0.8 13.50362 0.75 313.618401771
13 14 0.8 0.9 13.50349 0.85 402.818483312
13 14 0.9 1 13.51676 0.95 351.015639937
14 15 -1 -0.9 14.52872 -0.95 504.751930395
14 15 -0.9 -0.8 14.51644 -0.85 507.840207856
14 15 -0.8 -0.7 14.52658 -0.75 427.165765313
14 15 -0.7 -0.6 14.49943 -0.65 417.400284674
14 15 -0.6 -0.5 14.46378 -0.55 437.399249296
14 15 -0.5 -0.4 14.52007 -0.45 444.09862839
14 15 -0.4 -0.3 14.55627 -0.35 386.924269485
14 15 -0.3 -0.2 14.49964 -0.25 465.622470176
14 15 -0.2 -0.1 14.51707 -0.15 455.717737138
14 15 -0.1 0 14.52389 -0.05 397.491313383
14 15 0 0.1 14.53739 0.05 483.108076061
14 15 0.1 0.2 14.54812 0.15 444.640823518
14 15 0.2 0.3 14.48044 0.25 452.369840017
14 15 0.3 0.4 14.53709 0.35 405.806641684
14 15 0.4 0.5 14.54649 0.45 416.392337662
14 15 0.5 0.6 14.51968 0.55 447.095843986
14 15 0.6 0.7 14.49256 0.65 434.349176279
14 15 0.7 0.8 14.49985 0.75 372.955321328
14 15 0.8 0.9 14.48241 0.85 422.482983163
14 15 0.9 1 14.48234 0.95 444.665041914
15 16 -1 -0.9 15.53859 -0.95 442.920925726
15 16 -0.9 -0.8 15.51513 -0.85 415.618628912
15 16 -0.8 -0.7 15.53713 -0.75 422.661561268
15 16 -0.7 -0.6 15.53158 -0.65 428.54304903
15 16 -0.6 -0.5 15.54719 -0.55 517.76367754
15 16 -0.5 -0.4 15.5211 -0.45 527.825809774
15 16 -0.4 -0.3 15.48053 -0.35 482.365859061
15 16 -0.3 -0.2 15.54864 -0.25 552.881957727
15 16 -0.2 -0.1 15.47102 -0.15 456.448826608
15 16 -0.1 0 15.48195 -0.05 531.690482001
15 16 0 0.1 15.44661 0.05 438.799526173
15 16 0.1 0.2 15.51598 0.15 409.611270221
15 16 0.2 0.3 15.51817 0.25 369.677076479
15 16 0.3 0.4 15.51755 0.35 485.794906094
15 16 0.4 0.5 15.48754 0.45 532.459451468
15 16 0.5 0.6 15.50266 0.55 527.153926694
15 16 0.6 0.7 15.49589 0.65 447.671069532
15 16 0.7 0.8 15.49976 0.75 435.156844175
15 16 0.8 0.9 15.49584 0.85 459.998521838
15 16 0.9 1 15.53545 0.95 439.226544533
16 17 -1 -0.9 16.50644 -0.95 474.563971451
16 17 -0.9 -0.8 16.51923 -0.85 519.559375997
16 17 -0.8 -0.7 16.54214 -0.75 616.111015578
16 17 -0.7 -0.6 16.52219 -0.65 451.02319838
16 17 -0.6 -0.5 16.50968 -0.55 644.139556082
16 17 -0.5 -0.4 16.5377 -0.45 442.398045382
16 17 -0.4 -0.3 16.45479 -0.35 563.594017804
16 17 -0.3 -0.2 16.46211 -0.25 553.762404944
16 17 -0.2 -0.1 16.50877 -0.15 612.704516459
16 17 -0.1 0 16.5167 -0.05 482.364154802
16 17 0 0.1 16.49077 0.05 460.052931168
16 17 0.1 0.2 16.5061 0.15 466.810301416
16 17 0.2 0.3 16.53635 0.25 509.704584128
16 17 0.3 0.4 16.54749 0.35 496.279495876
16 17 0.4 0.5 16.47933 0.45 433.482363609
16 17 0.5 0.6 16.52829 0.55 546.1777901
16 17 0.6 0.7 16.51077 0.65 582.290482082
16 17 0.7 0.8 16.49761 0.75 524.053261805
16 17 0.8 0.9 16.48733 0.85 509.059338337
16 17 0.9 1 16.5472 0.95 539.007257077
17 18 -1 -0.9 17.49718 -0.95 591.055908899
17 18 -0.9 -0.8 17.487 -0.85 696.677821747
17 18 -0.8 -0.7 17.52011 -0.75 480.076277167
17 18 -0.7 -0.6 17.45633 -0.65 555.050613137
17 18 -0.6 -0.5 17.49639 -0.55 665.563846632
17 18 -0.5 -0.4 17.50419 -0.45 582.363217067
17 18 -0.4 -0.3 17.51081 -0.35 516.10451486
17 18 -0.3 -0.2 17.45971 -0.25 616.020143532
17 18 -0.2 -0.1 17.53204 -0.15 630.758852341
17 18 -0.1 0 17.53865 -0.05 580.253239696
17 18 0 0.1 17.5023 0.05 597.591590592
17 18 0.1 0.2 17.50931 0.15 621.322335696
17 18 0.2 0.3 17.5165 0.25 596.725622577
17 18 0.3 0.4 17.49265 0.35 515.799915602
17 18 0.4 0.5 17.50634 0.45 586.635253788
17 18 0.5 0.6 17.48264 0.55 565.166420964
17 18 0.6 0.7 17.53574 0.65 568.664668748
17 18 0.7 0.8 17.5489 0.75 516.919792228
17 18 0.8 0.9 17.53978 0.85 510.154359258
17 18 0.9 1 17.50491 0.95 547.722914103
18 19 -1 -0.9 18.50414 -0.95 630.670293504
18 19 -0.9 -0.8 18.48693 -0.85 686.392747153
18 19 -0.8 -0.7 18.52614 -0.75 660.19450508
18 19 -0.7 -0.6 18.48411 -0.65 579.644618184
18 19 -0.6 -0.5 18.52431 -0.55 648.996851119
18 19 -0.5 -0.4 18.50076 -0.45 559.550228542
18 19 -0.4 -0.3 18.51929 -0.35 659.676486254
18 19 -0.3 -0.2 18.54607 -0.25 670.514151016
18 19 -0.2 -0.1 18.52845 -0.15 601.683981078
18 19 -0.1 0 18.50819 -0.05 508.971636087
18 19 0 0.1 18.53527 0.05 598.825492822
18 19 0.1 0.2 18.46148 0.15 691.631350893
18 19 0.2 0.3 18.54739 0.25 660.973427303
18 19 0.3 0.4 18.49511 0.35 685.719308833
18 19 0.4 0.5 18.48807 0.45 706.968747751
18 19 0.5 0.6 18.55737 0.55 557.146620304
18 19 0.6 0.7 18.5385 0.65 617.402601777
18 19 0.7 0.8 18.50688 0.75 551.902147734
18 19 0.8 0.9 18.49124 0.85 650.549646217
18 19 0.9 1 18.51522 0.95 676.148637177
19 20 -1 -0.9 19.51067 -0.95 635.403319066
19 20 -0.9 -0.8 19.51516 -0.85 731.177112372
19 20 -0.8 -0.7 19.47287 -0.75 637.094856532
19 20 -0.7 -0.6 19.53176 -0.65 686.413914385
19 20 -0.6 -0.5 19.51618 -0.55 659.715922771
19 20 -0.5 -0.4 19.51495 -0.45 644.828550016
19 20 -0.4 -0.3 19.496 -0.35 717.950857332
19 20 -0.3 -0.2 19.5033 -0.25 742.561272319
19 20 -0.2 -0.1 19.50441 -0.15 710.168692073
19 20 -0.1 0 19.52755 -0.05 832.252984285
19 20 0 0.1 19.48232 0.05 747.166384879
19 20 0.1 0.2 19.48276 0.15 734.751675392
19 20 0.2 0.3 19.47479 0.25 786.673635385
19 20 0.3 0.4 19.4936 0.35 593.89407841
19 20 0.4 0.5 19.50272 0.45 718.508064461
19 20 0.5 0.6 19.53491 0.55 615.490421861
19 20 0.6 0.7 19.50561 0.65 702.998181579
19 20 0.7 0.8 19.44968 0.75 603.043108944
19 20 0.8 0.9 19.47437 0.85 750.613013267
19 20 0.9 1 19.46755 0.95 679.268821706
20 21 -1 -0.9 20.54343 -0.95 753.961293477
20 21 -0.9 -0.8 20.50314 -0.85 763.178200258
20 21 -0.8 -0.7 20.49445 -0.75 743.929099607
20 21 -0.7 -0.6 20.49908 -0.65 648.382422602
20 21 -0.6 -0.5 20.55429 -0.55 787.048806061
20 21 -0.5 -0.4 20.48672 -0.45 784.908849762
20 21 -0.4 -0.3 20.50301 -0.35 745.042031586
20 21 -0.3 -0.2 20.50117 -0.25 776.545561836
20 21 -0.2 -0.1 20.52928 -0.15 739.258161505
20 21 -0.1 0 20.52899 -0.05 793.18775265
20 21 0 0.1 20.50687 0.05 833.07534487
20 21 0.1 0.2 20.50878 0.15 664.081528477
20 21 0.2 0.3 20.48045 0.25 756.254449194
20 21 0.3 0.4 20.51354 0.35 700.719249055
20 21 0.4 0.5 20.48546 0.45 704.565273409
20 21 0.5 0.6 20.49443 0.55 676.608963054
20 21 0.6 0.7 20.45397 0.65 640.622402203
20 21 0.7 0.8 20.50478 0.75 738.756362853
20 21 0.8 0.9 20.49957 0.85 808.98620497
20 21 0.9 1 20.49927 0.95 734.822511737
21 22 -1 -0.9 21.48097 -0.95 831.694733746
21 22 -0.9 -0.8 21.51481 -0.85 792.540091036
21 22 -0.8 -0.7 21.50018 -0.75 808.636848301
21 22 -0.7 -0.6 21.49809 -0.65 737.03862039
21 22 -0.6 -0.5 21.4894 -0.55 860.514169374
21 22 -0.5 -0.4 21.49744 -0.45 833.550372919
21 22 -0.4 -0.3 21.51383 -0.35 769.599458932
21 22 -0.3 -0.2 21.49705 -0.25 930.439533189
21 22 -0.2 -0.1 21.51793 -0.15 862.787295774
21 22 -0.1 0 21.46063 -0.05 959.009162184
21 22 0 0.1 21.48245 0.05 808.327331513
21 22 0.1 0.2 21.51652 0.15 796.926013272
21 22 0.2 0.3 21.52678 0.25 796.223192744
21 22 0.3 0.4 21.52347 0.35 830.653283149
21 22 0.4 0.5 21.55123 0.45 744.862596107
21 22 0.5 0.6 21.52686 0.55 799.557977834
21 22 0.6 0.7 21.50568 0.65 767.771374322
21 22 0.7 0.8 21.53501 0.75 825.632162434
21 22 0.8 0.9 21.51978 0.85 863.474869144
21 22 0.9 1 21.52047 0.95 866.987821528
22 23 -1 -0.9 22.48909 -0.95 873.583193061
22 23 -0.9 -0.8 22.46522 -0.85 826.288634932
22 23 -0.8 -0.7 22.50531 -0.75 890.699608877
22 23 -0.7 -0.6 22.52564 -0.65 874.962248917
22 23 -0.6 -0.5 22.5089 -0.55 862.004701625
22 23 -0.5 -0.4 22.48422 -0.45 904.252556073
22 23 -0.4 -0.3 22.51107 -0.35 830.885322963
22 23 -0.3 -0.2 22.53433 -0.25 815.502855193
22 23 -0.2 -0.1 22.54596 -0.15 950.502826401
22 23 -0.1 0 22.5323 -0.05 812.105717595
22 23 0 0.1 22.48064 0.05 886.538225652
22 23 0.1 0.2 22.49003 0.15 856.324552077
22 23 0.2 0.3 22.54242 0.25 893.701949267
22 23 0.3 0.4 22.50212 0.35 889.705308084
22 23 0.4 0.5 22.47997 0.45 765.108487401
22 23 0.5 0.6 22.49611 0.55 878.683340177
22 23 0.6 0.7 22.51628 0.65 866.422049821
22 23 0.7 0.8 22.501 0.75 779.988530151
22 23 0.8 0.9 22.49549 0.85 887.707841112
22 23 0.9 1 22.49183 0.95 973.439424988
23 24 -1 -0.9 23.49451 -0.95 950.98722405
23 24 -0.9 -0.8 23.52345 -0.85 855.959168842
23 24 -0.8 -0.7 23.54174 -0.75 936.790718212
23 24 -0.7 -0.6 23.56092 -0.65 798.270737964
23 24 -0.6 -0.5 23.47804 -0.55 850.344231773
23 24 -0.5 -0.4 23.49723 -0.45 960.330204355
23 24 -0.4 -0.3 23.51675 -0.35 944.000979461
23 24 -0.3 -0.2 23.51974 -0.25 1043.21301771
23 24 -0.2 -0.1 23.53473 -0.15 933.645361318
23 24 -0.1 0 23.48963 -0.05 893.859191783
23 24 0 0.1 23.51828 0.05 888.581387392
23 24 0.1 0.2 23.54106 0.15 978.743947312
23 24 0.2 0.3 23.48579 0.25 859.554558748
23 24 0.3 0.4 23.5418 0.35 897.72933072
23 24 0.4 0.5 23.49865 0.45 945.682198134
23 24 0.5 0.6 23.47983 0.55 986.798220853
23 24 0.6 0.7 23.50707 0.65 889.283436868
23 24 0.7 0.8 23.506 0.75 944.273205259
23 24 0.8 0.9 23.52519 0.85 837.214926967
23 24 0.9 1 23.50716 0.95 1065.16164252
24 25 -1 -0.9 24.49686 -0.95 1096.81319208
24 25 -0.9 -0.8 24.50964 -0.85 963.565879199
24 25 -0.8 -0.7 24.4838 -0.75 865.746525546
24 25 -0.7 -0.6 24.48584 -0.65 892.142586098
24 25 -0.6 -0.5 24.48164 -0.55 917.554920452
24 25 -0.5 -0.4 24.51577 -0.45 1031.29233669
24 25 -0.4 -0.3 24.52658 -0.35 929.746756225
24 25 -0.3 -0.2 24.50407 -0.25 1130.5575516
24 25 -0.2 -0.1 24.51416 -0.15 1162.97949674
24 25 -0.1 0 24.51478 -0.05 1071.36766022
24 25 0 0.1 24.51155 0.05 1062.2516963
24 25 0.1 0.2 24.53833 0.15 910.581510245
24 25 0.2 0.3 24.48638 0.25 837.757464529
24 25 0.3 0.4 24.48685 0.35 979.784304762
24 25 0.4 0.5 24.4838 0.45 829.962526957
24 25 0.5 0.6 24.52117 0.55 1040.22797054
24 25 0.6 0.7 24.50405 0.65 1013.61439827
24 25 0.7 0.8 24.50644 0.75 906.856106484
24 25 0.8 0.9 24.49561 0.85 1035.27892457
24 25 0.9 1 24.49893 0.95 1110.30585322
25 26 -1 -0.9 25.51301 -0.95 1048.7761875
25 26 -0.9 -0.8 25.48458 -0.85 1040.25767596
25 26 -0.8 -0.7 25.5381 -0.75 924.868175107
25 26 -0.7 -0.6 25.53051 -0.65 1100.70365725
25 26 -0.6 -0.5 25.5405 -0.55 1061.12893119
25 26 -0.5 -0.4 25.4992 -0.45 1154.60956118
25 26 -0.4 -0.3 25.52403 -0.35 1057.80129213
25 26 -0.3 -0.2 25.49779 -0.25 1074.82014728
25 26 -0.2 -0.1 25.51613 -0.15 1001.66746889
25 26 -0.1 0 25.51521 -0.05 1139.02884722
25 26 0 0.1 25.51748 0.05 1101.27733523
25 26 0.1 0.2 25.50947 0.15 939.463878705
25 26 0.2 0.3 25.48176 0.25 1067.85919391
25 26 0.3 0.4 25.52813 0.35 1030.95743522
25 26 0.4 0.5 25.48036 0.45 1048.320637
25 26 0.5 0.6 25.4697 0.55 1059.71928272
25 26 0.6 0.7 25.47334 0.65 1075.31766676
25 26 0.7 0.8 25.51994 0.75 1210.62354265
25 26 0.8 0.9 25.53499 0.85 1167.91373193
25 26 0.9 1 25.51349 0.95 1093.09793615
26 27 -1 -0.9 26.51343 -0.95 1234.90655541
26 27 -0.9 -0.8 26.48528 -0.85 1066.2965655
26 27 -0.8 -0.7 26.50391 -0.75 1011.95465076
26 27 -0.7 -0.6 26.52492 -0.65 1115.57281652
26 27 -0.6 -0.5 26.49104 -0.55 1119.87333182
26 27 -0.5 -0.4 26.51966 -0.45 1011.98553585
26 27 -0.4 -0.3 26.50533 -0.35 1043.88808799
26 27 -0.3 -0.2 26.47768 -0.25 1131.24885027
26 27 -0.2 -0.1 26.49502 -0.15 1076.06959337
26 27 -0.1 0 26.49633 -0.05 1194.49999125
26 27 0 0.1 26.487 0.05 1221.31800375
26 27 0.1 0.2 26.52011 0.15 1104.33166348
26 27 0.2 0.3 26.48564 0.25 1065.16373074
26 27 0.3 0.4 26.50638 0.35 1176.12963807
26 27 0.4 0.5 26.4968 0.45 1082.10583637
26 27 0.5 0.6 26.52835 0.55 1028.02327219
26 27 0.6 0.7 26.47996 0.65 1005.00476737
26 27 0.7 0.8 26.51023 0.75 1209.6305385
26 27 0.8 0.9 26.5056 0.85 1356.53845843
26 27 0.9 1 26.51539 0.95 1169.49006386
27 28 -1 -0.9 27.52262 -0.95 1394.03162434
27 28 -0.9 -0.8 27.52192 -0.85 940.856180278
27 28 -0.8 -0.7 27.48363 -0.75 1160.36736121
27 28 -0.7 -0.6 27.49148 -0.65 1083.88406412
27 28 -0.6 -0.5 27.49893 -0.55 1082.52440624
27 28 -0.5 -0.4 27.48603 -0.45 1288.61282896
27 28 -0.4 -0.3 27.49858 -0.35 1163.82182194
27 28 -0.3 -0.2 27.50081 -0.25 1294.57674728
27 28 -0.2 -0.1 27.51675 -0.15 1258.82165308
27 28 -0.1 0 27.5114 -0.05 1100.82161246
27 28 0 0.1 27.52939 0.05 1291.52703554
27 28 0.1 0.2 27.52605 0.15 1251.60035599
27 28 0.2 0.3 27.4937 0.25 1194.80413363
27 28 0.3 0.4 27.51631 0.35 1125.99238756
27 28 0.4 0.5 27.49878 0.45 1090.78875698
27 28 0.5 0.6 27.50138 0.55 1151.76940422
27 28 0.6 0.7 27.49442 0.65 1113.4732677
27 28 0.7 0.8 27.50115 0.75 1230.83420391
27 28 0.8 0.9 27.5066 0.85 1140.90904884
27 28 0.9 1 27.50256 0.95 1217.87691921
28 29 -1 -0.9 28.4798 -0.95 1280.2448314
28 29 -0.9 -0.8 28.46699 -0.85 1368.30983273
28 29 -0.8 -0.7 28.52071 -0.75 1198.7399981
28 29 -0.7 -0.6 28.49976 -0.65 1092.57579365
28 29 -0.6 -0.5 28.50436 -0.55 1237.66953086
28 29 -0.5 -0.4 28.48859 -0.45 1248.84710555
28 29 -0.4 -0.3 28.54595 -0.35 1130.90135112
28 29 -0.3 -0.2 28.49073 -0.25 1340.35898023
28 29 -0.2 -0.1 28.46871 -0.15 1276.88609236
28 29 -0.1 0 28.5029 -0.05 1221.52569733
28 29 0 0.1 28.50928 0.05 1268.31451902
28 29 0.1 0.2 28.48846 0.15 1326.68049975
28 29 0.2 0.3 28.49518 0.25 1229.40097526
28 29 0.3 0.4 28.51332 0.35 1274.33936446
28 29 0.4 0.5 28.50617 0.45 1209.54585616
28 29 0.5 0.6 28.48578 0.55 1220.68619087
28 29 0.6 0.7 28.53803 0.65 1236.32465478
28 29 0.7 0.8 28.46742 0.75 1236.76869406
28 29 0.8 0.9 28.4954 0.85 1368.10751563
28 29 0.9 1 28.53939 0.95 1387.90772635
29 30 -1 -0.9 29.49005 -0.95 1196.95861884
29 30 -0.9 -0.8 29.5238 -0.85 1150.64610778
29 30 -0.8 -0.7 29.50205 -0.75 1225.95285059
29 30 -0.7 -0.6 29.49154 -0.65 1297.15553185
29 30 -0.6 -0.5 29.48238 -0.55 1252.19691668
29 30 -0.5 -0.4 29.52507 -0.45 1276.30770518
29 30 -0.4 -0.3 29.53166 -0.35 1270.78153841
29 30 -0.3 -0.2 29.52707 -0.25 1376.08885317
29 30 -0.2 -0.1 29.49494 -0.15 1369.59334829
29 30 -0.1 0 29.5245 -0.05 1516.05786309
29 30 0 0.1 29.4812 0.05 1342.34727507
29 30 0.1 0.2 29.4987 0.15 1395.83935857
29 30 0.2 0.3 29.48025 0.25 1401.30160467
29 30 0.3 0.4 29.53638 0.35 1330.72456122
29 30 0.4 0.5 29.48317 0.45 1106.50493167
29 30 0.5 0.6 29.51667 0.55 1254.60196866
29 30 0.6 0.7 29.49471 0.65 1292.73137306
29 30 0.7 0.8 29.52776 0.75 1253.23913789
29 30 0.8 0.9 29.50048 0.85 1278.55453561
29 30 0.9 1 29.4854 0.95 1283.5264088
30 31 -1 -0.9 30.52014 -0.95 1517.73975264
30 31 -0.9 -0.8 30.4983 -0.85 1414.40716195
30 31 -0.8 -0.7 30.50336 -0.75 1295.5398315
30 31 -0.7 -0.6 30.48693 -0.65 1400.38812677
30 31 -0.6 -0.5 30.50326 -0.55 1485.11892747
30 31 -0.5 -0.4 30.47658 -0.45 1260.28284807
30 31 -0.4 -0.3 30.49346 -0.35 1458.27360213
30 31 -0.3 -0.2 30.50536 -0.25 1408.65410398
30 31 -0.2 -0.1 30.49038 -0.15 1488.02311257
30 31 -0.1 0 30.49733 -0.05 1600.70044974
30 31 0 0.1 30.49503 0.05 1595.45665492
30 31 0.1 0.2 30.49465 0.15 1578.43110853
30 31 0.2 0.3 30.50434 0.25 1485.95291848
30 31 0.3 0.4 30.50188 0.35 1320.17345157
30 31 0.4 0.5 30.49614 0.45 1321.59526027
30 31 0.5 0.6 30.52413 0.55 1240.54254062
30 31 0.6 0.7 30.51587 0.65 1318.20125925
30 31 0.7 0.8 30.47836 0.75 1345.79431566
30 31 0.8 0.9 30.49893 0.85 1329.40093477
30 31 0.9 1 30.50807 0.95 1493.88304148
31 32 -1 -0.9 31.50868 -0.95 1441.57986079
31 32 -0.9 -0.8 31.48181 -0.85 1429.55580186
31 32 -0.8 -0.7 31.49328 -0.75 1273.3144087
31 32 -0.7 -0.6 31.49946 -0.65 1386.77146455
31 32 -0.6 -0.5 31.5096 -0.55 1381.78348106
31 32 -0.5 -0.4 31.52947 -0.45 1272.83749293
31 32 -0.4 -0.3 31.50551 -0.35 1389.8438901
31 32 -0.3 -0.2 31.51132 -0.25 1506.74493585
31 32 -0.2 -0.1 31.50162 -0.15 1513.95240253
31 32 -0.1 0 31.48802 -0.05 1515.38466518
31 32 0 0.1 31.51646 0.05 1540.49329704
31 32 0.1 0.2 31.50055 0.15 1451.46787377
31 32 0.2 0.3 31.5088 0.25 1375.33435429
31 32 0.3 0.4 31.4996 0.35 1363.97076641
31 32 0.4 0.5 31.48367 0.45 1349.92165919
31 32 0.5 0.6 31.49209 0.55 1274.36796282
31 32 0.6 0.7 31.49832 0.65 1323.21457533
31 32 0.7 0.8 31.48449 0.75 1480.53313211
31 32 0.8 0.9 31.50551 0.85 1487.19085726
31 32 0.9 1 31.50452 0.95 1534.95974155
32 33 -1 -0.9 32.50724 -0.95 1453.0587453
32 33 -0.9 -0.8 32.53136 -0.85 1560.79019954
32 33 -0.8 -0.7 32.53905 -0.75 1341.87763252
32 33 -0.7 -0.6 32.49649 -0.65 1432.11930377
32 33 -0.6 -0.5 32.53653 -0.55 1415.18283369
32 33 -0.5 -0.4 32.50901 -0.45 1419.99709591
32 33 -0.4 -0.3 32.51918 -0.35 1493.92185914
32 33 -0.3 -0.2 32.50175 -0.25 1672.32020111
32 33 -0.2 -0.1 32.52924 -0.15 1677.58989107
32 33 -0.1 0 32.46564 -0.05 1436.46937917
32 33 0 0.1 32.4896 0.05 1641.03701202
32 33 0.1 0.2 32.49637 0.15 1543.94276828
32 33 0.2 0.3 32.49642 0.25 1669.63932289
32 33 0.3 0.4 32.48465 0.35 1409.93424126
32 33 0.4 0.5 32.507 0.45 1441.76788209
32 33 0.5 0.6 32.49214 0.55 1569.06533734
32 33 0.6 0.7 32.50411 0.65 1392.17333229
32 33 0.7 0.8 32.47615 0.75 1437.35191671
32 33 0.8 0.9 32.50614 0.85 1522.06643372
32 33 0.9 1 32.50111 0.95 1584.36798718
33 34 -1 -0.9 33.50484 -0.95 1584.06706058
33 34 -0.9 -0.8 33.4895 -0.85 1577.3060113
33 34 -0.8 -0.7 33.5175 -0.75 1493.56985381
33 34 -0.7 -0.6 33.52707 -0.65 1465.68501202
33 34 -0.6 -0.5 33.49317 -0.55 1577.95688834
33 34 -0.5 -0.4 33.49259 -0.45 1381.39337292
33 34 -0.4 -0.3 33.53167 -0.35 1594.046434
33 34 -0.3 -0.2 33.50209 -0.25 1504.68444938
33 34 -0.2 -0.1 33.51867 -0.15 1548.34663662
33 34 -0.1 0 33.49206 -0.05 1702.31504343
33 34 0 0.1 33.53761 0.05 1639.15747402
33 34 0.1 0.2 33.51091 0.15 1625.51046432
33 34 0.2 0.3 33.51714 0.25 1607.92867458
33 34 0.3 0.4 33.49675 0.35 1469.34341108
33 34 0.4 0.5 33.49298 0.45 1519.39008564
33 34 0.5 0.6 33.50709 0.55 1593.67394837
33 34 0.6 0.7 33.47603 0.65 1631.5393258
33 34 0.7 0.8 33.51087 0.75 1455.7663757
33 34 0.8 0.9 33.52255 0.85 1615.84272955
33 34 0.9 1 33.53773 0.95 1727.19189067
34 35 -1 -0.9 34.51095 -0.95 1778.00919008
34 35 -0.9 -0.8 34.50543 -0.85 1648.57107193
34 35 -0.8 -0.7 34.51692 -0.75 1546.31482424
34 35 -0.7 -0.6 34.5161 -0.65 1654.58949898
34 35 -0.6 -0.5 34.51876 -0.55 1432.78301428
34 35 -0.5 -0.4 34.50531 -0.45 1542.35741161
34 35 -0.4 -0.3 34.49431 -0.35 1670.8487788
34 35 -0.3 -0.2 34.50246 -0.25 1616.26180028
34 35 -0.2 -0.1 34.50378 -0.15 1555.23714084
34 35 -0.1 0 34.51159 -0.05 1796.67536243
34 35 0 0.1 34.50983 0.05 1800.45778059
34 35 0.1 0.2 34.49842 0.15 1616.32808833
34 35 0.2 0.3 34.50906 0.25 1648.57127764
34 35 0.3 0.4 34.50686 0.35 1686.68808918
34 35 0.4 0.5 34.4763 0.45 1637.65939036
34 35 0.5 0.6 34.4842 0.55 1741.94325256
34 35 0.6 0.7 34.49892 0.65 1561.47520351
34 35 0.7 0.8 34.52595 0.75 1611.44685071
34 35 0.8 0.9 34.49092 0.85 1744.30905835
34 35 0.9 1 34.52187 0.95 1650.2808113
35 36 -1 -0.9 35.50522 -0.95 1851.24983944
35 36 -0.9 -0.8 35.50683 -0.85 1689.70722654
35 36 -0.8 -0.7 35.50908 -0.75 1721.43727233
35 36 -0.7 -0.6 35.48588 -0.65 1828.38683436
35 36 -0.6 -0.5 35.5419 -0.55 1612.27781618
35 36 -0.5 -0.4 35.51512 -0.45 1571.54659777
35 36 -0.4 -0.3 35.5017 -0.35 1663.06136914
35 36 -0.3 -0.2 35.52268 -0.25 1686.11676482
35 36 -0.2 -0.1 35.49109 -0.15 1704.20896439
35 36 -0.1 0 35.51478 -0.05 1914.94825625
35 36 0 0.1 35.49257 0.05 1770.66625062
35 36 0.1 0.2 35.50867 0.15 1936.0521522
35 36 0.2 0.3 35.53241 0.25 1592.40329973
35 36 0.3 0.4 35.51378 0.35 1617.36881851
35 36 0.4 0.5 35.47441 0.45 1490.49901997
35 36 0.5 0.6 35.511 0.55 1686.05955458
35 36 0.6 0.7 35.51302 0.65 1565.73752437
35 36 0.7 0.8 35.53117 0.75 1705.968514
35 36 0.8 0.9 35.51691 0.85 1911.62179621
35 36 0.9 1 35.50341 0.95 1877.64465757
36 37 -1 -0.9 36.47785 -0.95 1814.78088398
36 37 -0.9 -0.8 36.48891 -0.85 1710.21829691
36 37 -0.8 -0.7 36.50573 -0.75 1774.55364659
36 37 -0.7 -0.6 36.4868 -0.65 1630.93386623
36 37 -0.6 -0.5 36.49615 -0.55 1512.45374135
36 37 -0.5 -0.4 36.50025 -0.45 1729.5032568
36 37 -0.4 -0.3 36.48721 -0.35 1561.7607638
36 37 -0.3 -0.2 36.52092 -0.25 1737.79099281
36 37 -0.2 -0.1 36.53071 -0.15 2021.35579524
36 37 -0.1 0 36.49706 -0.05 1965.2191339
36 37 0 0.1 36.48716 0.05 1932.96358281
36 37 0.1 0.2 36.51219 0.15 1665.08189456
36 37 0.2 0.3 36.52205 0.25 1918.68723779
36 37 0.3 0.4 36.50257 0.35 1746.64661677
36 37 0.4 0.5 36.51599 0.45 1702.97112129
36 37 0.5 0.6 36.50071 0.55 1670.10822796
36 37 0.6 0.7 36.52716 0.65 1684.86562303
36 37 0.7 0.8 36.51409 0.75 1753.87157577
36 37 0.8 0.9 36.51929 0.85 1946.94360237
36 37 0.9 1 36.50617 0.95 2013.07553948
37 38 -1 -0.9 37.50269 -0.95 1831.28418594
37 38 -0.9 -0.8 37.50024 -0.85 1741.37375663
37 38 -0.8 -0.7 37.4981 -0.75 1774.90158731
37 38 -0.7 -0.6 37.51953 -0.65 1620.73148856
37 38 -0.6 -0.5 37.49908 -0.55 1781.4668455
37 38 -0.5 -0.4 37.50192 -0.45 1823.21647145
37 38 -0.4 -0.3 37.46824 -0.35 1637.29466615
37 38 -0.3 -0.2 37.48802 -0.25 1810.61686541
37 38 -0.2 -0.1 37.48693 -0.15 1957.76780085
37 38 -0.1 0 37.51418 -0.05 1902.22551486
37 38 0 0.1 37.49032 0.05 1975.85031759
37 38 0.1 0.2 37.50345 0.15 1790.00680603
37 38 0.2 0.3 37.53351 0.25 1739.41764744
37 38 0.3 0.4 37.49728 0.35 1833.81717599
37 38 0.4 0.5 37.49713 0.45 1764.80890991
37 38 0.5 0.6 37.49008 0.55 1763.8712332
37 38 0.6 0.7 37.49498 0.65 1614.11269647
37 38 0.7 0.8 37.52056 0.75 1851.13020037
37 38 0.8 0.9 37.51388 0.85 2001.11906324
37 38 0.9 1 37.5111 0.95 1849.54225315
38 39 -1 -0.9 38.5086 -0.95 1963.42085619
38 39 -0.9 -0.8 38.48864 -0.85 1819.49366073
38 39 -0.8 -0.7 38.482 -0.75 1961.3417271
38 39 -0.7 -0.6 38.51552 -0.65 1852.47674433
38 39 -0.6 -0.5 38.50001 -0.55 1740.47731092
38 39 -0.5 -0.4 38.49756 -0.45 1757.92428307
38 39 -0.4 -0.3 38.49704 -0.35 1700.60849291
38 39 -0.3 -0.2 38.51099 -0.25 1693.43203469
38 39 -0.2 -0.1 38.48749 -0.15 2032.01138688
38 39 -0.1 0 38.495 -0.05 1956.20734175
38 39 0 0.1 38.4958 0.05 2006.55612709
38 39 0.1 0.2 38.49617 0.15 1967.4614842
38 39 0.2 0.3 38.5108 0.25 1833.92271934
38 39 0.3 0.4 38.50497 0.35 1897.92088256
38 39 0.4 0.5 38.50267 0.45 1649.15322017
38 39 0.5 0.6 38.50265 0.55 1829.59671793
38 39 0.6 0.7 38.49623 0.65 1848.48992858
38 39 0.7 0.8 38.51289 0.75 1856.54417899
38 39 0.8 0.9 38.46298 0.85 1929.81237728
38 39 0.9 1 38.51337 0.95 1945.34328338
39 40 -1 -0.9 39.50918 -0.95 2185.12557545
39 40 -0.9 -0.8 39.48753 -0.85 1890.43732431
39 40 -0.8 -0.7 39.49351 -0.75 1759.34594063
39 40 -0.7 -0.6 39.53646 -0.65 1904.5530952
39 40 -0.6 -0.5 39.49643 -0.55 1879.85557562
39 40 -0.5 -0.4 39.5356 -0.45 1853.83911779
39 40 -0.4 -0.3 39.52085 -0.35 1945.14658762
39 40 -0.3 -0.2 39.5153 -0.25 1854.6826158
39 40 -0.2 -0.1 39.50549 -0.15 2013.80278278
39 40 -0.1 0 39.48601 -0.05 2119.71875447
39 40 0 0.1 39.5028 0.05 2118.04740587
39 40 0.1 0.2 39.4973 0.15 2099.67217482
39 40 0.2 0.3 39.50674 0.25 2033.53726246
39 40 0.3 0.4 39.50829 0.35 1885.27488221
39 40 0.4 0.5 39.50903 0.45 1824.68917883
39 40 0.5 0.6 39.50187 0.55 1884.31666479
39 40 0.6 0.7 39.50838 0.65 1953.95156209
39 40 0.7 0.8 39.48551 0.75 1887.40352092
39 40 0.8 0.9 39.49284 0.85 2058.88411845
39 40 0.9 1 39.5299 0.95 2111.30397865
40 41 -1 -0.9 40.52673 -0.95 2024.08551355
40 41 -0.9 -0.8 40.51851 -0.85 2195.1277078
40 41 -0.8 -0.7 40.52554 -0.75 2059.66919495
40 41 -0.7 -0.6 40.51525 -0.65 1855.23944274
40 41 -0.6 -0.5 40.49578 -0.55 2008.9621177
40 41 -0.5 -0.4 40.48157 -0.45 1931.01424499
40 41 -0.4 -0.3 40.49146 -0.35 1982.42783441
40 41 -0.3 -0.2 40.52706 -0.25 1958.57060624
40 41 -0.2 -0.1 40.497 -0.15 1967.13086574
40 41 -0.1 0 40.51057 -0.05 2185.1242235
40 41 0 0.1 40.49025 0.05 2130.4103782
40 41 0.1 0.2 40.48319 0.15 2086.10765257
40 41 0.2 0.3 40.49783 0.25 2053.23827936
40 41 0.3 0.4 40.53975 0.35 2004.93952263
40 41 0.4 0.5 40.5111 0.45 1885.89870293
40 41 0.5 0.6 40.51886 0.55 1926.16444207
40 41 0.6 0.7 40.50843 0.65 1876.13252638
40 41 0.7 0.8 40.5179 0.75 1958.44107379
40 41 0.8 0.9 40.50569 0.85 2050.5185932
40 41 0.9 1 40.50984 0.95 1984.80429504
