#norm = 9762238733630268.0
#edges = (np.linspace(1, 41, 41), np.linspace(-1, 1, 21))
#s_low s_high mu_low mu_high s mu wcounts
1 2 -1 -0.9 1.436118 -0.95 16939245219.9
1 2 -0.9 -0.8 1.644877 -0.85 15568074422.2
1 2 -0.8 -0.7 1.440258 -0.75 21328251369.9
1 2 -0.7 -0.6 1.83785 -0.65 12998879497.9
1 2 -0.6 -0.5 1.677891 -0.55 24946736692.8
1 2 -0.5 -0.4 1.709083 -0.45 16147135967.2
1 2 -0.4 -0.3 1.693841 -0.35 19756407080.5
1 2 -0.3 -0.2 1.456042 -0.25 10912573686.5
1 2 -0.2 -0.1 1.47292 -0.15 18936964063.3
1 2 -0.1 0 1.567019 -0.05 10231183689.5
1 2 0 0.1 1.711683 0.05 6584897156.74
1 2 0.1 0.2 1.596666 0.15 19799272987.7
1 2 0.2 0.3 1.51319 0.25 21908212640.9
1 2 0.3 0.4 1.782872 0.35 13104845425.3
1 2 0.4 0.5 1.602701 0.45 13460601777.8
1 2 0.5 0.6 1.532219 0.55 16165476604.2
1 2 0.6 0.7 1.672331 0.65 18944557261
1 2 0.7 0.8 1.531266 0.75 16388341909.4
1 2 0.8 0.9 1.325491 0.85 10440384170
1 2 0.9 1 1.702347 0.95 13491123681.9
2 3 -1 -0.9 2.554474 -0.95 40737411748.9
2 3 -0.9 -0.8 2.602927 -0.85 29695267997.2
2 3 -0.8 -0.7 2.620454 -0.75 34497861926.3
2 3 -0.7 -0.6 2.46516 -0.65 30540268866.3
2 3 -0.6 -0.5 2.59285 -0.55 46121865757.2
2 3 -0.5 -0.4 2.569276 -0.45 34043388403.1
2 3 -0.4 -0.3 2.496736 -0.35 45135327639.8
2 3 -0.3 -0.2 2.440337 -0.25 38472934455.2
2 3 -0.2 -0.1 2.516281 -0.15 49562798829.5
2 3 -0.1 0 2.653106 -0.05 45216700613.9
2 3 0 0.1 2.429421 0.05 19573476685.2
2 3 0.1 0.2 2.626756 0.15 45897539047
2 3 0.2 0.3 2.434985 0.25 37754020261.6
2 3 0.3 0.4 2.49626 0.35 28164572165.5
2 3 0.4 0.5 2.486445 0.45 40605714398.7
2 3 0.5 0.6 2.466651 0.55 34814555485.3
2 3 0.6 0.7 2.664047 0.65 46043351657.5
2 3 0.7 0.8 2.693228 0.75 46824902841
2 3 0.8 0.9 2.483282 0.85 28818478888.6
2 3 0.9 1 2.637003 0.95 37060174835.1
3 4 -1 -0.9 3.44166 -0.95 60320755874.1
3 4 -0.9 -0.8 3.483905 -0.85 72045611520.9
3 4 -0.8 -0.7 3.59099 -0.75 57462039540
3 4 -0.7 -0.6 3.470674 -0.65 65100839582.1
3 4 -0.6 -0.5 3.566841 -0.55 97115171055.1
3 4 -0.5 -0.4 3.599775 -0.45 76628673477.2
3 4 -0.4 -0.3 3.51513 -0.35 78030565900.9
3 4 -0.3 -0.2 3.554228 -0.25 77470291678
3 4 -0.2 -0.1 3.484774 -0.15 71379933904.1
3 4 -0.1 0 3.600736 -0.05 79012686924.4
3 4 0 0.1 3.505991 0.05 76205718096.3
3 4 0.1 0.2 3.529682 0.15 113907631920
3 4 0.2 0.3 3.546178 0.25 51547605476.7
3 4 0.3 0.4 3.494655 0.35 84935006735.2
3 4 0.4 0.5 3.693659 0.45 67586054033.3
3 4 0.5 0.6 3.567726 0.55 51410381492.9
3 4 0.6 0.7 3.531631 0.65 45524447205.7
3 4 0.7 0.8 3.576912 0.75 68345845818.1
3 4 0.8 0.9 3.676358 0.85 59679660495.5
3 4 0.9 1 3.566614 0.95 101389091963
4 5 -1 -0.9 4.447422 -0.95 121212666076
4 5 -0.9 -0.8 4.581907 -0.85 137256567601
4 5 -0.8 -0.7 4.627481 -0.75 83108513736.7
4 5 -0.7 -0.6 4.56075 -0.65 117517343582
4 5 -0.6 -0.5 4.509471 -0.55 116200884384
4 5 -0.5 -0.4 4.535999 -0.45 135994160417
4 5 -0.4 -0.3 4.515546 -0.35 81001143639.5
4 5 -0.3 -0.2 4.401749 -0.25 90013515494.4
4 5 -0.2 -0.1 4.546516 -0.15 100977751874
4 5 -0.1 0 4.544813 -0.05 98126076515.2
4 5 0 0.1 4.549077 0.05 107656833122
4 5 0.1 0.2 4.510915 0.15 131028062617
4 5 0.2 0.3 4.653037 0.25 92879082609.6
4 5 0.3 0.4 4.642731 0.35 105321614518
4 5 0.4 0.5 4.50198 0.45 102937539379
4 5 0.5 0.6 4.575828 0.55 113569904586
4 5 0.6 0.7 4.516089 0.65 99956748110.6
4 5 0.7 0.8 4.527304 0.75 171139566792
4 5 0.8 0.9 4.625892 0.85 138145597868
4 5 0.9 1 4.513188 0.95 129381909879
5 6 -1 -0.9 5.542425 -0.95 163568191468
5 6 -0.9 -0.8 5.494791 -0.85 139006325448
5 6 -0.8 -0.7 5.528064 -0.75 160004542682
5 6 -0.7 -0.6 5.552906 -0.65 189138962978
5 6 -0.6 -0.5 5.501057 -0.55 207330187589
5 6 -0.5 -0.4 5.533796 -0.45 196322432097
5 6 -0.4 -0.3 5.543678 -0.35 188822164535
5 6 -0.3 -0.2 5.527936 -0.25 187798486718
5 6 -0.2 -0.1 5.568369 -0.15 215229626198
5 6 -0.1 0 5.472597 -0.05 154296284782
5 6 0 0.1 5.510815 0.05 196711673311
5 6 0.1 0.2 5.56883 0.15 159083238087
5 6 0.2 0.3 5.554348 0.25 173480435394
5 6 0.3 0.4 5.557437 0.35 168639239669
5 6 0.4 0.5 5.576633 0.45 195236163655
5 6 0.5 0.6 5.509571 0.55 158787529660
5 6 0.6 0.7 5.46145 0.65 166243920497
5 6 0.7 0.8 5.528062 0.75 168557415687
5 6 0.8 0.9 5.588489 0.85 137732749454
5 6 0.9 1 5.527985 0.95 166539593942
6 7 -1 -0.9 6.508748 -0.95 236141768028
6 7 -0.9 -0.8 6.566169 -0.85 231159025629
6 7 -0.8 -0.7 6.480964 -0.75 250829502763
6 7 -0.7 -0.6 6.545096 -0.65 224185897478
6 7 -0.6 -0.5 6.526 -0.55 228995753545
6 7 -0.5 -0.4 6.517863 -0.45 247609550851
6 7 -0.4 -0.3 6.536258 -0.35 234557643528
6 7 -0.3 -0.2 6.539407 -0.25 212335956901
6 7 -0.2 -0.1 6.503919 -0.15 258660196537
6 7 -0.1 0 6.512388 -0.05 224432442892
6 7 0 0.1 6.474662 0.05 230995164990
6 7 0.1 0.2 6.54148 0.15 247511382245
6 7 0.2 0.3 6.549764 0.25 210917681592
6 7 0.3 0.4 6.564941 0.35 221260292527
6 7 0.4 0.5 6.495948 0.45 212060332079
6 7 0.5 0.6 6.523091 0.55 239765733134
6 7 0.6 0.7 6.541874 0.65 233769078564
6 7 0.7 0.8 6.548483 0.75 238589829463
6 7 0.8 0.9 6.565427 0.85 229682195443
6 7 0.9 1 6.464913 0.95 236244801642
7 8 -1 -0.9 7.538955 -0.95 310595444176
7 8 -0.9 -0.8 7.450706 -0.85 277007538521
7 8 -0.8 -0.7 7.55626 -0.75 271217091265
7 8 -0.7 -0.6 7.472385 -0.65 302319909905
7 8 -0.6 -0.5 7.509932 -0.55 304874170529
7 8 -0.5 -0.4 7.493427 -0.45 315770132866
7 8 -0.4 -0.3 7.534141 -0.35 288239105389
7 8 -0.3 -0.2 7.527876 -0.25 265587363159
7 8 -0.2 -0.1 7.47406 -0.15 288339817781
7 8 -0.1 0 7.519731 -0.05 358044392127
7 8 0 0.1 7.556982 0.05 360270714997
7 8 0.1 0.2 7.544616 0.15 297841769684
7 8 0.2 0.3 7.548862 0.25 383969699112
7 8 0.3 0.4 7.533431 0.35 291429646014
7 8 0.4 0.5 7.481152 0.45 303901641183
7 8 0.5 0.6 7.571308 0.55 299279415439
7 8 0.6 0.7 7.531477 0.65 310727901256
7 8 0.7 0.8 7.469011 0.75 364984317760
7 8 0.8 0.9 7.550551 0.85 302359882909
7 8 0.9 1 7.519984 0.95 392427574286
8 9 -1 -0.9 8.489447 -0.95 380872994065
8 9 -0.9 -0.8 8.538734 -0.85 416276866190
8 9 -0.8 -0.7 8.558676 -0.75 365088019788
8 9 -0.7 -0.6 8.514434 -0.65 406841790330
8 9 -0.6 -0.5 8.538546 -0.55 423699020605
8 9 -0.5 -0.4 8.487353 -0.45 396257475393
8 9 -0.4 -0.3 8.520006 -0.35 393357941458
8 9 -0.3 -0.2 8.504752 -0.25 443273728352
8 9 -0.2 -0.1 8.526307 -0.15 368227909749
8 9 -0.1 0 8.555501 -0.05 352780490072
8 9 0 0.1 8.518567 0.05 399738844099
8 9 0.1 0.2 8.49221 0.15 399220001907
8 9 0.2 0.3 8.539132 0.25 386597272660
8 9 0.3 0.4 8.522922 0.35 381399135105
8 9 0.4 0.5 8.489914 0.45 408067068828
8 9 0.5 0.6 8.499164 0.55 358232139140
8 9 0.6 0.7 8.518468 0.65 491817181611
8 9 0.7 0.8 8.501223 0.75 377803238558
8 9 0.8 0.9 8.480634 0.85 350841559450
8 9 0.9 1 8.508206 0.95 429048765051
9 10 -1 -0.9 9.495191 -0.95 457908334705
9 10 -0.9 -0.8 9.476713 -0.85 406362849729
9 10 -0.8 -0.7 9.496286 -0.75 438097880871
9 10 -0.7 -0.6 9.504966 -0.65 413689326450
9 10 -0.6 -0.5 9.49428 -0.55 443118588523
9 10 -0.5 -0.4 9.508491 -0.45 503873723155
9 10 -0.4 -0.3 9.538536 -0.35 483989207401
9 10 -0.3 -0.2 9.520239 -0.25 436212572253
9 10 -0.2 -0.1 9.544349 -0.15 486758355870
9 10 -0.1 0 9.538726 -0.05 487729529676
9 10 0 0.1 9.486869 0.05 510483595127
9 10 0.1 0.2 9.505203 0.15 488034642393
9 10 0.2 0.3 9.524761 0.25 505112940267
9 10 0.3 0.4 9.522584 0.35 463935291096
9 10 0.4 0.5 9.490909 0.45 455131045796
9 10 0.5 0.6 9.51414 0.55 495228378771
9 10 0.6 0.7 9.494509 0.65 454734702084
9 10 0.7 0.8 9.502377 0.75 409930341930
9 10 0.8 0.9 9.521008 0.85 450320852400
9 10 0.9 1 9.519843 0.95 538381041499
10 11 -1 -0.9 10.52882 -0.95 509216831727
10 11 -0.9 -0.8 10.51778 -0.85 656147365050
10 11 -0.8 -0.7 10.53064 -0.75 592681141282
10 11 -0.7 -0.6 10.5229 -0.65 628698625753
10 11 -0.6 -0.5 10.5292 -0.55 584801297580
10 11 -0.5 -0.4 10.48221 -0.45 584599101621
10 11 -0.4 -0.3 10.49523 -0.35 546750243217
10 11 -0.3 -0.2 10.55338 -0.25 559405141158
10 11 -0.2 -0.1 10.50047 -0.15 593668931890
10 11 -0.1 0 10.50933 -0.05 596793556204
10 11 0 0.1 10.52031 0.05 514960455826
10 11 0.1 0.2 10.51413 0.15 596788005410
10 11 0.2 0.3 10.5375 0.25 615709352627
10 11 0.3 0.4 10.49422 0.35 546502787842
10 11 0.4 0.5 10.50082 0.45 510074936028
10 11 0.5 0.6 10.50257 0.55 614383106957
10 11 0.6 0.7 10.5356 0.65 566103188693
10 11 0.7 0.8 10.5136 0.75 579430907806
10 11 0.8 0.9 10.54065 0.85 499434645897
10 11 0.9 1 10.49544 0.95 513172652924
11 12 -1 -0.9 11.48058 -0.95 641156650613
11 12 -0.9 -0.8 11.53266 -0.85 707479156809
11 12 -0.8 -0.7 11.49799 -0.75 720218135566
11 12 -0.7 -0.6 11.52449 -0.65 652408125646
11 12 -0.6 -0.5 11.50732 -0.55 639318967732
11 12 -0.5 -0.4 11.50929 -0.45 623378867795
11 12 -0.4 -0.3 11.51798 -0.35 708059161827
11 12 -0.3 -0.2 11.5038 -0.25 671757023782
11 12 -0.2 -0.1 11.50198 -0.15 654126531156
11 12 -0.1 0 11.49972 -0.05 699527239149
11 12 0 0.1 11.50218 0.05 762362920125
11 12 0.1 0.2 11.52245 0.15 709502448577
11 12 0.2 0.3 11.48195 0.25 648642980845
11 12 0.3 0.4 11.50402 0.35 732154269817
11 12 0.4 0.5 11.53531 0.45 604893621028
11 12 0.5 0.6 11.5412 0.55 700023278544
11 12 0.6 0.7 11.52094 0.65 670416490305
11 12 0.7 0.8 11.49502 0.75 670256726942
11 12 0.8 0.9 11.47387 0.85 623721221915
11 12 0.9 1 11.52549 0.95 755931525685
12 13 -1 -0.9 12.53225 -0.95 815464669362
12 13 -0.9 -0.8 12.5396 -0.85 841194057631
12 13 -0.8 -0.7 12.51577 -0.75 783150108713
12 13 -0.7 -0.6 12.52426 -0.65 785095640916
12 13 -0.6 -0.5 12.50743 -0.55 805791084964
12 13 -0.5 -0.4 12.53768 -0.45 788173517520
12 13 -0.4 -0.3 12.50651 -0.35 754327586247
12 13 -0.3 -0.2 12.54938 -0.25 738120059827
12 13 -0.2 -0.1 12.50713 -0.15 774167400760
12 13 -0.1 0 12.50003 -0.05 831328295211
12 13 0 0.1 12.53147 0.05 799349459600
12 13 0.1 0.2 12.49992 0.15 865260228816
12 13 0.2 0.3 12.49282 0.25 841062102406
12 13 0.3 0.4 12.49699 0.35 828306138172
12 13 0.4 0.5 12.50487 0.45 824877300465
12 13 0.5 0.6 12.51041 0.55 760314744282
12 13 0.6 0.7 12.51761 0.65 787953608191
12 13 0.7 0.8 12.52598 0.75 762921518477
12 13 0.8 0.9 12.53068 0.85 778827223044
12 13 0.9 1 12.52437 0.95 805215055442
13 14 -1 -0.9 13.51929 -0.95 960923066285
13 14 -0.9 -0.8 13.52348 -0.85 970553433386
13 14 -0.8 -0.7 13.51067 -0.75 881135711095
13 14 -0.7 -0.6 13.52413 -0.65 935035461780
13 14 -0.6 -0.5 13.47475 -0.55 862065273378
13 14 -0.5 -0.4 13.51326 -0.45 857454695951
13 14 -0.4 -0.3 13.51727 -0.35 875231130500
13 14 -0.3 -0.2 13.48999 -0.25 846577735961
13 14 -0.2 -0.1 13.52375 -0.15 970574973241
13 14 -0.1 0 13.52743 -0.05 888506532864
13 14 0 0.1 13.51067 0.05 893621483312
13 14 0.1 0.2 13.50245 0.15 971769743510
13 14 0.2 0.3 13.5078 0.25 860843706428
13 14 0.3 0.4 13.49404 0.35 923911768673
13 14 0.4 0.5 13.51174 0.45 956145174821
13 14 0.5 0.6 13.52954 0.55 897930048049
13 14 0.6 0.7 13.54116 0.65 927681583783
13 14 0.7 0.8 13.49894 0.75 924840603803
13 14 0.8 0.9 13.50074 0.85 908373335046
13 14 0.9 1 13.51449 0.95 936000437083
14 15 -1 -0.9 14.48733 -0.95 1.05515539415e+12
14 15 -0.9 -0.8 14.51076 -0.85 1.03213033108e+12
14 15 -0.8 -0.7 14.50543 -0.75 962159041332
14 15 -0.7 -0.6 14.51338 -0.65 973846074449
14 15 -0.6 -0.5 14.50155 -0.55 1.07416410928e+12
14 15 -0.5 -0.4 14.50618 -0.45 1.09060280328e+12
14 15 -0.4 -0.3 14.50623 -0.35 971413472756
14 15 -0.3 -0.2 14.54613 -0.25 931269062425
14 15 -0.2 -0.1 14.51308 -0.15 1.01963257289e+12
14 15 -0.1 0 14.50538 -0.05 1.11914546084e+12
14 15 0 0.1 14.49853 0.05 1.04641906698e+12
14 15 0.1 0.2 14.51498 0.15 1.03180171637e+12
14 15 0.2 0.3 14.50405 0.25 1.07572492744e+12
14 15 0.3 0.4 14.50676 0.35 1.01217872115e+12
14 15 0.4 0.5 14.4729 0.45 1.04545771917e+12
14 15 0.5 0.6 14.50656 0.55 1.05145019223e+12
14 15 0.6 0.7 14.52505 0.65 1.10227057619e+12
14 15 0.7 0.8 14.48528 0.75 947852136809
14 15 0.8 0.9 14.50898 0.85 1.02545374666e+12
14 15 0.9 1 14.49905 0.95 1.05350899526e+12
15 16 -1 -0.9 15.53708 -0.95 1.25002271142e+12
15 16 -0.9 -0.8 15.52151 -0.85 1.03369228928e+12
15 16 -0.8 -0.7 15.50245 -0.75 1.13164781042e+12
15 16 -0.7 -0.6 15.51393 -0.65 1.23446865102e+12
15 16 -0.6 -0.5 15.50434 -0.55 1.10518062975e+12
15 16 -0.5 -0.4 15.50906 -0.45 1.12286964371e+12
15 16 -0.4 -0.3 15.50106 -0.35 1.22833284074e+12
15 16 -0.3 -0.2 15.51829 -0.25 1.28012922641e+12
15 16 -0.2 -0.1 15.51743 -0.15 1.24173792913e+12
15 16 -0.1 0 15.51573 -0.05 1.15424956426e+12
15 16 0 0.1 15.51501 0.05 1.23933774848e+12
15 16 0.1 0.2 15.50624 0.15 1.11964449741e+12
15 16 0.2 0.3 15.53717 0.25 1.21889118773e+12
15 16 0.3 0.4 15.48131 0.35 1.13843673227e+12
15 16 0.4 0.5 15.50567 0.45 1.09358721713e+12
15 16 0.5 0.6 15.50591 0.55 1.09013892821e+12
15 16 0.6 0.7 15.4905 0.65 1.11703756705e+12
15 16 0.7 0.8 15.49501 0.75 1.18519794797e+12
15 16 0.8 0.9 15.52405 0.85 1.17118100977e+12
15 16 0.9 1 15.50191 0.95 1.173313853e+12
16 17 -1 -0.9 16.51459 -0.95 1.29768173144e+12
16 17 -0.9 -0.8 16.50921 -0.85 1.23415286346e+12
16 17 -0.8 -0.7 16.4887 -0.75 1.20191199059e+12
16 17 -0.7 -0.6 16.49479 -0.65 1.22130518525e+12
16 17 -0.6 -0.5 16.50472 -0.55 1.22036706089e+12
16 17 -0.5 -0.4 16.48555 -0.45 1.25521136861e+12
16 17 -0.4 -0.3 16.50636 -0.35 1.21679287327e+12
16 17 -0.3 -0.2 16.49803 -0.25 1.37761648387e+12
16 17 -0.2 -0.1 16.53141 -0.15 1.4733469037e+12
16 17 -0.1 0 16.53292 -0.05 1.40413698733e+12
16 17 0 0.1 16.51022 0.05 1.25905372019e+12
16 17 0.1 0.2 16.49052 0.15 1.35254913785e+12
16 17 0.2 0.3 16.51293 0.25 1.28417710567e+12
16 17 0.3 0.4 16.51513 0.35 1.27613513876e+12
16 17 0.4 0.5 16.51918 0.45 1.33485933851e+12
16 17 0.5 0.6 16.5181 0.55 1.19880659962e+12
16 17 0.6 0.7 16.50628 0.65 1.28278401011e+12
16 17 0.7 0.8 16.48294 0.75 1.27392845884e+12
16 17 0.8 0.9 16.49301 0.85 1.19408230319e+12
16 17 0.9 1 16.50445 0.95 1.26888869454e+12
17 18 -1 -0.9 17.50645 -0.95 1.52312869682e+12
17 18 -0.9 -0.8 17.50882 -0.85 1.40398513166e+12
17 18 -0.8 -0.7 17.51737 -0.75 1.35571276233e+12
17 18 -0.7 -0.6 17.51335 -0.65 1.30563836749e+12
17 18 -0.6 -0.5 17.49646 -0.55 1.41426987189e+12
17 18 -0.5 -0.4 17.51612 -0.45 1.41596377497e+12
17 18 -0.4 -0.3 17.50156 -0.35 1.52544621778e+12
17 18 -0.3 -0.2 17.49298 -0.25 1.50124824824e+12
17 18 -0.2 -0.1 17.51015 -0.15 1.35985176591e+12
17 18 -0.1 0 17.49832 -0.05 1.44375540588e+12
17 18 0 0.1 17.51103 0.05 1.42106565505e+12
17 18 0.1 0.2 17.52076 0.15 1.43998738785e+12
17 18 0.2 0.3 17.50435 0.25 1.28846798758e+12
17 18 0.3 0.4 17.499 0.35 1.32557018488e+12
17 18 0.4 0.5 17.51588 0.45 1.44433828548e+12
17 18 0.5 0.6 17.49976 0.55 1.31429058045e+12
17 18 0.6 0.7 17.50828 0.65 1.35164508592e+12
17 18 0.7 0.8 17.51485 0.75 1.46368573857e+12
17 18 0.8 0.9 17.51804 0.85 1.42375636409e+12
17 18 0.9 1 17.4798 0.95 1.39896651025e+12
18 19 -1 -0.9 18.51621 -0.95 1.65383620671e+12
18 19 -0.9 -0.8 18.48456 -0.85 1.50399427446e+12
18 19 -0.8 -0.7 18.53661 -0.75 1.45417320559e+12
18 19 -0.7 -0.6 18.497 -0.65 1.38472654632e+12
18 19 -0.6 -0.5 18.49635 -0.55 1.50690399294e+12
18 19 -0.5 -0.4 18.49445 -0.45 1.45951130016e+12
18 19 -0.4 -0.3 18.52312 -0.35 1.50234172205e+12
18 19 -0.3 -0.2 18.49261 -0.25 1.57272910971e+12
18 19 -0.2 -0.1 18.5031 -0.15 1.65933815241e+12
18 19 -0.1 0 18.51559 -0.05 1.56966451758e+12
18 19 0 0.1 18.49536 0.05 1.62025317205e+12
18 19 0.1 0.2 18.54862 0.15 1.53007091265e+12
18 19 0.2 0.3 18.50982 0.25 1.55441322096e+12
18 19 0.3 0.4 18.47857 0.35 1.57887806096e+12
18 19 0.4 0.5 18.52244 0.45 1.51586399016e+12
18 19 0.5 0.6 18.51649 0.55 1.54859732221e+12
18 19 0.6 0.7 18.50358 0.65 1.54356941928e+12
18 19 0.7 0.8 18.5086 0.75 1.4443308928e+12
18 19 0.8 0.9 18.48731 0.85 1.67239209927e+12
18 19 0.9 1 18.51508 0.95 1.68296745553e+12
19 20 -1 -0.9 19.51068 -0.95 1.79018669562e+12
19 20 -0.9 -0.8 19.50412 -0.85 1.70383272652e+12
19 20 -0.8 -0.7 19.51076 -0.75 1.66873469075e+12
19 20 -0.7 -0.6 19.53 -0.65 1.65484453373e+12
19 20 -0.6 -0.5 19.50334 -0.55 1.67562343207e+12
19 20 -0.5 -0.4 19.51319 -0.45 1.65648068153e+12
19 20 -0.4 -0.3 19.52913 -0.35 1.75539398538e+12
19 20 -0.3 -0.2 19.50992 -0.25 1.79683521621e+12
19 20 -0.2 -0.1 19.50254 -0.15 1.6579783077e+12
19 20 -0.1 0 19.50765 -0.05 1.73058347812e+12
19 20 0 0.1 19.50835 0.05 1.6523671217e+12
19 20 0.1 0.2 19.49568 0.15 1.73701564801e+12
19 20 0.2 0.3 19.49582 0.25 1.69796299645e+12
19 20 0.3 0.4 19.52341 0.35 1.66843612643e+12
19 20 0.4 0.5 19.51183 0.45 1.68705643205e+12
19 20 0.5 0.6 19.51151 0.55 1.64805521217e+12
19 20 0.6 0.7 19.51874 0.65 1.55560310023e+12
19 20 0.7 0.8 19.51333 0.75 1.66472585374e+12
19 20 0.8 0.9 19.51389 0.85 1.60727893844e+12
19 20 0.9 1 19.50987 0.95 1.79215240635e+12
20 21 -1 -0.9 20.51451 -0.95 1.92291048175e+12
20 21 -0.9 -0.8 20.51635 -0.85 1.6735213518e+12
20 21 -0.8 -0.7 20.49629 -0.75 1.79247733943e+12
20 21 -0.7 -0.6 20.51024 -0.65 1.81354999424e+12
20 21 -0.6 -0.5 20.50462 -0.55 1.70834803231e+12
20 21 -0.5 -0.4 20.48799 -0.45 1.79245397685e+12
20 21 -0.4 -0.3 20.50992 -0.35 1.91432737064e+12
20 21 -0.3 -0.2 20.50529 -0.25 1.8315492543e+12
20 21 -0.2 -0.1 20.51715 -0.15 1.86667861176e+12
20 21 -0.1 0 20.49691 -0.05 1.91045243274e+12
20 21 0 0.1 20.51126 0.05 1.85082898921e+12
20 21 0.1 0.2 20.51161 0.15 1.92472652679e+12
20 21 0.2 0.3 20.50457 0.25 1.84388088947e+12
20 21 0.3 0.4 20.4774 0.35 1.88523675806e+12
20 21 0.4 0.5 20.51413 0.45 1.85963498106e+12
20 21 0.5 0.6 20.50312 0.55 1.83085458501e+12
20 21 0.6 0.7 20.50977 0.65 1.80664950292e+12
20 21 0.7 0.8 20.50612 0.75 1.89983165898e+12
20 21 0.8 0.9 20.49918 0.85 1.89808855412e+12
20 21 0.9 1 20.51057 0.95 1.95971126593e+12
21 22 -1 -0.9 21.51275 -0.95 2.21591005904e+12
21 22 -0.9 -0.8 21.52264 -0.85 1.97046381957e+12
21 22 -0.8 -0.7 21.51379 -0.75 1.9463809186e+12
21 22 -0.7 -0.6 21.49128 -0.65 1.93707392842e+12
21 22 -0.6 -0.5 21.4931 -0.55 1.95689454359e+12
21 22 -0.5 -0.4 21.51204 -0.45 2.0290900282e+12
21 22 -0.4 -0.3 21.49785 -0.35 2.09281245648e+12
21 22 -0.3 -0.2 21.48443 -0.25 2.00129897003e+12
21 22 -0.2 -0.1 21.50687 -0.15 2.02145635916e+12
21 22 -0.1 0 21.50861 -0.05 2.07408772382e+12
21 22 0 0.1 21.49846 0.05 2.11257548598e+12
21 22 0.1 0.2 21.50908 0.15 2.02101477062e+12
21 22 0.2 0.3 21.52424 0.25 2.17428326557e+12
21 22 0.3 0.4 21.48148 0.35 1.98833825315e+12
21 22 0.4 0.5 21.52522 0.45 1.94660643304e+12
21 22 0.5 0.6 21.50658 0.55 1.99965687733e+12
21 22 0.6 0.7 21.52709 0.65 1.91451655661e+12
21 22 0.7 0.8 21.50355 0.75 1.90258175463e+12
21 22 0.8 0.9 21.52367 0.85 1.91509066803e+12
21 22 0.9 1 21.49516 0.95 2.10773970986e+12
22 23 -1 -0.9 22.52495 -0.95 2.09365914502e+12
22 23 -0.9 -0.8 22.50487 -0.85 2.05314305745e+12
22 23 -0.8 -0.7 22.49132 -0.75 2.15041456184e+12
22 23 -0.7 -0.6 22.5271 -0.65 2.19905293852e+12
22 23 -0.6 -0.5 22.4974 -0.55 2.00948012646e+12
22 23 -0.5 -0.4 22.51113 -0.45 2.04744243254e+12
22 23 -0.4 -0.3 22.50454 -0.35 2.26309961488e+12
22 23 -0.3 -0.2 22.51533 -0.25 2.10928773135e+12
22 23 -0.2 -0.1 22.53058 -0.15 2.26606890797e+12
22 23 -0.1 0 22.49908 -0.05 2.25889188011e+12
22 23 0 0.1 22.50259 0.05 2.33937173203e+12
22 23 0.1 0.2 22.48163 0.15 2.26317469406e+12
22 23 0.2 0.3 22.5017 0.25 2.09120939653e+12
22 23 0.3 0.4 22.51345 0.35 2.16541846248e+12
22 23 0.4 0.5 22.50868 0.45 2.10997910981e+12
22 23 0.5 0.6 22.51546 0.55 2.08193084087e+12
22 23 0.6 0.7 22.49775 0.65 2.05934220696e+12
22 23 0.7 0.8 22.50724 0.75 1.93792443503e+12
22 23 0.8 0.9 22.53192 0.85 2.1844807449e+12
22 23 0.9 1 22.51631 0.95 2.18593580351e+12
23 24 -1 -0.9 23.50565 -0.95 2.4555504059e+12
23 24 -0.9 -0.8 23.4855 -0.85 2.17373568893e+12
23 24 -0.8 -0.7 23.5158 -0.75 2.3949697079e+12
23 24 -0.7 -0.6 23.5148 -0.65 2.09364651415e+12
23 24 -0.6 -0.5 23.48492 -0.55 2.24085199761e+12
23 24 -0.5 -0.4 23.51552 -0.45 2.22204083216e+12
23 24 -0.4 -0.3 23.50924 -0.35 2.22451495683e+12
23 24 -0.3 -0.2 23.50289 -0.25 2.30675117111e+12
23 24 -0.2 -0.1 23.49683 -0.15 2.25479931414e+12
23 24 -0.1 0 23.51102 -0.05 2.2657404939e+12
23 24 0 0.1 23.49847 0.05 2.28855164234e+12
23 24 0.1 0.2 23.52374 0.15 2.29952934175e+12
23 24 0.2 0.3 23.51778 0.25 2.37605479912e+12
23 24 0.3 0.4 23.50017 0.35 2.41619130757e+12
23 24 0.4 0.5 23.50104 0.45 2.39861793143e+12
23 24 0.5 0.6 23.50393 0.55 2.30292605072e+12
23 24 0.6 0.7 23.51848 0.65 2.34258144933e+12
23 24 0.7 0.8 23.49087 0.75 2.23864969979e+12
23 24 0.8 0.9 23.5033 0.85 2.33753939522e+12
23 24 0.9 1 23.50987 0.95 2.54420428025e+12
24 25 -1 -0.9 24.5098 -0.95 2.44369481754e+12
24 25 -0.9 -0.8 24.50982 -0.85 2.33256210022e+12
24 25 -0.8 -0.7 24.51709 -0.75 2.28784393002e+12
24 25 -0.7 -0.6 24.51876 -0.65 2.41892047714e+12
24 25 -0.6 -0.5 24.51765 -0.55 2.49212715826e+12
24 25 -0.5 -0.4 24.50622 -0.45 2.42711628236e+12
24 25 -0.4 -0.3 24.5076 -0.35 2.4816975631e+12
24 25 -0.3 -0.2 24.50877 -0.25 2.53750333057e+12
24 25 -0.2 -0.1 24.52109 -0.15 2.59208316894e+12
24 25 -0.1 0 24.52579 -0.05 2.59583086895e+12
24 25 0 0.1 24.50978 0.05 2.62619751085e+12
24 25 0.1 0.2 24.49998 0.15 2.65995658274e+12
24 25 0.2 0.3 24.50846 0.25 2.61656892008e+12
24 25 0.3 0.4 24.51828 0.35 2.53838803424e+12
24 25 0.4 0.5 24.50383 0.45 2.49731953448e+12
24 25 0.5 0.6 24.50013 0.55 2.53541268223e+12
24 25 0.6 0.7 24.50154 0.65 2.40138125087e+12
24 25 0.7 0.8 24.48934 0.75 2.41407643168e+12
24 25 0.8 0.9 24.52046 0.85 2.34186901216e+12
24 25 0.9 1 24.52137 0.95 2.55501644939e+12
25 26 -1 -0.9 25.49976 -0.95 2.69075998788e+12
25 26 -0.9 -0.8 25.49789 -0.85 2.49295787328e+12
25 26 -0.8 -0.7 25.50418 -0.75 2.57216250747e+12
25 26 -0.7 -0.6 25.50813 -0.65 2.39556956745e+12
25 26 -0.6 -0.5 25.51134 -0.55 2.46939696057e+12
25 26 -0.5 -0.4 25.50456 -0.45 2.52387734823e+12
25 26 -0.4 -0.3 25.49999 -0.35 2.53409752316e+12
25 26 -0.3 -0.2 25.53068 -0.25 2.64351356209e+12
25 26 -0.2 -0.1 25.50356 -0.15 2.81608964328e+12
25 26 -0.1 0 25.49777 -0.05 2.77656856531e+12
25 26 0 0.1 25.49262 0.05 2.78386908107e+12
25 26 0.1 0.2 25.49868 0.15 2.67453323332e+12
25 26 0.2 0.3 25.50768 0.25 2.5725832053e+12
25 26 0.3 0.4 25.50393 0.35 2.62060857658e+12
25 26 0.4 0.5 25.50396 0.45 2.68971532185e+12
25 26 0.5 0.6 25.48861 0.55 2.50801790008e+12
25 26 0.6 0.7 25.52795 0.65 2.6490191353e+12
25 26 0.7 0.8 25.49706 0.75 2.57795472898e+12
25 26 0.8 0.9 25.49712 0.85 2.59808303215e+12
25 26 0.9 1 25.51815 0.95 2.87350495192e+12
26 27 -1 -0.9 26.51007 -0.95 2.7420152451e+12
26 27 -0.9 -0.8 26.488 -0.85 2.8796517096e+12
26 27 -0.8 -0.7 26.48832 -0.75 2.52917275472e+12
26 27 -0.7 -0.6 26.4889 -0.65 2.67664754388e+12
26 27 -0.6 -0.5 26.50674 -0.55 2.611797749e+12
26 27 -0.5 -0.4 26.50127 -0.45 2.7466704568e+12
26 27 -0.4 -0.3 26.51986 -0.35 2.6994268055e+12
26 27 -0.3 -0.2 26.51161 -0.25 2.82267328182e+12
26 27 -0.2 -0.1 26.51678 -0.15 3.02136665459e+12
26 27 -0.1 0 26.49718 -0.05 2.74253939792e+12
26 27 0 0.1 26.50151 0.05 2.98272982216e+12
26 27 0.1 0.2 26.51433 0.15 2.84609204029e+12
26 27 0.2 0.3 26.49265 0.25 2.77204155178e+12
26 27 0.3 0.4 26.50454 0.35 2.92696433894e+12
26 27 0.4 0.5 26.50492 0.45 2.73291427357e+12
26 27 0.5 0.6 26.5148 0.55 2.75349195916e+12
26 27 0.6 0.7 26.49185 0.65 2.67736529694e+12
26 27 0.7 0.8 26.49752 0.75 2.76679123089e+12
26 27 0.8 0.9 26.50767 0.85 2.83984548153e+12
26 27 0.9 1 26.51096 0.95 2.8965938507e+12
27 28 -1 -0.9 27.50391 -0.95 3.14726463728e+12
27 28 -0.9 -0.8 27.50752 -0.85 2.85579862168e+12
27 28 -0.8 -0.7 27.52177 -0.75 2.89462766888e+12
27 28 -0.7 -0.6 27.49812 -0.65 2.63929589629e+12
27 28 -0.6 -0.5 27.50752 -0.55 2.70918797855e+12
27 28 -0.5 -0.4 27.49932 -0.45 2.74701860795e+12
27 28 -0.4 -0.3 27.49486 -0.35 2.88631744542e+12
27 28 -0.3 -0.2 27.49527 -0.25 2.95559806107e+12
27 28 -0.2 -0.1 27.50446 -0.15 3.06768315917e+12
27 28 -0.1 0 27.51093 -0.05 2.97485861643e+12
27 28 0 0.1 27.49948 0.05 3.08243523188e+12
27 28 0.1 0.2 27.51907 0.15 3.00621917063e+12
27 28 0.2 0.3 27.50371 0.25 2.97917518489e+12
27 28 0.3 0.4 27.50389 0.35 2.86609774529e+12
27 28 0.4 0.5 27.48959 0.45 2.97106784868e+12
27 28 0.5 0.6 27.49164 0.55 2.89001591042e+12
27 28 0.6 0.7 27.50093 0.65 2.97809929938e+12
27 28 0.7 0.8 27.50999 0.75 2.96082498944e+12
27 28 0.8 0.9 27.50986 0.85 3.008818487e+12
27 28 0.9 1 27.50169 0.95 2.91891400058e+12
28 29 -1 -0.9 28.51058 -0.95 3.25131517643e+12
28 29 -0.9 -0.8 28.50423 -0.85 3.1212781113e+12
28 29 -0.8 -0.7 28.4954 -0.75 3.11998537248e+12
28 29 -0.7 -0.6 28.49489 -0.65 2.96065188198e+12
28 29 -0.6 -0.5 28.5033 -0.55 2.97327211994e+12
28 29 -0.5 -0.4 28.51005 -0.45 3.05220341337e+12
28 29 -0.4 -0.3 28.52013 -0.35 3.08356330848e+12
28 29 -0.3 -0.2 28.51223 -0.25 2.99586187475e+12
28 29 -0.2 -0.1 28.49336 -0.15 3.0787488097e+12
28 29 -0.1 0 28.50924 -0.05 3.30583604702e+12
28 29 0 0.1 28.50978 0.05 3.42923945498e+12
28 29 0.1 0.2 28.51108 0.15 3.12623790483e+12
28 29 0.2 0.3 28.51247 0.25 3.11697417955e+12
28 29 0.3 0.4 28.51828 0.35 3.11401855914e+12
28 29 0.4 0.5 28.4979 0.45 3.05975574639e+12
28 29 0.5 0.6 28.49381 0.55 2.87533714419e+12
28 29 0.6 0.7 28.49867 0.65 3.10385335409e+12
28 29 0.7 0.8 28.50038 0.75 2.96103959077e+12
28 29 0.8 0.9 28.50953 0.85 3.05756819908e+12
28 29 0.9 1 28.50887 0.95 3.27707989132e+12
29 30 -1 -0.9 29.51566 -0.95 3.42170156815e+12
29 30 -0.9 -0.8 29.50336 -0.85 3.29879327819e+12
29 30 -0.8 -0.7 29.50685 -0.75 3.12993231646e+12
29 30 -0.7 -0.6 29.49766 -0.65 3.09667800587e+12
29 30 -0.6 -0.5 29.50044 -0.55 3.11259378959e+12
29 30 -0.5 -0.4 29.49987 -0.45 3.26333324049e+12
29 30 -0.4 -0.3 29.51004 -0.35 3.111563669e+12
29 30 -0.3 -0.2 29.5254 -0.25 3.3016026162e+12
29 30 -0.2 -0.1 29.49402 -0.15 3.36961165056e+12
29 30 -0.1 0 29.51802 -0.05 3.45395802113e+12
29 30 0 0.1 29.51254 0.05 3.45463188218e+12
29 30 0.1 0.2 29.49079 0.15 3.33347182361e+12
29 30 0.2 0.3 29.51305 0.25 3.34915873251e+12
29 30 0.3 0.4 29.51108 0.35 3.27639319387e+12
29 30 0.4 0.5 29.50109 0.45 3.28659658749e+12
29 30 0.5 0.6 29.51077 0.55 3.10926939094e+12
29 30 0.6 0.7 29.50054 0.65 3.20071017132e+12
29 30 0.7 0.8 29.51411 0.75 3.13272358248e+12
29 30 0.8 0.9 29.49127 0.85 3.28032020033e+12
29 30 0.9 1 29.51084 0.95 3.47666978558e+12
30 31 -1 -0.9 30.50747 -0.95 3.41383711437e+12
30 31 -0.9 -0.8 30.51057 -0.85 3.27974457895e+12
30 31 -0.8 -0.7 30.50665 -0.75 3.5201882837e+12
30 31 -0.7 -0.6 30.50517 -0.65 3.36747613934e+12
30 31 -0.6 -0.5 30.50262 -0.55 3.3585457101e+12
30 31 -0.5 -0.4 30.4955 -0.45 3.44507098639e+12
30 31 -0.4 -0.3 30.50401 -0.35 3.43826777993e+12
30 31 -0.3 -0.2 30.48899 -0.25 3.50599094223e+12
30 31 -0.2 -0.1 30.50155 -0.15 3.57394491708e+12
30 31 -0.1 0 30.50708 -0.05 3.67422380266e+12
30 31 0 0.1 30.50557 0.05 3.76955370653e+12
30 31 0.1 0.2 30.50167 0.15 3.72094476289e+12
30 31 0.2 0.3 30.50095 0.25 3.41960158667e+12
30 31 0.3 0.4 30.49802 0.35 3.47167123132e+12
30 31 0.4 0.5 30.50078 0.45 3.36192175928e+12
30 31 0.5 0.6 30.49658 0.55 3.44974945622e+12
30 31 0.6 0.7 30.49164 0.65 3.47259279989e+12
30 31 0.7 0.8 30.51805 0.75 3.36293546027e+12
30 31 0.8 0.9 30.50306 0.85 3.39516904633e+12
30 31 0.9 1 30.49548 0.95 3.62102911724e+12
31 32 -1 -0.9 31.50346 -0.95 3.57985206069e+12
31 32 -0.9 -0.8 31.49279 -0.85 3.58465295092e+12
31 32 -0.8 -0.7 31.50378 -0.75 3.57907969327e+12
31 32 -0.7 -0.6 31.49182 -0.65 3.51252302076e+12
31 32 -0.6 -0.5 31.50322 -0.55 3.5299554876e+12
31 32 -0.5 -0.4 31.51357 -0.45 3.59295022377e+12
31 32 -0.4 -0.3 31.4929 -0.35 3.38217609881e+12
31 32 -0.3 -0.2 31.50419 -0.25 3.7226991268e+12
31 32 -0.2 -0.1 31.50968 -0.15 3.64826037788e+12
31 32 -0.1 0 31.5042 -0.05 3.91569427843e+12
31 32 0 0.1 31.50885 0.05 3.69347057089e+12
31 32 0.1 0.2 31.49697 0.15 3.74512377065e+12
31 32 0.2 0.3 31.49546 0.25 3.59357364505e+12
31 32 0.3 0.4 31.50787 0.35 3.62146564723e+12
31 32 0.4 0.5 31.49434 0.45 3.54181597338e+12
31 32 0.5 0.6 31.50663 0.55 3.53500565257e+12
31 32 0.6 0.7 31.51332 0.65 3.48878780009e+12
31 32 0.7 0.8 31.4964 0.75 3.52033926413e+12
31 32 0.8 0.9 31.52262 0.85 3.71884989907e+12
31 32 0.9 1 31.50288 0.95 3.83583976815e+12
32 33 -1 -0.9 32.50827 -0.95 3.95647608741e+12
32 33 -0.9 -0.8 32.49886 -0.85 3.76208238225e+12
32 33 -0.8 -0.7 32.502 -0.75 3.52068237684e+12
32 33 -0.7 -0.6 32.5104 -0.65 3.50478529503e+12
32 33 -0.6 -0.5 32.51689 -0.55 3.69824591262e+12
32 33 -0.5 -0.4 32.50896 -0.45 3.62031573863e+12
32 33 -0.4 -0.3 32.52055 -0.35 3.63159053805e+12
32 33 -0.3 -0.2 32.50372 -0.25 3.76730621176e+12
32 33 -0.2 -0.1 32.52156 -0.15 3.84918871121e+12
32 33 -0.1 0 32.50503 -0.05 3.89322014424e+12
32 33 0 0.1 32.49128 0.05 4.03605741501e+12
32 33 0.1 0.2 32.50397 0.15 3.89862602133e+12
32 33 0.2 0.3 32.51155 0.25 3.78189919076e+12
32 33 0.3 0.4 32.51202 0.35 3.79504113959e+12
32 33 0.4 0.5 32.49388 0.45 3.65495116633e+12
32 33 0.5 0.6 32.50443 0.55 3.79815122028e+12
32 33 0.6 0.7 32.49409 0.65 3.57827813593e+12
32 33 0.7 0.8 32.50521 0.75 3.73663686194e+12
32 33 0.8 0.9 32.50996 0.85 3.76201578954e+12
32 33 0.9 1 32.49539 0.95 4.07673964451e+12
33 34 -1 -0.9 33.49964 -0.95 3.97739139265e+12
33 34 -0.9 -0.8 33.49565 -0.85 3.86742791908e+12
33 34 -0.8 -0.7 33.50411 -0.75 3.91566361029e+12
33 34 -0.7 -0.6 33.50676 -0.65 3.65818642501e+12
33 34 -0.6 -0.5 33.49259 -0.55 3.61633941674e+12
33 34 -0.5 -0.4 33.49957 -0.45 3.70720486664e+12
33 34 -0.4 -0.3 33.49505 -0.35 3.70482238433e+12
33 34 -0.3 -0.2 33.51377 -0.25 3.91712041081e+12
33 34 -0.2 -0.1 33.50878 -0.15 3.94352262083e+12
33 34 -0.1 0 33.50848 -0.05 4.20264979559e+12
33 34 0 0.1 33.50207 0.05 4.06555215885e+12
33 34 0.1 0.2 33.49757 0.15 4.16632704342e+12
33 34 0.2 0.3 33.49178 0.25 3.85725098112e+12
33 34 0.3 0.4 33.5012 0.35 3.91321490666e+12
33 34 0.4 0.5 33.50684 0.45 3.64372750498e+12
33 34 0.5 0.6 33.51702 0.55 3.62368013281e+12
33 34 0.6 0.7 33.49564 0.65 3.59757190734e+12
33 34 0.7 0.8 33.50478 0.75 3.81194749861e+12
33 34 0.8 0.9 33.50299 0.85 3.99322297759e+12
33 34 0.9 1 33.50568 0.95 4.1103011782e+12
34 35 -1 -0.9 34.51687 -0.95 4.4034509306e+12
34 35 -0.9 -0.8 34.51019 -0.85 4.07596395069e+12
34 35 -0.8 -0.7 34.49053 -0.75 4.06606817418e+12
34 35 -0.7 -0.6 34.50898 -0.65 3.86855924208e+12
34 35 -0.6 -0.5 34.50701 -0.55 3.94416467484e+12
34 35 -0.5 -0.4 34.49462 -0.45 3.89021908283e+12
34 35 -0.4 -0.3 34.49241 -0.35 3.92704135805e+12
34 35 -0.3 -0.2 34.51413 -0.25 3.95350376214e+12
34 35 -0.2 -0.1 34.4992 -0.15 4.24820344141e+12
34 35 -0.1 0 34.50364 -0.05 4.22834719264e+12
34 35 0 0.1 34.51041 0.05 4.30679394389e+12
34 35 0.1 0.2 34.49837 0.15 4.14564606327e+12
34 35 0.2 0.3 34.49824 0.25 3.99190056178e+12
34 35 0.3 0.4 34.49795 0.35 3.90252144257e+12
34 35 0.4 0.5 34.51018 0.45 3.91035248907e+12
34 35 0.5 0.6 34.51345 0.55 4.14951472837e+12
34 35 0.6 0.7 34.49814 0.65 4.00311756917e+12
34 35 0.7 0.8 34.51279 0.75 4.10466838717e+12
34 35 0.8 0.9 34.50007 0.85 4.11643515766e+12
34 35 0.9 1 34.52129 0.95 4.28760563208e+12
35 36 -1 -0.9 35.51658 -0.95 4.46600431595e+12
35 36 -0.9 -0.8 35.49489 -0.85 4.30280548697e+12
35 36 -0.8 -0.7 35.50944 -0.75 4.01290736017e+12
35 36 -0.7 -0.6 35.50042 -0.65 3.9878024109e+12
35 36 -0.6 -0.5 35.50547 -0.55 4.04365181776e+12
35 36 -0.5 -0.4 35.5066 -0.45 4.08621587761e+12
35 36 -0.4 -0.3 35.49983 -0.35 4.10161695389e+12
35 36 -0.3 -0.2 35.49817 -0.25 4.33471082599e+12
35 36 -0.2 -0.1 35.49433 -0.15 4.37923494352e+12
35 36 -0.1 0 35.50568 -0.05 4.58078752884e+12
35 36 0 0.1 35.49663 0.05 4.56414317508e+12
35 36 0.1 0.2 35.50179 0.15 4.43502751018e+12
35 36 0.2 0.3 35.49278 0.25 4.21817753552e+12
35 36 0.3 0.4 35.49854 0.35 4.22608404074e+12
35 36 0.4 0.5 35.50203 0.45 4.04210870028e+12
35 36 0.5 0.6 35.48809 0.55 4.20613758483e+12
35 36 0.6 0.7 35.49909 0.65 4.16613528694e+12
35 36 0.7 0.8 35.50968 0.75 4.11633330962e+12
35 36 0.8 0.9 35.50353 0.85 4.33212265331e+12
35 36 0.9 1 35.49789 0.95 4.32816983425e+12
36 37 -1 -0.9 36.51405 -0.95 4.39200936446e+12
36 37 -0.9 -0.8 36.5087 -0.85 4.50151038784e+12
36 37 -0.8 -0.7 36.50015 -0.75 4.52447441609e+12
36 37 -0.7 -0.6 36.49874 -0.65 4.17744099129e+12
36 37 -0.6 -0.5 36.49758 -0.55 4.105113721e+12
36 37 -0.5 -0.4 36.4967 -0.45 4.30675792326e+12
36 37 -0.4 -0.3 36.507 -0.35 4.32718368428e+12
36 37 -0.3 -0.2 36.50424 -0.25 4.33220105352e+12
36 37 -0.2 -0.1 36.50623 -0.15 4.40252734925e+12
36 37 -0.1 0 36.5042 -0.05 4.62248763472e+12
36 37 0 0.1 36.50574 0.05 4.76538591754e+12
36 37 0.1 0.2 36.50876 0.15 4.60846975025e+12
36 37 0.2 0.3 36.50376 0.25 4.22983723307e+12
36 37 0.3 0.4 36.5046 0.35 4.35124617525e+12
36 37 0.4 0.5 36.49986 0.45 4.24300042777e+12
36 37 0.5 0.6 36.50396 0.55 4.04699889158e+12
36 37 0.6 0.7 36.50595 0.65 3.93932045337e+12
36 37 0.7 0.8 36.51254 0.75 4.18748214708e+12
36 37 0.8 0.9 36.51643 0.85 4.38923358612e+12
36 37 0.9 1 36.49862 0.95 4.69106992231e+12
37 38 -1 -0.9 37.50348 -0.95 4.87870228167e+12
37 38 -0.9 -0.8 37.50942 -0.85 4.37888573167e+12
37 38 -0.8 -0.7 37.50133 -0.75 4.29081089349e+12
37 38 -0.7 -0.6 37.49387 -0.65 4.35217259919e+12
37 38 -0.6 -0.5 37.5093 -0.55 4.48018165699e+12
37 38 -0.5 -0.4 37.50937 -0.45 4.1166069008e+12
37 38 -0.4 -0.3 37.50435 -0.35 4.48746255906e+12
37 38 -0.3 -0.2 37.50115 -0.25 4.47109648033e+12
37 38 -0.2 -0.1 37.49422 -0.15 4.6785867452e+12
37 38 -0.1 0 37.50587 -0.05 4.98237158043e+12
37 38 0 0.1 37.50403 0.05 4.82580974489e+12
37 38 0.1 0.2 37.5076 0.15 4.46041088976e+12
37 38 0.2 0.3 37.50806 0.25 4.60320257133e+12
37 38 0.3 0.4 37.50594 0.35 4.47980443689e+12
37 38 0.4 0.5 37.49371 0.45 4.39519206611e+12
37 38 0.5 0.6 37.49895 0.55 4.35568215604e+12
37 38 0.6 0.7 37.51208 0.65 4.37626617965e+12
37 38 0.7 0.8 37.50027 0.75 4.52544464244e+12
37 38 0.8 0.9 37.4878 0.85 4.53740310436e+12
37 38 0.9 1 37.5116 0.95 4.82910414376e+12
38 39 -1 -0.9 38.4976 -0.95 4.95300501217e+12
38 39 -0.9 -0.8 38.50556 -0.85 4.56822101367e+12
38 39 -0.8 -0.7 38.5008 -0.75 4.54572613141e+12
38 39 -0.7 -0.6 38.49676 -0.65 4.60470727478e+12
38 39 -0.6 -0.5 38.50182 -0.55 4.43162789445e+12
38 39 -0.5 -0.4 38.51037 -0.45 4.44387382174e+12
38 39 -0.4 -0.3 38.50062 -0.35 4.53323598253e+12
38 39 -0.3 -0.2 38.50566 -0.25 4.64342375976e+12
38 39 -0.2 -0.1 38.50363 -0.15 4.91405081121e+12
38 39 -0.1 0 38.50517 -0.05 5.14891041914e+12
38 39 0 0.1 38.50966 0.05 4.90373710775e+12
38 39 0.1 0.2 38.50032 0.15 4.91644506601e+12
38 39 0.2 0.3 38.49731 0.25 4.72767185117e+12
38 39 0.3 0.4 38.50942 0.35 4.632341301e+12
38 39 0.4 0.5 38.51259 0.45 4.3564491144e+12
38 39 0.5 0.6 38.50225 0.55 4.53910899403e+12
38 39 0.6 0.7 38.50958 0.65 4.52607812596e+12
38 39 0.7 0.8 38.50929 0.75 4.47904696028e+12
38 39 0.8 0.9 38.4946 0.85 4.462415033e+12
38 39 0.9 1 38.49785 0.95 4.87293908524e+12
39 40 -1 -0.9 39.50417 -0.95 5.04869560199e+12
39 40 -0.9 -0.8 39.49381 -0.85 4.79354129695e+12
39 40 -0.8 -0.7 39.49453 -0.75 4.59163930466e+12
39 40 -0.7 -0.6 39.5036 -0.65 4.5182411533e+12
39 40 -0.6 -0.5 39.49842 -0.55 4.55979514208e+12
39 40 -0.5 -0.4 39.51399 -0.45 4.59359030015e+12
39 40 -0.4 -0.3 39.4975 -0.35 4.51666418696e+12
39 40 -0.3 -0.2 39.51648 -0.25 4.90143791069e+12
39 40 -0.2 -0.1 39.5086 -0.15 4.83210514222e+12
39 40 -0.1 0 39.5053 -0.05 5.10550091891e+12
39 40 0 0.1 39.51111 0.05 5.35394928805e+12
39 40 0.1 0.2 39.50615 0.15 5.03297888729e+12
39 40 0.2 0.3 39.50157 0.25 4.87751392685e+12
39 40 0.3 0.4 39.49474 0.35 4.65678803862e+12
39 40 0.4 0.5 39.49525 0.45 4.77991830812e+12
39 40 0.5 0.6 39.49544 0.55 4.53823095935e+12
39 40 0.6 0.7 39.50508 0.65 4.5908357014e+12
39 40 0.7 0.8 39.50509 0.75 4.82321185977e+12
39 40 0.8 0.9 39.50988 0.85 4.77311177931e+12
39 40 0.9 1 39.4949 0.95 5.03901326824e+12
40 41 -1 -0.9 40.50618 -0.95 5.30733788e+12
40 41 -0.9 -0.8 40.5028 -0.85 4.7493459992e+12
40 41 -0.8 -0.7 40.51205 -0.75 4.78227856977e+12
40 41 -0.7 -0.6 40.50029 -0.65 4.86423580395e+12
40 41 -0.6 -0.5 40.50866 -0.55 4.52760199647e+12
40 41 -0.5 -0.4 40.50004 -0.45 4.75444131339e+12
40 41 -0.4 -0.3 40.50592 -0.35 4.87652927587e+12
40 41 -0.3 -0.2 40.50142 -0.25 5.0864981066e+12
40 41 -0.2 -0.1 40.51389 -0.15 5.02572247327e+12
40 41 -0.1 0 40.51108 -0.05 5.23909581888e+12
40 41 0 0.1 40.50126 0.05 5.40243202172e+12
40 41 0.1 0.2 40.49986 0.15 5.18082516645e+12
40 41 0.2 0.3 40.50115 0.25 5.14753050678e+12
40 41 0.3 0.4 40.51584 0.35 4.82357607144e+12
40 41 0.4 0.5 40.49665 0.45 4.8421581752e+12
40 41 0.5 0.6 40.49782 0.55 4.80761355062e+12
40 41 0.6 0.7 40.50722 0.65 4.70404718169e+12
40 41 0.7 0.8 40.50391 0.75 4.66685074559e+12
40 41 0.8 0.9 40.50396 0.85 4.83305977498e+12
40 41 0.9 1 40.50671 0.95 5.2347262968e+12
