#norm = 4533057.503367422
#edges = (np.linspace(1, 41, 41), np.linspace(-1, 1, 21))
#s_low s_high mu_low mu_high s mu wcounts
1 2 -1 -0.9 1.557903 -0.95 7.65090978732
1 2 -0.9 -0.8 1.641872 -0.85 6.2229253087
1 2 -0.8 -0.7 1.439684 -0.75 7.99878085105
1 2 -0.7 -0.6 1.792537 -0.65 5.53563730354
1 2 -0.6 -0.5 1.663428 -0.55 10.8515653803
1 2 -0.5 -0.4 1.760906 -0.45 5.22872697107
1 2 -0.4 -0.3 1.703855 -0.35 8.95195975556
1 2 -0.3 -0.2 1.401745 -0.25 6.16389446335
1 2 -0.2 -0.1 1.519111 -0.15 6.73035855873
1 2 -0.1 0 1.66386 -0.05 6.53867356329
1 2 0 0.1 1.658731 0.05 4.42960118471
1 2 0.1 0.2 1.574841 0.15 6.25814596183
1 2 0.2 0.3 1.510272 0.25 9.69388547178
1 2 0.3 0.4 1.736848 0.35 5.91662644105
1 2 0.4 0.5 1.623225 0.45 8.02172776592
1 2 0.5 0.6 1.56407 0.55 6.00621302452
1 2 0.6 0.7 1.644304 0.65 12.9997789911
1 2 0.7 0.8 1.587104 0.75 8.34787685745
1 2 0.8 0.9 1.463979 0.85 3.80863468183
1 2 0.9 1 1.795891 0.95 5.65331519956
2 3 -1 -0.9 2.570409 -0.95 17.9067462991
2 3 -0.9 -0.8 2.567876 -0.85 18.559491278
2 3 -0.8 -0.7 2.602115 -0.75 21.1020229725
2 3 -0.7 -0.6 2.42013 -0.65 14.2631806733
2 3 -0.6 -0.5 2.564138 -0.55 21.2204535609
2 3 -0.5 -0.4 2.57252 -0.45 9.31582120544
2 3 -0.4 -0.3 2.538301 -0.35 15.6485349895
2 3 -0.3 -0.2 2.472636 -0.25 17.7622511014
2 3 -0.2 -0.1 2.525615 -0.15 22.5204544303
2 3 -0.1 0 2.564543 -0.05 17.6982460938
2 3 0 0.1 2.44248 0.05 10.2769531591
2 3 0.1 0.2 2.648344 0.15 20.7065370942
2 3 0.2 0.3 2.451704 0.25 19.6634244414
2 3 0.3 0.4 2.427531 0.35 11.6893832831
2 3 0.4 0.5 2.561916 0.45 23.2081907836
2 3 0.5 0.6 2.469891 0.55 16.2731413703
2 3 0.6 0.7 2.5815 0.65 18.0091295096
2 3 0.7 0.8 2.629948 0.75 24.8353640217
2 3 0.8 0.9 2.380724 0.85 13.2679947264
2 3 0.9 1 2.576123 0.95 17.934818906
3 4 -1 -0.9 3.445611 -0.95 28.4804262709
3 4 -0.9 -0.8 3.468267 -0.85 35.9981436903
3 4 -0.8 -0.7 3.567828 -0.75 27.3954853064
3 4 -0.7 -0.6 3.476142 -0.65 29.6604904164
3 4 -0.6 -0.5 3.577868 -0.55 48.2833208615
3 4 -0.5 -0.4 3.578382 -0.45 33.135996301
3 4 -0.4 -0.3 3.542002 -0.35 37.9254822891
3 4 -0.3 -0.2 3.525827 -0.25 36.4981965678
3 4 -0.2 -0.1 3.532652 -0.15 35.4610454752
3 4 -0.1 0 3.588195 -0.05 35.369442086
3 4 0 0.1 3.561321 0.05 39.6553858205
3 4 0.1 0.2 3.552004 0.15 50.0659209505
3 4 0.2 0.3 3.599715 0.25 28.8640341535
3 4 0.3 0.4 3.454066 0.35 42.6296784409
3 4 0.4 0.5 3.699281 0.45 29.2907806042
3 4 0.5 0.6 3.540229 0.55 29.9162570966
3 4 0.6 0.7 3.592968 0.65 23.9242697699
3 4 0.7 0.8 3.528467 0.75 28.4256388687
3 4 0.8 0.9 3.62939 0.85 34.4989942179
3 4 0.9 1 3.56369 0.95 54.4920569149
4 5 -1 -0.9 4.448223 -0.95 57.9385965877
4 5 -0.9 -0.8 4.594999 -0.85 61.1747492086
4 5 -0.8 -0.7 4.637065 -0.75 46.7379646841
4 5 -0.7 -0.6 4.556333 -0.65 55.7877537106
4 5 -0.6 -0.5 4.505946 -0.55 48.689778056
4 5 -0.5 -0.4 4.513996 -0.45 58.8840058438
4 5 -0.4 -0.3 4.483727 -0.35 35.331516912
4 5 -0.3 -0.2 4.445773 -0.25 42.723171252
4 5 -0.2 -0.1 4.546128 -0.15 42.1936137665
4 5 -0.1 0 4.552997 -0.05 51.7102834632
4 5 0 0.1 4.514123 0.05 51.9404679994
4 5 0.1 0.2 4.508125 0.15 60.0326721133
4 5 0.2 0.3 4.603464 0.25 45.6116606994
4 5 0.3 0.4 4.609502 0.35 46.8003278365
4 5 0.4 0.5 4.544233 0.45 48.3938591133
4 5 0.5 0.6 4.564007 0.55 55.7349009756
4 5 0.6 0.7 4.514923 0.65 45.1260711842
4 5 0.7 0.8 4.525879 0.75 73.4028315015
4 5 0.8 0.9 4.586176 0.85 69.7367583895
4 5 0.9 1 4.52389 0.95 54.6615095476
5 6 -1 -0.9 5.526597 -0.95 78.0883864523
5 6 -0.9 -0.8 5.468607 -0.85 66.5829525903
5 6 -0.8 -0.7 5.556592 -0.75 78.2714457664
5 6 -0.7 -0.6 5.553699 -0.65 80.7223028905
5 6 -0.6 -0.5 5.563642 -0.55 79.4783817343
5 6 -0.5 -0.4 5.529676 -0.45 101.323943263
5 6 -0.4 -0.3 5.550061 -0.35 80.1049725937
5 6 -0.3 -0.2 5.556846 -0.25 80.6414094546
5 6 -0.2 -0.1 5.565558 -0.15 92.0870788301
5 6 -0.1 0 5.459091 -0.05 81.7893422304
5 6 0 0.1 5.528881 0.05 82.1717042083
5 6 0.1 0.2 5.581885 0.15 76.2621927118
5 6 0.2 0.3 5.528425 0.25 77.6216515573
5 6 0.3 0.4 5.526169 0.35 81.5637345659
5 6 0.4 0.5 5.53274 0.45 88.0866060832
5 6 0.5 0.6 5.503278 0.55 75.8070040672
5 6 0.6 0.7 5.471529 0.65 74.8752876589
5 6 0.7 0.8 5.531359 0.75 72.204873493
5 6 0.8 0.9 5.569925 0.85 65.3944362243
5 6 0.9 1 5.550049 0.95 76.938429329
6 7 -1 -0.9 6.473639 -0.95 102.711562598
6 7 -0.9 -0.8 6.586941 -0.85 103.504316508
6 7 -0.8 -0.7 6.512276 -0.75 131.219843192
6 7 -0.7 -0.6 6.563115 -0.65 92.8983713664
6 7 -0.6 -0.5 6.487164 -0.55 111.465021722
6 7 -0.5 -0.4 6.506465 -0.45 115.915283041
6 7 -0.4 -0.3 6.525785 -0.35 117.752633017
6 7 -0.3 -0.2 6.534397 -0.25 98.3346790802
6 7 -0.2 -0.1 6.488596 -0.15 118.847370115
6 7 -0.1 0 6.52693 -0.05 96.8319602993
6 7 0 0.1 6.500647 0.05 105.836858251
6 7 0.1 0.2 6.512382 0.15 106.299640479
6 7 0.2 0.3 6.563194 0.25 108.580271746
6 7 0.3 0.4 6.596832 0.35 108.902376539
6 7 0.4 0.5 6.482132 0.45 101.737545326
6 7 0.5 0.6 6.498757 0.55 127.508413197
6 7 0.6 0.7 6.534812 0.65 118.213929455
6 7 0.7 0.8 6.551215 0.75 101.001789321
6 7 0.8 0.9 6.517424 0.85 84.3356407438
6 7 0.9 1 6.452227 0.95 108.000682601
7 8 -1 -0.9 7.558392 -0.95 140.482176136
7 8 -0.9 -0.8 7.466196 -0.85 140.10173689
7 8 -0.8 -0.7 7.529177 -0.75 134.291388851
7 8 -0.7 -0.6 7.490607 -0.65 134.732160607
7 8 -0.6 -0.5 7.499897 -0.55 124.309636018
7 8 -0.5 -0.4 7.511221 -0.45 146.665116658
7 8 -0.4 -0.3 7.517058 -0.35 134.786406313
7 8 -0.3 -0.2 7.524186 -0.25 133.970662463
7 8 -0.2 -0.1 7.484477 -0.15 143.11527969
7 8 -0.1 0 7.500971 -0.05 173.580032262
7 8 0 0.1 7.525632 0.05 173.916162616
7 8 0.1 0.2 7.525212 0.15 137.936139884
7 8 0.2 0.3 7.572392 0.25 168.812426897
7 8 0.3 0.4 7.534553 0.35 141.328198531
7 8 0.4 0.5 7.4923 0.45 138.988700333
7 8 0.5 0.6 7.54007 0.55 127.126313133
7 8 0.6 0.7 7.503435 0.65 140.033275819
7 8 0.7 0.8 7.504611 0.75 171.037773202
7 8 0.8 0.9 7.527461 0.85 126.050760101
7 8 0.9 1 7.513804 0.95 176.225924801
8 9 -1 -0.9 8.479875 -0.95 184.614482151
8 9 -0.9 -0.8 8.533639 -0.85 180.880485217
8 9 -0.8 -0.7 8.563197 -0.75 174.365333219
8 9 -0.7 -0.6 8.50854 -0.65 191.378795064
8 9 -0.6 -0.5 8.515058 -0.55 203.749529921
8 9 -0.5 -0.4 8.506061 -0.45 185.139641747
8 9 -0.4 -0.3 8.495147 -0.35 186.349570463
8 9 -0.3 -0.2 8.494524 -0.25 214.300834011
8 9 -0.2 -0.1 8.54742 -0.15 166.321564009
8 9 -0.1 0 8.558213 -0.05 165.317727213
8 9 0 0.1 8.503713 0.05 193.221436641
8 9 0.1 0.2 8.505303 0.15 185.085805145
8 9 0.2 0.3 8.535046 0.25 168.83914982
8 9 0.3 0.4 8.529674 0.35 165.964365343
8 9 0.4 0.5 8.468751 0.45 194.371808612
8 9 0.5 0.6 8.499408 0.55 173.227059257
8 9 0.6 0.7 8.511529 0.65 217.65655544
8 9 0.7 0.8 8.49674 0.75 182.096440744
8 9 0.8 0.9 8.459707 0.85 164.745739269
8 9 0.9 1 8.51874 0.95 200.808599447
9 10 -1 -0.9 9.492003 -0.95 213.621635715
9 10 -0.9 -0.8 9.461891 -0.85 194.221049368
9 10 -0.8 -0.7 9.490479 -0.75 195.619220921
9 10 -0.7 -0.6 9.526998 -0.65 197.049064662
9 10 -0.6 -0.5 9.526713 -0.55 199.042955311
9 10 -0.5 -0.4 9.502295 -0.45 223.174688074
9 10 -0.4 -0.3 9.539701 -0.35 240.520072999
9 10 -0.3 -0.2 9.529194 -0.25 208.549696103
9 10 -0.2 -0.1 9.546541 -0.15 230.14401945
9 10 -0.1 0 9.539436 -0.05 236.259160584
9 10 0 0.1 9.496609 0.05 250.422984976
9 10 0.1 0.2 9.502789 0.15 223.197371239
9 10 0.2 0.3 9.540158 0.25 239.075845265
9 10 0.3 0.4 9.528395 0.35 219.788040541
9 10 0.4 0.5 9.495972 0.45 211.989663181
9 10 0.5 0.6 9.53076 0.55 239.484828126
9 10 0.6 0.7 9.486491 0.65 220.340004708
9 10 0.7 0.8 9.501711 0.75 208.315011903
9 10 0.8 0.9 9.508288 0.85 211.373048866
9 10 0.9 1 9.503911 0.95 245.845023456
10 11 -1 -0.9 10.53654 -0.95 236.755478184
10 11 -0.9 -0.8 10.50182 -0.85 289.549347934
10 11 -0.8 -0.7 10.52242 -0.75 255.715547982
10 11 -0.7 -0.6 10.51742 -0.65 289.009951937
10 11 -0.6 -0.5 10.52485 -0.55 271.710216532
10 11 -0.5 -0.4 10.46678 -0.45 251.681942807
10 11 -0.4 -0.3 10.50114 -0.35 258.379479452
10 11 -0.3 -0.2 10.53656 -0.25 260.992856866
10 11 -0.2 -0.1 10.49976 -0.15 279.301214773
10 11 -0.1 0 10.51006 -0.05 264.215827099
10 11 0 0.1 10.52686 0.05 256.573981801
10 11 0.1 0.2 10.49936 0.15 263.794228573
10 11 0.2 0.3 10.5392 0.25 308.923422568
10 11 0.3 0.4 10.49014 0.35 252.136562745
10 11 0.4 0.5 10.51126 0.45 235.982080432
10 11 0.5 0.6 10.52492 0.55 288.910523952
10 11 0.6 0.7 10.53037 0.65 254.027782249
10 11 0.7 0.8 10.49443 0.75 265.897882241
10 11 0.8 0.9 10.53069 0.85 225.074062005
10 11 0.9 1 10.50325 0.95 240.934947937
11 12 -1 -0.9 11.49113 -0.95 317.672836191
11 12 -0.9 -0.8 11.54178 -0.85 323.952806542
11 12 -0.8 -0.7 11.49557 -0.75 361.908802523
11 12 -0.7 -0.6 11.52462 -0.65 324.617673977
11 12 -0.6 -0.5 11.50971 -0.55 304.666958708
11 12 -0.5 -0.4 11.51679 -0.45 299.918830601
11 12 -0.4 -0.3 11.49776 -0.35 354.551671136
11 12 -0.3 -0.2 11.49919 -0.25 332.833199603
11 12 -0.2 -0.1 11.50603 -0.15 307.449695555
11 12 -0.1 0 11.49265 -0.05 326.982691953
11 12 0 0.1 11.50703 0.05 331.238717761
11 12 0.1 0.2 11.52431 0.15 346.347738998
11 12 0.2 0.3 11.49161 0.25 310.235169403
11 12 0.3 0.4 11.50827 0.35 331.534924997
11 12 0.4 0.5 11.54785 0.45 287.016244381
11 12 0.5 0.6 11.52465 0.55 324.806265226
11 12 0.6 0.7 11.52976 0.65 324.340278225
11 12 0.7 0.8 11.49545 0.75 309.884857593
11 12 0.8 0.9 11.50106 0.85 304.253621944
11 12 0.9 1 11.52089 0.95 335.883125794
12 13 -1 -0.9 12.52747 -0.95 368.657673674
12 13 -0.9 -0.8 12.52203 -0.85 385.299058155
12 13 -0.8 -0.7 12.51601 -0.75 370.146467562
12 13 -0.7 -0.6 12.51729 -0.65 363.611083148
12 13 -0.6 -0.5 12.52115 -0.55 358.162480191
12 13 -0.5 -0.4 12.54376 -0.45 374.610218711
12 13 -0.4 -0.3 12.51273 -0.35 357.103119392
12 13 -0.3 -0.2 12.54858 -0.25 356.984553138
12 13 -0.2 -0.1 12.50516 -0.15 352.781141073
12 13 -0.1 0 12.5062 -0.05 386.84824205
12 13 0 0.1 12.52536 0.05 365.295244744
12 13 0.1 0.2 12.49431 0.15 406.951264083
12 13 0.2 0.3 12.50035 0.25 378.403870897
12 13 0.3 0.4 12.49834 0.35 352.277370915
12 13 0.4 0.5 12.5011 0.45 372.133845189
12 13 0.5 0.6 12.50697 0.55 359.190917489
12 13 0.6 0.7 12.50651 0.65 339.073770247
12 13 0.7 0.8 12.5469 0.75 357.976486408
12 13 0.8 0.9 12.51628 0.85 354.158666928
12 13 0.9 1 12.51987 0.95 344.819092469
13 14 -1 -0.9 13.5086 -0.95 448.533536824
13 14 -0.9 -0.8 13.52964 -0.85 444.083231661
13 14 -0.8 -0.7 13.50616 -0.75 395.142433611
13 14 -0.7 -0.6 13.55001 -0.65 416.018267193
13 14 -0.6 -0.5 13.48923 -0.55 408.882745842
13 14 -0.5 -0.4 13.50472 -0.45 378.118238755
13 14 -0.4 -0.3 13.51388 -0.35 418.929658769
13 14 -0.3 -0.2 13.48938 -0.25 425.352892697
13 14 -0.2 -0.1 13.53235 -0.15 454.564470685
13 14 -0.1 0 13.51702 -0.05 420.268868067
13 14 0 0.1 13.4972 0.05 418.703225443
13 14 0.1 0.2 13.50445 0.15 455.875400752
13 14 0.2 0.3 13.49596 0.25 400.471066653
13 14 0.3 0.4 13.48623 0.35 421.617701829
13 14 0.4 0.5 13.52291 0.45 440.99081501
13 14 0.5 0.6 13.51092 0.55 430.569192878
13 14 0.6 0.7 13.53701 0.65 440.747871675
13 14 0.7 0.8 13.49463 0.75 419.06145425
13 14 0.8 0.9 13.50072 0.85 416.658068619
13 14 0.9 1 13.51513 0.95 419.24354707
14 15 -1 -0.9 14.49345 -0.95 485.874867456
14 15 -0.9 -0.8 14.51228 -0.85 470.620562716
14 15 -0.8 -0.7 14.50014 -0.75 434.069190988
14 15 -0.7 -0.6 14.51999 -0.65 439.114004177
14 15 -0.6 -0.5 14.50221 -0.55 474.73174086
14 15 -0.5 -0.4 14.50465 -0.45 501.264551244
14 15 -0.4 -0.3 14.50662 -0.35 455.658357911
14 15 -0.3 -0.2 14.5467 -0.25 447.973971237
14 15 -0.2 -0.1 14.51706 -0.15 478.144972575
14 15 -0.1 0 14.50562 -0.05 505.942418027
14 15 0 0.1 14.49843 0.05 500.904837463
14 15 0.1 0.2 14.52383 0.15 480.410579313
14 15 0.2 0.3 14.49382 0.25 502.475832375
14 15 0.3 0.4 14.52313 0.35 473.118142119
14 15 0.4 0.5 14.47388 0.45 480.596005714
14 15 0.5 0.6 14.50927 0.55 482.084573647
14 15 0.6 0.7 14.51863 0.65 486.199066063
14 15 0.7 0.8 14.50025 0.75 422.933280737
14 15 0.8 0.9 14.50298 0.85 483.460811846
14 15 0.9 1 14.5063 0.95 518.734087854
15 16 -1 -0.9 15.51875 -0.95 595.320852533
15 16 -0.9 -0.8 15.51399 -0.85 505.293061553
15 16 -0.8 -0.7 15.50433 -0.75 537.705551723
15 16 -0.7 -0.6 15.52083 -0.65 591.209167543
15 16 -0.6 -0.5 15.50826 -0.55 523.683200389
15 16 -0.5 -0.4 15.50073 -0.45 533.803762115
15 16 -0.4 -0.3 15.50997 -0.35 532.650684277
15 16 -0.3 -0.2 15.52084 -0.25 588.168801561
15 16 -0.2 -0.1 15.5292 -0.15 583.195068374
15 16 -0.1 0 15.50981 -0.05 515.629211737
15 16 0 0.1 15.51879 0.05 548.800626431
15 16 0.1 0.2 15.50638 0.15 502.878071452
15 16 0.2 0.3 15.52457 0.25 564.443091608
15 16 0.3 0.4 15.48436 0.35 516.763018994
15 16 0.4 0.5 15.49862 0.45 509.115352258
15 16 0.5 0.6 15.48849 0.55 489.675243539
15 16 0.6 0.7 15.48489 0.65 523.493856447
15 16 0.7 0.8 15.49022 0.75 535.018948201
15 16 0.8 0.9 15.52666 0.85 515.989827016
15 16 0.9 1 15.49523 0.95 519.833036275
16 17 -1 -0.9 16.50491 -0.95 619.795767806
16 17 -0.9 -0.8 16.49902 -0.85 567.786425721
16 17 -0.8 -0.7 16.49808 -0.75 581.162140367
16 17 -0.7 -0.6 16.49478 -0.65 539.155923424
16 17 -0.6 -0.5 16.51067 -0.55 582.530653312
16 17 -0.5 -0.4 16.49324 -0.45 586.068583061
16 17 -0.4 -0.3 16.50216 -0.35 570.570494535
16 17 -0.3 -0.2 16.50523 -0.25 646.190649443
16 17 -0.2 -0.1 16.53982 -0.15 653.421869752
16 17 -0.1 0 16.52782 -0.05 655.791625238
16 17 0 0.1 16.50925 0.05 568.228565352
16 17 0.1 0.2 16.497 0.15 585.776780468
16 17 0.2 0.3 16.51414 0.25 571.805369266
16 17 0.3 0.4 16.52299 0.35 591.744679964
16 17 0.4 0.5 16.50568 0.45 597.744179683
16 17 0.5 0.6 16.51611 0.55 543.404167136
16 17 0.6 0.7 16.51092 0.65 599.660899762
16 17 0.7 0.8 16.49615 0.75 615.609568941
16 17 0.8 0.9 16.48105 0.85 526.167848628
16 17 0.9 1 16.51923 0.95 592.38699804
17 18 -1 -0.9 17.5023 -0.95 693.025089929
17 18 -0.9 -0.8 17.50653 -0.85 679.734082801
17 18 -0.8 -0.7 17.50598 -0.75 623.128878281
17 18 -0.7 -0.6 17.51147 -0.65 588.974751332
17 18 -0.6 -0.5 17.49575 -0.55 662.811929775
17 18 -0.5 -0.4 17.51481 -0.45 655.807952711
17 18 -0.4 -0.3 17.49712 -0.35 664.407400513
17 18 -0.3 -0.2 17.49076 -0.25 700.069368591
17 18 -0.2 -0.1 17.50342 -0.15 625.451490641
17 18 -0.1 0 17.48867 -0.05 678.494559709
17 18 0 0.1 17.52406 0.05 649.82799517
17 18 0.1 0.2 17.53926 0.15 684.339397858
17 18 0.2 0.3 17.50031 0.25 605.134722677
17 18 0.3 0.4 17.51427 0.35 609.06521815
17 18 0.4 0.5 17.50044 0.45 661.914712542
17 18 0.5 0.6 17.51431 0.55 629.318036191
17 18 0.6 0.7 17.51887 0.65 663.094779371
17 18 0.7 0.8 17.50034 0.75 649.331970612
17 18 0.8 0.9 17.51573 0.85 651.821033766
17 18 0.9 1 17.48515 0.95 652.683760191
18 19 -1 -0.9 18.52114 -0.95 717.938192731
18 19 -0.9 -0.8 18.48257 -0.85 721.414081097
18 19 -0.8 -0.7 18.52049 -0.75 665.786180079
18 19 -0.7 -0.6 18.50369 -0.65 656.651478818
18 19 -0.6 -0.5 18.50566 -0.55 701.425015182
18 19 -0.5 -0.4 18.50169 -0.45 672.05473502
18 19 -0.4 -0.3 18.51948 -0.35 700.665583532
18 19 -0.3 -0.2 18.49861 -0.25 718.901840688
18 19 -0.2 -0.1 18.51075 -0.15 784.325288534
18 19 -0.1 0 18.51766 -0.05 717.874394253
18 19 0 0.1 18.5143 0.05 773.56763881
18 19 0.1 0.2 18.52501 0.15 728.317003543
18 19 0.2 0.3 18.51907 0.25 722.082670908
18 19 0.3 0.4 18.50223 0.35 727.714103744
18 19 0.4 0.5 18.52164 0.45 693.699866276
18 19 0.5 0.6 18.51359 0.55 726.045031169
18 19 0.6 0.7 18.50969 0.65 680.709469544
18 19 0.7 0.8 18.51346 0.75 697.868678482
18 19 0.8 0.9 18.48946 0.85 743.506494361
18 19 0.9 1 18.5217 0.95 751.757000636
19 20 -1 -0.9 19.51954 -0.95 828.814725338
19 20 -0.9 -0.8 19.50654 -0.85 756.747268118
19 20 -0.8 -0.7 19.51699 -0.75 759.753752138
19 20 -0.7 -0.6 19.52656 -0.65 803.437005394
19 20 -0.6 -0.5 19.51269 -0.55 776.292956448
19 20 -0.5 -0.4 19.50958 -0.45 755.649075734
19 20 -0.4 -0.3 19.51874 -0.35 820.303279451
19 20 -0.3 -0.2 19.49287 -0.25 827.375652624
19 20 -0.2 -0.1 19.50851 -0.15 793.191924628
19 20 -0.1 0 19.50449 -0.05 825.695907803
19 20 0 0.1 19.51054 0.05 763.468257292
19 20 0.1 0.2 19.50703 0.15 817.915076357
19 20 0.2 0.3 19.50055 0.25 791.065517523
19 20 0.3 0.4 19.52198 0.35 739.924124986
19 20 0.4 0.5 19.51617 0.45 773.797032639
19 20 0.5 0.6 19.50921 0.55 756.173252366
19 20 0.6 0.7 19.51908 0.65 734.387437221
19 20 0.7 0.8 19.51244 0.75 781.314149144
19 20 0.8 0.9 19.52865 0.85 763.024906815
19 20 0.9 1 19.50418 0.95 806.97033479
20 21 -1 -0.9 20.50286 -0.95 892.431564377
20 21 -0.9 -0.8 20.50778 -0.85 812.648440445
20 21 -0.8 -0.7 20.48405 -0.75 849.896704098
20 21 -0.7 -0.6 20.51227 -0.65 849.206704858
20 21 -0.6 -0.5 20.49923 -0.55 821.484710264
20 21 -0.5 -0.4 20.47843 -0.45 848.150806453
20 21 -0.4 -0.3 20.51232 -0.35 887.556843856
20 21 -0.3 -0.2 20.49595 -0.25 839.464380104
20 21 -0.2 -0.1 20.51678 -0.15 870.456435641
20 21 -0.1 0 20.49527 -0.05 850.772298185
20 21 0 0.1 20.50049 0.05 849.36129862
20 21 0.1 0.2 20.50852 0.15 880.750873989
20 21 0.2 0.3 20.49362 0.25 880.094246075
20 21 0.3 0.4 20.48886 0.35 859.753247444
20 21 0.4 0.5 20.51049 0.45 825.401478829
20 21 0.5 0.6 20.50233 0.55 840.452664762
20 21 0.6 0.7 20.49941 0.65 849.641241127
20 21 0.7 0.8 20.50239 0.75 867.057467383
20 21 0.8 0.9 20.4889 0.85 878.614693161
20 21 0.9 1 20.50764 0.95 884.042348768
21 22 -1 -0.9 21.5098 -0.95 1005.66619491
21 22 -0.9 -0.8 21.52159 -0.85 885.057162549
21 22 -0.8 -0.7 21.52018 -0.75 934.84147327
21 22 -0.7 -0.6 21.48882 -0.65 875.621378122
21 22 -0.6 -0.5 21.49932 -0.55 905.357872478
21 22 -0.5 -0.4 21.51415 -0.45 934.074219093
21 22 -0.4 -0.3 21.49618 -0.35 948.113129127
21 22 -0.3 -0.2 21.49329 -0.25 932.457500789
21 22 -0.2 -0.1 21.50544 -0.15 899.954830415
21 22 -0.1 0 21.50569 -0.05 971.153250675
21 22 0 0.1 21.51132 0.05 949.201843701
21 22 0.1 0.2 21.5041 0.15 980.422771453
21 22 0.2 0.3 21.5216 0.25 1007.33730765
21 22 0.3 0.4 21.47399 0.35 916.298020424
21 22 0.4 0.5 21.51885 0.45 899.481812661
21 22 0.5 0.6 21.51403 0.55 936.31832522
21 22 0.6 0.7 21.52765 0.65 840.851795151
21 22 0.7 0.8 21.50526 0.75 859.354064157
21 22 0.8 0.9 21.51566 0.85 848.641825405
21 22 0.9 1 21.49952 0.95 962.315774257
22 23 -1 -0.9 22.53729 -0.95 971.467419413
22 23 -0.9 -0.8 22.50923 -0.85 969.482345537
22 23 -0.8 -0.7 22.49376 -0.75 992.536379892
22 23 -0.7 -0.6 22.51861 -0.65 1011.00427893
22 23 -0.6 -0.5 22.49875 -0.55 902.874988586
22 23 -0.5 -0.4 22.52656 -0.45 958.108176408
22 23 -0.4 -0.3 22.51015 -0.35 1038.06747863
22 23 -0.3 -0.2 22.51305 -0.25 963.642940906
22 23 -0.2 -0.1 22.51458 -0.15 1024.69522516
22 23 -0.1 0 22.48142 -0.05 1059.25409966
22 23 0 0.1 22.51003 0.05 1064.33834488
22 23 0.1 0.2 22.48678 0.15 1107.28601792
22 23 0.2 0.3 22.50627 0.25 984.971479368
22 23 0.3 0.4 22.51191 0.35 998.891583039
22 23 0.4 0.5 22.50622 0.45 942.882509453
22 23 0.5 0.6 22.51376 0.55 970.822299652
22 23 0.6 0.7 22.51459 0.65 951.392334007
22 23 0.7 0.8 22.5022 0.75 900.955304538
22 23 0.8 0.9 22.52895 0.85 977.270094521
22 23 0.9 1 22.50815 0.95 961.66375762
23 24 -1 -0.9 23.49952 -0.95 1142.59616892
23 24 -0.9 -0.8 23.50063 -0.85 1020.5559424
23 24 -0.8 -0.7 23.52002 -0.75 1120.77083933
23 24 -0.7 -0.6 23.52033 -0.65 997.532879129
23 24 -0.6 -0.5 23.48053 -0.55 1056.63212852
23 24 -0.5 -0.4 23.51561 -0.45 1040.7312452
23 24 -0.4 -0.3 23.51658 -0.35 1023.47810913
23 24 -0.3 -0.2 23.49448 -0.25 1125.40530362
23 24 -0.2 -0.1 23.49971 -0.15 1046.76601135
23 24 -0.1 0 23.51152 -0.05 1067.09356093
23 24 0 0.1 23.49001 0.05 1066.96866478
23 24 0.1 0.2 23.52839 0.15 1045.5785818
23 24 0.2 0.3 23.5121 0.25 1096.81350718
23 24 0.3 0.4 23.49549 0.35 1090.00861207
23 24 0.4 0.5 23.51497 0.45 1099.96715704
23 24 0.5 0.6 23.50977 0.55 1068.44246931
23 24 0.6 0.7 23.51084 0.65 1082.22746282
23 24 0.7 0.8 23.49723 0.75 1052.32254265
23 24 0.8 0.9 23.50949 0.85 1063.43777649
23 24 0.9 1 23.50818 0.95 1168.37032751
24 25 -1 -0.9 24.51228 -0.95 1173.63408756
24 25 -0.9 -0.8 24.51131 -0.85 1117.88897755
24 25 -0.8 -0.7 24.51146 -0.75 1066.42743871
24 25 -0.7 -0.6 24.5118 -0.65 1111.03099002
24 25 -0.6 -0.5 24.52049 -0.55 1141.08704494
24 25 -0.5 -0.4 24.49688 -0.45 1104.05440859
24 25 -0.4 -0.3 24.51112 -0.35 1173.24484314
24 25 -0.3 -0.2 24.50296 -0.25 1137.41782381
24 25 -0.2 -0.1 24.50473 -0.15 1187.80637655
24 25 -0.1 0 24.53865 -0.05 1204.56905266
24 25 0 0.1 24.50235 0.05 1174.02646586
24 25 0.1 0.2 24.49754 0.15 1216.06195368
24 25 0.2 0.3 24.50944 0.25 1205.28710075
24 25 0.3 0.4 24.51799 0.35 1171.42136699
24 25 0.4 0.5 24.50004 0.45 1113.53588315
24 25 0.5 0.6 24.50053 0.55 1184.41884759
24 25 0.6 0.7 24.49956 0.65 1106.29052788
24 25 0.7 0.8 24.48345 0.75 1101.3737879
24 25 0.8 0.9 24.52818 0.85 1084.54365983
24 25 0.9 1 24.51476 0.95 1172.29863197
25 26 -1 -0.9 25.5095 -0.95 1277.80862879
25 26 -0.9 -0.8 25.50934 -0.85 1191.01584342
25 26 -0.8 -0.7 25.50238 -0.75 1186.86952102
25 26 -0.7 -0.6 25.50738 -0.65 1111.53825047
25 26 -0.6 -0.5 25.49807 -0.55 1127.81257713
25 26 -0.5 -0.4 25.50514 -0.45 1125.23070233
25 26 -0.4 -0.3 25.5006 -0.35 1213.19660591
25 26 -0.3 -0.2 25.52694 -0.25 1225.85339256
25 26 -0.2 -0.1 25.49808 -0.15 1266.49718349
25 26 -0.1 0 25.49402 -0.05 1261.95604284
25 26 0 0.1 25.49196 0.05 1233.66348337
25 26 0.1 0.2 25.49462 0.15 1203.24920848
25 26 0.2 0.3 25.51299 0.25 1209.70571869
25 26 0.3 0.4 25.51143 0.35 1237.34119109
25 26 0.4 0.5 25.50156 0.45 1221.46024733
25 26 0.5 0.6 25.49304 0.55 1115.72411839
25 26 0.6 0.7 25.53004 0.65 1166.50717343
25 26 0.7 0.8 25.50873 0.75 1168.71259533
25 26 0.8 0.9 25.50709 0.85 1158.20720885
25 26 0.9 1 25.52198 0.95 1294.7257708
26 27 -1 -0.9 26.5018 -0.95 1301.04944991
26 27 -0.9 -0.8 26.48318 -0.85 1346.59031496
26 27 -0.8 -0.7 26.4833 -0.75 1152.4897103
26 27 -0.7 -0.6 26.48833 -0.65 1255.54460214
26 27 -0.6 -0.5 26.50524 -0.55 1235.42947232
26 27 -0.5 -0.4 26.50604 -0.45 1222.8718751
26 27 -0.4 -0.3 26.51379 -0.35 1238.01709779
26 27 -0.3 -0.2 26.51436 -0.25 1285.22765703
26 27 -0.2 -0.1 26.51383 -0.15 1360.38347202
26 27 -0.1 0 26.50076 -0.05 1238.43442875
26 27 0 0.1 26.50359 0.05 1382.24557535
26 27 0.1 0.2 26.50367 0.15 1336.74046262
26 27 0.2 0.3 26.5006 0.25 1269.38913521
26 27 0.3 0.4 26.50339 0.35 1285.5937499
26 27 0.4 0.5 26.50114 0.45 1238.87900794
26 27 0.5 0.6 26.52307 0.55 1256.24656429
26 27 0.6 0.7 26.50046 0.65 1183.62534447
26 27 0.7 0.8 26.50167 0.75 1262.86961483
26 27 0.8 0.9 26.50193 0.85 1279.29380709
26 27 0.9 1 26.50554 0.95 1310.53723477
27 28 -1 -0.9 27.49936 -0.95 1457.11062827
27 28 -0.9 -0.8 27.51013 -0.85 1344.19532497
27 28 -0.8 -0.7 27.52283 -0.75 1373.38246534
27 28 -0.7 -0.6 27.49643 -0.65 1248.00685188
27 28 -0.6 -0.5 27.50956 -0.55 1262.91804858
27 28 -0.5 -0.4 27.50067 -0.45 1282.15638007
27 28 -0.4 -0.3 27.49495 -0.35 1305.99222905
27 28 -0.3 -0.2 27.49671 -0.25 1379.393094
27 28 -0.2 -0.1 27.50979 -0.15 1431.74275338
27 28 -0.1 0 27.50064 -0.05 1398.68496063
27 28 0 0.1 27.49986 0.05 1439.91932205
27 28 0.1 0.2 27.51593 0.15 1367.07847217
27 28 0.2 0.3 27.49809 0.25 1364.09048231
27 28 0.3 0.4 27.49502 0.35 1301.71193915
27 28 0.4 0.5 27.48634 0.45 1321.94750128
27 28 0.5 0.6 27.49464 0.55 1315.47971541
27 28 0.6 0.7 27.499 0.65 1354.79207423
27 28 0.7 0.8 27.50485 0.75 1300.56423095
27 28 0.8 0.9 27.51052 0.85 1358.92966301
27 28 0.9 1 27.50133 0.95 1353.42192074
28 29 -1 -0.9 28.50887 -0.95 1530.17096504
28 29 -0.9 -0.8 28.503 -0.85 1430.4547909
28 29 -0.8 -0.7 28.49551 -0.75 1405.98434886
28 29 -0.7 -0.6 28.5061 -0.65 1379.389956
28 29 -0.6 -0.5 28.49121 -0.55 1377.20773123
28 29 -0.5 -0.4 28.51918 -0.45 1442.88797009
28 29 -0.4 -0.3 28.51259 -0.35 1410.65694969
28 29 -0.3 -0.2 28.52151 -0.25 1391.1473128
28 29 -0.2 -0.1 28.49691 -0.15 1436.33384578
28 29 -0.1 0 28.5117 -0.05 1563.6937786
28 29 0 0.1 28.51749 0.05 1590.65605895
28 29 0.1 0.2 28.50966 0.15 1438.74799569
28 29 0.2 0.3 28.50962 0.25 1448.40509341
28 29 0.3 0.4 28.52189 0.35 1367.68249201
28 29 0.4 0.5 28.50624 0.45 1390.31754211
28 29 0.5 0.6 28.49806 0.55 1354.21574982
28 29 0.6 0.7 28.49619 0.65 1394.17358506
28 29 0.7 0.8 28.50398 0.75 1365.27860776
28 29 0.8 0.9 28.50384 0.85 1414.98090558
28 29 0.9 1 28.51087 0.95 1530.49054124
29 30 -1 -0.9 29.52125 -0.95 1601.55890073
29 30 -0.9 -0.8 29.49991 -0.85 1477.55211122
29 30 -0.8 -0.7 29.50292 -0.75 1495.52967
29 30 -0.7 -0.6 29.4989 -0.65 1443.96696791
29 30 -0.6 -0.5 29.50192 -0.55 1480.61867753
29 30 -0.5 -0.4 29.49605 -0.45 1512.11988252
29 30 -0.4 -0.3 29.51402 -0.35 1418.1004803
29 30 -0.3 -0.2 29.51949 -0.25 1486.35870635
29 30 -0.2 -0.1 29.49785 -0.15 1577.43972865
29 30 -0.1 0 29.51836 -0.05 1591.2672177
29 30 0 0.1 29.508 0.05 1592.7730388
29 30 0.1 0.2 29.49164 0.15 1530.4274988
29 30 0.2 0.3 29.50703 0.25 1507.57023376
29 30 0.3 0.4 29.51697 0.35 1481.13296742
29 30 0.4 0.5 29.50541 0.45 1523.31855793
29 30 0.5 0.6 29.50054 0.55 1387.71693735
29 30 0.6 0.7 29.50609 0.65 1455.46095895
29 30 0.7 0.8 29.51581 0.75 1401.92919941
29 30 0.8 0.9 29.48597 0.85 1472.89178802
29 30 0.9 1 29.51005 0.95 1591.681666
30 31 -1 -0.9 30.50665 -0.95 1583.10118918
30 31 -0.9 -0.8 30.50281 -0.85 1551.38517677
30 31 -0.8 -0.7 30.51289 -0.75 1631.52115968
30 31 -0.7 -0.6 30.50899 -0.65 1578.70747925
30 31 -0.6 -0.5 30.50621 -0.55 1604.68166681
30 31 -0.5 -0.4 30.49492 -0.45 1616.69416233
30 31 -0.4 -0.3 30.50414 -0.35 1588.62283201
30 31 -0.3 -0.2 30.48814 -0.25 1572.32293599
30 31 -0.2 -0.1 30.50427 -0.15 1621.40064094
30 31 -0.1 0 30.50513 -0.05 1657.38100375
30 31 0 0.1 30.49846 0.05 1794.83959163
30 31 0.1 0.2 30.50296 0.15 1715.36141686
30 31 0.2 0.3 30.50835 0.25 1590.28246998
30 31 0.3 0.4 30.50819 0.35 1572.20097931
30 31 0.4 0.5 30.49738 0.45 1556.17250374
30 31 0.5 0.6 30.5033 0.55 1545.06111983
30 31 0.6 0.7 30.49569 0.65 1551.84349635
30 31 0.7 0.8 30.51612 0.75 1544.46491337
30 31 0.8 0.9 30.50016 0.85 1529.57663708
30 31 0.9 1 30.49406 0.95 1664.30889336
31 32 -1 -0.9 31.50272 -0.95 1681.34946088
31 32 -0.9 -0.8 31.49309 -0.85 1657.23688673
31 32 -0.8 -0.7 31.50603 -0.75 1607.56247989
31 32 -0.7 -0.6 31.49534 -0.65 1676.15776752
31 32 -0.6 -0.5 31.50238 -0.55 1627.72922106
31 32 -0.5 -0.4 31.51639 -0.45 1647.98304822
31 32 -0.4 -0.3 31.49818 -0.35 1618.78777593
31 32 -0.3 -0.2 31.50717 -0.25 1706.53729591
31 32 -0.2 -0.1 31.50787 -0.15 1681.98693519
31 32 -0.1 0 31.50714 -0.05 1808.94235849
31 32 0 0.1 31.5132 0.05 1700.60098154
31 32 0.1 0.2 31.49896 0.15 1763.86229298
31 32 0.2 0.3 31.49683 0.25 1649.54467096
31 32 0.3 0.4 31.51278 0.35 1674.26908262
31 32 0.4 0.5 31.49741 0.45 1632.52938324
31 32 0.5 0.6 31.50927 0.55 1577.18722517
31 32 0.6 0.7 31.50291 0.65 1541.51817202
31 32 0.7 0.8 31.49582 0.75 1655.09736125
31 32 0.8 0.9 31.51883 0.85 1678.89703873
31 32 0.9 1 31.50937 0.95 1780.95933605
32 33 -1 -0.9 32.50368 -0.95 1858.46406066
32 33 -0.9 -0.8 32.49538 -0.85 1730.99837153
32 33 -0.8 -0.7 32.49977 -0.75 1679.26688001
32 33 -0.7 -0.6 32.51166 -0.65 1646.5156256
32 33 -0.6 -0.5 32.5082 -0.55 1727.80283274
32 33 -0.5 -0.4 32.51551 -0.45 1647.25742399
32 33 -0.4 -0.3 32.51187 -0.35 1693.14727326
32 33 -0.3 -0.2 32.50585 -0.25 1743.07092198
32 33 -0.2 -0.1 32.52078 -0.15 1728.39656415
32 33 -0.1 0 32.50475 -0.05 1809.30244233
32 33 0 0.1 32.4887 0.05 1844.24356178
32 33 0.1 0.2 32.50029 0.15 1755.74636796
32 33 0.2 0.3 32.50957 0.25 1725.93685354
32 33 0.3 0.4 32.50897 0.35 1682.7085388
32 33 0.4 0.5 32.49856 0.45 1687.59901477
32 33 0.5 0.6 32.49695 0.55 1700.29834857
32 33 0.6 0.7 32.4987 0.65 1646.9948207
32 33 0.7 0.8 32.49987 0.75 1666.43700202
32 33 0.8 0.9 32.50925 0.85 1739.91818402
32 33 0.9 1 32.50074 0.95 1868.11866242
33 34 -1 -0.9 33.49668 -0.95 1878.12166115
33 34 -0.9 -0.8 33.49729 -0.85 1804.41277133
33 34 -0.8 -0.7 33.50257 -0.75 1839.94548653
33 34 -0.7 -0.6 33.50823 -0.65 1761.62661615
33 34 -0.6 -0.5 33.49391 -0.55 1727.31112618
33 34 -0.5 -0.4 33.49339 -0.45 1702.48346383
33 34 -0.4 -0.3 33.5032 -0.35 1713.52796759
33 34 -0.3 -0.2 33.51173 -0.25 1811.65900764
33 34 -0.2 -0.1 33.50315 -0.15 1814.22092776
33 34 -0.1 0 33.50347 -0.05 1973.54587396
33 34 0 0.1 33.50295 0.05 1887.67860731
33 34 0.1 0.2 33.50024 0.15 1887.3939267
33 34 0.2 0.3 33.49598 0.25 1725.94489408
33 34 0.3 0.4 33.50461 0.35 1833.84829265
33 34 0.4 0.5 33.50838 0.45 1694.15039024
33 34 0.5 0.6 33.51204 0.55 1672.81611409
33 34 0.6 0.7 33.49951 0.65 1630.88826587
33 34 0.7 0.8 33.51023 0.75 1688.1050972
33 34 0.8 0.9 33.5079 0.85 1785.12380012
33 34 0.9 1 33.51345 0.95 1908.61665759
34 35 -1 -0.9 34.51785 -0.95 2063.43837517
34 35 -0.9 -0.8 34.51759 -0.85 1887.58658435
34 35 -0.8 -0.7 34.49741 -0.75 1908.23614442
34 35 -0.7 -0.6 34.50635 -0.65 1803.8726883
34 35 -0.6 -0.5 34.5121 -0.55 1776.04865455
34 35 -0.5 -0.4 34.50026 -0.45 1853.9943086
34 35 -0.4 -0.3 34.48391 -0.35 1847.67120516
34 35 -0.3 -0.2 34.50477 -0.25 1859.3671765
34 35 -0.2 -0.1 34.50117 -0.15 1908.3278971
34 35 -0.1 0 34.50641 -0.05 1974.1439994
34 35 0 0.1 34.50583 0.05 2015.04900368
34 35 0.1 0.2 34.50049 0.15 1927.13318459
34 35 0.2 0.3 34.50027 0.25 1859.35445823
34 35 0.3 0.4 34.50078 0.35 1851.50927435
34 35 0.4 0.5 34.51425 0.45 1757.43981611
34 35 0.5 0.6 34.50709 0.55 1876.20005178
34 35 0.6 0.7 34.49746 0.65 1823.5675075
34 35 0.7 0.8 34.50413 0.75 1817.14712684
34 35 0.8 0.9 34.50371 0.85 1891.16680219
34 35 0.9 1 34.52162 0.95 1967.05098589
35 36 -1 -0.9 35.51476 -0.95 2103.39909491
35 36 -0.9 -0.8 35.49722 -0.85 2000.69690493
35 36 -0.8 -0.7 35.5022 -0.75 1913.46515992
35 36 -0.7 -0.6 35.49831 -0.65 1874.38210867
35 36 -0.6 -0.5 35.5124 -0.55 1901.77460648
35 36 -0.5 -0.4 35.50796 -0.45 1899.03789037
35 36 -0.4 -0.3 35.49817 -0.35 1914.97110793
35 36 -0.3 -0.2 35.50207 -0.25 2009.35840684
35 36 -0.2 -0.1 35.49322 -0.15 1994.88721858
35 36 -0.1 0 35.51096 -0.05 2097.84445026
35 36 0 0.1 35.49853 0.05 2134.19451702
35 36 0.1 0.2 35.49891 0.15 2023.79674203
35 36 0.2 0.3 35.49503 0.25 1957.74102268
35 36 0.3 0.4 35.50439 0.35 1899.1185631
35 36 0.4 0.5 35.50176 0.45 1840.67167682
35 36 0.5 0.6 35.48832 0.55 1810.31743734
35 36 0.6 0.7 35.49521 0.65 1892.40729967
35 36 0.7 0.8 35.51069 0.75 1919.81993728
35 36 0.8 0.9 35.5108 0.85 2004.2852819
35 36 0.9 1 35.4993 0.95 1973.43290607
36 37 -1 -0.9 36.50308 -0.95 2091.16538411
36 37 -0.9 -0.8 36.51241 -0.85 2103.38019849
36 37 -0.8 -0.7 36.50367 -0.75 2054.59845088
36 37 -0.7 -0.6 36.50093 -0.65 1914.24933352
36 37 -0.6 -0.5 36.49661 -0.55 1971.32102043
36 37 -0.5 -0.4 36.5012 -0.45 1976.47870914
36 37 -0.4 -0.3 36.51594 -0.35 1985.33305017
36 37 -0.3 -0.2 36.50576 -0.25 1967.41147816
36 37 -0.2 -0.1 36.49837 -0.15 2021.42652217
36 37 -0.1 0 36.51063 -0.05 2183.07152824
36 37 0 0.1 36.50091 0.05 2188.73879397
36 37 0.1 0.2 36.50711 0.15 2123.54276932
36 37 0.2 0.3 36.50175 0.25 1930.17713669
36 37 0.3 0.4 36.50646 0.35 1958.27795382
36 37 0.4 0.5 36.5025 0.45 1930.33310086
36 37 0.5 0.6 36.50393 0.55 1839.79123304
36 37 0.6 0.7 36.49944 0.65 1822.932883
36 37 0.7 0.8 36.49957 0.75 1928.75323892
36 37 0.8 0.9 36.51545 0.85 1961.45274519
36 37 0.9 1 36.4958 0.95 2157.17441792
37 38 -1 -0.9 37.49863 -0.95 2259.25556769
37 38 -0.9 -0.8 37.50873 -0.85 2041.12565348
37 38 -0.8 -0.7 37.50161 -0.75 1994.43579143
37 38 -0.7 -0.6 37.4937 -0.65 1990.05984621
37 38 -0.6 -0.5 37.50343 -0.55 2071.86396063
37 38 -0.5 -0.4 37.50843 -0.45 1911.07905754
37 38 -0.4 -0.3 37.50511 -0.35 2103.57674838
37 38 -0.3 -0.2 37.50158 -0.25 2081.57166233
37 38 -0.2 -0.1 37.50106 -0.15 2135.96262206
37 38 -0.1 0 37.50085 -0.05 2264.16598583
37 38 0 0.1 37.50054 0.05 2267.92091265
37 38 0.1 0.2 37.5123 0.15 2047.27335873
37 38 0.2 0.3 37.51511 0.25 2076.90212974
37 38 0.3 0.4 37.50619 0.35 2012.14375978
37 38 0.4 0.5 37.49165 0.45 1984.31019605
37 38 0.5 0.6 37.49757 0.55 1961.4401735
37 38 0.6 0.7 37.51121 0.65 2034.01197516
37 38 0.7 0.8 37.49886 0.75 2065.92125092
37 38 0.8 0.9 37.48681 0.85 2056.15822463
37 38 0.9 1 37.51097 0.95 2214.16745235
38 39 -1 -0.9 38.49447 -0.95 2318.26664395
38 39 -0.9 -0.8 38.50202 -0.85 2101.30283954
38 39 -0.8 -0.7 38.49951 -0.75 2130.43173659
38 39 -0.7 -0.6 38.48909 -0.65 2103.59784065
38 39 -0.6 -0.5 38.49753 -0.55 2072.849491
38 39 -0.5 -0.4 38.50565 -0.45 2033.43669721
38 39 -0.4 -0.3 38.50208 -0.35 2125.6255429
38 39 -0.3 -0.2 38.50947 -0.25 2213.88037267
38 39 -0.2 -0.1 38.50743 -0.15 2286.19103923
38 39 -0.1 0 38.50364 -0.05 2345.12115984
38 39 0 0.1 38.51274 0.05 2286.54708025
38 39 0.1 0.2 38.50226 0.15 2261.5468051
38 39 0.2 0.3 38.50003 0.25 2163.04970748
38 39 0.3 0.4 38.50777 0.35 2055.029706
38 39 0.4 0.5 38.50605 0.45 2005.16552434
38 39 0.5 0.6 38.50745 0.55 1979.36126007
38 39 0.6 0.7 38.51167 0.65 2018.26616948
38 39 0.7 0.8 38.50384 0.75 2059.89197079
38 39 0.8 0.9 38.49979 0.85 2093.58342846
38 39 0.9 1 38.49542 0.95 2308.79590882
39 40 -1 -0.9 39.51258 -0.95 2403.65946542
39 40 -0.9 -0.8 39.49792 -0.85 2252.98763062
39 40 -0.8 -0.7 39.49669 -0.75 2147.4230975
39 40 -0.7 -0.6 39.50707 -0.65 2138.16670974
39 40 -0.6 -0.5 39.50248 -0.55 2149.54905601
39 40 -0.5 -0.4 39.51098 -0.45 2117.72703083
39 40 -0.4 -0.3 39.4948 -0.35 2135.66311062
39 40 -0.3 -0.2 39.51096 -0.25 2211.09060503
39 40 -0.2 -0.1 39.50155 -0.15 2271.03354623
39 40 -0.1 0 39.50931 -0.05 2407.31567712
39 40 0 0.1 39.51477 0.05 2439.57342214
39 40 0.1 0.2 39.50302 0.15 2362.04758996
39 40 0.2 0.3 39.50425 0.25 2315.11298148
39 40 0.3 0.4 39.50144 0.35 2163.31087745
39 40 0.4 0.5 39.49736 0.45 2162.43541337
39 40 0.5 0.6 39.49055 0.55 2060.25050843
39 40 0.6 0.7 39.50356 0.65 2063.97481557
39 40 0.7 0.8 39.50337 0.75 2177.90290214
39 40 0.8 0.9 39.5149 0.85 2164.50958099
39 40 0.9 1 39.49162 0.95 2356.3692844
40 41 -1 -0.9 40.49985 -0.95 2442.26970388
40 41 -0.9 -0.8 40.50105 -0.85 2223.58892705
40 41 -0.8 -0.7 40.50898 -0.75 2235.53617774
40 41 -0.7 -0.6 40.50901 -0.65 2240.55068595
40 41 -0.6 -0.5 40.50052 -0.55 2144.65739081
40 41 -0.5 -0.4 40.49833 -0.45 2203.8741713
40 41 -0.4 -0.3 40.51024 -0.35 2269.6398641
40 41 -0.3 -0.2 40.50131 -0.25 2287.91501809
40 41 -0.2 -0.1 40.51542 -0.15 2300.03291499
40 41 -0.1 0 40.51636 -0.05 2420.92685867
40 41 0 0.1 40.50303 0.05 2470.31567381
40 41 0.1 0.2 40.50096 0.15 2384.34736393
40 41 0.2 0.3 40.50097 0.25 2373.82164423
40 41 0.3 0.4 40.50803 0.35 2212.65556025
40 41 0.4 0.5 40.50674 0.45 2147.29598636
40 41 0.5 0.6 40.5026 0.55 2153.20541111
40 41 0.6 0.7 40.50866 0.65 2149.14388855
40 41 0.7 0.8 40.5052 0.75 2117.98009396
40 41 0.8 0.9 40.50719 0.85 2232.06242973
40 41 0.9 1 40.51345 0.95 2423.14593393
