#norm = 9659829229891230.0
#edges = (np.linspace(1, 41, 41), np.linspace(-1, 1, 21))
#s_low s_high mu_low mu_high s mu wcounts
1 2 -1 -0.9 1.621455 -0.95 28381258846.4
1 2 -0.9 -0.8 1.767437 -0.85 4333551482.19
1 2 -0.8 -0.7 1.453879 -0.75 15551486522
1 2 -0.7 -0.6 1.814899 -0.65 16628356661.6
1 2 -0.6 -0.5 1.583606 -0.55 18245213055.6
1 2 -0.5 -0.4 1.621174 -0.45 6446068025.81
1 2 -0.4 -0.3 1.635202 -0.35 7025843067.49
1 2 -0.3 -0.2 1.629381 -0.25 10855140858.5
1 2 -0.2 -0.1 1.450283 -0.15 18047195830.2
1 2 -0.1 0 1.638167 -0.05 8660342598.99
1 2 0 0.1 1.708642 0.05 12782269515.5
1 2 0.1 0.2 1.36354 0.15 18366564386.9
1 2 0.2 0.3 1.614573 0.25 17738438109.7
1 2 0.3 0.4 1.564418 0.35 18875235016.6
1 2 0.4 0.5 1.639953 0.45 10719594606.3
1 2 0.5 0.6 1.641405 0.55 23892463191.7
1 2 0.6 0.7 1.574565 0.65 9675049140.69
1 2 0.7 0.8 1.597857 0.75 14983866803.7
1 2 0.8 0.9 1.460755 0.85 15575457690.2
1 2 0.9 1 1.689816 0.95 14889456440.9
2 3 -1 -0.9 2.633693 -0.95 35900347653.1
2 3 -0.9 -0.8 2.458255 -0.85 36002283001.5
2 3 -0.8 -0.7 2.664668 -0.75 43878153394.7
2 3 -0.7 -0.6 2.572824 -0.65 25214563118.2
2 3 -0.6 -0.5 2.693144 -0.55 28126968168.5
2 3 -0.5 -0.4 2.591069 -0.45 43270431151
2 3 -0.4 -0.3 2.528625 -0.35 26091785687.5
2 3 -0.3 -0.2 2.426317 -0.25 42024145793.8
2 3 -0.2 -0.1 2.66321 -0.15 34981879524.7
2 3 -0.1 0 2.535047 -0.05 25835194552.2
2 3 0 0.1 2.455295 0.05 35254124287.4
2 3 0.1 0.2 2.510402 0.15 33040239743.1
2 3 0.2 0.3 2.676392 0.25 47432327092.1
2 3 0.3 0.4 2.510736 0.35 51141198262.7
2 3 0.4 0.5 2.40083 0.45 40369620367.4
2 3 0.5 0.6 2.537285 0.55 17955068093.4
2 3 0.6 0.7 2.621471 0.65 44937093784
2 3 0.7 0.8 2.475398 0.75 31477183215.6
2 3 0.8 0.9 2.513849 0.85 35408304946.4
2 3 0.9 1 2.632499 0.95 34620825756.2
3 4 -1 -0.9 3.50845 -0.95 52298927967.7
3 4 -0.9 -0.8 3.512377 -0.85 82798407448.7
3 4 -0.8 -0.7 3.505433 -0.75 64330289039.7
3 4 -0.7 -0.6 3.673078 -0.65 56420407215.3
3 4 -0.6 -0.5 3.53885 -0.55 83939775368
3 4 -0.5 -0.4 3.550283 -0.45 65410956754.3
3 4 -0.4 -0.3 3.431682 -0.35 80505729403
3 4 -0.3 -0.2 3.448703 -0.25 52979477959.3
3 4 -0.2 -0.1 3.429343 -0.15 92412258028
3 4 -0.1 0 3.567589 -0.05 66896088564.1
3 4 0 0.1 3.59554 0.05 67234511681.8
3 4 0.1 0.2 3.574894 0.15 72682765639.5
3 4 0.2 0.3 3.586605 0.25 105704429495
3 4 0.3 0.4 3.623376 0.35 67770536030.1
3 4 0.4 0.5 3.641962 0.45 74806961977.4
3 4 0.5 0.6 3.567967 0.55 70581489370.6
3 4 0.6 0.7 3.545134 0.65 71959105774.1
3 4 0.7 0.8 3.622253 0.75 86965782541.3
3 4 0.8 0.9 3.63631 0.85 89744763467.2
3 4 0.9 1 3.560619 0.95 88508001191.7
4 5 -1 -0.9 4.60013 -0.95 111241245335
4 5 -0.9 -0.8 4.581369 -0.85 119001515413
4 5 -0.8 -0.7 4.482051 -0.75 97245277620.5
4 5 -0.7 -0.6 4.546359 -0.65 120521153511
4 5 -0.6 -0.5 4.512247 -0.55 115783267933
4 5 -0.5 -0.4 4.490502 -0.45 144504231306
4 5 -0.4 -0.3 4.56131 -0.35 116304989164
4 5 -0.3 -0.2 4.516067 -0.25 124109885017
4 5 -0.2 -0.1 4.607644 -0.15 123834354896
4 5 -0.1 0 4.571183 -0.05 120243212730
4 5 0 0.1 4.558159 0.05 150059374520
4 5 0.1 0.2 4.536543 0.15 109970920004
4 5 0.2 0.3 4.55191 0.25 113325481056
4 5 0.3 0.4 4.571583 0.35 121765268104
4 5 0.4 0.5 4.534422 0.45 116980493887
4 5 0.5 0.6 4.528051 0.55 100613132199
4 5 0.6 0.7 4.619718 0.65 114582625733
4 5 0.7 0.8 4.610114 0.75 111007424785
4 5 0.8 0.9 4.560755 0.85 97547746640.1
4 5 0.9 1 4.502029 0.95 127573412863
5 6 -1 -0.9 5.534978 -0.95 176689109700
5 6 -0.9 -0.8 5.538045 -0.85 144789722127
5 6 -0.8 -0.7 5.477915 -0.75 185477259664
5 6 -0.7 -0.6 5.557988 -0.65 182540087110
5 6 -0.6 -0.5 5.539558 -0.55 142547739103
5 6 -0.5 -0.4 5.511993 -0.45 174658473228
5 6 -0.4 -0.3 5.515782 -0.35 189949298895
5 6 -0.3 -0.2 5.483549 -0.25 173114949074
5 6 -0.2 -0.1 5.538242 -0.15 165212687699
5 6 -0.1 0 5.512267 -0.05 131041146048
5 6 0 0.1 5.503651 0.05 168057250353
5 6 0.1 0.2 5.536917 0.15 162694600674
5 6 0.2 0.3 5.536667 0.25 181869852843
5 6 0.3 0.4 5.438123 0.35 177939776036
5 6 0.4 0.5 5.495787 0.45 200389798612
5 6 0.5 0.6 5.546109 0.55 154052682259
5 6 0.6 0.7 5.56429 0.65 180745424901
5 6 0.7 0.8 5.57813 0.75 150738113685
5 6 0.8 0.9 5.478211 0.85 189461468413
5 6 0.9 1 5.480645 0.95 188097698423
6 7 -1 -0.9 6.540172 -0.95 256042236541
6 7 -0.9 -0.8 6.538141 -0.85 230103314353
6 7 -0.8 -0.7 6.478969 -0.75 264649497565
6 7 -0.7 -0.6 6.495388 -0.65 225181786451
6 7 -0.6 -0.5 6.514117 -0.55 251830769477
6 7 -0.5 -0.4 6.532612 -0.45 235674636219
6 7 -0.4 -0.3 6.476612 -0.35 239580826581
6 7 -0.3 -0.2 6.505879 -0.25 223561924619
6 7 -0.2 -0.1 6.502854 -0.15 223866269060
6 7 -0.1 0 6.506411 -0.05 237724372300
6 7 0 0.1 6.49436 0.05 244517143158
6 7 0.1 0.2 6.490193 0.15 235934406570
6 7 0.2 0.3 6.559326 0.25 283808962522
6 7 0.3 0.4 6.538703 0.35 224563430992
6 7 0.4 0.5 6.509896 0.45 222407817159
6 7 0.5 0.6 6.541043 0.55 249486745911
6 7 0.6 0.7 6.535357 0.65 279278641333
6 7 0.7 0.8 6.537883 0.75 229912157023
6 7 0.8 0.9 6.554456 0.85 213046144732
6 7 0.9 1 6.510315 0.95 241471311276
7 8 -1 -0.9 7.494068 -0.95 298843494868
7 8 -0.9 -0.8 7.517205 -0.85 298685847079
7 8 -0.8 -0.7 7.524814 -0.75 329245910041
7 8 -0.7 -0.6 7.499948 -0.65 329791898560
7 8 -0.6 -0.5 7.501901 -0.55 299033274418
7 8 -0.5 -0.4 7.54974 -0.45 321581343060
7 8 -0.4 -0.3 7.539499 -0.35 320355181773
7 8 -0.3 -0.2 7.523998 -0.25 323200709457
7 8 -0.2 -0.1 7.52346 -0.15 318709628858
7 8 -0.1 0 7.47904 -0.05 294938247679
7 8 0 0.1 7.464533 0.05 319358738525
7 8 0.1 0.2 7.556911 0.15 274406014470
7 8 0.2 0.3 7.525056 0.25 342637507182
7 8 0.3 0.4 7.531946 0.35 329888141074
7 8 0.4 0.5 7.505975 0.45 351683856988
7 8 0.5 0.6 7.557414 0.55 292671076309
7 8 0.6 0.7 7.487602 0.65 261096588410
7 8 0.7 0.8 7.524713 0.75 302239724211
7 8 0.8 0.9 7.500087 0.85 268483396515
7 8 0.9 1 7.522798 0.95 338103157641
8 9 -1 -0.9 8.501756 -0.95 384049936882
8 9 -0.9 -0.8 8.528945 -0.85 382815388254
8 9 -0.8 -0.7 8.540315 -0.75 386378387893
8 9 -0.7 -0.6 8.506767 -0.65 407509956572
8 9 -0.6 -0.5 8.540116 -0.55 379092647628
8 9 -0.5 -0.4 8.50134 -0.45 369916691894
8 9 -0.4 -0.3 8.497543 -0.35 374239357088
8 9 -0.3 -0.2 8.525686 -0.25 430171610341
8 9 -0.2 -0.1 8.512129 -0.15 435605823575
8 9 -0.1 0 8.511858 -0.05 369486991350
8 9 0 0.1 8.519757 0.05 381293027427
8 9 0.1 0.2 8.540294 0.15 418678493808
8 9 0.2 0.3 8.497323 0.25 366002286043
8 9 0.3 0.4 8.489818 0.35 392780807001
8 9 0.4 0.5 8.51818 0.45 384342616085
8 9 0.5 0.6 8.510261 0.55 400702254806
8 9 0.6 0.7 8.535267 0.65 378305102413
8 9 0.7 0.8 8.507574 0.75 397084205269
8 9 0.8 0.9 8.558883 0.85 388147974070
8 9 0.9 1 8.49991 0.95 377477358956
9 10 -1 -0.9 9.528336 -0.95 530410039507
9 10 -0.9 -0.8 9.524768 -0.85 476554995355
9 10 -0.8 -0.7 9.515362 -0.75 408447249718
9 10 -0.7 -0.6 9.534709 -0.65 478991329497
9 10 -0.6 -0.5 9.500973 -0.55 510328296171
9 10 -0.5 -0.4 9.520699 -0.45 528787083753
9 10 -0.4 -0.3 9.509182 -0.35 468796531179
9 10 -0.3 -0.2 9.549598 -0.25 442892852643
9 10 -0.2 -0.1 9.51086 -0.15 465941238584
9 10 -0.1 0 9.537504 -0.05 528333542689
9 10 0 0.1 9.494196 0.05 446282654322
9 10 0.1 0.2 9.482277 0.15 432751976421
9 10 0.2 0.3 9.536944 0.25 483277352183
9 10 0.3 0.4 9.496839 0.35 550084553688
9 10 0.4 0.5 9.558644 0.45 426242775039
9 10 0.5 0.6 9.531032 0.55 489116917605
9 10 0.6 0.7 9.513203 0.65 428829006629
9 10 0.7 0.8 9.559539 0.75 427520530988
9 10 0.8 0.9 9.540421 0.85 478589608459
9 10 0.9 1 9.492571 0.95 516126280383
10 11 -1 -0.9 10.49579 -0.95 590599894660
10 11 -0.9 -0.8 10.54348 -0.85 535154992937
10 11 -0.8 -0.7 10.5172 -0.75 611462795226
10 11 -0.7 -0.6 10.50605 -0.65 572596828878
10 11 -0.6 -0.5 10.53654 -0.55 552590099623
10 11 -0.5 -0.4 10.51607 -0.45 557427412662
10 11 -0.4 -0.3 10.50405 -0.35 587899043925
10 11 -0.3 -0.2 10.49635 -0.25 572988768579
10 11 -0.2 -0.1 10.49015 -0.15 657312552646
10 11 -0.1 0 10.51352 -0.05 512086449715
10 11 0 0.1 10.50371 0.05 579751308793
10 11 0.1 0.2 10.5282 0.15 550240374729
10 11 0.2 0.3 10.51171 0.25 596435366947
10 11 0.3 0.4 10.54202 0.35 571942020970
10 11 0.4 0.5 10.49778 0.45 577596707430
10 11 0.5 0.6 10.50895 0.55 568686201595
10 11 0.6 0.7 10.53283 0.65 648277123067
10 11 0.7 0.8 10.51071 0.75 610153844642
10 11 0.8 0.9 10.50093 0.85 618986052817
10 11 0.9 1 10.52293 0.95 546751135302
11 12 -1 -0.9 11.5158 -0.95 724303256685
11 12 -0.9 -0.8 11.50948 -0.85 721874894650
11 12 -0.8 -0.7 11.52662 -0.75 705407748439
11 12 -0.7 -0.6 11.50354 -0.65 664882074436
11 12 -0.6 -0.5 11.50568 -0.55 708959085127
11 12 -0.5 -0.4 11.53423 -0.45 678176642974
11 12 -0.4 -0.3 11.50124 -0.35 642676559566
11 12 -0.3 -0.2 11.52976 -0.25 652013632150
11 12 -0.2 -0.1 11.46899 -0.15 710288057394
11 12 -0.1 0 11.53242 -0.05 642557162973
11 12 0 0.1 11.50784 0.05 644896131972
11 12 0.1 0.2 11.52202 0.15 593727945812
11 12 0.2 0.3 11.48764 0.25 719179705827
11 12 0.3 0.4 11.50182 0.35 708903130339
11 12 0.4 0.5 11.48962 0.45 641130619502
11 12 0.5 0.6 11.49079 0.55 648569362097
11 12 0.6 0.7 11.49167 0.65 623561329013
11 12 0.7 0.8 11.4951 0.75 667497073923
11 12 0.8 0.9 11.51673 0.85 694448968901
11 12 0.9 1 11.52092 0.95 638012279574
12 13 -1 -0.9 12.502 -0.95 890758395255
12 13 -0.9 -0.8 12.53973 -0.85 839360555189
12 13 -0.8 -0.7 12.53134 -0.75 787261185562
12 13 -0.7 -0.6 12.50936 -0.65 805291749081
12 13 -0.6 -0.5 12.49026 -0.55 820851432275
12 13 -0.5 -0.4 12.50638 -0.45 747998340302
12 13 -0.4 -0.3 12.49492 -0.35 719191216206
12 13 -0.3 -0.2 12.51788 -0.25 815707108324
12 13 -0.2 -0.1 12.50962 -0.15 844212902007
12 13 -0.1 0 12.5159 -0.05 801315976546
12 13 0 0.1 12.52089 0.05 786451383516
12 13 0.1 0.2 12.51256 0.15 775638545519
12 13 0.2 0.3 12.52876 0.25 776199063811
12 13 0.3 0.4 12.51669 0.35 790579424405
12 13 0.4 0.5 12.50207 0.45 763863335602
12 13 0.5 0.6 12.52916 0.55 729700423799
12 13 0.6 0.7 12.51753 0.65 735581044493
12 13 0.7 0.8 12.50202 0.75 772686837091
12 13 0.8 0.9 12.52073 0.85 799562589214
12 13 0.9 1 12.52286 0.95 784521269919
13 14 -1 -0.9 13.5004 -0.95 935869432659
13 14 -0.9 -0.8 13.48709 -0.85 961679182566
13 14 -0.8 -0.7 13.54115 -0.75 857321181176
13 14 -0.7 -0.6 13.51544 -0.65 919410039604
13 14 -0.6 -0.5 13.49239 -0.55 899058403821
13 14 -0.5 -0.4 13.5109 -0.45 869068686100
13 14 -0.4 -0.3 13.5036 -0.35 853132551037
13 14 -0.3 -0.2 13.50768 -0.25 864501224966
13 14 -0.2 -0.1 13.50344 -0.15 920233000969
13 14 -0.1 0 13.50979 -0.05 931371074065
13 14 0 0.1 13.53886 0.05 842318259218
13 14 0.1 0.2 13.52543 0.15 871787994196
13 14 0.2 0.3 13.52728 0.25 945452151269
13 14 0.3 0.4 13.49671 0.35 869101554609
13 14 0.4 0.5 13.5 0.45 944064586281
13 14 0.5 0.6 13.49641 0.55 894458363518
13 14 0.6 0.7 13.51991 0.65 794434749892
13 14 0.7 0.8 13.51836 0.75 934040179864
13 14 0.8 0.9 13.50471 0.85 921496821636
13 14 0.9 1 13.49914 0.95 856232670729
14 15 -1 -0.9 14.50254 -0.95 1.01393703447e+12
14 15 -0.9 -0.8 14.51023 -0.85 1.04740393064e+12
14 15 -0.8 -0.7 14.5125 -0.75 954734041918
14 15 -0.7 -0.6 14.49194 -0.65 931828131248
14 15 -0.6 -0.5 14.48785 -0.55 1.05675983438e+12
14 15 -0.5 -0.4 14.53686 -0.45 1.0060949279e+12
14 15 -0.4 -0.3 14.52253 -0.35 950620316383
14 15 -0.3 -0.2 14.4968 -0.25 976626252709
14 15 -0.2 -0.1 14.52152 -0.15 1.14623330645e+12
14 15 -0.1 0 14.51232 -0.05 1.02819392198e+12
14 15 0 0.1 14.50245 0.05 1.04199745583e+12
14 15 0.1 0.2 14.53443 0.15 1.02673333136e+12
14 15 0.2 0.3 14.48872 0.25 972064685815
14 15 0.3 0.4 14.5141 0.35 1.0182053042e+12
14 15 0.4 0.5 14.49351 0.45 1.06287040835e+12
14 15 0.5 0.6 14.50496 0.55 945211835457
14 15 0.6 0.7 14.49467 0.65 984992934528
14 15 0.7 0.8 14.47689 0.75 1.04345809726e+12
14 15 0.8 0.9 14.50734 0.85 919205653187
14 15 0.9 1 14.53272 0.95 1.02607784678e+12
15 16 -1 -0.9 15.52721 -0.95 1.15910322546e+12
15 16 -0.9 -0.8 15.51193 -0.85 1.07553878325e+12
15 16 -0.8 -0.7 15.50538 -0.75 1.18365732457e+12
15 16 -0.7 -0.6 15.51987 -0.65 1.06276648729e+12
15 16 -0.6 -0.5 15.50348 -0.55 1.10975344771e+12
15 16 -0.5 -0.4 15.52102 -0.45 1.13259501068e+12
15 16 -0.4 -0.3 15.51022 -0.35 1.23755506765e+12
15 16 -0.3 -0.2 15.4944 -0.25 1.08548570433e+12
15 16 -0.2 -0.1 15.50217 -0.15 1.19659044205e+12
15 16 -0.1 0 15.49572 -0.05 1.18460297179e+12
15 16 0 0.1 15.52059 0.05 1.19157189496e+12
15 16 0.1 0.2 15.51277 0.15 1.15344923712e+12
15 16 0.2 0.3 15.49428 0.25 1.10984235534e+12
15 16 0.3 0.4 15.51945 0.35 1.21139330684e+12
15 16 0.4 0.5 15.50795 0.45 1.13349392565e+12
15 16 0.5 0.6 15.5077 0.55 1.12757570554e+12
15 16 0.6 0.7 15.50287 0.65 1.09607450047e+12
15 16 0.7 0.8 15.50436 0.75 1.15595405798e+12
15 16 0.8 0.9 15.49751 0.85 1.2049823622e+12
15 16 0.9 1 15.52492 0.95 1.09819211535e+12
16 17 -1 -0.9 16.50183 -0.95 1.23921888217e+12
16 17 -0.9 -0.8 16.51023 -0.85 1.27693677861e+12
16 17 -0.8 -0.7 16.52516 -0.75 1.30435915068e+12
16 17 -0.7 -0.6 16.49742 -0.65 1.22568347541e+12
16 17 -0.6 -0.5 16.50269 -0.55 1.20874189413e+12
16 17 -0.5 -0.4 16.49813 -0.45 1.29017154605e+12
16 17 -0.4 -0.3 16.51444 -0.35 1.22034249662e+12
16 17 -0.3 -0.2 16.52837 -0.25 1.28899249299e+12
16 17 -0.2 -0.1 16.49794 -0.15 1.30335635955e+12
16 17 -0.1 0 16.49754 -0.05 1.28791151414e+12
16 17 0 0.1 16.51422 0.05 1.26041681339e+12
16 17 0.1 0.2 16.5202 0.15 1.25936751103e+12
16 17 0.2 0.3 16.51592 0.25 1.35251953412e+12
16 17 0.3 0.4 16.50641 0.35 1.18890203484e+12
16 17 0.4 0.5 16.50473 0.45 1.28097290699e+12
16 17 0.5 0.6 16.51603 0.55 1.23743739565e+12
16 17 0.6 0.7 16.5116 0.65 1.33859332321e+12
16 17 0.7 0.8 16.49909 0.75 1.23583127265e+12
16 17 0.8 0.9 16.49953 0.85 1.24178673559e+12
16 17 0.9 1 16.53237 0.95 1.27441854038e+12
17 18 -1 -0.9 17.51765 -0.95 1.42296647892e+12
17 18 -0.9 -0.8 17.5195 -0.85 1.44997298401e+12
17 18 -0.8 -0.7 17.52011 -0.75 1.45161861528e+12
17 18 -0.7 -0.6 17.51657 -0.65 1.27929184525e+12
17 18 -0.6 -0.5 17.51889 -0.55 1.41724325876e+12
17 18 -0.5 -0.4 17.49369 -0.45 1.39827432834e+12
17 18 -0.4 -0.3 17.51035 -0.35 1.34472070747e+12
17 18 -0.3 -0.2 17.50819 -0.25 1.42608921834e+12
17 18 -0.2 -0.1 17.52141 -0.15 1.42731394583e+12
17 18 -0.1 0 17.51453 -0.05 1.3762085989e+12
17 18 0 0.1 17.52583 0.05 1.51556970617e+12
17 18 0.1 0.2 17.51213 0.15 1.410741126e+12
17 18 0.2 0.3 17.51917 0.25 1.35657988878e+12
17 18 0.3 0.4 17.5164 0.35 1.38855796082e+12
17 18 0.4 0.5 17.5059 0.45 1.46475459683e+12
17 18 0.5 0.6 17.49648 0.55 1.55613984401e+12
17 18 0.6 0.7 17.48941 0.65 1.43513959173e+12
17 18 0.7 0.8 17.49579 0.75 1.45676019316e+12
17 18 0.8 0.9 17.52262 0.85 1.39290497098e+12
17 18 0.9 1 17.49848 0.95 1.45060999491e+12
18 19 -1 -0.9 18.52102 -0.95 1.6227770064e+12
18 19 -0.9 -0.8 18.49097 -0.85 1.54120522165e+12
18 19 -0.8 -0.7 18.49731 -0.75 1.58448419912e+12
18 19 -0.7 -0.6 18.50679 -0.65 1.49831147212e+12
18 19 -0.6 -0.5 18.48063 -0.55 1.60357808284e+12
18 19 -0.5 -0.4 18.49888 -0.45 1.4576279918e+12
18 19 -0.4 -0.3 18.52108 -0.35 1.58029043406e+12
18 19 -0.3 -0.2 18.50527 -0.25 1.57032619617e+12
18 19 -0.2 -0.1 18.50714 -0.15 1.49582230508e+12
18 19 -0.1 0 18.49263 -0.05 1.61137011342e+12
18 19 0 0.1 18.50488 0.05 1.58756566834e+12
18 19 0.1 0.2 18.52223 0.15 1.63689564577e+12
18 19 0.2 0.3 18.50628 0.25 1.49659387909e+12
18 19 0.3 0.4 18.51746 0.35 1.62266266895e+12
18 19 0.4 0.5 18.52904 0.45 1.51401332957e+12
18 19 0.5 0.6 18.50746 0.55 1.58339290396e+12
18 19 0.6 0.7 18.53195 0.65 1.56521357895e+12
18 19 0.7 0.8 18.51847 0.75 1.52973899916e+12
18 19 0.8 0.9 18.48463 0.85 1.55466084166e+12
18 19 0.9 1 18.50757 0.95 1.64793250487e+12
19 20 -1 -0.9 19.49863 -0.95 1.70729580106e+12
19 20 -0.9 -0.8 19.49416 -0.85 1.78781027444e+12
19 20 -0.8 -0.7 19.50755 -0.75 1.53144473197e+12
19 20 -0.7 -0.6 19.50901 -0.65 1.63248672111e+12
19 20 -0.6 -0.5 19.48453 -0.55 1.68690149461e+12
19 20 -0.5 -0.4 19.48825 -0.45 1.68598582653e+12
19 20 -0.4 -0.3 19.51875 -0.35 1.50795326429e+12
19 20 -0.3 -0.2 19.48879 -0.25 1.78734983558e+12
19 20 -0.2 -0.1 19.4997 -0.15 1.60208015745e+12
19 20 -0.1 0 19.50771 -0.05 1.71251245403e+12
19 20 0 0.1 19.49842 0.05 1.70849287575e+12
19 20 0.1 0.2 19.51748 0.15 1.7304755286e+12
19 20 0.2 0.3 19.5019 0.25 1.58632783144e+12
19 20 0.3 0.4 19.52705 0.35 1.45368988804e+12
19 20 0.4 0.5 19.51744 0.45 1.69967366078e+12
19 20 0.5 0.6 19.49854 0.55 1.5975349073e+12
19 20 0.6 0.7 19.50072 0.65 1.57303898568e+12
19 20 0.7 0.8 19.52056 0.75 1.70096743504e+12
19 20 0.8 0.9 19.49788 0.85 1.75271882997e+12
19 20 0.9 1 19.48545 0.95 1.88857888074e+12
20 21 -1 -0.9 20.49233 -0.95 1.99767771864e+12
20 21 -0.9 -0.8 20.49491 -0.85 1.83249602653e+12
20 21 -0.8 -0.7 20.49687 -0.75 1.81122042642e+12
20 21 -0.7 -0.6 20.51797 -0.65 1.76849567654e+12
20 21 -0.6 -0.5 20.49426 -0.55 1.80035419937e+12
20 21 -0.5 -0.4 20.48403 -0.45 1.66472225255e+12
20 21 -0.4 -0.3 20.50742 -0.35 1.87985690028e+12
20 21 -0.3 -0.2 20.4951 -0.25 1.97483743969e+12
20 21 -0.2 -0.1 20.52684 -0.15 1.79120051286e+12
20 21 -0.1 0 20.51745 -0.05 1.83681718744e+12
20 21 0 0.1 20.52362 0.05 1.85682829846e+12
20 21 0.1 0.2 20.50194 0.15 1.88707398789e+12
20 21 0.2 0.3 20.49055 0.25 1.80769200197e+12
20 21 0.3 0.4 20.52926 0.35 1.78930420413e+12
20 21 0.4 0.5 20.50586 0.45 1.69149701702e+12
20 21 0.5 0.6 20.49282 0.55 1.8083465018e+12
20 21 0.6 0.7 20.51542 0.65 1.86271152708e+12
20 21 0.7 0.8 20.5042 0.75 1.72649904573e+12
20 21 0.8 0.9 20.51054 0.85 1.78792949369e+12
20 21 0.9 1 20.50266 0.95 1.80564132091e+12
21 22 -1 -0.9 21.5177 -0.95 1.92011415073e+12
21 22 -0.9 -0.8 21.49535 -0.85 2.10423011082e+12
21 22 -0.8 -0.7 21.52322 -0.75 1.94662775091e+12
21 22 -0.7 -0.6 21.52042 -0.65 2.00174760527e+12
21 22 -0.6 -0.5 21.51975 -0.55 1.99912418813e+12
21 22 -0.5 -0.4 21.51215 -0.45 1.98792567639e+12
21 22 -0.4 -0.3 21.5185 -0.35 2.07231401766e+12
21 22 -0.3 -0.2 21.51845 -0.25 2.0096657642e+12
21 22 -0.2 -0.1 21.49802 -0.15 2.05343753743e+12
21 22 -0.1 0 21.49614 -0.05 2.16985106401e+12
21 22 0 0.1 21.52032 0.05 2.01263865306e+12
21 22 0.1 0.2 21.50194 0.15 2.10627931842e+12
21 22 0.2 0.3 21.49659 0.25 2.02085087684e+12
21 22 0.3 0.4 21.50842 0.35 1.8670094607e+12
21 22 0.4 0.5 21.5245 0.45 1.87396844701e+12
21 22 0.5 0.6 21.50836 0.55 2.02439047126e+12
21 22 0.6 0.7 21.51234 0.65 1.99892804506e+12
21 22 0.7 0.8 21.52524 0.75 1.90958534864e+12
21 22 0.8 0.9 21.50985 0.85 1.93384998612e+12
21 22 0.9 1 21.51437 0.95 2.02582349105e+12
22 23 -1 -0.9 22.50544 -0.95 2.18578776051e+12
22 23 -0.9 -0.8 22.50819 -0.85 2.08657630851e+12
22 23 -0.8 -0.7 22.4974 -0.75 2.05759668798e+12
22 23 -0.7 -0.6 22.51417 -0.65 2.05670503645e+12
22 23 -0.6 -0.5 22.52553 -0.55 1.95809080275e+12
22 23 -0.5 -0.4 22.50303 -0.45 2.12146724377e+12
22 23 -0.4 -0.3 22.50039 -0.35 2.18216522154e+12
22 23 -0.3 -0.2 22.50118 -0.25 2.1500531873e+12
22 23 -0.2 -0.1 22.49761 -0.15 2.18271066604e+12
22 23 -0.1 0 22.49852 -0.05 2.20784290623e+12
22 23 0 0.1 22.53031 0.05 2.19225833195e+12
22 23 0.1 0.2 22.51306 0.15 2.24016533169e+12
22 23 0.2 0.3 22.48654 0.25 2.19062941497e+12
22 23 0.3 0.4 22.50369 0.35 2.17294000818e+12
22 23 0.4 0.5 22.49481 0.45 2.07936339729e+12
22 23 0.5 0.6 22.49218 0.55 2.18784780603e+12
22 23 0.6 0.7 22.50609 0.65 2.03926122289e+12
22 23 0.7 0.8 22.49714 0.75 1.99607976661e+12
22 23 0.8 0.9 22.50029 0.85 2.11609348168e+12
22 23 0.9 1 22.52268 0.95 2.21605766162e+12
23 24 -1 -0.9 23.51221 -0.95 2.52803928201e+12
23 24 -0.9 -0.8 23.49956 -0.85 2.26217193841e+12
23 24 -0.8 -0.7 23.5067 -0.75 2.12871435299e+12
23 24 -0.7 -0.6 23.51306 -0.65 2.18738730352e+12
23 24 -0.6 -0.5 23.50128 -0.55 2.08376196646e+12
23 24 -0.5 -0.4 23.5093 -0.45 2.25049135522e+12
23 24 -0.4 -0.3 23.50585 -0.35 2.31318664755e+12
23 24 -0.3 -0.2 23.5147 -0.25 2.17072028501e+12
23 24 -0.2 -0.1 23.51265 -0.15 2.28588914826e+12
23 24 -0.1 0 23.50976 -0.05 2.37898835545e+12
23 24 0 0.1 23.50303 0.05 2.31837109483e+12
23 24 0.1 0.2 23.52217 0.15 2.37158890569e+12
23 24 0.2 0.3 23.5049 0.25 2.34037266171e+12
23 24 0.3 0.4 23.48446 0.35 2.27518361414e+12
23 24 0.4 0.5 23.50525 0.45 2.28743815037e+12
23 24 0.5 0.6 23.50033 0.55 2.24707711572e+12
23 24 0.6 0.7 23.50948 0.65 2.26780934223e+12
23 24 0.7 0.8 23.50063 0.75 2.29232525215e+12
23 24 0.8 0.9 23.49203 0.85 2.37438180622e+12
23 24 0.9 1 23.51101 0.95 2.48405967503e+12
24 25 -1 -0.9 24.52087 -0.95 2.6003757299e+12
24 25 -0.9 -0.8 24.51272 -0.85 2.48207006634e+12
24 25 -0.8 -0.7 24.50824 -0.75 2.33460627743e+12
24 25 -0.7 -0.6 24.51779 -0.65 2.33993172581e+12
24 25 -0.6 -0.5 24.50652 -0.55 2.31840710616e+12
24 25 -0.5 -0.4 24.50398 -0.45 2.54881920119e+12
24 25 -0.4 -0.3 24.50582 -0.35 2.34905627143e+12
24 25 -0.3 -0.2 24.49745 -0.25 2.47941607913e+12
24 25 -0.2 -0.1 24.51331 -0.15 2.43363913134e+12
24 25 -0.1 0 24.49559 -0.05 2.51602563832e+12
24 25 0 0.1 24.4929 0.05 2.49190536502e+12
24 25 0.1 0.2 24.5 0.15 2.54950117753e+12
24 25 0.2 0.3 24.52121 0.25 2.41277954906e+12
24 25 0.3 0.4 24.48304 0.35 2.38725331543e+12
24 25 0.4 0.5 24.50701 0.45 2.40127001564e+12
24 25 0.5 0.6 24.5102 0.55 2.48474024965e+12
24 25 0.6 0.7 24.51286 0.65 2.34492389803e+12
24 25 0.7 0.8 24.50974 0.75 2.49327754139e+12
24 25 0.8 0.9 24.52064 0.85 2.41341264006e+12
24 25 0.9 1 24.50169 0.95 2.54113038816e+12
25 26 -1 -0.9 25.51526 -0.95 2.66785402097e+12
25 26 -0.9 -0.8 25.50243 -0.85 2.62833216622e+12
25 26 -0.8 -0.7 25.50089 -0.75 2.48852668298e+12
25 26 -0.7 -0.6 25.49787 -0.65 2.43135351097e+12
25 26 -0.6 -0.5 25.49859 -0.55 2.39876371124e+12
25 26 -0.5 -0.4 25.4943 -0.45 2.53115758803e+12
25 26 -0.4 -0.3 25.49327 -0.35 2.6516022377e+12
25 26 -0.3 -0.2 25.49724 -0.25 2.65344019552e+12
25 26 -0.2 -0.1 25.52635 -0.15 2.6860750752e+12
25 26 -0.1 0 25.50581 -0.05 2.76014133641e+12
25 26 0 0.1 25.51638 0.05 2.70713779928e+12
25 26 0.1 0.2 25.50602 0.15 2.82920108024e+12
25 26 0.2 0.3 25.51266 0.25 2.59891995994e+12
25 26 0.3 0.4 25.51438 0.35 2.59311436028e+12
25 26 0.4 0.5 25.51918 0.45 2.47406672043e+12
25 26 0.5 0.6 25.50068 0.55 2.48101761591e+12
25 26 0.6 0.7 25.49417 0.65 2.46612137841e+12
25 26 0.7 0.8 25.50153 0.75 2.48541932572e+12
25 26 0.8 0.9 25.50856 0.85 2.56663256824e+12
25 26 0.9 1 25.49703 0.95 2.86769229377e+12
26 27 -1 -0.9 26.50956 -0.95 2.87545109002e+12
26 27 -0.9 -0.8 26.49565 -0.85 2.65754760784e+12
26 27 -0.8 -0.7 26.50916 -0.75 2.69311630225e+12
26 27 -0.7 -0.6 26.49978 -0.65 2.63822337026e+12
26 27 -0.6 -0.5 26.50671 -0.55 2.74319222987e+12
26 27 -0.5 -0.4 26.50738 -0.45 2.53527325221e+12
26 27 -0.4 -0.3 26.49089 -0.35 2.85131775799e+12
26 27 -0.3 -0.2 26.49737 -0.25 2.75222463753e+12
26 27 -0.2 -0.1 26.48076 -0.15 2.81048766255e+12
26 27 -0.1 0 26.51417 -0.05 2.78670987865e+12
26 27 0 0.1 26.50123 0.05 2.78449454146e+12
26 27 0.1 0.2 26.50511 0.15 2.75633711673e+12
26 27 0.2 0.3 26.50803 0.25 2.91215177498e+12
26 27 0.3 0.4 26.50092 0.35 2.65633550382e+12
26 27 0.4 0.5 26.50887 0.45 2.76075462241e+12
26 27 0.5 0.6 26.4879 0.55 2.59555263638e+12
26 27 0.6 0.7 26.49266 0.65 2.66700576771e+12
26 27 0.7 0.8 26.50663 0.75 2.84469161195e+12
26 27 0.8 0.9 26.49829 0.85 2.7208528368e+12
26 27 0.9 1 26.51549 0.95 2.86912495544e+12
27 28 -1 -0.9 27.5104 -0.95 2.95762402332e+12
27 28 -0.9 -0.8 27.49981 -0.85 2.80373106598e+12
27 28 -0.8 -0.7 27.5092 -0.75 2.7583108113e+12
27 28 -0.7 -0.6 27.51387 -0.65 2.7229569049e+12
27 28 -0.6 -0.5 27.51731 -0.55 2.96584111091e+12
27 28 -0.5 -0.4 27.51822 -0.45 2.74561737893e+12
27 28 -0.4 -0.3 27.51049 -0.35 2.85598076189e+12
27 28 -0.3 -0.2 27.49762 -0.25 2.90768256118e+12
27 28 -0.2 -0.1 27.50037 -0.15 2.86996985262e+12
27 28 -0.1 0 27.51623 -0.05 2.98664373224e+12
27 28 0 0.1 27.50275 0.05 3.05808431433e+12
27 28 0.1 0.2 27.50449 0.15 3.03577774911e+12
27 28 0.2 0.3 27.50827 0.25 2.892872187e+12
27 28 0.3 0.4 27.49799 0.35 2.97996455362e+12
27 28 0.4 0.5 27.50511 0.45 2.75297929061e+12
27 28 0.5 0.6 27.49219 0.55 2.69413268558e+12
27 28 0.6 0.7 27.50368 0.65 2.71489600267e+12
27 28 0.7 0.8 27.49385 0.75 2.78352770728e+12
27 28 0.8 0.9 27.50661 0.85 2.93070631925e+12
27 28 0.9 1 27.51097 0.95 3.09233704718e+12
28 29 -1 -0.9 28.49668 -0.95 3.17199739739e+12
28 29 -0.9 -0.8 28.48111 -0.85 3.07524514316e+12
28 29 -0.8 -0.7 28.50271 -0.75 2.8560954954e+12
28 29 -0.7 -0.6 28.50717 -0.65 2.82111258555e+12
28 29 -0.6 -0.5 28.49718 -0.55 3.00337626596e+12
28 29 -0.5 -0.4 28.49609 -0.45 2.96394084849e+12
28 29 -0.4 -0.3 28.51292 -0.35 3.06539244415e+12
28 29 -0.3 -0.2 28.51667 -0.25 3.19016441587e+12
28 29 -0.2 -0.1 28.49738 -0.15 3.33293426917e+12
28 29 -0.1 0 28.48789 -0.05 3.27052058361e+12
28 29 0 0.1 28.49803 0.05 3.19168335614e+12
28 29 0.1 0.2 28.49822 0.15 3.18107340156e+12
28 29 0.2 0.3 28.4979 0.25 2.92670313221e+12
28 29 0.3 0.4 28.49945 0.35 2.96924038195e+12
28 29 0.4 0.5 28.49538 0.45 2.86258773603e+12
28 29 0.5 0.6 28.50914 0.55 3.00347095187e+12
28 29 0.6 0.7 28.49952 0.65 2.99456814431e+12
28 29 0.7 0.8 28.51096 0.75 3.076974197e+12
28 29 0.8 0.9 28.51019 0.85 3.12261596868e+12
28 29 0.9 1 28.52474 0.95 3.0999191575e+12
29 30 -1 -0.9 29.50834 -0.95 3.41063243885e+12
29 30 -0.9 -0.8 29.50844 -0.85 3.23418037072e+12
29 30 -0.8 -0.7 29.49436 -0.75 3.11745520909e+12
29 30 -0.7 -0.6 29.50677 -0.65 3.04524646872e+12
29 30 -0.6 -0.5 29.52264 -0.55 3.0705071333e+12
29 30 -0.5 -0.4 29.51914 -0.45 3.21034583925e+12
29 30 -0.4 -0.3 29.49735 -0.35 3.24504704129e+12
29 30 -0.3 -0.2 29.5 -0.25 3.3611700929e+12
29 30 -0.2 -0.1 29.49053 -0.15 3.37233596691e+12
29 30 -0.1 0 29.50523 -0.05 3.44376270677e+12
29 30 0 0.1 29.49885 0.05 3.48476345015e+12
29 30 0.1 0.2 29.51045 0.15 3.30693861092e+12
29 30 0.2 0.3 29.49446 0.25 3.36010173813e+12
29 30 0.3 0.4 29.49967 0.35 3.12350799723e+12
29 30 0.4 0.5 29.5116 0.45 3.25021642032e+12
29 30 0.5 0.6 29.51035 0.55 2.96212371757e+12
29 30 0.6 0.7 29.5115 0.65 3.04746209941e+12
29 30 0.7 0.8 29.49747 0.75 3.17861337171e+12
29 30 0.8 0.9 29.50373 0.85 3.249766808e+12
29 30 0.9 1 29.50935 0.95 3.53960695057e+12
30 31 -1 -0.9 30.50222 -0.95 3.59216219869e+12
30 31 -0.9 -0.8 30.504 -0.85 3.43427381768e+12
30 31 -0.8 -0.7 30.50389 -0.75 3.41163666182e+12
30 31 -0.7 -0.6 30.49823 -0.65 3.18074920536e+12
30 31 -0.6 -0.5 30.51128 -0.55 3.22351178385e+12
30 31 -0.5 -0.4 30.48031 -0.45 3.42426549727e+12
30 31 -0.4 -0.3 30.51349 -0.35 3.40140556105e+12
30 31 -0.3 -0.2 30.49224 -0.25 3.58826852226e+12
30 31 -0.2 -0.1 30.49505 -0.15 3.43860561379e+12
30 31 -0.1 0 30.51259 -0.05 3.55826316456e+12
30 31 0 0.1 30.50324 0.05 3.63508797039e+12
30 31 0.1 0.2 30.5013 0.15 3.31541360198e+12
30 31 0.2 0.3 30.50217 0.25 3.34000519633e+12
30 31 0.3 0.4 30.49108 0.35 3.36371936069e+12
30 31 0.4 0.5 30.50784 0.45 3.3216774349e+12
30 31 0.5 0.6 30.49061 0.55 3.36122167629e+12
30 31 0.6 0.7 30.51147 0.65 3.28489031107e+12
30 31 0.7 0.8 30.48781 0.75 3.2735284692e+12
30 31 0.8 0.9 30.52301 0.85 3.49692099205e+12
30 31 0.9 1 30.5044 0.95 3.59911768837e+12
31 32 -1 -0.9 31.49596 -0.95 3.75190572006e+12
31 32 -0.9 -0.8 31.50598 -0.85 3.48326653822e+12
31 32 -0.8 -0.7 31.50805 -0.75 3.24466267248e+12
31 32 -0.7 -0.6 31.49209 -0.65 3.35882136318e+12
31 32 -0.6 -0.5 31.48164 -0.55 3.0710986109e+12
31 32 -0.5 -0.4 31.49065 -0.45 3.52102204822e+12
31 32 -0.4 -0.3 31.49636 -0.35 3.63171876148e+12
31 32 -0.3 -0.2 31.51171 -0.25 3.6361148469e+12
31 32 -0.2 -0.1 31.50281 -0.15 3.65170593492e+12
31 32 -0.1 0 31.49517 -0.05 3.5168241413e+12
31 32 0 0.1 31.5003 0.05 3.81756004796e+12
31 32 0.1 0.2 31.51398 0.15 3.72905612532e+12
31 32 0.2 0.3 31.48667 0.25 3.25638531908e+12
31 32 0.3 0.4 31.4959 0.35 3.51529847979e+12
31 32 0.4 0.5 31.49242 0.45 3.51415935286e+12
31 32 0.5 0.6 31.50869 0.55 3.41583306412e+12
31 32 0.6 0.7 31.5078 0.65 3.35485588022e+12
31 32 0.7 0.8 31.51158 0.75 3.3560351922e+12
31 32 0.8 0.9 31.50219 0.85 3.69570842687e+12
31 32 0.9 1 31.49692 0.95 3.88037381272e+12
32 33 -1 -0.9 32.50574 -0.95 3.75296516607e+12
32 33 -0.9 -0.8 32.50869 -0.85 3.53179771531e+12
32 33 -0.8 -0.7 32.48494 -0.75 3.66023907931e+12
32 33 -0.7 -0.6 32.50924 -0.65 3.51130280685e+12
32 33 -0.6 -0.5 32.50439 -0.55 3.65683707678e+12
32 33 -0.5 -0.4 32.50964 -0.45 3.42228463945e+12
32 33 -0.4 -0.3 32.49849 -0.35 3.55161428066e+12
32 33 -0.3 -0.2 32.50599 -0.25 3.72998860123e+12
32 33 -0.2 -0.1 32.50425 -0.15 3.91910270694e+12
32 33 -0.1 0 32.50723 -0.05 3.88419736446e+12
32 33 0 0.1 32.49073 0.05 4.00242239997e+12
32 33 0.1 0.2 32.50678 0.15 3.72876591511e+12
32 33 0.2 0.3 32.49237 0.25 3.92451718265e+12
32 33 0.3 0.4 32.51111 0.35 3.62190506328e+12
32 33 0.4 0.5 32.50091 0.45 3.33897447103e+12
32 33 0.5 0.6 32.49922 0.55 3.54284705729e+12
32 33 0.6 0.7 32.5062 0.65 3.40570825845e+12
32 33 0.7 0.8 32.49777 0.75 3.50997858556e+12
32 33 0.8 0.9 32.50303 0.85 3.68115399891e+12
32 33 0.9 1 32.50083 0.95 4.01733976275e+12
33 34 -1 -0.9 33.5074 -0.95 3.91819165197e+12
33 34 -0.9 -0.8 33.50415 -0.85 3.68266763108e+12
33 34 -0.8 -0.7 33.49478 -0.75 3.75397833202e+12
33 34 -0.7 -0.6 33.51282 -0.65 3.6004721903e+12
33 34 -0.6 -0.5 33.50132 -0.55 3.77575387289e+12
33 34 -0.5 -0.4 33.50634 -0.45 3.60406706423e+12
33 34 -0.4 -0.3 33.48916 -0.35 3.84594428458e+12
33 34 -0.3 -0.2 33.51122 -0.25 3.80686933516e+12
33 34 -0.2 -0.1 33.50334 -0.15 3.93263589767e+12
33 34 -0.1 0 33.5112 -0.05 4.05344882298e+12
33 34 0 0.1 33.50077 0.05 4.17455394243e+12
33 34 0.1 0.2 33.49234 0.15 4.03425273484e+12
33 34 0.2 0.3 33.50398 0.25 4.10111907179e+12
33 34 0.3 0.4 33.49873 0.35 3.61959255905e+12
33 34 0.4 0.5 33.51129 0.45 3.75813277085e+12
33 34 0.5 0.6 33.49019 0.55 3.6038139125e+12
33 34 0.6 0.7 33.50305 0.65 3.82569965285e+12
33 34 0.7 0.8 33.50798 0.75 3.79779728565e+12
33 34 0.8 0.9 33.50059 0.85 3.88297679533e+12
33 34 0.9 1 33.50229 0.95 4.20799149935e+12
34 35 -1 -0.9 34.5086 -0.95 4.07706948952e+12
34 35 -0.9 -0.8 34.50192 -0.85 3.93334744906e+12
34 35 -0.8 -0.7 34.50331 -0.75 3.71164174445e+12
34 35 -0.7 -0.6 34.5112 -0.65 3.76280217719e+12
34 35 -0.6 -0.5 34.50425 -0.55 4.03601760556e+12
34 35 -0.5 -0.4 34.51319 -0.45 3.76858950066e+12
34 35 -0.4 -0.3 34.50695 -0.35 3.92861258343e+12
34 35 -0.3 -0.2 34.5105 -0.25 4.21886891585e+12
34 35 -0.2 -0.1 34.49479 -0.15 4.2356193964e+12
34 35 -0.1 0 34.5083 -0.05 4.21091543936e+12
34 35 0 0.1 34.49312 0.05 4.28944608354e+12
34 35 0.1 0.2 34.49922 0.15 4.25068556249e+12
34 35 0.2 0.3 34.51629 0.25 4.05874410116e+12
34 35 0.3 0.4 34.51241 0.35 3.89736308781e+12
34 35 0.4 0.5 34.50788 0.45 3.6684052898e+12
34 35 0.5 0.6 34.49822 0.55 3.90108932528e+12
34 35 0.6 0.7 34.51012 0.65 3.97345174975e+12
34 35 0.7 0.8 34.50809 0.75 3.93004239326e+12
34 35 0.8 0.9 34.49689 0.85 4.10601102064e+12
34 35 0.9 1 34.50275 0.95 4.21685230432e+12
35 36 -1 -0.9 35.50599 -0.95 4.15977514504e+12
35 36 -0.9 -0.8 35.49836 -0.85 3.91096560875e+12
35 36 -0.8 -0.7 35.50173 -0.75 3.92230276521e+12
35 36 -0.7 -0.6 35.5175 -0.65 4.08964859831e+12
35 36 -0.6 -0.5 35.50973 -0.55 4.03719292148e+12
35 36 -0.5 -0.4 35.49033 -0.45 4.05492237763e+12
35 36 -0.4 -0.3 35.4955 -0.35 4.01050517737e+12
35 36 -0.3 -0.2 35.4997 -0.25 4.21559843828e+12
35 36 -0.2 -0.1 35.5123 -0.15 4.21677280011e+12
35 36 -0.1 0 35.49458 -0.05 4.61030622075e+12
35 36 0 0.1 35.50598 0.05 4.55775664231e+12
35 36 0.1 0.2 35.51269 0.15 4.31961923187e+12
35 36 0.2 0.3 35.5 0.25 4.18622976308e+12
35 36 0.3 0.4 35.50145 0.35 3.95887709994e+12
35 36 0.4 0.5 35.49095 0.45 3.87813221448e+12
35 36 0.5 0.6 35.51592 0.55 3.96530011062e+12
35 36 0.6 0.7 35.51626 0.65 4.13741470198e+12
35 36 0.7 0.8 35.49584 0.75 4.08511179268e+12
35 36 0.8 0.9 35.5132 0.85 4.16351296715e+12
35 36 0.9 1 35.50653 0.95 4.44010521358e+12
36 37 -1 -0.9 36.49417 -0.95 4.32424307443e+12
36 37 -0.9 -0.8 36.51542 -0.85 4.2137391892e+12
36 37 -0.8 -0.7 36.50137 -0.75 4.02368379041e+12
36 37 -0.7 -0.6 36.50643 -0.65 4.01154576e+12
36 37 -0.6 -0.5 36.50073 -0.55 4.24348622458e+12
36 37 -0.5 -0.4 36.50377 -0.45 3.99812623673e+12
36 37 -0.4 -0.3 36.50185 -0.35 4.19984753362e+12
36 37 -0.3 -0.2 36.5041 -0.25 4.41194557602e+12
36 37 -0.2 -0.1 36.49836 -0.15 4.52353200481e+12
36 37 -0.1 0 36.49875 -0.05 4.52365205569e+12
36 37 0 0.1 36.50355 0.05 4.67290748105e+12
36 37 0.1 0.2 36.50841 0.15 4.40699068252e+12
36 37 0.2 0.3 36.50646 0.25 4.35391427257e+12
36 37 0.3 0.4 36.51167 0.35 4.33435703146e+12
36 37 0.4 0.5 36.49846 0.45 4.14461616128e+12
36 37 0.5 0.6 36.50539 0.55 3.99072738569e+12
36 37 0.6 0.7 36.5037 0.65 4.18159297202e+12
36 37 0.7 0.8 36.50066 0.75 4.32710417902e+12
36 37 0.8 0.9 36.51082 0.85 4.44615107185e+12
36 37 0.9 1 36.50231 0.95 4.44165631218e+12
37 38 -1 -0.9 37.50038 -0.95 4.81616704263e+12
37 38 -0.9 -0.8 37.50257 -0.85 4.41171676802e+12
37 38 -0.8 -0.7 37.50211 -0.75 4.30699920968e+12
37 38 -0.7 -0.6 37.49911 -0.65 4.26583922548e+12
37 38 -0.6 -0.5 37.48353 -0.55 4.2397998795e+12
37 38 -0.5 -0.4 37.49368 -0.45 4.23240179481e+12
37 38 -0.4 -0.3 37.50706 -0.35 4.43921069585e+12
37 38 -0.3 -0.2 37.50347 -0.25 4.45460272049e+12
37 38 -0.2 -0.1 37.47935 -0.15 4.60811541021e+12
37 38 -0.1 0 37.49675 -0.05 4.79256109288e+12
37 38 0 0.1 37.49965 0.05 4.75747706307e+12
37 38 0.1 0.2 37.51579 0.15 4.67146019378e+12
37 38 0.2 0.3 37.498 0.25 4.5380611146e+12
37 38 0.3 0.4 37.50098 0.35 4.22529427921e+12
37 38 0.4 0.5 37.49638 0.45 4.29118120949e+12
37 38 0.5 0.6 37.51196 0.55 4.24543046776e+12
37 38 0.6 0.7 37.50225 0.65 4.17787347668e+12
37 38 0.7 0.8 37.49884 0.75 4.16589128323e+12
37 38 0.8 0.9 37.49448 0.85 4.49546536247e+12
37 38 0.9 1 37.49939 0.95 4.77456219114e+12
38 39 -1 -0.9 38.50631 -0.95 5.12417739786e+12
38 39 -0.9 -0.8 38.49629 -0.85 4.51178827347e+12
38 39 -0.8 -0.7 38.48371 -0.75 4.41058215799e+12
38 39 -0.7 -0.6 38.49955 -0.65 4.378310788e+12
38 39 -0.6 -0.5 38.51182 -0.55 4.1824004883e+12
38 39 -0.5 -0.4 38.50562 -0.45 4.34870293287e+12
38 39 -0.4 -0.3 38.50159 -0.35 4.51066274354e+12
38 39 -0.3 -0.2 38.51824 -0.25 4.55948060035e+12
38 39 -0.2 -0.1 38.50176 -0.15 4.99557494465e+12
38 39 -0.1 0 38.50064 -0.05 5.01214594429e+12
38 39 0 0.1 38.50111 0.05 4.84927348715e+12
38 39 0.1 0.2 38.51714 0.15 4.99469926275e+12
38 39 0.2 0.3 38.50672 0.25 4.79436725189e+12
38 39 0.3 0.4 38.49655 0.35 4.6800642653e+12
38 39 0.4 0.5 38.49964 0.45 4.45650522759e+12
38 39 0.5 0.6 38.50434 0.55 4.38316265727e+12
38 39 0.6 0.7 38.49751 0.65 4.32194173435e+12
38 39 0.7 0.8 38.50632 0.75 4.59400544068e+12
38 39 0.8 0.9 38.51018 0.85 4.60379352589e+12
38 39 0.9 1 38.51324 0.95 4.93349544348e+12
39 40 -1 -0.9 39.50662 -0.95 5.13333120381e+12
39 40 -0.9 -0.8 39.50325 -0.85 4.74157419408e+12
39 40 -0.8 -0.7 39.50333 -0.75 4.43152810171e+12
39 40 -0.7 -0.6 39.50594 -0.65 4.64528318878e+12
39 40 -0.6 -0.5 39.50862 -0.55 4.57812029872e+12
39 40 -0.5 -0.4 39.50628 -0.45 4.55102475636e+12
39 40 -0.4 -0.3 39.50929 -0.35 4.79620108676e+12
39 40 -0.3 -0.2 39.50137 -0.25 4.87813063395e+12
39 40 -0.2 -0.1 39.50232 -0.15 5.04286576592e+12
39 40 -0.1 0 39.5042 -0.05 5.03133351948e+12
39 40 0 0.1 39.50236 0.05 5.02865849764e+12
39 40 0.1 0.2 39.49528 0.15 4.85837873142e+12
39 40 0.2 0.3 39.5006 0.25 4.87016047201e+12
39 40 0.3 0.4 39.51385 0.35 4.5749379317e+12
39 40 0.4 0.5 39.49957 0.45 4.67975062222e+12
39 40 0.5 0.6 39.48458 0.55 4.52053210848e+12
39 40 0.6 0.7 39.50754 0.65 4.7260046906e+12
39 40 0.7 0.8 39.48801 0.75 4.51854097109e+12
39 40 0.8 0.9 39.50324 0.85 4.62785093945e+12
39 40 0.9 1 39.50057 0.95 5.28499731941e+12
40 41 -1 -0.9 40.51295 -0.95 5.00463861997e+12
40 41 -0.9 -0.8 40.49192 -0.85 4.91384080396e+12
40 41 -0.8 -0.7 40.504 -0.75 4.81146770609e+12
40 41 -0.7 -0.6 40.49303 -0.65 4.7390500222e+12
40 41 -0.6 -0.5 40.49824 -0.55 4.57571082094e+12
40 41 -0.5 -0.4 40.48523 -0.45 4.78379794072e+12
40 41 -0.4 -0.3 40.50028 -0.35 4.86238206451e+12
40 41 -0.3 -0.2 40.49818 -0.25 5.07708392809e+12
40 41 -0.2 -0.1 40.50214 -0.15 5.09411179207e+12
40 41 -0.1 0 40.50572 -0.05 5.17775610588e+12
40 41 0 0.1 40.51298 0.05 5.18725131866e+12
40 41 0.1 0.2 40.50442 0.15 5.0777584071e+12
40 41 0.2 0.3 40.48908 0.25 4.93362797968e+12
40 41 0.3 0.4 40.50242 0.35 4.7796841928e+12
40 41 0.4 0.5 40.49955 0.45 4.70409976683e+12
40 41 0.5 0.6 40.49997 0.55 4.70750508591e+12
40 41 0.6 0.7 40.51027 0.65 4.7280589444e+12
40 41 0.7 0.8 40.49948 0.75 4.66108269875e+12
40 41 0.8 0.9 40.50391 0.85 4.76425328157e+12
40 41 0.9 1 40.50693 0.95 5.08580463946e+12
