#edges = (np.linspace(1, 41, 41), np.linspace(0, 20, 21))
#rp_low rp_high pi_low pi_high rp pi corr
1 2 -20 -19 1.576213 -19.5 0.08051974368
1 2 -19 -18 1.565999 -18.5 -0.0492783323034
1 2 -18 -17 1.592611 -17.5 -0.00475108208874
1 2 -17 -16 1.517767 -16.5 0.202779314095
1 2 -16 -15 1.527987 -15.5 0.341653493691
1 2 -15 -14 1.587719 -14.5 -0.0310431492309
1 2 -14 -13 1.517766 -13.5 0.197385326084
1 2 -13 -12 1.531211 -12.5 0.163994093986
1 2 -12 -11 1.611018 -11.5 0.226623513538
1 2 -11 -10 1.54158 -10.5 0.0343966436078
1 2 -10 -9 1.566004 -9.5 0.0931619934378
1 2 -9 -8 1.532241 -8.5 -0.0956291826188
1 2 -8 -7 1.575377 -7.5 0.117984816425
1 2 -7 -6 1.520649 -6.5 0.534524437991
1 2 -6 -5 1.56454 -5.5 0.164470362366
1 2 -5 -4 1.5657 -4.5 0.0583303283718
1 2 -4 -3 1.526851 -3.5 0.231525388003
1 2 -3 -2 1.52323 -2.5 -0.526656419781
1 2 -2 -1 1.552213 -1.5 -0.146166683875
1 2 -1 0 1.551684 -0.5 -0.509230731292
1 2 0 1 1.551684 0.5 -0.509230731292
1 2 1 2 1.552213 1.5 -0.146166683875
1 2 2 3 1.52323 2.5 -0.526656419781
1 2 3 4 1.526851 3.5 0.231525388003
1 2 4 5 1.5657 4.5 0.0583303283718
1 2 5 6 1.56454 5.5 0.164470362366
1 2 6 7 1.520649 6.5 0.534524437991
1 2 7 8 1.575377 7.5 0.117984816425
1 2 8 9 1.532241 8.5 -0.0956291826188
1 2 9 10 1.566004 9.5 0.0931619934378
1 2 10 11 1.54158 10.5 0.0343966436078
1 2 11 12 1.611018 11.5 0.226623513538
1 2 12 13 1.531211 12.5 0.163994093986
1 2 13 14 1.517766 13.5 0.197385326084
1 2 14 15 1.587719 14.5 -0.0310431492309
1 2 15 16 1.527987 15.5 0.341653493691
1 2 16 17 1.517767 16.5 0.202779314095
1 2 17 18 1.592611 17.5 -0.00475108208874
1 2 18 19 1.565999 18.5 -0.0492783323034
1 2 19 20 1.576213 19.5 0.08051974368
2 3 -20 -19 2.516333 -19.5 -0.626284099926
2 3 -19 -18 2.538983 -18.5 0.13100503046
2 3 -18 -17 2.565221 -17.5 -0.346461992786
2 3 -17 -16 2.521926 -16.5 -0.587069356871
2 3 -16 -15 2.559852 -15.5 -0.742753514334
2 3 -15 -14 2.526309 -14.5 -0.529854020012
2 3 -14 -13 2.53478 -13.5 -0.0718547494758
2 3 -13 -12 2.488903 -12.5 -0.578335602313
2 3 -12 -11 2.530556 -11.5 0.339050115232
2 3 -11 -10 2.531145 -10.5 0.0962894929461
2 3 -10 -9 2.512935 -9.5 0.384520238844
2 3 -9 -8 2.539582 -8.5 -0.159423535573
2 3 -8 -7 2.484464 -7.5 -0.432024222489
2 3 -7 -6 2.511658 -6.5 0.0889890522656
2 3 -6 -5 2.52587 -5.5 -0.1454899624
2 3 -5 -4 2.549004 -4.5 -0.140318696745
2 3 -4 -3 2.560579 -3.5 -0.167540655376
2 3 -3 -2 2.526316 -2.5 0.266845056761
2 3 -2 -1 2.550911 -1.5 0.529972063461
2 3 -1 0 2.540383 -0.5 0.152000777796
2 3 0 1 2.540383 0.5 0.152000777796
2 3 1 2 2.550911 1.5 0.529972063461
2 3 2 3 2.526316 2.5 0.266845056761
2 3 3 4 2.560579 3.5 -0.167540655376
2 3 4 5 2.549004 4.5 -0.140318696745
2 3 5 6 2.52587 5.5 -0.1454899624
2 3 6 7 2.511658 6.5 0.0889890522656
2 3 7 8 2.484464 7.5 -0.432024222489
2 3 8 9 2.539582 8.5 -0.159423535573
2 3 9 10 2.512935 9.5 0.384520238844
2 3 10 11 2.531145 10.5 0.0962894929461
2 3 11 12 2.530556 11.5 0.339050115232
2 3 12 13 2.488903 12.5 -0.578335602313
2 3 13 14 2.53478 13.5 -0.0718547494758
2 3 14 15 2.526309 14.5 -0.529854020012
2 3 15 16 2.559852 15.5 -0.742753514334
2 3 16 17 2.521926 16.5 -0.587069356871
2 3 17 18 2.565221 17.5 -0.346461992786
2 3 18 19 2.538983 18.5 0.13100503046
2 3 19 20 2.516333 19.5 -0.626284099926
3 4 -20 -19 3.53949 -19.5 0.239698053498
3 4 -19 -18 3.524087 -18.5 0.177358095836
3 4 -18 -17 3.5156 -17.5 0.234958919595
3 4 -17 -16 3.522358 -16.5 -0.0506315258185
3 4 -16 -15 3.513884 -15.5 0.0352070859197
3 4 -15 -14 3.534378 -14.5 0.0260155411706
3 4 -14 -13 3.528331 -13.5 -0.0443730854211
3 4 -13 -12 3.52021 -12.5 0.413387137976
3 4 -12 -11 3.515165 -11.5 0.331415872053
3 4 -11 -10 3.506632 -10.5 0.250795038337
3 4 -10 -9 3.511627 -9.5 -0.0755174639299
3 4 -9 -8 3.526033 -8.5 0.0626832396303
3 4 -8 -7 3.522124 -7.5 -0.455714592302
3 4 -7 -6 3.495674 -6.5 0.0429802025686
3 4 -6 -5 3.501564 -5.5 9.14959300657e-05
3 4 -5 -4 3.551118 -4.5 -0.109854804143
3 4 -4 -3 3.507372 -3.5 -0.365927613312
3 4 -3 -2 3.537774 -2.5 -0.153935133794
3 4 -2 -1 3.527976 -1.5 -0.0116425432795
3 4 -1 0 3.542305 -0.5 -0.0381017171624
3 4 0 1 3.542305 0.5 -0.0381017171624
3 4 1 2 3.527976 1.5 -0.0116425432795
3 4 2 3 3.537774 2.5 -0.153935133794
3 4 3 4 3.507372 3.5 -0.365927613312
3 4 4 5 3.551118 4.5 -0.109854804143
3 4 5 6 3.501564 5.5 9.14959300657e-05
3 4 6 7 3.495674 6.5 0.0429802025686
3 4 7 8 3.522124 7.5 -0.455714592302
3 4 8 9 3.526033 8.5 0.0626832396303
3 4 9 10 3.511627 9.5 -0.0755174639299
3 4 10 11 3.506632 10.5 0.250795038337
3 4 11 12 3.515165 11.5 0.331415872053
3 4 12 13 3.52021 12.5 0.413387137976
3 4 13 14 3.528331 13.5 -0.0443730854211
3 4 14 15 3.534378 14.5 0.0260155411706
3 4 15 16 3.513884 15.5 0.0352070859197
3 4 16 17 3.522358 16.5 -0.0506315258185
3 4 17 18 3.5156 17.5 0.234958919595
3 4 18 19 3.524087 18.5 0.177358095836
3 4 19 20 3.53949 19.5 0.239698053498
4 5 -20 -19 4.512649 -19.5 -0.673809947998
4 5 -19 -18 4.510375 -18.5 -0.041282326088
4 5 -18 -17 4.504025 -17.5 0.267297826307
4 5 -17 -16 4.52457 -16.5 0.640725904009
4 5 -16 -15 4.51273 -15.5 0.713943303862
4 5 -15 -14 4.513515 -14.5 0.074615925568
4 5 -14 -13 4.520809 -13.5 -0.338848913162
4 5 -13 -12 4.486735 -12.5 -0.341966890431
4 5 -12 -11 4.497171 -11.5 -0.138710175729
4 5 -11 -10 4.514243 -10.5 0.00918724058842
4 5 -10 -9 4.524475 -9.5 0.186581799303
4 5 -9 -8 4.516633 -8.5 0.0318765204307
4 5 -8 -7 4.510157 -7.5 0.21282870689
4 5 -7 -6 4.516825 -6.5 0.1607902166
4 5 -6 -5 4.535219 -5.5 -0.195267252131
4 5 -5 -4 4.524731 -4.5 -0.166703584272
4 5 -4 -3 4.514929 -3.5 0.0941230875453
4 5 -3 -2 4.511129 -2.5 -0.283826117135
4 5 -2 -1 4.51585 -1.5 0.232924659251
4 5 -1 0 4.518886 -0.5 0.127158234217
4 5 0 1 4.518886 0.5 0.127158234217
4 5 1 2 4.51585 1.5 0.232924659251
4 5 2 3 4.511129 2.5 -0.283826117135
4 5 3 4 4.514929 3.5 0.0941230875453
4 5 4 5 4.524731 4.5 -0.166703584272
4 5 5 6 4.535219 5.5 -0.195267252131
4 5 6 7 4.516825 6.5 0.1607902166
4 5 7 8 4.510157 7.5 0.21282870689
4 5 8 9 4.516633 8.5 0.0318765204307
4 5 9 10 4.524475 9.5 0.186581799303
4 5 10 11 4.514243 10.5 0.00918724058842
4 5 11 12 4.497171 11.5 -0.138710175729
4 5 12 13 4.486735 12.5 -0.341966890431
4 5 13 14 4.520809 13.5 -0.338848913162
4 5 14 15 4.513515 14.5 0.074615925568
4 5 15 16 4.51273 15.5 0.713943303862
4 5 16 17 4.52457 16.5 0.640725904009
4 5 17 18 4.504025 17.5 0.267297826307
4 5 18 19 4.510375 18.5 -0.041282326088
4 5 19 20 4.512649 19.5 -0.673809947998
5 6 -20 -19 5.502495 -19.5 -0.136328653225
5 6 -19 -18 5.513617 -18.5 0.295555444857
5 6 -18 -17 5.511153 -17.5 -0.347202417059
5 6 -17 -16 5.49812 -16.5 -0.30681746567
5 6 -16 -15 5.487674 -15.5 0.064382957726
5 6 -15 -14 5.524302 -14.5 -0.213000532102
5 6 -14 -13 5.529355 -13.5 -0.178818327451
5 6 -13 -12 5.509271 -12.5 0.174909496345
5 6 -12 -11 5.524157 -11.5 0.278960039695
5 6 -11 -10 5.521331 -10.5 -0.00620561436316
5 6 -10 -9 5.504786 -9.5 -0.0124343316667
5 6 -9 -8 5.52651 -8.5 0.17515185245
5 6 -8 -7 5.515969 -7.5 0.255339056494
5 6 -7 -6 5.495108 -6.5 -0.178627714285
5 6 -6 -5 5.519344 -5.5 -0.103594733838
5 6 -5 -4 5.495183 -4.5 -0.0475877458867
5 6 -4 -3 5.475897 -3.5 -0.0698733309454
5 6 -3 -2 5.519764 -2.5 -0.26389781654
5 6 -2 -1 5.523436 -1.5 0.15294403854
5 6 -1 0 5.526197 -0.5 -0.397271432395
5 6 0 1 5.526197 0.5 -0.397271432395
5 6 1 2 5.523436 1.5 0.15294403854
5 6 2 3 5.519764 2.5 -0.26389781654
5 6 3 4 5.475897 3.5 -0.0698733309454
5 6 4 5 5.495183 4.5 -0.0475877458867
5 6 5 6 5.519344 5.5 -0.103594733838
5 6 6 7 5.495108 6.5 -0.178627714285
5 6 7 8 5.515969 7.5 0.255339056494
5 6 8 9 5.52651 8.5 0.17515185245
5 6 9 10 5.504786 9.5 -0.0124343316667
5 6 10 11 5.521331 10.5 -0.00620561436316
5 6 11 12 5.524157 11.5 0.278960039695
5 6 12 13 5.509271 12.5 0.174909496345
5 6 13 14 5.529355 13.5 -0.178818327451
5 6 14 15 5.524302 14.5 -0.213000532102
5 6 15 16 5.487674 15.5 0.064382957726
5 6 16 17 5.49812 16.5 -0.30681746567
5 6 17 18 5.511153 17.5 -0.347202417059
5 6 18 19 5.513617 18.5 0.295555444857
5 6 19 20 5.502495 19.5 -0.136328653225
6 7 -20 -19 6.526211 -19.5 0.247894503447
6 7 -19 -18 6.519824 -18.5 0.0582751493128
6 7 -18 -17 6.522495 -17.5 0.0687193299359
6 7 -17 -16 6.509134 -16.5 0.383720010115
6 7 -16 -15 6.534387 -15.5 0.0410861016093
6 7 -15 -14 6.508791 -14.5 -0.112169579374
6 7 -14 -13 6.521096 -13.5 0.564237225197
6 7 -13 -12 6.520401 -12.5 -0.505922309451
6 7 -12 -11 6.52147 -11.5 -0.244537486807
6 7 -11 -10 6.530584 -10.5 -0.0800043447547
6 7 -10 -9 6.507546 -9.5 -0.227925184306
6 7 -9 -8 6.522193 -8.5 -0.1267430532
6 7 -8 -7 6.515516 -7.5 0.266610683104
6 7 -7 -6 6.508229 -6.5 -0.20911214983
6 7 -6 -5 6.513394 -5.5 -0.648669752572
6 7 -5 -4 6.523616 -4.5 0.542506928779
6 7 -4 -3 6.514561 -3.5 0.193339632585
6 7 -3 -2 6.504908 -2.5 -0.10339519272
6 7 -2 -1 6.525977 -1.5 -0.0303796797766
6 7 -1 0 6.509881 -0.5 0.230569719325
6 7 0 1 6.509881 0.5 0.230569719325
6 7 1 2 6.525977 1.5 -0.0303796797766
6 7 2 3 6.504908 2.5 -0.10339519272
6 7 3 4 6.514561 3.5 0.193339632585
6 7 4 5 6.523616 4.5 0.542506928779
6 7 5 6 6.513394 5.5 -0.648669752572
6 7 6 7 6.508229 6.5 -0.20911214983
6 7 7 8 6.515516 7.5 0.266610683104
6 7 8 9 6.522193 8.5 -0.1267430532
6 7 9 10 6.507546 9.5 -0.227925184306
6 7 10 11 6.530584 10.5 -0.0800043447547
6 7 11 12 6.52147 11.5 -0.244537486807
6 7 12 13 6.520401 12.5 -0.505922309451
6 7 13 14 6.521096 13.5 0.564237225197
6 7 14 15 6.508791 14.5 -0.112169579374
6 7 15 16 6.534387 15.5 0.0410861016093
6 7 16 17 6.509134 16.5 0.383720010115
6 7 17 18 6.522495 17.5 0.0687193299359
6 7 18 19 6.519824 18.5 0.0582751493128
6 7 19 20 6.526211 19.5 0.247894503447
7 8 -20 -19 7.510057 -19.5 -0.121410660761
7 8 -19 -18 7.485396 -18.5 0.0337713259302
7 8 -18 -17 7.490197 -17.5 -0.451659396457
7 8 -17 -16 7.492192 -16.5 0.277751223777
7 8 -16 -15 7.507915 -15.5 0.0145887215009
7 8 -15 -14 7.48412 -14.5 0.105931235963
7 8 -14 -13 7.51291 -13.5 0.207275615036
7 8 -13 -12 7.488113 -12.5 0.186643496278
7 8 -12 -11 7.5057 -11.5 -0.0690760853862
7 8 -11 -10 7.509776 -10.5 0.0984630608283
7 8 -10 -9 7.513016 -9.5 0.161979427646
7 8 -9 -8 7.486815 -8.5 -0.0634169634087
7 8 -8 -7 7.508158 -7.5 0.0519748644299
7 8 -7 -6 7.490784 -6.5 0.214232343116
7 8 -6 -5 7.525212 -5.5 -0.010412340867
7 8 -5 -4 7.512369 -4.5 -0.100223868699
7 8 -4 -3 7.520505 -3.5 -0.230142068155
7 8 -3 -2 7.533757 -2.5 -0.0319632768956
7 8 -2 -1 7.503218 -1.5 -0.0867601672238
7 8 -1 0 7.483374 -0.5 -0.41972358765
7 8 0 1 7.483374 0.5 -0.41972358765
7 8 1 2 7.503218 1.5 -0.0867601672238
7 8 2 3 7.533757 2.5 -0.0319632768956
7 8 3 4 7.520505 3.5 -0.230142068155
7 8 4 5 7.512369 4.5 -0.100223868699
7 8 5 6 7.525212 5.5 -0.010412340867
7 8 6 7 7.490784 6.5 0.214232343116
7 8 7 8 7.508158 7.5 0.0519748644299
7 8 8 9 7.486815 8.5 -0.0634169634087
7 8 9 10 7.513016 9.5 0.161979427646
7 8 10 11 7.509776 10.5 0.0984630608283
7 8 11 12 7.5057 11.5 -0.0690760853862
7 8 12 13 7.488113 12.5 0.186643496278
7 8 13 14 7.51291 13.5 0.207275615036
7 8 14 15 7.48412 14.5 0.105931235963
7 8 15 16 7.507915 15.5 0.0145887215009
7 8 16 17 7.492192 16.5 0.277751223777
7 8 17 18 7.490197 17.5 -0.451659396457
7 8 18 19 7.485396 18.5 0.0337713259302
7 8 19 20 7.510057 19.5 -0.121410660761
8 9 -20 -19 8.485588 -19.5 -0.0415819973516
8 9 -19 -18 8.492561 -18.5 -0.290249800316
8 9 -18 -17 8.49642 -17.5 0.215295454742
8 9 -17 -16 8.506973 -16.5 0.163080412079
8 9 -16 -15 8.48624 -15.5 -0.155881288421
8 9 -15 -14 8.515258 -14.5 -0.0244399505236
8 9 -14 -13 8.519871 -13.5 -0.20194424754
8 9 -13 -12 8.519936 -12.5 0.115001186144
8 9 -12 -11 8.525881 -11.5 -0.226807736776
8 9 -11 -10 8.486864 -10.5 0.283531810368
8 9 -10 -9 8.515317 -9.5 0.0740100543848
8 9 -9 -8 8.497221 -8.5 0.229478682537
8 9 -8 -7 8.513386 -7.5 0.113133317565
8 9 -7 -6 8.523934 -6.5 -0.0834955963871
8 9 -6 -5 8.504991 -5.5 0.17846229983
8 9 -5 -4 8.506214 -4.5 -0.0618718413997
8 9 -4 -3 8.518667 -3.5 0.0536766290072
8 9 -3 -2 8.506296 -2.5 -0.107687223486
8 9 -2 -1 8.540603 -1.5 0.00768971907379
8 9 -1 0 8.478261 -0.5 0.194858278729
8 9 0 1 8.478261 0.5 0.194858278729
8 9 1 2 8.540603 1.5 0.00768971907379
8 9 2 3 8.506296 2.5 -0.107687223486
8 9 3 4 8.518667 3.5 0.0536766290072
8 9 4 5 8.506214 4.5 -0.0618718413997
8 9 5 6 8.504991 5.5 0.17846229983
8 9 6 7 8.523934 6.5 -0.0834955963871
8 9 7 8 8.513386 7.5 0.113133317565
8 9 8 9 8.497221 8.5 0.229478682537
8 9 9 10 8.515317 9.5 0.0740100543848
8 9 10 11 8.486864 10.5 0.283531810368
8 9 11 12 8.525881 11.5 -0.226807736776
8 9 12 13 8.519936 12.5 0.115001186144
8 9 13 14 8.519871 13.5 -0.20194424754
8 9 14 15 8.515258 14.5 -0.0244399505236
8 9 15 16 8.48624 15.5 -0.155881288421
8 9 16 17 8.506973 16.5 0.163080412079
8 9 17 18 8.49642 17.5 0.215295454742
8 9 18 19 8.492561 18.5 -0.290249800316
8 9 19 20 8.485588 19.5 -0.0415819973516
9 10 -20 -19 9.527615 -19.5 -0.0819317158415
9 10 -19 -18 9.520876 -18.5 0.0657385485493
9 10 -18 -17 9.525094 -17.5 -0.300401770966
9 10 -17 -16 9.50662 -16.5 -0.0158952127395
9 10 -16 -15 9.504981 -15.5 -0.151387708376
9 10 -15 -14 9.489257 -14.5 0.287271812259
9 10 -14 -13 9.510567 -13.5 0.176259366307
9 10 -13 -12 9.515106 -12.5 0.0716274014438
9 10 -12 -11 9.518553 -11.5 0.354644056643
9 10 -11 -10 9.510898 -10.5 0.0889359398674
9 10 -10 -9 9.515 -9.5 0.114751694156
9 10 -9 -8 9.493785 -8.5 -0.0395714384827
9 10 -8 -7 9.497668 -7.5 0.309234490038
9 10 -7 -6 9.499743 -6.5 0.165052533883
9 10 -6 -5 9.504825 -5.5 0.183734059042
9 10 -5 -4 9.515076 -4.5 0.462989707116
9 10 -4 -3 9.501515 -3.5 0.0698933944743
9 10 -3 -2 9.526031 -2.5 0.0956985839314
9 10 -2 -1 9.494232 -1.5 -0.117214576385
9 10 -1 0 9.51051 -0.5 -0.0837879254773
9 10 0 1 9.51051 0.5 -0.0837879254773
9 10 1 2 9.494232 1.5 -0.117214576385
9 10 2 3 9.526031 2.5 0.0956985839314
9 10 3 4 9.501515 3.5 0.0698933944743
9 10 4 5 9.515076 4.5 0.462989707116
9 10 5 6 9.504825 5.5 0.183734059042
9 10 6 7 9.499743 6.5 0.165052533883
9 10 7 8 9.497668 7.5 0.309234490038
9 10 8 9 9.493785 8.5 -0.0395714384827
9 10 9 10 9.515 9.5 0.114751694156
9 10 10 11 9.510898 10.5 0.0889359398674
9 10 11 12 9.518553 11.5 0.354644056643
9 10 12 13 9.515106 12.5 0.0716274014438
9 10 13 14 9.510567 13.5 0.176259366307
9 10 14 15 9.489257 14.5 0.287271812259
9 10 15 16 9.504981 15.5 -0.151387708376
9 10 16 17 9.50662 16.5 -0.0158952127395
9 10 17 18 9.525094 17.5 -0.300401770966
9 10 18 19 9.520876 18.5 0.0657385485493
9 10 19 20 9.527615 19.5 -0.0819317158415
10 11 -20 -19 10.50487 -19.5 -0.133991614935
10 11 -19 -18 10.51037 -18.5 0.499134531198
10 11 -18 -17 10.49477 -17.5 0.107988119423
10 11 -17 -16 10.50377 -16.5 0.220076484627
10 11 -16 -15 10.51425 -15.5 -0.0199197367779
10 11 -15 -14 10.51003 -14.5 -0.208888082684
10 11 -14 -13 10.49636 -13.5 0.279882714213
10 11 -13 -12 10.50789 -12.5 0.0747736771102
10 11 -12 -11 10.50828 -11.5 -0.0823967872307
10 11 -11 -10 10.50845 -10.5 -0.0832700976982
10 11 -10 -9 10.49635 -9.5 -0.0845060750355
10 11 -9 -8 10.50735 -8.5 0.0231680943714
10 11 -8 -7 10.50153 -7.5 0.00648076642326
10 11 -7 -6 10.511 -6.5 -0.14379598912
10 11 -6 -5 10.54612 -5.5 0.070896575596
10 11 -5 -4 10.49553 -4.5 -0.105706537978
10 11 -4 -3 10.52084 -3.5 -0.046275750365
10 11 -3 -2 10.50192 -2.5 -0.131784909474
10 11 -2 -1 10.50875 -1.5 -0.0832111512948
10 11 -1 0 10.51278 -0.5 -0.0486229252661
10 11 0 1 10.51278 0.5 -0.0486229252661
10 11 1 2 10.50875 1.5 -0.0832111512948
10 11 2 3 10.50192 2.5 -0.131784909474
10 11 3 4 10.52084 3.5 -0.046275750365
10 11 4 5 10.49553 4.5 -0.105706537978
10 11 5 6 10.54612 5.5 0.070896575596
10 11 6 7 10.511 6.5 -0.14379598912
10 11 7 8 10.50153 7.5 0.00648076642326
10 11 8 9 10.50735 8.5 0.0231680943714
10 11 9 10 10.49635 9.5 -0.0845060750355
10 11 10 11 10.50845 10.5 -0.0832700976982
10 11 11 12 10.50828 11.5 -0.0823967872307
10 11 12 13 10.50789 12.5 0.0747736771102
10 11 13 14 10.49636 13.5 0.279882714213
10 11 14 15 10.51003 14.5 -0.208888082684
10 11 15 16 10.51425 15.5 -0.0199197367779
10 11 16 17 10.50377 16.5 0.220076484627
10 11 17 18 10.49477 17.5 0.107988119423
10 11 18 19 10.51037 18.5 0.499134531198
10 11 19 20 10.50487 19.5 -0.133991614935
11 12 -20 -19 11.50858 -19.5 -0.269899673526
11 12 -19 -18 11.50604 -18.5 0.0400388069798
11 12 -18 -17 11.50639 -17.5 -0.179120802662
11 12 -17 -16 11.49646 -16.5 -0.0682842241655
11 12 -16 -15 11.52197 -15.5 -0.0856776510608
11 12 -15 -14 11.51066 -14.5 0.0575473094916
11 12 -14 -13 11.49318 -13.5 -0.126918529085
11 12 -13 -12 11.51565 -12.5 0.215426401725
11 12 -12 -11 11.5041 -11.5 -0.119758863925
11 12 -11 -10 11.50962 -10.5 -0.0786845097855
11 12 -10 -9 11.50161 -9.5 -0.0494599849515
11 12 -9 -8 11.49693 -8.5 -0.143622376994
11 12 -8 -7 11.51933 -7.5 -0.194434415967
11 12 -7 -6 11.50154 -6.5 -0.220038176841
11 12 -6 -5 11.49322 -5.5 0.134702525103
11 12 -5 -4 11.51494 -4.5 0.367050949162
11 12 -4 -3 11.51436 -3.5 0.0553148491533
11 12 -3 -2 11.49268 -2.5 -0.230034808886
11 12 -2 -1 11.50725 -1.5 -0.0760418441764
11 12 -1 0 11.49396 -0.5 -0.0988747345437
11 12 0 1 11.49396 0.5 -0.0988747345437
11 12 1 2 11.50725 1.5 -0.0760418441764
11 12 2 3 11.49268 2.5 -0.230034808886
11 12 3 4 11.51436 3.5 0.0553148491533
11 12 4 5 11.51494 4.5 0.367050949162
11 12 5 6 11.49322 5.5 0.134702525103
11 12 6 7 11.50154 6.5 -0.220038176841
11 12 7 8 11.51933 7.5 -0.194434415967
11 12 8 9 11.49693 8.5 -0.143622376994
11 12 9 10 11.50161 9.5 -0.0494599849515
11 12 10 11 11.50962 10.5 -0.0786845097855
11 12 11 12 11.5041 11.5 -0.119758863925
11 12 12 13 11.51565 12.5 0.215426401725
11 12 13 14 11.49318 13.5 -0.126918529085
11 12 14 15 11.51066 14.5 0.0575473094916
11 12 15 16 11.52197 15.5 -0.0856776510608
11 12 16 17 11.49646 16.5 -0.0682842241655
11 12 17 18 11.50639 17.5 -0.179120802662
11 12 18 19 11.50604 18.5 0.0400388069798
11 12 19 20 11.50858 19.5 -0.269899673526
12 13 -20 -19 12.48216 -19.5 0.00231566540889
12 13 -19 -18 12.50553 -18.5 0.194595142672
12 13 -18 -17 12.50743 -17.5 0.152877343442
12 13 -17 -16 12.4894 -16.5 -0.000645742410244
12 13 -16 -15 12.50186 -15.5 -0.201315878972
12 13 -15 -14 12.48682 -14.5 0.137156646119
12 13 -14 -13 12.50169 -13.5 0.0596083413225
12 13 -13 -12 12.53538 -12.5 0.111311166304
12 13 -12 -11 12.50422 -11.5 0.199534986081
12 13 -11 -10 12.49954 -10.5 0.0791786059033
12 13 -10 -9 12.50519 -9.5 -0.0222851063932
12 13 -9 -8 12.49988 -8.5 0.0706220041354
12 13 -8 -7 12.51877 -7.5 -0.0232151806243
12 13 -7 -6 12.49588 -6.5 -0.201319803118
12 13 -6 -5 12.50502 -5.5 -0.0405981948077
12 13 -5 -4 12.51771 -4.5 -0.0357706932141
12 13 -4 -3 12.49674 -3.5 -0.0901167046948
12 13 -3 -2 12.50413 -2.5 -0.041121516592
12 13 -2 -1 12.494 -1.5 0.0523060096255
12 13 -1 0 12.49356 -0.5 -0.0403379980818
12 13 0 1 12.49356 0.5 -0.0403379980818
12 13 1 2 12.494 1.5 0.0523060096255
12 13 2 3 12.50413 2.5 -0.041121516592
12 13 3 4 12.49674 3.5 -0.0901167046948
12 13 4 5 12.51771 4.5 -0.0357706932141
12 13 5 6 12.50502 5.5 -0.0405981948077
12 13 6 7 12.49588 6.5 -0.201319803118
12 13 7 8 12.51877 7.5 -0.0232151806243
12 13 8 9 12.49988 8.5 0.0706220041354
12 13 9 10 12.50519 9.5 -0.0222851063932
12 13 10 11 12.49954 10.5 0.0791786059033
12 13 11 12 12.50422 11.5 0.199534986081
12 13 12 13 12.53538 12.5 0.111311166304
12 13 13 14 12.50169 13.5 0.0596083413225
12 13 14 15 12.48682 14.5 0.137156646119
12 13 15 16 12.50186 15.5 -0.201315878972
12 13 16 17 12.4894 16.5 -0.000645742410244
12 13 17 18 12.50743 17.5 0.152877343442
12 13 18 19 12.50553 18.5 0.194595142672
12 13 19 20 12.48216 19.5 0.00231566540889
13 14 -20 -19 13.49821 -19.5 0.0528389643438
13 14 -19 -18 13.49519 -18.5 -0.0219815006971
13 14 -18 -17 13.51001 -17.5 0.0308513740624
13 14 -17 -16 13.52166 -16.5 0.358166407185
13 14 -16 -15 13.51387 -15.5 -0.0860451585496
13 14 -15 -14 13.48994 -14.5 -0.0690636430343
13 14 -14 -13 13.50963 -13.5 0.188073259179
13 14 -13 -12 13.51156 -12.5 0.112470684274
13 14 -12 -11 13.50481 -11.5 0.218151565881
13 14 -11 -10 13.50012 -10.5 0.201444741401
13 14 -10 -9 13.49737 -9.5 0.107284761458
13 14 -9 -8 13.50575 -8.5 0.041690878707
13 14 -8 -7 13.51104 -7.5 0.0399978562892
13 14 -7 -6 13.51556 -6.5 0.0898888856541
13 14 -6 -5 13.51435 -5.5 -0.134831379268
13 14 -5 -4 13.506 -4.5 0.0963729049158
13 14 -4 -3 13.52129 -3.5 0.367984799985
13 14 -3 -2 13.5133 -2.5 0.00354098883521
13 14 -2 -1 13.51232 -1.5 0.118337495557
13 14 -1 0 13.50225 -0.5 -0.0394357942908
13 14 0 1 13.50225 0.5 -0.0394357942908
13 14 1 2 13.51232 1.5 0.118337495557
13 14 2 3 13.5133 2.5 0.00354098883521
13 14 3 4 13.52129 3.5 0.367984799985
13 14 4 5 13.506 4.5 0.0963729049158
13 14 5 6 13.51435 5.5 -0.134831379268
13 14 6 7 13.51556 6.5 0.0898888856541
13 14 7 8 13.51104 7.5 0.0399978562892
13 14 8 9 13.50575 8.5 0.041690878707
13 14 9 10 13.49737 9.5 0.107284761458
13 14 10 11 13.50012 10.5 0.201444741401
13 14 11 12 13.50481 11.5 0.218151565881
13 14 12 13 13.51156 12.5 0.112470684274
13 14 13 14 13.50963 13.5 0.188073259179
13 14 14 15 13.48994 14.5 -0.0690636430343
13 14 15 16 13.51387 15.5 -0.0860451585496
13 14 16 17 13.52166 16.5 0.358166407185
13 14 17 18 13.51001 17.5 0.0308513740624
13 14 18 19 13.49519 18.5 -0.0219815006971
13 14 19 20 13.49821 19.5 0.0528389643438
14 15 -20 -19 14.51951 -19.5 0.255716103756
14 15 -19 -18 14.51513 -18.5 -0.18950797376
14 15 -18 -17 14.49091 -17.5 0.122197749816
14 15 -17 -16 14.50818 -16.5 0.0758175174305
14 15 -16 -15 14.49753 -15.5 0.0973028526827
14 15 -15 -14 14.50457 -14.5 -0.195412685789
14 15 -14 -13 14.51885 -13.5 -0.148188751983
14 15 -13 -12 14.52584 -12.5 0.332524209758
14 15 -12 -11 14.50696 -11.5 -0.0786027086355
14 15 -11 -10 14.50211 -10.5 0.405302439224
14 15 -10 -9 14.50492 -9.5 -0.443727162452
14 15 -9 -8 14.51214 -8.5 0.0294766331332
14 15 -8 -7 14.5054 -7.5 -0.188795737202
14 15 -7 -6 14.49913 -6.5 0.0701635559341
14 15 -6 -5 14.48716 -5.5 -0.0577254404605
14 15 -5 -4 14.51037 -4.5 -0.0636634964639
14 15 -4 -3 14.5147 -3.5 -0.0745869346046
14 15 -3 -2 14.50169 -2.5 -0.10014433501
14 15 -2 -1 14.51145 -1.5 0.140454635004
14 15 -1 0 14.50217 -0.5 0.0185810976601
14 15 0 1 14.50217 0.5 0.0185810976601
14 15 1 2 14.51145 1.5 0.140454635004
14 15 2 3 14.50169 2.5 -0.10014433501
14 15 3 4 14.5147 3.5 -0.0745869346046
14 15 4 5 14.51037 4.5 -0.0636634964639
14 15 5 6 14.48716 5.5 -0.0577254404605
14 15 6 7 14.49913 6.5 0.0701635559341
14 15 7 8 14.5054 7.5 -0.188795737202
14 15 8 9 14.51214 8.5 0.0294766331332
14 15 9 10 14.50492 9.5 -0.443727162452
14 15 10 11 14.50211 10.5 0.405302439224
14 15 11 12 14.50696 11.5 -0.0786027086355
14 15 12 13 14.52584 12.5 0.332524209758
14 15 13 14 14.51885 13.5 -0.148188751983
14 15 14 15 14.50457 14.5 -0.195412685789
14 15 15 16 14.49753 15.5 0.0973028526827
14 15 16 17 14.50818 16.5 0.0758175174305
14 15 17 18 14.49091 17.5 0.122197749816
14 15 18 19 14.51513 18.5 -0.18950797376
14 15 19 20 14.51951 19.5 0.255716103756
15 16 -20 -19 15.50509 -19.5 0.354194233687
15 16 -19 -18 15.50151 -18.5 0.203274973769
15 16 -18 -17 15.49717 -17.5 0.051572027712
15 16 -17 -16 15.50907 -16.5 -0.128773883755
15 16 -16 -15 15.51012 -15.5 -0.0388254306292
15 16 -15 -14 15.51798 -14.5 -0.0492460792145
15 16 -14 -13 15.50935 -13.5 0.116772467506
15 16 -13 -12 15.50094 -12.5 0.0495565393268
15 16 -12 -11 15.50868 -11.5 -0.20571548883
15 16 -11 -10 15.50352 -10.5 0.0801182220688
15 16 -10 -9 15.50021 -9.5 0.0890521627533
15 16 -9 -8 15.50038 -8.5 -0.0465744495688
15 16 -8 -7 15.50421 -7.5 0.0564665903605
15 16 -7 -6 15.50631 -6.5 6.76045997747e-05
15 16 -6 -5 15.4924 -5.5 0.0224307543478
15 16 -5 -4 15.49339 -4.5 -0.224166729026
15 16 -4 -3 15.49843 -3.5 0.0704045691839
15 16 -3 -2 15.51569 -2.5 0.120578816898
15 16 -2 -1 15.50478 -1.5 0.187724623817
15 16 -1 0 15.50783 -0.5 -0.117703081963
15 16 0 1 15.50783 0.5 -0.117703081963
15 16 1 2 15.50478 1.5 0.187724623817
15 16 2 3 15.51569 2.5 0.120578816898
15 16 3 4 15.49843 3.5 0.0704045691839
15 16 4 5 15.49339 4.5 -0.224166729026
15 16 5 6 15.4924 5.5 0.0224307543478
15 16 6 7 15.50631 6.5 6.76045997747e-05
15 16 7 8 15.50421 7.5 0.0564665903605
15 16 8 9 15.50038 8.5 -0.0465744495688
15 16 9 10 15.50021 9.5 0.0890521627533
15 16 10 11 15.50352 10.5 0.0801182220688
15 16 11 12 15.50868 11.5 -0.20571548883
15 16 12 13 15.50094 12.5 0.0495565393268
15 16 13 14 15.50935 13.5 0.116772467506
15 16 14 15 15.51798 14.5 -0.0492460792145
15 16 15 16 15.51012 15.5 -0.0388254306292
15 16 16 17 15.50907 16.5 -0.128773883755
15 16 17 18 15.49717 17.5 0.051572027712
15 16 18 19 15.50151 18.5 0.203274973769
15 16 19 20 15.50509 19.5 0.354194233687
16 17 -20 -19 16.50644 -19.5 -0.0458596019306
16 17 -19 -18 16.49686 -18.5 0.211844172279
16 17 -18 -17 16.5051 -17.5 0.273990558514
16 17 -17 -16 16.49281 -16.5 -0.0868213596943
16 17 -16 -15 16.50596 -15.5 0.027424335272
16 17 -15 -14 16.48972 -14.5 0.124033532078
16 17 -14 -13 16.4985 -13.5 0.16559972237
16 17 -13 -12 16.49398 -12.5 -0.362631006372
16 17 -12 -11 16.50237 -11.5 0.0480609593737
16 17 -11 -10 16.49064 -10.5 -0.116706130497
16 17 -10 -9 16.50007 -9.5 -0.178951728354
16 17 -9 -8 16.49328 -8.5 0.138647283582
16 17 -8 -7 16.50334 -7.5 0.112402326908
16 17 -7 -6 16.48635 -6.5 -0.0958396735376
16 17 -6 -5 16.5002 -5.5 0.170091047949
16 17 -5 -4 16.49509 -4.5 -0.0693580391426
16 17 -4 -3 16.49341 -3.5 0.198176992191
16 17 -3 -2 16.50183 -2.5 -0.294431101927
16 17 -2 -1 16.48851 -1.5 0.0747045472603
16 17 -1 0 16.51609 -0.5 -0.1709164889
16 17 0 1 16.51609 0.5 -0.1709164889
16 17 1 2 16.48851 1.5 0.0747045472603
16 17 2 3 16.50183 2.5 -0.294431101927
16 17 3 4 16.49341 3.5 0.198176992191
16 17 4 5 16.49509 4.5 -0.0693580391426
16 17 5 6 16.5002 5.5 0.170091047949
16 17 6 7 16.48635 6.5 -0.0958396735376
16 17 7 8 16.50334 7.5 0.112402326908
16 17 8 9 16.49328 8.5 0.138647283582
16 17 9 10 16.50007 9.5 -0.178951728354
16 17 10 11 16.49064 10.5 -0.116706130497
16 17 11 12 16.50237 11.5 0.0480609593737
16 17 12 13 16.49398 12.5 -0.362631006372
16 17 13 14 16.4985 13.5 0.16559972237
16 17 14 15 16.48972 14.5 0.124033532078
16 17 15 16 16.50596 15.5 0.027424335272
16 17 16 17 16.49281 16.5 -0.0868213596943
16 17 17 18 16.5051 17.5 0.273990558514
16 17 18 19 16.49686 18.5 0.211844172279
16 17 19 20 16.50644 19.5 -0.0458596019306
17 18 -20 -19 17.50572 -19.5 -0.0511559302831
17 18 -19 -18 17.50218 -18.5 0.131129861897
17 18 -18 -17 17.50017 -17.5 -0.346548065741
17 18 -17 -16 17.47726 -16.5 -0.0935241770773
17 18 -16 -15 17.48664 -15.5 -0.302829370627
17 18 -15 -14 17.51654 -14.5 0.15220884692
17 18 -14 -13 17.49336 -13.5 -0.0115459582743
17 18 -13 -12 17.51015 -12.5 0.00395933565252
17 18 -12 -11 17.50546 -11.5 -0.0810745290063
17 18 -11 -10 17.489 -10.5 0.239945565233
17 18 -10 -9 17.49983 -9.5 -0.214743228831
17 18 -9 -8 17.50817 -8.5 -0.0614985004233
17 18 -8 -7 17.50773 -7.5 0.0674351005406
17 18 -7 -6 17.50238 -6.5 -0.153273760844
17 18 -6 -5 17.50937 -5.5 -0.0965740887031
17 18 -5 -4 17.51517 -4.5 0.0673884838356
17 18 -4 -3 17.50583 -3.5 0.160278807718
17 18 -3 -2 17.50391 -2.5 -0.0925891160331
17 18 -2 -1 17.50119 -1.5 0.0372193977217
17 18 -1 0 17.49796 -0.5 0.0443681119381
17 18 0 1 17.49796 0.5 0.0443681119381
17 18 1 2 17.50119 1.5 0.0372193977217
17 18 2 3 17.50391 2.5 -0.0925891160331
17 18 3 4 17.50583 3.5 0.160278807718
17 18 4 5 17.51517 4.5 0.0673884838356
17 18 5 6 17.50937 5.5 -0.0965740887031
17 18 6 7 17.50238 6.5 -0.153273760844
17 18 7 8 17.50773 7.5 0.0674351005406
17 18 8 9 17.50817 8.5 -0.0614985004233
17 18 9 10 17.49983 9.5 -0.214743228831
17 18 10 11 17.489 10.5 0.239945565233
17 18 11 12 17.50546 11.5 -0.0810745290063
17 18 12 13 17.51015 12.5 0.00395933565252
17 18 13 14 17.49336 13.5 -0.0115459582743
17 18 14 15 17.51654 14.5 0.15220884692
17 18 15 16 17.48664 15.5 -0.302829370627
17 18 16 17 17.47726 16.5 -0.0935241770773
17 18 17 18 17.50017 17.5 -0.346548065741
17 18 18 19 17.50218 18.5 0.131129861897
17 18 19 20 17.50572 19.5 -0.0511559302831
18 19 -20 -19 18.49779 -19.5 0.157140199137
18 19 -19 -18 18.51868 -18.5 -0.0917276008858
18 19 -18 -17 18.5108 -17.5 0.0099110967273
18 19 -17 -16 18.506 -16.5 0.0443384895166
18 19 -16 -15 18.48513 -15.5 -0.202858328051
18 19 -15 -14 18.49588 -14.5 0.0849214061432
18 19 -14 -13 18.50701 -13.5 -0.0294354661487
18 19 -13 -12 18.50469 -12.5 0.38682134704
18 19 -12 -11 18.4947 -11.5 0.125662203313
18 19 -11 -10 18.50922 -10.5 0.136017982602
18 19 -10 -9 18.50942 -9.5 0.107059796768
18 19 -9 -8 18.49212 -8.5 8.01998890305e-06
18 19 -8 -7 18.51442 -7.5 -0.223464850716
18 19 -7 -6 18.51487 -6.5 0.161097682191
18 19 -6 -5 18.50145 -5.5 0.195653806935
18 19 -5 -4 18.52141 -4.5 -0.341716371771
18 19 -4 -3 18.50896 -3.5 0.204123958458
18 19 -3 -2 18.51994 -2.5 -0.146913680203
18 19 -2 -1 18.50121 -1.5 0.169177806328
18 19 -1 0 18.49199 -0.5 -0.280213005846
18 19 0 1 18.49199 0.5 -0.280213005846
18 19 1 2 18.50121 1.5 0.169177806328
18 19 2 3 18.51994 2.5 -0.146913680203
18 19 3 4 18.50896 3.5 0.204123958458
18 19 4 5 18.52141 4.5 -0.341716371771
18 19 5 6 18.50145 5.5 0.195653806935
18 19 6 7 18.51487 6.5 0.161097682191
18 19 7 8 18.51442 7.5 -0.223464850716
18 19 8 9 18.49212 8.5 8.01998890305e-06
18 19 9 10 18.50942 9.5 0.107059796768
18 19 10 11 18.50922 10.5 0.136017982602
18 19 11 12 18.4947 11.5 0.125662203313
18 19 12 13 18.50469 12.5 0.38682134704
18 19 13 14 18.50701 13.5 -0.0294354661487
18 19 14 15 18.49588 14.5 0.0849214061432
18 19 15 16 18.48513 15.5 -0.202858328051
18 19 16 17 18.506 16.5 0.0443384895166
18 19 17 18 18.5108 17.5 0.0099110967273
18 19 18 19 18.51868 18.5 -0.0917276008858
18 19 19 20 18.49779 19.5 0.157140199137
19 20 -20 -19 19.49047 -19.5 0.248192833424
19 20 -19 -18 19.50346 -18.5 0.128456131757
19 20 -18 -17 19.50475 -17.5 0.193983443188
19 20 -17 -16 19.4924 -16.5 -0.129757088876
19 20 -16 -15 19.5135 -15.5 0.0257717897513
19 20 -15 -14 19.50092 -14.5 0.15400527307
19 20 -14 -13 19.50911 -13.5 0.109267697543
19 20 -13 -12 19.51737 -12.5 -0.114849142202
19 20 -12 -11 19.48374 -11.5 0.0137852869459
19 20 -11 -10 19.50215 -10.5 0.105634098492
19 20 -10 -9 19.49793 -9.5 -0.0573346575622
19 20 -9 -8 19.50301 -8.5 -0.442517057328
19 20 -8 -7 19.51149 -7.5 -0.12662363735
19 20 -7 -6 19.49082 -6.5 -0.154694607782
19 20 -6 -5 19.49584 -5.5 -0.134661206537
19 20 -5 -4 19.49811 -4.5 0.0397808039341
19 20 -4 -3 19.4973 -3.5 0.00294992400452
19 20 -3 -2 19.49865 -2.5 0.0221175698043
19 20 -2 -1 19.50268 -1.5 -0.0524729833421
19 20 -1 0 19.5035 -0.5 0.219357253282
19 20 0 1 19.5035 0.5 0.219357253282
19 20 1 2 19.50268 1.5 -0.0524729833421
19 20 2 3 19.49865 2.5 0.0221175698043
19 20 3 4 19.4973 3.5 0.00294992400452
19 20 4 5 19.49811 4.5 0.0397808039341
19 20 5 6 19.49584 5.5 -0.134661206537
19 20 6 7 19.49082 6.5 -0.154694607782
19 20 7 8 19.51149 7.5 -0.12662363735
19 20 8 9 19.50301 8.5 -0.442517057328
19 20 9 10 19.49793 9.5 -0.0573346575622
19 20 10 11 19.50215 10.5 0.105634098492
19 20 11 12 19.48374 11.5 0.0137852869459
19 20 12 13 19.51737 12.5 -0.114849142202
19 20 13 14 19.50911 13.5 0.109267697543
19 20 14 15 19.50092 14.5 0.15400527307
19 20 15 16 19.5135 15.5 0.0257717897513
19 20 16 17 19.4924 16.5 -0.129757088876
19 20 17 18 19.50475 17.5 0.193983443188
19 20 18 19 19.50346 18.5 0.128456131757
19 20 19 20 19.49047 19.5 0.248192833424
20 21 -20 -19 20.50275 -19.5 -0.018751531067
20 21 -19 -18 20.481 -18.5 0.270323377883
20 21 -18 -17 20.50633 -17.5 -0.211155532407
20 21 -17 -16 20.49529 -16.5 -0.00901792717799
20 21 -16 -15 20.50065 -15.5 -0.0533802463577
20 21 -15 -14 20.48791 -14.5 -0.246750187815
20 21 -14 -13 20.50558 -13.5 -0.309611382134
20 21 -13 -12 20.48867 -12.5 -0.0507256064427
20 21 -12 -11 20.50821 -11.5 0.00673426550513
20 21 -11 -10 20.50337 -10.5 0.204484779534
20 21 -10 -9 20.49339 -9.5 0.136313340765
20 21 -9 -8 20.50824 -8.5 -0.0330381895333
20 21 -8 -7 20.5103 -7.5 0.0532656990499
20 21 -7 -6 20.49699 -6.5 -0.146316906142
20 21 -6 -5 20.48429 -5.5 -0.00375535438676
20 21 -5 -4 20.5008 -4.5 0.0417200296092
20 21 -4 -3 20.49726 -3.5 0.0278171023687
20 21 -3 -2 20.49061 -2.5 -0.0206854154167
20 21 -2 -1 20.50799 -1.5 0.34930039852
20 21 -1 0 20.50015 -0.5 0.0378383922774
20 21 0 1 20.50015 0.5 0.0378383922774
20 21 1 2 20.50799 1.5 0.34930039852
20 21 2 3 20.49061 2.5 -0.0206854154167
20 21 3 4 20.49726 3.5 0.0278171023687
20 21 4 5 20.5008 4.5 0.0417200296092
20 21 5 6 20.48429 5.5 -0.00375535438676
20 21 6 7 20.49699 6.5 -0.146316906142
20 21 7 8 20.5103 7.5 0.0532656990499
20 21 8 9 20.50824 8.5 -0.0330381895333
20 21 9 10 20.49339 9.5 0.136313340765
20 21 10 11 20.50337 10.5 0.204484779534
20 21 11 12 20.50821 11.5 0.00673426550513
20 21 12 13 20.48867 12.5 -0.0507256064427
20 21 13 14 20.50558 13.5 -0.309611382134
20 21 14 15 20.48791 14.5 -0.246750187815
20 21 15 16 20.50065 15.5 -0.0533802463577
20 21 16 17 20.49529 16.5 -0.00901792717799
20 21 17 18 20.50633 17.5 -0.211155532407
20 21 18 19 20.481 18.5 0.270323377883
20 21 19 20 20.50275 19.5 -0.018751531067
21 22 -20 -19 21.50531 -19.5 -0.165625959191
21 22 -19 -18 21.50309 -18.5 0.141238786487
21 22 -18 -17 21.49691 -17.5 -0.0102645510796
21 22 -17 -16 21.50316 -16.5 0.286000100755
21 22 -16 -15 21.51309 -15.5 0.0855291807506
21 22 -15 -14 21.49085 -14.5 0.151562581687
21 22 -14 -13 21.49134 -13.5 0.137790193022
21 22 -13 -12 21.49943 -12.5 -0.185762702945
21 22 -12 -11 21.50561 -11.5 -0.164551822806
21 22 -11 -10 21.50648 -10.5 -0.223788279711
21 22 -10 -9 21.51882 -9.5 -0.00553786927094
21 22 -9 -8 21.49868 -8.5 -0.137577526871
21 22 -8 -7 21.49607 -7.5 -0.0146188311229
21 22 -7 -6 21.51107 -6.5 0.0201083612683
21 22 -6 -5 21.50479 -5.5 -0.0830239713808
21 22 -5 -4 21.51071 -4.5 0.175801665948
21 22 -4 -3 21.50662 -3.5 -0.0424727239339
21 22 -3 -2 21.50762 -2.5 0.043505338814
21 22 -2 -1 21.50746 -1.5 -0.0160357377914
21 22 -1 0 21.50037 -0.5 -0.022262510873
21 22 0 1 21.50037 0.5 -0.022262510873
21 22 1 2 21.50746 1.5 -0.0160357377914
21 22 2 3 21.50762 2.5 0.043505338814
21 22 3 4 21.50662 3.5 -0.0424727239339
21 22 4 5 21.51071 4.5 0.175801665948
21 22 5 6 21.50479 5.5 -0.0830239713808
21 22 6 7 21.51107 6.5 0.0201083612683
21 22 7 8 21.49607 7.5 -0.0146188311229
21 22 8 9 21.49868 8.5 -0.137577526871
21 22 9 10 21.51882 9.5 -0.00553786927094
21 22 10 11 21.50648 10.5 -0.223788279711
21 22 11 12 21.50561 11.5 -0.164551822806
21 22 12 13 21.49943 12.5 -0.185762702945
21 22 13 14 21.49134 13.5 0.137790193022
21 22 14 15 21.49085 14.5 0.151562581687
21 22 15 16 21.51309 15.5 0.0855291807506
21 22 16 17 21.50316 16.5 0.286000100755
21 22 17 18 21.49691 17.5 -0.0102645510796
21 22 18 19 21.50309 18.5 0.141238786487
21 22 19 20 21.50531 19.5 -0.165625959191
22 23 -20 -19 22.49852 -19.5 -0.212803211223
22 23 -19 -18 22.50023 -18.5 0.0262766233488
22 23 -18 -17 22.51068 -17.5 -0.0477876518271
22 23 -17 -16 22.49894 -16.5 -0.0291328210345
22 23 -16 -15 22.50126 -15.5 0.104271900934
22 23 -15 -14 22.50851 -14.5 -0.0884489505699
22 23 -14 -13 22.50645 -13.5 -0.0506333372035
22 23 -13 -12 22.49703 -12.5 -0.0888914488293
22 23 -12 -11 22.50855 -11.5 -0.0171416162908
22 23 -11 -10 22.50123 -10.5 0.139083671912
22 23 -10 -9 22.49215 -9.5 -0.0356854652348
22 23 -9 -8 22.50034 -8.5 0.0895473460585
22 23 -8 -7 22.50969 -7.5 -0.0163447023352
22 23 -7 -6 22.50809 -6.5 0.0131845782458
22 23 -6 -5 22.50282 -5.5 0.0794815965474
22 23 -5 -4 22.49611 -4.5 0.148187759892
22 23 -4 -3 22.50851 -3.5 -0.0333500324429
22 23 -3 -2 22.48885 -2.5 0.00992588322059
22 23 -2 -1 22.50209 -1.5 -0.0769594760353
22 23 -1 0 22.50566 -0.5 -0.274487719074
22 23 0 1 22.50566 0.5 -0.274487719074
22 23 1 2 22.50209 1.5 -0.0769594760353
22 23 2 3 22.48885 2.5 0.00992588322059
22 23 3 4 22.50851 3.5 -0.0333500324429
22 23 4 5 22.49611 4.5 0.148187759892
22 23 5 6 22.50282 5.5 0.0794815965474
22 23 6 7 22.50809 6.5 0.0131845782458
22 23 7 8 22.50969 7.5 -0.0163447023352
22 23 8 9 22.50034 8.5 0.0895473460585
22 23 9 10 22.49215 9.5 -0.0356854652348
22 23 10 11 22.50123 10.5 0.139083671912
22 23 11 12 22.50855 11.5 -0.0171416162908
22 23 12 13 22.49703 12.5 -0.0888914488293
22 23 13 14 22.50645 13.5 -0.0506333372035
22 23 14 15 22.50851 14.5 -0.0884489505699
22 23 15 16 22.50126 15.5 0.104271900934
22 23 16 17 22.49894 16.5 -0.0291328210345
22 23 17 18 22.51068 17.5 -0.0477876518271
22 23 18 19 22.50023 18.5 0.0262766233488
22 23 19 20 22.49852 19.5 -0.212803211223
23 24 -20 -19 23.50753 -19.5 -0.0566689658452
23 24 -19 -18 23.49865 -18.5 0.0937375532213
23 24 -18 -17 23.49327 -17.5 -0.0809582878291
23 24 -17 -16 23.50022 -16.5 -0.0599748839584
23 24 -16 -15 23.50609 -15.5 0.115540642664
23 24 -15 -14 23.49232 -14.5 0.0505808124474
23 24 -14 -13 23.50135 -13.5 0.129790003374
23 24 -13 -12 23.50377 -12.5 -0.168471046966
23 24 -12 -11 23.51457 -11.5 0.116703508095
23 24 -11 -10 23.49665 -10.5 -0.124241954715
23 24 -10 -9 23.49622 -9.5 -0.0701962328409
23 24 -9 -8 23.50101 -8.5 -0.149370972291
23 24 -8 -7 23.48934 -7.5 0.0229000711857
23 24 -7 -6 23.50919 -6.5 0.00905359958891
23 24 -6 -5 23.50752 -5.5 0.0610198691023
23 24 -5 -4 23.50873 -4.5 0.00814974111775
23 24 -4 -3 23.49545 -3.5 0.061558705733
23 24 -3 -2 23.50181 -2.5 -0.149891946548
23 24 -2 -1 23.49315 -1.5 -0.0315695660886
23 24 -1 0 23.51287 -0.5 -0.0815267356713
23 24 0 1 23.51287 0.5 -0.0815267356713
23 24 1 2 23.49315 1.5 -0.0315695660886
23 24 2 3 23.50181 2.5 -0.149891946548
23 24 3 4 23.49545 3.5 0.061558705733
23 24 4 5 23.50873 4.5 0.00814974111775
23 24 5 6 23.50752 5.5 0.0610198691023
23 24 6 7 23.50919 6.5 0.00905359958891
23 24 7 8 23.48934 7.5 0.0229000711857
23 24 8 9 23.50101 8.5 -0.149370972291
23 24 9 10 23.49622 9.5 -0.0701962328409
23 24 10 11 23.49665 10.5 -0.124241954715
23 24 11 12 23.51457 11.5 0.116703508095
23 24 12 13 23.50377 12.5 -0.168471046966
23 24 13 14 23.50135 13.5 0.129790003374
23 24 14 15 23.49232 14.5 0.0505808124474
23 24 15 16 23.50609 15.5 0.115540642664
23 24 16 17 23.50022 16.5 -0.0599748839584
23 24 17 18 23.49327 17.5 -0.0809582878291
23 24 18 19 23.49865 18.5 0.0937375532213
23 24 19 20 23.50753 19.5 -0.0566689658452
24 25 -20 -19 24.49896 -19.5 -0.0159941650266
24 25 -19 -18 24.4993 -18.5 -0.00253688479567
24 25 -18 -17 24.49646 -17.5 0.0680417610095
24 25 -17 -16 24.51053 -16.5 0.104784616502
24 25 -16 -15 24.50635 -15.5 -0.0828439878148
24 25 -15 -14 24.5013 -14.5 0.317655364341
24 25 -14 -13 24.49171 -13.5 -0.0253676810224
24 25 -13 -12 24.50081 -12.5 0.243086136451
24 25 -12 -11 24.50771 -11.5 0.0246016637434
24 25 -11 -10 24.49608 -10.5 -0.177881390313
24 25 -10 -9 24.49326 -9.5 0.257169225831
24 25 -9 -8 24.49398 -8.5 -0.287558352053
24 25 -8 -7 24.49926 -7.5 0.169571744483
24 25 -7 -6 24.50321 -6.5 -0.00845951418787
24 25 -6 -5 24.48292 -5.5 -0.225122107059
24 25 -5 -4 24.50624 -4.5 0.00354867428862
24 25 -4 -3 24.48862 -3.5 0.0217415689534
24 25 -3 -2 24.47929 -2.5 -0.0325630281256
24 25 -2 -1 24.50378 -1.5 -0.0657008290874
24 25 -1 0 24.50427 -0.5 -0.254569107464
24 25 0 1 24.50427 0.5 -0.254569107464
24 25 1 2 24.50378 1.5 -0.0657008290874
24 25 2 3 24.47929 2.5 -0.0325630281256
24 25 3 4 24.48862 3.5 0.0217415689534
24 25 4 5 24.50624 4.5 0.00354867428862
24 25 5 6 24.48292 5.5 -0.225122107059
24 25 6 7 24.50321 6.5 -0.00845951418787
24 25 7 8 24.49926 7.5 0.169571744483
24 25 8 9 24.49398 8.5 -0.287558352053
24 25 9 10 24.49326 9.5 0.257169225831
24 25 10 11 24.49608 10.5 -0.177881390313
24 25 11 12 24.50771 11.5 0.0246016637434
24 25 12 13 24.50081 12.5 0.243086136451
24 25 13 14 24.49171 13.5 -0.0253676810224
24 25 14 15 24.5013 14.5 0.317655364341
24 25 15 16 24.50635 15.5 -0.0828439878148
24 25 16 17 24.51053 16.5 0.104784616502
24 25 17 18 24.49646 17.5 0.0680417610095
24 25 18 19 24.4993 18.5 -0.00253688479567
24 25 19 20 24.49896 19.5 -0.0159941650266
25 26 -20 -19 25.50329 -19.5 -0.0502247883263
25 26 -19 -18 25.50405 -18.5 -8.91534818301e-05
25 26 -18 -17 25.48262 -17.5 -0.123246581067
25 26 -17 -16 25.49543 -16.5 -0.168299200096
25 26 -16 -15 25.49033 -15.5 -0.172540819194
25 26 -15 -14 25.50229 -14.5 -0.19159230724
25 26 -14 -13 25.50408 -13.5 -0.26338087067
25 26 -13 -12 25.49805 -12.5 -0.0927421149514
25 26 -12 -11 25.49691 -11.5 0.0203378876759
25 26 -11 -10 25.50179 -10.5 0.270574269948
25 26 -10 -9 25.48473 -9.5 0.249921318273
25 26 -9 -8 25.50463 -8.5 -0.278911452117
25 26 -8 -7 25.49886 -7.5 0.200566002552
25 26 -7 -6 25.50457 -6.5 -0.0450686932012
25 26 -6 -5 25.50325 -5.5 0.0705522654431
25 26 -5 -4 25.50423 -4.5 -0.111619168133
25 26 -4 -3 25.5107 -3.5 0.0454161039832
25 26 -3 -2 25.50007 -2.5 0.117507280312
25 26 -2 -1 25.49571 -1.5 -0.168506784041
25 26 -1 0 25.50701 -0.5 0.0480718324573
25 26 0 1 25.50701 0.5 0.0480718324573
25 26 1 2 25.49571 1.5 -0.168506784041
25 26 2 3 25.50007 2.5 0.117507280312
25 26 3 4 25.5107 3.5 0.0454161039832
25 26 4 5 25.50423 4.5 -0.111619168133
25 26 5 6 25.50325 5.5 0.0705522654431
25 26 6 7 25.50457 6.5 -0.0450686932012
25 26 7 8 25.49886 7.5 0.200566002552
25 26 8 9 25.50463 8.5 -0.278911452117
25 26 9 10 25.48473 9.5 0.249921318273
25 26 10 11 25.50179 10.5 0.270574269948
25 26 11 12 25.49691 11.5 0.0203378876759
25 26 12 13 25.49805 12.5 -0.0927421149514
25 26 13 14 25.50408 13.5 -0.26338087067
25 26 14 15 25.50229 14.5 -0.19159230724
25 26 15 16 25.49033 15.5 -0.172540819194
25 26 16 17 25.49543 16.5 -0.168299200096
25 26 17 18 25.48262 17.5 -0.123246581067
25 26 18 19 25.50405 18.5 -8.91534818301e-05
25 26 19 20 25.50329 19.5 -0.0502247883263
26 27 -20 -19 26.51204 -19.5 -0.142011119466
26 27 -19 -18 26.49136 -18.5 0.0509041686555
26 27 -18 -17 26.50244 -17.5 -0.0388913246416
26 27 -17 -16 26.49886 -16.5 -0.153195889229
26 27 -16 -15 26.48775 -15.5 -0.14960392383
26 27 -15 -14 26.4955 -14.5 -0.149306514134
26 27 -14 -13 26.50537 -13.5 -0.0700212289646
26 27 -13 -12 26.49583 -12.5 -0.0397369096805
26 27 -12 -11 26.50839 -11.5 -0.0536384636473
26 27 -11 -10 26.49699 -10.5 0.0724970717661
26 27 -10 -9 26.49568 -9.5 0.151944172074
26 27 -9 -8 26.50234 -8.5 0.0322555429536
26 27 -8 -7 26.48762 -7.5 -0.0844365333822
26 27 -7 -6 26.49702 -6.5 -0.229801476217
26 27 -6 -5 26.50767 -5.5 0.169605362303
26 27 -5 -4 26.50533 -4.5 -0.168168249212
26 27 -4 -3 26.49579 -3.5 -0.0164988672926
26 27 -3 -2 26.49645 -2.5 0.0628502442557
26 27 -2 -1 26.49653 -1.5 0.0767672991757
26 27 -1 0 26.5033 -0.5 0.0124994320977
26 27 0 1 26.5033 0.5 0.0124994320977
26 27 1 2 26.49653 1.5 0.0767672991757
26 27 2 3 26.49645 2.5 0.0628502442557
26 27 3 4 26.49579 3.5 -0.0164988672926
26 27 4 5 26.50533 4.5 -0.168168249212
26 27 5 6 26.50767 5.5 0.169605362303
26 27 6 7 26.49702 6.5 -0.229801476217
26 27 7 8 26.48762 7.5 -0.0844365333822
26 27 8 9 26.50234 8.5 0.0322555429536
26 27 9 10 26.49568 9.5 0.151944172074
26 27 10 11 26.49699 10.5 0.0724970717661
26 27 11 12 26.50839 11.5 -0.0536384636473
26 27 12 13 26.49583 12.5 -0.0397369096805
26 27 13 14 26.50537 13.5 -0.0700212289646
26 27 14 15 26.4955 14.5 -0.149306514134
26 27 15 16 26.48775 15.5 -0.14960392383
26 27 16 17 26.49886 16.5 -0.153195889229
26 27 17 18 26.50244 17.5 -0.0388913246416
26 27 18 19 26.49136 18.5 0.0509041686555
26 27 19 20 26.51204 19.5 -0.142011119466
27 28 -20 -19 27.48905 -19.5 0.0369723121408
27 28 -19 -18 27.49455 -18.5 -0.0346589464082
27 28 -18 -17 27.50218 -17.5 -0.161570891948
27 28 -17 -16 27.50899 -16.5 -0.09497341465
27 28 -16 -15 27.49646 -15.5 0.0126091585355
27 28 -15 -14 27.48887 -14.5 0.147150304388
27 28 -14 -13 27.50772 -13.5 -0.104999840309
27 28 -13 -12 27.50346 -12.5 0.0514918135715
27 28 -12 -11 27.50623 -11.5 0.214414371231
27 28 -11 -10 27.49716 -10.5 0.0295670956309
27 28 -10 -9 27.49127 -9.5 0.0342003361196
27 28 -9 -8 27.50019 -8.5 -0.0386538316615
27 28 -8 -7 27.50663 -7.5 0.00577873385161
27 28 -7 -6 27.497 -6.5 0.0881388506524
27 28 -6 -5 27.50541 -5.5 -0.0128972944277
27 28 -5 -4 27.50302 -4.5 0.0212608098329
27 28 -4 -3 27.48796 -3.5 0.279024040652
27 28 -3 -2 27.50803 -2.5 -0.116360756074
27 28 -2 -1 27.50177 -1.5 -0.133103163238
27 28 -1 0 27.49875 -0.5 -0.004825921516
27 28 0 1 27.49875 0.5 -0.004825921516
27 28 1 2 27.50177 1.5 -0.133103163238
27 28 2 3 27.50803 2.5 -0.116360756074
27 28 3 4 27.48796 3.5 0.279024040652
27 28 4 5 27.50302 4.5 0.0212608098329
27 28 5 6 27.50541 5.5 -0.0128972944277
27 28 6 7 27.497 6.5 0.0881388506524
27 28 7 8 27.50663 7.5 0.00577873385161
27 28 8 9 27.50019 8.5 -0.0386538316615
27 28 9 10 27.49127 9.5 0.0342003361196
27 28 10 11 27.49716 10.5 0.0295670956309
27 28 11 12 27.50623 11.5 0.214414371231
27 28 12 13 27.50346 12.5 0.0514918135715
27 28 13 14 27.50772 13.5 -0.104999840309
27 28 14 15 27.48887 14.5 0.147150304388
27 28 15 16 27.49646 15.5 0.0126091585355
27 28 16 17 27.50899 16.5 -0.09497341465
27 28 17 18 27.50218 17.5 -0.161570891948
27 28 18 19 27.49455 18.5 -0.0346589464082
27 28 19 20 27.48905 19.5 0.0369723121408
28 29 -20 -19 28.50798 -19.5 -0.22641211113
28 29 -19 -18 28.50223 -18.5 0.234690195256
28 29 -18 -17 28.49735 -17.5 0.126069049953
28 29 -17 -16 28.50683 -16.5 0.0227151847678
28 29 -16 -15 28.48089 -15.5 -0.00534341787684
28 29 -15 -14 28.51605 -14.5 -0.0289938646469
28 29 -14 -13 28.51679 -13.5 -0.175006864113
28 29 -13 -12 28.50956 -12.5 -0.130182894738
28 29 -12 -11 28.50559 -11.5 -0.108667561273
28 29 -11 -10 28.49142 -10.5 0.0002854259085
28 29 -10 -9 28.50783 -9.5 -0.00621170693175
28 29 -9 -8 28.49834 -8.5 0.115107256597
28 29 -8 -7 28.50014 -7.5 0.158385513344
28 29 -7 -6 28.49924 -6.5 -0.169161553258
28 29 -6 -5 28.50678 -5.5 -0.0338407654673
28 29 -5 -4 28.49669 -4.5 -0.125182123701
28 29 -4 -3 28.4955 -3.5 -0.0370655111042
28 29 -3 -2 28.5005 -2.5 -0.257244687455
28 29 -2 -1 28.50491 -1.5 0.156073632818
28 29 -1 0 28.50431 -0.5 -0.0455822242097
28 29 0 1 28.50431 0.5 -0.0455822242097
28 29 1 2 28.50491 1.5 0.156073632818
28 29 2 3 28.5005 2.5 -0.257244687455
28 29 3 4 28.4955 3.5 -0.0370655111042
28 29 4 5 28.49669 4.5 -0.125182123701
28 29 5 6 28.50678 5.5 -0.0338407654673
28 29 6 7 28.49924 6.5 -0.169161553258
28 29 7 8 28.50014 7.5 0.158385513344
28 29 8 9 28.49834 8.5 0.115107256597
28 29 9 10 28.50783 9.5 -0.00621170693175
28 29 10 11 28.49142 10.5 0.0002854259085
28 29 11 12 28.50559 11.5 -0.108667561273
28 29 12 13 28.50956 12.5 -0.130182894738
28 29 13 14 28.51679 13.5 -0.175006864113
28 29 14 15 28.51605 14.5 -0.0289938646469
28 29 15 16 28.48089 15.5 -0.00534341787684
28 29 16 17 28.50683 16.5 0.0227151847678
28 29 17 18 28.49735 17.5 0.126069049953
28 29 18 19 28.50223 18.5 0.234690195256
28 29 19 20 28.50798 19.5 -0.22641211113
29 30 -20 -19 29.505 -19.5 -0.00767400918017
29 30 -19 -18 29.50575 -18.5 -0.0410302317851
29 30 -18 -17 29.50328 -17.5 0.149635255463
29 30 -17 -16 29.50313 -16.5 -0.0755399200856
29 30 -16 -15 29.49354 -15.5 -0.182501923645
29 30 -15 -14 29.49299 -14.5 0.169419193129
29 30 -14 -13 29.49084 -13.5 -0.0189108408963
29 30 -13 -12 29.50329 -12.5 -0.19233311058
29 30 -12 -11 29.49886 -11.5 0.127398004067
29 30 -11 -10 29.49928 -10.5 -0.246810055505
29 30 -10 -9 29.49845 -9.5 0.179126654461
29 30 -9 -8 29.49991 -8.5 0.0490681777105
29 30 -8 -7 29.4901 -7.5 -0.128767959697
29 30 -7 -6 29.50677 -6.5 0.130524289259
29 30 -6 -5 29.47576 -5.5 -0.0289115076944
29 30 -5 -4 29.50043 -4.5 -0.0707471723107
29 30 -4 -3 29.49241 -3.5 0.0688154119896
29 30 -3 -2 29.50295 -2.5 0.129250680685
29 30 -2 -1 29.49594 -1.5 0.00483916719247
29 30 -1 0 29.51575 -0.5 -0.00262046196181
29 30 0 1 29.51575 0.5 -0.00262046196181
29 30 1 2 29.49594 1.5 0.00483916719247
29 30 2 3 29.50295 2.5 0.129250680685
29 30 3 4 29.49241 3.5 0.0688154119896
29 30 4 5 29.50043 4.5 -0.0707471723107
29 30 5 6 29.47576 5.5 -0.0289115076944
29 30 6 7 29.50677 6.5 0.130524289259
29 30 7 8 29.4901 7.5 -0.128767959697
29 30 8 9 29.49991 8.5 0.0490681777105
29 30 9 10 29.49845 9.5 0.179126654461
29 30 10 11 29.49928 10.5 -0.246810055505
29 30 11 12 29.49886 11.5 0.127398004067
29 30 12 13 29.50329 12.5 -0.19233311058
29 30 13 14 29.49084 13.5 -0.0189108408963
29 30 14 15 29.49299 14.5 0.169419193129
29 30 15 16 29.49354 15.5 -0.182501923645
29 30 16 17 29.50313 16.5 -0.0755399200856
29 30 17 18 29.50328 17.5 0.149635255463
29 30 18 19 29.50575 18.5 -0.0410302317851
29 30 19 20 29.505 19.5 -0.00767400918017
30 31 -20 -19 30.50414 -19.5 0.23880015008
30 31 -19 -18 30.49681 -18.5 -0.123958353392
30 31 -18 -17 30.51205 -17.5 -0.197931512542
30 31 -17 -16 30.49567 -16.5 0.00329723536086
30 31 -16 -15 30.49327 -15.5 0.0578068842614
30 31 -15 -14 30.50359 -14.5 0.0747442379488
30 31 -14 -13 30.49445 -13.5 0.0503820919179
30 31 -13 -12 30.51559 -12.5 0.102787873225
30 31 -12 -11 30.50774 -11.5 -0.0142018012528
30 31 -11 -10 30.506 -10.5 0.11450891784
30 31 -10 -9 30.48777 -9.5 0.331357735995
30 31 -9 -8 30.49075 -8.5 0.00592454882747
30 31 -8 -7 30.49575 -7.5 0.0948296685702
30 31 -7 -6 30.51341 -6.5 -0.045255940626
30 31 -6 -5 30.49604 -5.5 -0.0283971775173
30 31 -5 -4 30.50737 -4.5 0.0111838123041
30 31 -4 -3 30.49975 -3.5 -0.19227941059
30 31 -3 -2 30.4939 -2.5 -0.150548042121
30 31 -2 -1 30.50923 -1.5 0.19509775936
30 31 -1 0 30.4966 -0.5 0.0113739028331
30 31 0 1 30.4966 0.5 0.0113739028331
30 31 1 2 30.50923 1.5 0.19509775936
30 31 2 3 30.4939 2.5 -0.150548042121
30 31 3 4 30.49975 3.5 -0.19227941059
30 31 4 5 30.50737 4.5 0.0111838123041
30 31 5 6 30.49604 5.5 -0.0283971775173
30 31 6 7 30.51341 6.5 -0.045255940626
30 31 7 8 30.49575 7.5 0.0948296685702
30 31 8 9 30.49075 8.5 0.00592454882747
30 31 9 10 30.48777 9.5 0.331357735995
30 31 10 11 30.506 10.5 0.11450891784
30 31 11 12 30.50774 11.5 -0.0142018012528
30 31 12 13 30.51559 12.5 0.102787873225
30 31 13 14 30.49445 13.5 0.0503820919179
30 31 14 15 30.50359 14.5 0.0747442379488
30 31 15 16 30.49327 15.5 0.0578068842614
30 31 16 17 30.49567 16.5 0.00329723536086
30 31 17 18 30.51205 17.5 -0.197931512542
30 31 18 19 30.49681 18.5 -0.123958353392
30 31 19 20 30.50414 19.5 0.23880015008
31 32 -20 -19 31.49956 -19.5 -0.016462114978
31 32 -19 -18 31.48838 -18.5 -0.172272898694
31 32 -18 -17 31.49831 -17.5 -0.140483204888
31 32 -17 -16 31.49969 -16.5 0.0453240662236
31 32 -16 -15 31.49987 -15.5 -0.182834422858
31 32 -15 -14 31.49172 -14.5 0.308947337841
31 32 -14 -13 31.50458 -13.5 -0.0043242054163
31 32 -13 -12 31.49642 -12.5 0.125255761344
31 32 -12 -11 31.50732 -11.5 -0.329129558128
31 32 -11 -10 31.50011 -10.5 0.0634698411951
31 32 -10 -9 31.50025 -9.5 0.0160669856058
31 32 -9 -8 31.49369 -8.5 0.00653864801463
31 32 -8 -7 31.4986 -7.5 -0.018213114088
31 32 -7 -6 31.50388 -6.5 -0.0689345385269
31 32 -6 -5 31.50909 -5.5 0.197743561004
31 32 -5 -4 31.50547 -4.5 -0.174794539317
31 32 -4 -3 31.49813 -3.5 0.046480870633
31 32 -3 -2 31.50387 -2.5 0.00458548134308
31 32 -2 -1 31.51218 -1.5 -0.0188577246991
31 32 -1 0 31.49463 -0.5 0.0679551117359
31 32 0 1 31.49463 0.5 0.0679551117359
31 32 1 2 31.51218 1.5 -0.0188577246991
31 32 2 3 31.50387 2.5 0.00458548134308
31 32 3 4 31.49813 3.5 0.046480870633
31 32 4 5 31.50547 4.5 -0.174794539317
31 32 5 6 31.50909 5.5 0.197743561004
31 32 6 7 31.50388 6.5 -0.0689345385269
31 32 7 8 31.4986 7.5 -0.018213114088
31 32 8 9 31.49369 8.5 0.00653864801463
31 32 9 10 31.50025 9.5 0.0160669856058
31 32 10 11 31.50011 10.5 0.0634698411951
31 32 11 12 31.50732 11.5 -0.329129558128
31 32 12 13 31.49642 12.5 0.125255761344
31 32 13 14 31.50458 13.5 -0.0043242054163
31 32 14 15 31.49172 14.5 0.308947337841
31 32 15 16 31.49987 15.5 -0.182834422858
31 32 16 17 31.49969 16.5 0.0453240662236
31 32 17 18 31.49831 17.5 -0.140483204888
31 32 18 19 31.48838 18.5 -0.172272898694
31 32 19 20 31.49956 19.5 -0.016462114978
32 33 -20 -19 32.50991 -19.5 0.211751230955
32 33 -19 -18 32.4948 -18.5 -0.116365638162
32 33 -18 -17 32.48319 -17.5 -0.0376067605239
32 33 -17 -16 32.50205 -16.5 0.109306083026
32 33 -16 -15 32.49313 -15.5 -0.00603889676595
32 33 -15 -14 32.49423 -14.5 0.0769015512304
32 33 -14 -13 32.49845 -13.5 -0.110852246711
32 33 -13 -12 32.49127 -12.5 -0.00890949574215
32 33 -12 -11 32.51372 -11.5 -0.103702069107
32 33 -11 -10 32.49524 -10.5 0.0990142052511
32 33 -10 -9 32.51804 -9.5 0.150008315634
32 33 -9 -8 32.49676 -8.5 0.217036737991
32 33 -8 -7 32.50123 -7.5 0.00761693976683
32 33 -7 -6 32.50371 -6.5 -0.147989551662
32 33 -6 -5 32.50053 -5.5 -0.0971942334261
32 33 -5 -4 32.48274 -4.5 -0.101432749912
32 33 -4 -3 32.49168 -3.5 0.0693917504517
32 33 -3 -2 32.50295 -2.5 0.167942945364
32 33 -2 -1 32.4813 -1.5 -0.0363475704336
32 33 -1 0 32.5066 -0.5 0.13765251966
32 33 0 1 32.5066 0.5 0.13765251966
32 33 1 2 32.4813 1.5 -0.0363475704336
32 33 2 3 32.50295 2.5 0.167942945364
32 33 3 4 32.49168 3.5 0.0693917504517
32 33 4 5 32.48274 4.5 -0.101432749912
32 33 5 6 32.50053 5.5 -0.0971942334261
32 33 6 7 32.50371 6.5 -0.147989551662
32 33 7 8 32.50123 7.5 0.00761693976683
32 33 8 9 32.49676 8.5 0.217036737991
32 33 9 10 32.51804 9.5 0.150008315634
32 33 10 11 32.49524 10.5 0.0990142052511
32 33 11 12 32.51372 11.5 -0.103702069107
32 33 12 13 32.49127 12.5 -0.00890949574215
32 33 13 14 32.49845 13.5 -0.110852246711
32 33 14 15 32.49423 14.5 0.0769015512304
32 33 15 16 32.49313 15.5 -0.00603889676595
32 33 16 17 32.50205 16.5 0.109306083026
32 33 17 18 32.48319 17.5 -0.0376067605239
32 33 18 19 32.4948 18.5 -0.116365638162
32 33 19 20 32.50991 19.5 0.211751230955
33 34 -20 -19 33.52391 -19.5 -0.139438776838
33 34 -19 -18 33.50523 -18.5 -0.0508077452866
33 34 -18 -17 33.51023 -17.5 0.0465880160219
33 34 -17 -16 33.50528 -16.5 0.0900731322131
33 34 -16 -15 33.50932 -15.5 -0.140633636253
33 34 -15 -14 33.50053 -14.5 -0.209253603454
33 34 -14 -13 33.49927 -13.5 -0.0092972463224
33 34 -13 -12 33.49735 -12.5 0.0779475017195
33 34 -12 -11 33.50243 -11.5 -0.198382821325
33 34 -11 -10 33.49795 -10.5 0.123571469162
33 34 -10 -9 33.51201 -9.5 -0.304502558543
33 34 -9 -8 33.48872 -8.5 0.0891716987343
33 34 -8 -7 33.50477 -7.5 -0.157543478443
33 34 -7 -6 33.5003 -6.5 -0.173068518972
33 34 -6 -5 33.50647 -5.5 0.122999798661
33 34 -5 -4 33.50639 -4.5 -0.0623156040351
33 34 -4 -3 33.49762 -3.5 -0.256532485479
33 34 -3 -2 33.49481 -2.5 0.0608572338035
33 34 -2 -1 33.51019 -1.5 0.172708685991
33 34 -1 0 33.50958 -0.5 -0.169061868144
33 34 0 1 33.50958 0.5 -0.169061868144
33 34 1 2 33.51019 1.5 0.172708685991
33 34 2 3 33.49481 2.5 0.0608572338035
33 34 3 4 33.49762 3.5 -0.256532485479
33 34 4 5 33.50639 4.5 -0.0623156040351
33 34 5 6 33.50647 5.5 0.122999798661
33 34 6 7 33.5003 6.5 -0.173068518972
33 34 7 8 33.50477 7.5 -0.157543478443
33 34 8 9 33.48872 8.5 0.0891716987343
33 34 9 10 33.51201 9.5 -0.304502558543
33 34 10 11 33.49795 10.5 0.123571469162
33 34 11 12 33.50243 11.5 -0.198382821325
33 34 12 13 33.49735 12.5 0.0779475017195
33 34 13 14 33.49927 13.5 -0.0092972463224
33 34 14 15 33.50053 14.5 -0.209253603454
33 34 15 16 33.50932 15.5 -0.140633636253
33 34 16 17 33.50528 16.5 0.0900731322131
33 34 17 18 33.51023 17.5 0.0465880160219
33 34 18 19 33.50523 18.5 -0.0508077452866
33 34 19 20 33.52391 19.5 -0.139438776838
34 35 -20 -19 34.50367 -19.5 0.0146165010887
34 35 -19 -18 34.49748 -18.5 -0.280308176172
34 35 -18 -17 34.5023 -17.5 0.106077685286
34 35 -17 -16 34.50252 -16.5 0.284695862604
34 35 -16 -15 34.51189 -15.5 0.0834644173897
34 35 -15 -14 34.50215 -14.5 0.173495846634
34 35 -14 -13 34.5093 -13.5 -0.136285641859
34 35 -13 -12 34.50832 -12.5 0.10813947562
34 35 -12 -11 34.50658 -11.5 -0.0834939124461
34 35 -11 -10 34.48558 -10.5 0.0701788358051
34 35 -10 -9 34.51104 -9.5 0.113480075205
34 35 -9 -8 34.5028 -8.5 -0.19738781064
34 35 -8 -7 34.50303 -7.5 -0.112746689323
34 35 -7 -6 34.49915 -6.5 0.033576066126
34 35 -6 -5 34.49131 -5.5 -0.183531048434
34 35 -5 -4 34.50356 -4.5 -0.259899635952
34 35 -4 -3 34.50539 -3.5 -0.247640980043
34 35 -3 -2 34.50116 -2.5 -0.0655016595694
34 35 -2 -1 34.49877 -1.5 -0.0570138337732
34 35 -1 0 34.49687 -0.5 0.0183909167602
34 35 0 1 34.49687 0.5 0.0183909167602
34 35 1 2 34.49877 1.5 -0.0570138337732
34 35 2 3 34.50116 2.5 -0.0655016595694
34 35 3 4 34.50539 3.5 -0.247640980043
34 35 4 5 34.50356 4.5 -0.259899635952
34 35 5 6 34.49131 5.5 -0.183531048434
34 35 6 7 34.49915 6.5 0.033576066126
34 35 7 8 34.50303 7.5 -0.112746689323
34 35 8 9 34.5028 8.5 -0.19738781064
34 35 9 10 34.51104 9.5 0.113480075205
34 35 10 11 34.48558 10.5 0.0701788358051
34 35 11 12 34.50658 11.5 -0.0834939124461
34 35 12 13 34.50832 12.5 0.10813947562
34 35 13 14 34.5093 13.5 -0.136285641859
34 35 14 15 34.50215 14.5 0.173495846634
34 35 15 16 34.51189 15.5 0.0834644173897
34 35 16 17 34.50252 16.5 0.284695862604
34 35 17 18 34.5023 17.5 0.106077685286
34 35 18 19 34.49748 18.5 -0.280308176172
34 35 19 20 34.50367 19.5 0.0146165010887
35 36 -20 -19 35.49554 -19.5 0.00496082960354
35 36 -19 -18 35.50485 -18.5 0.00817482284882
35 36 -18 -17 35.49509 -17.5 0.0477418882349
35 36 -17 -16 35.48218 -16.5 0.0251507314547
35 36 -16 -15 35.4917 -15.5 -0.206153930043
35 36 -15 -14 35.49896 -14.5 0.124992992632
35 36 -14 -13 35.51096 -13.5 0.0247712276354
35 36 -13 -12 35.50294 -12.5 -0.147602985058
35 36 -12 -11 35.49081 -11.5 -0.156457792045
35 36 -11 -10 35.49481 -10.5 -0.0538689845834
35 36 -10 -9 35.50854 -9.5 -0.0756509305571
35 36 -9 -8 35.50625 -8.5 -0.120896297287
35 36 -8 -7 35.49843 -7.5 -0.0897081095052
35 36 -7 -6 35.51175 -6.5 0.00574181690127
35 36 -6 -5 35.49416 -5.5 -0.108558787475
35 36 -5 -4 35.50211 -4.5 0.252092438692
35 36 -4 -3 35.4921 -3.5 -0.0225105601285
35 36 -3 -2 35.50005 -2.5 -0.00167413146637
35 36 -2 -1 35.50395 -1.5 0.000164997046722
35 36 -1 0 35.49159 -0.5 -0.169686923548
35 36 0 1 35.49159 0.5 -0.169686923548
35 36 1 2 35.50395 1.5 0.000164997046722
35 36 2 3 35.50005 2.5 -0.00167413146637
35 36 3 4 35.4921 3.5 -0.0225105601285
35 36 4 5 35.50211 4.5 0.252092438692
35 36 5 6 35.49416 5.5 -0.108558787475
35 36 6 7 35.51175 6.5 0.00574181690127
35 36 7 8 35.49843 7.5 -0.0897081095052
35 36 8 9 35.50625 8.5 -0.120896297287
35 36 9 10 35.50854 9.5 -0.0756509305571
35 36 10 11 35.49481 10.5 -0.0538689845834
35 36 11 12 35.49081 11.5 -0.156457792045
35 36 12 13 35.50294 12.5 -0.147602985058
35 36 13 14 35.51096 13.5 0.0247712276354
35 36 14 15 35.49896 14.5 0.124992992632
35 36 15 16 35.4917 15.5 -0.206153930043
35 36 16 17 35.48218 16.5 0.0251507314547
35 36 17 18 35.49509 17.5 0.0477418882349
35 36 18 19 35.50485 18.5 0.00817482284882
35 36 19 20 35.49554 19.5 0.00496082960354
36 37 -20 -19 36.4986 -19.5 0.249313987682
36 37 -19 -18 36.50763 -18.5 0.168169154567
36 37 -18 -17 36.50893 -17.5 -0.119243746881
36 37 -17 -16 36.50027 -16.5 -0.216200003119
36 37 -16 -15 36.50521 -15.5 0.219014806301
36 37 -15 -14 36.51021 -14.5 -0.0172363772362
36 37 -14 -13 36.50299 -13.5 -0.0348260821837
36 37 -13 -12 36.50168 -12.5 0.0329553203422
36 37 -12 -11 36.49822 -11.5 0.0846837191868
36 37 -11 -10 36.50726 -10.5 -0.114124608151
36 37 -10 -9 36.51235 -9.5 0.208051140507
36 37 -9 -8 36.50584 -8.5 -0.0732021971145
36 37 -8 -7 36.50446 -7.5 0.276962593302
36 37 -7 -6 36.5034 -6.5 0.126378126356
36 37 -6 -5 36.50105 -5.5 0.0103875993012
36 37 -5 -4 36.4922 -4.5 0.0931405397901
36 37 -4 -3 36.50962 -3.5 0.151265041464
36 37 -3 -2 36.50111 -2.5 -0.205838404806
36 37 -2 -1 36.4916 -1.5 -0.125231444251
36 37 -1 0 36.48926 -0.5 -0.0838728856181
36 37 0 1 36.48926 0.5 -0.0838728856181
36 37 1 2 36.4916 1.5 -0.125231444251
36 37 2 3 36.50111 2.5 -0.205838404806
36 37 3 4 36.50962 3.5 0.151265041464
36 37 4 5 36.4922 4.5 0.0931405397901
36 37 5 6 36.50105 5.5 0.0103875993012
36 37 6 7 36.5034 6.5 0.126378126356
36 37 7 8 36.50446 7.5 0.276962593302
36 37 8 9 36.50584 8.5 -0.0732021971145
36 37 9 10 36.51235 9.5 0.208051140507
36 37 10 11 36.50726 10.5 -0.114124608151
36 37 11 12 36.49822 11.5 0.0846837191868
36 37 12 13 36.50168 12.5 0.0329553203422
36 37 13 14 36.50299 13.5 -0.0348260821837
36 37 14 15 36.51021 14.5 -0.0172363772362
36 37 15 16 36.50521 15.5 0.219014806301
36 37 16 17 36.50027 16.5 -0.216200003119
36 37 17 18 36.50893 17.5 -0.119243746881
36 37 18 19 36.50763 18.5 0.168169154567
36 37 19 20 36.4986 19.5 0.249313987682
37 38 -20 -19 37.49744 -19.5 0.143816316411
37 38 -19 -18 37.50005 -18.5 -0.0771344765789
37 38 -18 -17 37.49663 -17.5 -0.116242493526
37 38 -17 -16 37.49961 -16.5 -0.0441510323447
37 38 -16 -15 37.5022 -15.5 0.0517228823064
37 38 -15 -14 37.50131 -14.5 0.0174934820612
37 38 -14 -13 37.4928 -13.5 -0.0302587465972
37 38 -13 -12 37.49743 -12.5 0.0668556747391
37 38 -12 -11 37.4955 -11.5 0.0391996963392
37 38 -11 -10 37.51192 -10.5 -0.0779901329147
37 38 -10 -9 37.49918 -9.5 -0.166808436714
37 38 -9 -8 37.49575 -8.5 -0.0495179517879
37 38 -8 -7 37.49192 -7.5 0.0710876284653
37 38 -7 -6 37.50454 -6.5 0.00215430820528
37 38 -6 -5 37.5089 -5.5 0.0183318563942
37 38 -5 -4 37.49692 -4.5 0.0448818981475
37 38 -4 -3 37.49819 -3.5 0.0521181739356
37 38 -3 -2 37.50506 -2.5 0.0528720356328
37 38 -2 -1 37.50645 -1.5 -0.0361753319632
37 38 -1 0 37.48933 -0.5 -0.0857086316778
37 38 0 1 37.48933 0.5 -0.0857086316778
37 38 1 2 37.50645 1.5 -0.0361753319632
37 38 2 3 37.50506 2.5 0.0528720356328
37 38 3 4 37.49819 3.5 0.0521181739356
37 38 4 5 37.49692 4.5 0.0448818981475
37 38 5 6 37.5089 5.5 0.0183318563942
37 38 6 7 37.50454 6.5 0.00215430820528
37 38 7 8 37.49192 7.5 0.0710876284653
37 38 8 9 37.49575 8.5 -0.0495179517879
37 38 9 10 37.49918 9.5 -0.166808436714
37 38 10 11 37.51192 10.5 -0.0779901329147
37 38 11 12 37.4955 11.5 0.0391996963392
37 38 12 13 37.49743 12.5 0.0668556747391
37 38 13 14 37.4928 13.5 -0.0302587465972
37 38 14 15 37.50131 14.5 0.0174934820612
37 38 15 16 37.5022 15.5 0.0517228823064
37 38 16 17 37.49961 16.5 -0.0441510323447
37 38 17 18 37.49663 17.5 -0.116242493526
37 38 18 19 37.50005 18.5 -0.0771344765789
37 38 19 20 37.49744 19.5 0.143816316411
38 39 -20 -19 38.50618 -19.5 0.119671411665
38 39 -19 -18 38.49273 -18.5 0.109627231439
38 39 -18 -17 38.50296 -17.5 -0.119770985188
38 39 -17 -16 38.4982 -16.5 -0.112309633242
38 39 -16 -15 38.49106 -15.5 0.073461648675
38 39 -15 -14 38.47931 -14.5 0.0402579645343
38 39 -14 -13 38.49157 -13.5 -0.0803919985563
38 39 -13 -12 38.49436 -12.5 -0.0497290532096
38 39 -12 -11 38.5078 -11.5 0.0244165087099
38 39 -11 -10 38.49546 -10.5 -0.0348908466894
38 39 -10 -9 38.49881 -9.5 0.00811061695102
38 39 -9 -8 38.50232 -8.5 -0.268687062569
38 39 -8 -7 38.50083 -7.5 0.123809364526
38 39 -7 -6 38.49909 -6.5 -0.0541108012212
38 39 -6 -5 38.49867 -5.5 0.0565916319392
38 39 -5 -4 38.50181 -4.5 -0.272654798331
38 39 -4 -3 38.50349 -3.5 0.0577839635619
38 39 -3 -2 38.50823 -2.5 -0.0566092015523
38 39 -2 -1 38.49234 -1.5 0.0783198943456
38 39 -1 0 38.48632 -0.5 0.113846734874
38 39 0 1 38.48632 0.5 0.113846734874
38 39 1 2 38.49234 1.5 0.0783198943456
38 39 2 3 38.50823 2.5 -0.0566092015523
38 39 3 4 38.50349 3.5 0.0577839635619
38 39 4 5 38.50181 4.5 -0.272654798331
38 39 5 6 38.49867 5.5 0.0565916319392
38 39 6 7 38.49909 6.5 -0.0541108012212
38 39 7 8 38.50083 7.5 0.123809364526
38 39 8 9 38.50232 8.5 -0.268687062569
38 39 9 10 38.49881 9.5 0.00811061695102
38 39 10 11 38.49546 10.5 -0.0348908466894
38 39 11 12 38.5078 11.5 0.0244165087099
38 39 12 13 38.49436 12.5 -0.0497290532096
38 39 13 14 38.49157 13.5 -0.0803919985563
38 39 14 15 38.47931 14.5 0.0402579645343
38 39 15 16 38.49106 15.5 0.073461648675
38 39 16 17 38.4982 16.5 -0.112309633242
38 39 17 18 38.50296 17.5 -0.119770985188
38 39 18 19 38.49273 18.5 0.109627231439
38 39 19 20 38.50618 19.5 0.119671411665
39 40 -20 -19 39.51564 -19.5 -0.0135162891769
39 40 -19 -18 39.49459 -18.5 0.0554001472792
39 40 -18 -17 39.50275 -17.5 0.0414086905324
39 40 -17 -16 39.49856 -16.5 0.0326710371269
39 40 -16 -15 39.50498 -15.5 -0.0970344540151
39 40 -15 -14 39.49908 -14.5 0.134279234005
39 40 -14 -13 39.50116 -13.5 0.00392979396287
39 40 -13 -12 39.49882 -12.5 0.0812094210536
39 40 -12 -11 39.51376 -11.5 -0.00020290267021
39 40 -11 -10 39.49047 -10.5 -0.126627053082
39 40 -10 -9 39.50552 -9.5 -0.139293216143
39 40 -9 -8 39.49005 -8.5 0.0292813271318
39 40 -8 -7 39.49809 -7.5 0.00795205120223
39 40 -7 -6 39.51452 -6.5 0.0461981087123
39 40 -6 -5 39.51445 -5.5 0.130620711201
39 40 -5 -4 39.49492 -4.5 -0.1829437319
39 40 -4 -3 39.49669 -3.5 0.0370731346518
39 40 -3 -2 39.5121 -2.5 -0.0263968672173
39 40 -2 -1 39.50262 -1.5 -0.102583375236
39 40 -1 0 39.4969 -0.5 -0.0199536559849
39 40 0 1 39.4969 0.5 -0.0199536559849
39 40 1 2 39.50262 1.5 -0.102583375236
39 40 2 3 39.5121 2.5 -0.0263968672173
39 40 3 4 39.49669 3.5 0.0370731346518
39 40 4 5 39.49492 4.5 -0.1829437319
39 40 5 6 39.51445 5.5 0.130620711201
39 40 6 7 39.51452 6.5 0.0461981087123
39 40 7 8 39.49809 7.5 0.00795205120223
39 40 8 9 39.49005 8.5 0.0292813271318
39 40 9 10 39.50552 9.5 -0.139293216143
39 40 10 11 39.49047 10.5 -0.126627053082
39 40 11 12 39.51376 11.5 -0.00020290267021
39 40 12 13 39.49882 12.5 0.0812094210536
39 40 13 14 39.50116 13.5 0.00392979396287
39 40 14 15 39.49908 14.5 0.134279234005
39 40 15 16 39.50498 15.5 -0.0970344540151
39 40 16 17 39.49856 16.5 0.0326710371269
39 40 17 18 39.50275 17.5 0.0414086905324
39 40 18 19 39.49459 18.5 0.0554001472792
39 40 19 20 39.51564 19.5 -0.0135162891769
40 41 -20 -19 40.50019 -19.5 -0.148559239075
40 41 -19 -18 40.4936 -18.5 -0.123727833088
40 41 -18 -17 40.50601 -17.5 -0.0956962920943
40 41 -17 -16 40.51131 -16.5 0.0783056474033
40 41 -16 -15 40.51429 -15.5 0.163334161157
40 41 -15 -14 40.49413 -14.5 -0.0868220352763
40 41 -14 -13 40.49186 -13.5 -0.117755225346
40 41 -13 -12 40.49136 -12.5 0.0219849358301
40 41 -12 -11 40.50959 -11.5 0.146073121501
40 41 -11 -10 40.49662 -10.5 -0.0875563574756
40 41 -10 -9 40.49884 -9.5 -0.0397815614178
40 41 -9 -8 40.50295 -8.5 -0.0119209153681
40 41 -8 -7 40.5013 -7.5 -0.0882250265695
40 41 -7 -6 40.51149 -6.5 -0.0157925879745
40 41 -6 -5 40.50466 -5.5 -0.0551105685217
40 41 -5 -4 40.49729 -4.5 -0.00893373983327
40 41 -4 -3 40.51353 -3.5 -0.0296245502579
40 41 -3 -2 40.50116 -2.5 0.0518410665113
40 41 -2 -1 40.49632 -1.5 0.164600323857
40 41 -1 0 40.51456 -0.5 0.193941225565
40 41 0 1 40.51456 0.5 0.193941225565
40 41 1 2 40.49632 1.5 0.164600323857
40 41 2 3 40.50116 2.5 0.0518410665113
40 41 3 4 40.51353 3.5 -0.0296245502579
40 41 4 5 40.49729 4.5 -0.00893373983327
40 41 5 6 40.50466 5.5 -0.0551105685217
40 41 6 7 40.51149 6.5 -0.0157925879745
40 41 7 8 40.5013 7.5 -0.0882250265695
40 41 8 9 40.50295 8.5 -0.0119209153681
40 41 9 10 40.49884 9.5 -0.0397815614178
40 41 10 11 40.49662 10.5 -0.0875563574756
40 41 11 12 40.50959 11.5 0.146073121501
40 41 12 13 40.49136 12.5 0.0219849358301
40 41 13 14 40.49186 13.5 -0.117755225346
40 41 14 15 40.49413 14.5 -0.0868220352763
40 41 15 16 40.51429 15.5 0.163334161157
40 41 16 17 40.51131 16.5 0.0783056474033
40 41 17 18 40.50601 17.5 -0.0956962920943
40 41 18 19 40.4936 18.5 -0.123727833088
40 41 19 20 40.50019 19.5 -0.148559239075
