#edges = (np.linspace(1, 41, 41), np.linspace(0, 20, 21))
#rp_low rp_high pi_low pi_high rp pi corr
1 2 -20 -19 1.561064 -19.5 -0.347797804636
1 2 -19 -18 1.533339 -18.5 0.547548600088
1 2 -18 -17 1.501114 -17.5 -0.455025017156
1 2 -17 -16 1.608386 -16.5 0.474131157895
1 2 -16 -15 1.575893 -15.5 -0.926498540698
1 2 -15 -14 1.583715 -14.5 0.808475109508
1 2 -14 -13 1.546703 -13.5 0.518894535928
1 2 -13 -12 1.568105 -12.5 -0.983861913763
1 2 -12 -11 1.592091 -11.5 -0.0328733171211
1 2 -11 -10 1.548857 -10.5 0.304942696925
1 2 -10 -9 1.538237 -9.5 0.121142244897
1 2 -9 -8 1.530637 -8.5 0.123837316666
1 2 -8 -7 1.617152 -7.5 0.0556217722642
1 2 -7 -6 1.537557 -6.5 0.777364218074
1 2 -6 -5 1.579246 -5.5 -0.202418123119
1 2 -5 -4 1.565888 -4.5 0.0208427220288
1 2 -4 -3 1.570038 -3.5 0.699131021698
1 2 -3 -2 1.542631 -2.5 -0.0223691141921
1 2 -2 -1 1.513139 -1.5 0.408364451971
1 2 -1 0 1.560988 -0.5 0.0180153805315
1 2 0 1 1.551767 0.5 0.482194276177
1 2 1 2 1.57458 1.5 -0.00561271736452
1 2 2 3 1.546298 2.5 0.757690668653
1 2 3 4 1.556555 3.5 -0.769637021934
1 2 4 5 1.513537 4.5 -0.316433123814
1 2 5 6 1.546021 5.5 -0.591375085688
1 2 6 7 1.562726 6.5 -0.107864046291
1 2 7 8 1.560499 7.5 -0.23110733032
1 2 8 9 1.585117 8.5 0.250569924793
1 2 9 10 1.54494 9.5 -0.0161027832117
1 2 10 11 1.517082 10.5 -0.885570835705
1 2 11 12 1.542691 11.5 0.0609051776921
1 2 12 13 1.601394 12.5 -0.281532461881
1 2 13 14 1.573707 13.5 -0.252277453117
1 2 14 15 1.52275 14.5 -0.387220718771
1 2 15 16 1.545874 15.5 0.56478714923
1 2 16 17 1.592399 16.5 -0.480138668731
1 2 17 18 1.602439 17.5 -0.058720282861
1 2 18 19 1.557197 18.5 -0.777292321147
1 2 19 20 1.513487 19.5 -0.331417475119
2 3 -20 -19 2.559179 -19.5 0.128272186669
2 3 -19 -18 2.527216 -18.5 -0.171792973494
2 3 -18 -17 2.517913 -17.5 0.484925446862
2 3 -17 -16 2.539741 -16.5 -0.0907109059491
2 3 -16 -15 2.537585 -15.5 -0.484902967068
2 3 -15 -14 2.511378 -14.5 0.0935552616314
2 3 -14 -13 2.520801 -13.5 0.174302365112
2 3 -13 -12 2.576841 -12.5 -0.284148563141
2 3 -12 -11 2.503897 -11.5 0.735882721415
2 3 -11 -10 2.538707 -10.5 -0.405489709689
2 3 -10 -9 2.543517 -9.5 0.19478974158
2 3 -9 -8 2.544615 -8.5 -0.268720408181
2 3 -8 -7 2.566093 -7.5 -0.408320317871
2 3 -7 -6 2.518322 -6.5 0.070588912047
2 3 -6 -5 2.545932 -5.5 -0.329441741037
2 3 -5 -4 2.523868 -4.5 -0.235231603204
2 3 -4 -3 2.481673 -3.5 -0.374946182304
2 3 -3 -2 2.526448 -2.5 0.132828094839
2 3 -2 -1 2.510562 -1.5 -0.237569653587
2 3 -1 0 2.542472 -0.5 -0.142629866212
2 3 0 1 2.562164 0.5 -0.517137919915
2 3 1 2 2.542548 1.5 0.604894166053
2 3 2 3 2.532175 2.5 0.0927789489656
2 3 3 4 2.526157 3.5 -0.364961454514
2 3 4 5 2.533333 4.5 -0.107087320593
2 3 5 6 2.528957 5.5 -0.104713820975
2 3 6 7 2.555591 6.5 -0.0686545432195
2 3 7 8 2.532911 7.5 0.478198859548
2 3 8 9 2.529666 8.5 -0.0931248905504
2 3 9 10 2.546811 9.5 0.320409941563
2 3 10 11 2.535877 10.5 0.384271538579
2 3 11 12 2.552202 11.5 0.508821335561
2 3 12 13 2.530183 12.5 0.190971433954
2 3 13 14 2.525713 13.5 0.66441857115
2 3 14 15 2.515107 14.5 -0.121756027997
2 3 15 16 2.511407 15.5 0.0571516124637
2 3 16 17 2.524339 16.5 -0.198216678022
2 3 17 18 2.513826 17.5 -0.389560732909
2 3 18 19 2.534788 18.5 0.476359494414
2 3 19 20 2.496357 19.5 0.231634249998
3 4 -20 -19 3.518491 -19.5 -0.138899660097
3 4 -19 -18 3.513204 -18.5 0.287693708832
3 4 -18 -17 3.538216 -17.5 0.302435234546
3 4 -17 -16 3.537582 -16.5 0.0958964476927
3 4 -16 -15 3.544578 -15.5 -0.0985784839153
3 4 -15 -14 3.527135 -14.5 0.202650328928
3 4 -14 -13 3.539002 -13.5 0.439243288802
3 4 -13 -12 3.525931 -12.5 -0.109688780004
3 4 -12 -11 3.512225 -11.5 -0.125499811143
3 4 -11 -10 3.511277 -10.5 0.537897972526
3 4 -10 -9 3.535964 -9.5 0.557986066352
3 4 -9 -8 3.536182 -8.5 -0.359507616056
3 4 -8 -7 3.521399 -7.5 -0.304080087552
3 4 -7 -6 3.507836 -6.5 0.128870263447
3 4 -6 -5 3.522758 -5.5 -0.396169791259
3 4 -5 -4 3.526432 -4.5 -0.376760903958
3 4 -4 -3 3.506473 -3.5 -0.189627006229
3 4 -3 -2 3.489364 -2.5 -0.138357919912
3 4 -2 -1 3.5133 -1.5 -0.0728648107899
3 4 -1 0 3.538628 -0.5 -0.04700622513
3 4 0 1 3.526069 0.5 -0.0606639359966
3 4 1 2 3.529025 1.5 -0.523452748169
3 4 2 3 3.539096 2.5 0.255826675658
3 4 3 4 3.531727 3.5 -0.337831944811
3 4 4 5 3.53012 4.5 0.44986983363
3 4 5 6 3.53859 5.5 0.352158936012
3 4 6 7 3.526105 6.5 0.225665966559
3 4 7 8 3.504675 7.5 -0.252558299791
3 4 8 9 3.557308 8.5 0.256513710188
3 4 9 10 3.533291 9.5 0.338305330839
3 4 10 11 3.510318 10.5 0.278401683273
3 4 11 12 3.531058 11.5 0.449704503592
3 4 12 13 3.528757 12.5 -0.125241302213
3 4 13 14 3.51882 13.5 -0.181726258371
3 4 14 15 3.533157 14.5 0.107271147673
3 4 15 16 3.539897 15.5 -0.674503735156
3 4 16 17 3.491502 16.5 -0.314577035927
3 4 17 18 3.54236 17.5 -0.335698619844
3 4 18 19 3.501361 18.5 -0.193988293649
3 4 19 20 3.513973 19.5 -0.22486476304
4 5 -20 -19 4.525314 -19.5 0.0817608559198
4 5 -19 -18 4.509031 -18.5 0.0153319920672
4 5 -18 -17 4.523615 -17.5 0.160814949159
4 5 -17 -16 4.528964 -16.5 0.0956361798558
4 5 -16 -15 4.51243 -15.5 -0.00404380762051
4 5 -15 -14 4.50809 -14.5 0.751578810457
4 5 -14 -13 4.523479 -13.5 0.670241449809
4 5 -13 -12 4.502462 -12.5 0.471837192482
4 5 -12 -11 4.529589 -11.5 0.334533343798
4 5 -11 -10 4.509471 -10.5 -0.101977084936
4 5 -10 -9 4.539469 -9.5 -0.0906314360207
4 5 -9 -8 4.477847 -8.5 -0.523363596486
4 5 -8 -7 4.509203 -7.5 0.225131852682
4 5 -7 -6 4.524145 -6.5 -0.172550536259
4 5 -6 -5 4.515293 -5.5 0.0324548692717
4 5 -5 -4 4.523218 -4.5 0.444777084097
4 5 -4 -3 4.506112 -3.5 0.108884613165
4 5 -3 -2 4.546399 -2.5 -0.0823056299549
4 5 -2 -1 4.494253 -1.5 0.228687812554
4 5 -1 0 4.536644 -0.5 -0.0641596262568
4 5 0 1 4.500908 0.5 -0.221433469158
4 5 1 2 4.519612 1.5 0.0331452927862
4 5 2 3 4.507308 2.5 0.344334148005
4 5 3 4 4.530202 3.5 -0.019899480889
4 5 4 5 4.51917 4.5 -0.321550421091
4 5 5 6 4.532301 5.5 -0.257637222949
4 5 6 7 4.499366 6.5 -0.00599036258915
4 5 7 8 4.515525 7.5 -0.409733500718
4 5 8 9 4.518242 8.5 -0.330086988472
4 5 9 10 4.480872 9.5 0.0943062707219
4 5 10 11 4.530466 10.5 -0.12109160885
4 5 11 12 4.519168 11.5 -0.328264844159
4 5 12 13 4.537187 12.5 -0.261303663164
4 5 13 14 4.527286 13.5 0.385992088411
4 5 14 15 4.509415 14.5 0.0290663091269
4 5 15 16 4.533303 15.5 -0.0585849493519
4 5 16 17 4.511702 16.5 -0.0428185484396
4 5 17 18 4.523598 17.5 0.0972768890602
4 5 18 19 4.476285 18.5 0.0521496950744
4 5 19 20 4.520079 19.5 -0.112281926523
5 6 -20 -19 5.50383 -19.5 -0.510299188946
5 6 -19 -18 5.494936 -18.5 0.117554990124
5 6 -18 -17 5.493763 -17.5 -0.0790598012562
5 6 -17 -16 5.495702 -16.5 -0.0875442803584
5 6 -16 -15 5.517344 -15.5 -0.190395714384
5 6 -15 -14 5.480121 -14.5 -0.263549015346
5 6 -14 -13 5.516515 -13.5 -0.0347814755635
5 6 -13 -12 5.525439 -12.5 -0.567858695656
5 6 -12 -11 5.530507 -11.5 -0.378950871573
5 6 -11 -10 5.489048 -10.5 -0.066571231813
5 6 -10 -9 5.533066 -9.5 -0.00520609550194
5 6 -9 -8 5.526993 -8.5 0.511366452192
5 6 -8 -7 5.505814 -7.5 0.275341072627
5 6 -7 -6 5.519664 -6.5 -0.349522097981
5 6 -6 -5 5.522144 -5.5 0.388429857579
5 6 -5 -4 5.511644 -4.5 -0.321510987587
5 6 -4 -3 5.513716 -3.5 -0.272847276807
5 6 -3 -2 5.533487 -2.5 -0.0131062675314
5 6 -2 -1 5.500896 -1.5 -0.302000250766
5 6 -1 0 5.52254 -0.5 0.118103564384
5 6 0 1 5.501574 0.5 -0.283703219826
5 6 1 2 5.511182 1.5 -0.350487028031
5 6 2 3 5.522324 2.5 0.175203763457
5 6 3 4 5.506303 3.5 0.0448001211951
5 6 4 5 5.514026 4.5 -0.2393994744
5 6 5 6 5.52716 5.5 0.364686367402
5 6 6 7 5.508191 6.5 -0.0603665675868
5 6 7 8 5.489771 7.5 -0.0428427011631
5 6 8 9 5.493306 8.5 -0.313584139882
5 6 9 10 5.516544 9.5 0.408311232444
5 6 10 11 5.515502 10.5 -0.182779640467
5 6 11 12 5.505318 11.5 -0.0257799214123
5 6 12 13 5.509491 12.5 0.239733838683
5 6 13 14 5.506567 13.5 -0.292654672821
5 6 14 15 5.514855 14.5 -0.0370053392827
5 6 15 16 5.545589 15.5 -0.0535521110131
5 6 16 17 5.529382 16.5 -0.254179010478
5 6 17 18 5.519108 17.5 0.0663281977796
5 6 18 19 5.523825 18.5 0.078194678748
5 6 19 20 5.505446 19.5 0.160996449949
6 7 -20 -19 6.522604 -19.5 0.234424557098
6 7 -19 -18 6.536861 -18.5 -0.330352564487
6 7 -18 -17 6.528192 -17.5 -0.197295332623
6 7 -17 -16 6.513132 -16.5 -0.258548503935
6 7 -16 -15 6.504124 -15.5 -0.0886836360792
6 7 -15 -14 6.502034 -14.5 0.190426309963
6 7 -14 -13 6.478687 -13.5 -0.0852770146502
6 7 -13 -12 6.514746 -12.5 -0.0134215751898
6 7 -12 -11 6.508823 -11.5 0.202804728024
6 7 -11 -10 6.524256 -10.5 -0.330149058678
6 7 -10 -9 6.508793 -9.5 0.285487686501
6 7 -9 -8 6.500183 -8.5 0.0646291434956
6 7 -8 -7 6.511877 -7.5 0.418860905361
6 7 -7 -6 6.502245 -6.5 0.126149633075
6 7 -6 -5 6.508831 -5.5 0.294795227465
6 7 -5 -4 6.498808 -4.5 -0.246544674569
6 7 -4 -3 6.515939 -3.5 -0.28141513553
6 7 -3 -2 6.531329 -2.5 0.0309674106142
6 7 -2 -1 6.515993 -1.5 0.0626121902797
6 7 -1 0 6.513835 -0.5 0.359513546134
6 7 0 1 6.536165 0.5 0.212379456809
6 7 1 2 6.520419 1.5 -0.0629914511331
6 7 2 3 6.523675 2.5 -0.389159625176
6 7 3 4 6.514152 3.5 0.272858630378
6 7 4 5 6.522909 4.5 -0.0677696032576
6 7 5 6 6.489283 5.5 0.0317899079553
6 7 6 7 6.513744 6.5 0.315005175753
6 7 7 8 6.515202 7.5 0.215612079712
6 7 8 9 6.524803 8.5 -0.177246038666
6 7 9 10 6.523614 9.5 0.075451705441
6 7 10 11 6.500694 10.5 0.283330027428
6 7 11 12 6.522699 11.5 -0.0348291185813
6 7 12 13 6.524429 12.5 0.231009096586
6 7 13 14 6.511262 13.5 -0.135423383639
6 7 14 15 6.508858 14.5 -0.437055962806
6 7 15 16 6.529451 15.5 0.359574212476
6 7 16 17 6.522698 16.5 -0.0107999643741
6 7 17 18 6.489345 17.5 -0.0528803387739
6 7 18 19 6.505003 18.5 -0.0218120600402
6 7 19 20 6.523045 19.5 0.0270089568204
7 8 -20 -19 7.500169 -19.5 -0.100119261789
7 8 -19 -18 7.519005 -18.5 0.0625620198292
7 8 -18 -17 7.526803 -17.5 0.0841641326027
7 8 -17 -16 7.484321 -16.5 -0.0300735474012
7 8 -16 -15 7.500217 -15.5 -0.211027523799
7 8 -15 -14 7.512765 -14.5 -0.122792401594
7 8 -14 -13 7.506002 -13.5 -0.268566999036
7 8 -13 -12 7.522853 -12.5 0.218689671074
7 8 -12 -11 7.501629 -11.5 0.154021717705
7 8 -11 -10 7.507239 -10.5 0.0669013400579
7 8 -10 -9 7.505979 -9.5 0.33499074061
7 8 -9 -8 7.505111 -8.5 -0.093343345719
7 8 -8 -7 7.522204 -7.5 0.217079114983
7 8 -7 -6 7.519296 -6.5 0.450248867716
7 8 -6 -5 7.510054 -5.5 -0.105504806847
7 8 -5 -4 7.512058 -4.5 0.328892114436
7 8 -4 -3 7.48416 -3.5 0.268572799379
7 8 -3 -2 7.486298 -2.5 -0.169223278097
7 8 -2 -1 7.497157 -1.5 0.352446051719
7 8 -1 0 7.502248 -0.5 -0.30054532108
7 8 0 1 7.523272 0.5 0.164223535747
7 8 1 2 7.50708 1.5 0.16689244263
7 8 2 3 7.518624 2.5 -0.0971482812328
7 8 3 4 7.521298 3.5 0.138658108175
7 8 4 5 7.529702 4.5 0.019515454749
7 8 5 6 7.514454 5.5 -0.178478291349
7 8 6 7 7.515646 6.5 -0.15019051913
7 8 7 8 7.505923 7.5 -0.223231175233
7 8 8 9 7.498916 8.5 0.114403593465
7 8 9 10 7.530636 9.5 -0.0405225182248
7 8 10 11 7.522689 10.5 0.416294206829
7 8 11 12 7.510536 11.5 0.0920006924281
7 8 12 13 7.528491 12.5 0.434485050293
7 8 13 14 7.507925 13.5 -0.320361585524
7 8 14 15 7.531537 14.5 -0.0517260201191
7 8 15 16 7.497404 15.5 -0.146601744704
7 8 16 17 7.502246 16.5 0.106365550425
7 8 17 18 7.517111 17.5 -0.208974234832
7 8 18 19 7.516659 18.5 -0.303984373819
7 8 19 20 7.516007 19.5 0.0905291495245
8 9 -20 -19 8.496258 -19.5 -0.290147779278
8 9 -19 -18 8.532649 -18.5 -0.208301314727
8 9 -18 -17 8.513725 -17.5 0.059035779017
8 9 -17 -16 8.499299 -16.5 0.316925718932
8 9 -16 -15 8.501022 -15.5 -0.0277755999691
8 9 -15 -14 8.51426 -14.5 0.0117220990507
8 9 -14 -13 8.497255 -13.5 -0.238144714606
8 9 -13 -12 8.535149 -12.5 0.0579886291884
8 9 -12 -11 8.522381 -11.5 0.136121297121
8 9 -11 -10 8.509611 -10.5 0.0866523843756
8 9 -10 -9 8.508032 -9.5 0.1184175791
8 9 -9 -8 8.517256 -8.5 0.0100084529953
8 9 -8 -7 8.505563 -7.5 0.0441841463318
8 9 -7 -6 8.513926 -6.5 0.0416174467262
8 9 -6 -5 8.487467 -5.5 0.0873066506013
8 9 -5 -4 8.501248 -4.5 -0.180978158708
8 9 -4 -3 8.510074 -3.5 0.0162744367883
8 9 -3 -2 8.521885 -2.5 -0.225727668357
8 9 -2 -1 8.512224 -1.5 -0.0627556065023
8 9 -1 0 8.500515 -0.5 -0.146642916738
8 9 0 1 8.509373 0.5 0.142096587955
8 9 1 2 8.505815 1.5 0.173262471066
8 9 2 3 8.5063 2.5 0.128206921545
8 9 3 4 8.498108 3.5 -0.0285596880315
8 9 4 5 8.503532 4.5 0.0403883514622
8 9 5 6 8.490847 5.5 0.0707854195867
8 9 6 7 8.496344 6.5 0.027334874309
8 9 7 8 8.509378 7.5 0.0982426743696
8 9 8 9 8.523322 8.5 0.229871756242
8 9 9 10 8.500077 9.5 0.289392775997
8 9 10 11 8.519366 10.5 -0.463341688948
8 9 11 12 8.521197 11.5 -0.231105422051
8 9 12 13 8.492636 12.5 0.223067571776
8 9 13 14 8.492615 13.5 0.0372656433627
8 9 14 15 8.500918 14.5 0.15548957431
8 9 15 16 8.492963 15.5 -0.230881949175
8 9 16 17 8.516779 16.5 0.100242170339
8 9 17 18 8.499181 17.5 -0.139078934726
8 9 18 19 8.50475 18.5 0.0427030725331
8 9 19 20 8.498747 19.5 0.00352939856858
9 10 -20 -19 9.504541 -19.5 -0.117786933053
9 10 -19 -18 9.524846 -18.5 0.131172801655
9 10 -18 -17 9.516959 -17.5 -0.0281103852711
9 10 -17 -16 9.507504 -16.5 0.185443374021
9 10 -16 -15 9.496527 -15.5 0.3908070899
9 10 -15 -14 9.489503 -14.5 0.232754730899
9 10 -14 -13 9.511986 -13.5 0.217879454944
9 10 -13 -12 9.511351 -12.5 -0.379030399465
9 10 -12 -11 9.505988 -11.5 0.164184048273
9 10 -11 -10 9.514692 -10.5 -0.038441742137
9 10 -10 -9 9.490463 -9.5 0.140486642329
9 10 -9 -8 9.518278 -8.5 -0.040275306703
9 10 -8 -7 9.508051 -7.5 0.0325977770078
9 10 -7 -6 9.514102 -6.5 0.0611605956676
9 10 -6 -5 9.514953 -5.5 0.182412372862
9 10 -5 -4 9.510504 -4.5 -0.041562384834
9 10 -4 -3 9.502197 -3.5 0.181490826856
9 10 -3 -2 9.509509 -2.5 0.0112894242968
9 10 -2 -1 9.511792 -1.5 0.108126134724
9 10 -1 0 9.535004 -0.5 -0.0390745937565
9 10 0 1 9.499229 0.5 0.291263432854
9 10 1 2 9.4872 1.5 0.364807569127
9 10 2 3 9.511508 2.5 -0.11261214378
9 10 3 4 9.49638 3.5 0.106154555853
9 10 4 5 9.489816 4.5 0.133371640252
9 10 5 6 9.501695 5.5 0.00629623726367
9 10 6 7 9.511251 6.5 0.154832836137
9 10 7 8 9.52102 7.5 0.130693597885
9 10 8 9 9.498587 8.5 0.0334154414698
9 10 9 10 9.4884 9.5 -0.0380867917132
9 10 10 11 9.518078 10.5 -0.0155502751934
9 10 11 12 9.501466 11.5 -0.285534551983
9 10 12 13 9.495753 12.5 -0.0184370865693
9 10 13 14 9.504198 13.5 -0.118391240497
9 10 14 15 9.50315 14.5 0.0252513310028
9 10 15 16 9.518434 15.5 -0.282721645916
9 10 16 17 9.503255 16.5 -0.02186628624
9 10 17 18 9.497966 17.5 0.440516712757
9 10 18 19 9.491688 18.5 0.599904726965
9 10 19 20 9.497423 19.5 0.235608832796
10 11 -20 -19 10.52531 -19.5 0.0409059222646
10 11 -19 -18 10.49739 -18.5 -0.0356760021142
10 11 -18 -17 10.50729 -17.5 0.0409651919481
10 11 -17 -16 10.48484 -16.5 0.395322688532
10 11 -16 -15 10.4973 -15.5 0.0811628532535
10 11 -15 -14 10.48909 -14.5 -0.0175680499985
10 11 -14 -13 10.48358 -13.5 0.110380353492
10 11 -13 -12 10.52982 -12.5 0.14073301352
10 11 -12 -11 10.50515 -11.5 -0.12294088135
10 11 -11 -10 10.50993 -10.5 -0.192335106371
10 11 -10 -9 10.52097 -9.5 0.0383256891225
10 11 -9 -8 10.51483 -8.5 -0.0807997866063
10 11 -8 -7 10.50095 -7.5 -0.027211788258
10 11 -7 -6 10.52062 -6.5 0.0243106371223
10 11 -6 -5 10.50194 -5.5 0.0903040213733
10 11 -5 -4 10.50815 -4.5 0.0571371019658
10 11 -4 -3 10.50568 -3.5 0.262050789415
10 11 -3 -2 10.52196 -2.5 -0.0304104715359
10 11 -2 -1 10.51012 -1.5 0.0223069410242
10 11 -1 0 10.52108 -0.5 0.0690786498345
10 11 0 1 10.48968 0.5 0.101511136687
10 11 1 2 10.49896 1.5 -0.0297858639055
10 11 2 3 10.50416 2.5 0.0839045211729
10 11 3 4 10.50076 3.5 -0.206497232507
10 11 4 5 10.50546 4.5 0.103683380006
10 11 5 6 10.49711 5.5 0.00783665553203
10 11 6 7 10.50554 6.5 0.163698276533
10 11 7 8 10.50669 7.5 0.183971749049
10 11 8 9 10.48973 8.5 -0.0299747086179
10 11 9 10 10.49014 9.5 0.140166362741
10 11 10 11 10.51264 10.5 0.00260300488673
10 11 11 12 10.51516 11.5 0.0920870946014
10 11 12 13 10.51463 12.5 0.0241084709127
10 11 13 14 10.50756 13.5 -0.189546998118
10 11 14 15 10.50172 14.5 -0.00100259419623
10 11 15 16 10.4965 15.5 0.280225822663
10 11 16 17 10.50692 16.5 -0.0733813573318
10 11 17 18 10.48968 17.5 -0.142326184235
10 11 18 19 10.50958 18.5 0.235762995816
10 11 19 20 10.52089 19.5 -0.0245273158863
11 12 -20 -19 11.50218 -19.5 -0.255532311021
11 12 -19 -18 11.49579 -18.5 -0.188314128898
11 12 -18 -17 11.50558 -17.5 0.0557826500252
11 12 -17 -16 11.50706 -16.5 -0.0391648474473
11 12 -16 -15 11.50714 -15.5 -0.117872950542
11 12 -15 -14 11.52122 -14.5 0.0885283277128
11 12 -14 -13 11.50397 -13.5 -0.181313635038
11 12 -13 -12 11.51077 -12.5 0.0165754699823
11 12 -12 -11 11.51491 -11.5 0.169715449533
11 12 -11 -10 11.50351 -10.5 0.0964538213801
11 12 -10 -9 11.51096 -9.5 0.138672343356
11 12 -9 -8 11.49364 -8.5 0.186471293748
11 12 -8 -7 11.49518 -7.5 0.150730036415
11 12 -7 -6 11.49972 -6.5 0.00250868156017
11 12 -6 -5 11.51661 -5.5 -0.0384360224768
11 12 -5 -4 11.50033 -4.5 0.340425050728
11 12 -4 -3 11.50219 -3.5 -0.0271485385336
11 12 -3 -2 11.4977 -2.5 0.152003639422
11 12 -2 -1 11.50608 -1.5 0.0470117325239
11 12 -1 0 11.50053 -0.5 -0.101306876923
11 12 0 1 11.50475 0.5 -0.0394847229901
11 12 1 2 11.4927 1.5 0.0649924664429
11 12 2 3 11.51121 2.5 0.266770514879
11 12 3 4 11.50863 3.5 -0.0806077730348
11 12 4 5 11.51454 4.5 -0.175669677563
11 12 5 6 11.50844 5.5 0.0911217553594
11 12 6 7 11.50502 6.5 -0.330502455792
11 12 7 8 11.50664 7.5 -0.0956468451519
11 12 8 9 11.5077 8.5 0.101668724216
11 12 9 10 11.50513 9.5 0.000393565287951
11 12 10 11 11.50366 10.5 0.307262213357
11 12 11 12 11.50113 11.5 0.030499703575
11 12 12 13 11.50927 12.5 -0.243432683667
11 12 13 14 11.50867 13.5 -0.0555580508941
11 12 14 15 11.51338 14.5 -0.146094836063
11 12 15 16 11.5143 15.5 -0.10862003169
11 12 16 17 11.51125 16.5 -0.00162412006122
11 12 17 18 11.50927 17.5 0.0393311105329
11 12 18 19 11.49936 18.5 -0.0739611519238
11 12 19 20 11.51885 19.5 -0.0997625096056
12 13 -20 -19 12.50628 -19.5 0.0826794648903
12 13 -19 -18 12.49088 -18.5 0.0964664828231
12 13 -18 -17 12.5148 -17.5 0.107229138167
12 13 -17 -16 12.50432 -16.5 -0.148201779155
12 13 -16 -15 12.51237 -15.5 0.0939492578219
12 13 -15 -14 12.51163 -14.5 0.117733673929
12 13 -14 -13 12.4994 -13.5 -0.226256692568
12 13 -13 -12 12.50355 -12.5 0.252685885524
12 13 -12 -11 12.5277 -11.5 0.0288897977338
12 13 -11 -10 12.50695 -10.5 -0.21079966812
12 13 -10 -9 12.50031 -9.5 -0.144275795496
12 13 -9 -8 12.51096 -8.5 0.119145211796
12 13 -8 -7 12.49738 -7.5 -0.200837320698
12 13 -7 -6 12.50453 -6.5 0.0278108284991
12 13 -6 -5 12.50586 -5.5 0.0190587945824
12 13 -5 -4 12.51787 -4.5 0.0721491221426
12 13 -4 -3 12.49991 -3.5 -0.179787497078
12 13 -3 -2 12.49959 -2.5 -0.00997573726855
12 13 -2 -1 12.4881 -1.5 0.212282066001
12 13 -1 0 12.52935 -0.5 0.245636702209
12 13 0 1 12.50388 0.5 -0.00453936569753
12 13 1 2 12.50444 1.5 0.240616065991
12 13 2 3 12.49906 2.5 0.291430261164
12 13 3 4 12.49683 3.5 -0.0091200901893
12 13 4 5 12.50987 4.5 -0.429175340688
12 13 5 6 12.5218 5.5 -0.0220746847979
12 13 6 7 12.48397 6.5 0.278470700429
12 13 7 8 12.48802 7.5 0.249609685683
12 13 8 9 12.4962 8.5 0.289274886624
12 13 9 10 12.51328 9.5 -0.202515466141
12 13 10 11 12.5014 10.5 0.0821507334833
12 13 11 12 12.51136 11.5 0.202401460006
12 13 12 13 12.50041 12.5 -0.0409952885356
12 13 13 14 12.52614 13.5 -0.0508857839098
12 13 14 15 12.50855 14.5 -0.350503952407
12 13 15 16 12.49934 15.5 -0.190575094138
12 13 16 17 12.50026 16.5 -0.0739184174418
12 13 17 18 12.50995 17.5 0.0659231843037
12 13 18 19 12.51241 18.5 0.0130395339216
12 13 19 20 12.50771 19.5 -0.2708462181
13 14 -20 -19 13.50284 -19.5 0.0389623925832
13 14 -19 -18 13.52418 -18.5 0.0830512712527
13 14 -18 -17 13.5042 -17.5 0.0525550394002
13 14 -17 -16 13.50853 -16.5 -0.0167242348964
13 14 -16 -15 13.49412 -15.5 0.0355688759781
13 14 -15 -14 13.48339 -14.5 -0.0406794640037
13 14 -14 -13 13.51195 -13.5 0.35693926261
13 14 -13 -12 13.51153 -12.5 -0.198711870399
13 14 -12 -11 13.49749 -11.5 -0.0644917396571
13 14 -11 -10 13.5053 -10.5 0.183611576745
13 14 -10 -9 13.50032 -9.5 -0.0615094875497
13 14 -9 -8 13.49135 -8.5 0.562961866618
13 14 -8 -7 13.50864 -7.5 0.209485060037
13 14 -7 -6 13.52254 -6.5 -0.070833738257
13 14 -6 -5 13.49447 -5.5 -0.241531193022
13 14 -5 -4 13.51196 -4.5 0.0618748751943
13 14 -4 -3 13.51239 -3.5 0.0356339724643
13 14 -3 -2 13.49816 -2.5 0.0314620940543
13 14 -2 -1 13.50151 -1.5 -0.0228420351067
13 14 -1 0 13.50436 -0.5 -0.285167753463
13 14 0 1 13.50708 0.5 -0.190414997933
13 14 1 2 13.49933 1.5 0.130864377443
13 14 2 3 13.49709 2.5 -0.210095303861
13 14 3 4 13.49032 3.5 -0.121578320786
13 14 4 5 13.48301 4.5 0.0620054580879
13 14 5 6 13.49861 5.5 0.0874882956629
13 14 6 7 13.50347 6.5 0.202563000249
13 14 7 8 13.50427 7.5 -0.0304004582366
13 14 8 9 13.50072 8.5 0.140847671263
13 14 9 10 13.50626 9.5 0.0146613066638
13 14 10 11 13.51576 10.5 -0.212015108175
13 14 11 12 13.5075 11.5 0.139111148861
13 14 12 13 13.50712 12.5 0.045406412696
13 14 13 14 13.50797 13.5 0.0810020938736
13 14 14 15 13.50311 14.5 -0.108358884516
13 14 15 16 13.50447 15.5 -0.0300772963017
13 14 16 17 13.49534 16.5 -0.0680658559305
13 14 17 18 13.50609 17.5 0.00940732961883
13 14 18 19 13.50648 18.5 -0.0386441788469
13 14 19 20 13.51171 19.5 -0.055668980094
14 15 -20 -19 14.51147 -19.5 -0.191511967957
14 15 -19 -18 14.48916 -18.5 -0.0235147741953
14 15 -18 -17 14.50346 -17.5 -0.0364420895147
14 15 -17 -16 14.51529 -16.5 0.0416397067091
14 15 -16 -15 14.50105 -15.5 0.0256686825661
14 15 -15 -14 14.49888 -14.5 0.011560427823
14 15 -14 -13 14.5037 -13.5 0.10144742632
14 15 -13 -12 14.51204 -12.5 0.00545805745888
14 15 -12 -11 14.51031 -11.5 0.0878280553581
14 15 -11 -10 14.52559 -10.5 -0.267909091424
14 15 -10 -9 14.4988 -9.5 0.281578219979
14 15 -9 -8 14.49604 -8.5 0.195081040473
14 15 -8 -7 14.49968 -7.5 -0.13291455107
14 15 -7 -6 14.50429 -6.5 -0.325247796421
14 15 -6 -5 14.50703 -5.5 0.10218480028
14 15 -5 -4 14.51262 -4.5 0.0347909168863
14 15 -4 -3 14.51803 -3.5 0.0235432474013
14 15 -3 -2 14.51128 -2.5 0.0351488482682
14 15 -2 -1 14.50154 -1.5 -0.203745585273
14 15 -1 0 14.50165 -0.5 -0.00702593611293
14 15 0 1 14.51207 0.5 0.135238858497
14 15 1 2 14.50782 1.5 0.0498591424409
14 15 2 3 14.50593 2.5 0.165667919154
14 15 3 4 14.50668 3.5 0.0653512393594
14 15 4 5 14.50585 4.5 0.0958945658474
14 15 5 6 14.50195 5.5 -0.0927875522775
14 15 6 7 14.49995 6.5 0.225525000667
14 15 7 8 14.50168 7.5 -0.285123570876
14 15 8 9 14.51929 8.5 0.106078537192
14 15 9 10 14.50083 9.5 -0.00206037202872
14 15 10 11 14.49599 10.5 -0.29521246919
14 15 11 12 14.51449 11.5 0.0985309212198
14 15 12 13 14.51284 12.5 -0.179934176869
14 15 13 14 14.50167 13.5 0.0202064158269
14 15 14 15 14.49415 14.5 -0.0250435153495
14 15 15 16 14.49867 15.5 0.13746561597
14 15 16 17 14.50892 16.5 0.0506611860094
14 15 17 18 14.48422 17.5 -0.156239174994
14 15 18 19 14.48685 18.5 -0.278915112946
14 15 19 20 14.51503 19.5 0.0741099343546
15 16 -20 -19 15.53094 -19.5 -0.302341007504
15 16 -19 -18 15.51761 -18.5 0.0518028839612
15 16 -18 -17 15.51594 -17.5 0.13501146759
15 16 -17 -16 15.50768 -16.5 0.0681730832046
15 16 -16 -15 15.51268 -15.5 -0.207491181868
15 16 -15 -14 15.49493 -14.5 -0.188113877157
15 16 -14 -13 15.50119 -13.5 -0.236266447463
15 16 -13 -12 15.51004 -12.5 -0.23790733594
15 16 -12 -11 15.50651 -11.5 -0.319824489865
15 16 -11 -10 15.51129 -10.5 0.092979091169
15 16 -10 -9 15.50459 -9.5 -0.0558615627402
15 16 -9 -8 15.50302 -8.5 -0.151870677516
15 16 -8 -7 15.51268 -7.5 0.057697447068
15 16 -7 -6 15.51142 -6.5 0.153189594587
15 16 -6 -5 15.49736 -5.5 0.117910293755
15 16 -5 -4 15.49976 -4.5 0.353351335869
15 16 -4 -3 15.51024 -3.5 0.309913990567
15 16 -3 -2 15.50531 -2.5 0.0353339916524
15 16 -2 -1 15.50022 -1.5 -0.068036373885
15 16 -1 0 15.48857 -0.5 0.0287087249175
15 16 0 1 15.50302 0.5 -0.158778640459
15 16 1 2 15.49917 1.5 -0.038051895127
15 16 2 3 15.51383 2.5 0.125058033251
15 16 3 4 15.49877 3.5 -0.204291075148
15 16 4 5 15.49313 4.5 -0.0772593592147
15 16 5 6 15.51443 5.5 -0.0562207638957
15 16 6 7 15.50493 6.5 0.0625906112112
15 16 7 8 15.51615 7.5 -0.0475863559986
15 16 8 9 15.50476 8.5 -0.0145296400219
15 16 9 10 15.50658 9.5 -0.174210042172
15 16 10 11 15.50717 10.5 -0.14860817842
15 16 11 12 15.50466 11.5 0.184012337552
15 16 12 13 15.4985 12.5 -0.109954991682
15 16 13 14 15.49263 13.5 -0.0818298577366
15 16 14 15 15.50479 14.5 -0.0209864063033
15 16 15 16 15.48914 15.5 -0.0442141667017
15 16 16 17 15.51534 16.5 -0.134509316897
15 16 17 18 15.48972 17.5 -0.0356375599061
15 16 18 19 15.51525 18.5 0.0296400069227
15 16 19 20 15.51934 19.5 0.123309696827
16 17 -20 -19 16.49205 -19.5 -0.0743012150892
16 17 -19 -18 16.5071 -18.5 -0.0316047391416
16 17 -18 -17 16.47427 -17.5 -0.0334562100911
16 17 -17 -16 16.49403 -16.5 -0.0837934220434
16 17 -16 -15 16.51589 -15.5 -0.0128872644571
16 17 -15 -14 16.50712 -14.5 -0.00922128732636
16 17 -14 -13 16.49624 -13.5 -0.13123898755
16 17 -13 -12 16.51021 -12.5 0.0705815286444
16 17 -12 -11 16.5051 -11.5 -0.0204952425815
16 17 -11 -10 16.50035 -10.5 0.123630433712
16 17 -10 -9 16.50822 -9.5 -0.0115294228032
16 17 -9 -8 16.50743 -8.5 -0.0511626456383
16 17 -8 -7 16.51256 -7.5 0.0691393200811
16 17 -7 -6 16.49301 -6.5 -0.024212685041
16 17 -6 -5 16.49036 -5.5 -0.0397030837175
16 17 -5 -4 16.50636 -4.5 0.275645085693
16 17 -4 -3 16.50733 -3.5 -0.167110561942
16 17 -3 -2 16.50026 -2.5 0.0262543184606
16 17 -2 -1 16.51252 -1.5 -0.0422568929808
16 17 -1 0 16.49749 -0.5 -0.259837973002
16 17 0 1 16.48985 0.5 0.00135570712442
16 17 1 2 16.5032 1.5 0.0199989604337
16 17 2 3 16.49027 2.5 -0.109381428094
16 17 3 4 16.49543 3.5 -0.200034145009
16 17 4 5 16.50015 4.5 -0.00077316703472
16 17 5 6 16.49665 5.5 -0.0338768148373
16 17 6 7 16.50262 6.5 -0.0499589522396
16 17 7 8 16.51581 7.5 -0.000481365882862
16 17 8 9 16.49716 8.5 0.337784812346
16 17 9 10 16.52243 9.5 0.0617035903625
16 17 10 11 16.50139 10.5 0.176410908513
16 17 11 12 16.49159 11.5 -0.29562178957
16 17 12 13 16.49457 12.5 -0.015863554536
16 17 13 14 16.50008 13.5 -0.386539283263
16 17 14 15 16.52399 14.5 -0.0354241320843
16 17 15 16 16.51732 15.5 0.0500982521549
16 17 16 17 16.50335 16.5 0.255214904296
16 17 17 18 16.48871 17.5 -0.15649028461
16 17 18 19 16.50135 18.5 0.0495905939173
16 17 19 20 16.50666 19.5 0.0563922667899
17 18 -20 -19 17.5052 -19.5 0.0794866425444
17 18 -19 -18 17.5071 -18.5 -0.0728628442414
17 18 -18 -17 17.50637 -17.5 0.0776357849499
17 18 -17 -16 17.50957 -16.5 -0.0281655331034
17 18 -16 -15 17.50775 -15.5 -0.210717347997
17 18 -15 -14 17.50117 -14.5 -0.0152254466101
17 18 -14 -13 17.50223 -13.5 0.0884850677435
17 18 -13 -12 17.50559 -12.5 -0.0262932355101
17 18 -12 -11 17.48861 -11.5 0.288322412901
17 18 -11 -10 17.51484 -10.5 -0.186722057907
17 18 -10 -9 17.49942 -9.5 0.125107925345
17 18 -9 -8 17.50996 -8.5 -0.160827735116
17 18 -8 -7 17.5078 -7.5 -0.0682488277737
17 18 -7 -6 17.49573 -6.5 -0.0193685507218
17 18 -6 -5 17.52034 -5.5 -0.390598050794
17 18 -5 -4 17.51907 -4.5 0.134819174915
17 18 -4 -3 17.50682 -3.5 0.118185833284
17 18 -3 -2 17.51417 -2.5 -0.207346740183
17 18 -2 -1 17.50619 -1.5 0.00966563000717
17 18 -1 0 17.50692 -0.5 0.0133740188393
17 18 0 1 17.50177 0.5 0.0235161006958
17 18 1 2 17.50257 1.5 0.0167958740364
17 18 2 3 17.51005 2.5 0.118178712108
17 18 3 4 17.4941 3.5 -0.0113597029336
17 18 4 5 17.49598 4.5 -0.0707773951696
17 18 5 6 17.4927 5.5 -0.117877377877
17 18 6 7 17.48662 6.5 0.0666531013169
17 18 7 8 17.50869 7.5 -0.0505492224156
17 18 8 9 17.50583 8.5 -0.0334872201558
17 18 9 10 17.49497 9.5 0.305865191484
17 18 10 11 17.51474 10.5 -0.151320784853
17 18 11 12 17.517 11.5 -0.251075685251
17 18 12 13 17.51643 12.5 -0.135821636152
17 18 13 14 17.49861 13.5 0.138306264483
17 18 14 15 17.51375 14.5 0.061506992553
17 18 15 16 17.50583 15.5 0.0209477909224
17 18 16 17 17.50864 16.5 -0.121651236098
17 18 17 18 17.4913 17.5 -0.142492922992
17 18 18 19 17.4926 18.5 0.283830814301
17 18 19 20 17.49797 19.5 -0.125990269853
18 19 -20 -19 18.50339 -19.5 -0.0116091544286
18 19 -19 -18 18.52488 -18.5 0.139032113049
18 19 -18 -17 18.49654 -17.5 0.0716611714897
18 19 -17 -16 18.4952 -16.5 -0.167532984747
18 19 -16 -15 18.51154 -15.5 0.216407633465
18 19 -15 -14 18.49422 -14.5 -0.0389466463871
18 19 -14 -13 18.48345 -13.5 -0.212372261161
18 19 -13 -12 18.49377 -12.5 0.0790098634763
18 19 -12 -11 18.50075 -11.5 0.0381576003458
18 19 -11 -10 18.50515 -10.5 -0.0191890707097
18 19 -10 -9 18.49943 -9.5 0.00402444121533
18 19 -9 -8 18.50026 -8.5 0.292984851364
18 19 -8 -7 18.49098 -7.5 -0.14888728088
18 19 -7 -6 18.49392 -6.5 0.156382648269
18 19 -6 -5 18.51853 -5.5 0.348637119816
18 19 -5 -4 18.5063 -4.5 -0.0636283777533
18 19 -4 -3 18.49776 -3.5 0.0199834374108
18 19 -3 -2 18.49133 -2.5 -0.129758496326
18 19 -2 -1 18.51171 -1.5 -0.356776372755
18 19 -1 0 18.49886 -0.5 -0.159666401962
18 19 0 1 18.50821 0.5 -0.130103511102
18 19 1 2 18.4922 1.5 -0.0822974549165
18 19 2 3 18.50254 2.5 0.231327191954
18 19 3 4 18.49936 3.5 0.0569892592617
18 19 4 5 18.50161 4.5 0.582495180263
18 19 5 6 18.50568 5.5 0.105712276551
18 19 6 7 18.50091 6.5 0.0611495087959
18 19 7 8 18.50669 7.5 -0.170825252545
18 19 8 9 18.50103 8.5 0.12653348834
18 19 9 10 18.50525 9.5 0.00820570044284
18 19 10 11 18.50925 10.5 0.0747747930784
18 19 11 12 18.49569 11.5 0.0649187447356
18 19 12 13 18.51654 12.5 -0.088328025974
18 19 13 14 18.50428 13.5 0.0616104221905
18 19 14 15 18.50185 14.5 -0.0223688671645
18 19 15 16 18.50453 15.5 0.0799496444995
18 19 16 17 18.50728 16.5 -0.041614910106
18 19 17 18 18.50835 17.5 -0.0716161815944
18 19 18 19 18.51664 18.5 0.0576381165417
18 19 19 20 18.51122 19.5 0.0320538484576
19 20 -20 -19 19.51677 -19.5 -0.0630706423818
19 20 -19 -18 19.49812 -18.5 -0.0234242289799
19 20 -18 -17 19.50438 -17.5 0.222358002569
19 20 -17 -16 19.50289 -16.5 0.311804694277
19 20 -16 -15 19.49514 -15.5 -0.165910160739
19 20 -15 -14 19.51539 -14.5 -0.165179749186
19 20 -14 -13 19.49174 -13.5 -0.0212305193284
19 20 -13 -12 19.51391 -12.5 0.0374864736299
19 20 -12 -11 19.51322 -11.5 0.367062938959
19 20 -11 -10 19.49319 -10.5 0.0726901333306
19 20 -10 -9 19.49693 -9.5 -0.0118728677904
19 20 -9 -8 19.50326 -8.5 0.0250630407097
19 20 -8 -7 19.49987 -7.5 -0.19085838807
19 20 -7 -6 19.50143 -6.5 0.12709572798
19 20 -6 -5 19.4903 -5.5 0.0280364785856
19 20 -5 -4 19.50648 -4.5 0.00890239411149
19 20 -4 -3 19.51349 -3.5 0.127680330896
19 20 -3 -2 19.50477 -2.5 -0.0469028963699
19 20 -2 -1 19.49181 -1.5 0.373382252903
19 20 -1 0 19.51249 -0.5 0.00640954240433
19 20 0 1 19.49789 0.5 0.162514436622
19 20 1 2 19.51383 1.5 -0.139150058561
19 20 2 3 19.49556 2.5 -0.0632445773641
19 20 3 4 19.50402 3.5 -0.0929702488371
19 20 4 5 19.49904 4.5 0.0819865397054
19 20 5 6 19.49811 5.5 -0.0516806475199
19 20 6 7 19.50737 6.5 -0.14214563356
19 20 7 8 19.50376 7.5 -0.147881209808
19 20 8 9 19.50542 8.5 0.0355004357062
19 20 9 10 19.50837 9.5 -0.0970342401534
19 20 10 11 19.5079 10.5 0.0133066293356
19 20 11 12 19.5004 11.5 0.062676809061
19 20 12 13 19.50873 12.5 0.163159961414
19 20 13 14 19.51507 13.5 0.011571973711
19 20 14 15 19.50142 14.5 -0.0426596256803
19 20 15 16 19.5059 15.5 0.390127406749
19 20 16 17 19.51791 16.5 0.00854180486397
19 20 17 18 19.50512 17.5 0.0389672113159
19 20 18 19 19.50055 18.5 -0.216434573903
19 20 19 20 19.50669 19.5 -0.150046117302
20 21 -20 -19 20.50686 -19.5 0.0440642965122
20 21 -19 -18 20.5026 -18.5 -0.106536165367
20 21 -18 -17 20.5046 -17.5 -0.103312871748
20 21 -17 -16 20.50159 -16.5 -0.0419640891563
20 21 -16 -15 20.51235 -15.5 0.151155222378
20 21 -15 -14 20.50842 -14.5 -0.0313295402501
20 21 -14 -13 20.49753 -13.5 -0.0929949518865
20 21 -13 -12 20.50602 -12.5 -0.158096705774
20 21 -12 -11 20.51235 -11.5 0.152477959565
20 21 -11 -10 20.50225 -10.5 0.0739392449351
20 21 -10 -9 20.50247 -9.5 -0.0231383047186
20 21 -9 -8 20.50191 -8.5 0.0509514285306
20 21 -8 -7 20.51174 -7.5 -0.075421024878
20 21 -7 -6 20.50695 -6.5 -0.0584909584416
20 21 -6 -5 20.49982 -5.5 0.147346918654
20 21 -5 -4 20.49723 -4.5 -0.11904545106
20 21 -4 -3 20.51016 -3.5 0.0458141929668
20 21 -3 -2 20.50219 -2.5 -0.184115821279
20 21 -2 -1 20.50607 -1.5 0.0485806441142
20 21 -1 0 20.50086 -0.5 0.120217914408
20 21 0 1 20.51138 0.5 0.109903502568
20 21 1 2 20.51143 1.5 0.226453839769
20 21 2 3 20.50045 2.5 -0.113053555192
20 21 3 4 20.50592 3.5 -0.220879955809
20 21 4 5 20.50537 4.5 0.00102146627795
20 21 5 6 20.50694 5.5 -0.12794490266
20 21 6 7 20.50554 6.5 0.0646793666146
20 21 7 8 20.50479 7.5 0.173135229652
20 21 8 9 20.5184 8.5 -0.110663700987
20 21 9 10 20.49367 9.5 -0.00598407901252
20 21 10 11 20.50294 10.5 -0.0940832605381
20 21 11 12 20.50919 11.5 -0.0343197341912
20 21 12 13 20.51424 12.5 0.117626653225
20 21 13 14 20.50331 13.5 0.10818576621
20 21 14 15 20.50296 14.5 0.0708614639351
20 21 15 16 20.49191 15.5 0.127303310929
20 21 16 17 20.50219 16.5 0.0758457686626
20 21 17 18 20.49971 17.5 -0.0419310142115
20 21 18 19 20.51167 18.5 -0.0783855905915
20 21 19 20 20.50767 19.5 0.0815942639072
21 22 -20 -19 21.50473 -19.5 0.0803317568358
21 22 -19 -18 21.50205 -18.5 0.0188213166997
21 22 -18 -17 21.49057 -17.5 0.0797665109163
21 22 -17 -16 21.516 -16.5 0.103697428032
21 22 -16 -15 21.50725 -15.5 -0.0826068130104
21 22 -15 -14 21.50106 -14.5 0.230576409026
21 22 -14 -13 21.49899 -13.5 0.0897021623872
21 22 -13 -12 21.50277 -12.5 -0.110417772846
21 22 -12 -11 21.50956 -11.5 0.0029210819832
21 22 -11 -10 21.51191 -10.5 0.118883169271
21 22 -10 -9 21.50706 -9.5 -0.100819128374
21 22 -9 -8 21.49641 -8.5 -0.131096913966
21 22 -8 -7 21.49945 -7.5 -0.0179252937936
21 22 -7 -6 21.49092 -6.5 0.111535277885
21 22 -6 -5 21.49275 -5.5 0.00301982805148
21 22 -5 -4 21.48694 -4.5 -0.081069944935
21 22 -4 -3 21.51 -3.5 0.00797900550631
21 22 -3 -2 21.49694 -2.5 0.0200241716036
21 22 -2 -1 21.49481 -1.5 -0.0452712997194
21 22 -1 0 21.49557 -0.5 0.121173199846
21 22 0 1 21.49191 0.5 0.0428795577152
21 22 1 2 21.4989 1.5 -0.225474681387
21 22 2 3 21.50001 2.5 0.0103803027291
21 22 3 4 21.50278 3.5 -0.0524823212763
21 22 4 5 21.50375 4.5 0.049969620575
21 22 5 6 21.51349 5.5 -0.0410520774328
21 22 6 7 21.5084 6.5 -0.0117263278829
21 22 7 8 21.50521 7.5 -0.0889483460959
21 22 8 9 21.50358 8.5 0.237766741198
21 22 9 10 21.49905 9.5 -0.0489752901895
21 22 10 11 21.50391 10.5 0.0558411968841
21 22 11 12 21.51657 11.5 -0.00332794933359
21 22 12 13 21.50388 12.5 -0.0457793278883
21 22 13 14 21.50385 13.5 -0.113980498573
21 22 14 15 21.49441 14.5 -0.250946857426
21 22 15 16 21.49102 15.5 -0.185033851546
21 22 16 17 21.49871 16.5 0.163968328736
21 22 17 18 21.49327 17.5 -0.0446714395141
21 22 18 19 21.50725 18.5 0.0398581764378
21 22 19 20 21.49562 19.5 0.10143097206
22 23 -20 -19 22.5036 -19.5 0.096636345684
22 23 -19 -18 22.50509 -18.5 0.119064410187
22 23 -18 -17 22.51458 -17.5 -0.0112848992822
22 23 -17 -16 22.50576 -16.5 0.0219970187739
22 23 -16 -15 22.49882 -15.5 -0.0642837364385
22 23 -15 -14 22.49345 -14.5 -0.00938520694551
22 23 -14 -13 22.4973 -13.5 0.112542421966
22 23 -13 -12 22.50932 -12.5 -0.0586182155423
22 23 -12 -11 22.5005 -11.5 0.0622540579321
22 23 -11 -10 22.51415 -10.5 0.0428134062408
22 23 -10 -9 22.50352 -9.5 0.112510216263
22 23 -9 -8 22.49735 -8.5 0.021169714325
22 23 -8 -7 22.50285 -7.5 0.138011399716
22 23 -7 -6 22.49624 -6.5 0.0546718034529
22 23 -6 -5 22.50485 -5.5 -0.00539910926329
22 23 -5 -4 22.49941 -4.5 0.110015913356
22 23 -4 -3 22.50451 -3.5 0.166046171805
22 23 -3 -2 22.48723 -2.5 -0.145605414895
22 23 -2 -1 22.49727 -1.5 0.0402831094738
22 23 -1 0 22.50849 -0.5 -0.0575729624597
22 23 0 1 22.50318 0.5 -0.0817579211312
22 23 1 2 22.49918 1.5 -0.066549145869
22 23 2 3 22.50101 2.5 -0.0654582899222
22 23 3 4 22.49332 3.5 -0.0507463967821
22 23 4 5 22.50949 4.5 -0.0253050614326
22 23 5 6 22.49077 5.5 0.158339010332
22 23 6 7 22.48735 6.5 -0.133529976218
22 23 7 8 22.50472 7.5 0.210527175063
22 23 8 9 22.51145 8.5 0.0577258684165
22 23 9 10 22.4988 9.5 -0.204515382073
22 23 10 11 22.505 10.5 -0.13716461403
22 23 11 12 22.50489 11.5 0.087617209836
22 23 12 13 22.499 12.5 -0.00953947682765
22 23 13 14 22.49048 13.5 -0.0502958976095
22 23 14 15 22.5023 14.5 0.0854425358052
22 23 15 16 22.4956 15.5 -0.0945326811391
22 23 16 17 22.50106 16.5 0.0840375059063
22 23 17 18 22.49082 17.5 0.210599597074
22 23 18 19 22.49431 18.5 0.100870663526
22 23 19 20 22.50033 19.5 -0.0706235276316
23 24 -20 -19 23.49784 -19.5 0.227263647628
23 24 -19 -18 23.49331 -18.5 -0.0825582622775
23 24 -18 -17 23.51381 -17.5 -0.0477413254654
23 24 -17 -16 23.51517 -16.5 -0.118402403831
23 24 -16 -15 23.51397 -15.5 0.0735495909637
23 24 -15 -14 23.49738 -14.5 -0.248070829687
23 24 -14 -13 23.50437 -13.5 -0.11219137694
23 24 -13 -12 23.49819 -12.5 0.0146158360516
23 24 -12 -11 23.50075 -11.5 -0.0531852332068
23 24 -11 -10 23.50857 -10.5 0.0343228040384
23 24 -10 -9 23.49477 -9.5 -0.0754423607285
23 24 -9 -8 23.50439 -8.5 0.150370210247
23 24 -8 -7 23.50343 -7.5 -0.0221442653928
23 24 -7 -6 23.49032 -6.5 0.119134349093
23 24 -6 -5 23.4923 -5.5 0.0720534008523
23 24 -5 -4 23.50151 -4.5 0.0270675286658
23 24 -4 -3 23.4864 -3.5 0.0527976260491
23 24 -3 -2 23.49265 -2.5 0.0198484116469
23 24 -2 -1 23.51717 -1.5 -0.102238411141
23 24 -1 0 23.50897 -0.5 0.00596853535796
23 24 0 1 23.50173 0.5 0.0264940126206
23 24 1 2 23.50558 1.5 -0.0406591691215
23 24 2 3 23.50047 2.5 0.00475627018516
23 24 3 4 23.49713 3.5 -0.00144485173977
23 24 4 5 23.51026 4.5 -0.317488631435
23 24 5 6 23.49494 5.5 -0.0828587483961
23 24 6 7 23.50209 6.5 -0.180912979646
23 24 7 8 23.49345 7.5 0.0257024868144
23 24 8 9 23.50354 8.5 0.108950516578
23 24 9 10 23.49514 9.5 -0.00998316631155
23 24 10 11 23.49385 10.5 -0.278264420227
23 24 11 12 23.50752 11.5 0.0878549201816
23 24 12 13 23.51285 12.5 -0.0857523465587
23 24 13 14 23.49621 13.5 -0.221419817781
23 24 14 15 23.50573 14.5 0.106298900124
23 24 15 16 23.51309 15.5 0.0511045068064
23 24 16 17 23.48313 16.5 -0.131755432533
23 24 17 18 23.4904 17.5 -0.130314319387
23 24 18 19 23.49463 18.5 0.0269149415814
23 24 19 20 23.50734 19.5 0.0128974350354
24 25 -20 -19 24.50259 -19.5 0.0503142692246
24 25 -19 -18 24.49598 -18.5 -0.122623166889
24 25 -18 -17 24.48845 -17.5 0.147907545931
24 25 -17 -16 24.50091 -16.5 0.0549943347415
24 25 -16 -15 24.51632 -15.5 0.00530741290058
24 25 -15 -14 24.48707 -14.5 -0.228004453735
24 25 -14 -13 24.50889 -13.5 0.0757161771719
24 25 -13 -12 24.49119 -12.5 0.203054199794
24 25 -12 -11 24.49172 -11.5 0.185321961549
24 25 -11 -10 24.51287 -10.5 -0.0953254325696
24 25 -10 -9 24.49788 -9.5 -0.214377356416
24 25 -9 -8 24.49884 -8.5 0.16826871983
24 25 -8 -7 24.50538 -7.5 -0.0514746450321
24 25 -7 -6 24.50298 -6.5 0.00559776519149
24 25 -6 -5 24.49497 -5.5 -0.0512301410947
24 25 -5 -4 24.50645 -4.5 0.111332094195
24 25 -4 -3 24.51113 -3.5 0.112745990369
24 25 -3 -2 24.51411 -2.5 0.116382182981
24 25 -2 -1 24.50939 -1.5 0.0246427663044
24 25 -1 0 24.49921 -0.5 -0.117770264195
24 25 0 1 24.50176 0.5 0.0324527565223
24 25 1 2 24.49462 1.5 -0.114562701757
24 25 2 3 24.49939 2.5 -0.0998635012259
24 25 3 4 24.49227 3.5 -0.14245726787
24 25 4 5 24.50743 4.5 0.0452854160223
24 25 5 6 24.49752 5.5 0.136427897675
24 25 6 7 24.50774 6.5 -0.153037443066
24 25 7 8 24.49896 7.5 0.112981890032
24 25 8 9 24.48893 8.5 -0.0768735057551
24 25 9 10 24.50005 9.5 -0.130457755319
24 25 10 11 24.50506 10.5 0.100228125435
24 25 11 12 24.50137 11.5 -0.0925584834328
24 25 12 13 24.50002 12.5 0.185593871179
24 25 13 14 24.51451 13.5 -0.215951185708
24 25 14 15 24.50677 14.5 -0.0327007478296
24 25 15 16 24.51132 15.5 -0.0920269572883
24 25 16 17 24.49972 16.5 -0.0138182642913
24 25 17 18 24.49525 17.5 -0.0832127679571
24 25 18 19 24.50253 18.5 -0.0169978191687
24 25 19 20 24.50385 19.5 -0.035869162871
25 26 -20 -19 25.50094 -19.5 0.0837510642001
25 26 -19 -18 25.49152 -18.5 0.129556392556
25 26 -18 -17 25.50856 -17.5 0.1721886333
25 26 -17 -16 25.4948 -16.5 0.0253618144442
25 26 -16 -15 25.51403 -15.5 0.0873737868836
25 26 -15 -14 25.4909 -14.5 -0.141962432634
25 26 -14 -13 25.50221 -13.5 0.0291699673172
25 26 -13 -12 25.49283 -12.5 0.070757631616
25 26 -12 -11 25.50511 -11.5 -0.159146676146
25 26 -11 -10 25.49358 -10.5 -0.0461424185897
25 26 -10 -9 25.49701 -9.5 -0.0321228242933
25 26 -9 -8 25.50285 -8.5 -0.00638231502832
25 26 -8 -7 25.51438 -7.5 -0.0840100149061
25 26 -7 -6 25.49714 -6.5 0.160030595598
25 26 -6 -5 25.50693 -5.5 0.114004920846
25 26 -5 -4 25.51823 -4.5 -0.20944061978
25 26 -4 -3 25.51209 -3.5 -0.183600958308
25 26 -3 -2 25.50379 -2.5 -0.0562958024963
25 26 -2 -1 25.49946 -1.5 -0.16210492988
25 26 -1 0 25.48389 -0.5 0.0710830209721
25 26 0 1 25.50439 0.5 -0.102471332098
25 26 1 2 25.51866 1.5 0.115589226921
25 26 2 3 25.50474 2.5 0.0720102710731
25 26 3 4 25.49999 3.5 -0.209449126351
25 26 4 5 25.50141 4.5 -0.119639901182
25 26 5 6 25.49682 5.5 -0.211452437092
25 26 6 7 25.5118 6.5 -0.110528141828
25 26 7 8 25.50146 7.5 0.00830142413472
25 26 8 9 25.49838 8.5 -0.0654726206742
25 26 9 10 25.51631 9.5 0.103104100516
25 26 10 11 25.488 10.5 -0.048135684204
25 26 11 12 25.50711 11.5 -0.0866277405575
25 26 12 13 25.50216 12.5 0.0357960869361
25 26 13 14 25.51367 13.5 0.0858472228629
25 26 14 15 25.49072 14.5 -0.0830590880693
25 26 15 16 25.50916 15.5 -0.00724682199584
25 26 16 17 25.51194 16.5 0.0246566823093
25 26 17 18 25.49887 17.5 0.0324448072659
25 26 18 19 25.49054 18.5 -0.191373800108
25 26 19 20 25.50512 19.5 0.082833334543
26 27 -20 -19 26.49707 -19.5 0.0545564193632
26 27 -19 -18 26.50721 -18.5 -0.190999888455
26 27 -18 -17 26.48493 -17.5 0.0975164757558
26 27 -17 -16 26.51163 -16.5 -0.22223897127
26 27 -16 -15 26.4971 -15.5 -0.0736272773133
26 27 -15 -14 26.50391 -14.5 0.0401660681598
26 27 -14 -13 26.5017 -13.5 0.166800265223
26 27 -13 -12 26.51679 -12.5 0.0352758761805
26 27 -12 -11 26.49223 -11.5 0.0986494779425
26 27 -11 -10 26.51247 -10.5 -0.168424541914
26 27 -10 -9 26.49787 -9.5 -0.259245644286
26 27 -9 -8 26.49809 -8.5 0.0334929159906
26 27 -8 -7 26.49694 -7.5 0.0354334731683
26 27 -7 -6 26.50635 -6.5 0.210304582442
26 27 -6 -5 26.50917 -5.5 0.00648552497446
26 27 -5 -4 26.51091 -4.5 0.104459984264
26 27 -4 -3 26.51036 -3.5 -0.113623822248
26 27 -3 -2 26.50099 -2.5 -0.142790153232
26 27 -2 -1 26.50513 -1.5 0.153572406178
26 27 -1 0 26.49541 -0.5 -0.0623813137262
26 27 0 1 26.49343 0.5 -0.00443610197127
26 27 1 2 26.49642 1.5 -0.0102055953446
26 27 2 3 26.5142 2.5 -0.077980907168
26 27 3 4 26.5069 3.5 -0.19197746807
26 27 4 5 26.49552 4.5 0.198092508276
26 27 5 6 26.50628 5.5 -0.151973523045
26 27 6 7 26.49645 6.5 0.129634786787
26 27 7 8 26.49973 7.5 -0.180979989625
26 27 8 9 26.50536 8.5 0.029868705796
26 27 9 10 26.50196 9.5 0.146243612822
26 27 10 11 26.50888 10.5 0.0721373030058
26 27 11 12 26.5021 11.5 -0.110865113333
26 27 12 13 26.49674 12.5 -0.0685984983175
26 27 13 14 26.49965 13.5 -0.0933743427072
26 27 14 15 26.4964 14.5 -0.0529509476867
26 27 15 16 26.50275 15.5 -0.039234770293
26 27 16 17 26.48887 16.5 0.0406877700881
26 27 17 18 26.50716 17.5 0.00901203687546
26 27 18 19 26.49468 18.5 0.37435689019
26 27 19 20 26.50522 19.5 0.0224409904079
27 28 -20 -19 27.50431 -19.5 0.0394410748483
27 28 -19 -18 27.50833 -18.5 -0.103378787975
27 28 -18 -17 27.49551 -17.5 0.340779697098
27 28 -17 -16 27.50343 -16.5 0.175406037503
27 28 -16 -15 27.50881 -15.5 0.122258570957
27 28 -15 -14 27.49621 -14.5 -0.231862817732
27 28 -14 -13 27.49831 -13.5 -0.20968030458
27 28 -13 -12 27.49 -12.5 -0.0584267644244
27 28 -12 -11 27.50163 -11.5 0.15121900345
27 28 -11 -10 27.50113 -10.5 -0.106760012112
27 28 -10 -9 27.5063 -9.5 -0.175639733127
27 28 -9 -8 27.50084 -8.5 -0.0276574133163
27 28 -8 -7 27.51122 -7.5 -0.070522421426
27 28 -7 -6 27.51023 -6.5 -0.0789796146589
27 28 -6 -5 27.50052 -5.5 0.262746446277
27 28 -5 -4 27.49665 -4.5 0.13123853376
27 28 -4 -3 27.5007 -3.5 0.140626644465
27 28 -3 -2 27.49253 -2.5 -0.0161097819658
27 28 -2 -1 27.50218 -1.5 -0.0425324791506
27 28 -1 0 27.49612 -0.5 -0.0872517539084
27 28 0 1 27.5071 0.5 -0.0867224671165
27 28 1 2 27.50242 1.5 0.0709690535732
27 28 2 3 27.50183 2.5 0.0829825624929
27 28 3 4 27.50101 3.5 0.0411972423779
27 28 4 5 27.51011 4.5 -0.117415007648
27 28 5 6 27.50555 5.5 -0.0206651446808
27 28 6 7 27.5155 6.5 -0.00574380418835
27 28 7 8 27.50111 7.5 0.252451425229
27 28 8 9 27.50733 8.5 0.0511617955008
27 28 9 10 27.49695 9.5 0.0889794344579
27 28 10 11 27.49634 10.5 0.00988421309514
27 28 11 12 27.49589 11.5 -0.0536123624191
27 28 12 13 27.49899 12.5 -0.165817913395
27 28 13 14 27.50436 13.5 0.0537451333461
27 28 14 15 27.49743 14.5 0.0681611621504
27 28 15 16 27.51348 15.5 0.0341762536913
27 28 16 17 27.51018 16.5 0.0199003382476
27 28 17 18 27.51463 17.5 -0.0697420024969
27 28 18 19 27.50477 18.5 0.342073963971
27 28 19 20 27.49041 19.5 0.00363603990718
28 29 -20 -19 28.49726 -19.5 0.00749111904832
28 29 -19 -18 28.48805 -18.5 -0.12042172726
28 29 -18 -17 28.48914 -17.5 0.184264547318
28 29 -17 -16 28.50759 -16.5 0.0932447736971
28 29 -16 -15 28.49741 -15.5 -0.153654717497
28 29 -15 -14 28.49993 -14.5 -0.125868927388
28 29 -14 -13 28.51424 -13.5 -0.0179039067639
28 29 -13 -12 28.50072 -12.5 -0.201022533887
28 29 -12 -11 28.48904 -11.5 -0.101137308408
28 29 -11 -10 28.51185 -10.5 0.033228669508
28 29 -10 -9 28.50782 -9.5 0.0971134129617
28 29 -9 -8 28.50339 -8.5 -0.0686329218756
28 29 -8 -7 28.50027 -7.5 -0.0119275958363
28 29 -7 -6 28.50341 -6.5 -0.0492396649652
28 29 -6 -5 28.4849 -5.5 0.0267243608231
28 29 -5 -4 28.51107 -4.5 -0.0931838220521
28 29 -4 -3 28.51536 -3.5 -0.18993833973
28 29 -3 -2 28.4908 -2.5 -0.115250048054
28 29 -2 -1 28.51092 -1.5 -0.194699262321
28 29 -1 0 28.49949 -0.5 -0.112700145418
28 29 0 1 28.5089 0.5 -0.0844233203049
28 29 1 2 28.50299 1.5 0.0275885779613
28 29 2 3 28.49958 2.5 -0.072937561919
28 29 3 4 28.49901 3.5 -0.0997715986413
28 29 4 5 28.5039 4.5 0.109309921894
28 29 5 6 28.50458 5.5 0.00753176094737
28 29 6 7 28.50161 6.5 -0.0186641137832
28 29 7 8 28.50378 7.5 -0.124261474504
28 29 8 9 28.49423 8.5 0.0517806368736
28 29 9 10 28.49818 9.5 0.142075837895
28 29 10 11 28.50487 10.5 0.107071579943
28 29 11 12 28.50714 11.5 -0.092799649126
28 29 12 13 28.4936 12.5 -0.178709471772
28 29 13 14 28.49196 13.5 -0.120769381444
28 29 14 15 28.50024 14.5 -0.0155364498073
28 29 15 16 28.49991 15.5 0.0271070082402
28 29 16 17 28.49434 16.5 0.0219286755561
28 29 17 18 28.48879 17.5 0.128682488724
28 29 18 19 28.49732 18.5 0.103459907439
28 29 19 20 28.50489 19.5 0.0641428509052
29 30 -20 -19 29.51421 -19.5 0.298525812042
29 30 -19 -18 29.48215 -18.5 -0.347630529667
29 30 -18 -17 29.50439 -17.5 -0.132441034245
29 30 -17 -16 29.51556 -16.5 -0.132141098191
29 30 -16 -15 29.49931 -15.5 -0.219680219822
29 30 -15 -14 29.5126 -14.5 0.025371358095
29 30 -14 -13 29.49606 -13.5 0.0753388782617
29 30 -13 -12 29.49957 -12.5 0.15138867388
29 30 -12 -11 29.50225 -11.5 -0.15435194617
29 30 -11 -10 29.50728 -10.5 0.0976414208655
29 30 -10 -9 29.49602 -9.5 0.0743738183916
29 30 -9 -8 29.49725 -8.5 0.107838006384
29 30 -8 -7 29.50934 -7.5 0.0120981522329
29 30 -7 -6 29.49223 -6.5 -0.00140284886053
29 30 -6 -5 29.51249 -5.5 0.110769890166
29 30 -5 -4 29.50153 -4.5 -0.0993808360916
29 30 -4 -3 29.50439 -3.5 -0.034141528741
29 30 -3 -2 29.50767 -2.5 0.054785001157
29 30 -2 -1 29.50106 -1.5 0.0149151048542
29 30 -1 0 29.51305 -0.5 0.0138718905513
29 30 0 1 29.50142 0.5 -0.102982348174
29 30 1 2 29.49459 1.5 -0.256184085993
29 30 2 3 29.51173 2.5 0.0445069206283
29 30 3 4 29.48646 3.5 -0.213229536598
29 30 4 5 29.49354 4.5 0.213967473206
29 30 5 6 29.49736 5.5 0.0823410363469
29 30 6 7 29.51513 6.5 0.0626536450939
29 30 7 8 29.49274 7.5 0.125387395971
29 30 8 9 29.49544 8.5 0.0403461585329
29 30 9 10 29.51039 9.5 0.00468852627087
29 30 10 11 29.50665 10.5 -0.0710135217926
29 30 11 12 29.50613 11.5 -0.0177451064057
29 30 12 13 29.50324 12.5 0.0648904056459
29 30 13 14 29.5049 13.5 0.373324588796
29 30 14 15 29.5022 14.5 0.0148539827142
29 30 15 16 29.49868 15.5 -0.00683249207736
29 30 16 17 29.49452 16.5 -0.00642369200038
29 30 17 18 29.50046 17.5 0.3223816984
29 30 18 19 29.50373 18.5 0.0720451575656
29 30 19 20 29.502 19.5 0.0214130093248
30 31 -20 -19 30.49812 -19.5 -0.114719799086
30 31 -19 -18 30.50872 -18.5 0.000600580630649
30 31 -18 -17 30.50685 -17.5 -0.0175054701873
30 31 -17 -16 30.50314 -16.5 -0.0739612674198
30 31 -16 -15 30.50336 -15.5 0.0504640625017
30 31 -15 -14 30.507 -14.5 -0.169510095087
30 31 -14 -13 30.50748 -13.5 -0.0193663935303
30 31 -13 -12 30.49795 -12.5 -0.122699371304
30 31 -12 -11 30.49727 -11.5 -0.17500704283
30 31 -11 -10 30.49365 -10.5 -0.176345803738
30 31 -10 -9 30.49781 -9.5 0.07932019857
30 31 -9 -8 30.50166 -8.5 -0.0532030880867
30 31 -8 -7 30.49773 -7.5 -0.139576902651
30 31 -7 -6 30.50095 -6.5 -0.0270424565566
30 31 -6 -5 30.49636 -5.5 0.015312872303
30 31 -5 -4 30.50194 -4.5 0.0196032266936
30 31 -4 -3 30.4941 -3.5 0.000181428552062
30 31 -3 -2 30.51307 -2.5 0.0223063361495
30 31 -2 -1 30.50747 -1.5 0.187017917807
30 31 -1 0 30.50127 -0.5 0.0905295121455
30 31 0 1 30.49633 0.5 0.0128521998177
30 31 1 2 30.50503 1.5 0.0821317839203
30 31 2 3 30.50345 2.5 0.146028635702
30 31 3 4 30.51241 3.5 0.0605706931143
30 31 4 5 30.50263 4.5 -0.027895434592
30 31 5 6 30.50957 5.5 0.248017575308
30 31 6 7 30.50828 6.5 0.148261619653
30 31 7 8 30.51296 7.5 -0.0400617164773
30 31 8 9 30.50978 8.5 0.0448056383181
30 31 9 10 30.51417 9.5 0.0605371502089
30 31 10 11 30.50591 10.5 -0.0881465945274
30 31 11 12 30.50312 11.5 -0.0700916620842
30 31 12 13 30.4977 12.5 0.0795064030274
30 31 13 14 30.49704 13.5 0.0756278100932
30 31 14 15 30.49552 14.5 0.16367008514
30 31 15 16 30.51518 15.5 -0.122458901714
30 31 16 17 30.50626 16.5 0.120300360446
30 31 17 18 30.50581 17.5 -0.00853237729001
30 31 18 19 30.50725 18.5 0.010495059789
30 31 19 20 30.51461 19.5 0.0642611117982
31 32 -20 -19 31.5066 -19.5 0.0560731087349
31 32 -19 -18 31.50245 -18.5 -0.227490486029
31 32 -18 -17 31.50192 -17.5 -0.11640510497
31 32 -17 -16 31.50246 -16.5 0.0320545980392
31 32 -16 -15 31.49576 -15.5 -0.103952073253
31 32 -15 -14 31.49985 -14.5 -0.107788773908
31 32 -14 -13 31.50068 -13.5 0.030155520425
31 32 -13 -12 31.50391 -12.5 0.0325010466072
31 32 -12 -11 31.4984 -11.5 0.220765030127
31 32 -11 -10 31.4971 -10.5 0.0546045934125
31 32 -10 -9 31.49774 -9.5 -0.0241930705806
31 32 -9 -8 31.50279 -8.5 0.0835723762405
31 32 -8 -7 31.49846 -7.5 0.141918489043
31 32 -7 -6 31.51374 -6.5 0.0157497530272
31 32 -6 -5 31.50271 -5.5 -0.116526104945
31 32 -5 -4 31.4918 -4.5 0.168822633634
31 32 -4 -3 31.51242 -3.5 0.0851625704721
31 32 -3 -2 31.50143 -2.5 0.0732942964065
31 32 -2 -1 31.49893 -1.5 0.0442818077055
31 32 -1 0 31.49946 -0.5 -0.0631787538963
31 32 0 1 31.50468 0.5 -0.0353438704937
31 32 1 2 31.49372 1.5 0.00581878648147
31 32 2 3 31.5012 2.5 0.0975091946743
31 32 3 4 31.50227 3.5 -0.0309400526734
31 32 4 5 31.4895 4.5 0.0810705542461
31 32 5 6 31.50042 5.5 -0.0487228243514
31 32 6 7 31.50043 6.5 0.00465645948249
31 32 7 8 31.49691 7.5 -0.0205432996103
31 32 8 9 31.49968 8.5 -0.02400960926
31 32 9 10 31.50394 9.5 0.0266943997668
31 32 10 11 31.50521 10.5 -0.052277411842
31 32 11 12 31.50417 11.5 0.0190933603888
31 32 12 13 31.5056 12.5 0.0122185244166
31 32 13 14 31.50161 13.5 0.212441007075
31 32 14 15 31.50171 14.5 -0.0497205682538
31 32 15 16 31.49446 15.5 0.139820797212
31 32 16 17 31.49799 16.5 -0.0795691569508
31 32 17 18 31.4937 17.5 -0.120722765993
31 32 18 19 31.50057 18.5 0.149364354153
31 32 19 20 31.49822 19.5 0.158583954396
32 33 -20 -19 32.49749 -19.5 0.156711733761
32 33 -19 -18 32.50767 -18.5 0.0119142009099
32 33 -18 -17 32.49703 -17.5 -0.0410047838905
32 33 -17 -16 32.5003 -16.5 0.176499459562
32 33 -16 -15 32.50995 -15.5 0.0329224592631
32 33 -15 -14 32.51286 -14.5 0.11270755342
32 33 -14 -13 32.50251 -13.5 0.0459276265901
32 33 -13 -12 32.49901 -12.5 0.071471980056
32 33 -12 -11 32.50642 -11.5 0.0296430712055
32 33 -11 -10 32.49638 -10.5 0.161265837925
32 33 -10 -9 32.50548 -9.5 -0.0825320547886
32 33 -9 -8 32.50104 -8.5 0.0332888433841
32 33 -8 -7 32.50835 -7.5 0.0968273439021
32 33 -7 -6 32.50851 -6.5 0.00615674282063
32 33 -6 -5 32.49812 -5.5 0.215613842967
32 33 -5 -4 32.50823 -4.5 0.166273400421
32 33 -4 -3 32.49805 -3.5 -0.112695143484
32 33 -3 -2 32.49537 -2.5 -0.297881933862
32 33 -2 -1 32.49859 -1.5 0.210965567166
32 33 -1 0 32.49633 -0.5 -0.14335191185
32 33 0 1 32.49688 0.5 -0.0724387139756
32 33 1 2 32.49181 1.5 -0.089600044787
32 33 2 3 32.50022 2.5 0.0600641795718
32 33 3 4 32.51474 3.5 -0.2134318301
32 33 4 5 32.51551 4.5 0.0624772378843
32 33 5 6 32.50479 5.5 -0.0417693584208
32 33 6 7 32.49672 6.5 0.0756652730886
32 33 7 8 32.48966 7.5 -0.0681441424189
32 33 8 9 32.50865 8.5 -0.157077530424
32 33 9 10 32.49828 9.5 0.175987104775
32 33 10 11 32.50572 10.5 0.0332712871107
32 33 11 12 32.50113 11.5 0.00697808518295
32 33 12 13 32.49091 12.5 0.00668595648342
32 33 13 14 32.50577 13.5 -0.121191627873
32 33 14 15 32.49947 14.5 -0.0687668680237
32 33 15 16 32.49288 15.5 0.120571292402
32 33 16 17 32.49393 16.5 -0.255837500789
32 33 17 18 32.50432 17.5 0.0640498718831
32 33 18 19 32.50467 18.5 0.115973698078
32 33 19 20 32.49548 19.5 0.0865014184579
33 34 -20 -19 33.48652 -19.5 0.231890135462
33 34 -19 -18 33.51353 -18.5 -0.0699372960718
33 34 -18 -17 33.48659 -17.5 0.132383156414
33 34 -17 -16 33.49615 -16.5 0.210535380801
33 34 -16 -15 33.49615 -15.5 0.0703814275343
33 34 -15 -14 33.49101 -14.5 0.0172903333353
33 34 -14 -13 33.4993 -13.5 -0.180803382754
33 34 -13 -12 33.50236 -12.5 -0.0443808283847
33 34 -12 -11 33.49585 -11.5 -0.0115547163717
33 34 -11 -10 33.49476 -10.5 -0.152562305333
33 34 -10 -9 33.49042 -9.5 -0.163263579234
33 34 -9 -8 33.50558 -8.5 -0.0653331268728
33 34 -8 -7 33.49667 -7.5 -0.0617424410781
33 34 -7 -6 33.4978 -6.5 -0.0994688186267
33 34 -6 -5 33.49776 -5.5 0.0592511700316
33 34 -5 -4 33.49267 -4.5 -0.228623382344
33 34 -4 -3 33.50477 -3.5 0.327072580222
33 34 -3 -2 33.50411 -2.5 0.00544243290782
33 34 -2 -1 33.49654 -1.5 -0.129376574934
33 34 -1 0 33.48697 -0.5 0.126110605429
33 34 0 1 33.505 0.5 -0.293837061196
33 34 1 2 33.49944 1.5 0.088743003444
33 34 2 3 33.49971 2.5 0.206311193766
33 34 3 4 33.50944 3.5 0.0101310735901
33 34 4 5 33.49769 4.5 -0.146231284405
33 34 5 6 33.49825 5.5 0.145828054724
33 34 6 7 33.50124 6.5 -0.0764565741047
33 34 7 8 33.50254 7.5 -0.0944663390684
33 34 8 9 33.50042 8.5 -0.0289827391865
33 34 9 10 33.49713 9.5 0.106884023501
33 34 10 11 33.4961 10.5 -0.147707958006
33 34 11 12 33.49948 11.5 -0.00764333433737
33 34 12 13 33.48761 12.5 0.124845017531
33 34 13 14 33.49831 13.5 0.139214470905
33 34 14 15 33.50295 14.5 0.0443630514526
33 34 15 16 33.49706 15.5 0.0319750973244
33 34 16 17 33.49651 16.5 0.159243332133
33 34 17 18 33.49225 17.5 -0.0199899882931
33 34 18 19 33.51346 18.5 0.066169609757
33 34 19 20 33.50982 19.5 -0.0400169618171
34 35 -20 -19 34.50598 -19.5 0.069898415293
34 35 -19 -18 34.49165 -18.5 -0.0511123441578
34 35 -18 -17 34.50274 -17.5 0.0743277532035
34 35 -17 -16 34.51189 -16.5 -0.152908016558
34 35 -16 -15 34.50566 -15.5 -0.108289777429
34 35 -15 -14 34.4966 -14.5 -0.0575998649405
34 35 -14 -13 34.49358 -13.5 -0.184575832556
34 35 -13 -12 34.50788 -12.5 -0.0471858182198
34 35 -12 -11 34.50604 -11.5 -0.1110539628
34 35 -11 -10 34.50326 -10.5 -0.215391490701
34 35 -10 -9 34.50655 -9.5 0.220314879244
34 35 -9 -8 34.50364 -8.5 -0.0599803761869
34 35 -8 -7 34.5046 -7.5 0.0526209742755
34 35 -7 -6 34.49128 -6.5 -0.191035755787
34 35 -6 -5 34.51104 -5.5 0.0157971368647
34 35 -5 -4 34.50924 -4.5 -0.161316188989
34 35 -4 -3 34.51004 -3.5 -0.0236673859769
34 35 -3 -2 34.4913 -2.5 0.0487406235633
34 35 -2 -1 34.49822 -1.5 0.0343229044259
34 35 -1 0 34.50196 -0.5 0.0566059070888
34 35 0 1 34.50591 0.5 0.151947001414
34 35 1 2 34.50326 1.5 0.0325363145944
34 35 2 3 34.50727 2.5 0.00772073044649
34 35 3 4 34.49862 3.5 0.102656628218
34 35 4 5 34.51067 4.5 0.278821670099
34 35 5 6 34.50296 5.5 -0.146259409298
34 35 6 7 34.49829 6.5 0.0397573931887
34 35 7 8 34.50986 7.5 -0.0755578443478
34 35 8 9 34.50557 8.5 -0.0198218246667
34 35 9 10 34.49846 9.5 -0.0140762216815
34 35 10 11 34.51584 10.5 0.0846291624107
34 35 11 12 34.50162 11.5 0.0960203675585
34 35 12 13 34.50066 12.5 0.0335222932127
34 35 13 14 34.49811 13.5 -0.113823500606
34 35 14 15 34.51011 14.5 0.12463500152
34 35 15 16 34.49368 15.5 -0.330543957848
34 35 16 17 34.50705 16.5 0.0884514810535
34 35 17 18 34.49504 17.5 -0.146959037969
34 35 18 19 34.48966 18.5 -0.24756726151
34 35 19 20 34.51688 19.5 0.147265985075
35 36 -20 -19 35.51332 -19.5 -0.0847088372609
35 36 -19 -18 35.50203 -18.5 0.287067983503
35 36 -18 -17 35.49871 -17.5 -0.0015134885205
35 36 -17 -16 35.52405 -16.5 -0.203773997726
35 36 -16 -15 35.51016 -15.5 -0.117970844626
35 36 -15 -14 35.49704 -14.5 -0.293971560769
35 36 -14 -13 35.49795 -13.5 0.0273565586544
35 36 -13 -12 35.50013 -12.5 -0.232378385411
35 36 -12 -11 35.50094 -11.5 0.016157442686
35 36 -11 -10 35.4979 -10.5 0.0253478269916
35 36 -10 -9 35.4947 -9.5 -0.00672192210026
35 36 -9 -8 35.50484 -8.5 0.063622404816
35 36 -8 -7 35.5096 -7.5 0.103996539104
35 36 -7 -6 35.50099 -6.5 -0.0799165009876
35 36 -6 -5 35.50246 -5.5 0.00454445702272
35 36 -5 -4 35.49874 -4.5 0.218547326925
35 36 -4 -3 35.50036 -3.5 -0.0134173644062
35 36 -3 -2 35.49726 -2.5 0.155710365498
35 36 -2 -1 35.5151 -1.5 -0.0329144091794
35 36 -1 0 35.49431 -0.5 -0.0772264260259
35 36 0 1 35.49904 0.5 0.0728162275684
35 36 1 2 35.50436 1.5 0.00458030839053
35 36 2 3 35.50046 2.5 0.117596156889
35 36 3 4 35.49429 3.5 -0.0258678071032
35 36 4 5 35.50603 4.5 0.116643760734
35 36 5 6 35.49422 5.5 -0.0532660594099
35 36 6 7 35.50154 6.5 0.0876182882577
35 36 7 8 35.50285 7.5 0.162351523164
35 36 8 9 35.50347 8.5 0.106248373298
35 36 9 10 35.50703 9.5 -0.0229189219721
35 36 10 11 35.50302 10.5 -0.0531785740882
35 36 11 12 35.49701 11.5 0.0394788703569
35 36 12 13 35.49911 12.5 0.0505272162698
35 36 13 14 35.50142 13.5 -0.0388437065833
35 36 14 15 35.50559 14.5 -0.0736585954443
35 36 15 16 35.51257 15.5 0.010115580073
35 36 16 17 35.4977 16.5 -0.113805347672
35 36 17 18 35.50305 17.5 -0.16583762653
35 36 18 19 35.5051 18.5 -0.0946966066752
35 36 19 20 35.5087 19.5 0.0269867710452
36 37 -20 -19 36.50426 -19.5 -0.203974022364
36 37 -19 -18 36.50847 -18.5 0.243770493219
36 37 -18 -17 36.49973 -17.5 0.068300387092
36 37 -17 -16 36.50282 -16.5 0.103883112914
36 37 -16 -15 36.50284 -15.5 -0.0457171090773
36 37 -15 -14 36.51438 -14.5 0.0482098198716
36 37 -14 -13 36.48516 -13.5 -0.0691775406356
36 37 -13 -12 36.49614 -12.5 -0.0367846918403
36 37 -12 -11 36.50581 -11.5 -0.0638574432351
36 37 -11 -10 36.49193 -10.5 -0.117581115756
36 37 -10 -9 36.49987 -9.5 -0.0766967998362
36 37 -9 -8 36.49761 -8.5 0.0395722732889
36 37 -8 -7 36.49231 -7.5 0.159645589284
36 37 -7 -6 36.49346 -6.5 0.0460496801649
36 37 -6 -5 36.51653 -5.5 0.0798005614112
36 37 -5 -4 36.50339 -4.5 0.145076139366
36 37 -4 -3 36.50199 -3.5 -0.135307404249
36 37 -3 -2 36.50129 -2.5 -0.0619046832484
36 37 -2 -1 36.50353 -1.5 -0.106094431074
36 37 -1 0 36.50838 -0.5 0.142192537294
36 37 0 1 36.49539 0.5 -0.206473080154
36 37 1 2 36.49359 1.5 0.0671441528717
36 37 2 3 36.49561 2.5 0.0475373279614
36 37 3 4 36.49268 3.5 -0.0650227013634
36 37 4 5 36.49366 4.5 0.0111528775067
36 37 5 6 36.51247 5.5 -0.175498040105
36 37 6 7 36.49146 6.5 -0.145581089614
36 37 7 8 36.49903 7.5 0.205861071364
36 37 8 9 36.50387 8.5 -0.173506860391
36 37 9 10 36.51557 9.5 0.038646890241
36 37 10 11 36.5013 10.5 0.12436093809
36 37 11 12 36.50337 11.5 -0.00895188758609
36 37 12 13 36.49584 12.5 -0.0818553607057
36 37 13 14 36.49561 13.5 -0.0423627447863
36 37 14 15 36.50295 14.5 0.0951654833711
36 37 15 16 36.49819 15.5 -0.066480634359
36 37 16 17 36.50022 16.5 0.0369650386957
36 37 17 18 36.5006 17.5 -0.1312314413
36 37 18 19 36.50452 18.5 0.0350812096629
36 37 19 20 36.5032 19.5 0.160862843914
37 38 -20 -19 37.51948 -19.5 -0.216336732676
37 38 -19 -18 37.49401 -18.5 0.142781754442
37 38 -18 -17 37.49685 -17.5 0.027032040665
37 38 -17 -16 37.49057 -16.5 -0.189237988893
37 38 -16 -15 37.50855 -15.5 0.125317092284
37 38 -15 -14 37.50372 -14.5 -0.105947864438
37 38 -14 -13 37.5024 -13.5 0.0247453100067
37 38 -13 -12 37.49951 -12.5 0.0223475687081
37 38 -12 -11 37.50993 -11.5 0.151628147309
37 38 -11 -10 37.50684 -10.5 0.00624417690304
37 38 -10 -9 37.48935 -9.5 -0.247158454384
37 38 -9 -8 37.49305 -8.5 -0.161391343098
37 38 -8 -7 37.4903 -7.5 -0.032115533969
37 38 -7 -6 37.50855 -6.5 -0.110604886161
37 38 -6 -5 37.50362 -5.5 0.167405059215
37 38 -5 -4 37.50257 -4.5 -0.00235927782437
37 38 -4 -3 37.49422 -3.5 0.11893434251
37 38 -3 -2 37.50673 -2.5 -0.0618132330193
37 38 -2 -1 37.49835 -1.5 -0.0793949489065
37 38 -1 0 37.50373 -0.5 0.0549363983835
37 38 0 1 37.49952 0.5 0.121455049969
37 38 1 2 37.49199 1.5 -0.0631624552933
37 38 2 3 37.50561 2.5 0.159982171043
37 38 3 4 37.49857 3.5 0.0330603691019
37 38 4 5 37.50169 4.5 -0.0772814534578
37 38 5 6 37.50076 5.5 -0.0238951253021
37 38 6 7 37.50888 6.5 0.0553900675274
37 38 7 8 37.50163 7.5 -0.093601759325
37 38 8 9 37.49062 8.5 -0.0916201138293
37 38 9 10 37.4908 9.5 -0.0831655632039
37 38 10 11 37.48797 10.5 0.118415838721
37 38 11 12 37.5014 11.5 -0.200646060441
37 38 12 13 37.49842 12.5 0.0925356647042
37 38 13 14 37.4932 13.5 -0.111466124154
37 38 14 15 37.48833 14.5 -0.112828248492
37 38 15 16 37.49454 15.5 -0.132395230037
37 38 16 17 37.49775 16.5 -0.00463884086351
37 38 17 18 37.49649 17.5 0.233047035753
37 38 18 19 37.50968 18.5 0.154943683315
37 38 19 20 37.4983 19.5 -0.20298272594
38 39 -20 -19 38.50015 -19.5 0.0474139432481
38 39 -19 -18 38.50029 -18.5 0.281845060706
38 39 -18 -17 38.51933 -17.5 0.161796235023
38 39 -17 -16 38.49564 -16.5 -0.0831939649616
38 39 -16 -15 38.50833 -15.5 -0.00223889366454
38 39 -15 -14 38.50545 -14.5 -0.0399577387876
38 39 -14 -13 38.50181 -13.5 0.0682768011053
38 39 -13 -12 38.50467 -12.5 0.0229243940212
38 39 -12 -11 38.48936 -11.5 0.0844045777738
38 39 -11 -10 38.5045 -10.5 -0.239286169186
38 39 -10 -9 38.49353 -9.5 -0.198320554493
38 39 -9 -8 38.49412 -8.5 -0.0797242984026
38 39 -8 -7 38.50747 -7.5 -0.216870728133
38 39 -7 -6 38.50314 -6.5 -0.0363580366246
38 39 -6 -5 38.50053 -5.5 -0.096433594662
38 39 -5 -4 38.50245 -4.5 0.242217272471
38 39 -4 -3 38.49763 -3.5 -0.0883513847445
38 39 -3 -2 38.50028 -2.5 0.0432204115981
38 39 -2 -1 38.50424 -1.5 -0.00215549866297
38 39 -1 0 38.51373 -0.5 -0.145729540061
38 39 0 1 38.49706 0.5 -0.0769300851054
38 39 1 2 38.50734 1.5 0.0922513843932
38 39 2 3 38.50959 2.5 0.0955928696857
38 39 3 4 38.49779 3.5 -0.0519820290078
38 39 4 5 38.48931 4.5 -0.083903946912
38 39 5 6 38.5025 5.5 0.0237834409964
38 39 6 7 38.49524 6.5 -0.0192758196306
38 39 7 8 38.51215 7.5 0.141952313831
38 39 8 9 38.50123 8.5 -0.0383380352154
38 39 9 10 38.51713 9.5 -0.0312762850352
38 39 10 11 38.50282 10.5 0.0343307630389
38 39 11 12 38.50673 11.5 0.0224150241493
38 39 12 13 38.5119 12.5 -0.0425201935057
38 39 13 14 38.4939 13.5 0.318308681814
38 39 14 15 38.5055 14.5 0.045734953237
38 39 15 16 38.50941 15.5 -0.147126952193
38 39 16 17 38.49586 16.5 -0.00377210359555
38 39 17 18 38.5073 17.5 -0.0238761102112
38 39 18 19 38.50661 18.5 0.063605559437
38 39 19 20 38.5083 19.5 -0.0828360716422
39 40 -20 -19 39.50693 -19.5 -0.111939339446
39 40 -19 -18 39.486 -18.5 -0.140287226245
39 40 -18 -17 39.51173 -17.5 -0.119849801794
39 40 -17 -16 39.49405 -16.5 -0.180822859565
39 40 -16 -15 39.50317 -15.5 0.118315156049
39 40 -15 -14 39.51145 -14.5 -0.0584895742469
39 40 -14 -13 39.49984 -13.5 -0.256314761354
39 40 -13 -12 39.5035 -12.5 -0.115696057026
39 40 -12 -11 39.49369 -11.5 -0.0753471776631
39 40 -11 -10 39.49982 -10.5 0.160791790932
39 40 -10 -9 39.4951 -9.5 -0.156407295398
39 40 -9 -8 39.50025 -8.5 -0.125796220524
39 40 -8 -7 39.49671 -7.5 -0.0164067195943
39 40 -7 -6 39.51055 -6.5 0.104655413275
39 40 -6 -5 39.49097 -5.5 -0.197531958611
39 40 -5 -4 39.49547 -4.5 0.0385134410859
39 40 -4 -3 39.50462 -3.5 -0.0327907670718
39 40 -3 -2 39.50165 -2.5 0.116027261504
39 40 -2 -1 39.49124 -1.5 -0.035079592691
39 40 -1 0 39.50335 -0.5 0.00959286108718
39 40 0 1 39.50663 0.5 -0.0239574136655
39 40 1 2 39.51 1.5 0.0773692503983
39 40 2 3 39.50286 2.5 0.0823047420598
39 40 3 4 39.50481 3.5 -0.0370238232697
39 40 4 5 39.49903 4.5 0.0515040539502
39 40 5 6 39.4978 5.5 -0.0589743616717
39 40 6 7 39.50113 6.5 0.0957609634729
39 40 7 8 39.49337 7.5 0.0100656357683
39 40 8 9 39.49161 8.5 0.0629774577353
39 40 9 10 39.49079 9.5 0.0298902724811
39 40 10 11 39.50928 10.5 0.0117546361348
39 40 11 12 39.49425 11.5 -0.0198978654997
39 40 12 13 39.50499 12.5 -0.0562704993616
39 40 13 14 39.507 13.5 -0.0242028319966
39 40 14 15 39.50777 14.5 -0.10463301004
39 40 15 16 39.49464 15.5 0.135856486252
39 40 16 17 39.49569 16.5 0.185489128127
39 40 17 18 39.50075 17.5 0.0927102684829
39 40 18 19 39.51044 18.5 -0.0253601560831
39 40 19 20 39.49671 19.5 -0.0690709227158
40 41 -20 -19 40.49931 -19.5 0.104059391269
40 41 -19 -18 40.50955 -18.5 0.0698433791223
40 41 -18 -17 40.49944 -17.5 0.0958959859204
40 41 -17 -16 40.49933 -16.5 -0.0650311718915
40 41 -16 -15 40.49678 -15.5 -0.0652266864566
40 41 -15 -14 40.5018 -14.5 -0.0959671877989
40 41 -14 -13 40.49428 -13.5 -0.180105180746
40 41 -13 -12 40.50317 -12.5 -0.123933335129
40 41 -12 -11 40.49495 -11.5 -0.172027628357
40 41 -11 -10 40.49885 -10.5 0.130881285319
40 41 -10 -9 40.50222 -9.5 -0.110888848529
40 41 -9 -8 40.50287 -8.5 0.0185032395958
40 41 -8 -7 40.50423 -7.5 -0.0285891197234
40 41 -7 -6 40.50947 -6.5 0.138344033116
40 41 -6 -5 40.50332 -5.5 -0.117714454603
40 41 -5 -4 40.50465 -4.5 0.000180425728923
40 41 -4 -3 40.49718 -3.5 0.159562029139
40 41 -3 -2 40.50209 -2.5 -0.0834299842034
40 41 -2 -1 40.5142 -1.5 -0.039342043248
40 41 -1 0 40.50324 -0.5 -0.0823974911242
40 41 0 1 40.49936 0.5 0.109477105598
40 41 1 2 40.4979 1.5 -0.0734907225238
40 41 2 3 40.50581 2.5 0.0344815386492
40 41 3 4 40.50071 3.5 -0.00150216486665
40 41 4 5 40.51146 4.5 0.140793283586
40 41 5 6 40.49154 5.5 0.0359009562266
40 41 6 7 40.50979 6.5 0.132080597555
40 41 7 8 40.49867 7.5 -0.0724208658679
40 41 8 9 40.49844 8.5 0.0168327650793
40 41 9 10 40.48905 9.5 -0.00679501143361
40 41 10 11 40.49353 10.5 0.0952654748376
40 41 11 12 40.49393 11.5 -0.0400854101122
40 41 12 13 40.50453 12.5 -0.168889528212
40 41 13 14 40.50414 13.5 0.171764538689
40 41 14 15 40.50459 14.5 0.0476179055482
40 41 15 16 40.49012 15.5 0.166001450303
40 41 16 17 40.51073 16.5 -0.0203413564955
40 41 17 18 40.50274 17.5 -0.0574564534718
40 41 18 19 40.49699 18.5 0.0320996534752
40 41 19 20 40.50251 19.5 -0.179660056396
