#norm = 999000.0
#edges = (np.linspace(1, 41, 41), np.linspace(0, 20, 21))
#rp_low rp_high pi_low pi_high rp pi wcounts
1 2 -20 -19 1.698894 -19.5 8
1 2 -19 -18 1.631957 -18.5 8
1 2 -18 -17 1.611416 -17.5 7
1 2 -17 -16 1.526033 -16.5 8
1 2 -16 -15 1.642238 -15.5 9
1 2 -15 -14 1.596079 -14.5 8
1 2 -14 -13 1.754013 -13.5 5
1 2 -13 -12 1.580111 -12.5 10
1 2 -12 -11 1.536434 -11.5 9
1 2 -11 -10 1.494526 -10.5 9
1 2 -10 -9 1.505786 -9.5 8
1 2 -9 -8 1.492602 -8.5 9
1 2 -8 -7 1.570331 -7.5 10
1 2 -7 -6 1.528571 -6.5 13
1 2 -6 -5 1.424617 -5.5 9
1 2 -5 -4 1.707154 -4.5 10
1 2 -4 -3 1.544984 -3.5 11
1 2 -3 -2 1.567268 -2.5 7
1 2 -2 -1 1.685025 -1.5 10
1 2 -1 0 1.389736 -0.5 7
1 2 0 1 1.389736 0.5 7
1 2 1 2 1.685025 1.5 10
1 2 2 3 1.567268 2.5 7
1 2 3 4 1.544984 3.5 11
1 2 4 5 1.707154 4.5 10
1 2 5 6 1.424617 5.5 9
1 2 6 7 1.528571 6.5 13
1 2 7 8 1.570331 7.5 10
1 2 8 9 1.492602 8.5 9
1 2 9 10 1.505786 9.5 8
1 2 10 11 1.494526 10.5 9
1 2 11 12 1.536434 11.5 9
1 2 12 13 1.580111 12.5 10
1 2 13 14 1.754013 13.5 5
1 2 14 15 1.596079 14.5 8
1 2 15 16 1.642238 15.5 9
1 2 16 17 1.526033 16.5 8
1 2 17 18 1.611416 17.5 7
1 2 18 19 1.631957 18.5 8
1 2 19 20 1.698894 19.5 8
2 3 -20 -19 2.553942 -19.5 10
2 3 -19 -18 2.476704 -18.5 15
2 3 -18 -17 2.403082 -17.5 10
2 3 -17 -16 2.434644 -16.5 11
2 3 -16 -15 2.710467 -15.5 6
2 3 -15 -14 2.540105 -14.5 9
2 3 -14 -13 2.637706 -13.5 12
2 3 -13 -12 2.528679 -12.5 12
2 3 -12 -11 2.606054 -11.5 18
2 3 -11 -10 2.538148 -10.5 12
2 3 -10 -9 2.393629 -9.5 17
2 3 -9 -8 2.638658 -8.5 17
2 3 -8 -7 2.577852 -7.5 15
2 3 -7 -6 2.532608 -6.5 18
2 3 -6 -5 2.446743 -5.5 11
2 3 -5 -4 2.474473 -4.5 13
2 3 -4 -3 2.633589 -3.5 13
2 3 -3 -2 2.495429 -2.5 13
2 3 -2 -1 2.484857 -1.5 21
2 3 -1 0 2.434908 -0.5 18
2 3 0 1 2.434908 0.5 18
2 3 1 2 2.484857 1.5 21
2 3 2 3 2.495429 2.5 13
2 3 3 4 2.633589 3.5 13
2 3 4 5 2.474473 4.5 13
2 3 5 6 2.446743 5.5 11
2 3 6 7 2.532608 6.5 18
2 3 7 8 2.577852 7.5 15
2 3 8 9 2.638658 8.5 17
2 3 9 10 2.393629 9.5 17
2 3 10 11 2.538148 10.5 12
2 3 11 12 2.606054 11.5 18
2 3 12 13 2.528679 12.5 12
2 3 13 14 2.637706 13.5 12
2 3 14 15 2.540105 14.5 9
2 3 15 16 2.710467 15.5 6
2 3 16 17 2.434644 16.5 11
2 3 17 18 2.403082 17.5 10
2 3 18 19 2.476704 18.5 15
2 3 19 20 2.553942 19.5 10
3 4 -20 -19 3.518324 -19.5 22
3 4 -19 -18 3.484607 -18.5 18
3 4 -18 -17 3.54287 -17.5 22
3 4 -17 -16 3.510141 -16.5 16
3 4 -16 -15 3.497526 -15.5 22
3 4 -15 -14 3.582335 -14.5 17
3 4 -14 -13 3.585044 -13.5 21
3 4 -13 -12 3.511922 -12.5 24
3 4 -12 -11 3.549863 -11.5 21
3 4 -11 -10 3.605905 -10.5 17
3 4 -10 -9 3.435278 -9.5 11
3 4 -9 -8 3.454756 -8.5 25
3 4 -8 -7 3.674615 -7.5 9
3 4 -7 -6 3.497079 -6.5 19
3 4 -6 -5 3.494251 -5.5 13
3 4 -5 -4 3.462821 -4.5 18
3 4 -4 -3 3.445799 -3.5 13
3 4 -3 -2 3.511403 -2.5 17
3 4 -2 -1 3.482642 -1.5 24
3 4 -1 0 3.583833 -0.5 24
3 4 0 1 3.583833 0.5 24
3 4 1 2 3.482642 1.5 24
3 4 2 3 3.511403 2.5 17
3 4 3 4 3.445799 3.5 13
3 4 4 5 3.462821 4.5 18
3 4 5 6 3.494251 5.5 13
3 4 6 7 3.497079 6.5 19
3 4 7 8 3.674615 7.5 9
3 4 8 9 3.454756 8.5 25
3 4 9 10 3.435278 9.5 11
3 4 10 11 3.605905 10.5 17
3 4 11 12 3.549863 11.5 21
3 4 12 13 3.511922 12.5 24
3 4 13 14 3.585044 13.5 21
3 4 14 15 3.582335 14.5 17
3 4 15 16 3.497526 15.5 22
3 4 16 17 3.510141 16.5 16
3 4 17 18 3.54287 17.5 22
3 4 18 19 3.484607 18.5 18
3 4 19 20 3.518324 19.5 22
4 5 -20 -19 4.362951 -19.5 10
4 5 -19 -18 4.610395 -18.5 19
4 5 -18 -17 4.598618 -17.5 21
4 5 -17 -16 4.505149 -16.5 33
4 5 -16 -15 4.46639 -15.5 29
4 5 -15 -14 4.520855 -14.5 27
4 5 -14 -13 4.468264 -13.5 20
4 5 -13 -12 4.555211 -12.5 21
4 5 -12 -11 4.326852 -11.5 17
4 5 -11 -10 4.652552 -10.5 22
4 5 -10 -9 4.51223 -9.5 22
4 5 -9 -8 4.532686 -8.5 25
4 5 -8 -7 4.393517 -7.5 25
4 5 -7 -6 4.470637 -6.5 21
4 5 -6 -5 4.61316 -5.5 26
4 5 -5 -4 4.466359 -4.5 21
4 5 -4 -3 4.522197 -3.5 23
4 5 -3 -2 4.572767 -2.5 27
4 5 -2 -1 4.557031 -1.5 20
4 5 -1 0 4.624976 -0.5 26
4 5 0 1 4.624976 0.5 26
4 5 1 2 4.557031 1.5 20
4 5 2 3 4.572767 2.5 27
4 5 3 4 4.522197 3.5 23
4 5 4 5 4.466359 4.5 21
4 5 5 6 4.61316 5.5 26
4 5 6 7 4.470637 6.5 21
4 5 7 8 4.393517 7.5 25
4 5 8 9 4.532686 8.5 25
4 5 9 10 4.51223 9.5 22
4 5 10 11 4.652552 10.5 22
4 5 11 12 4.326852 11.5 17
4 5 12 13 4.555211 12.5 21
4 5 13 14 4.468264 13.5 20
4 5 14 15 4.520855 14.5 27
4 5 15 16 4.46639 15.5 29
4 5 16 17 4.505149 16.5 33
4 5 17 18 4.598618 17.5 21
4 5 18 19 4.610395 18.5 19
4 5 19 20 4.362951 19.5 10
5 6 -20 -19 5.620321 -19.5 22
5 6 -19 -18 5.56887 -18.5 29
5 6 -18 -17 5.5496 -17.5 18
5 6 -17 -16 5.605046 -16.5 23
5 6 -16 -15 5.488045 -15.5 27
5 6 -15 -14 5.617747 -14.5 23
5 6 -14 -13 5.529111 -13.5 21
5 6 -13 -12 5.493879 -12.5 32
5 6 -12 -11 5.488197 -11.5 33
5 6 -11 -10 5.437289 -10.5 24
5 6 -10 -9 5.520895 -9.5 25
5 6 -9 -8 5.500577 -8.5 31
5 6 -8 -7 5.491265 -7.5 32
5 6 -7 -6 5.459781 -6.5 23
5 6 -6 -5 5.586239 -5.5 31
5 6 -5 -4 5.571408 -4.5 32
5 6 -4 -3 5.561257 -3.5 35
5 6 -3 -2 5.452538 -2.5 25
5 6 -2 -1 5.510072 -1.5 39
5 6 -1 0 5.396599 -0.5 28
5 6 0 1 5.396599 0.5 28
5 6 1 2 5.510072 1.5 39
5 6 2 3 5.452538 2.5 25
5 6 3 4 5.561257 3.5 35
5 6 4 5 5.571408 4.5 32
5 6 5 6 5.586239 5.5 31
5 6 6 7 5.459781 6.5 23
5 6 7 8 5.491265 7.5 32
5 6 8 9 5.500577 8.5 31
5 6 9 10 5.520895 9.5 25
5 6 10 11 5.437289 10.5 24
5 6 11 12 5.488197 11.5 33
5 6 12 13 5.493879 12.5 32
5 6 13 14 5.529111 13.5 21
5 6 14 15 5.617747 14.5 23
5 6 15 16 5.488045 15.5 27
5 6 16 17 5.605046 16.5 23
5 6 17 18 5.5496 17.5 18
5 6 18 19 5.56887 18.5 29
5 6 19 20 5.620321 19.5 22
6 7 -20 -19 6.529507 -19.5 27
6 7 -19 -18 6.610977 -18.5 29
6 7 -18 -17 6.578702 -17.5 33
6 7 -17 -16 6.521444 -16.5 37
6 7 -16 -15 6.558759 -15.5 33
6 7 -15 -14 6.488142 -14.5 31
6 7 -14 -13 6.519261 -13.5 41
6 7 -13 -12 6.539178 -12.5 24
6 7 -12 -11 6.585518 -11.5 31
6 7 -11 -10 6.486523 -10.5 33
6 7 -10 -9 6.479581 -9.5 34
6 7 -9 -8 6.54065 -8.5 27
6 7 -8 -7 6.560334 -7.5 40
6 7 -7 -6 6.45761 -6.5 28
6 7 -6 -5 6.534198 -5.5 30
6 7 -5 -4 6.562324 -4.5 53
6 7 -4 -3 6.573479 -3.5 45
6 7 -3 -2 6.535756 -2.5 36
6 7 -2 -1 6.504911 -1.5 30
6 7 -1 0 6.548543 -0.5 41
6 7 0 1 6.548543 0.5 41
6 7 1 2 6.504911 1.5 30
6 7 2 3 6.535756 2.5 36
6 7 3 4 6.573479 3.5 45
6 7 4 5 6.562324 4.5 53
6 7 5 6 6.534198 5.5 30
6 7 6 7 6.45761 6.5 28
6 7 7 8 6.560334 7.5 40
6 7 8 9 6.54065 8.5 27
6 7 9 10 6.479581 9.5 34
6 7 10 11 6.486523 10.5 33
6 7 11 12 6.585518 11.5 31
6 7 12 13 6.539178 12.5 24
6 7 13 14 6.519261 13.5 41
6 7 14 15 6.488142 14.5 31
6 7 15 16 6.558759 15.5 33
6 7 16 17 6.521444 16.5 37
6 7 17 18 6.578702 17.5 33
6 7 18 19 6.610977 18.5 29
6 7 19 20 6.529507 19.5 27
7 8 -20 -19 7.489408 -19.5 32
7 8 -19 -18 7.375107 -18.5 32
7 8 -18 -17 7.543967 -17.5 27
7 8 -17 -16 7.47077 -16.5 37
7 8 -16 -15 7.52103 -15.5 34
7 8 -15 -14 7.491665 -14.5 39
7 8 -14 -13 7.517708 -13.5 39
7 8 -13 -12 7.506973 -12.5 49
7 8 -12 -11 7.508889 -11.5 38
7 8 -11 -10 7.514322 -10.5 39
7 8 -10 -9 7.445647 -9.5 41
7 8 -9 -8 7.511496 -8.5 43
7 8 -8 -7 7.466091 -7.5 44
7 8 -7 -6 7.528583 -6.5 38
7 8 -6 -5 7.590985 -5.5 32
7 8 -5 -4 7.540678 -4.5 41
7 8 -4 -3 7.475826 -3.5 35
7 8 -3 -2 7.489638 -2.5 40
7 8 -2 -1 7.511597 -1.5 41
7 8 -1 0 7.430642 -0.5 37
7 8 0 1 7.430642 0.5 37
7 8 1 2 7.511597 1.5 41
7 8 2 3 7.489638 2.5 40
7 8 3 4 7.475826 3.5 35
7 8 4 5 7.540678 4.5 41
7 8 5 6 7.590985 5.5 32
7 8 6 7 7.528583 6.5 38
7 8 7 8 7.466091 7.5 44
7 8 8 9 7.511496 8.5 43
7 8 9 10 7.445647 9.5 41
7 8 10 11 7.514322 10.5 39
7 8 11 12 7.508889 11.5 38
7 8 12 13 7.506973 12.5 49
7 8 13 14 7.517708 13.5 39
7 8 14 15 7.491665 14.5 39
7 8 15 16 7.52103 15.5 34
7 8 16 17 7.47077 16.5 37
7 8 17 18 7.543967 17.5 27
7 8 18 19 7.375107 18.5 32
7 8 19 20 7.489408 19.5 32
8 9 -20 -19 8.55883 -19.5 40
8 9 -19 -18 8.526176 -18.5 26
8 9 -18 -17 8.484899 -17.5 38
8 9 -17 -16 8.483863 -16.5 49
8 9 -16 -15 8.489505 -15.5 41
8 9 -15 -14 8.554405 -14.5 33
8 9 -14 -13 8.510182 -13.5 36
8 9 -13 -12 8.460467 -12.5 44
8 9 -12 -11 8.469866 -11.5 31
8 9 -11 -10 8.521639 -10.5 55
8 9 -10 -9 8.490036 -9.5 47
8 9 -9 -8 8.48625 -8.5 43
8 9 -8 -7 8.496709 -7.5 52
8 9 -7 -6 8.557647 -6.5 49
8 9 -6 -5 8.471307 -5.5 49
8 9 -5 -4 8.625761 -4.5 45
8 9 -4 -3 8.521376 -3.5 43
8 9 -3 -2 8.568014 -2.5 44
8 9 -2 -1 8.48607 -1.5 43
8 9 -1 0 8.476402 -0.5 52
8 9 0 1 8.476402 0.5 52
8 9 1 2 8.48607 1.5 43
8 9 2 3 8.568014 2.5 44
8 9 3 4 8.521376 3.5 43
8 9 4 5 8.625761 4.5 45
8 9 5 6 8.471307 5.5 49
8 9 6 7 8.557647 6.5 49
8 9 7 8 8.496709 7.5 52
8 9 8 9 8.48625 8.5 43
8 9 9 10 8.490036 9.5 47
8 9 10 11 8.521639 10.5 55
8 9 11 12 8.469866 11.5 31
8 9 12 13 8.460467 12.5 44
8 9 13 14 8.510182 13.5 36
8 9 14 15 8.554405 14.5 33
8 9 15 16 8.489505 15.5 41
8 9 16 17 8.483863 16.5 49
8 9 17 18 8.484899 17.5 38
8 9 18 19 8.526176 18.5 26
8 9 19 20 8.55883 19.5 40
9 10 -20 -19 9.501962 -19.5 40
9 10 -19 -18 9.542088 -18.5 41
9 10 -18 -17 9.534413 -17.5 35
9 10 -17 -16 9.573666 -16.5 33
9 10 -16 -15 9.459882 -15.5 41
9 10 -15 -14 9.560221 -14.5 55
9 10 -14 -13 9.506747 -13.5 47
9 10 -13 -12 9.59506 -12.5 44
9 10 -12 -11 9.531134 -11.5 55
9 10 -11 -10 9.563429 -10.5 45
9 10 -10 -9 9.56566 -9.5 57
9 10 -9 -8 9.520632 -8.5 40
9 10 -8 -7 9.58265 -7.5 67
9 10 -7 -6 9.470331 -6.5 48
9 10 -6 -5 9.487398 -5.5 58
9 10 -5 -4 9.452412 -4.5 63
9 10 -4 -3 9.393737 -3.5 54
9 10 -3 -2 9.485074 -2.5 60
9 10 -2 -1 9.556888 -1.5 47
9 10 -1 0 9.458533 -0.5 53
9 10 0 1 9.458533 0.5 53
9 10 1 2 9.556888 1.5 47
9 10 2 3 9.485074 2.5 60
9 10 3 4 9.393737 3.5 54
9 10 4 5 9.452412 4.5 63
9 10 5 6 9.487398 5.5 58
9 10 6 7 9.470331 6.5 48
9 10 7 8 9.58265 7.5 67
9 10 8 9 9.520632 8.5 40
9 10 9 10 9.56566 9.5 57
9 10 10 11 9.563429 10.5 45
9 10 11 12 9.531134 11.5 55
9 10 12 13 9.59506 12.5 44
9 10 13 14 9.506747 13.5 47
9 10 14 15 9.560221 14.5 55
9 10 15 16 9.459882 15.5 41
9 10 16 17 9.573666 16.5 33
9 10 17 18 9.534413 17.5 35
9 10 18 19 9.542088 18.5 41
9 10 19 20 9.501962 19.5 40
10 11 -20 -19 10.55861 -19.5 34
10 11 -19 -18 10.51249 -18.5 44
10 11 -18 -17 10.49055 -17.5 53
10 11 -17 -16 10.55375 -16.5 54
10 11 -16 -15 10.54629 -15.5 47
10 11 -15 -14 10.55979 -14.5 42
10 11 -14 -13 10.4731 -13.5 55
10 11 -13 -12 10.51153 -12.5 59
10 11 -12 -11 10.53849 -11.5 47
10 11 -11 -10 10.40466 -10.5 46
10 11 -10 -9 10.57045 -9.5 40
10 11 -9 -8 10.52621 -8.5 58
10 11 -8 -7 10.48924 -7.5 55
10 11 -7 -6 10.50276 -6.5 51
10 11 -6 -5 10.55628 -5.5 58
10 11 -5 -4 10.48805 -4.5 50
10 11 -4 -3 10.42897 -3.5 58
10 11 -3 -2 10.56639 -2.5 57
10 11 -2 -1 10.52339 -1.5 48
10 11 -1 0 10.50623 -0.5 51
10 11 0 1 10.50623 0.5 51
10 11 1 2 10.52339 1.5 48
10 11 2 3 10.56639 2.5 57
10 11 3 4 10.42897 3.5 58
10 11 4 5 10.48805 4.5 50
10 11 5 6 10.55628 5.5 58
10 11 6 7 10.50276 6.5 51
10 11 7 8 10.48924 7.5 55
10 11 8 9 10.52621 8.5 58
10 11 9 10 10.57045 9.5 40
10 11 10 11 10.40466 10.5 46
10 11 11 12 10.53849 11.5 47
10 11 12 13 10.51153 12.5 59
10 11 13 14 10.4731 13.5 55
10 11 14 15 10.55979 14.5 42
10 11 15 16 10.54629 15.5 47
10 11 16 17 10.55375 16.5 54
10 11 17 18 10.49055 17.5 53
10 11 18 19 10.51249 18.5 44
10 11 19 20 10.55861 19.5 34
11 12 -20 -19 11.528 -19.5 35
11 12 -19 -18 11.4295 -18.5 47
11 12 -18 -17 11.48691 -17.5 46
11 12 -17 -16 11.47474 -16.5 50
11 12 -16 -15 11.46569 -15.5 50
11 12 -15 -14 11.47021 -14.5 45
11 12 -14 -13 11.5238 -13.5 56
11 12 -13 -12 11.59121 -12.5 66
11 12 -12 -11 11.47208 -11.5 46
11 12 -11 -10 11.49591 -10.5 54
11 12 -10 -9 11.56255 -9.5 57
11 12 -9 -8 11.49048 -8.5 48
11 12 -8 -7 11.52236 -7.5 57
11 12 -7 -6 11.56694 -6.5 39
11 12 -6 -5 11.56125 -5.5 67
11 12 -5 -4 11.55261 -4.5 66
11 12 -4 -3 11.46477 -3.5 68
11 12 -3 -2 11.41909 -2.5 49
11 12 -2 -1 11.43929 -1.5 56
11 12 -1 0 11.57287 -0.5 52
11 12 0 1 11.57287 0.5 52
11 12 1 2 11.43929 1.5 56
11 12 2 3 11.41909 2.5 49
11 12 3 4 11.46477 3.5 68
11 12 4 5 11.55261 4.5 66
11 12 5 6 11.56125 5.5 67
11 12 6 7 11.56694 6.5 39
11 12 7 8 11.52236 7.5 57
11 12 8 9 11.49048 8.5 48
11 12 9 10 11.56255 9.5 57
11 12 10 11 11.49591 10.5 54
11 12 11 12 11.47208 11.5 46
11 12 12 13 11.59121 12.5 66
11 12 13 14 11.5238 13.5 56
11 12 14 15 11.47021 14.5 45
11 12 15 16 11.46569 15.5 50
11 12 16 17 11.47474 16.5 50
11 12 17 18 11.48691 17.5 46
11 12 18 19 11.4295 18.5 47
11 12 19 20 11.528 19.5 35
12 13 -20 -19 12.49622 -19.5 59
12 13 -19 -18 12.53008 -18.5 60
12 13 -18 -17 12.51576 -17.5 64
12 13 -17 -16 12.57475 -16.5 54
12 13 -16 -15 12.57353 -15.5 49
12 13 -15 -14 12.56198 -14.5 63
12 13 -14 -13 12.48232 -13.5 55
12 13 -13 -12 12.49298 -12.5 59
12 13 -12 -11 12.55317 -11.5 64
12 13 -11 -10 12.4799 -10.5 70
12 13 -10 -9 12.47359 -9.5 58
12 13 -9 -8 12.5455 -8.5 62
12 13 -8 -7 12.52702 -7.5 63
12 13 -7 -6 12.5531 -6.5 54
12 13 -6 -5 12.4957 -5.5 63
12 13 -5 -4 12.45478 -4.5 57
12 13 -4 -3 12.48445 -3.5 75
12 13 -3 -2 12.50253 -2.5 59
12 13 -2 -1 12.50667 -1.5 70
12 13 -1 0 12.46205 -0.5 67
12 13 0 1 12.46205 0.5 67
12 13 1 2 12.50667 1.5 70
12 13 2 3 12.50253 2.5 59
12 13 3 4 12.48445 3.5 75
12 13 4 5 12.45478 4.5 57
12 13 5 6 12.4957 5.5 63
12 13 6 7 12.5531 6.5 54
12 13 7 8 12.52702 7.5 63
12 13 8 9 12.5455 8.5 62
12 13 9 10 12.47359 9.5 58
12 13 10 11 12.4799 10.5 70
12 13 11 12 12.55317 11.5 64
12 13 12 13 12.49298 12.5 59
12 13 13 14 12.48232 13.5 55
12 13 14 15 12.56198 14.5 63
12 13 15 16 12.57353 15.5 49
12 13 16 17 12.57475 16.5 54
12 13 17 18 12.51576 17.5 64
12 13 18 19 12.53008 18.5 60
12 13 19 20 12.49622 19.5 59
13 14 -20 -19 13.53439 -19.5 61
13 14 -19 -18 13.52446 -18.5 55
13 14 -18 -17 13.48659 -17.5 57
13 14 -17 -16 13.58414 -16.5 72
13 14 -16 -15 13.46951 -15.5 53
13 14 -15 -14 13.5092 -14.5 62
13 14 -14 -13 13.51321 -13.5 69
13 14 -13 -12 13.56662 -12.5 61
13 14 -12 -11 13.52292 -11.5 72
13 14 -11 -10 13.53412 -10.5 66
13 14 -10 -9 13.57174 -9.5 59
13 14 -9 -8 13.54142 -8.5 63
13 14 -8 -7 13.47681 -7.5 63
13 14 -7 -6 13.49652 -6.5 68
13 14 -6 -5 13.49651 -5.5 61
13 14 -5 -4 13.47271 -4.5 68
13 14 -4 -3 13.52209 -3.5 85
13 14 -3 -2 13.52169 -2.5 73
13 14 -2 -1 13.51846 -1.5 78
13 14 -1 0 13.52572 -0.5 61
13 14 0 1 13.52572 0.5 61
13 14 1 2 13.51846 1.5 78
13 14 2 3 13.52169 2.5 73
13 14 3 4 13.52209 3.5 85
13 14 4 5 13.47271 4.5 68
13 14 5 6 13.49651 5.5 61
13 14 6 7 13.49652 6.5 68
13 14 7 8 13.47681 7.5 63
13 14 8 9 13.54142 8.5 63
13 14 9 10 13.57174 9.5 59
13 14 10 11 13.53412 10.5 66
13 14 11 12 13.52292 11.5 72
13 14 12 13 13.56662 12.5 61
13 14 13 14 13.51321 13.5 69
13 14 14 15 13.5092 14.5 62
13 14 15 16 13.46951 15.5 53
13 14 16 17 13.58414 16.5 72
13 14 17 18 13.48659 17.5 57
13 14 18 19 13.52446 18.5 55
13 14 19 20 13.53439 19.5 61
14 15 -20 -19 14.53495 -19.5 75
14 15 -19 -18 14.56676 -18.5 58
14 15 -18 -17 14.44242 -17.5 69
14 15 -17 -16 14.51008 -16.5 69
14 15 -16 -15 14.42972 -15.5 60
14 15 -15 -14 14.53415 -14.5 56
14 15 -14 -13 14.48042 -13.5 63
14 15 -13 -12 14.46575 -12.5 70
14 15 -12 -11 14.44669 -11.5 54
14 15 -11 -10 14.48991 -10.5 90
14 15 -10 -9 14.43733 -9.5 48
14 15 -9 -8 14.46265 -8.5 66
14 15 -8 -7 14.45814 -7.5 69
14 15 -7 -6 14.49 -6.5 70
14 15 -6 -5 14.46971 -5.5 62
14 15 -5 -4 14.53154 -4.5 77
14 15 -4 -3 14.47412 -3.5 67
14 15 -3 -2 14.5058 -2.5 71
14 15 -2 -1 14.53204 -1.5 80
14 15 -1 0 14.51188 -0.5 87
14 15 0 1 14.51188 0.5 87
14 15 1 2 14.53204 1.5 80
14 15 2 3 14.5058 2.5 71
14 15 3 4 14.47412 3.5 67
14 15 4 5 14.53154 4.5 77
14 15 5 6 14.46971 5.5 62
14 15 6 7 14.49 6.5 70
14 15 7 8 14.45814 7.5 69
14 15 8 9 14.46265 8.5 66
14 15 9 10 14.43733 9.5 48
14 15 10 11 14.48991 10.5 90
14 15 11 12 14.44669 11.5 54
14 15 12 13 14.46575 12.5 70
14 15 13 14 14.48042 13.5 63
14 15 14 15 14.53415 14.5 56
14 15 15 16 14.42972 15.5 60
14 15 16 17 14.51008 16.5 69
14 15 17 18 14.44242 17.5 69
14 15 18 19 14.56676 18.5 58
14 15 19 20 14.53495 19.5 75
15 16 -20 -19 15.5822 -19.5 75
15 16 -19 -18 15.47291 -18.5 71
15 16 -18 -17 15.50316 -17.5 74
15 16 -17 -16 15.51728 -16.5 64
15 16 -16 -15 15.53809 -15.5 67
15 16 -15 -14 15.49913 -14.5 62
15 16 -14 -13 15.52617 -13.5 70
15 16 -13 -12 15.48464 -12.5 75
15 16 -12 -11 15.57084 -11.5 58
15 16 -11 -10 15.55917 -10.5 73
15 16 -10 -9 15.47624 -9.5 69
15 16 -9 -8 15.51146 -8.5 79
15 16 -8 -7 15.50201 -7.5 67
15 16 -7 -6 15.51844 -6.5 71
15 16 -6 -5 15.44978 -5.5 75
15 16 -5 -4 15.5318 -4.5 69
15 16 -4 -3 15.46629 -3.5 94
15 16 -3 -2 15.51665 -2.5 87
15 16 -2 -1 15.47142 -1.5 81
15 16 -1 0 15.538 -0.5 71
15 16 0 1 15.538 0.5 71
15 16 1 2 15.47142 1.5 81
15 16 2 3 15.51665 2.5 87
15 16 3 4 15.46629 3.5 94
15 16 4 5 15.5318 4.5 69
15 16 5 6 15.44978 5.5 75
15 16 6 7 15.51844 6.5 71
15 16 7 8 15.50201 7.5 67
15 16 8 9 15.51146 8.5 79
15 16 9 10 15.47624 9.5 69
15 16 10 11 15.55917 10.5 73
15 16 11 12 15.57084 11.5 58
15 16 12 13 15.48464 12.5 75
15 16 13 14 15.52617 13.5 70
15 16 14 15 15.49913 14.5 62
15 16 15 16 15.53809 15.5 67
15 16 16 17 15.51728 16.5 64
15 16 17 18 15.50316 17.5 74
15 16 18 19 15.47291 18.5 71
15 16 19 20 15.5822 19.5 75
16 17 -20 -19 16.5012 -19.5 57
16 17 -19 -18 16.49785 -18.5 76
16 17 -18 -17 16.52675 -17.5 83
16 17 -17 -16 16.49865 -16.5 60
16 17 -16 -15 16.47722 -15.5 71
16 17 -15 -14 16.54225 -14.5 77
16 17 -14 -13 16.51657 -13.5 70
16 17 -13 -12 16.49629 -12.5 61
16 17 -12 -11 16.48433 -11.5 69
16 17 -11 -10 16.48293 -10.5 65
16 17 -10 -9 16.4575 -9.5 61
16 17 -9 -8 16.46926 -8.5 84
16 17 -8 -7 16.5084 -7.5 78
16 17 -7 -6 16.52204 -6.5 71
16 17 -6 -5 16.52264 -5.5 89
16 17 -5 -4 16.51779 -4.5 76
16 17 -4 -3 16.51263 -3.5 92
16 17 -3 -2 16.51357 -2.5 70
16 17 -2 -1 16.50086 -1.5 77
16 17 -1 0 16.575 -0.5 77
16 17 0 1 16.575 0.5 77
16 17 1 2 16.50086 1.5 77
16 17 2 3 16.51357 2.5 70
16 17 3 4 16.51263 3.5 92
16 17 4 5 16.51779 4.5 76
16 17 5 6 16.52264 5.5 89
16 17 6 7 16.52204 6.5 71
16 17 7 8 16.5084 7.5 78
16 17 8 9 16.46926 8.5 84
16 17 9 10 16.4575 9.5 61
16 17 10 11 16.48293 10.5 65
16 17 11 12 16.48433 11.5 69
16 17 12 13 16.49629 12.5 61
16 17 13 14 16.51657 13.5 70
16 17 14 15 16.54225 14.5 77
16 17 15 16 16.47722 15.5 71
16 17 16 17 16.49865 16.5 60
16 17 17 18 16.52675 17.5 83
16 17 18 19 16.49785 18.5 76
16 17 19 20 16.5012 19.5 57
17 18 -20 -19 17.48401 -19.5 65
17 18 -19 -18 17.52136 -18.5 73
17 18 -18 -17 17.45088 -17.5 57
17 18 -17 -16 17.50511 -16.5 69
17 18 -16 -15 17.52308 -15.5 64
17 18 -15 -14 17.54653 -14.5 80
17 18 -14 -13 17.48307 -13.5 79
17 18 -13 -12 17.55778 -12.5 79
17 18 -12 -11 17.4988 -11.5 72
17 18 -11 -10 17.47505 -10.5 91
17 18 -10 -9 17.46173 -9.5 73
17 18 -9 -8 17.47324 -8.5 72
17 18 -8 -7 17.51048 -7.5 78
17 18 -7 -6 17.48158 -6.5 65
17 18 -6 -5 17.56962 -5.5 77
17 18 -5 -4 17.49501 -4.5 80
17 18 -4 -3 17.52567 -3.5 83
17 18 -3 -2 17.51309 -2.5 74
17 18 -2 -1 17.48335 -1.5 74
17 18 -1 0 17.44801 -0.5 89
17 18 0 1 17.44801 0.5 89
17 18 1 2 17.48335 1.5 74
17 18 2 3 17.51309 2.5 74
17 18 3 4 17.52567 3.5 83
17 18 4 5 17.49501 4.5 80
17 18 5 6 17.56962 5.5 77
17 18 6 7 17.48158 6.5 65
17 18 7 8 17.51048 7.5 78
17 18 8 9 17.47324 8.5 72
17 18 9 10 17.46173 9.5 73
17 18 10 11 17.47505 10.5 91
17 18 11 12 17.4988 11.5 72
17 18 12 13 17.55778 12.5 79
17 18 13 14 17.48307 13.5 79
17 18 14 15 17.54653 14.5 80
17 18 15 16 17.52308 15.5 64
17 18 16 17 17.50511 16.5 69
17 18 17 18 17.45088 17.5 57
17 18 18 19 17.52136 18.5 73
17 18 19 20 17.48401 19.5 65
18 19 -20 -19 18.52644 -19.5 69
18 19 -19 -18 18.52771 -18.5 70
18 19 -18 -17 18.48033 -17.5 70
18 19 -17 -16 18.51419 -16.5 68
18 19 -16 -15 18.53831 -15.5 73
18 19 -15 -14 18.52278 -14.5 75
18 19 -14 -13 18.52803 -13.5 81
18 19 -13 -12 18.52615 -12.5 94
18 19 -12 -11 18.52327 -11.5 83
18 19 -11 -10 18.55255 -10.5 88
18 19 -10 -9 18.56571 -9.5 80
18 19 -9 -8 18.44375 -8.5 79
18 19 -8 -7 18.52951 -7.5 72
18 19 -7 -6 18.5095 -6.5 100
18 19 -6 -5 18.49611 -5.5 103
18 19 -5 -4 18.47899 -4.5 69
18 19 -4 -3 18.48853 -3.5 103
18 19 -3 -2 18.49888 -2.5 87
18 19 -2 -1 18.45783 -1.5 99
18 19 -1 0 18.42862 -0.5 80
18 19 0 1 18.42862 0.5 80
18 19 1 2 18.45783 1.5 99
18 19 2 3 18.49888 2.5 87
18 19 3 4 18.48853 3.5 103
18 19 4 5 18.47899 4.5 69
18 19 5 6 18.49611 5.5 103
18 19 6 7 18.5095 6.5 100
18 19 7 8 18.52951 7.5 72
18 19 8 9 18.44375 8.5 79
18 19 9 10 18.56571 9.5 80
18 19 10 11 18.55255 10.5 88
18 19 11 12 18.52327 11.5 83
18 19 12 13 18.52615 12.5 94
18 19 13 14 18.52803 13.5 81
18 19 14 15 18.52278 14.5 75
18 19 15 16 18.53831 15.5 73
18 19 16 17 18.51419 16.5 68
18 19 17 18 18.48033 17.5 70
18 19 18 19 18.52771 18.5 70
18 19 19 20 18.52644 19.5 69
19 20 -20 -19 19.49678 -19.5 86
19 20 -19 -18 19.55143 -18.5 80
19 20 -18 -17 19.52378 -17.5 80
19 20 -17 -16 19.47396 -16.5 76
19 20 -16 -15 19.5083 -15.5 73
19 20 -15 -14 19.49568 -14.5 92
19 20 -14 -13 19.50801 -13.5 91
19 20 -13 -12 19.51331 -12.5 75
19 20 -12 -11 19.47855 -11.5 83
19 20 -11 -10 19.5159 -10.5 91
19 20 -10 -9 19.53306 -9.5 76
19 20 -9 -8 19.50673 -8.5 75
19 20 -8 -7 19.49012 -7.5 76
19 20 -7 -6 19.4606 -6.5 88
19 20 -6 -5 19.45022 -5.5 73
19 20 -5 -4 19.52843 -4.5 95
19 20 -4 -3 19.52964 -3.5 84
19 20 -3 -2 19.56243 -2.5 95
19 20 -2 -1 19.48846 -1.5 95
19 20 -1 0 19.46637 -0.5 101
19 20 0 1 19.46637 0.5 101
19 20 1 2 19.48846 1.5 95
19 20 2 3 19.56243 2.5 95
19 20 3 4 19.52964 3.5 84
19 20 4 5 19.52843 4.5 95
19 20 5 6 19.45022 5.5 73
19 20 6 7 19.4606 6.5 88
19 20 7 8 19.49012 7.5 76
19 20 8 9 19.50673 8.5 75
19 20 9 10 19.53306 9.5 76
19 20 10 11 19.5159 10.5 91
19 20 11 12 19.47855 11.5 83
19 20 12 13 19.51331 12.5 75
19 20 13 14 19.50801 13.5 91
19 20 14 15 19.49568 14.5 92
19 20 15 16 19.5083 15.5 73
19 20 16 17 19.47396 16.5 76
19 20 17 18 19.52378 17.5 80
19 20 18 19 19.55143 18.5 80
19 20 19 20 19.49678 19.5 86
20 21 -20 -19 20.46611 -19.5 71
20 21 -19 -18 20.5231 -18.5 84
20 21 -18 -17 20.51131 -17.5 70
20 21 -17 -16 20.43945 -16.5 75
20 21 -16 -15 20.44856 -15.5 74
20 21 -15 -14 20.49064 -14.5 58
20 21 -14 -13 20.53373 -13.5 78
20 21 -13 -12 20.48885 -12.5 88
20 21 -12 -11 20.49846 -11.5 76
20 21 -11 -10 20.53949 -10.5 104
20 21 -10 -9 20.49455 -9.5 95
20 21 -9 -8 20.45058 -8.5 85
20 21 -8 -7 20.56451 -7.5 87
20 21 -7 -6 20.55737 -6.5 93
20 21 -6 -5 20.46036 -5.5 97
20 21 -5 -4 20.48381 -4.5 96
20 21 -4 -3 20.50276 -3.5 89
20 21 -3 -2 20.5014 -2.5 96
20 21 -2 -1 20.48309 -1.5 114
20 21 -1 0 20.53479 -0.5 97
20 21 0 1 20.53479 0.5 97
20 21 1 2 20.48309 1.5 114
20 21 2 3 20.5014 2.5 96
20 21 3 4 20.50276 3.5 89
20 21 4 5 20.48381 4.5 96
20 21 5 6 20.46036 5.5 97
20 21 6 7 20.55737 6.5 93
20 21 7 8 20.56451 7.5 87
20 21 8 9 20.45058 8.5 85
20 21 9 10 20.49455 9.5 95
20 21 10 11 20.53949 10.5 104
20 21 11 12 20.49846 11.5 76
20 21 12 13 20.48885 12.5 88
20 21 13 14 20.53373 13.5 78
20 21 14 15 20.49064 14.5 58
20 21 15 16 20.44856 15.5 74
20 21 16 17 20.43945 16.5 75
20 21 17 18 20.51131 17.5 70
20 21 18 19 20.5231 18.5 84
20 21 19 20 20.46611 19.5 71
21 22 -20 -19 21.50758 -19.5 71
21 22 -19 -18 21.54101 -18.5 87
21 22 -18 -17 21.45605 -17.5 78
21 22 -17 -16 21.50553 -16.5 93
21 22 -16 -15 21.4353 -15.5 86
21 22 -15 -14 21.4786 -14.5 88
21 22 -14 -13 21.44177 -13.5 83
21 22 -13 -12 21.48365 -12.5 72
21 22 -12 -11 21.52728 -11.5 82
21 22 -11 -10 21.53323 -10.5 76
21 22 -10 -9 21.49447 -9.5 91
21 22 -9 -8 21.49511 -8.5 85
21 22 -8 -7 21.50092 -7.5 88
21 22 -7 -6 21.52229 -6.5 86
21 22 -6 -5 21.53817 -5.5 89
21 22 -5 -4 21.50541 -4.5 100
21 22 -4 -3 21.52159 -3.5 110
21 22 -3 -2 21.49702 -2.5 105
21 22 -2 -1 21.51863 -1.5 94
21 22 -1 0 21.58746 -0.5 93
21 22 0 1 21.58746 0.5 93
21 22 1 2 21.51863 1.5 94
21 22 2 3 21.49702 2.5 105
21 22 3 4 21.52159 3.5 110
21 22 4 5 21.50541 4.5 100
21 22 5 6 21.53817 5.5 89
21 22 6 7 21.52229 6.5 86
21 22 7 8 21.50092 7.5 88
21 22 8 9 21.49511 8.5 85
21 22 9 10 21.49447 9.5 91
21 22 10 11 21.53323 10.5 76
21 22 11 12 21.52728 11.5 82
21 22 12 13 21.48365 12.5 72
21 22 13 14 21.44177 13.5 83
21 22 14 15 21.4786 14.5 88
21 22 15 16 21.4353 15.5 86
21 22 16 17 21.50553 16.5 93
21 22 17 18 21.45605 17.5 78
21 22 18 19 21.54101 18.5 87
21 22 19 20 21.50758 19.5 71
22 23 -20 -19 22.47897 -19.5 71
22 23 -19 -18 22.52446 -18.5 80
22 23 -18 -17 22.44602 -17.5 83
22 23 -17 -16 22.54804 -16.5 79
22 23 -16 -15 22.54086 -15.5 78
22 23 -15 -14 22.49765 -14.5 75
22 23 -14 -13 22.51528 -13.5 93
22 23 -13 -12 22.56115 -12.5 83
22 23 -12 -11 22.5281 -11.5 83
22 23 -11 -10 22.48676 -10.5 107
22 23 -10 -9 22.44452 -9.5 90
22 23 -9 -8 22.53315 -8.5 106
22 23 -8 -7 22.49661 -7.5 90
22 23 -7 -6 22.48134 -6.5 103
22 23 -6 -5 22.53256 -5.5 112
22 23 -5 -4 22.52152 -4.5 115
22 23 -4 -3 22.47826 -3.5 87
22 23 -3 -2 22.50032 -2.5 105
22 23 -2 -1 22.49745 -1.5 102
22 23 -1 0 22.49282 -0.5 77
22 23 0 1 22.49282 0.5 77
22 23 1 2 22.49745 1.5 102
22 23 2 3 22.50032 2.5 105
22 23 3 4 22.47826 3.5 87
22 23 4 5 22.52152 4.5 115
22 23 5 6 22.53256 5.5 112
22 23 6 7 22.48134 6.5 103
22 23 7 8 22.49661 7.5 90
22 23 8 9 22.53315 8.5 106
22 23 9 10 22.44452 9.5 90
22 23 10 11 22.48676 10.5 107
22 23 11 12 22.5281 11.5 83
22 23 12 13 22.56115 12.5 83
22 23 13 14 22.51528 13.5 93
22 23 14 15 22.49765 14.5 75
22 23 15 16 22.54086 15.5 78
22 23 16 17 22.54804 16.5 79
22 23 17 18 22.44602 17.5 83
22 23 18 19 22.52446 18.5 80
22 23 19 20 22.47897 19.5 71
23 24 -20 -19 23.43027 -19.5 92
23 24 -19 -18 23.55502 -18.5 95
23 24 -18 -17 23.44495 -17.5 75
23 24 -17 -16 23.48715 -16.5 87
23 24 -16 -15 23.52066 -15.5 91
23 24 -15 -14 23.49234 -14.5 99
23 24 -14 -13 23.49704 -13.5 90
23 24 -13 -12 23.5456 -12.5 83
23 24 -12 -11 23.48508 -11.5 98
23 24 -11 -10 23.53682 -10.5 91
23 24 -10 -9 23.52626 -9.5 94
23 24 -9 -8 23.55057 -8.5 91
23 24 -8 -7 23.52536 -7.5 108
23 24 -7 -6 23.49481 -6.5 111
23 24 -6 -5 23.526 -5.5 105
23 24 -5 -4 23.42516 -4.5 99
23 24 -4 -3 23.51113 -3.5 112
23 24 -3 -2 23.46747 -2.5 86
23 24 -2 -1 23.46708 -1.5 88
23 24 -1 0 23.46418 -0.5 94
23 24 0 1 23.46418 0.5 94
23 24 1 2 23.46708 1.5 88
23 24 2 3 23.46747 2.5 86
23 24 3 4 23.51113 3.5 112
23 24 4 5 23.42516 4.5 99
23 24 5 6 23.526 5.5 105
23 24 6 7 23.49481 6.5 111
23 24 7 8 23.52536 7.5 108
23 24 8 9 23.55057 8.5 91
23 24 9 10 23.52626 9.5 94
23 24 10 11 23.53682 10.5 91
23 24 11 12 23.48508 11.5 98
23 24 12 13 23.5456 12.5 83
23 24 13 14 23.49704 13.5 90
23 24 14 15 23.49234 14.5 99
23 24 15 16 23.52066 15.5 91
23 24 16 17 23.48715 16.5 87
23 24 17 18 23.44495 17.5 75
23 24 18 19 23.55502 18.5 95
23 24 19 20 23.43027 19.5 92
24 25 -20 -19 24.52907 -19.5 82
24 25 -19 -18 24.53234 -18.5 88
24 25 -18 -17 24.50075 -17.5 91
24 25 -17 -16 24.5468 -16.5 94
24 25 -16 -15 24.46796 -15.5 86
24 25 -15 -14 24.52502 -14.5 108
24 25 -14 -13 24.49726 -13.5 95
24 25 -13 -12 24.52193 -12.5 116
24 25 -12 -11 24.51003 -11.5 99
24 25 -11 -10 24.47939 -10.5 86
24 25 -10 -9 24.49223 -9.5 116
24 25 -9 -8 24.51646 -8.5 70
24 25 -8 -7 24.49516 -7.5 107
24 25 -7 -6 24.47714 -6.5 101
24 25 -6 -5 24.48163 -5.5 84
24 25 -5 -4 24.47489 -4.5 110
24 25 -4 -3 24.51323 -3.5 114
24 25 -3 -2 24.5162 -2.5 100
24 25 -2 -1 24.47886 -1.5 101
24 25 -1 0 24.48733 -0.5 93
24 25 0 1 24.48733 0.5 93
24 25 1 2 24.47886 1.5 101
24 25 2 3 24.5162 2.5 100
24 25 3 4 24.51323 3.5 114
24 25 4 5 24.47489 4.5 110
24 25 5 6 24.48163 5.5 84
24 25 6 7 24.47714 6.5 101
24 25 7 8 24.49516 7.5 107
24 25 8 9 24.51646 8.5 70
24 25 9 10 24.49223 9.5 116
24 25 10 11 24.47939 10.5 86
24 25 11 12 24.51003 11.5 99
24 25 12 13 24.52193 12.5 116
24 25 13 14 24.49726 13.5 95
24 25 14 15 24.52502 14.5 108
24 25 15 16 24.46796 15.5 86
24 25 16 17 24.5468 16.5 94
24 25 17 18 24.50075 17.5 91
24 25 18 19 24.53234 18.5 88
24 25 19 20 24.52907 19.5 82
25 26 -20 -19 25.43853 -19.5 76
25 26 -19 -18 25.51846 -18.5 86
25 26 -18 -17 25.45035 -17.5 84
25 26 -17 -16 25.5236 -16.5 88
25 26 -16 -15 25.52056 -15.5 84
25 26 -15 -14 25.51856 -14.5 83
25 26 -14 -13 25.50648 -13.5 84
25 26 -13 -12 25.49675 -12.5 80
25 26 -12 -11 25.50807 -11.5 100
25 26 -11 -10 25.48423 -10.5 111
25 26 -10 -9 25.50535 -9.5 114
25 26 -9 -8 25.42633 -8.5 84
25 26 -8 -7 25.5027 -7.5 113
25 26 -7 -6 25.48266 -6.5 104
25 26 -6 -5 25.50634 -5.5 111
25 26 -5 -4 25.45317 -4.5 94
25 26 -4 -3 25.51077 -3.5 108
25 26 -3 -2 25.51719 -2.5 118
25 26 -2 -1 25.50528 -1.5 94
25 26 -1 0 25.45419 -0.5 107
25 26 0 1 25.45419 0.5 107
25 26 1 2 25.50528 1.5 94
25 26 2 3 25.51719 2.5 118
25 26 3 4 25.51077 3.5 108
25 26 4 5 25.45317 4.5 94
25 26 5 6 25.50634 5.5 111
25 26 6 7 25.48266 6.5 104
25 26 7 8 25.5027 7.5 113
25 26 8 9 25.42633 8.5 84
25 26 9 10 25.50535 9.5 114
25 26 10 11 25.48423 10.5 111
25 26 11 12 25.50807 11.5 100
25 26 12 13 25.49675 12.5 80
25 26 13 14 25.50648 13.5 84
25 26 14 15 25.51856 14.5 83
25 26 15 16 25.52056 15.5 84
25 26 16 17 25.5236 16.5 88
25 26 17 18 25.45035 17.5 84
25 26 18 19 25.51846 18.5 86
25 26 19 20 25.43853 19.5 76
26 27 -20 -19 26.47817 -19.5 92
26 27 -19 -18 26.47126 -18.5 94
26 27 -18 -17 26.46075 -17.5 88
26 27 -17 -16 26.56359 -16.5 89
26 27 -16 -15 26.46084 -15.5 87
26 27 -15 -14 26.54963 -14.5 98
26 27 -14 -13 26.53277 -13.5 92
26 27 -13 -12 26.48603 -12.5 104
26 27 -12 -11 26.48391 -11.5 98
26 27 -11 -10 26.4911 -10.5 102
26 27 -10 -9 26.49984 -9.5 111
26 27 -9 -8 26.50727 -8.5 117
26 27 -8 -7 26.50003 -7.5 89
26 27 -7 -6 26.5059 -6.5 100
26 27 -6 -5 26.46468 -5.5 114
26 27 -5 -4 26.51353 -4.5 97
26 27 -4 -3 26.5024 -3.5 118
26 27 -3 -2 26.51917 -2.5 114
26 27 -2 -1 26.44169 -1.5 115
26 27 -1 0 26.50864 -0.5 117
26 27 0 1 26.50864 0.5 117
26 27 1 2 26.44169 1.5 115
26 27 2 3 26.51917 2.5 114
26 27 3 4 26.5024 3.5 118
26 27 4 5 26.51353 4.5 97
26 27 5 6 26.46468 5.5 114
26 27 6 7 26.5059 6.5 100
26 27 7 8 26.50003 7.5 89
26 27 8 9 26.50727 8.5 117
26 27 9 10 26.49984 9.5 111
26 27 10 11 26.4911 10.5 102
26 27 11 12 26.48391 11.5 98
26 27 12 13 26.48603 12.5 104
26 27 13 14 26.53277 13.5 92
26 27 14 15 26.54963 14.5 98
26 27 15 16 26.46084 15.5 87
26 27 16 17 26.56359 16.5 89
26 27 17 18 26.46075 17.5 88
26 27 18 19 26.47126 18.5 94
26 27 19 20 26.47817 19.5 92
27 28 -20 -19 27.5739 -19.5 93
27 28 -19 -18 27.49721 -18.5 94
27 28 -18 -17 27.53703 -17.5 83
27 28 -17 -16 27.4952 -16.5 97
27 28 -16 -15 27.5347 -15.5 87
27 28 -15 -14 27.51756 -14.5 113
27 28 -14 -13 27.53889 -13.5 103
27 28 -13 -12 27.52505 -12.5 107
27 28 -12 -11 27.4855 -11.5 116
27 28 -11 -10 27.49752 -10.5 102
27 28 -10 -9 27.53879 -9.5 106
27 28 -9 -8 27.53964 -8.5 91
27 28 -8 -7 27.50172 -7.5 101
27 28 -7 -6 27.48856 -6.5 111
27 28 -6 -5 27.52525 -5.5 114
27 28 -5 -4 27.47342 -4.5 107
27 28 -4 -3 27.5074 -3.5 130
27 28 -3 -2 27.49762 -2.5 92
27 28 -2 -1 27.55759 -1.5 118
27 28 -1 0 27.49465 -0.5 100
27 28 0 1 27.49465 0.5 100
27 28 1 2 27.55759 1.5 118
27 28 2 3 27.49762 2.5 92
27 28 3 4 27.5074 3.5 130
27 28 4 5 27.47342 4.5 107
27 28 5 6 27.52525 5.5 114
27 28 6 7 27.48856 6.5 111
27 28 7 8 27.50172 7.5 101
27 28 8 9 27.53964 8.5 91
27 28 9 10 27.53879 9.5 106
27 28 10 11 27.49752 10.5 102
27 28 11 12 27.4855 11.5 116
27 28 12 13 27.52505 12.5 107
27 28 13 14 27.53889 13.5 103
27 28 14 15 27.51756 14.5 113
27 28 15 16 27.5347 15.5 87
27 28 16 17 27.4952 16.5 97
27 28 17 18 27.53703 17.5 83
27 28 18 19 27.49721 18.5 94
27 28 19 20 27.5739 19.5 93
28 29 -20 -19 28.50187 -19.5 74
28 29 -19 -18 28.48811 -18.5 108
28 29 -18 -17 28.50865 -17.5 105
28 29 -17 -16 28.51144 -16.5 93
28 29 -16 -15 28.52298 -15.5 101
28 29 -15 -14 28.47542 -14.5 101
28 29 -14 -13 28.49533 -13.5 91
28 29 -13 -12 28.46391 -12.5 98
28 29 -12 -11 28.50943 -11.5 96
28 29 -11 -10 28.47785 -10.5 103
28 29 -10 -9 28.50622 -9.5 113
28 29 -9 -8 28.4962 -8.5 118
28 29 -8 -7 28.50121 -7.5 114
28 29 -7 -6 28.46568 -6.5 105
28 29 -6 -5 28.50718 -5.5 98
28 29 -5 -4 28.51973 -4.5 104
28 29 -4 -3 28.54833 -3.5 113
28 29 -3 -2 28.54281 -2.5 96
28 29 -2 -1 28.53042 -1.5 136
28 29 -1 0 28.49869 -0.5 119
28 29 0 1 28.49869 0.5 119
28 29 1 2 28.53042 1.5 136
28 29 2 3 28.54281 2.5 96
28 29 3 4 28.54833 3.5 113
28 29 4 5 28.51973 4.5 104
28 29 5 6 28.50718 5.5 98
28 29 6 7 28.46568 6.5 105
28 29 7 8 28.50121 7.5 114
28 29 8 9 28.4962 8.5 118
28 29 9 10 28.50622 9.5 113
28 29 10 11 28.47785 10.5 103
28 29 11 12 28.50943 11.5 96
28 29 12 13 28.46391 12.5 98
28 29 13 14 28.49533 13.5 91
28 29 14 15 28.47542 14.5 101
28 29 15 16 28.52298 15.5 101
28 29 16 17 28.51144 16.5 93
28 29 17 18 28.50865 17.5 105
28 29 18 19 28.48811 18.5 108
28 29 19 20 28.50187 19.5 74
29 30 -20 -19 29.50728 -19.5 93
29 30 -19 -18 29.48813 -18.5 93
29 30 -18 -17 29.49223 -17.5 106
29 30 -17 -16 29.51833 -16.5 92
29 30 -16 -15 29.54347 -15.5 91
29 30 -15 -14 29.51279 -14.5 116
29 30 -14 -13 29.50058 -13.5 112
29 30 -13 -12 29.50494 -12.5 97
29 30 -12 -11 29.51935 -11.5 115
29 30 -11 -10 29.51003 -10.5 89
29 30 -10 -9 29.45485 -9.5 118
29 30 -9 -8 29.53456 -8.5 107
29 30 -8 -7 29.4808 -7.5 107
29 30 -7 -6 29.52106 -6.5 114
29 30 -6 -5 29.52361 -5.5 111
29 30 -5 -4 29.46843 -4.5 115
29 30 -4 -3 29.50294 -3.5 120
29 30 -3 -2 29.51605 -2.5 123
29 30 -2 -1 29.51742 -1.5 124
29 30 -1 0 29.47486 -0.5 122
29 30 0 1 29.47486 0.5 122
29 30 1 2 29.51742 1.5 124
29 30 2 3 29.51605 2.5 123
29 30 3 4 29.50294 3.5 120
29 30 4 5 29.46843 4.5 115
29 30 5 6 29.52361 5.5 111
29 30 6 7 29.52106 6.5 114
29 30 7 8 29.4808 7.5 107
29 30 8 9 29.53456 8.5 107
29 30 9 10 29.45485 9.5 118
29 30 10 11 29.51003 10.5 89
29 30 11 12 29.51935 11.5 115
29 30 12 13 29.50494 12.5 97
29 30 13 14 29.50058 13.5 112
29 30 14 15 29.51279 14.5 116
29 30 15 16 29.54347 15.5 91
29 30 16 17 29.51833 16.5 92
29 30 17 18 29.49223 17.5 106
29 30 18 19 29.48813 18.5 93
29 30 19 20 29.50728 19.5 93
30 31 -20 -19 30.5135 -19.5 110
30 31 -19 -18 30.48709 -18.5 92
30 31 -18 -17 30.52499 -17.5 93
30 31 -17 -16 30.50266 -16.5 102
30 31 -16 -15 30.46131 -15.5 106
30 31 -15 -14 30.5082 -14.5 111
30 31 -14 -13 30.44336 -13.5 118
30 31 -13 -12 30.51913 -12.5 117
30 31 -12 -11 30.49868 -11.5 102
30 31 -11 -10 30.52322 -10.5 125
30 31 -10 -9 30.50504 -9.5 142
30 31 -9 -8 30.53138 -8.5 116
30 31 -8 -7 30.51424 -7.5 118
30 31 -7 -6 30.4742 -6.5 113
30 31 -6 -5 30.52036 -5.5 105
30 31 -5 -4 30.4718 -4.5 123
30 31 -4 -3 30.49401 -3.5 105
30 31 -3 -2 30.49391 -2.5 114
30 31 -2 -1 30.52112 -1.5 138
30 31 -1 0 30.46252 -0.5 147
30 31 0 1 30.46252 0.5 147
30 31 1 2 30.52112 1.5 138
30 31 2 3 30.49391 2.5 114
30 31 3 4 30.49401 3.5 105
30 31 4 5 30.4718 4.5 123
30 31 5 6 30.52036 5.5 105
30 31 6 7 30.4742 6.5 113
30 31 7 8 30.51424 7.5 118
30 31 8 9 30.53138 8.5 116
30 31 9 10 30.50504 9.5 142
30 31 10 11 30.52322 10.5 125
30 31 11 12 30.49868 11.5 102
30 31 12 13 30.51913 12.5 117
30 31 13 14 30.44336 13.5 118
30 31 14 15 30.5082 14.5 111
30 31 15 16 30.46131 15.5 106
30 31 16 17 30.50266 16.5 102
30 31 17 18 30.52499 17.5 93
30 31 18 19 30.48709 18.5 92
30 31 19 20 30.5135 19.5 110
31 32 -20 -19 31.50747 -19.5 91
31 32 -19 -18 31.48936 -18.5 86
31 32 -18 -17 31.53196 -17.5 109
31 32 -17 -16 31.48919 -16.5 95
31 32 -16 -15 31.4671 -15.5 93
31 32 -15 -14 31.52838 -14.5 127
31 32 -14 -13 31.52076 -13.5 101
31 32 -13 -12 31.55841 -12.5 103
31 32 -12 -11 31.52929 -11.5 91
31 32 -11 -10 31.51223 -10.5 115
31 32 -10 -9 31.48321 -9.5 115
31 32 -9 -8 31.47277 -8.5 108
31 32 -8 -7 31.50156 -7.5 104
31 32 -7 -6 31.52149 -6.5 119
31 32 -6 -5 31.53002 -5.5 126
31 32 -5 -4 31.5293 -4.5 113
31 32 -4 -3 31.47199 -3.5 109
31 32 -3 -2 31.48542 -2.5 128
31 32 -2 -1 31.48476 -1.5 121
31 32 -1 0 31.47758 -0.5 127
31 32 0 1 31.47758 0.5 127
31 32 1 2 31.48476 1.5 121
31 32 2 3 31.48542 2.5 128
31 32 3 4 31.47199 3.5 109
31 32 4 5 31.5293 4.5 113
31 32 5 6 31.53002 5.5 126
31 32 6 7 31.52149 6.5 119
31 32 7 8 31.50156 7.5 104
31 32 8 9 31.47277 8.5 108
31 32 9 10 31.48321 9.5 115
31 32 10 11 31.51223 10.5 115
31 32 11 12 31.52929 11.5 91
31 32 12 13 31.55841 12.5 103
31 32 13 14 31.52076 13.5 101
31 32 14 15 31.52838 14.5 127
31 32 15 16 31.4671 15.5 93
31 32 16 17 31.48919 16.5 95
31 32 17 18 31.53196 17.5 109
31 32 18 19 31.48936 18.5 86
31 32 19 20 31.50747 19.5 91
32 33 -20 -19 32.47925 -19.5 119
32 33 -19 -18 32.51433 -18.5 84
32 33 -18 -17 32.45423 -17.5 107
32 33 -17 -16 32.51815 -16.5 102
32 33 -16 -15 32.49226 -15.5 102
32 33 -15 -14 32.56683 -14.5 111
32 33 -14 -13 32.48728 -13.5 108
32 33 -13 -12 32.50826 -12.5 96
32 33 -12 -11 32.51757 -11.5 100
32 33 -11 -10 32.52132 -10.5 130
32 33 -10 -9 32.50899 -9.5 117
32 33 -9 -8 32.5518 -8.5 137
32 33 -8 -7 32.46488 -7.5 106
32 33 -7 -6 32.48329 -6.5 113
32 33 -6 -5 32.50619 -5.5 112
32 33 -5 -4 32.45779 -4.5 111
32 33 -4 -3 32.49611 -3.5 122
32 33 -3 -2 32.47499 -2.5 138
32 33 -2 -1 32.47528 -1.5 130
32 33 -1 0 32.50614 -0.5 139
32 33 0 1 32.50614 0.5 139
32 33 1 2 32.47528 1.5 130
32 33 2 3 32.47499 2.5 138
32 33 3 4 32.49611 3.5 122
32 33 4 5 32.45779 4.5 111
32 33 5 6 32.50619 5.5 112
32 33 6 7 32.48329 6.5 113
32 33 7 8 32.46488 7.5 106
32 33 8 9 32.5518 8.5 137
32 33 9 10 32.50899 9.5 117
32 33 10 11 32.52132 10.5 130
32 33 11 12 32.51757 11.5 100
32 33 12 13 32.50826 12.5 96
32 33 13 14 32.48728 13.5 108
32 33 14 15 32.56683 14.5 111
32 33 15 16 32.49226 15.5 102
32 33 16 17 32.51815 16.5 102
32 33 17 18 32.45423 17.5 107
32 33 18 19 32.51433 18.5 84
32 33 19 20 32.47925 19.5 119
33 34 -20 -19 33.5149 -19.5 86
33 34 -19 -18 33.52653 -18.5 97
33 34 -18 -17 33.51406 -17.5 108
33 34 -17 -16 33.52184 -16.5 103
33 34 -16 -15 33.53382 -15.5 90
33 34 -15 -14 33.47947 -14.5 103
33 34 -14 -13 33.50078 -13.5 107
33 34 -13 -12 33.54524 -12.5 116
33 34 -12 -11 33.55747 -11.5 93
33 34 -11 -10 33.51637 -10.5 125
33 34 -10 -9 33.49615 -9.5 108
33 34 -9 -8 33.53321 -8.5 108
33 34 -8 -7 33.4917 -7.5 108
33 34 -7 -6 33.49601 -6.5 109
33 34 -6 -5 33.48845 -5.5 134
33 34 -5 -4 33.44285 -4.5 108
33 34 -4 -3 33.46392 -3.5 107
33 34 -3 -2 33.5098 -2.5 124
33 34 -2 -1 33.49948 -1.5 143
33 34 -1 0 33.57738 -0.5 104
33 34 0 1 33.57738 0.5 104
33 34 1 2 33.49948 1.5 143
33 34 2 3 33.5098 2.5 124
33 34 3 4 33.46392 3.5 107
33 34 4 5 33.44285 4.5 108
33 34 5 6 33.48845 5.5 134
33 34 6 7 33.49601 6.5 109
33 34 7 8 33.4917 7.5 108
33 34 8 9 33.53321 8.5 108
33 34 9 10 33.49615 9.5 108
33 34 10 11 33.51637 10.5 125
33 34 11 12 33.55747 11.5 93
33 34 12 13 33.54524 12.5 116
33 34 13 14 33.50078 13.5 107
33 34 14 15 33.47947 14.5 103
33 34 15 16 33.53382 15.5 90
33 34 16 17 33.52184 16.5 103
33 34 17 18 33.51406 17.5 108
33 34 18 19 33.52653 18.5 97
33 34 19 20 33.5149 19.5 86
34 35 -20 -19 34.50589 -19.5 109
34 35 -19 -18 34.54466 -18.5 87
34 35 -18 -17 34.48632 -17.5 115
34 35 -17 -16 34.48837 -16.5 119
34 35 -16 -15 34.52147 -15.5 110
34 35 -15 -14 34.51652 -14.5 124
34 35 -14 -13 34.49283 -13.5 101
34 35 -13 -12 34.49446 -12.5 126
34 35 -12 -11 34.5199 -11.5 102
34 35 -11 -10 34.51338 -10.5 114
34 35 -10 -9 34.53537 -9.5 123
34 35 -9 -8 34.53043 -8.5 104
34 35 -8 -7 34.45018 -7.5 117
34 35 -7 -6 34.49918 -6.5 129
34 35 -6 -5 34.51776 -5.5 106
34 35 -5 -4 34.44064 -4.5 86
34 35 -4 -3 34.46595 -3.5 104
34 35 -3 -2 34.51926 -2.5 111
34 35 -2 -1 34.51289 -1.5 122
34 35 -1 0 34.4657 -0.5 132
34 35 0 1 34.4657 0.5 132
34 35 1 2 34.51289 1.5 122
34 35 2 3 34.51926 2.5 111
34 35 3 4 34.46595 3.5 104
34 35 4 5 34.44064 4.5 86
34 35 5 6 34.51776 5.5 106
34 35 6 7 34.49918 6.5 129
34 35 7 8 34.45018 7.5 117
34 35 8 9 34.53043 8.5 104
34 35 9 10 34.53537 9.5 123
34 35 10 11 34.51338 10.5 114
34 35 11 12 34.5199 11.5 102
34 35 12 13 34.49446 12.5 126
34 35 13 14 34.49283 13.5 101
34 35 14 15 34.51652 14.5 124
34 35 15 16 34.52147 15.5 110
34 35 16 17 34.48837 16.5 119
34 35 17 18 34.48632 17.5 115
34 35 18 19 34.54466 18.5 87
34 35 19 20 34.50589 19.5 109
35 36 -20 -19 35.54736 -19.5 100
35 36 -19 -18 35.4844 -18.5 97
35 36 -18 -17 35.51434 -17.5 102
35 36 -17 -16 35.48132 -16.5 106
35 36 -16 -15 35.51628 -15.5 83
35 36 -15 -14 35.46262 -14.5 127
35 36 -14 -13 35.50961 -13.5 114
35 36 -13 -12 35.56211 -12.5 105
35 36 -12 -11 35.50551 -11.5 108
35 36 -11 -10 35.52645 -10.5 101
35 36 -10 -9 35.49245 -9.5 111
35 36 -9 -8 35.50527 -8.5 108
35 36 -8 -7 35.47617 -7.5 104
35 36 -7 -6 35.49668 -6.5 118
35 36 -6 -5 35.49832 -5.5 121
35 36 -5 -4 35.49623 -4.5 152
35 36 -4 -3 35.53506 -3.5 118
35 36 -3 -2 35.48861 -2.5 126
35 36 -2 -1 35.44021 -1.5 116
35 36 -1 0 35.5344 -0.5 128
35 36 0 1 35.5344 0.5 128
35 36 1 2 35.44021 1.5 116
35 36 2 3 35.48861 2.5 126
35 36 3 4 35.53506 3.5 118
35 36 4 5 35.49623 4.5 152
35 36 5 6 35.49832 5.5 121
35 36 6 7 35.49668 6.5 118
35 36 7 8 35.47617 7.5 104
35 36 8 9 35.50527 8.5 108
35 36 9 10 35.49245 9.5 111
35 36 10 11 35.52645 10.5 101
35 36 11 12 35.50551 11.5 108
35 36 12 13 35.56211 12.5 105
35 36 13 14 35.50961 13.5 114
35 36 14 15 35.46262 14.5 127
35 36 15 16 35.51628 15.5 83
35 36 16 17 35.48132 16.5 106
35 36 17 18 35.51434 17.5 102
35 36 18 19 35.4844 18.5 97
35 36 19 20 35.54736 19.5 100
36 37 -20 -19 36.50012 -19.5 125
36 37 -19 -18 36.54316 -18.5 115
36 37 -18 -17 36.54588 -17.5 99
36 37 -17 -16 36.53097 -16.5 91
36 37 -16 -15 36.50244 -15.5 127
36 37 -15 -14 36.49375 -14.5 112
36 37 -14 -13 36.50065 -13.5 110
36 37 -13 -12 36.49382 -12.5 114
36 37 -12 -11 36.49158 -11.5 123
36 37 -11 -10 36.53939 -10.5 104
36 37 -10 -9 36.48368 -9.5 135
36 37 -9 -8 36.46775 -8.5 117
36 37 -8 -7 36.49276 -7.5 145
36 37 -7 -6 36.52704 -6.5 132
36 37 -6 -5 36.47089 -5.5 121
36 37 -5 -4 36.49575 -4.5 117
36 37 -4 -3 36.47257 -3.5 134
36 37 -3 -2 36.49462 -2.5 122
36 37 -2 -1 36.53208 -1.5 117
36 37 -1 0 36.50506 -0.5 125
36 37 0 1 36.50506 0.5 125
36 37 1 2 36.53208 1.5 117
36 37 2 3 36.49462 2.5 122
36 37 3 4 36.47257 3.5 134
36 37 4 5 36.49575 4.5 117
36 37 5 6 36.47089 5.5 121
36 37 6 7 36.52704 6.5 132
36 37 7 8 36.49276 7.5 145
36 37 8 9 36.46775 8.5 117
36 37 9 10 36.48368 9.5 135
36 37 10 11 36.53939 10.5 104
36 37 11 12 36.49158 11.5 123
36 37 12 13 36.49382 12.5 114
36 37 13 14 36.50065 13.5 110
36 37 14 15 36.49375 14.5 112
36 37 15 16 36.50244 15.5 127
36 37 16 17 36.53097 16.5 91
36 37 17 18 36.54588 17.5 99
36 37 18 19 36.54316 18.5 115
36 37 19 20 36.50012 19.5 125
37 38 -20 -19 37.45941 -19.5 112
37 38 -19 -18 37.51029 -18.5 97
37 38 -18 -17 37.55724 -17.5 99
37 38 -17 -16 37.49645 -16.5 104
37 38 -16 -15 37.45287 -15.5 119
37 38 -15 -14 37.54913 -14.5 104
37 38 -14 -13 37.45611 -13.5 128
37 38 -13 -12 37.47263 -12.5 110
37 38 -12 -11 37.5474 -11.5 129
37 38 -11 -10 37.50518 -10.5 110
37 38 -10 -9 37.51023 -9.5 106
37 38 -9 -8 37.4502 -8.5 120
37 38 -8 -7 37.48428 -7.5 128
37 38 -7 -6 37.48324 -6.5 115
37 38 -6 -5 37.46722 -5.5 138
37 38 -5 -4 37.52369 -4.5 128
37 38 -4 -3 37.48923 -3.5 142
37 38 -3 -2 37.49887 -2.5 135
37 38 -2 -1 37.468 -1.5 133
37 38 -1 0 37.4879 -0.5 140
37 38 0 1 37.4879 0.5 140
37 38 1 2 37.468 1.5 133
37 38 2 3 37.49887 2.5 135
37 38 3 4 37.48923 3.5 142
37 38 4 5 37.52369 4.5 128
37 38 5 6 37.46722 5.5 138
37 38 6 7 37.48324 6.5 115
37 38 7 8 37.48428 7.5 128
37 38 8 9 37.4502 8.5 120
37 38 9 10 37.51023 9.5 106
37 38 10 11 37.50518 10.5 110
37 38 11 12 37.5474 11.5 129
37 38 12 13 37.47263 12.5 110
37 38 13 14 37.45611 13.5 128
37 38 14 15 37.54913 14.5 104
37 38 15 16 37.45287 15.5 119
37 38 16 17 37.49645 16.5 104
37 38 17 18 37.55724 17.5 99
37 38 18 19 37.51029 18.5 97
37 38 19 20 37.45941 19.5 112
38 39 -20 -19 38.43161 -19.5 118
38 39 -19 -18 38.53426 -18.5 109
38 39 -18 -17 38.53048 -17.5 95
38 39 -17 -16 38.49843 -16.5 101
38 39 -16 -15 38.51153 -15.5 109
38 39 -15 -14 38.51899 -14.5 126
38 39 -14 -13 38.51584 -13.5 111
38 39 -13 -12 38.50801 -12.5 109
38 39 -12 -11 38.46505 -11.5 120
38 39 -11 -10 38.52626 -10.5 115
38 39 -10 -9 38.48458 -9.5 125
38 39 -9 -8 38.42698 -8.5 102
38 39 -8 -7 38.51234 -7.5 144
38 39 -7 -6 38.52459 -6.5 120
38 39 -6 -5 38.49189 -5.5 132
38 39 -5 -4 38.45192 -4.5 104
38 39 -4 -3 38.49983 -3.5 135
38 39 -3 -2 38.47764 -2.5 123
38 39 -2 -1 38.48325 -1.5 157
38 39 -1 0 38.50158 -0.5 138
38 39 0 1 38.50158 0.5 138
38 39 1 2 38.48325 1.5 157
38 39 2 3 38.47764 2.5 123
38 39 3 4 38.49983 3.5 135
38 39 4 5 38.45192 4.5 104
38 39 5 6 38.49189 5.5 132
38 39 6 7 38.52459 6.5 120
38 39 7 8 38.51234 7.5 144
38 39 8 9 38.42698 8.5 102
38 39 9 10 38.48458 9.5 125
38 39 10 11 38.52626 10.5 115
38 39 11 12 38.46505 11.5 120
38 39 12 13 38.50801 12.5 109
38 39 13 14 38.51584 13.5 111
38 39 14 15 38.51899 14.5 126
38 39 15 16 38.51153 15.5 109
38 39 16 17 38.49843 16.5 101
38 39 17 18 38.53048 17.5 95
38 39 18 19 38.53426 18.5 109
38 39 19 20 38.43161 19.5 118
39 40 -20 -19 39.49346 -19.5 114
39 40 -19 -18 39.51334 -18.5 108
39 40 -18 -17 39.49775 -17.5 116
39 40 -17 -16 39.46426 -16.5 108
39 40 -16 -15 39.51939 -15.5 113
39 40 -15 -14 39.47484 -14.5 120
39 40 -14 -13 39.50025 -13.5 110
39 40 -13 -12 39.51023 -12.5 124
39 40 -12 -11 39.49553 -11.5 116
39 40 -11 -10 39.54112 -10.5 105
39 40 -10 -9 39.48976 -9.5 115
39 40 -9 -8 39.52936 -8.5 129
39 40 -8 -7 39.48275 -7.5 119
39 40 -7 -6 39.47543 -6.5 131
39 40 -6 -5 39.53069 -5.5 141
39 40 -5 -4 39.46907 -4.5 123
39 40 -4 -3 39.46229 -3.5 131
39 40 -3 -2 39.44455 -2.5 138
39 40 -2 -1 39.53487 -1.5 123
39 40 -1 0 39.50475 -0.5 131
39 40 0 1 39.50475 0.5 131
39 40 1 2 39.53487 1.5 123
39 40 2 3 39.44455 2.5 138
39 40 3 4 39.46229 3.5 131
39 40 4 5 39.46907 4.5 123
39 40 5 6 39.53069 5.5 141
39 40 6 7 39.47543 6.5 131
39 40 7 8 39.48275 7.5 119
39 40 8 9 39.52936 8.5 129
39 40 9 10 39.48976 9.5 115
39 40 10 11 39.54112 10.5 105
39 40 11 12 39.49553 11.5 116
39 40 12 13 39.51023 12.5 124
39 40 13 14 39.50025 13.5 110
39 40 14 15 39.47484 14.5 120
39 40 15 16 39.51939 15.5 113
39 40 16 17 39.46426 16.5 108
39 40 17 18 39.49775 17.5 116
39 40 18 19 39.51334 18.5 108
39 40 19 20 39.49346 19.5 114
40 41 -20 -19 40.5033 -19.5 100
40 41 -19 -18 40.4627 -18.5 100
40 41 -18 -17 40.44511 -17.5 102
40 41 -17 -16 40.51181 -16.5 124
40 41 -16 -15 40.4807 -15.5 127
40 41 -15 -14 40.48754 -14.5 93
40 41 -14 -13 40.49976 -13.5 101
40 41 -13 -12 40.51349 -12.5 108
40 41 -12 -11 40.50344 -11.5 127
40 41 -11 -10 40.47728 -10.5 125
40 41 -10 -9 40.52283 -9.5 109
40 41 -9 -8 40.51018 -8.5 132
40 41 -8 -7 40.50461 -7.5 123
40 41 -7 -6 40.53259 -6.5 128
40 41 -6 -5 40.51421 -5.5 128
40 41 -5 -4 40.48787 -4.5 121
40 41 -4 -3 40.48079 -3.5 121
40 41 -3 -2 40.4981 -2.5 141
40 41 -2 -1 40.49214 -1.5 153
40 41 -1 0 40.50538 -0.5 163
40 41 0 1 40.50538 0.5 163
40 41 1 2 40.49214 1.5 153
40 41 2 3 40.4981 2.5 141
40 41 3 4 40.48079 3.5 121
40 41 4 5 40.48787 4.5 121
40 41 5 6 40.51421 5.5 128
40 41 6 7 40.53259 6.5 128
40 41 7 8 40.50461 7.5 123
40 41 8 9 40.51018 8.5 132
40 41 9 10 40.52283 9.5 109
40 41 10 11 40.47728 10.5 125
40 41 11 12 40.50344 11.5 127
40 41 12 13 40.51349 12.5 108
40 41 13 14 40.49976 13.5 101
40 41 14 15 40.48754 14.5 93
40 41 15 16 40.4807 15.5 127
40 41 16 17 40.51181 16.5 124
40 41 17 18 40.44511 17.5 102
40 41 18 19 40.4627 18.5 100
40 41 19 20 40.5033 19.5 100
