#norm = 1000000.0
#edges = (np.linspace(1, 41, 41), np.linspace(0, 20, 21))
#rp_low rp_high pi_low pi_high rp pi wcounts
1 2 -20 -19 1.578538 -19.5 3
1 2 -19 -18 1.571955 -18.5 12
1 2 -18 -17 1.351923 -17.5 3
1 2 -17 -16 1.670756 -16.5 10
1 2 -16 -15 1.351729 -15.5 5
1 2 -15 -14 1.625137 -14.5 12
1 2 -14 -13 1.505602 -13.5 12
1 2 -13 -12 1.507977 -12.5 6
1 2 -12 -11 1.590871 -11.5 7
1 2 -11 -10 1.458581 -10.5 13
1 2 -10 -9 1.53021 -9.5 7
1 2 -9 -8 1.599012 -8.5 11
1 2 -8 -7 1.485595 -7.5 9
1 2 -7 -6 1.62683 -6.5 11
1 2 -6 -5 1.596555 -5.5 6
1 2 -5 -4 1.404378 -4.5 9
1 2 -4 -3 1.636421 -3.5 13
1 2 -3 -2 1.531652 -2.5 10
1 2 -2 -1 1.311642 -1.5 11
1 2 -1 0 1.6963 -0.5 6
1 2 0 1 1.567536 0.5 14
1 2 1 2 1.46787 1.5 9
1 2 2 3 1.626495 2.5 14
1 2 3 4 1.545106 3.5 5
1 2 4 5 1.353423 4.5 8
1 2 5 6 1.447459 5.5 6
1 2 6 7 1.542566 6.5 10
1 2 7 8 1.578806 7.5 10
1 2 8 9 1.607155 8.5 9
1 2 9 10 1.511083 9.5 8
1 2 10 11 1.537366 10.5 8
1 2 11 12 1.571832 11.5 8
1 2 12 13 1.781402 12.5 2
1 2 13 14 1.655962 13.5 7
1 2 14 15 1.511888 14.5 7
1 2 15 16 1.596926 15.5 9
1 2 16 17 1.503068 16.5 8
1 2 17 18 1.49388 17.5 11
1 2 18 19 1.419869 18.5 6
1 2 19 20 1.472773 19.5 6
2 3 -20 -19 2.458564 -19.5 12
2 3 -19 -18 2.431049 -18.5 10
2 3 -18 -17 2.551611 -17.5 18
2 3 -17 -16 2.526614 -16.5 14
2 3 -16 -15 2.543483 -15.5 7
2 3 -15 -14 2.585448 -14.5 9
2 3 -14 -13 2.464354 -13.5 13
2 3 -13 -12 2.633282 -12.5 9
2 3 -12 -11 2.539392 -11.5 21
2 3 -11 -10 2.293569 -10.5 9
2 3 -10 -9 2.481186 -9.5 15
2 3 -9 -8 2.611423 -8.5 7
2 3 -8 -7 2.486044 -7.5 12
2 3 -7 -6 2.433877 -6.5 17
2 3 -6 -5 2.607474 -5.5 13
2 3 -5 -4 2.632032 -4.5 10
2 3 -4 -3 2.439393 -3.5 8
2 3 -3 -2 2.493097 -2.5 12
2 3 -2 -1 2.490579 -1.5 16
2 3 -1 0 2.568617 -0.5 10
2 3 0 1 2.54317 0.5 14
2 3 1 2 2.494403 1.5 21
2 3 2 3 2.548295 2.5 15
2 3 3 4 2.505618 3.5 10
2 3 4 5 2.506804 4.5 11
2 3 5 6 2.495199 5.5 13
2 3 6 7 2.673043 6.5 9
2 3 7 8 2.623363 7.5 21
2 3 8 9 2.562969 8.5 14
2 3 9 10 2.54878 9.5 18
2 3 10 11 2.547991 10.5 14
2 3 11 12 2.434524 11.5 21
2 3 12 13 2.557662 12.5 19
2 3 13 14 2.673485 13.5 19
2 3 14 15 2.571501 14.5 11
2 3 15 16 2.388564 15.5 11
2 3 16 17 2.460198 16.5 13
2 3 17 18 2.558406 17.5 12
2 3 18 19 2.517876 18.5 19
2 3 19 20 2.677805 19.5 14
3 4 -20 -19 3.537897 -19.5 13
3 4 -19 -18 3.535982 -18.5 16
3 4 -18 -17 3.53266 -17.5 20
3 4 -17 -16 3.567892 -16.5 18
3 4 -16 -15 3.602379 -15.5 17
3 4 -15 -14 3.493754 -14.5 24
3 4 -14 -13 3.514556 -13.5 26
3 4 -13 -12 3.460015 -12.5 21
3 4 -12 -11 3.459999 -11.5 18
3 4 -11 -10 3.518153 -10.5 25
3 4 -10 -9 3.712341 -9.5 27
3 4 -9 -8 3.413921 -8.5 16
3 4 -8 -7 3.383912 -7.5 14
3 4 -7 -6 3.55536 -6.5 17
3 4 -6 -5 3.348995 -5.5 14
3 4 -5 -4 3.508845 -4.5 18
3 4 -4 -3 3.579513 -3.5 19
3 4 -3 -2 3.596435 -2.5 18
3 4 -2 -1 3.533422 -1.5 20
3 4 -1 0 3.588115 -0.5 18
3 4 0 1 3.467317 0.5 22
3 4 1 2 3.599117 1.5 12
3 4 2 3 3.471217 2.5 25
3 4 3 4 3.487691 3.5 13
3 4 4 5 3.506348 4.5 30
3 4 5 6 3.492532 5.5 22
3 4 6 7 3.606329 6.5 22
3 4 7 8 3.43933 7.5 16
3 4 8 9 3.424014 8.5 17
3 4 9 10 3.554231 9.5 21
3 4 10 11 3.542734 10.5 23
3 4 11 12 3.45069 11.5 23
3 4 12 13 3.571541 12.5 15
3 4 13 14 3.644548 13.5 14
3 4 14 15 3.504454 14.5 25
3 4 15 16 3.601917 15.5 10
3 4 16 17 3.652141 16.5 13
3 4 17 18 3.582748 17.5 9
3 4 18 19 3.59261 18.5 16
3 4 19 20 3.536066 19.5 13
4 5 -20 -19 4.490896 -19.5 23
4 5 -19 -18 4.561951 -18.5 22
4 5 -18 -17 4.370902 -17.5 20
4 5 -17 -16 4.376917 -16.5 23
4 5 -16 -15 4.405766 -15.5 22
4 5 -15 -14 4.50563 -14.5 30
4 5 -14 -13 4.469326 -13.5 34
4 5 -13 -12 4.499291 -12.5 34
4 5 -12 -11 4.458 -11.5 27
4 5 -11 -10 4.609215 -10.5 26
4 5 -10 -9 4.585429 -9.5 25
4 5 -9 -8 4.43781 -8.5 17
4 5 -8 -7 4.474856 -7.5 27
4 5 -7 -6 4.487039 -6.5 23
4 5 -6 -5 4.514 -5.5 20
4 5 -5 -4 4.457336 -4.5 34
4 5 -4 -3 4.481394 -3.5 28
4 5 -3 -2 4.660503 -2.5 23
4 5 -2 -1 4.588211 -1.5 32
4 5 -1 0 4.521549 -0.5 29
4 5 0 1 4.436101 0.5 22
4 5 1 2 4.477796 1.5 28
4 5 2 3 4.588332 2.5 29
4 5 3 4 4.591816 3.5 26
4 5 4 5 4.499064 4.5 22
4 5 5 6 4.537671 5.5 18
4 5 6 7 4.502333 6.5 21
4 5 7 8 4.435137 7.5 16
4 5 8 9 4.402205 8.5 23
4 5 9 10 4.495124 9.5 22
4 5 10 11 4.561693 10.5 25
4 5 11 12 4.507992 11.5 19
4 5 12 13 4.49163 12.5 21
4 5 13 14 4.5846 13.5 27
4 5 14 15 4.6129 14.5 20
4 5 15 16 4.479286 15.5 23
4 5 16 17 4.551056 16.5 22
4 5 17 18 4.590922 17.5 27
4 5 18 19 4.564886 18.5 22
4 5 19 20 4.61792 19.5 18
5 6 -20 -19 5.453327 -19.5 18
5 6 -19 -18 5.547051 -18.5 22
5 6 -18 -17 5.512383 -17.5 27
5 6 -17 -16 5.625524 -16.5 23
5 6 -16 -15 5.496739 -15.5 24
5 6 -15 -14 5.472535 -14.5 23
5 6 -14 -13 5.496438 -13.5 24
5 6 -13 -12 5.502073 -12.5 25
5 6 -12 -11 5.571198 -11.5 26
5 6 -11 -10 5.589207 -10.5 24
5 6 -10 -9 5.471841 -9.5 32
5 6 -9 -8 5.473911 -8.5 36
5 6 -8 -7 5.563724 -7.5 36
5 6 -7 -6 5.574582 -6.5 25
5 6 -6 -5 5.498077 -5.5 42
5 6 -5 -4 5.511304 -4.5 26
5 6 -4 -3 5.518431 -3.5 30
5 6 -3 -2 5.545884 -2.5 31
5 6 -2 -1 5.468913 -1.5 28
5 6 -1 0 5.577357 -0.5 32
5 6 0 1 5.462287 0.5 23
5 6 1 2 5.477156 1.5 25
5 6 2 3 5.539053 2.5 34
5 6 3 4 5.461387 3.5 34
5 6 4 5 5.525212 4.5 31
5 6 5 6 5.443229 5.5 44
5 6 6 7 5.648634 6.5 31
5 6 7 8 5.472249 7.5 27
5 6 8 9 5.417592 8.5 25
5 6 9 10 5.453723 9.5 42
5 6 10 11 5.621071 10.5 27
5 6 11 12 5.529672 11.5 24
5 6 12 13 5.561318 12.5 32
5 6 13 14 5.467572 13.5 23
5 6 14 15 5.525778 14.5 25
5 6 15 16 5.49368 15.5 29
5 6 16 17 5.474576 16.5 23
5 6 17 18 5.503345 17.5 25
5 6 18 19 5.441114 18.5 27
5 6 19 20 5.44283 19.5 32
6 7 -20 -19 6.523625 -19.5 39
6 7 -19 -18 6.53388 -18.5 23
6 7 -18 -17 6.558861 -17.5 29
6 7 -17 -16 6.582328 -16.5 28
6 7 -16 -15 6.629481 -15.5 28
6 7 -15 -14 6.562203 -14.5 30
6 7 -14 -13 6.585567 -13.5 35
6 7 -13 -12 6.485521 -12.5 33
6 7 -12 -11 6.474604 -11.5 38
6 7 -11 -10 6.632753 -10.5 33
6 7 -10 -9 6.495468 -9.5 50
6 7 -9 -8 6.513784 -8.5 36
6 7 -8 -7 6.529014 -7.5 43
6 7 -7 -6 6.555577 -6.5 38
6 7 -6 -5 6.501326 -5.5 48
6 7 -5 -4 6.475838 -4.5 34
6 7 -4 -3 6.54096 -3.5 28
6 7 -3 -2 6.487771 -2.5 40
6 7 -2 -1 6.54331 -1.5 34
6 7 -1 0 6.498761 -0.5 44
6 7 0 1 6.558293 0.5 52
6 7 1 2 6.411417 1.5 39
6 7 2 3 6.496611 2.5 30
6 7 3 4 6.556562 3.5 44
6 7 4 5 6.456733 4.5 40
6 7 5 6 6.431116 5.5 30
6 7 6 7 6.49322 6.5 40
6 7 7 8 6.427391 7.5 41
6 7 8 9 6.493995 8.5 30
6 7 9 10 6.518018 9.5 37
6 7 10 11 6.529519 10.5 47
6 7 11 12 6.443641 11.5 39
6 7 12 13 6.500081 12.5 44
6 7 13 14 6.591308 13.5 28
6 7 14 15 6.520673 14.5 25
6 7 15 16 6.507471 15.5 43
6 7 16 17 6.507336 16.5 25
6 7 17 18 6.556438 17.5 28
6 7 18 19 6.575271 18.5 32
6 7 19 20 6.565235 19.5 30
7 8 -20 -19 7.550041 -19.5 35
7 8 -19 -18 7.541448 -18.5 37
7 8 -18 -17 7.529523 -17.5 34
7 8 -17 -16 7.492907 -16.5 34
7 8 -16 -15 7.521551 -15.5 37
7 8 -15 -14 7.568279 -14.5 34
7 8 -14 -13 7.52972 -13.5 27
7 8 -13 -12 7.491474 -12.5 44
7 8 -12 -11 7.48731 -11.5 47
7 8 -11 -10 7.474593 -10.5 42
7 8 -10 -9 7.495107 -9.5 54
7 8 -9 -8 7.511718 -8.5 37
7 8 -8 -7 7.481792 -7.5 47
7 8 -7 -6 7.486287 -6.5 59
7 8 -6 -5 7.531183 -5.5 40
7 8 -5 -4 7.441143 -4.5 58
7 8 -4 -3 7.48668 -3.5 46
7 8 -3 -2 7.519712 -2.5 33
7 8 -2 -1 7.508961 -1.5 54
7 8 -1 0 7.457968 -0.5 33
7 8 0 1 7.567696 0.5 48
7 8 1 2 7.478321 1.5 51
7 8 2 3 7.543455 2.5 45
7 8 3 4 7.521643 3.5 44
7 8 4 5 7.560832 4.5 40
7 8 5 6 7.56886 5.5 32
7 8 6 7 7.579629 6.5 32
7 8 7 8 7.506522 7.5 45
7 8 8 9 7.483744 8.5 38
7 8 9 10 7.527476 9.5 35
7 8 10 11 7.396395 10.5 58
7 8 11 12 7.471349 11.5 33
7 8 12 13 7.517954 12.5 45
7 8 13 14 7.570435 13.5 30
7 8 14 15 7.455129 14.5 39
7 8 15 16 7.556935 15.5 28
7 8 16 17 7.462397 16.5 41
7 8 17 18 7.591062 17.5 32
7 8 18 19 7.52177 18.5 26
7 8 19 20 7.510468 19.5 35
8 9 -20 -19 8.46383 -19.5 32
8 9 -19 -18 8.497246 -18.5 31
8 9 -18 -17 8.512849 -17.5 41
8 9 -17 -16 8.548245 -16.5 52
8 9 -16 -15 8.451243 -15.5 42
8 9 -15 -14 8.525219 -14.5 35
8 9 -14 -13 8.570906 -13.5 37
8 9 -13 -12 8.512944 -12.5 45
8 9 -12 -11 8.492612 -11.5 48
8 9 -11 -10 8.554079 -10.5 46
8 9 -10 -9 8.522207 -9.5 48
8 9 -9 -8 8.501396 -8.5 45
8 9 -8 -7 8.495694 -7.5 38
8 9 -7 -6 8.565261 -6.5 46
8 9 -6 -5 8.457021 -5.5 42
8 9 -5 -4 8.568995 -4.5 49
8 9 -4 -3 8.493558 -3.5 48
8 9 -3 -2 8.510556 -2.5 37
8 9 -2 -1 8.50335 -1.5 52
8 9 -1 0 8.532283 -0.5 46
8 9 0 1 8.510484 0.5 54
8 9 1 2 8.508688 1.5 55
8 9 2 3 8.506058 2.5 43
8 9 3 4 8.505482 3.5 43
8 9 4 5 8.526853 4.5 46
8 9 5 6 8.439052 5.5 52
8 9 6 7 8.523301 6.5 46
8 9 7 8 8.554693 7.5 48
8 9 8 9 8.512655 8.5 45
8 9 9 10 8.535717 9.5 47
8 9 10 11 8.592831 10.5 26
8 9 11 12 8.475962 11.5 40
8 9 12 13 8.530938 12.5 45
8 9 13 14 8.514258 13.5 41
8 9 14 15 8.550073 14.5 38
8 9 15 16 8.526534 15.5 33
8 9 16 17 8.504753 16.5 44
8 9 17 18 8.539588 17.5 37
8 9 18 19 8.507164 18.5 38
8 9 19 20 8.577646 19.5 35
9 10 -20 -19 9.483549 -19.5 43
9 10 -19 -18 9.504921 -18.5 47
9 10 -18 -17 9.511322 -17.5 44
9 10 -17 -16 9.502188 -16.5 39
9 10 -16 -15 9.539132 -15.5 56
9 10 -15 -14 9.486733 -14.5 60
9 10 -14 -13 9.503853 -13.5 53
9 10 -13 -12 9.494827 -12.5 31
9 10 -12 -11 9.484325 -11.5 52
9 10 -11 -10 9.54055 -10.5 42
9 10 -10 -9 9.536556 -9.5 52
9 10 -9 -8 9.516126 -8.5 51
9 10 -8 -7 9.442717 -7.5 52
9 10 -7 -6 9.500609 -6.5 56
9 10 -6 -5 9.57422 -5.5 58
9 10 -5 -4 9.526965 -4.5 49
9 10 -4 -3 9.468199 -3.5 53
9 10 -3 -2 9.499335 -2.5 51
9 10 -2 -1 9.490585 -1.5 54
9 10 -1 0 9.531513 -0.5 50
9 10 0 1 9.446858 0.5 52
9 10 1 2 9.509694 1.5 61
9 10 2 3 9.498354 2.5 53
9 10 3 4 9.541007 3.5 51
9 10 4 5 9.536938 4.5 52
9 10 5 6 9.440777 5.5 53
9 10 6 7 9.480043 6.5 55
9 10 7 8 9.441803 7.5 54
9 10 8 9 9.487158 8.5 47
9 10 9 10 9.552381 9.5 48
9 10 10 11 9.600505 10.5 46
9 10 11 12 9.537625 11.5 44
9 10 12 13 9.486828 12.5 44
9 10 13 14 9.519201 13.5 43
9 10 14 15 9.547713 14.5 38
9 10 15 16 9.479944 15.5 38
9 10 16 17 9.515958 16.5 49
9 10 17 18 9.495454 17.5 54
9 10 18 19 9.580238 18.5 58
9 10 19 20 9.502259 19.5 51
10 11 -20 -19 10.47174 -19.5 45
10 11 -19 -18 10.50211 -18.5 43
10 11 -18 -17 10.43 -17.5 47
10 11 -17 -16 10.56264 -16.5 62
10 11 -16 -15 10.50394 -15.5 55
10 11 -15 -14 10.48313 -14.5 52
10 11 -14 -13 10.42374 -13.5 55
10 11 -13 -12 10.48239 -12.5 55
10 11 -12 -11 10.52156 -11.5 48
10 11 -11 -10 10.49091 -10.5 48
10 11 -10 -9 10.45484 -9.5 48
10 11 -9 -8 10.52277 -8.5 50
10 11 -8 -7 10.54872 -7.5 49
10 11 -7 -6 10.54131 -6.5 55
10 11 -6 -5 10.50645 -5.5 59
10 11 -5 -4 10.57815 -4.5 61
10 11 -4 -3 10.50045 -3.5 61
10 11 -3 -2 10.47655 -2.5 53
10 11 -2 -1 10.56458 -1.5 64
10 11 -1 0 10.46266 -0.5 53
10 11 0 1 10.48087 0.5 57
10 11 1 2 10.53322 1.5 55
10 11 2 3 10.47801 2.5 58
10 11 3 4 10.44216 3.5 53
10 11 4 5 10.46167 4.5 60
10 11 5 6 10.50318 5.5 63
10 11 6 7 10.4594 6.5 57
10 11 7 8 10.54526 7.5 57
10 11 8 9 10.51077 8.5 44
10 11 9 10 10.52842 9.5 54
10 11 10 11 10.52457 10.5 48
10 11 11 12 10.53181 11.5 56
10 11 12 13 10.50478 12.5 52
10 11 13 14 10.45988 13.5 41
10 11 14 15 10.53283 14.5 52
10 11 15 16 10.55554 15.5 58
10 11 16 17 10.41073 16.5 48
10 11 17 18 10.47281 17.5 50
10 11 18 19 10.50382 18.5 59
10 11 19 20 10.46076 19.5 51
11 12 -20 -19 11.45809 -19.5 41
11 12 -19 -18 11.55815 -18.5 49
11 12 -18 -17 11.45241 -17.5 49
11 12 -17 -16 11.46858 -16.5 48
11 12 -16 -15 11.53548 -15.5 43
11 12 -15 -14 11.49853 -14.5 61
11 12 -14 -13 11.48723 -13.5 41
11 12 -13 -12 11.41201 -12.5 56
11 12 -12 -11 11.44631 -11.5 66
11 12 -11 -10 11.51039 -10.5 51
11 12 -10 -9 11.52147 -9.5 60
11 12 -9 -8 11.46973 -8.5 68
11 12 -8 -7 11.60304 -7.5 68
11 12 -7 -6 11.577 -6.5 69
11 12 -6 -5 11.5378 -5.5 57
11 12 -5 -4 11.50523 -4.5 80
11 12 -4 -3 11.51531 -3.5 57
11 12 -3 -2 11.52975 -2.5 59
11 12 -2 -1 11.49315 -1.5 68
11 12 -1 0 11.50525 -0.5 54
11 12 0 1 11.55338 0.5 54
11 12 1 2 11.4387 1.5 54
11 12 2 3 11.51615 2.5 68
11 12 3 4 11.44244 3.5 67
11 12 4 5 11.56874 4.5 52
11 12 5 6 11.49879 5.5 63
11 12 6 7 11.49447 6.5 54
11 12 7 8 11.46117 7.5 58
11 12 8 9 11.47176 8.5 66
11 12 9 10 11.48045 9.5 60
11 12 10 11 11.52117 10.5 60
11 12 11 12 11.44593 11.5 43
11 12 12 13 11.43242 12.5 47
11 12 13 14 11.56095 13.5 52
11 12 14 15 11.53272 14.5 38
11 12 15 16 11.48672 15.5 55
11 12 16 17 11.55335 16.5 46
11 12 17 18 11.48214 17.5 51
11 12 18 19 11.59269 18.5 48
11 12 19 20 11.5399 19.5 47
12 13 -20 -19 12.48388 -19.5 54
12 13 -19 -18 12.47219 -18.5 55
12 13 -18 -17 12.49531 -17.5 59
12 13 -17 -16 12.55651 -16.5 45
12 13 -16 -15 12.46281 -15.5 53
12 13 -15 -14 12.46927 -14.5 65
12 13 -14 -13 12.47379 -13.5 55
12 13 -13 -12 12.52463 -12.5 67
12 13 -12 -11 12.47072 -11.5 55
12 13 -11 -10 12.5332 -10.5 46
12 13 -10 -9 12.5295 -9.5 56
12 13 -9 -8 12.52747 -8.5 55
12 13 -8 -7 12.54292 -7.5 61
12 13 -7 -6 12.52378 -6.5 68
12 13 -6 -5 12.49725 -5.5 57
12 13 -5 -4 12.54096 -4.5 72
12 13 -4 -3 12.46883 -3.5 60
12 13 -3 -2 12.47474 -2.5 69
12 13 -2 -1 12.56477 -1.5 76
12 13 -1 0 12.49037 -0.5 75
12 13 0 1 12.53156 0.5 68
12 13 1 2 12.42988 1.5 68
12 13 2 3 12.49444 2.5 76
12 13 3 4 12.49668 3.5 61
12 13 4 5 12.43699 4.5 50
12 13 5 6 12.4845 5.5 71
12 13 6 7 12.48173 6.5 69
12 13 7 8 12.51806 7.5 69
12 13 8 9 12.52664 8.5 67
12 13 9 10 12.486 9.5 51
12 13 10 11 12.47708 10.5 64
12 13 11 12 12.47199 11.5 74
12 13 12 13 12.48226 12.5 60
12 13 13 14 12.4976 13.5 61
12 13 14 15 12.47354 14.5 39
12 13 15 16 12.49084 15.5 48
12 13 16 17 12.47286 16.5 49
12 13 17 18 12.49617 17.5 55
12 13 18 19 12.48109 18.5 59
12 13 19 20 12.49591 19.5 41
13 14 -20 -19 13.50521 -19.5 53
13 14 -19 -18 13.454 -18.5 63
13 14 -18 -17 13.53615 -17.5 55
13 14 -17 -16 13.52046 -16.5 58
13 14 -16 -15 13.54565 -15.5 57
13 14 -15 -14 13.59957 -14.5 49
13 14 -14 -13 13.51885 -13.5 69
13 14 -13 -12 13.58321 -12.5 47
13 14 -12 -11 13.5115 -11.5 57
13 14 -11 -10 13.47996 -10.5 73
13 14 -10 -9 13.46712 -9.5 69
13 14 -9 -8 13.4997 -8.5 91
13 14 -8 -7 13.53653 -7.5 83
13 14 -7 -6 13.51487 -6.5 66
13 14 -6 -5 13.51648 -5.5 62
13 14 -5 -4 13.56747 -4.5 65
13 14 -4 -3 13.52202 -3.5 64
13 14 -3 -2 13.52069 -2.5 70
13 14 -2 -1 13.43848 -1.5 58
13 14 -1 0 13.49053 -0.5 54
13 14 0 1 13.46092 0.5 66
13 14 1 2 13.52485 1.5 89
13 14 2 3 13.54448 2.5 57
13 14 3 4 13.57543 3.5 72
13 14 4 5 13.52587 4.5 66
13 14 5 6 13.43672 5.5 75
13 14 6 7 13.55294 6.5 80
13 14 7 8 13.56332 7.5 60
13 14 8 9 13.51208 8.5 70
13 14 9 10 13.45898 9.5 63
13 14 10 11 13.52104 10.5 56
13 14 11 12 13.51241 11.5 68
13 14 12 13 13.49977 12.5 65
13 14 13 14 13.53057 13.5 70
13 14 14 15 13.48816 14.5 55
13 14 15 16 13.45735 15.5 60
13 14 16 17 13.55298 16.5 59
13 14 17 18 13.52085 17.5 52
13 14 18 19 13.46569 18.5 53
13 14 19 20 13.47789 19.5 48
14 15 -20 -19 14.45791 -19.5 56
14 15 -19 -18 14.55789 -18.5 57
14 15 -18 -17 14.41216 -17.5 60
14 15 -17 -16 14.51687 -16.5 67
14 15 -16 -15 14.4959 -15.5 63
14 15 -15 -14 14.46347 -14.5 67
14 15 -14 -13 14.53162 -13.5 69
14 15 -13 -12 14.52909 -12.5 66
14 15 -12 -11 14.4567 -11.5 67
14 15 -11 -10 14.48019 -10.5 59
14 15 -10 -9 14.51192 -9.5 86
14 15 -9 -8 14.45332 -8.5 80
14 15 -8 -7 14.4846 -7.5 61
14 15 -7 -6 14.52808 -6.5 58
14 15 -6 -5 14.51446 -5.5 70
14 15 -5 -4 14.52996 -4.5 76
14 15 -4 -3 14.45763 -3.5 74
14 15 -3 -2 14.52703 -2.5 84
14 15 -2 -1 14.48639 -1.5 73
14 15 -1 0 14.49738 -0.5 72
14 15 0 1 14.52644 0.5 82
14 15 1 2 14.53337 1.5 72
14 15 2 3 14.49905 2.5 85
14 15 3 4 14.47823 3.5 73
14 15 4 5 14.50225 4.5 69
14 15 5 6 14.5371 5.5 62
14 15 6 7 14.49952 6.5 87
14 15 7 8 14.47341 7.5 54
14 15 8 9 14.48488 8.5 70
14 15 9 10 14.55005 9.5 78
14 15 10 11 14.48917 10.5 56
14 15 11 12 14.57345 11.5 62
14 15 12 13 14.49968 12.5 54
14 15 13 14 14.48785 13.5 62
14 15 14 15 14.51473 14.5 62
14 15 15 16 14.51939 15.5 69
14 15 16 17 14.51538 16.5 71
14 15 17 18 14.54352 17.5 48
14 15 18 19 14.52511 18.5 51
14 15 19 20 14.5514 19.5 61
15 16 -20 -19 15.58177 -19.5 47
15 16 -19 -18 15.49228 -18.5 69
15 16 -18 -17 15.4854 -17.5 73
15 16 -17 -16 15.49346 -16.5 72
15 16 -16 -15 15.43398 -15.5 56
15 16 -15 -14 15.48672 -14.5 52
15 16 -14 -13 15.52825 -13.5 59
15 16 -13 -12 15.46606 -12.5 61
15 16 -12 -11 15.45497 -11.5 49
15 16 -11 -10 15.50671 -10.5 82
15 16 -10 -9 15.48103 -9.5 77
15 16 -9 -8 15.49269 -8.5 65
15 16 -8 -7 15.47581 -7.5 76
15 16 -7 -6 15.51903 -6.5 77
15 16 -6 -5 15.44348 -5.5 78
15 16 -5 -4 15.47188 -4.5 91
15 16 -4 -3 15.48232 -3.5 95
15 16 -3 -2 15.50211 -2.5 76
15 16 -2 -1 15.49432 -1.5 82
15 16 -1 0 15.47205 -0.5 84
15 16 0 1 15.46183 0.5 69
15 16 1 2 15.44268 1.5 65
15 16 2 3 15.524 2.5 74
15 16 3 4 15.57274 3.5 57
15 16 4 5 15.53132 4.5 72
15 16 5 6 15.59541 5.5 57
15 16 6 7 15.59776 6.5 70
15 16 7 8 15.48199 7.5 76
15 16 8 9 15.49337 8.5 74
15 16 9 10 15.5318 9.5 64
15 16 10 11 15.45724 10.5 60
15 16 11 12 15.48499 11.5 72
15 16 12 13 15.5029 12.5 73
15 16 13 14 15.50409 13.5 66
15 16 14 15 15.53466 14.5 76
15 16 15 16 15.49758 15.5 68
15 16 16 17 15.48964 16.5 55
15 16 17 18 15.48612 17.5 66
15 16 18 19 15.41915 18.5 58
15 16 19 20 15.48853 19.5 75
16 17 -20 -19 16.50678 -19.5 61
16 17 -19 -18 16.50283 -18.5 60
16 17 -18 -17 16.53976 -17.5 63
16 17 -17 -16 16.48883 -16.5 64
16 17 -16 -15 16.53153 -15.5 72
16 17 -15 -14 16.50495 -14.5 71
16 17 -14 -13 16.50399 -13.5 70
16 17 -13 -12 16.51224 -12.5 91
16 17 -12 -11 16.54578 -11.5 68
16 17 -11 -10 16.4805 -10.5 80
16 17 -10 -9 16.53044 -9.5 78
16 17 -9 -8 16.50009 -8.5 73
16 17 -8 -7 16.45715 -7.5 70
16 17 -7 -6 16.58272 -6.5 70
16 17 -6 -5 16.47799 -5.5 74
16 17 -5 -4 16.50247 -4.5 93
16 17 -4 -3 16.5215 -3.5 78
16 17 -3 -2 16.49058 -2.5 89
16 17 -2 -1 16.48844 -1.5 87
16 17 -1 0 16.52416 -0.5 67
16 17 0 1 16.49101 0.5 75
16 17 1 2 16.46232 1.5 75
16 17 2 3 16.5147 2.5 68
16 17 3 4 16.53727 3.5 73
16 17 4 5 16.47181 4.5 73
16 17 5 6 16.46774 5.5 73
16 17 6 7 16.58232 6.5 77
16 17 7 8 16.48481 7.5 85
16 17 8 9 16.49027 8.5 98
16 17 9 10 16.55915 9.5 73
16 17 10 11 16.57074 10.5 77
16 17 11 12 16.48648 11.5 64
16 17 12 13 16.51189 12.5 70
16 17 13 14 16.52661 13.5 59
16 17 14 15 16.48924 14.5 61
16 17 15 16 16.50992 15.5 70
16 17 16 17 16.48533 16.5 85
16 17 17 18 16.48159 17.5 62
16 17 18 19 16.492 18.5 69
16 17 19 20 16.53522 19.5 67
17 18 -20 -19 17.47542 -19.5 76
17 18 -19 -18 17.47471 -18.5 59
17 18 -18 -17 17.54107 -17.5 66
17 18 -17 -16 17.46851 -16.5 81
17 18 -16 -15 17.43361 -15.5 64
17 18 -15 -14 17.47774 -14.5 62
17 18 -14 -13 17.50369 -13.5 81
17 18 -13 -12 17.50297 -12.5 78
17 18 -12 -11 17.52444 -11.5 92
17 18 -11 -10 17.50461 -10.5 70
17 18 -10 -9 17.52661 -9.5 79
17 18 -9 -8 17.48156 -8.5 69
17 18 -8 -7 17.52054 -7.5 76
17 18 -7 -6 17.51364 -6.5 83
17 18 -6 -5 17.51924 -5.5 71
17 18 -5 -4 17.51819 -4.5 82
17 18 -4 -3 17.54774 -3.5 87
17 18 -3 -2 17.45971 -2.5 78
17 18 -2 -1 17.57174 -1.5 89
17 18 -1 0 17.51072 -0.5 83
17 18 0 1 17.52969 0.5 89
17 18 1 2 17.4892 1.5 82
17 18 2 3 17.50535 2.5 96
17 18 3 4 17.49476 3.5 92
17 18 4 5 17.46427 4.5 80
17 18 5 6 17.51265 5.5 71
17 18 6 7 17.4783 6.5 85
17 18 7 8 17.50296 7.5 73
17 18 8 9 17.49521 8.5 75
17 18 9 10 17.43318 9.5 98
17 18 10 11 17.51267 10.5 72
17 18 11 12 17.51433 11.5 66
17 18 12 13 17.49417 12.5 68
17 18 13 14 17.52548 13.5 74
17 18 14 15 17.49293 14.5 81
17 18 15 16 17.49951 15.5 78
17 18 16 17 17.55641 16.5 71
17 18 17 18 17.4797 17.5 66
17 18 18 19 17.48195 18.5 90
17 18 19 20 17.41847 19.5 74
18 19 -20 -19 18.56564 -19.5 68
18 19 -19 -18 18.45598 -18.5 74
18 19 -18 -17 18.49429 -17.5 60
18 19 -17 -16 18.50813 -16.5 57
18 19 -16 -15 18.47562 -15.5 78
18 19 -15 -14 18.5419 -14.5 69
18 19 -14 -13 18.53497 -13.5 61
18 19 -13 -12 18.48639 -12.5 75
18 19 -12 -11 18.50157 -11.5 83
18 19 -11 -10 18.52674 -10.5 78
18 19 -10 -9 18.49369 -9.5 71
18 19 -9 -8 18.46394 -8.5 97
18 19 -8 -7 18.50665 -7.5 81
18 19 -7 -6 18.49189 -6.5 91
18 19 -6 -5 18.48274 -5.5 117
18 19 -5 -4 18.57725 -4.5 89
18 19 -4 -3 18.44735 -3.5 90
18 19 -3 -2 18.49791 -2.5 77
18 19 -2 -1 18.53936 -1.5 66
18 19 -1 0 18.50374 -0.5 77
18 19 0 1 18.49268 0.5 90
18 19 1 2 18.54816 1.5 78
18 19 2 3 18.52296 2.5 99
18 19 3 4 18.52411 3.5 92
18 19 4 5 18.48824 4.5 117
18 19 5 6 18.5019 5.5 84
18 19 6 7 18.52753 6.5 84
18 19 7 8 18.53626 7.5 69
18 19 8 9 18.52141 8.5 86
18 19 9 10 18.50974 9.5 67
18 19 10 11 18.50026 10.5 87
18 19 11 12 18.48278 11.5 92
18 19 12 13 18.47403 12.5 79
18 19 13 14 18.46372 13.5 76
18 19 14 15 18.50182 14.5 80
18 19 15 16 18.53218 15.5 71
18 19 16 17 18.46945 16.5 76
18 19 17 18 18.4997 17.5 69
18 19 18 19 18.52129 18.5 76
18 19 19 20 18.47682 19.5 68
19 20 -20 -19 19.50164 -19.5 69
19 20 -19 -18 19.54115 -18.5 72
19 20 -18 -17 19.48286 -17.5 103
19 20 -17 -16 19.47744 -16.5 89
19 20 -16 -15 19.47938 -15.5 74
19 20 -15 -14 19.48846 -14.5 68
19 20 -14 -13 19.54231 -13.5 82
19 20 -13 -12 19.47144 -12.5 78
19 20 -12 -11 19.5232 -11.5 119
19 20 -11 -10 19.48412 -10.5 84
19 20 -10 -9 19.47638 -9.5 98
19 20 -9 -8 19.44457 -8.5 87
19 20 -8 -7 19.54224 -7.5 71
19 20 -7 -6 19.51517 -6.5 96
19 20 -6 -5 19.49959 -5.5 88
19 20 -5 -4 19.52516 -4.5 94
19 20 -4 -3 19.47561 -3.5 86
19 20 -3 -2 19.5123 -2.5 94
19 20 -2 -1 19.52183 -1.5 125
19 20 -1 0 19.50997 -0.5 87
19 20 0 1 19.45505 0.5 107
19 20 1 2 19.51232 1.5 86
19 20 2 3 19.51944 2.5 82
19 20 3 4 19.48491 3.5 85
19 20 4 5 19.51098 4.5 94
19 20 5 6 19.46685 5.5 81
19 20 6 7 19.52935 6.5 75
19 20 7 8 19.50018 7.5 80
19 20 8 9 19.47749 8.5 89
19 20 9 10 19.50906 9.5 68
19 20 10 11 19.47122 10.5 79
19 20 11 12 19.53515 11.5 86
19 20 12 13 19.50305 12.5 101
19 20 13 14 19.53248 13.5 82
19 20 14 15 19.53485 14.5 76
19 20 15 16 19.53131 15.5 104
19 20 16 17 19.51671 16.5 81
19 20 17 18 19.4732 17.5 73
19 20 18 19 19.52182 18.5 64
19 20 19 20 19.4562 19.5 64
20 21 -20 -19 20.4842 -19.5 74
20 21 -19 -18 20.47445 -18.5 66
20 21 -18 -17 20.54589 -17.5 80
20 21 -17 -16 20.48293 -16.5 76
20 21 -16 -15 20.51701 -15.5 88
20 21 -15 -14 20.47889 -14.5 71
20 21 -14 -13 20.46136 -13.5 71
20 21 -13 -12 20.5502 -12.5 71
20 21 -12 -11 20.5278 -11.5 98
20 21 -11 -10 20.52475 -10.5 84
20 21 -10 -9 20.49389 -9.5 88
20 21 -9 -8 20.50685 -8.5 92
20 21 -8 -7 20.48181 -7.5 94
20 21 -7 -6 20.50017 -6.5 84
20 21 -6 -5 20.45544 -5.5 100
20 21 -5 -4 20.52634 -4.5 88
20 21 -4 -3 20.4671 -3.5 105
20 21 -3 -2 20.54381 -2.5 79
20 21 -2 -1 20.5466 -1.5 97
20 21 -1 0 20.54992 -0.5 102
20 21 0 1 20.49048 0.5 101
20 21 1 2 20.51585 1.5 102
20 21 2 3 20.5534 2.5 85
20 21 3 4 20.45824 3.5 79
20 21 4 5 20.4905 4.5 95
20 21 5 6 20.48583 5.5 73
20 21 6 7 20.49326 6.5 99
20 21 7 8 20.51389 7.5 93
20 21 8 9 20.50059 8.5 92
20 21 9 10 20.45805 9.5 89
20 21 10 11 20.46547 10.5 74
20 21 11 12 20.49799 11.5 89
20 21 12 13 20.4813 12.5 84
20 21 13 14 20.53508 13.5 94
20 21 14 15 20.47409 14.5 92
20 21 15 16 20.51035 15.5 89
20 21 16 17 20.50223 16.5 81
20 21 17 18 20.5472 17.5 75
20 21 18 19 20.50361 18.5 68
20 21 19 20 20.4991 19.5 81
21 22 -20 -19 21.50136 -19.5 80
21 22 -19 -18 21.50267 -18.5 74
21 22 -18 -17 21.48292 -17.5 81
21 22 -17 -16 21.46186 -16.5 88
21 22 -16 -15 21.5643 -15.5 80
21 22 -15 -14 21.50244 -14.5 97
21 22 -14 -13 21.52309 -13.5 86
21 22 -13 -12 21.49888 -12.5 92
21 22 -12 -11 21.5134 -11.5 80
21 22 -11 -10 21.43763 -10.5 87
21 22 -10 -9 21.54722 -9.5 85
21 22 -9 -8 21.53094 -8.5 89
21 22 -8 -7 21.52469 -7.5 83
21 22 -7 -6 21.54521 -6.5 98
21 22 -6 -5 21.49669 -5.5 101
21 22 -5 -4 21.49006 -4.5 95
21 22 -4 -3 21.47127 -3.5 95
21 22 -3 -2 21.52374 -2.5 96
21 22 -2 -1 21.42704 -1.5 102
21 22 -1 0 21.48296 -0.5 119
21 22 0 1 21.48455 0.5 105
21 22 1 2 21.46471 1.5 81
21 22 2 3 21.50236 2.5 99
21 22 3 4 21.54142 3.5 90
21 22 4 5 21.50063 4.5 108
21 22 5 6 21.41635 5.5 82
21 22 6 7 21.51013 6.5 86
21 22 7 8 21.45525 7.5 80
21 22 8 9 21.47195 8.5 104
21 22 9 10 21.437 9.5 81
21 22 10 11 21.53159 10.5 94
21 22 11 12 21.45272 11.5 79
21 22 12 13 21.50432 12.5 88
21 22 13 14 21.52388 13.5 77
21 22 14 15 21.45966 14.5 71
21 22 15 16 21.50677 15.5 77
21 22 16 17 21.488 16.5 95
21 22 17 18 21.48367 17.5 74
21 22 18 19 21.48612 18.5 86
21 22 19 20 21.53086 19.5 79
22 23 -20 -19 22.5272 -19.5 83
22 23 -19 -18 22.48986 -18.5 86
22 23 -18 -17 22.53236 -17.5 78
22 23 -17 -16 22.51216 -16.5 90
22 23 -16 -15 22.46108 -15.5 82
22 23 -15 -14 22.49569 -14.5 85
22 23 -14 -13 22.49346 -13.5 99
22 23 -13 -12 22.45403 -12.5 93
22 23 -12 -11 22.50083 -11.5 100
22 23 -11 -10 22.51584 -10.5 106
22 23 -10 -9 22.59018 -9.5 79
22 23 -9 -8 22.43446 -8.5 98
22 23 -8 -7 22.51701 -7.5 108
22 23 -7 -6 22.54379 -6.5 99
22 23 -6 -5 22.47164 -5.5 99
22 23 -5 -4 22.52466 -4.5 104
22 23 -4 -3 22.48694 -3.5 107
22 23 -3 -2 22.55785 -2.5 92
22 23 -2 -1 22.49186 -1.5 101
22 23 -1 0 22.53609 -0.5 96
22 23 0 1 22.48522 0.5 109
22 23 1 2 22.44022 1.5 89
22 23 2 3 22.49458 2.5 91
22 23 3 4 22.4763 3.5 92
22 23 4 5 22.48525 4.5 95
22 23 5 6 22.48383 5.5 106
22 23 6 7 22.44826 6.5 100
22 23 7 8 22.55695 7.5 112
22 23 8 9 22.46634 8.5 99
22 23 9 10 22.52357 9.5 81
22 23 10 11 22.54332 10.5 85
22 23 11 12 22.54895 11.5 101
22 23 12 13 22.47516 12.5 84
22 23 13 14 22.43249 13.5 78
22 23 14 15 22.49108 14.5 96
22 23 15 16 22.4959 15.5 90
22 23 16 17 22.51193 16.5 88
22 23 17 18 22.51309 17.5 88
22 23 18 19 22.47944 18.5 82
22 23 19 20 22.49301 19.5 68
23 24 -20 -19 23.52628 -19.5 101
23 24 -19 -18 23.44535 -18.5 76
23 24 -18 -17 23.51025 -17.5 77
23 24 -17 -16 23.50215 -16.5 80
23 24 -16 -15 23.52713 -15.5 99
23 24 -15 -14 23.57246 -14.5 76
23 24 -14 -13 23.47847 -13.5 100
23 24 -13 -12 23.49941 -12.5 81
23 24 -12 -11 23.54092 -11.5 89
23 24 -11 -10 23.52466 -10.5 100
23 24 -10 -9 23.52388 -9.5 85
23 24 -9 -8 23.47912 -8.5 114
23 24 -8 -7 23.53634 -7.5 100
23 24 -7 -6 23.51047 -6.5 103
23 24 -6 -5 23.52829 -5.5 116
23 24 -5 -4 23.54842 -4.5 109
23 24 -4 -3 23.52704 -3.5 112
23 24 -3 -2 23.52918 -2.5 93
23 24 -2 -1 23.51018 -1.5 93
23 24 -1 0 23.4847 -0.5 111
23 24 0 1 23.50628 0.5 103
23 24 1 2 23.51709 1.5 96
23 24 2 3 23.52292 2.5 99
23 24 3 4 23.48492 3.5 99
23 24 4 5 23.47819 4.5 89
23 24 5 6 23.49331 5.5 90
23 24 6 7 23.51339 6.5 77
23 24 7 8 23.47667 7.5 88
23 24 8 9 23.51979 8.5 105
23 24 9 10 23.51781 9.5 97
23 24 10 11 23.47511 10.5 84
23 24 11 12 23.52233 11.5 103
23 24 12 13 23.53226 12.5 84
23 24 13 14 23.52797 13.5 73
23 24 14 15 23.48379 14.5 90
23 24 15 16 23.52077 15.5 92
23 24 16 17 23.48289 16.5 76
23 24 17 18 23.50818 17.5 74
23 24 18 19 23.48698 18.5 87
23 24 19 20 23.46959 19.5 86
24 25 -20 -19 24.49527 -19.5 83
24 25 -19 -18 24.51867 -18.5 78
24 25 -18 -17 24.58187 -17.5 102
24 25 -17 -16 24.47885 -16.5 96
24 25 -16 -15 24.53995 -15.5 101
24 25 -15 -14 24.48367 -14.5 81
24 25 -14 -13 24.49594 -13.5 105
24 25 -13 -12 24.46931 -12.5 112
24 25 -12 -11 24.5322 -11.5 100
24 25 -11 -10 24.51255 -10.5 86
24 25 -10 -9 24.47827 -9.5 88
24 25 -9 -8 24.46124 -8.5 111
24 25 -8 -7 24.47054 -7.5 105
24 25 -7 -6 24.45206 -6.5 93
24 25 -6 -5 24.48719 -5.5 97
24 25 -5 -4 24.51729 -4.5 108
24 25 -4 -3 24.5081 -3.5 121
24 25 -3 -2 24.48285 -2.5 115
24 25 -2 -1 24.52911 -1.5 104
24 25 -1 0 24.50609 -0.5 102
24 25 0 1 24.49004 0.5 112
24 25 1 2 24.49744 1.5 105
24 25 2 3 24.55446 2.5 90
24 25 3 4 24.47146 3.5 97
24 25 4 5 24.47346 4.5 103
24 25 5 6 24.50009 5.5 120
24 25 6 7 24.52935 6.5 95
24 25 7 8 24.52572 7.5 102
24 25 8 9 24.52292 8.5 96
24 25 9 10 24.45587 9.5 92
24 25 10 11 24.47263 10.5 109
24 25 11 12 24.49612 11.5 96
24 25 12 13 24.49234 12.5 107
24 25 13 14 24.46216 13.5 77
24 25 14 15 24.51316 14.5 95
24 25 15 16 24.45502 15.5 76
24 25 16 17 24.49757 16.5 82
24 25 17 18 24.48427 17.5 91
24 25 18 19 24.49946 18.5 88
24 25 19 20 24.56631 19.5 76
25 26 -20 -19 25.47769 -19.5 92
25 26 -19 -18 25.50194 -18.5 101
25 26 -18 -17 25.50602 -17.5 108
25 26 -17 -16 25.49458 -16.5 95
25 26 -16 -15 25.53542 -15.5 96
25 26 -15 -14 25.49547 -14.5 92
25 26 -14 -13 25.43585 -13.5 93
25 26 -13 -12 25.49616 -12.5 110
25 26 -12 -11 25.52336 -11.5 94
25 26 -11 -10 25.47184 -10.5 95
25 26 -10 -9 25.50187 -9.5 97
25 26 -9 -8 25.5435 -8.5 98
25 26 -8 -7 25.53021 -7.5 91
25 26 -7 -6 25.47201 -6.5 120
25 26 -6 -5 25.50414 -5.5 112
25 26 -5 -4 25.52568 -4.5 105
25 26 -4 -3 25.5327 -3.5 102
25 26 -3 -2 25.50051 -2.5 106
25 26 -2 -1 25.53023 -1.5 97
25 26 -1 0 25.51211 -0.5 124
25 26 0 1 25.51433 0.5 102
25 26 1 2 25.54337 1.5 126
25 26 2 3 25.53162 2.5 111
25 26 3 4 25.47518 3.5 99
25 26 4 5 25.53854 4.5 90
25 26 5 6 25.49542 5.5 94
25 26 6 7 25.51881 6.5 92
25 26 7 8 25.48202 7.5 101
25 26 8 9 25.47521 8.5 91
25 26 9 10 25.47024 9.5 105
25 26 10 11 25.50588 10.5 93
25 26 11 12 25.45667 11.5 89
25 26 12 13 25.51592 12.5 96
25 26 13 14 25.49422 13.5 110
25 26 14 15 25.49239 14.5 85
25 26 15 16 25.43924 15.5 95
25 26 16 17 25.52408 16.5 102
25 26 17 18 25.52724 17.5 92
25 26 18 19 25.43572 18.5 81
25 26 19 20 25.52533 19.5 89
26 27 -20 -19 26.49647 -19.5 89
26 27 -19 -18 26.51285 -18.5 80
26 27 -18 -17 26.46185 -17.5 86
26 27 -17 -16 26.45099 -16.5 82
26 27 -16 -15 26.50736 -15.5 101
26 27 -15 -14 26.50369 -14.5 96
26 27 -14 -13 26.49812 -13.5 119
26 27 -13 -12 26.50934 -12.5 97
26 27 -12 -11 26.48526 -11.5 96
26 27 -11 -10 26.51579 -10.5 84
26 27 -10 -9 26.51637 -9.5 70
26 27 -9 -8 26.48735 -8.5 118
26 27 -8 -7 26.50124 -7.5 118
26 27 -7 -6 26.55297 -6.5 112
26 27 -6 -5 26.49455 -5.5 104
26 27 -5 -4 26.46801 -4.5 114
26 27 -4 -3 26.57488 -3.5 97
26 27 -3 -2 26.49555 -2.5 95
26 27 -2 -1 26.47519 -1.5 132
26 27 -1 0 26.50647 -0.5 96
26 27 0 1 26.49913 0.5 112
26 27 1 2 26.49379 1.5 110
26 27 2 3 26.51781 2.5 112
26 27 3 4 26.50223 3.5 100
26 27 4 5 26.52763 4.5 117
26 27 5 6 26.4841 5.5 95
26 27 6 7 26.52635 6.5 116
26 27 7 8 26.48848 7.5 93
26 27 8 9 26.49199 8.5 111
26 27 9 10 26.49819 9.5 110
26 27 10 11 26.47749 10.5 100
26 27 11 12 26.49788 11.5 91
26 27 12 13 26.47142 12.5 90
26 27 13 14 26.5114 13.5 86
26 27 14 15 26.51914 14.5 85
26 27 15 16 26.45936 15.5 93
26 27 16 17 26.51677 16.5 81
26 27 17 18 26.53258 17.5 102
26 27 18 19 26.50759 18.5 108
26 27 19 20 26.48331 19.5 95
27 28 -20 -19 27.46749 -19.5 85
27 28 -19 -18 27.51374 -18.5 90
27 28 -18 -17 27.5691 -17.5 117
27 28 -17 -16 27.48075 -16.5 88
27 28 -16 -15 27.51604 -15.5 105
27 28 -15 -14 27.54884 -14.5 76
27 28 -14 -13 27.48159 -13.5 93
27 28 -13 -12 27.49629 -12.5 88
27 28 -12 -11 27.50611 -11.5 99
27 28 -11 -10 27.53557 -10.5 108
27 28 -10 -9 27.50199 -9.5 95
27 28 -9 -8 27.49649 -8.5 109
27 28 -8 -7 27.49764 -7.5 118
27 28 -7 -6 27.48205 -6.5 110
27 28 -6 -5 27.49104 -5.5 117
27 28 -5 -4 27.56438 -4.5 128
27 28 -4 -3 27.48581 -3.5 112
27 28 -3 -2 27.55801 -2.5 106
27 28 -2 -1 27.52119 -1.5 104
27 28 -1 0 27.45985 -0.5 103
27 28 0 1 27.52604 0.5 119
27 28 1 2 27.531 1.5 123
27 28 2 3 27.47615 2.5 126
27 28 3 4 27.52642 3.5 119
27 28 4 5 27.53784 4.5 100
27 28 5 6 27.52958 5.5 111
27 28 6 7 27.48849 6.5 110
27 28 7 8 27.50459 7.5 120
27 28 8 9 27.50076 8.5 101
27 28 9 10 27.49554 9.5 109
27 28 10 11 27.48542 10.5 83
27 28 11 12 27.51217 11.5 99
27 28 12 13 27.52401 12.5 78
27 28 13 14 27.4668 13.5 109
27 28 14 15 27.46375 14.5 107
27 28 15 16 27.53348 15.5 89
27 28 16 17 27.55629 16.5 89
27 28 17 18 27.51733 17.5 89
27 28 18 19 27.50001 18.5 109
27 28 19 20 27.52403 19.5 86
28 29 -20 -19 28.52951 -19.5 94
28 29 -19 -18 28.48695 -18.5 89
28 29 -18 -17 28.51394 -17.5 110
28 29 -17 -16 28.48841 -16.5 95
28 29 -16 -15 28.45919 -15.5 85
28 29 -15 -14 28.52108 -14.5 98
28 29 -14 -13 28.52123 -13.5 103
28 29 -13 -12 28.50659 -12.5 84
28 29 -12 -11 28.46343 -11.5 111
28 29 -11 -10 28.50311 -10.5 114
28 29 -10 -9 28.49973 -9.5 120
28 29 -9 -8 28.51124 -8.5 109
28 29 -8 -7 28.52771 -7.5 111
28 29 -7 -6 28.49384 -6.5 102
28 29 -6 -5 28.54156 -5.5 120
28 29 -5 -4 28.46927 -4.5 98
28 29 -4 -3 28.45284 -3.5 109
28 29 -3 -2 28.4999 -2.5 103
28 29 -2 -1 28.53082 -1.5 100
28 29 -1 0 28.50643 -0.5 117
28 29 0 1 28.47264 0.5 113
28 29 1 2 28.53023 1.5 122
28 29 2 3 28.48637 2.5 106
28 29 3 4 28.49411 3.5 117
28 29 4 5 28.48054 4.5 129
28 29 5 6 28.49805 5.5 106
28 29 6 7 28.51467 6.5 121
28 29 7 8 28.48007 7.5 108
28 29 8 9 28.5237 8.5 118
28 29 9 10 28.44353 9.5 121
28 29 10 11 28.4921 10.5 117
28 29 11 12 28.4817 11.5 96
28 29 12 13 28.51622 12.5 95
28 29 13 14 28.46887 13.5 94
28 29 14 15 28.50843 14.5 100
28 29 15 16 28.5152 15.5 83
28 29 16 17 28.56006 16.5 105
28 29 17 18 28.49095 17.5 104
28 29 18 19 28.52602 18.5 101
28 29 19 20 28.49298 19.5 106
29 30 -20 -19 29.51886 -19.5 113
29 30 -19 -18 29.44431 -18.5 73
29 30 -18 -17 29.544 -17.5 98
29 30 -17 -16 29.51453 -16.5 92
29 30 -16 -15 29.4879 -15.5 89
29 30 -15 -14 29.50316 -14.5 113
29 30 -14 -13 29.52489 -13.5 95
29 30 -13 -12 29.56671 -12.5 110
29 30 -12 -11 29.50565 -11.5 97
29 30 -11 -10 29.48403 -10.5 116
29 30 -10 -9 29.50185 -9.5 113
29 30 -9 -8 29.50574 -8.5 124
29 30 -8 -7 29.50232 -7.5 119
29 30 -7 -6 29.4871 -6.5 116
29 30 -6 -5 29.44594 -5.5 123
29 30 -5 -4 29.53687 -4.5 118
29 30 -4 -3 29.48809 -3.5 117
29 30 -3 -2 29.51817 -2.5 128
29 30 -2 -1 29.51348 -1.5 127
29 30 -1 0 29.52887 -0.5 123
29 30 0 1 29.4648 0.5 113
29 30 1 2 29.4859 1.5 105
29 30 2 3 29.48846 2.5 130
29 30 3 4 29.47838 3.5 115
29 30 4 5 29.51172 4.5 129
29 30 5 6 29.53118 5.5 118
29 30 6 7 29.5032 6.5 117
29 30 7 8 29.51446 7.5 122
29 30 8 9 29.54934 8.5 107
29 30 9 10 29.45313 9.5 110
29 30 10 11 29.499 10.5 104
29 30 11 12 29.48912 11.5 103
29 30 12 13 29.52504 12.5 104
29 30 13 14 29.51819 13.5 126
29 30 14 15 29.52055 14.5 102
29 30 15 16 29.4742 15.5 88
29 30 16 17 29.52395 16.5 105
29 30 17 18 29.49853 17.5 112
29 30 18 19 29.48793 18.5 99
29 30 19 20 29.53811 19.5 96
30 31 -20 -19 30.47948 -19.5 88
30 31 -19 -18 30.51589 -18.5 107
30 31 -18 -17 30.46702 -17.5 105
30 31 -17 -16 30.51712 -16.5 105
30 31 -16 -15 30.50957 -15.5 102
30 31 -15 -14 30.52377 -14.5 92
30 31 -14 -13 30.48586 -13.5 96
30 31 -13 -12 30.48886 -12.5 95
30 31 -12 -11 30.52596 -11.5 102
30 31 -11 -10 30.50938 -10.5 97
30 31 -10 -9 30.45685 -9.5 111
30 31 -9 -8 30.5282 -8.5 112
30 31 -8 -7 30.50953 -7.5 104
30 31 -7 -6 30.51511 -6.5 112
30 31 -6 -5 30.47577 -5.5 123
30 31 -5 -4 30.52004 -4.5 110
30 31 -4 -3 30.46566 -3.5 129
30 31 -3 -2 30.50072 -2.5 127
30 31 -2 -1 30.48351 -1.5 145
30 31 -1 0 30.51703 -0.5 122
30 31 0 1 30.46569 0.5 133
30 31 1 2 30.53433 1.5 128
30 31 2 3 30.47555 2.5 132
30 31 3 4 30.45211 3.5 129
30 31 4 5 30.4403 4.5 111
30 31 5 6 30.49254 5.5 129
30 31 6 7 30.49555 6.5 118
30 31 7 8 30.4789 7.5 98
30 31 8 9 30.52823 8.5 103
30 31 9 10 30.50692 9.5 120
30 31 10 11 30.4677 10.5 96
30 31 11 12 30.49474 11.5 93
30 31 12 13 30.46285 12.5 109
30 31 13 14 30.49689 13.5 112
30 31 14 15 30.50966 14.5 109
30 31 15 16 30.47912 15.5 98
30 31 16 17 30.49434 16.5 110
30 31 17 18 30.49334 17.5 98
30 31 18 19 30.48706 18.5 103
30 31 19 20 30.52079 19.5 103
31 32 -20 -19 31.51771 -19.5 104
31 32 -19 -18 31.50252 -18.5 87
31 32 -18 -17 31.52165 -17.5 88
31 32 -17 -16 31.52424 -16.5 104
31 32 -16 -15 31.55368 -15.5 93
31 32 -15 -14 31.46632 -14.5 92
31 32 -14 -13 31.46674 -13.5 116
31 32 -13 -12 31.52725 -12.5 115
31 32 -12 -11 31.50464 -11.5 131
31 32 -11 -10 31.48243 -10.5 108
31 32 -10 -9 31.49008 -9.5 118
31 32 -9 -8 31.45819 -8.5 125
31 32 -8 -7 31.53127 -7.5 131
31 32 -7 -6 31.48579 -6.5 125
31 32 -6 -5 31.48249 -5.5 114
31 32 -5 -4 31.50204 -4.5 134
31 32 -4 -3 31.51054 -3.5 134
31 32 -3 -2 31.50383 -2.5 126
31 32 -2 -1 31.49246 -1.5 127
31 32 -1 0 31.507 -0.5 113
31 32 0 1 31.52618 0.5 117
31 32 1 2 31.51878 1.5 123
31 32 2 3 31.51711 2.5 124
31 32 3 4 31.48955 3.5 116
31 32 4 5 31.50144 4.5 127
31 32 5 6 31.4891 5.5 120
31 32 6 7 31.51349 6.5 115
31 32 7 8 31.49269 7.5 122
31 32 8 9 31.47366 8.5 115
31 32 9 10 31.49536 9.5 124
31 32 10 11 31.55637 10.5 110
31 32 11 12 31.48117 11.5 96
31 32 12 13 31.54814 12.5 103
31 32 13 14 31.54137 13.5 129
31 32 14 15 31.45707 14.5 101
31 32 15 16 31.53501 15.5 112
31 32 16 17 31.50564 16.5 83
31 32 17 18 31.47601 17.5 91
31 32 18 19 31.54799 18.5 112
31 32 19 20 31.48092 19.5 106
32 33 -20 -19 32.47609 -19.5 103
32 33 -19 -18 32.48618 -18.5 96
32 33 -18 -17 32.47794 -17.5 94
32 33 -17 -16 32.49626 -16.5 125
32 33 -16 -15 32.52497 -15.5 99
32 33 -15 -14 32.54116 -14.5 107
32 33 -14 -13 32.49453 -13.5 122
32 33 -13 -12 32.50863 -12.5 103
32 33 -12 -11 32.49803 -11.5 108
32 33 -11 -10 32.54085 -10.5 127
32 33 -10 -9 32.52137 -9.5 108
32 33 -9 -8 32.51206 -8.5 114
32 33 -8 -7 32.49342 -7.5 104
32 33 -7 -6 32.49721 -6.5 122
32 33 -6 -5 32.48202 -5.5 131
32 33 -5 -4 32.50241 -4.5 130
32 33 -4 -3 32.51132 -3.5 107
32 33 -3 -2 32.48772 -2.5 99
32 33 -2 -1 32.46514 -1.5 127
32 33 -1 0 32.50689 -0.5 111
32 33 0 1 32.52459 0.5 120
32 33 1 2 32.49021 1.5 135
32 33 2 3 32.43014 2.5 129
32 33 3 4 32.53086 3.5 96
32 33 4 5 32.52882 4.5 139
32 33 5 6 32.46474 5.5 108
32 33 6 7 32.49116 6.5 135
32 33 7 8 32.47161 7.5 107
32 33 8 9 32.49935 8.5 106
32 33 9 10 32.51183 9.5 127
32 33 10 11 32.51279 10.5 115
32 33 11 12 32.51158 11.5 114
32 33 12 13 32.52951 12.5 107
32 33 13 14 32.52731 13.5 88
32 33 14 15 32.51505 14.5 89
32 33 15 16 32.49703 15.5 106
32 33 16 17 32.49776 16.5 84
32 33 17 18 32.51658 17.5 96
32 33 18 19 32.50538 18.5 116
32 33 19 20 32.487 19.5 117
33 34 -20 -19 33.47056 -19.5 111
33 34 -19 -18 33.48362 -18.5 88
33 34 -18 -17 33.52695 -17.5 126
33 34 -17 -16 33.5158 -16.5 128
33 34 -16 -15 33.50499 -15.5 114
33 34 -15 -14 33.50816 -14.5 102
33 34 -14 -13 33.47587 -13.5 97
33 34 -13 -12 33.51479 -12.5 97
33 34 -12 -11 33.49639 -11.5 115
33 34 -11 -10 33.4657 -10.5 110
33 34 -10 -9 33.52194 -9.5 111
33 34 -9 -8 33.49209 -8.5 113
33 34 -8 -7 33.49398 -7.5 114
33 34 -7 -6 33.50129 -6.5 112
33 34 -6 -5 33.51475 -5.5 130
33 34 -5 -4 33.50918 -4.5 104
33 34 -4 -3 33.49053 -3.5 158
33 34 -3 -2 33.47928 -2.5 116
33 34 -2 -1 33.49426 -1.5 124
33 34 -1 0 33.49768 -0.5 127
33 34 0 1 33.53118 0.5 95
33 34 1 2 33.5283 1.5 132
33 34 2 3 33.52458 2.5 140
33 34 3 4 33.53359 3.5 122
33 34 4 5 33.47719 4.5 109
33 34 5 6 33.49083 5.5 135
33 34 6 7 33.51836 6.5 108
33 34 7 8 33.48008 7.5 120
33 34 8 9 33.52442 8.5 108
33 34 9 10 33.47618 9.5 128
33 34 10 11 33.47878 10.5 109
33 34 11 12 33.50467 11.5 108
33 34 12 13 33.47993 12.5 108
33 34 13 14 33.49811 13.5 126
33 34 14 15 33.50255 14.5 130
33 34 15 16 33.52299 15.5 111
33 34 16 17 33.47001 16.5 113
33 34 17 18 33.50976 17.5 105
33 34 18 19 33.50111 18.5 95
33 34 19 20 33.4806 19.5 106
34 35 -20 -19 34.5403 -19.5 94
34 35 -19 -18 34.51803 -18.5 100
34 35 -18 -17 34.49531 -17.5 108
34 35 -17 -16 34.51093 -16.5 85
34 35 -16 -15 34.51727 -15.5 100
34 35 -15 -14 34.41326 -14.5 96
34 35 -14 -13 34.48477 -13.5 93
34 35 -13 -12 34.48646 -12.5 104
34 35 -12 -11 34.48077 -11.5 118
34 35 -11 -10 34.50346 -10.5 93
34 35 -10 -9 34.51324 -9.5 133
34 35 -9 -8 34.48625 -8.5 100
34 35 -8 -7 34.52434 -7.5 112
34 35 -7 -6 34.50721 -6.5 115
34 35 -6 -5 34.5194 -5.5 117
34 35 -5 -4 34.52451 -4.5 99
34 35 -4 -3 34.4973 -3.5 131
34 35 -3 -2 34.49729 -2.5 125
34 35 -2 -1 34.53036 -1.5 125
34 35 -1 0 34.49817 -0.5 135
34 35 0 1 34.49021 0.5 131
34 35 1 2 34.52155 1.5 129
34 35 2 3 34.48323 2.5 144
34 35 3 4 34.47905 3.5 119
34 35 4 5 34.51907 4.5 151
34 35 5 6 34.56409 5.5 103
34 35 6 7 34.53811 6.5 120
34 35 7 8 34.54993 7.5 112
34 35 8 9 34.51749 8.5 111
34 35 9 10 34.52687 9.5 109
34 35 10 11 34.521 10.5 116
34 35 11 12 34.46494 11.5 107
34 35 12 13 34.52549 12.5 111
34 35 13 14 34.50251 13.5 117
34 35 14 15 34.47358 14.5 117
34 35 15 16 34.50773 15.5 89
34 35 16 17 34.50193 16.5 111
34 35 17 18 34.54063 17.5 88
34 35 18 19 34.5379 18.5 83
34 35 19 20 34.47166 19.5 112
35 36 -20 -19 35.48562 -19.5 92
35 36 -19 -18 35.4514 -18.5 124
35 36 -18 -17 35.52758 -17.5 104
35 36 -17 -16 35.4908 -16.5 93
35 36 -16 -15 35.46707 -15.5 100
35 36 -15 -14 35.49204 -14.5 79
35 36 -14 -13 35.50211 -13.5 111
35 36 -13 -12 35.46263 -12.5 102
35 36 -12 -11 35.52915 -11.5 110
35 36 -11 -10 35.53761 -10.5 120
35 36 -10 -9 35.43829 -9.5 117
35 36 -9 -8 35.51509 -8.5 129
35 36 -8 -7 35.50799 -7.5 131
35 36 -7 -6 35.53591 -6.5 109
35 36 -6 -5 35.52077 -5.5 126
35 36 -5 -4 35.48322 -4.5 138
35 36 -4 -3 35.46323 -3.5 118
35 36 -3 -2 35.50808 -2.5 152
35 36 -2 -1 35.51474 -1.5 131
35 36 -1 0 35.52472 -0.5 128
35 36 0 1 35.4874 0.5 135
35 36 1 2 35.49284 1.5 120
35 36 2 3 35.43587 2.5 131
35 36 3 4 35.57186 3.5 118
35 36 4 5 35.48931 4.5 140
35 36 5 6 35.47381 5.5 108
35 36 6 7 35.46555 6.5 133
35 36 7 8 35.48518 7.5 133
35 36 8 9 35.49769 8.5 118
35 36 9 10 35.49663 9.5 115
35 36 10 11 35.45166 10.5 106
35 36 11 12 35.48924 11.5 111
35 36 12 13 35.5095 12.5 126
35 36 13 14 35.49253 13.5 115
35 36 14 15 35.55961 14.5 100
35 36 15 16 35.49351 15.5 120
35 36 16 17 35.5099 16.5 106
35 36 17 18 35.52658 17.5 103
35 36 18 19 35.50892 18.5 88
35 36 19 20 35.52274 19.5 115
36 37 -20 -19 36.50607 -19.5 89
36 37 -19 -18 36.49966 -18.5 118
36 37 -18 -17 36.50944 -17.5 122
36 37 -17 -16 36.49854 -16.5 110
36 37 -16 -15 36.54029 -15.5 104
36 37 -15 -14 36.4965 -14.5 112
36 37 -14 -13 36.48928 -13.5 112
36 37 -13 -12 36.47927 -12.5 111
36 37 -12 -11 36.50212 -11.5 107
36 37 -11 -10 36.50825 -10.5 107
36 37 -10 -9 36.49728 -9.5 109
36 37 -9 -8 36.50243 -8.5 124
36 37 -8 -7 36.45948 -7.5 144
36 37 -7 -6 36.48379 -6.5 138
36 37 -6 -5 36.45956 -5.5 140
36 37 -5 -4 36.46739 -4.5 137
36 37 -4 -3 36.52485 -3.5 118
36 37 -3 -2 36.49766 -2.5 139
36 37 -2 -1 36.46495 -1.5 123
36 37 -1 0 36.53052 -0.5 153
36 37 0 1 36.46823 0.5 128
36 37 1 2 36.52943 1.5 146
36 37 2 3 36.45582 2.5 140
36 37 3 4 36.50948 3.5 122
36 37 4 5 36.51885 4.5 127
36 37 5 6 36.51453 5.5 106
36 37 6 7 36.46983 6.5 116
36 37 7 8 36.49396 7.5 137
36 37 8 9 36.49696 8.5 110
36 37 9 10 36.48284 9.5 132
36 37 10 11 36.49255 10.5 120
36 37 11 12 36.51677 11.5 115
36 37 12 13 36.48069 12.5 113
36 37 13 14 36.46911 13.5 102
36 37 14 15 36.48373 14.5 134
36 37 15 16 36.50874 15.5 109
36 37 16 17 36.50286 16.5 115
36 37 17 18 36.51498 17.5 97
36 37 18 19 36.49625 18.5 109
36 37 19 20 36.50499 19.5 116
37 38 -20 -19 37.52705 -19.5 79
37 38 -19 -18 37.51331 -18.5 106
37 38 -18 -17 37.46773 -17.5 105
37 38 -17 -16 37.53246 -16.5 91
37 38 -16 -15 37.48141 -15.5 121
37 38 -15 -14 37.48519 -14.5 103
37 38 -14 -13 37.49622 -13.5 132
37 38 -13 -12 37.5049 -12.5 122
37 38 -12 -11 37.47467 -11.5 134
37 38 -11 -10 37.47941 -10.5 114
37 38 -10 -9 37.52825 -9.5 99
37 38 -9 -8 37.46599 -8.5 103
37 38 -8 -7 37.47795 -7.5 110
37 38 -7 -6 37.50161 -6.5 112
37 38 -6 -5 37.53274 -5.5 150
37 38 -5 -4 37.47242 -4.5 123
37 38 -4 -3 37.55435 -3.5 143
37 38 -3 -2 37.53343 -2.5 127
37 38 -2 -1 37.50582 -1.5 116
37 38 -1 0 37.52814 -0.5 137
37 38 0 1 37.49622 0.5 135
37 38 1 2 37.47569 1.5 120
37 38 2 3 37.47554 2.5 136
37 38 3 4 37.47442 3.5 117
37 38 4 5 37.51351 4.5 125
37 38 5 6 37.53835 5.5 131
37 38 6 7 37.50241 6.5 126
37 38 7 8 37.47829 7.5 109
37 38 8 9 37.52149 8.5 126
37 38 9 10 37.53798 9.5 115
37 38 10 11 37.52719 10.5 147
37 38 11 12 37.51539 11.5 106
37 38 12 13 37.5071 12.5 113
37 38 13 14 37.49805 13.5 109
37 38 14 15 37.5295 14.5 99
37 38 15 16 37.53872 15.5 117
37 38 16 17 37.52637 16.5 117
37 38 17 18 37.47483 17.5 132
37 38 18 19 37.50821 18.5 128
37 38 19 20 37.52221 19.5 95
38 39 -20 -19 38.53643 -19.5 110
38 39 -19 -18 38.4822 -18.5 130
38 39 -18 -17 38.48726 -17.5 118
38 39 -17 -16 38.46819 -16.5 109
38 39 -16 -15 38.49013 -15.5 109
38 39 -15 -14 38.52085 -14.5 114
38 39 -14 -13 38.50496 -13.5 119
38 39 -13 -12 38.53158 -12.5 125
38 39 -12 -11 38.48835 -11.5 123
38 39 -11 -10 38.46629 -10.5 106
38 39 -10 -9 38.53915 -9.5 108
38 39 -9 -8 38.49698 -8.5 107
38 39 -8 -7 38.51113 -7.5 107
38 39 -7 -6 38.4984 -6.5 124
38 39 -6 -5 38.49794 -5.5 129
38 39 -5 -4 38.49969 -4.5 153
38 39 -4 -3 38.50722 -3.5 123
38 39 -3 -2 38.56058 -2.5 120
38 39 -2 -1 38.4924 -1.5 131
38 39 -1 0 38.50508 -0.5 116
38 39 0 1 38.52513 0.5 123
38 39 1 2 38.46814 1.5 135
38 39 2 3 38.493 2.5 153
38 39 3 4 38.44667 3.5 120
38 39 4 5 38.51454 4.5 123
38 39 5 6 38.50376 5.5 135
38 39 6 7 38.50224 6.5 133
38 39 7 8 38.54614 7.5 144
38 39 8 9 38.52324 8.5 124
38 39 9 10 38.50007 9.5 122
38 39 10 11 38.49938 10.5 119
38 39 11 12 38.4793 11.5 124
38 39 12 13 38.50712 12.5 109
38 39 13 14 38.53091 13.5 147
38 39 14 15 38.50923 14.5 115
38 39 15 16 38.45436 15.5 102
38 39 16 17 38.55908 16.5 106
38 39 17 18 38.53863 17.5 104
38 39 18 19 38.50891 18.5 122
38 39 19 20 38.50243 19.5 94
39 40 -20 -19 39.48271 -19.5 94
39 40 -19 -18 39.52387 -18.5 91
39 40 -18 -17 39.55258 -17.5 109
39 40 -17 -16 39.50932 -16.5 96
39 40 -16 -15 39.51038 -15.5 111
39 40 -15 -14 39.465 -14.5 109
39 40 -14 -13 39.50317 -13.5 100
39 40 -13 -12 39.50373 -12.5 110
39 40 -12 -11 39.48902 -11.5 108
39 40 -11 -10 39.49409 -10.5 134
39 40 -10 -9 39.51062 -9.5 108
39 40 -9 -8 39.51114 -8.5 112
39 40 -8 -7 39.47226 -7.5 127
39 40 -7 -6 39.47034 -6.5 131
39 40 -6 -5 39.47141 -5.5 114
39 40 -5 -4 39.49532 -4.5 133
39 40 -4 -3 39.48948 -3.5 130
39 40 -3 -2 39.48891 -2.5 140
39 40 -2 -1 39.49907 -1.5 123
39 40 -1 0 39.48672 -0.5 128
39 40 0 1 39.53495 0.5 137
39 40 1 2 39.48391 1.5 141
39 40 2 3 39.44186 2.5 131
39 40 3 4 39.56917 3.5 127
39 40 4 5 39.52745 4.5 133
39 40 5 6 39.53494 5.5 117
39 40 6 7 39.46445 6.5 128
39 40 7 8 39.47303 7.5 126
39 40 8 9 39.46157 8.5 129
39 40 9 10 39.48702 9.5 130
39 40 10 11 39.50246 10.5 127
39 40 11 12 39.47354 11.5 122
39 40 12 13 39.54579 12.5 124
39 40 13 14 39.5392 13.5 109
39 40 14 15 39.52221 14.5 100
39 40 15 16 39.52292 15.5 122
39 40 16 17 39.46721 16.5 125
39 40 17 18 39.5347 17.5 114
39 40 18 19 39.51667 18.5 102
39 40 19 20 39.55986 19.5 103
40 41 -20 -19 40.5022 -19.5 102
40 41 -19 -18 40.52303 -18.5 111
40 41 -18 -17 40.47102 -17.5 115
40 41 -17 -16 40.49176 -16.5 107
40 41 -16 -15 40.51815 -15.5 102
40 41 -15 -14 40.48162 -14.5 104
40 41 -14 -13 40.45866 -13.5 95
40 41 -13 -12 40.55641 -12.5 104
40 41 -12 -11 40.51205 -11.5 109
40 41 -11 -10 40.47361 -10.5 135
40 41 -10 -9 40.46784 -9.5 118
40 41 -9 -8 40.51208 -8.5 144
40 41 -8 -7 40.48914 -7.5 132
40 41 -7 -6 40.53854 -6.5 146
40 41 -6 -5 40.50659 -5.5 116
40 41 -5 -4 40.53193 -4.5 142
40 41 -4 -3 40.51119 -3.5 143
40 41 -3 -2 40.51128 -2.5 115
40 41 -2 -1 40.50316 -1.5 135
40 41 -1 0 40.49425 -0.5 136
40 41 0 1 40.50318 0.5 142
40 41 1 2 40.44905 1.5 126
40 41 2 3 40.50332 2.5 135
40 41 3 4 40.51735 3.5 129
40 41 4 5 40.51775 4.5 140
40 41 5 6 40.45268 5.5 129
40 41 6 7 40.52886 6.5 137
40 41 7 8 40.49527 7.5 103
40 41 8 9 40.48954 8.5 131
40 41 9 10 40.47533 9.5 129
40 41 10 11 40.51089 10.5 130
40 41 11 12 40.48227 11.5 126
40 41 12 13 40.52238 12.5 97
40 41 13 14 40.47851 13.5 134
40 41 14 15 40.48746 14.5 125
40 41 15 16 40.45364 15.5 117
40 41 16 17 40.49919 16.5 110
40 41 17 18 40.50508 17.5 113
40 41 18 19 40.49106 18.5 118
40 41 19 20 40.4789 19.5 101
