#norm = 15996000.0
#edges = (np.linspace(1, 41, 41), np.linspace(0, 20, 21))
#rp_low rp_high pi_low pi_high rp pi wcounts
1 2 -20 -19 1.564893 -19.5 120
1 2 -19 -18 1.57683 -18.5 120
1 2 -18 -17 1.596713 -17.5 112
1 2 -17 -16 1.515866 -16.5 128
1 2 -16 -15 1.529602 -15.5 111
1 2 -15 -14 1.582679 -14.5 121
1 2 -14 -13 1.507659 -13.5 129
1 2 -13 -12 1.529461 -12.5 110
1 2 -12 -11 1.615914 -11.5 156
1 2 -11 -10 1.534759 -10.5 124
1 2 -10 -9 1.573624 -9.5 145
1 2 -9 -8 1.545864 -8.5 124
1 2 -8 -7 1.582689 -7.5 129
1 2 -7 -6 1.520789 -6.5 137
1 2 -6 -5 1.560128 -5.5 138
1 2 -5 -4 1.563215 -4.5 154
1 2 -4 -3 1.530968 -3.5 147
1 2 -3 -2 1.514828 -2.5 142
1 2 -2 -1 1.555778 -1.5 163
1 2 -1 0 1.560326 -0.5 160
1 2 0 1 1.560326 0.5 160
1 2 1 2 1.555778 1.5 163
1 2 2 3 1.514828 2.5 142
1 2 3 4 1.530968 3.5 147
1 2 4 5 1.563215 4.5 154
1 2 5 6 1.560128 5.5 138
1 2 6 7 1.520789 6.5 137
1 2 7 8 1.582689 7.5 129
1 2 8 9 1.545864 8.5 124
1 2 9 10 1.573624 9.5 145
1 2 10 11 1.534759 10.5 124
1 2 11 12 1.615914 11.5 156
1 2 12 13 1.529461 12.5 110
1 2 13 14 1.507659 13.5 129
1 2 14 15 1.582679 14.5 121
1 2 15 16 1.529602 15.5 111
1 2 16 17 1.515866 16.5 128
1 2 17 18 1.596713 17.5 112
1 2 18 19 1.57683 18.5 120
1 2 19 20 1.564893 19.5 120
2 3 -20 -19 2.510218 -19.5 173
2 3 -19 -18 2.534565 -18.5 196
2 3 -18 -17 2.556166 -17.5 191
2 3 -17 -16 2.527315 -16.5 194
2 3 -16 -15 2.551636 -15.5 199
2 3 -15 -14 2.531805 -14.5 196
2 3 -14 -13 2.538435 -13.5 202
2 3 -13 -12 2.485179 -12.5 185
2 3 -12 -11 2.533906 -11.5 203
2 3 -11 -10 2.532514 -10.5 218
2 3 -10 -9 2.506025 -9.5 224
2 3 -9 -8 2.539083 -8.5 214
2 3 -8 -7 2.486725 -7.5 232
2 3 -7 -6 2.515892 -6.5 198
2 3 -6 -5 2.520981 -5.5 237
2 3 -5 -4 2.550847 -4.5 228
2 3 -4 -3 2.557515 -3.5 236
2 3 -3 -2 2.531629 -2.5 238
2 3 -2 -1 2.543949 -1.5 246
2 3 -1 0 2.544299 -0.5 252
2 3 0 1 2.544299 0.5 252
2 3 1 2 2.543949 1.5 246
2 3 2 3 2.531629 2.5 238
2 3 3 4 2.557515 3.5 236
2 3 4 5 2.550847 4.5 228
2 3 5 6 2.520981 5.5 237
2 3 6 7 2.515892 6.5 198
2 3 7 8 2.486725 7.5 232
2 3 8 9 2.539083 8.5 214
2 3 9 10 2.506025 9.5 224
2 3 10 11 2.532514 10.5 218
2 3 11 12 2.533906 11.5 203
2 3 12 13 2.485179 12.5 185
2 3 13 14 2.538435 13.5 202
2 3 14 15 2.531805 14.5 196
2 3 15 16 2.551636 15.5 199
2 3 16 17 2.527315 16.5 194
2 3 17 18 2.556166 17.5 191
2 3 18 19 2.534565 18.5 196
2 3 19 20 2.510218 19.5 173
3 4 -20 -19 3.530507 -19.5 263
3 4 -19 -18 3.522514 -18.5 286
3 4 -18 -17 3.521693 -17.5 261
3 4 -17 -16 3.524324 -16.5 277
3 4 -16 -15 3.510869 -15.5 294
3 4 -15 -14 3.536046 -14.5 313
3 4 -14 -13 3.529775 -13.5 283
3 4 -13 -12 3.522299 -12.5 300
3 4 -12 -11 3.518373 -11.5 289
3 4 -11 -10 3.504943 -10.5 312
3 4 -10 -9 3.506537 -9.5 323
3 4 -9 -8 3.519857 -8.5 304
3 4 -8 -7 3.523623 -7.5 317
3 4 -7 -6 3.499915 -6.5 325
3 4 -6 -5 3.507598 -5.5 310
3 4 -5 -4 3.549823 -4.5 331
3 4 -4 -3 3.50358 -3.5 314
3 4 -3 -2 3.538246 -2.5 319
3 4 -2 -1 3.527952 -1.5 349
3 4 -1 0 3.550063 -0.5 306
3 4 0 1 3.550063 0.5 306
3 4 1 2 3.527952 1.5 349
3 4 2 3 3.538246 2.5 319
3 4 3 4 3.50358 3.5 314
3 4 4 5 3.549823 4.5 331
3 4 5 6 3.507598 5.5 310
3 4 6 7 3.499915 6.5 325
3 4 7 8 3.523623 7.5 317
3 4 8 9 3.519857 8.5 304
3 4 9 10 3.506537 9.5 323
3 4 10 11 3.504943 10.5 312
3 4 11 12 3.518373 11.5 289
3 4 12 13 3.522299 12.5 300
3 4 13 14 3.529775 13.5 283
3 4 14 15 3.536046 14.5 313
3 4 15 16 3.510869 15.5 294
3 4 16 17 3.524324 16.5 277
3 4 17 18 3.521693 17.5 261
3 4 18 19 3.522514 18.5 286
3 4 19 20 3.530507 19.5 263
4 5 -20 -19 4.508513 -19.5 336
4 5 -19 -18 4.509699 -18.5 343
4 5 -18 -17 4.501492 -17.5 359
4 5 -17 -16 4.524832 -16.5 380
4 5 -16 -15 4.514472 -15.5 350
4 5 -15 -14 4.514365 -14.5 341
4 5 -14 -13 4.52318 -13.5 361
4 5 -13 -12 4.489187 -12.5 340
4 5 -12 -11 4.491808 -11.5 382
4 5 -11 -10 4.509254 -10.5 394
4 5 -10 -9 4.520108 -9.5 368
4 5 -9 -8 4.51407 -8.5 385
4 5 -8 -7 4.514565 -7.5 423
4 5 -7 -6 4.517955 -6.5 413
4 5 -6 -5 4.531903 -5.5 385
4 5 -5 -4 4.524931 -4.5 425
4 5 -4 -3 4.514304 -3.5 433
4 5 -3 -2 4.508499 -2.5 429
4 5 -2 -1 4.517246 -1.5 424
4 5 -1 0 4.519629 -0.5 423
4 5 0 1 4.519629 0.5 423
4 5 1 2 4.517246 1.5 424
4 5 2 3 4.508499 2.5 429
4 5 3 4 4.514304 3.5 433
4 5 4 5 4.524931 4.5 425
4 5 5 6 4.531903 5.5 385
4 5 6 7 4.517955 6.5 413
4 5 7 8 4.514565 7.5 423
4 5 8 9 4.51407 8.5 385
4 5 9 10 4.520108 9.5 368
4 5 10 11 4.509254 10.5 394
4 5 11 12 4.491808 11.5 382
4 5 12 13 4.489187 12.5 340
4 5 13 14 4.52318 13.5 361
4 5 14 15 4.514365 14.5 341
4 5 15 16 4.514472 15.5 350
4 5 16 17 4.524832 16.5 380
4 5 17 18 4.501492 17.5 359
4 5 18 19 4.509699 18.5 343
4 5 19 20 4.508513 19.5 336
5 6 -20 -19 5.504426 -19.5 430
5 6 -19 -18 5.511447 -18.5 415
5 6 -18 -17 5.513286 -17.5 427
5 6 -17 -16 5.503033 -16.5 429
5 6 -16 -15 5.487236 -15.5 410
5 6 -15 -14 5.526003 -14.5 450
5 6 -14 -13 5.520831 -13.5 454
5 6 -13 -12 5.505512 -12.5 435
5 6 -12 -11 5.521602 -11.5 485
5 6 -11 -10 5.518686 -10.5 449
5 6 -10 -9 5.513201 -9.5 458
5 6 -9 -8 5.522523 -8.5 457
5 6 -8 -7 5.510991 -7.5 458
5 6 -7 -6 5.50056 -6.5 482
5 6 -6 -5 5.520562 -5.5 455
5 6 -5 -4 5.498126 -4.5 479
5 6 -4 -3 5.477179 -3.5 482
5 6 -3 -2 5.51919 -2.5 495
5 6 -2 -1 5.527364 -1.5 514
5 6 -1 0 5.524343 -0.5 458
5 6 0 1 5.524343 0.5 458
5 6 1 2 5.527364 1.5 514
5 6 2 3 5.51919 2.5 495
5 6 3 4 5.477179 3.5 482
5 6 4 5 5.498126 4.5 479
5 6 5 6 5.520562 5.5 455
5 6 6 7 5.50056 6.5 482
5 6 7 8 5.510991 7.5 458
5 6 8 9 5.522523 8.5 457
5 6 9 10 5.513201 9.5 458
5 6 10 11 5.518686 10.5 449
5 6 11 12 5.521602 11.5 485
5 6 12 13 5.505512 12.5 435
5 6 13 14 5.520831 13.5 454
5 6 14 15 5.526003 14.5 450
5 6 15 16 5.487236 15.5 410
5 6 16 17 5.503033 16.5 429
5 6 17 18 5.513286 17.5 427
5 6 18 19 5.511447 18.5 415
5 6 19 20 5.504426 19.5 430
6 7 -20 -19 6.523387 -19.5 514
6 7 -19 -18 6.514562 -18.5 489
6 7 -18 -17 6.521764 -17.5 483
6 7 -17 -16 6.507027 -16.5 509
6 7 -16 -15 6.529988 -15.5 532
6 7 -15 -14 6.504485 -14.5 516
6 7 -14 -13 6.524378 -13.5 513
6 7 -13 -12 6.52636 -12.5 483
6 7 -12 -11 6.519622 -11.5 515
6 7 -11 -10 6.531584 -10.5 535
6 7 -10 -9 6.50912 -9.5 543
6 7 -9 -8 6.518637 -8.5 544
6 7 -8 -7 6.51808 -7.5 576
6 7 -7 -6 6.502119 -6.5 554
6 7 -6 -5 6.513621 -5.5 552
6 7 -5 -4 6.521909 -4.5 570
6 7 -4 -3 6.512424 -3.5 563
6 7 -3 -2 6.507066 -2.5 594
6 7 -2 -1 6.526011 -1.5 604
6 7 -1 0 6.51016 -0.5 607
6 7 0 1 6.51016 0.5 607
6 7 1 2 6.526011 1.5 604
6 7 2 3 6.507066 2.5 594
6 7 3 4 6.512424 3.5 563
6 7 4 5 6.521909 4.5 570
6 7 5 6 6.513621 5.5 552
6 7 6 7 6.502119 6.5 554
6 7 7 8 6.51808 7.5 576
6 7 8 9 6.518637 8.5 544
6 7 9 10 6.50912 9.5 543
6 7 10 11 6.531584 10.5 535
6 7 11 12 6.519622 11.5 515
6 7 12 13 6.52636 12.5 483
6 7 13 14 6.524378 13.5 513
6 7 14 15 6.504485 14.5 516
6 7 15 16 6.529988 15.5 532
6 7 16 17 6.507027 16.5 509
6 7 17 18 6.521764 17.5 483
6 7 18 19 6.514562 18.5 489
6 7 19 20 6.523387 19.5 514
7 8 -20 -19 7.502295 -19.5 548
7 8 -19 -18 7.489108 -18.5 568
7 8 -18 -17 7.49591 -17.5 566
7 8 -17 -16 7.494071 -16.5 574
7 8 -16 -15 7.506275 -15.5 576
7 8 -15 -14 7.486298 -14.5 558
7 8 -14 -13 7.514224 -13.5 584
7 8 -13 -12 7.489509 -12.5 608
7 8 -12 -11 7.5031 -11.5 612
7 8 -11 -10 7.505834 -10.5 626
7 8 -10 -9 7.510706 -9.5 644
7 8 -9 -8 7.485512 -8.5 650
7 8 -8 -7 7.505616 -7.5 591
7 8 -7 -6 7.493708 -6.5 664
7 8 -6 -5 7.52574 -5.5 639
7 8 -5 -4 7.510526 -4.5 654
7 8 -4 -3 7.519853 -3.5 660
7 8 -3 -2 7.534682 -2.5 644
7 8 -2 -1 7.499604 -1.5 743
7 8 -1 0 7.483219 -0.5 670
7 8 0 1 7.483219 0.5 670
7 8 1 2 7.499604 1.5 743
7 8 2 3 7.534682 2.5 644
7 8 3 4 7.519853 3.5 660
7 8 4 5 7.510526 4.5 654
7 8 5 6 7.52574 5.5 639
7 8 6 7 7.493708 6.5 664
7 8 7 8 7.505616 7.5 591
7 8 8 9 7.485512 8.5 650
7 8 9 10 7.510706 9.5 644
7 8 10 11 7.505834 10.5 626
7 8 11 12 7.5031 11.5 612
7 8 12 13 7.489509 12.5 608
7 8 13 14 7.514224 13.5 584
7 8 14 15 7.486298 14.5 558
7 8 15 16 7.506275 15.5 576
7 8 16 17 7.494071 16.5 574
7 8 17 18 7.49591 17.5 566
7 8 18 19 7.489108 18.5 568
7 8 19 20 7.502295 19.5 548
8 9 -20 -19 8.490492 -19.5 622
8 9 -19 -18 8.488618 -18.5 625
8 9 -18 -17 8.49885 -17.5 651
8 9 -17 -16 8.506989 -16.5 625
8 9 -16 -15 8.486546 -15.5 623
8 9 -15 -14 8.510008 -14.5 622
8 9 -14 -13 8.522726 -13.5 660
8 9 -13 -12 8.519062 -12.5 649
8 9 -12 -11 8.525354 -11.5 669
8 9 -11 -10 8.484479 -10.5 667
8 9 -10 -9 8.511654 -9.5 686
8 9 -9 -8 8.503495 -8.5 725
8 9 -8 -7 8.511417 -7.5 682
8 9 -7 -6 8.524473 -6.5 706
8 9 -6 -5 8.506094 -5.5 737
8 9 -5 -4 8.502857 -4.5 742
8 9 -4 -3 8.518455 -3.5 710
8 9 -3 -2 8.509532 -2.5 759
8 9 -2 -1 8.538299 -1.5 795
8 9 -1 0 8.478991 -0.5 707
8 9 0 1 8.478991 0.5 707
8 9 1 2 8.538299 1.5 795
8 9 2 3 8.509532 2.5 759
8 9 3 4 8.518455 3.5 710
8 9 4 5 8.502857 4.5 742
8 9 5 6 8.506094 5.5 737
8 9 6 7 8.524473 6.5 706
8 9 7 8 8.511417 7.5 682
8 9 8 9 8.503495 8.5 725
8 9 9 10 8.511654 9.5 686
8 9 10 11 8.484479 10.5 667
8 9 11 12 8.525354 11.5 669
8 9 12 13 8.519062 12.5 649
8 9 13 14 8.522726 13.5 660
8 9 14 15 8.510008 14.5 622
8 9 15 16 8.486546 15.5 623
8 9 16 17 8.506989 16.5 625
8 9 17 18 8.49885 17.5 651
8 9 18 19 8.488618 18.5 625
8 9 19 20 8.490492 19.5 622
9 10 -20 -19 9.5235 -19.5 676
9 10 -19 -18 9.52172 -18.5 686
9 10 -18 -17 9.520971 -17.5 683
9 10 -17 -16 9.509809 -16.5 736
9 10 -16 -15 9.504291 -15.5 721
9 10 -15 -14 9.489298 -14.5 708
9 10 -14 -13 9.511805 -13.5 794
9 10 -13 -12 9.514738 -12.5 713
9 10 -12 -11 9.519573 -11.5 732
9 10 -11 -10 9.506975 -10.5 767
9 10 -10 -9 9.517369 -9.5 764
9 10 -9 -8 9.494097 -8.5 809
9 10 -8 -7 9.496951 -7.5 802
9 10 -7 -6 9.502127 -6.5 787
9 10 -6 -5 9.503686 -5.5 856
9 10 -5 -4 9.519627 -4.5 847
9 10 -4 -3 9.499678 -3.5 838
9 10 -3 -2 9.521555 -2.5 832
9 10 -2 -1 9.496476 -1.5 847
9 10 -1 0 9.512876 -0.5 825
9 10 0 1 9.512876 0.5 825
9 10 1 2 9.496476 1.5 847
9 10 2 3 9.521555 2.5 832
9 10 3 4 9.499678 3.5 838
9 10 4 5 9.519627 4.5 847
9 10 5 6 9.503686 5.5 856
9 10 6 7 9.502127 6.5 787
9 10 7 8 9.496951 7.5 802
9 10 8 9 9.494097 8.5 809
9 10 9 10 9.517369 9.5 764
9 10 10 11 9.506975 10.5 767
9 10 11 12 9.519573 11.5 732
9 10 12 13 9.514738 12.5 713
9 10 13 14 9.511805 13.5 794
9 10 14 15 9.489298 14.5 708
9 10 15 16 9.504291 15.5 721
9 10 16 17 9.509809 16.5 736
9 10 17 18 9.520971 17.5 683
9 10 18 19 9.52172 18.5 686
9 10 19 20 9.5235 19.5 676
10 11 -20 -19 10.50779 -19.5 762
10 11 -19 -18 10.50692 -18.5 759
10 11 -18 -17 10.49363 -17.5 785
10 11 -17 -16 10.50012 -16.5 768
10 11 -16 -15 10.51154 -15.5 757
10 11 -15 -14 10.51752 -14.5 784
10 11 -14 -13 10.49915 -13.5 790
10 11 -13 -12 10.51019 -12.5 802
10 11 -12 -11 10.51188 -11.5 843
10 11 -11 -10 10.50806 -10.5 868
10 11 -10 -9 10.49629 -9.5 848
10 11 -9 -8 10.50999 -8.5 812
10 11 -8 -7 10.50172 -7.5 813
10 11 -7 -6 10.5124 -6.5 831
10 11 -6 -5 10.54232 -5.5 864
10 11 -5 -4 10.49361 -4.5 898
10 11 -4 -3 10.52375 -3.5 913
10 11 -3 -2 10.50371 -2.5 899
10 11 -2 -1 10.51559 -1.5 893
10 11 -1 0 10.51295 -0.5 892
10 11 0 1 10.51295 0.5 892
10 11 1 2 10.51559 1.5 893
10 11 2 3 10.50371 2.5 899
10 11 3 4 10.52375 3.5 913
10 11 4 5 10.49361 4.5 898
10 11 5 6 10.54232 5.5 864
10 11 6 7 10.5124 6.5 831
10 11 7 8 10.50172 7.5 813
10 11 8 9 10.50999 8.5 812
10 11 9 10 10.49629 9.5 848
10 11 10 11 10.50806 10.5 868
10 11 11 12 10.51188 11.5 843
10 11 12 13 10.51019 12.5 802
10 11 13 14 10.49915 13.5 790
10 11 14 15 10.51752 14.5 784
10 11 15 16 10.51154 15.5 757
10 11 16 17 10.50012 16.5 768
10 11 17 18 10.49363 17.5 785
10 11 18 19 10.50692 18.5 759
10 11 19 20 10.50779 19.5 762
11 12 -20 -19 11.50518 -19.5 804
11 12 -19 -18 11.50356 -18.5 791
11 12 -18 -17 11.50429 -17.5 790
11 12 -17 -16 11.49849 -16.5 866
11 12 -16 -15 11.52267 -15.5 859
11 12 -15 -14 11.51233 -14.5 881
11 12 -14 -13 11.49297 -13.5 793
11 12 -13 -12 11.51429 -12.5 861
11 12 -12 -11 11.50568 -11.5 867
11 12 -11 -10 11.50261 -10.5 923
11 12 -10 -9 11.50408 -9.5 940
11 12 -9 -8 11.49678 -8.5 871
11 12 -8 -7 11.51886 -7.5 881
11 12 -7 -6 11.4984 -6.5 961
11 12 -6 -5 11.49595 -5.5 990
11 12 -5 -4 11.51541 -4.5 1013
11 12 -4 -3 11.51336 -3.5 945
11 12 -3 -2 11.48946 -2.5 957
11 12 -2 -1 11.50165 -1.5 1031
11 12 -1 0 11.49479 -0.5 993
11 12 0 1 11.49479 0.5 993
11 12 1 2 11.50165 1.5 1031
11 12 2 3 11.48946 2.5 957
11 12 3 4 11.51336 3.5 945
11 12 4 5 11.51541 4.5 1013
11 12 5 6 11.49595 5.5 990
11 12 6 7 11.4984 6.5 961
11 12 7 8 11.51886 7.5 881
11 12 8 9 11.49678 8.5 871
11 12 9 10 11.50408 9.5 940
11 12 10 11 11.50261 10.5 923
11 12 11 12 11.50568 11.5 867
11 12 12 13 11.51429 12.5 861
11 12 13 14 11.49297 13.5 793
11 12 14 15 11.51233 14.5 881
11 12 15 16 11.52267 15.5 859
11 12 16 17 11.49849 16.5 866
11 12 17 18 11.50429 17.5 790
11 12 18 19 11.50356 18.5 791
11 12 19 20 11.50518 19.5 804
12 13 -20 -19 12.4818 -19.5 789
12 13 -19 -18 12.50888 -18.5 847
12 13 -18 -17 12.50284 -17.5 864
12 13 -17 -16 12.48714 -16.5 867
12 13 -16 -15 12.49976 -15.5 880
12 13 -15 -14 12.48593 -14.5 916
12 13 -14 -13 12.49921 -13.5 857
12 13 -13 -12 12.53591 -12.5 897
12 13 -12 -11 12.50121 -11.5 924
12 13 -11 -10 12.49666 -10.5 916
12 13 -10 -9 12.50698 -9.5 940
12 13 -9 -8 12.50348 -8.5 1034
12 13 -8 -7 12.51588 -7.5 1010
12 13 -7 -6 12.49225 -6.5 1031
12 13 -6 -5 12.50426 -5.5 987
12 13 -5 -4 12.51829 -4.5 1052
12 13 -4 -3 12.49954 -3.5 1004
12 13 -3 -2 12.5065 -2.5 1079
12 13 -2 -1 12.49103 -1.5 1061
12 13 -1 0 12.49337 -0.5 1064
12 13 0 1 12.49337 0.5 1064
12 13 1 2 12.49103 1.5 1061
12 13 2 3 12.5065 2.5 1079
12 13 3 4 12.49954 3.5 1004
12 13 4 5 12.51829 4.5 1052
12 13 5 6 12.50426 5.5 987
12 13 6 7 12.49225 6.5 1031
12 13 7 8 12.51588 7.5 1010
12 13 8 9 12.50348 8.5 1034
12 13 9 10 12.50698 9.5 940
12 13 10 11 12.49666 10.5 916
12 13 11 12 12.50121 11.5 924
12 13 12 13 12.53591 12.5 897
12 13 13 14 12.49921 13.5 857
12 13 14 15 12.48593 14.5 916
12 13 15 16 12.49976 15.5 880
12 13 16 17 12.48714 16.5 867
12 13 17 18 12.50284 17.5 864
12 13 18 19 12.50888 18.5 847
12 13 19 20 12.4818 19.5 789
13 14 -20 -19 13.49368 -19.5 912
13 14 -19 -18 13.49728 -18.5 942
13 14 -18 -17 13.51369 -17.5 874
13 14 -17 -16 13.52079 -16.5 1001
13 14 -16 -15 13.51534 -15.5 927
13 14 -15 -14 13.4916 -14.5 904
13 14 -14 -13 13.50768 -13.5 954
13 14 -13 -12 13.51297 -12.5 979
13 14 -12 -11 13.50097 -11.5 1007
13 14 -11 -10 13.5 -10.5 1075
13 14 -10 -9 13.49831 -9.5 1026
13 14 -9 -8 13.50268 -8.5 1072
13 14 -8 -7 13.51302 -7.5 1070
13 14 -7 -6 13.51514 -6.5 1061
13 14 -6 -5 13.51322 -5.5 1043
13 14 -5 -4 13.50658 -4.5 1059
13 14 -4 -3 13.52174 -3.5 1124
13 14 -3 -2 13.51083 -2.5 1121
13 14 -2 -1 13.50661 -1.5 1158
13 14 -1 0 13.50025 -0.5 1138
13 14 0 1 13.50025 0.5 1138
13 14 1 2 13.50661 1.5 1158
13 14 2 3 13.51083 2.5 1121
13 14 3 4 13.52174 3.5 1124
13 14 4 5 13.50658 4.5 1059
13 14 5 6 13.51322 5.5 1043
13 14 6 7 13.51514 6.5 1061
13 14 7 8 13.51302 7.5 1070
13 14 8 9 13.50268 8.5 1072
13 14 9 10 13.49831 9.5 1026
13 14 10 11 13.5 10.5 1075
13 14 11 12 13.50097 11.5 1007
13 14 12 13 13.51297 12.5 979
13 14 13 14 13.50768 13.5 954
13 14 14 15 13.4916 14.5 904
13 14 15 16 13.51534 15.5 927
13 14 16 17 13.52079 16.5 1001
13 14 17 18 13.51369 17.5 874
13 14 18 19 13.49728 18.5 942
13 14 19 20 13.49368 19.5 912
14 15 -20 -19 14.51869 -19.5 955
14 15 -19 -18 14.51086 -18.5 903
14 15 -18 -17 14.4907 -17.5 988
14 15 -17 -16 14.50795 -16.5 984
14 15 -16 -15 14.49923 -15.5 993
14 15 -15 -14 14.50574 -14.5 1038
14 15 -14 -13 14.51902 -13.5 1009
14 15 -13 -12 14.52355 -12.5 1038
14 15 -12 -11 14.50557 -11.5 1040
14 15 -11 -10 14.50564 -10.5 1110
14 15 -10 -9 14.50517 -9.5 1070
14 15 -9 -8 14.5093 -8.5 1166
14 15 -8 -7 14.50294 -7.5 1063
14 15 -7 -6 14.50362 -6.5 1100
14 15 -6 -5 14.4893 -5.5 1166
14 15 -5 -4 14.51099 -4.5 1065
14 15 -4 -3 14.51528 -3.5 1167
14 15 -3 -2 14.49648 -2.5 1147
14 15 -2 -1 14.51063 -1.5 1181
14 15 -1 0 14.50474 -0.5 1152
14 15 0 1 14.50474 0.5 1152
14 15 1 2 14.51063 1.5 1181
14 15 2 3 14.49648 2.5 1147
14 15 3 4 14.51528 3.5 1167
14 15 4 5 14.51099 4.5 1065
14 15 5 6 14.4893 5.5 1166
14 15 6 7 14.50362 6.5 1100
14 15 7 8 14.50294 7.5 1063
14 15 8 9 14.5093 8.5 1166
14 15 9 10 14.50517 9.5 1070
14 15 10 11 14.50564 10.5 1110
14 15 11 12 14.50557 11.5 1040
14 15 12 13 14.52355 12.5 1038
14 15 13 14 14.51902 13.5 1009
14 15 14 15 14.50574 14.5 1038
14 15 15 16 14.49923 15.5 993
14 15 16 17 14.50795 16.5 984
14 15 17 18 14.4907 17.5 988
14 15 18 19 14.51086 18.5 903
14 15 19 20 14.51869 19.5 955
15 16 -20 -19 15.50727 -19.5 994
15 16 -19 -18 15.50175 -18.5 1119
15 16 -18 -17 15.49737 -17.5 1072
15 16 -17 -16 15.50982 -16.5 999
15 16 -16 -15 15.50967 -15.5 1068
15 16 -15 -14 15.51359 -14.5 1085
15 16 -14 -13 15.51092 -13.5 1049
15 16 -13 -12 15.50491 -12.5 1132
15 16 -12 -11 15.50267 -11.5 1153
15 16 -11 -10 15.5064 -10.5 1109
15 16 -10 -9 15.50098 -9.5 1116
15 16 -9 -8 15.49792 -8.5 1134
15 16 -8 -7 15.50194 -7.5 1198
15 16 -7 -6 15.5074 -6.5 1159
15 16 -6 -5 15.49963 -5.5 1180
15 16 -5 -4 15.49344 -4.5 1166
15 16 -4 -3 15.49705 -3.5 1166
15 16 -3 -2 15.51558 -2.5 1213
15 16 -2 -1 15.50714 -1.5 1276
15 16 -1 0 15.50777 -0.5 1194
15 16 0 1 15.50777 0.5 1194
15 16 1 2 15.50714 1.5 1276
15 16 2 3 15.51558 2.5 1213
15 16 3 4 15.49705 3.5 1166
15 16 4 5 15.49344 4.5 1166
15 16 5 6 15.49963 5.5 1180
15 16 6 7 15.5074 6.5 1159
15 16 7 8 15.50194 7.5 1198
15 16 8 9 15.49792 8.5 1134
15 16 9 10 15.50098 9.5 1116
15 16 10 11 15.5064 10.5 1109
15 16 11 12 15.50267 11.5 1153
15 16 12 13 15.50491 12.5 1132
15 16 13 14 15.51092 13.5 1049
15 16 14 15 15.51359 14.5 1085
15 16 15 16 15.50967 15.5 1068
15 16 16 17 15.50982 16.5 999
15 16 17 18 15.49737 17.5 1072
15 16 18 19 15.50175 18.5 1119
15 16 19 20 15.50727 19.5 994
16 17 -20 -19 16.50695 -19.5 1120
16 17 -19 -18 16.49801 -18.5 1046
16 17 -18 -17 16.50454 -17.5 1057
16 17 -17 -16 16.49723 -16.5 1085
16 17 -16 -15 16.50747 -15.5 1102
16 17 -15 -14 16.49311 -14.5 1108
16 17 -14 -13 16.49784 -13.5 1123
16 17 -13 -12 16.49871 -12.5 1126
16 17 -12 -11 16.50675 -11.5 1229
16 17 -11 -10 16.49623 -10.5 1156
16 17 -10 -9 16.5016 -9.5 1175
16 17 -9 -8 16.49244 -8.5 1218
16 17 -8 -7 16.50383 -7.5 1277
16 17 -7 -6 16.49146 -6.5 1232
16 17 -6 -5 16.50048 -5.5 1185
16 17 -5 -4 16.49454 -4.5 1247
16 17 -4 -3 16.49535 -3.5 1370
16 17 -3 -2 16.49949 -2.5 1275
16 17 -2 -1 16.48832 -1.5 1303
16 17 -1 0 16.51476 -0.5 1278
16 17 0 1 16.51476 0.5 1278
16 17 1 2 16.48832 1.5 1303
16 17 2 3 16.49949 2.5 1275
16 17 3 4 16.49535 3.5 1370
16 17 4 5 16.49454 4.5 1247
16 17 5 6 16.50048 5.5 1185
16 17 6 7 16.49146 6.5 1232
16 17 7 8 16.50383 7.5 1277
16 17 8 9 16.49244 8.5 1218
16 17 9 10 16.5016 9.5 1175
16 17 10 11 16.49623 10.5 1156
16 17 11 12 16.50675 11.5 1229
16 17 12 13 16.49871 12.5 1126
16 17 13 14 16.49784 13.5 1123
16 17 14 15 16.49311 14.5 1108
16 17 15 16 16.50747 15.5 1102
16 17 16 17 16.49723 16.5 1085
16 17 17 18 16.50454 17.5 1057
16 17 18 19 16.49801 18.5 1046
16 17 19 20 16.50695 19.5 1120
17 18 -20 -19 17.50689 -19.5 1118
17 18 -19 -18 17.50331 -18.5 1124
17 18 -18 -17 17.49964 -17.5 1073
17 18 -17 -16 17.47536 -16.5 1112
17 18 -16 -15 17.49011 -15.5 1176
17 18 -15 -14 17.51499 -14.5 1194
17 18 -14 -13 17.49344 -13.5 1182
17 18 -13 -12 17.51246 -12.5 1217
17 18 -12 -11 17.50576 -11.5 1140
17 18 -11 -10 17.49196 -10.5 1221
17 18 -10 -9 17.49933 -9.5 1264
17 18 -9 -8 17.50636 -8.5 1218
17 18 -8 -7 17.50838 -7.5 1300
17 18 -7 -6 17.50557 -6.5 1276
17 18 -6 -5 17.51153 -5.5 1320
17 18 -5 -4 17.51272 -4.5 1296
17 18 -4 -3 17.5111 -3.5 1388
17 18 -3 -2 17.50436 -2.5 1318
17 18 -2 -1 17.50163 -1.5 1337
17 18 -1 0 17.49847 -0.5 1368
17 18 0 1 17.49847 0.5 1368
17 18 1 2 17.50163 1.5 1337
17 18 2 3 17.50436 2.5 1318
17 18 3 4 17.5111 3.5 1388
17 18 4 5 17.51272 4.5 1296
17 18 5 6 17.51153 5.5 1320
17 18 6 7 17.50557 6.5 1276
17 18 7 8 17.50838 7.5 1300
17 18 8 9 17.50636 8.5 1218
17 18 9 10 17.49933 9.5 1264
17 18 10 11 17.49196 10.5 1221
17 18 11 12 17.50576 11.5 1140
17 18 12 13 17.51246 12.5 1217
17 18 13 14 17.49344 13.5 1182
17 18 14 15 17.51499 14.5 1194
17 18 15 16 17.49011 15.5 1176
17 18 16 17 17.47536 16.5 1112
17 18 17 18 17.49964 17.5 1073
17 18 18 19 17.50331 18.5 1124
17 18 19 20 17.50689 19.5 1118
18 19 -20 -19 18.49874 -19.5 1192
18 19 -19 -18 18.51705 -18.5 1158
18 19 -18 -17 18.51329 -17.5 1187
18 19 -17 -16 18.50736 -16.5 1251
18 19 -16 -15 18.48768 -15.5 1155
18 19 -15 -14 18.4971 -14.5 1253
18 19 -14 -13 18.50664 -13.5 1240
18 19 -13 -12 18.50441 -12.5 1301
18 19 -12 -11 18.4942 -11.5 1292
18 19 -11 -10 18.5085 -10.5 1266
18 19 -10 -9 18.50512 -9.5 1364
18 19 -9 -8 18.49314 -8.5 1289
18 19 -8 -7 18.51633 -7.5 1328
18 19 -7 -6 18.51292 -6.5 1326
18 19 -6 -5 18.50288 -5.5 1333
18 19 -5 -4 18.52101 -4.5 1359
18 19 -4 -3 18.50798 -3.5 1368
18 19 -3 -2 18.52036 -2.5 1369
18 19 -2 -1 18.50063 -1.5 1422
18 19 -1 0 18.49082 -0.5 1356
18 19 0 1 18.49082 0.5 1356
18 19 1 2 18.50063 1.5 1422
18 19 2 3 18.52036 2.5 1369
18 19 3 4 18.50798 3.5 1368
18 19 4 5 18.52101 4.5 1359
18 19 5 6 18.50288 5.5 1333
18 19 6 7 18.51292 6.5 1326
18 19 7 8 18.51633 7.5 1328
18 19 8 9 18.49314 8.5 1289
18 19 9 10 18.50512 9.5 1364
18 19 10 11 18.5085 10.5 1266
18 19 11 12 18.4942 11.5 1292
18 19 12 13 18.50441 12.5 1301
18 19 13 14 18.50664 13.5 1240
18 19 14 15 18.4971 14.5 1253
18 19 15 16 18.48768 15.5 1155
18 19 16 17 18.50736 16.5 1251
18 19 17 18 18.51329 17.5 1187
18 19 18 19 18.51705 18.5 1158
18 19 19 20 18.49874 19.5 1192
19 20 -20 -19 19.49084 -19.5 1223
19 20 -19 -18 19.50266 -18.5 1278
19 20 -18 -17 19.50158 -17.5 1269
19 20 -17 -16 19.49268 -16.5 1205
19 20 -16 -15 19.51234 -15.5 1317
19 20 -15 -14 19.50348 -14.5 1271
19 20 -14 -13 19.50995 -13.5 1285
19 20 -13 -12 19.51565 -12.5 1309
19 20 -12 -11 19.48623 -11.5 1348
19 20 -11 -10 19.50263 -10.5 1343
19 20 -10 -9 19.50109 -9.5 1383
19 20 -9 -8 19.49936 -8.5 1303
19 20 -8 -7 19.51065 -7.5 1395
19 20 -7 -6 19.48984 -6.5 1382
19 20 -6 -5 19.49558 -5.5 1508
19 20 -5 -4 19.50211 -4.5 1521
19 20 -4 -3 19.50003 -3.5 1453
19 20 -3 -2 19.50108 -2.5 1456
19 20 -2 -1 19.50681 -1.5 1480
19 20 -1 0 19.50199 -0.5 1499
19 20 0 1 19.50199 0.5 1499
19 20 1 2 19.50681 1.5 1480
19 20 2 3 19.50108 2.5 1456
19 20 3 4 19.50003 3.5 1453
19 20 4 5 19.50211 4.5 1521
19 20 5 6 19.49558 5.5 1508
19 20 6 7 19.48984 6.5 1382
19 20 7 8 19.51065 7.5 1395
19 20 8 9 19.49936 8.5 1303
19 20 9 10 19.50109 9.5 1383
19 20 10 11 19.50263 10.5 1343
19 20 11 12 19.48623 11.5 1348
19 20 12 13 19.51565 12.5 1309
19 20 13 14 19.50995 13.5 1285
19 20 14 15 19.50348 14.5 1271
19 20 15 16 19.51234 15.5 1317
19 20 16 17 19.49268 16.5 1205
19 20 17 18 19.50158 17.5 1269
19 20 18 19 19.50266 18.5 1278
19 20 19 20 19.49084 19.5 1223
20 21 -20 -19 20.50485 -19.5 1244
20 21 -19 -18 20.47998 -18.5 1283
20 21 -18 -17 20.50895 -17.5 1247
20 21 -17 -16 20.49591 -16.5 1308
20 21 -16 -15 20.50306 -15.5 1273
20 21 -15 -14 20.49013 -14.5 1319
20 21 -14 -13 20.50598 -13.5 1296
20 21 -13 -12 20.4919 -12.5 1345
20 21 -12 -11 20.50815 -11.5 1371
20 21 -11 -10 20.50242 -10.5 1369
20 21 -10 -9 20.49766 -9.5 1418
20 21 -9 -8 20.51058 -8.5 1440
20 21 -8 -7 20.51031 -7.5 1445
20 21 -7 -6 20.49786 -6.5 1425
20 21 -6 -5 20.4831 -5.5 1446
20 21 -5 -4 20.50282 -4.5 1405
20 21 -4 -3 20.49965 -3.5 1582
20 21 -3 -2 20.48865 -2.5 1505
20 21 -2 -1 20.50975 -1.5 1551
20 21 -1 0 20.5035 -0.5 1480
20 21 0 1 20.5035 0.5 1480
20 21 1 2 20.50975 1.5 1551
20 21 2 3 20.48865 2.5 1505
20 21 3 4 20.49965 3.5 1582
20 21 4 5 20.50282 4.5 1405
20 21 5 6 20.4831 5.5 1446
20 21 6 7 20.49786 6.5 1425
20 21 7 8 20.51031 7.5 1445
20 21 8 9 20.51058 8.5 1440
20 21 9 10 20.49766 9.5 1418
20 21 10 11 20.50242 10.5 1369
20 21 11 12 20.50815 11.5 1371
20 21 12 13 20.4919 12.5 1345
20 21 13 14 20.50598 13.5 1296
20 21 14 15 20.49013 14.5 1319
20 21 15 16 20.50306 15.5 1273
20 21 16 17 20.49591 16.5 1308
20 21 17 18 20.50895 17.5 1247
20 21 18 19 20.47998 18.5 1283
20 21 19 20 20.50485 19.5 1244
21 22 -20 -19 21.50508 -19.5 1308
21 22 -19 -18 21.50535 -18.5 1344
21 22 -18 -17 21.49431 -17.5 1339
21 22 -17 -16 21.50276 -16.5 1319
21 22 -16 -15 21.51566 -15.5 1343
21 22 -15 -14 21.48806 -14.5 1336
21 22 -14 -13 21.49401 -13.5 1377
21 22 -13 -12 21.49824 -12.5 1399
21 22 -12 -11 21.50452 -11.5 1393
21 22 -11 -10 21.50465 -10.5 1391
21 22 -10 -9 21.51673 -9.5 1471
21 22 -9 -8 21.49778 -8.5 1455
21 22 -8 -7 21.49944 -7.5 1480
21 22 -7 -6 21.50949 -6.5 1528
21 22 -6 -5 21.50241 -5.5 1475
21 22 -5 -4 21.5121 -4.5 1535
21 22 -4 -3 21.50562 -3.5 1497
21 22 -3 -2 21.51052 -2.5 1571
21 22 -2 -1 21.50635 -1.5 1604
21 22 -1 0 21.49956 -0.5 1533
21 22 0 1 21.49956 0.5 1533
21 22 1 2 21.50635 1.5 1604
21 22 2 3 21.51052 2.5 1571
21 22 3 4 21.50562 3.5 1497
21 22 4 5 21.5121 4.5 1535
21 22 5 6 21.50241 5.5 1475
21 22 6 7 21.50949 6.5 1528
21 22 7 8 21.49944 7.5 1480
21 22 8 9 21.49778 8.5 1455
21 22 9 10 21.51673 9.5 1471
21 22 10 11 21.50465 10.5 1391
21 22 11 12 21.50452 11.5 1393
21 22 12 13 21.49824 12.5 1399
21 22 13 14 21.49401 13.5 1377
21 22 14 15 21.48806 14.5 1336
21 22 15 16 21.51566 15.5 1343
21 22 16 17 21.50276 16.5 1319
21 22 17 18 21.49431 17.5 1339
21 22 18 19 21.50535 18.5 1344
21 22 19 20 21.50508 19.5 1308
22 23 -20 -19 22.49934 -19.5 1261
22 23 -19 -18 22.50069 -18.5 1309
22 23 -18 -17 22.51079 -17.5 1345
22 23 -17 -16 22.50169 -16.5 1458
22 23 -16 -15 22.50091 -15.5 1414
22 23 -15 -14 22.509 -14.5 1425
22 23 -14 -13 22.50846 -13.5 1416
22 23 -13 -12 22.49925 -12.5 1377
22 23 -12 -11 22.50488 -11.5 1370
22 23 -11 -10 22.50197 -10.5 1489
22 23 -10 -9 22.49544 -9.5 1532
22 23 -9 -8 22.50194 -8.5 1528
22 23 -8 -7 22.50945 -7.5 1565
22 23 -7 -6 22.5055 -6.5 1587
22 23 -6 -5 22.50398 -5.5 1561
22 23 -5 -4 22.49433 -4.5 1572
22 23 -4 -3 22.50771 -3.5 1604
22 23 -3 -2 22.49016 -2.5 1623
22 23 -2 -1 22.5012 -1.5 1576
22 23 -1 0 22.50651 -0.5 1682
22 23 0 1 22.50651 0.5 1682
22 23 1 2 22.5012 1.5 1576
22 23 2 3 22.49016 2.5 1623
22 23 3 4 22.50771 3.5 1604
22 23 4 5 22.49433 4.5 1572
22 23 5 6 22.50398 5.5 1561
22 23 6 7 22.5055 6.5 1587
22 23 7 8 22.50945 7.5 1565
22 23 8 9 22.50194 8.5 1528
22 23 9 10 22.49544 9.5 1532
22 23 10 11 22.50197 10.5 1489
22 23 11 12 22.50488 11.5 1370
22 23 12 13 22.49925 12.5 1377
22 23 13 14 22.50846 13.5 1416
22 23 14 15 22.509 14.5 1425
22 23 15 16 22.50091 15.5 1414
22 23 16 17 22.50169 16.5 1458
22 23 17 18 22.51079 17.5 1345
22 23 18 19 22.50069 18.5 1309
22 23 19 20 22.49934 19.5 1261
23 24 -20 -19 23.50373 -19.5 1388
23 24 -19 -18 23.49749 -18.5 1364
23 24 -18 -17 23.49314 -17.5 1417
23 24 -17 -16 23.50314 -16.5 1417
23 24 -16 -15 23.49996 -15.5 1434
23 24 -15 -14 23.49093 -14.5 1433
23 24 -14 -13 23.50258 -13.5 1518
23 24 -13 -12 23.50418 -12.5 1429
23 24 -12 -11 23.51574 -11.5 1452
23 24 -11 -10 23.49709 -10.5 1480
23 24 -10 -9 23.49769 -9.5 1538
23 24 -9 -8 23.50078 -8.5 1569
23 24 -8 -7 23.49006 -7.5 1546
23 24 -7 -6 23.50873 -6.5 1537
23 24 -6 -5 23.50855 -5.5 1708
23 24 -5 -4 23.51115 -4.5 1659
23 24 -4 -3 23.49768 -3.5 1663
23 24 -3 -2 23.50326 -2.5 1642
23 24 -2 -1 23.49499 -1.5 1684
23 24 -1 0 23.51437 -0.5 1675
23 24 0 1 23.51437 0.5 1675
23 24 1 2 23.49499 1.5 1684
23 24 2 3 23.50326 2.5 1642
23 24 3 4 23.49768 3.5 1663
23 24 4 5 23.51115 4.5 1659
23 24 5 6 23.50855 5.5 1708
23 24 6 7 23.50873 6.5 1537
23 24 7 8 23.49006 7.5 1546
23 24 8 9 23.50078 8.5 1569
23 24 9 10 23.49769 9.5 1538
23 24 10 11 23.49709 10.5 1480
23 24 11 12 23.51574 11.5 1452
23 24 12 13 23.50418 12.5 1429
23 24 13 14 23.50258 13.5 1518
23 24 14 15 23.49093 14.5 1433
23 24 15 16 23.49996 15.5 1434
23 24 16 17 23.50314 16.5 1417
23 24 17 18 23.49314 17.5 1417
23 24 18 19 23.49749 18.5 1364
23 24 19 20 23.50373 19.5 1388
24 25 -20 -19 24.49986 -19.5 1363
24 25 -19 -18 24.501 -18.5 1409
24 25 -18 -17 24.49369 -17.5 1417
24 25 -17 -16 24.51002 -16.5 1458
24 25 -16 -15 24.50456 -15.5 1409
24 25 -15 -14 24.50147 -14.5 1428
24 25 -14 -13 24.49071 -13.5 1457
24 25 -13 -12 24.50409 -12.5 1491
24 25 -12 -11 24.50699 -11.5 1564
24 25 -11 -10 24.49808 -10.5 1519
24 25 -10 -9 24.49286 -9.5 1540
24 25 -9 -8 24.49323 -8.5 1577
24 25 -8 -7 24.50032 -7.5 1656
24 25 -7 -6 24.50423 -6.5 1588
24 25 -6 -5 24.4833 -5.5 1617
24 25 -5 -4 24.5038 -4.5 1625
24 25 -4 -3 24.48809 -3.5 1692
24 25 -3 -2 24.48014 -2.5 1703
24 25 -2 -1 24.50063 -1.5 1746
24 25 -1 0 24.50478 -0.5 1759
24 25 0 1 24.50478 0.5 1759
24 25 1 2 24.50063 1.5 1746
24 25 2 3 24.48014 2.5 1703
24 25 3 4 24.48809 3.5 1692
24 25 4 5 24.5038 4.5 1625
24 25 5 6 24.4833 5.5 1617
24 25 6 7 24.50423 6.5 1588
24 25 7 8 24.50032 7.5 1656
24 25 8 9 24.49323 8.5 1577
24 25 9 10 24.49286 9.5 1540
24 25 10 11 24.49808 10.5 1519
24 25 11 12 24.50699 11.5 1564
24 25 12 13 24.50409 12.5 1491
24 25 13 14 24.49071 13.5 1457
24 25 14 15 24.50147 14.5 1428
24 25 15 16 24.50456 15.5 1409
24 25 16 17 24.51002 16.5 1458
24 25 17 18 24.49369 17.5 1417
24 25 18 19 24.501 18.5 1409
24 25 19 20 24.49986 19.5 1363
25 26 -20 -19 25.49966 -19.5 1439
25 26 -19 -18 25.50297 -18.5 1466
25 26 -18 -17 25.48371 -17.5 1432
25 26 -17 -16 25.49978 -16.5 1477
25 26 -16 -15 25.49231 -15.5 1455
25 26 -15 -14 25.50206 -14.5 1463
25 26 -14 -13 25.50121 -13.5 1554
25 26 -13 -12 25.49643 -12.5 1545
25 26 -12 -11 25.49697 -11.5 1522
25 26 -11 -10 25.50162 -10.5 1559
25 26 -10 -9 25.48327 -9.5 1654
25 26 -9 -8 25.50687 -8.5 1610
25 26 -8 -7 25.50239 -7.5 1708
25 26 -7 -6 25.50449 -6.5 1596
25 26 -6 -5 25.50121 -5.5 1619
25 26 -5 -4 25.50549 -4.5 1707
25 26 -4 -3 25.50886 -3.5 1787
25 26 -3 -2 25.49861 -2.5 1688
25 26 -2 -1 25.49638 -1.5 1735
25 26 -1 0 25.50344 -0.5 1741
25 26 0 1 25.50344 0.5 1741
25 26 1 2 25.49638 1.5 1735
25 26 2 3 25.49861 2.5 1688
25 26 3 4 25.50886 3.5 1787
25 26 4 5 25.50549 4.5 1707
25 26 5 6 25.50121 5.5 1619
25 26 6 7 25.50449 6.5 1596
25 26 7 8 25.50239 7.5 1708
25 26 8 9 25.50687 8.5 1610
25 26 9 10 25.48327 9.5 1654
25 26 10 11 25.50162 10.5 1559
25 26 11 12 25.49697 11.5 1522
25 26 12 13 25.49643 12.5 1545
25 26 13 14 25.50121 13.5 1554
25 26 14 15 25.50206 14.5 1463
25 26 15 16 25.49231 15.5 1455
25 26 16 17 25.49978 16.5 1477
25 26 17 18 25.48371 17.5 1432
25 26 18 19 25.50297 18.5 1466
25 26 19 20 25.49966 19.5 1439
26 27 -20 -19 26.51126 -19.5 1417
26 27 -19 -18 26.49448 -18.5 1547
26 27 -18 -17 26.5026 -17.5 1493
26 27 -17 -16 26.49768 -16.5 1512
26 27 -16 -15 26.48893 -15.5 1448
26 27 -15 -14 26.4952 -14.5 1575
26 27 -14 -13 26.50465 -13.5 1574
26 27 -13 -12 26.49516 -12.5 1519
26 27 -12 -11 26.50743 -11.5 1533
26 27 -11 -10 26.49896 -10.5 1641
26 27 -10 -9 26.49544 -9.5 1679
26 27 -9 -8 26.50254 -8.5 1663
26 27 -8 -7 26.48972 -7.5 1731
26 27 -7 -6 26.49873 -6.5 1711
26 27 -6 -5 26.50739 -5.5 1716
26 27 -5 -4 26.50572 -4.5 1705
26 27 -4 -3 26.49554 -3.5 1784
26 27 -3 -2 26.49742 -2.5 1797
26 27 -2 -1 26.49612 -1.5 1752
26 27 -1 0 26.50274 -0.5 1811
26 27 0 1 26.50274 0.5 1811
26 27 1 2 26.49612 1.5 1752
26 27 2 3 26.49742 2.5 1797
26 27 3 4 26.49554 3.5 1784
26 27 4 5 26.50572 4.5 1705
26 27 5 6 26.50739 5.5 1716
26 27 6 7 26.49873 6.5 1711
26 27 7 8 26.48972 7.5 1731
26 27 8 9 26.50254 8.5 1663
26 27 9 10 26.49544 9.5 1679
26 27 10 11 26.49896 10.5 1641
26 27 11 12 26.50743 11.5 1533
26 27 12 13 26.49516 12.5 1519
26 27 13 14 26.50465 13.5 1574
26 27 14 15 26.4952 14.5 1575
26 27 15 16 26.48893 15.5 1448
26 27 16 17 26.49768 16.5 1512
26 27 17 18 26.5026 17.5 1493
26 27 18 19 26.49448 18.5 1547
26 27 19 20 26.51126 19.5 1417
27 28 -20 -19 27.48819 -19.5 1458
27 28 -19 -18 27.49454 -18.5 1512
27 28 -18 -17 27.49674 -17.5 1558
27 28 -17 -16 27.51016 -16.5 1532
27 28 -16 -15 27.49703 -15.5 1558
27 28 -15 -14 27.48766 -14.5 1515
27 28 -14 -13 27.50994 -13.5 1605
27 28 -13 -12 27.5043 -12.5 1632
27 28 -12 -11 27.50709 -11.5 1573
27 28 -11 -10 27.49462 -10.5 1635
27 28 -10 -9 27.49238 -9.5 1659
27 28 -9 -8 27.50215 -8.5 1698
27 28 -8 -7 27.50571 -7.5 1732
27 28 -7 -6 27.49908 -6.5 1768
27 28 -6 -5 27.50295 -5.5 1826
27 28 -5 -4 27.50356 -4.5 1753
27 28 -4 -3 27.494 -3.5 1812
27 28 -3 -2 27.50729 -2.5 1840
27 28 -2 -1 27.50393 -1.5 1777
27 28 -1 0 27.49801 -0.5 1882
27 28 0 1 27.49801 0.5 1882
27 28 1 2 27.50393 1.5 1777
27 28 2 3 27.50729 2.5 1840
27 28 3 4 27.494 3.5 1812
27 28 4 5 27.50356 4.5 1753
27 28 5 6 27.50295 5.5 1826
27 28 6 7 27.49908 6.5 1768
27 28 7 8 27.50571 7.5 1732
27 28 8 9 27.50215 8.5 1698
27 28 9 10 27.49238 9.5 1659
27 28 10 11 27.49462 10.5 1635
27 28 11 12 27.50709 11.5 1573
27 28 12 13 27.5043 12.5 1632
27 28 13 14 27.50994 13.5 1605
27 28 14 15 27.48766 14.5 1515
27 28 15 16 27.49703 15.5 1558
27 28 16 17 27.51016 16.5 1532
27 28 17 18 27.49674 17.5 1558
27 28 18 19 27.49454 18.5 1512
27 28 19 20 27.48819 19.5 1458
28 29 -20 -19 28.51074 -19.5 1555
28 29 -19 -18 28.50193 -18.5 1514
28 29 -18 -17 28.49712 -17.5 1533
28 29 -17 -16 28.50894 -16.5 1617
28 29 -16 -15 28.48076 -15.5 1583
28 29 -15 -14 28.51448 -14.5 1601
28 29 -14 -13 28.51353 -13.5 1595
28 29 -13 -12 28.51009 -12.5 1612
28 29 -12 -11 28.50356 -11.5 1687
28 29 -11 -10 28.49372 -10.5 1736
28 29 -10 -9 28.50748 -9.5 1692
28 29 -9 -8 28.5011 -8.5 1725
28 29 -8 -7 28.50329 -7.5 1795
28 29 -7 -6 28.49812 -6.5 1755
28 29 -6 -5 28.50553 -5.5 1819
28 29 -5 -4 28.49579 -4.5 1805
28 29 -4 -3 28.49451 -3.5 1831
28 29 -3 -2 28.50118 -2.5 1863
28 29 -2 -1 28.50594 -1.5 1914
28 29 -1 0 28.50087 -0.5 1905
28 29 0 1 28.50087 0.5 1905
28 29 1 2 28.50594 1.5 1914
28 29 2 3 28.50118 2.5 1863
28 29 3 4 28.49451 3.5 1831
28 29 4 5 28.49579 4.5 1805
28 29 5 6 28.50553 5.5 1819
28 29 6 7 28.49812 6.5 1755
28 29 7 8 28.50329 7.5 1795
28 29 8 9 28.5011 8.5 1725
28 29 9 10 28.50748 9.5 1692
28 29 10 11 28.49372 10.5 1736
28 29 11 12 28.50356 11.5 1687
28 29 12 13 28.51009 12.5 1612
28 29 13 14 28.51353 13.5 1595
28 29 14 15 28.51448 14.5 1601
28 29 15 16 28.48076 15.5 1583
28 29 16 17 28.50894 16.5 1617
28 29 17 18 28.49712 17.5 1533
28 29 18 19 28.50193 18.5 1514
28 29 19 20 28.51074 19.5 1555
29 30 -20 -19 29.50442 -19.5 1563
29 30 -19 -18 29.50481 -18.5 1534
29 30 -18 -17 29.50651 -17.5 1579
29 30 -17 -16 29.50409 -16.5 1589
29 30 -16 -15 29.49253 -15.5 1558
29 30 -15 -14 29.49311 -14.5 1622
29 30 -14 -13 29.49324 -13.5 1642
29 30 -13 -12 29.5055 -12.5 1701
29 30 -12 -11 29.49845 -11.5 1719
29 30 -11 -10 29.50021 -10.5 1684
29 30 -10 -9 29.49479 -9.5 1791
29 30 -9 -8 29.49841 -8.5 1774
29 30 -8 -7 29.49389 -7.5 1732
29 30 -7 -6 29.50554 -6.5 1849
29 30 -6 -5 29.47842 -5.5 1825
29 30 -5 -4 29.50183 -4.5 1858
29 30 -4 -3 29.49614 -3.5 1895
29 30 -3 -2 29.50284 -2.5 1954
29 30 -2 -1 29.49549 -1.5 1886
29 30 -1 0 29.51451 -0.5 1952
29 30 0 1 29.51451 0.5 1952
29 30 1 2 29.49549 1.5 1886
29 30 2 3 29.50284 2.5 1954
29 30 3 4 29.49614 3.5 1895
29 30 4 5 29.50183 4.5 1858
29 30 5 6 29.47842 5.5 1825
29 30 6 7 29.50554 6.5 1849
29 30 7 8 29.49389 7.5 1732
29 30 8 9 29.49841 8.5 1774
29 30 9 10 29.49479 9.5 1791
29 30 10 11 29.50021 10.5 1684
29 30 11 12 29.49845 11.5 1719
29 30 12 13 29.5055 12.5 1701
29 30 13 14 29.49324 13.5 1642
29 30 14 15 29.49311 14.5 1622
29 30 15 16 29.49253 15.5 1558
29 30 16 17 29.50409 16.5 1589
29 30 17 18 29.50651 17.5 1579
29 30 18 19 29.50481 18.5 1534
29 30 19 20 29.50442 19.5 1563
30 31 -20 -19 30.50584 -19.5 1582
30 31 -19 -18 30.49968 -18.5 1546
30 31 -18 -17 30.51141 -17.5 1592
30 31 -17 -16 30.49473 -16.5 1604
30 31 -16 -15 30.4943 -15.5 1642
30 31 -15 -14 30.50469 -14.5 1636
30 31 -14 -13 30.49194 -13.5 1689
30 31 -13 -12 30.52004 -12.5 1611
30 31 -12 -11 30.50883 -11.5 1785
30 31 -11 -10 30.50543 -10.5 1660
30 31 -10 -9 30.4915 -9.5 1728
30 31 -9 -8 30.49153 -8.5 1800
30 31 -8 -7 30.49695 -7.5 1774
30 31 -7 -6 30.51457 -6.5 1838
30 31 -6 -5 30.49643 -5.5 1839
30 31 -5 -4 30.50657 -4.5 1808
30 31 -4 -3 30.50364 -3.5 1863
30 31 -3 -2 30.49164 -2.5 1890
30 31 -2 -1 30.50959 -1.5 1998
30 31 -1 0 30.49416 -0.5 1946
30 31 0 1 30.49416 0.5 1946
30 31 1 2 30.50959 1.5 1998
30 31 2 3 30.49164 2.5 1890
30 31 3 4 30.50364 3.5 1863
30 31 4 5 30.50657 4.5 1808
30 31 5 6 30.49643 5.5 1839
30 31 6 7 30.51457 6.5 1838
30 31 7 8 30.49695 7.5 1774
30 31 8 9 30.49153 8.5 1800
30 31 9 10 30.4915 9.5 1728
30 31 10 11 30.50543 10.5 1660
30 31 11 12 30.50883 11.5 1785
30 31 12 13 30.52004 12.5 1611
30 31 13 14 30.49194 13.5 1689
30 31 14 15 30.50469 14.5 1636
30 31 15 16 30.4943 15.5 1642
30 31 16 17 30.49473 16.5 1604
30 31 17 18 30.51141 17.5 1592
30 31 18 19 30.49968 18.5 1546
30 31 19 20 30.50584 19.5 1582
31 32 -20 -19 31.49925 -19.5 1627
31 32 -19 -18 31.48595 -18.5 1577
31 32 -18 -17 31.50104 -17.5 1637
31 32 -17 -16 31.50185 -16.5 1579
31 32 -16 -15 31.49757 -15.5 1692
31 32 -15 -14 31.49346 -14.5 1685
31 32 -14 -13 31.50804 -13.5 1713
31 32 -13 -12 31.49759 -12.5 1808
31 32 -12 -11 31.50537 -11.5 1790
31 32 -11 -10 31.49972 -10.5 1723
31 32 -10 -9 31.49983 -9.5 1719
31 32 -9 -8 31.49179 -8.5 1835
31 32 -8 -7 31.49792 -7.5 1882
31 32 -7 -6 31.50475 -6.5 1853
31 32 -6 -5 31.51252 -5.5 1880
31 32 -5 -4 31.50663 -4.5 1844
31 32 -4 -3 31.4997 -3.5 1911
31 32 -3 -2 31.50615 -2.5 1937
31 32 -2 -1 31.51155 -1.5 1938
31 32 -1 0 31.49477 -0.5 2017
31 32 0 1 31.49477 0.5 2017
31 32 1 2 31.51155 1.5 1938
31 32 2 3 31.50615 2.5 1937
31 32 3 4 31.4997 3.5 1911
31 32 4 5 31.50663 4.5 1844
31 32 5 6 31.51252 5.5 1880
31 32 6 7 31.50475 6.5 1853
31 32 7 8 31.49792 7.5 1882
31 32 8 9 31.49179 8.5 1835
31 32 9 10 31.49983 9.5 1719
31 32 10 11 31.49972 10.5 1723
31 32 11 12 31.50537 11.5 1790
31 32 12 13 31.49759 12.5 1808
31 32 13 14 31.50804 13.5 1713
31 32 14 15 31.49346 14.5 1685
31 32 15 16 31.49757 15.5 1692
31 32 16 17 31.50185 16.5 1579
31 32 17 18 31.50104 17.5 1637
31 32 18 19 31.48595 18.5 1577
31 32 19 20 31.49925 19.5 1627
32 33 -20 -19 32.50894 -19.5 1654
32 33 -19 -18 32.49567 -18.5 1624
32 33 -18 -17 32.48691 -17.5 1638
32 33 -17 -16 32.50357 -16.5 1681
32 33 -16 -15 32.49167 -15.5 1773
32 33 -15 -14 32.49526 -14.5 1732
32 33 -14 -13 32.50221 -13.5 1710
32 33 -13 -12 32.49218 -12.5 1797
32 33 -12 -11 32.51382 -11.5 1777
32 33 -11 -10 32.49505 -10.5 1832
32 33 -10 -9 32.51665 -9.5 1859
32 33 -9 -8 32.49447 -8.5 1881
32 33 -8 -7 32.50064 -7.5 1872
32 33 -7 -6 32.50342 -6.5 1926
32 33 -6 -5 32.50318 -5.5 1853
32 33 -5 -4 32.48246 -4.5 1890
32 33 -4 -3 32.49404 -3.5 1903
32 33 -3 -2 32.50361 -2.5 1990
32 33 -2 -1 32.4811 -1.5 1941
32 33 -1 0 32.50556 -0.5 2015
32 33 0 1 32.50556 0.5 2015
32 33 1 2 32.4811 1.5 1941
32 33 2 3 32.50361 2.5 1990
32 33 3 4 32.49404 3.5 1903
32 33 4 5 32.48246 4.5 1890
32 33 5 6 32.50318 5.5 1853
32 33 6 7 32.50342 6.5 1926
32 33 7 8 32.50064 7.5 1872
32 33 8 9 32.49447 8.5 1881
32 33 9 10 32.51665 9.5 1859
32 33 10 11 32.49505 10.5 1832
32 33 11 12 32.51382 11.5 1777
32 33 12 13 32.49218 12.5 1797
32 33 13 14 32.50221 13.5 1710
32 33 14 15 32.49526 14.5 1732
32 33 15 16 32.49167 15.5 1773
32 33 16 17 32.50357 16.5 1681
32 33 17 18 32.48691 17.5 1638
32 33 18 19 32.49567 18.5 1624
32 33 19 20 32.50894 19.5 1654
33 34 -20 -19 33.5243 -19.5 1560
33 34 -19 -18 33.50661 -18.5 1694
33 34 -18 -17 33.50838 -17.5 1698
33 34 -17 -16 33.50628 -16.5 1693
33 34 -16 -15 33.50903 -15.5 1698
33 34 -15 -14 33.49923 -14.5 1676
33 34 -14 -13 33.49915 -13.5 1803
33 34 -13 -12 33.49652 -12.5 1740
33 34 -12 -11 33.50165 -11.5 1833
33 34 -11 -10 33.49932 -10.5 1827
33 34 -10 -9 33.50996 -9.5 1775
33 34 -9 -8 33.49213 -8.5 1868
33 34 -8 -7 33.50607 -7.5 1904
33 34 -7 -6 33.50179 -6.5 1928
33 34 -6 -5 33.50761 -5.5 1955
33 34 -5 -4 33.5066 -4.5 1995
33 34 -4 -3 33.50037 -3.5 1947
33 34 -3 -2 33.49429 -2.5 1938
33 34 -2 -1 33.50849 -1.5 2116
33 34 -1 0 33.50927 -0.5 2013
33 34 0 1 33.50927 0.5 2013
33 34 1 2 33.50849 1.5 2116
33 34 2 3 33.49429 2.5 1938
33 34 3 4 33.50037 3.5 1947
33 34 4 5 33.5066 4.5 1995
33 34 5 6 33.50761 5.5 1955
33 34 6 7 33.50179 6.5 1928
33 34 7 8 33.50607 7.5 1904
33 34 8 9 33.49213 8.5 1868
33 34 9 10 33.50996 9.5 1775
33 34 10 11 33.49932 10.5 1827
33 34 11 12 33.50165 11.5 1833
33 34 12 13 33.49652 12.5 1740
33 34 13 14 33.49915 13.5 1803
33 34 14 15 33.49923 14.5 1676
33 34 15 16 33.50903 15.5 1698
33 34 16 17 33.50628 16.5 1693
33 34 17 18 33.50838 17.5 1698
33 34 18 19 33.50661 18.5 1694
33 34 19 20 33.5243 19.5 1560
34 35 -20 -19 34.50154 -19.5 1681
34 35 -19 -18 34.49898 -18.5 1622
34 35 -18 -17 34.49988 -17.5 1659
34 35 -17 -16 34.50285 -16.5 1752
34 35 -16 -15 34.51354 -15.5 1808
34 35 -15 -14 34.50505 -14.5 1800
34 35 -14 -13 34.50955 -13.5 1801
34 35 -13 -12 34.50606 -12.5 1818
34 35 -12 -11 34.50504 -11.5 1773
34 35 -11 -10 34.4871 -10.5 1829
34 35 -10 -9 34.51244 -9.5 1856
34 35 -9 -8 34.50212 -8.5 1886
34 35 -8 -7 34.50152 -7.5 1932
34 35 -7 -6 34.5004 -6.5 1916
34 35 -6 -5 34.49209 -5.5 1990
34 35 -5 -4 34.50358 -4.5 1916
34 35 -4 -3 34.50418 -3.5 1921
34 35 -3 -2 34.49881 -2.5 1956
34 35 -2 -1 34.4973 -1.5 2109
34 35 -1 0 34.49999 -0.5 2060
34 35 0 1 34.49999 0.5 2060
34 35 1 2 34.4973 1.5 2109
34 35 2 3 34.49881 2.5 1956
34 35 3 4 34.50418 3.5 1921
34 35 4 5 34.50358 4.5 1916
34 35 5 6 34.49209 5.5 1990
34 35 6 7 34.5004 6.5 1916
34 35 7 8 34.50152 7.5 1932
34 35 8 9 34.50212 8.5 1886
34 35 9 10 34.51244 9.5 1856
34 35 10 11 34.4871 10.5 1829
34 35 11 12 34.50504 11.5 1773
34 35 12 13 34.50606 12.5 1818
34 35 13 14 34.50955 13.5 1801
34 35 14 15 34.50505 14.5 1800
34 35 15 16 34.51354 15.5 1808
34 35 16 17 34.50285 16.5 1752
34 35 17 18 34.49988 17.5 1659
34 35 18 19 34.49898 18.5 1622
34 35 19 20 34.50154 19.5 1681
35 36 -20 -19 35.4927 -19.5 1598
35 36 -19 -18 35.50765 -18.5 1788
35 36 -18 -17 35.4958 -17.5 1749
35 36 -17 -16 35.48186 -16.5 1731
35 36 -16 -15 35.4945 -15.5 1775
35 36 -15 -14 35.49797 -14.5 1774
35 36 -14 -13 35.50975 -13.5 1790
35 36 -13 -12 35.50013 -12.5 1792
35 36 -12 -11 35.49303 -11.5 1831
35 36 -11 -10 35.49293 -10.5 1897
35 36 -10 -9 35.50757 -9.5 1832
35 36 -9 -8 35.50648 -8.5 1884
35 36 -8 -7 35.50084 -7.5 1975
35 36 -7 -6 35.51007 -6.5 2029
35 36 -6 -5 35.49701 -5.5 2014
35 36 -5 -4 35.50145 -4.5 2062
35 36 -4 -3 35.49341 -3.5 2029
35 36 -3 -2 35.50279 -2.5 2086
35 36 -2 -1 35.50266 -1.5 2110
35 36 -1 0 35.49186 -0.5 2091
35 36 0 1 35.49186 0.5 2091
35 36 1 2 35.50266 1.5 2110
35 36 2 3 35.50279 2.5 2086
35 36 3 4 35.49341 3.5 2029
35 36 4 5 35.50145 4.5 2062
35 36 5 6 35.49701 5.5 2014
35 36 6 7 35.51007 6.5 2029
35 36 7 8 35.50084 7.5 1975
35 36 8 9 35.50648 8.5 1884
35 36 9 10 35.50757 9.5 1832
35 36 10 11 35.49293 10.5 1897
35 36 11 12 35.49303 11.5 1831
35 36 12 13 35.50013 12.5 1792
35 36 13 14 35.50975 13.5 1790
35 36 14 15 35.49797 14.5 1774
35 36 15 16 35.4945 15.5 1775
35 36 16 17 35.48186 16.5 1731
35 36 17 18 35.4958 17.5 1749
35 36 18 19 35.50765 18.5 1788
35 36 19 20 35.4927 19.5 1598
36 37 -20 -19 36.49973 -19.5 1706
36 37 -19 -18 36.50871 -18.5 1699
36 37 -18 -17 36.50694 -17.5 1760
36 37 -17 -16 36.5019 -16.5 1736
36 37 -16 -15 36.50453 -15.5 1748
36 37 -15 -14 36.50716 -14.5 1763
36 37 -14 -13 36.50144 -13.5 1814
36 37 -13 -12 36.50267 -12.5 1860
36 37 -12 -11 36.49704 -11.5 1867
36 37 -11 -10 36.50767 -10.5 1952
36 37 -10 -9 36.51144 -9.5 1932
36 37 -9 -8 36.50535 -8.5 1953
36 37 -8 -7 36.50416 -7.5 1978
36 37 -7 -6 36.50447 -6.5 1978
36 37 -6 -5 36.50205 -5.5 1946
36 37 -5 -4 36.49396 -4.5 2033
36 37 -4 -3 36.51168 -3.5 2084
36 37 -3 -2 36.50241 -2.5 2007
36 37 -2 -1 36.49248 -1.5 2090
36 37 -1 0 36.48905 -0.5 2055
36 37 0 1 36.48905 0.5 2055
36 37 1 2 36.49248 1.5 2090
36 37 2 3 36.50241 2.5 2007
36 37 3 4 36.51168 3.5 2084
36 37 4 5 36.49396 4.5 2033
36 37 5 6 36.50205 5.5 1946
36 37 6 7 36.50447 6.5 1978
36 37 7 8 36.50416 7.5 1978
36 37 8 9 36.50535 8.5 1953
36 37 9 10 36.51144 9.5 1932
36 37 10 11 36.50767 10.5 1952
36 37 11 12 36.49704 11.5 1867
36 37 12 13 36.50267 12.5 1860
36 37 13 14 36.50144 13.5 1814
36 37 14 15 36.50716 14.5 1763
36 37 15 16 36.50453 15.5 1748
36 37 16 17 36.5019 16.5 1736
36 37 17 18 36.50694 17.5 1760
36 37 18 19 36.50871 18.5 1699
36 37 19 20 36.49973 19.5 1706
37 38 -20 -19 37.49847 -19.5 1696
37 38 -19 -18 37.49929 -18.5 1694
37 38 -18 -17 37.4971 -17.5 1820
37 38 -17 -16 37.4997 -16.5 1770
37 38 -16 -15 37.50387 -15.5 1836
37 38 -15 -14 37.50063 -14.5 1820
37 38 -14 -13 37.49266 -13.5 1864
37 38 -13 -12 37.50075 -12.5 1904
37 38 -12 -11 37.49573 -11.5 1855
37 38 -11 -10 37.50734 -10.5 1870
37 38 -10 -9 37.49835 -9.5 1930
37 38 -9 -8 37.49359 -8.5 1967
37 38 -8 -7 37.49207 -7.5 1997
37 38 -7 -6 37.50568 -6.5 1954
37 38 -6 -5 37.51016 -5.5 2018
37 38 -5 -4 37.4965 -4.5 2103
37 38 -4 -3 37.49699 -3.5 2064
37 38 -3 -2 37.50432 -2.5 2152
37 38 -2 -1 37.5096 -1.5 2140
37 38 -1 0 37.48744 -0.5 2057
37 38 0 1 37.48744 0.5 2057
37 38 1 2 37.5096 1.5 2140
37 38 2 3 37.50432 2.5 2152
37 38 3 4 37.49699 3.5 2064
37 38 4 5 37.4965 4.5 2103
37 38 5 6 37.51016 5.5 2018
37 38 6 7 37.50568 6.5 1954
37 38 7 8 37.49207 7.5 1997
37 38 8 9 37.49359 8.5 1967
37 38 9 10 37.49835 9.5 1930
37 38 10 11 37.50734 10.5 1870
37 38 11 12 37.49573 11.5 1855
37 38 12 13 37.50075 12.5 1904
37 38 13 14 37.49266 13.5 1864
37 38 14 15 37.50063 14.5 1820
37 38 15 16 37.50387 15.5 1836
37 38 16 17 37.4997 16.5 1770
37 38 17 18 37.4971 17.5 1820
37 38 18 19 37.49929 18.5 1694
37 38 19 20 37.49847 19.5 1696
38 39 -20 -19 38.50239 -19.5 1815
38 39 -19 -18 38.49383 -18.5 1794
38 39 -18 -17 38.50449 -17.5 1753
38 39 -17 -16 38.50147 -16.5 1871
38 39 -16 -15 38.49005 -15.5 1851
38 39 -15 -14 38.4791 -14.5 1866
38 39 -14 -13 38.49183 -13.5 1874
38 39 -13 -12 38.49582 -12.5 1851
38 39 -12 -11 38.50671 -11.5 1899
38 39 -11 -10 38.49664 -10.5 1963
38 39 -10 -9 38.50139 -9.5 1936
38 39 -9 -8 38.50189 -8.5 2010
38 39 -8 -7 38.50051 -7.5 1952
38 39 -7 -6 38.49767 -6.5 1964
38 39 -6 -5 38.49878 -5.5 2050
38 39 -5 -4 38.49987 -4.5 2033
38 39 -4 -3 38.50077 -3.5 2087
38 39 -3 -2 38.50608 -2.5 2079
38 39 -2 -1 38.49463 -1.5 2117
38 39 -1 0 38.48757 -0.5 2153
38 39 0 1 38.48757 0.5 2153
38 39 1 2 38.49463 1.5 2117
38 39 2 3 38.50608 2.5 2079
38 39 3 4 38.50077 3.5 2087
38 39 4 5 38.49987 4.5 2033
38 39 5 6 38.49878 5.5 2050
38 39 6 7 38.49767 6.5 1964
38 39 7 8 38.50051 7.5 1952
38 39 8 9 38.50189 8.5 2010
38 39 9 10 38.50139 9.5 1936
38 39 10 11 38.49664 10.5 1963
38 39 11 12 38.50671 11.5 1899
38 39 12 13 38.49582 12.5 1851
38 39 13 14 38.49183 13.5 1874
38 39 14 15 38.4791 14.5 1866
38 39 15 16 38.49005 15.5 1851
38 39 16 17 38.50147 16.5 1871
38 39 17 18 38.50449 17.5 1753
38 39 18 19 38.49383 18.5 1794
38 39 19 20 38.50239 19.5 1815
39 40 -20 -19 39.51477 -19.5 1730
39 40 -19 -18 39.49734 -18.5 1780
39 40 -18 -17 39.50223 -17.5 1764
39 40 -17 -16 39.49891 -16.5 1886
39 40 -16 -15 39.5041 -15.5 1812
39 40 -15 -14 39.49902 -14.5 1795
39 40 -14 -13 39.49955 -13.5 1916
39 40 -13 -12 39.49862 -12.5 1933
39 40 -12 -11 39.50714 -11.5 1937
39 40 -11 -10 39.49149 -10.5 2062
39 40 -10 -9 39.50586 -9.5 1942
39 40 -9 -8 39.49158 -8.5 1976
39 40 -8 -7 39.4982 -7.5 2072
39 40 -7 -6 39.51477 -6.5 2090
39 40 -6 -5 39.51294 -5.5 2132
39 40 -5 -4 39.49602 -4.5 2030
39 40 -4 -3 39.49664 -3.5 2129
39 40 -3 -2 39.50845 -2.5 2163
39 40 -2 -1 39.50382 -1.5 2161
39 40 -1 0 39.49831 -0.5 2199
39 40 0 1 39.49831 0.5 2199
39 40 1 2 39.50382 1.5 2161
39 40 2 3 39.50845 2.5 2163
39 40 3 4 39.49664 3.5 2129
39 40 4 5 39.49602 4.5 2030
39 40 5 6 39.51294 5.5 2132
39 40 6 7 39.51477 6.5 2090
39 40 7 8 39.4982 7.5 2072
39 40 8 9 39.49158 8.5 1976
39 40 9 10 39.50586 9.5 1942
39 40 10 11 39.49149 10.5 2062
39 40 11 12 39.50714 11.5 1937
39 40 12 13 39.49862 12.5 1933
39 40 13 14 39.49955 13.5 1916
39 40 14 15 39.49902 14.5 1795
39 40 15 16 39.5041 15.5 1812
39 40 16 17 39.49891 16.5 1886
39 40 17 18 39.50223 17.5 1764
39 40 18 19 39.49734 18.5 1780
39 40 19 20 39.51477 19.5 1730
40 41 -20 -19 40.4969 -19.5 1749
40 41 -19 -18 40.49272 -18.5 1680
40 41 -18 -17 40.50852 -17.5 1859
40 41 -17 -16 40.51104 -16.5 1872
40 41 -16 -15 40.5169 -15.5 1811
40 41 -15 -14 40.49479 -14.5 1912
40 41 -14 -13 40.49251 -13.5 1867
40 41 -13 -12 40.49218 -12.5 1870
40 41 -12 -11 40.5082 -11.5 1920
40 41 -11 -10 40.49695 -10.5 1902
40 41 -10 -9 40.50013 -9.5 2014
40 41 -9 -8 40.50569 -8.5 1911
40 41 -8 -7 40.5031 -7.5 2053
40 41 -7 -6 40.51089 -6.5 2099
40 41 -6 -5 40.50477 -5.5 2104
40 41 -5 -4 40.49543 -4.5 2063
40 41 -4 -3 40.51329 -3.5 2148
40 41 -3 -2 40.50235 -2.5 2139
40 41 -2 -1 40.50091 -1.5 2181
40 41 -1 0 40.51393 -0.5 2147
40 41 0 1 40.51393 0.5 2147
40 41 1 2 40.50091 1.5 2181
40 41 2 3 40.50235 2.5 2139
40 41 3 4 40.51329 3.5 2148
40 41 4 5 40.49543 4.5 2063
40 41 5 6 40.50477 5.5 2104
40 41 6 7 40.51089 6.5 2099
40 41 7 8 40.5031 7.5 2053
40 41 8 9 40.50569 8.5 1911
40 41 9 10 40.50013 9.5 2014
40 41 10 11 40.49695 10.5 1902
40 41 11 12 40.5082 11.5 1920
40 41 12 13 40.49218 12.5 1870
40 41 13 14 40.49251 13.5 1867
40 41 14 15 40.49479 14.5 1912
40 41 15 16 40.5169 15.5 1811
40 41 16 17 40.51104 16.5 1872
40 41 17 18 40.50852 17.5 1859
40 41 18 19 40.49272 18.5 1680
40 41 19 20 40.4969 19.5 1749
